{"lstm.weight_ih_l0": [[0.11983482539653778, 0.32012873888015747, -0.3101857006549835, 0.20934326946735382, 0.2409636378288269, 0.197442889213562, 0.22563053667545319, 0.06735318899154663, 0.3120459318161011, 0.2320537120103836, 0.3271790146827698, 0.333342969417572, 0.11660877615213394, 0.21732701361179352, -0.040037862956523895, -0.07886994630098343, -0.017350507900118828], [0.02287706360220909, -0.3175395131111145, -0.2713207006454468, 0.1512896865606308, -0.03321681171655655, 0.3359556496143341, 0.1400209218263626, -0.19865882396697998, 0.10104961693286896, 0.06752163171768188, 0.2403588742017746, 0.19479654729366302, 0.013793328776955605, -0.29757198691368103, -0.17000019550323486, 0.168738454580307, -0.03885932266712189], [0.11495451629161835, -0.11778396368026733, 0.018512917682528496, -0.2745826542377472, 0.3327476382255554, -0.24982160329818726, -0.31039759516716003, 0.06505176424980164, 0.06357940286397934, 0.00901913084089756, -0.2800092399120331, -0.25019440054893494, 0.02547271177172661, -0.349496454000473, 0.0028243446722626686, -0.30801793932914734, 0.06034408509731293], [0.14077523350715637, -0.315976083278656, -0.07531093806028366, 0.02175038680434227, 0.24700792133808136, 0.25847476720809937, -0.3097895681858063, 0.28299495577812195, 0.2920006215572357, -0.2752820551395416, 0.0935906171798706, 0.23620210587978363, -0.30777689814567566, -0.04666625335812569, -0.34442687034606934, -0.21770022809505463, -0.21003161370754242], [0.08638004213571548, -0.062101054936647415, 0.3201921582221985, 0.28606194257736206, -0.22382764518260956, 0.12036480009555817, 0.2613433301448822, -0.25788623094558716, -0.12449649721384048, 0.13479836285114288, 0.280108243227005, -0.12263720482587814, -0.18422360718250275, -0.29947999119758606, -0.03325739502906799, -0.12480079382658005, 0.3461761474609375], [0.01426603365689516, -0.12303739786148071, -0.03521563112735748, -0.22282561659812927, 0.192368745803833, 0.071331687271595, -0.052218470722436905, 0.03574705868959427, 0.14595428109169006, 0.22553540766239166, -0.14816749095916748, 0.18515852093696594, 0.2568120062351227, 0.32077157497406006, -0.22980408370494843, -0.2742729187011719, 0.24309180676937103], [-0.08069389313459396, -0.1427520513534546, -0.22320514917373657, 0.24824000895023346, -0.16271153092384338, -0.05817200616002083, -0.08007664978504181, 0.3291262090206146, -0.3431670069694519, 0.1015678346157074, 0.08805976808071136, 0.16336914896965027, 0.27748021483421326, -0.2792164981365204, -0.0775756984949112, 0.1361686736345291, -0.34439581632614136], [0.19565388560295105, -0.1289544403553009, 0.04290173947811127, -0.2699921131134033, 0.14094267785549164, 0.14844799041748047, -0.14393068850040436, -0.052921269088983536, -0.01979721710085869, -0.08576247096061707, -0.09468428790569305, 0.27794837951660156, -0.2577257454395294, -0.11824542284011841, -0.24125723540782928, -0.1650816947221756, -0.3145131468772888], [-0.07876310497522354, 0.0792882964015007, -0.2147417664527893, -0.11535423994064331, -0.14775605499744415, -0.01726912334561348, 0.3273119628429413, -0.2821539640426636, -0.20240972936153412, 0.08128061890602112, 0.0046706292778253555, -0.1351093053817749, -0.3456707298755646, -0.35134759545326233, -0.3497164249420166, 0.11345619708299637, -0.2673597037792206], [0.36239513754844666, 0.3059384524822235, 0.18353232741355896, -0.17290332913398743, -0.15354159474372864, 0.2918284237384796, -0.08641365170478821, 0.006313852965831757, -0.08169788867235184, 0.07111901789903641, -0.22949297726154327, 0.07270634919404984, 0.34237396717071533, 0.2854653298854828, -0.2624884247779846, 0.16386854648590088, -0.1800670623779297], [-0.27932366728782654, 0.33546245098114014, 0.20736084878444672, 0.05409088358283043, 0.08460932970046997, 0.21901912987232208, 0.33789077401161194, -0.1347694844007492, 0.2384360134601593, 0.12383422255516052, -0.1850558966398239, 0.33802464604377747, 0.3416202962398529, 0.32058054208755493, -0.2670319378376007, 0.14540527760982513, 0.07751989364624023], [-0.22612027823925018, 0.08586889505386353, -0.174028679728508, -0.056526005268096924, -0.021111736074090004, 0.12187414616346359, 0.043675556778907776, 0.34896552562713623, 0.29223617911338806, -0.11015112698078156, -0.03908972442150116, 0.15569297969341278, -0.320162296295166, 0.07416749745607376, 0.199897900223732, -0.22725361585617065, -0.0800909772515297], [0.08546630293130875, 0.18710491061210632, -0.07441560924053192, -0.29754212498664856, -0.2866862416267395, -0.1578405350446701, -0.14888572692871094, -0.20440874993801117, -0.11734572052955627, 0.12292798608541489, -0.1821177452802658, 0.033842191100120544, -0.09411606192588806, -0.13554982841014862, -0.19562594592571259, 0.27392083406448364, 0.115635946393013], [0.1424846202135086, 0.15183186531066895, 0.20413391292095184, 0.14454619586467743, -0.18499988317489624, 0.042945656925439835, -0.04295969009399414, 0.3504656255245209, 0.17069903016090393, -0.27707695960998535, -0.11741315573453903, -0.01697085052728653, -0.15058718621730804, -0.058933135122060776, 0.19150887429714203, 0.0209371205419302, 0.2235395461320877], [0.20080262422561646, -0.11883076280355453, -0.34018123149871826, 0.027013011276721954, -0.1443548947572708, 0.29404786229133606, 0.3430408537387848, -0.14591339230537415, -0.013621103018522263, 0.31659752130508423, 0.33073338866233826, 0.30076318979263306, 0.31337791681289673, 0.05545914173126221, 0.13718625903129578, -0.11738499999046326, 0.16594605147838593], [0.0047164009883999825, -0.3308979272842407, -0.014495902694761753, 0.08441048115491867, -0.018433135002851486, 0.023482833057641983, -0.18004758656024933, 0.033284589648246765, -0.03006671741604805, -0.31754329800605774, 0.13934257626533508, 0.3502868413925171, 0.13454967737197876, -0.30448660254478455, -0.07264287024736404, -0.005501933861523867, -0.23779377341270447], [0.34700584411621094, 0.34720468521118164, 0.00891768280416727, 0.08289602398872375, -0.17910884320735931, 0.019580624997615814, 0.34339404106140137, 0.280256986618042, 0.2281002551317215, -0.026040852069854736, 0.2179126888513565, -0.12718620896339417, -0.31642815470695496, 0.27059510350227356, 0.29829084873199463, 0.3095654249191284, 0.1728590577840805], [0.022351400926709175, -0.27840301394462585, 0.01348732877522707, 0.06573019921779633, -0.32535386085510254, -0.017983553931117058, 0.0994759202003479, 0.13665740191936493, 0.13570959866046906, 0.3133160471916199, 0.20776398479938507, -0.0907621830701828, -0.12023336440324783, -0.3184991776943207, -0.3177025616168976, 0.08338601887226105, 0.2258334755897522], [-0.0340779609978199, 0.19187499582767487, -0.032386522740125656, -0.002357188845053315, 0.2356402426958084, -0.08684825897216797, 0.16753068566322327, 0.013873351737856865, 0.27524685859680176, 0.14533628523349762, -0.13879846036434174, -0.06028499826788902, -0.1437245011329651, 0.3311516046524048, -0.22782769799232483, -0.003227057633921504, 0.091266930103302], [-0.14235691726207733, 0.3447900712490082, -0.27805355191230774, 0.07625485956668854, 0.31931620836257935, 0.24707388877868652, 0.34223514795303345, -0.2744734287261963, -0.22681574523448944, -0.2842062711715698, 0.1946830302476883, 0.032482489943504333, 0.003694508457556367, 0.017591968178749084, -0.054782684892416, -0.34393906593322754, 0.21109610795974731], [-0.12399521470069885, -0.11668594181537628, -0.09623896330595016, 0.3191104531288147, 0.18829797208309174, -0.10314692556858063, -0.10996054857969284, -0.05100972577929497, -0.14259688556194305, 0.2825251519680023, -0.2519507110118866, -0.301624596118927, 0.09173984080553055, -0.04870019108057022, 0.21188335120677948, 0.08445994555950165, -0.16119493544101715], [0.1463720053434372, -0.2557896375656128, 0.1421898454427719, 0.02407006546854973, 0.0003651602892205119, 0.13404956459999084, -0.31878161430358887, 0.11577540636062622, 0.13870932161808014, 0.1186884343624115, 0.2764785587787628, -0.0541938915848732, -0.2893798351287842, -0.2735530138015747, 0.15222430229187012, -0.015046761371195316, 0.17081624269485474], [0.31898579001426697, -0.2769174873828888, 0.19693005084991455, -0.2125682234764099, 0.023208625614643097, 0.016411688178777695, 0.0008160051074810326, -0.28361478447914124, 0.2857227027416229, 0.16458462178707123, 0.1525370329618454, 0.2089279145002365, -0.12941977381706238, 0.3371453285217285, -0.07994852215051651, -0.2721564769744873, 0.020220540463924408], [-0.3354968726634979, -0.0851229801774025, 0.06742960214614868, 0.10210832208395004, -0.2149723619222641, 0.18272432684898376, 0.1582133173942566, -0.05300518125295639, -0.1519632339477539, 0.08479486405849457, -0.3047724664211273, 0.005722909700125456, -0.14383403956890106, -0.28886595368385315, 0.09552578628063202, 0.10548660904169083, -0.017378661781549454], [0.32758790254592896, -0.16972877085208893, 0.19813671708106995, 0.10801760852336884, 0.10690594464540482, 0.08144684135913849, -0.263739675283432, 0.34489166736602783, 0.2703193128108978, 0.05780714005231857, 0.22853133082389832, 0.3502957224845886, 0.3211870491504669, 0.34999221563339233, -0.3317842483520508, 0.2140987366437912, -0.11837039142847061], [0.16735902428627014, -0.3001294732093811, 0.2930457293987274, -0.0414973646402359, -0.24401529133319855, -0.2098620980978012, -0.22193396091461182, -0.12349831312894821, 0.08170322328805923, -0.14893803000450134, -0.05916675552725792, 0.3068868815898895, 0.28969842195510864, -0.19767238199710846, -0.011932320892810822, 0.18141794204711914, -0.2899283766746521], [-0.17907015979290009, 0.33910852670669556, 0.19017694890499115, -0.022414200007915497, 0.2354905754327774, -0.23084215819835663, -0.231871098279953, -0.28275346755981445, -0.2864650785923004, -0.10972851514816284, -0.19592227041721344, -0.03423537686467171, 0.25209495425224304, -0.2761942744255066, 0.25149694085121155, 0.29766157269477844, -0.34672874212265015], [-0.1193602979183197, 0.02157134748995304, 0.30250394344329834, 0.13863316178321838, 0.12543757259845734, 0.28662651777267456, -0.34585222601890564, -0.2749244272708893, -0.1715940237045288, 0.05961170047521591, -0.2442304939031601, -0.18319834768772125, 0.3248863220214844, 0.09733199328184128, 0.24209676682949066, 0.09637349098920822, -0.2781144976615906], [0.11424564570188522, 0.1987968236207962, -0.16277091205120087, 0.18268387019634247, 0.30290812253952026, 0.17509663105010986, 0.08723445236682892, 0.3251963257789612, 0.16697640717029572, -0.3226384222507477, -0.0840492844581604, 0.18855686485767365, 0.33250972628593445, -0.25696030259132385, 0.24433770775794983, -0.16883988678455353, 0.009836568497121334], [-0.3274513781070709, 0.08356425911188126, -0.35118889808654785, -0.22537365555763245, 0.20407570898532867, -0.2882296144962311, 0.07493380457162857, 0.017939595505595207, 0.022878658026456833, -0.11235970258712769, -0.21022796630859375, -0.32903432846069336, 0.25887688994407654, -0.1571296900510788, -0.02011660672724247, -0.25161677598953247, -0.19451192021369934], [-0.04947597533464432, 0.2614020109176636, 0.3415125012397766, -0.012536495923995972, -0.03008749708533287, -0.27123814821243286, 0.2570842206478119, -0.07447512447834015, 0.20653751492500305, -0.17169256508350372, -0.1173347607254982, -0.027223702520132065, 0.25121012330055237, -0.25683316588401794, -0.3492353856563568, 0.059465620666742325, -0.018427401781082153], [0.042242731899023056, -0.2873060405254364, 0.02179775945842266, -0.08669336885213852, 0.14843837916851044, 0.010492837056517601, -0.0985439270734787, 0.3056248724460602, 0.13351678848266602, -0.00482454989105463, 0.24878500401973724, -0.19123436510562897, -0.11676152050495148, 0.03286164253950119, -0.19124789535999298, -0.19125042855739594, -0.1781349629163742]], "lstm.weight_hh_l0": [[0.0028513185679912567, -0.150823175907135, 0.22595220804214478, -0.1274438500404358, -0.199037566781044, 0.3091214597225189, -0.05292535573244095, -0.15682463347911835], [-0.24774084985256195, 0.35130223631858826, 0.3048084080219269, 0.06437193602323532, -0.048863254487514496, -0.19061417877674103, -0.258687287569046, 0.04859619960188866], [0.162430077791214, -0.33556175231933594, -0.12905314564704895, -0.09030164778232574, 0.2934582531452179, 0.03007742390036583, -0.2774987518787384, -0.20793893933296204], [0.20071710646152496, 0.04970162734389305, -0.2164011299610138, -0.09339665621519089, -0.2554043233394623, 0.261162132024765, -0.08674740046262741, 0.11449140310287476], [0.2197113037109375, -0.0912722572684288, 0.16780249774456024, -0.12191350758075714, -0.35097235441207886, -0.04248562455177307, -0.17164190113544464, -0.31067854166030884], [-0.026234768331050873, 0.22082841396331787, -0.21861059963703156, 0.25415530800819397, 0.342801034450531, 0.128508061170578, -0.21696262061595917, 0.32912009954452515], [0.26163074374198914, -0.1448451429605484, -0.018739458173513412, -0.15851788222789764, 0.08838801085948944, 0.21484369039535522, 0.09439616650342941, -0.14270392060279846], [-0.18534620106220245, -0.08837760239839554, -0.3496023714542389, 0.2596955895423889, 0.2671312689781189, 0.23955117166042328, -0.0655423104763031, -0.0757274329662323], [-0.1821029931306839, 0.010232706554234028, -0.12191367894411087, 0.12734489142894745, 0.25087547302246094, 0.10261480510234833, 0.14400890469551086, -0.008392701856791973], [0.16470611095428467, 0.12938933074474335, 0.02459854446351528, 0.13079047203063965, -0.33146095275878906, -0.008878528140485287, 0.23972764611244202, -0.035590190440416336], [-0.16409419476985931, 0.22146432101726532, -0.1649019867181778, 0.20982559025287628, -0.34190264344215393, 0.16276445984840393, -0.020719390362501144, 0.13275030255317688], [-0.22509194910526276, 0.017722412943840027, 0.2365420162677765, 0.03623385727405548, 0.21079358458518982, -0.2627337872982025, -0.09952712804079056, -0.13799501955509186], [0.042492032051086426, -0.1608884632587433, -0.1824861615896225, -0.26107558608055115, 0.15996305644512177, -0.17911040782928467, 0.34948545694351196, -0.10984458774328232], [-0.1203026995062828, -0.2769642472267151, 0.2862064242362976, -0.17007328569889069, -0.07102460414171219, -0.12100578844547272, 0.0192831102758646, 0.0482487827539444], [0.13759467005729675, -0.25885623693466187, -0.06282371282577515, 0.16450193524360657, -0.02928510494530201, 0.16127946972846985, 0.07009522616863251, 0.33923664689064026], [0.3236793279647827, 0.234784796833992, -0.22052305936813354, 0.1962462216615677, 0.3246857523918152, 0.047616370022296906, -0.05085046589374542, 0.036982256919145584], [-0.16165697574615479, -0.13297078013420105, 0.24925978481769562, 0.3377855718135834, 0.30988407135009766, 0.14568693935871124, 0.03377500921487808, 0.31431376934051514], [-0.32837918400764465, 0.24753417074680328, -0.332302987575531, -0.009486791677772999, 0.008715841919183731, 0.2662869095802307, 0.057891182601451874, -0.21568405628204346], [0.35019272565841675, -0.25397947430610657, 0.2900007963180542, -0.14101505279541016, 0.08317558467388153, 0.03959982842206955, -0.11307181417942047, -0.03901242837309837], [0.2996632158756256, 0.33733421564102173, -0.17582446336746216, 0.24307650327682495, -0.04342440143227577, 0.3218660056591034, 0.18753138184547424, -0.032014280557632446], [-0.00030640303157269955, 0.2291712909936905, 0.2861103415489197, -0.023794887587428093, 0.3288540244102478, 0.10749498754739761, -0.2055678814649582, 0.19203881919384003], [-0.23337489366531372, 0.2551192045211792, -0.009075016714632511, -0.22747421264648438, 0.12641702592372894, -0.3403777778148651, 0.3115115165710449, 0.2878273129463196], [0.254189670085907, 0.32426759600639343, -0.2893834114074707, 0.24750415980815887, -0.29327499866485596, -0.11222454160451889, 0.2675360441207886, -0.020345084369182587], [-0.022581564262509346, 0.12408668547868729, -0.3236818015575409, 0.16344837844371796, 0.2912057936191559, 0.2623041868209839, 0.0014163026353344321, -0.35033464431762695], [-0.2432357370853424, -0.2295493483543396, -0.16652324795722961, -0.24775412678718567, 0.30989372730255127, 0.16582976281642914, -0.17971032857894897, 0.11771412193775177], [0.14803047478199005, 0.23788389563560486, 0.1820528507232666, 0.06667210161685944, -0.1716717779636383, -0.27338656783103943, -0.13364402949810028, -0.13953733444213867], [-0.17691197991371155, 0.10314791649580002, -0.18568232655525208, 0.32525160908699036, 0.03737160935997963, 0.12308725714683533, -0.3406270742416382, -0.12355651706457138], [0.1724366992712021, 0.06353304535150528, 0.017563434317708015, -0.19559399783611298, -0.16788315773010254, 0.28038182854652405, -0.048315756022930145, -0.2546031177043915], [0.33728620409965515, -0.3321166932582855, -0.11611292511224747, -0.31107017397880554, -0.030282551422715187, 0.03414054960012436, 0.16063441336154938, 0.25766521692276], [-0.1823427677154541, 0.06285548955202103, 0.0326152965426445, -0.02458278089761734, 0.10804399102926254, -0.10379445552825928, -0.15120047330856323, -0.021151479333639145], [0.24735403060913086, 0.00023050111485645175, -0.3019830584526062, -0.23057305812835693, -0.2500467896461487, 0.022237224504351616, 0.11946704983711243, 0.07081563770771027], [-0.1287996768951416, -0.016307752579450607, 0.1217866912484169, 0.26668697595596313, 0.12838077545166016, -0.34796714782714844, 0.33337870240211487, 0.07028686255216599]], "lstm.bias_ih_l0": [-0.07788024842739105, -0.2694803476333618, 0.0625838115811348, -0.0011036574142053723, -0.08809345960617065, 0.019801011309027672, -0.26511403918266296, 0.19870953261852264, 0.0005530088092200458, 0.20668034255504608, 0.0217734407633543, 0.1310892105102539, -0.15601354837417603, 0.30729785561561584, 0.21730045974254608, 0.17354094982147217, -0.13873089849948883, 0.26194527745246887, 0.2366824895143509, -0.32326367497444153, 0.09176225960254669, 0.22833152115345, 0.11319062858819962, 0.16429132223129272, 0.02836630307137966, 0.3144610822200775, -0.1747589111328125, -0.14239759743213654, 0.06409747153520584, 0.04064696654677391, 0.07920315861701965, -0.22701725363731384], "lstm.bias_hh_l0": [0.033241260796785355, -0.34729698300361633, -0.3286966383457184, 0.0022041958291083574, -0.11466106027364731, 0.28213372826576233, 0.3132953941822052, -0.2880256175994873, 0.22459359467029572, -0.06413283199071884, -0.2837149202823639, -0.28061771392822266, 0.16374750435352325, -0.034609053283929825, -0.22468307614326477, 0.22862060368061066, 0.01709509827196598, 0.2789633274078369, 0.07798241823911667, 0.16867442429065704, -0.26270896196365356, -0.0039273276925086975, -0.13093870878219604, 0.2635323405265808, -0.3030693829059601, -0.03289860859513283, -0.1675264686346054, 0.02129465341567993, 0.1619488000869751, 0.24689534306526184, 0.33267462253570557, 0.001254205941222608], "fc.weight": [[0.36511698365211487, 0.618634045124054, -0.28966811299324036, 0.18409793078899384, 0.028169410303235054, -0.2905251681804657, 0.19964316487312317, -0.16206984221935272]], "fc.bias": [0.394528329372406]}