{"lstm.weight_ih_l0": [[-0.15899839997291565, 0.17025408148765564, -0.02721565216779709, 0.032832901924848557, -0.006241336930543184, -0.13159190118312836, -0.11698005348443985, -0.16854317486286163, -0.17665688693523407, -0.09737885743379593, 0.1615544706583023, -0.04576454311609268, 0.12076374143362045, -0.08106257021427155, -0.07201638072729111, -0.0600128136575222, 0.1327091008424759], [-0.047363825142383575, 0.17014162242412567, 0.12702623009681702, 0.0202596727758646, -0.07146389782428741, -0.09385441243648529, 0.16823969781398773, 0.16655950248241425, 0.16175317764282227, 0.03979945927858353, -0.12854036688804626, -0.05389799922704697, -0.09379732608795166, -0.16574250161647797, -0.03583809733390808, -0.019762467592954636, -0.14700579643249512], [0.25644350051879883, -0.16602924466133118, 0.032682567834854126, 0.18619243800640106, -0.04329289495944977, 0.15296880900859833, -0.16379858553409576, 0.12400899827480316, -0.07680225372314453, 0.0632207915186882, 0.05464012548327446, 0.09197945147752762, 0.06714587658643723, -0.020440755411982536, 0.04908578470349312, -0.11073213070631027, -0.04058889299631119], [-0.13451680541038513, 0.11649523675441742, 0.009835785254836082, -0.08113899827003479, -0.06704019010066986, -0.028014369308948517, -0.06520634889602661, -0.16343946754932404, -0.018611764535307884, 0.12595310807228088, 0.0745043233036995, 0.1724400818347931, 0.14171965420246124, 0.06911826133728027, 0.10358565300703049, 0.003160161664709449, 0.05213893577456474], [0.12784384191036224, -0.14468562602996826, 0.13660699129104614, -0.12809811532497406, -0.13221020996570587, 0.11572413891553879, 0.08118399232625961, 0.11081641167402267, 0.12576840817928314, -0.07101115584373474, -0.05379701778292656, 0.07621067017316818, -0.11733760684728622, -0.07383004575967789, -0.06709852069616318, 0.13362254202365875, -0.1035533919930458], [-0.16232573986053467, -0.03928067162632942, 0.018805628642439842, -0.13828009366989136, -0.1445561796426773, 0.03168688341975212, 0.10525829344987869, 0.14691171050071716, -0.14801140129566193, 0.14341603219509125, 0.03551265969872475, -0.08130331337451935, -0.058109164237976074, 0.052415210753679276, -0.12247463315725327, -0.15694943070411682, -0.10278785973787308], [-0.08545264601707458, -0.03542054817080498, -0.02682056836783886, -0.0847814604640007, 0.0743500143289566, -0.041018955409526825, -0.16084353625774384, 0.12894809246063232, 0.0705791711807251, 0.02638930082321167, -0.09213773161172867, -0.12961445748806, -0.06301523000001907, 0.011925513856112957, 0.06651341915130615, -0.08834803104400635, 0.1268613636493683], [0.02413417026400566, 0.1156037449836731, 0.13746480643749237, -0.04110274463891983, 0.17425468564033508, -0.12894850969314575, 0.1260191947221756, 0.042465709149837494, 0.07112670689821243, -0.06834648549556732, 0.08478890359401703, -0.12055575102567673, -0.05209101736545563, 0.05950247868895531, -0.16767990589141846, 0.08552666008472443, 0.04026448354125023], [0.0645052045583725, -0.06114782765507698, 0.15585125982761383, 0.11488465964794159, -0.07971896976232529, -0.13351377844810486, 0.13741286098957062, 0.06462639570236206, 0.17071078717708588, 0.17074251174926758, -0.1130003109574318, 0.052206795662641525, -0.019644519314169884, 0.1261603683233261, -0.04310356080532074, -0.12323451787233353, 0.025805208832025528], [0.13973885774612427, -0.06644050031900406, 0.1113680750131607, 0.16223646700382233, 0.12433358281850815, -0.029914526268839836, -0.032412633299827576, -0.057128723710775375, 0.06029462814331055, -0.058026496320962906, 0.17318904399871826, -0.09899120777845383, -0.14695590734481812, -0.16691690683364868, 0.12319879978895187, 0.11001183092594147, 0.12612587213516235], [0.1534690111875534, -0.17126646637916565, -0.15728411078453064, -0.015646202489733696, 0.16239874064922333, 0.17466983199119568, -0.0845041275024414, -0.06460855901241302, -0.05885836109519005, 0.13363882899284363, -0.15629687905311584, 0.09072376042604446, 0.1371057778596878, -0.1464165449142456, -0.12055183202028275, 0.02423923648893833, 0.08639492839574814], [0.00595024973154068, 0.04092054441571236, -0.052760012447834015, -0.1433948278427124, -0.1258906126022339, 0.11005561798810959, -0.056098636239767075, 0.021103812381625175, 0.15288741886615753, 0.08935540914535522, -0.04872586578130722, 0.10444045811891556, 0.15645524859428406, 0.16428618133068085, -0.17621076107025146, -0.16491758823394775, -0.11233055591583252], [0.018269309774041176, -0.06268690526485443, -0.1467496156692505, 0.08337219804525375, -0.04073244333267212, 0.02155933529138565, 0.05935422703623772, 0.14877039194107056, -0.16525398194789886, 0.14095884561538696, -0.09975189715623856, -0.09115581214427948, 0.05242420732975006, 0.12025164067745209, 0.05885227769613266, -0.04232087358832359, 0.00834090355783701], [0.1574464589357376, -0.01548458356410265, -0.1415458619594574, -0.1304585337638855, -0.022172655910253525, 0.15166202187538147, -0.15040193498134613, 0.06855389475822449, 0.16274555027484894, 0.13665400445461273, -0.14434100687503815, -0.16679900884628296, 0.11838183552026749, -0.14714644849300385, -0.10112196207046509, 0.08571965247392654, 0.04181131720542908], [0.027849752455949783, 0.05023497715592384, 0.07204487174749374, -0.15032772719860077, -0.1427520215511322, 0.06156836822628975, 0.03967105597257614, -0.007763154339045286, 0.07673634588718414, -0.13758057355880737, 0.051364678889513016, 0.07411209493875504, 0.024662144482135773, -0.09041818231344223, -0.12628710269927979, 0.09436921775341034, 0.09496327489614487], [-0.10729573667049408, -0.1112658679485321, 0.13120315968990326, -0.031956013292074203, 0.015699785202741623, -0.003991095814853907, -0.010795598849654198, 0.09649145603179932, -0.07533112913370132, 0.12940041720867157, 0.07606751471757889, 0.13159964978694916, -0.002483207965269685, 0.05410845950245857, -0.06288252770900726, 0.160724937915802, -0.09665905684232712], [0.06157896667718887, -0.06625956296920776, 0.09577883780002594, 0.13146419823169708, 0.13051557540893555, 0.077962227165699, -0.0933503583073616, -0.027458734810352325, 0.12502489984035492, 0.039320290088653564, 0.13328814506530762, -0.03767114877700806, 0.14721477031707764, -0.04853363335132599, 0.04979323595762253, -0.09255140274763107, -0.08706295490264893], [-0.15547001361846924, -0.04031830653548241, 0.09630583971738815, -0.1756405383348465, 0.09213745594024658, -0.08840292692184448, -0.009864680469036102, 0.030168166384100914, 0.13965216279029846, 0.0011918285163119435, 0.06301657855510712, -0.10480911284685135, 0.09421900659799576, 0.1445535123348236, 0.003083884948864579, -0.08473874628543854, 0.06531964987516403], [-0.026455365121364594, -0.17031612992286682, -0.08352072536945343, 0.15676680207252502, -0.10330885648727417, 0.05911516770720482, -0.03986358270049095, 0.143864244222641, 0.032634008675813675, -0.10608452558517456, 0.026295164600014687, 0.04264209419488907, 0.06467745453119278, 0.12630002200603485, 0.039714448153972626, 0.03956963121891022, 0.08362581580877304], [-0.328327476978302, 0.28201350569725037, -0.1300375610589981, -0.06868845969438553, 0.13193251192569733, 0.1744895577430725, 0.034583818167448044, 0.027326976880431175, -0.06320726871490479, -0.02233046293258667, 0.007750055752694607, -0.15989036858081818, -0.009797601029276848, -0.030613161623477936, 0.22181588411331177, -0.04116882383823395, -0.15133774280548096], [0.12031751126050949, 0.15343256294727325, -0.15810227394104004, 0.12857013940811157, -0.16972993314266205, -0.024103529751300812, 0.002921830164268613, -0.018066056072711945, -0.11416546255350113, 0.03003847971558571, 0.01740892417728901, -0.013833923265337944, -0.04725576192140579, -0.03496481478214264, 0.01746310293674469, 0.1620347946882248, -0.015039407648146152], [-0.15307781100273132, 0.09930745512247086, -0.13312749564647675, -0.15618669986724854, 0.011039123870432377, 0.09697399288415909, -0.12076391279697418, 0.0722878947854042, -0.13920199871063232, -0.06786405295133591, -0.07736125588417053, 0.13997460901737213, -0.09671001136302948, -0.163164421916008, -0.16826170682907104, -0.1484733372926712, 0.14497824013233185], [-0.12488815188407898, -0.1520257294178009, 0.17553409934043884, 0.002512226114049554, 0.06258849054574966, 0.15214967727661133, -0.0929969772696495, 0.14662915468215942, 0.13041363656520844, -0.018521642312407494, -0.006965293549001217, -0.052003163844347, -0.16406182944774628, -0.04564783722162247, -0.06848745048046112, -0.15890374779701233, 0.15940140187740326], [0.13531383872032166, 0.12427990883588791, -0.04646614193916321, 0.14650237560272217, -0.1517283320426941, -0.13818767666816711, 0.05567977949976921, -0.1733293980360031, -0.15632672607898712, 0.07463996112346649, -0.12095742672681808, 0.11186190694570541, -0.0854128822684288, 0.09852968156337738, -0.1224295124411583, 0.11063922941684723, -0.1598534882068634], [0.07061932235956192, 0.05851457640528679, -0.16702494025230408, 0.14106327295303345, 0.09671454131603241, 0.06158054992556572, -0.09750902652740479, -0.07909125834703445, 0.07126148790121078, -0.1539934277534485, 0.1515076607465744, 0.12694063782691956, -0.013263591565191746, -0.08588994294404984, 0.08383939415216446, 0.039043597877025604, 0.051030371338129044], [0.12547335028648376, -0.06423917412757874, -0.15521153807640076, 0.03988111764192581, 0.15560448169708252, 0.060713671147823334, -0.12091077119112015, 0.14132367074489594, 0.13171467185020447, -0.09879440069198608, -0.17094041407108307, 0.02431938424706459, -0.12674908339977264, 0.057602960616350174, 0.06262461096048355, -0.08945208787918091, 0.07909810543060303], [-0.018851926550269127, 0.1308542937040329, 0.16365261375904083, -0.1547955721616745, -0.16512058675289154, 0.078616201877594, -0.05106457322835922, 0.049814771860837936, 0.047832246869802475, 0.16147294640541077, -0.1564064621925354, -0.10650946944952011, 0.05551515519618988, -0.16746821999549866, 0.015376202762126923, -0.034153759479522705, 0.030291635543107986], [0.1119890883564949, 0.09878207743167877, 0.06799428910017014, -0.1212315484881401, -0.002436270471662283, 0.13396048545837402, 0.107403464615345, -0.14944018423557281, 0.01386887114495039, 0.07730448246002197, -0.14284546673297882, 0.15069696307182312, -0.07447843253612518, -0.17373505234718323, -0.11841441690921783, -0.13784733414649963, 0.004307555500417948], [-0.006237775553017855, -0.161839097738266, 0.04274609312415123, 0.034173633903265, -0.06438539922237396, 0.006659138947725296, 0.08573661744594574, -0.14818242192268372, -0.16397273540496826, 0.0941978245973587, -0.1588575541973114, -0.014949655160307884, -0.00383110623806715, 0.10975005477666855, -0.1516932100057602, -0.044883716851472855, -0.1441677361726761], [0.07249333709478378, -0.11448784172534943, 0.09228720515966415, 0.06078550964593887, 0.07710631191730499, 0.024540992453694344, -0.16178029775619507, 0.0539574921131134, -0.06843838840723038, -0.09886297583580017, 0.13449415564537048, 0.04092983528971672, -0.1257709413766861, -0.1316699981689453, -0.17051628232002258, -0.1573382318019867, 0.05218171700835228], [-0.05383574962615967, -0.054027412086725235, 0.10324053466320038, -0.07942836731672287, -0.0015541018219664693, 0.008340376429259777, -0.17152149975299835, -0.1481940746307373, -0.1259598731994629, 0.1664828658103943, -0.03327997401356697, -0.0318300798535347, -0.10452740639448166, -0.026684369891881943, -0.12727804481983185, 0.07896330207586288, 0.02763935551047325], [0.08196177333593369, -0.1094089150428772, -0.14717663824558258, -0.13433188199996948, -0.10507048666477203, -0.17550936341285706, -0.127707377076149, 0.03727250173687935, 0.08885899931192398, -0.17155815660953522, 0.14521820843219757, -0.02644556574523449, 0.012153822928667068, -0.008215410634875298, -0.16229653358459473, 0.14796851575374603, -0.16851763427257538], [0.15114010870456696, 0.05184134095907211, 0.13549762964248657, -0.0413023941218853, 0.060045961290597916, 0.04920899495482445, 0.07489840686321259, -0.042588863521814346, -0.09470510482788086, 0.14426524937152863, 0.1441141963005066, 0.13258366286754608, 0.17529553174972534, 0.12482267618179321, 0.01171195600181818, 0.12125662714242935, -0.1574465036392212], [-0.010219794698059559, -0.14241573214530945, 0.08801654726266861, -0.10972515493631363, -0.10794942080974579, -0.15751701593399048, 0.090329110622406, 0.009442349895834923, -0.16002045571804047, 0.1641383022069931, -0.03443169593811035, 0.058443062007427216, 0.09092650562524796, -0.16830334067344666, -0.0443648025393486, 0.14384575188159943, 0.01712026819586754], [0.023690026253461838, 0.13156823813915253, 0.031228454783558846, 0.026248866692185402, -0.09884657710790634, 0.11218158900737762, -0.1382611095905304, -0.14242282509803772, -0.061739105731248856, 0.15521162748336792, -0.1631719172000885, 0.07035057246685028, -0.06051585450768471, -0.06162714213132858, -0.07532210648059845, 0.028840666636824608, -0.1754225343465805], [0.0952853262424469, -0.12918776273727417, -0.1664566695690155, 0.1080286055803299, 0.10773088037967682, -0.13289383053779602, 0.07629995793104172, 0.08560118079185486, -0.089578777551651, -0.04738190025091171, -0.05754103511571884, 0.15677371621131897, 0.08890397101640701, 0.07265391200780869, -0.06263796985149384, 0.03563380986452103, -0.08085353672504425], [-0.12780888378620148, -0.1106966957449913, 0.000824265880510211, 0.021464884281158447, 0.10368788242340088, 0.14439037442207336, 0.07492029666900635, 0.044158052653074265, -0.10616780072450638, -0.05195201560854912, -0.13188038766384125, -0.007383432239294052, 0.12582264840602875, 0.1617186963558197, 0.10193942487239838, -0.08351574838161469, 0.018875950947403908], [0.12861095368862152, 0.03950350359082222, -0.06922385841608047, 0.08896712958812714, -0.026729382574558258, -0.024361805990338326, 0.02462005987763405, 0.1213875561952591, 0.1438651829957962, -0.021475695073604584, -0.02315823920071125, 0.05468614771962166, 0.06930836290121078, -0.0365886464715004, -0.14778368175029755, -0.14781998097896576, 0.10953480750322342], [0.15651045739650726, 0.0840563252568245, -0.0318470224738121, -0.13493718206882477, -0.09393075853586197, -0.13264162838459015, 0.08946102857589722, 0.030197205021977425, 0.09817054867744446, 0.05962950736284256, 0.08708196133375168, -0.1120922788977623, -0.16969814896583557, 0.15016546845436096, -0.14443214237689972, -0.06668183207511902, -0.033763229846954346], [0.05149777978658676, 0.16918013989925385, -0.15507641434669495, -0.16511662304401398, -0.05904954671859741, -0.011027912609279156, -0.12146490067243576, -0.010293124243617058, 0.08807545155286789, -0.09710140526294708, -0.10043703764677048, 0.006563971284776926, -0.16757911443710327, 0.17319530248641968, -0.03557455167174339, 0.0766434296965599, -0.01044481061398983], [-0.15743137896060944, 0.02606101892888546, -0.09453415870666504, 0.02366459183394909, -0.06372205168008804, -0.024958057329058647, 0.08770670741796494, -0.10451710224151611, 0.0189969539642334, -0.027109695598483086, -0.14972802996635437, 0.03161696344614029, 0.05260895937681198, -0.1597473919391632, 0.12335099279880524, -0.021810973063111305, 0.1353457272052765], [-0.13390220701694489, 0.1339816302061081, 0.06527236104011536, -0.11920519173145294, 0.008831302635371685, -0.14670278131961823, -0.08481311053037643, 0.13059896230697632, 0.09612540900707245, 0.150098979473114, 0.04605969786643982, 0.014754262752830982, 0.0392288938164711, -0.07760404050350189, -0.003155070822685957, -0.03005112335085869, 0.04524335637688637], [-0.022028597071766853, 0.127754345536232, -0.09367973357439041, 0.11247216910123825, -0.15512940287590027, 0.0998886376619339, 0.17105905711650848, 0.054602041840553284, 0.06445268541574478, 0.07286752015352249, 0.13295084238052368, -0.12978480756282806, 0.030911508947610855, -0.06782469153404236, 0.03535275533795357, 0.17299582064151764, 0.06329052895307541], [0.0789216160774231, 0.17065151035785675, 0.06388100981712341, 0.04620913043618202, -0.04153226315975189, -0.1407027393579483, 0.0009978897869586945, 0.00023836149193812162, 0.144687220454216, 0.10541796684265137, 0.17455585300922394, -0.1190263032913208, -0.07009143382310867, 0.13109979033470154, 0.10817787051200867, 0.011948210187256336, -0.04944693297147751], [0.03127980977296829, 0.13839973509311676, -0.11368168145418167, -0.05445808917284012, -0.012846000492572784, 0.15579381585121155, 0.04954918473958969, 0.1170833557844162, -0.006551158614456654, 0.03378986567258835, -0.10118183493614197, -0.026925723999738693, -0.17285564541816711, -0.1565396934747696, -0.11546322703361511, 0.08237205445766449, -0.10011682659387589], [-0.04929672181606293, 0.012791378423571587, 0.004231796599924564, -0.05064959451556206, -0.11489321291446686, 0.13354232907295227, -0.13542985916137695, 0.07087388634681702, -0.027944203466176987, 0.13413773477077484, -0.10297989845275879, 0.016509026288986206, -0.1618642807006836, 0.034845560789108276, -0.021606897935271263, 0.038118135184049606, -0.04445480927824974], [0.11934667825698853, 0.03903277963399887, 0.11800436675548553, 0.01797935552895069, -0.17765289545059204, -0.021654406562447548, 0.04701175540685654, -0.0773286521434784, 0.03141866624355316, 0.1413983702659607, 0.04261025786399841, -0.03659560903906822, -0.047745175659656525, 0.046056538820266724, 0.08402766287326813, -0.17208728194236755, -0.12468396127223969], [0.15212437510490417, -0.14447884261608124, 0.15320414304733276, 0.06266030669212341, -0.16136790812015533, 0.15998536348342896, -0.06063428893685341, -0.06600392609834671, 0.06572451442480087, 0.12165211141109467, 0.12355559319257736, 0.09054049104452133, 0.022288180887699127, 0.09724494069814682, -0.07208377122879028, 0.16336731612682343, -0.12561756372451782], [0.00774189131334424, -0.10186462849378586, 0.04378107190132141, -0.04310391843318939, -0.011948125436902046, -0.07664261013269424, 0.04797891899943352, 0.06150772050023079, 0.13103044033050537, 0.12208997458219528, 0.1285334974527359, 0.020748134702444077, 0.17173784971237183, 0.16200050711631775, -0.006885509472340345, -0.17183949053287506, -0.07766053825616837], [-0.06285363435745239, 0.1760263890028, 0.14172282814979553, 0.12050521373748779, 0.09357797354459763, -0.06982927769422531, -0.058811500668525696, -0.05526572838425636, 0.033865559846162796, 0.09357799589633942, -0.05756380781531334, 0.061891108751297, -0.10973300784826279, -0.07877515256404877, 0.14529377222061157, -0.03993871062994003, 0.12801240384578705], [-0.07920870184898376, 0.004054252989590168, -0.011970105580985546, -0.14088740944862366, -0.14304600656032562, -0.09420564025640488, 0.05509602278470993, -0.1365586668252945, -0.10388464480638504, 0.011071576736867428, -0.11893195658922195, -0.047111913561820984, -0.11466406285762787, -0.05359930545091629, 0.05797659233212471, -0.1723865121603012, 0.15487973392009735], [-0.14414222538471222, -0.1758759766817093, 0.03579093515872955, 0.0054973396472632885, -0.1669931411743164, 0.15060189366340637, -0.12821030616760254, -0.11049360781908035, -0.05725624039769173, -0.12973512709140778, 0.09964825212955475, -0.12921525537967682, 0.10717003792524338, 0.07894407957792282, 0.13179247081279755, -0.15774096548557281, 0.059133946895599365], [0.021799361333251, -0.10955321043729782, 0.11464926600456238, -0.05543907731771469, 0.133492112159729, 0.12833110988140106, -0.03642501309514046, 0.07126875966787338, -0.08776358515024185, -0.10761944949626923, -0.09264227002859116, -0.13818387687206268, -0.09226617217063904, 0.13949289917945862, 0.030098959803581238, 0.009539011865854263, 0.08067631721496582], [-0.014327272772789001, 0.0964261069893837, -0.1548083871603012, 0.013947129249572754, 0.11028662323951721, -0.15252558887004852, -0.05884033069014549, 0.05731242150068283, 0.13948732614517212, 0.03629827871918678, 0.07289034128189087, 0.03416670113801956, -0.004544378723949194, 0.0660795345902443, -0.038044631481170654, -0.032352909445762634, 0.16011570394039154], [0.06050730124115944, 0.05172792077064514, -0.06641989201307297, -0.1660810261964798, -0.15984198451042175, 0.033111028373241425, -0.11209862679243088, -0.05753166973590851, -0.08751063793897629, -0.11972307413816452, -0.06742694973945618, 0.03659515827894211, 0.013671362772583961, -0.06486507505178452, 0.04624472185969353, -0.15980149805545807, -0.09657448530197144], [-0.11328815668821335, 0.05194632709026337, -0.0653752014040947, 0.13759967684745789, -0.17079095542430878, -0.11358379572629929, 0.0887991338968277, -0.028377894312143326, 0.09698177129030228, 0.059300992637872696, 0.12595674395561218, -0.03936239704489708, -0.16508431732654572, 0.06960058957338333, 0.09258200228214264, -0.03375271335244179, 0.16527646780014038], [-0.13540500402450562, 5.12084216097719e-06, 0.04817943274974823, 0.12215806543827057, -0.16042044758796692, -0.14757879078388214, 0.010287623852491379, -0.08452265709638596, -0.10802319645881653, -0.12098477780818939, 0.012269537895917892, 0.059604745358228683, 0.029644006863236427, -0.02092789113521576, -0.01573622040450573, 0.06872787326574326, -0.14391829073429108], [0.0789543017745018, 0.15990050137043, 0.15244236588478088, 0.012813632376492023, 0.05013403296470642, 0.08877095580101013, 0.04698117449879646, -0.17040567100048065, 0.10305821150541306, 0.1337355077266693, -0.07960668951272964, 0.042205095291137695, -0.1461486667394638, 0.12400040775537491, -0.11438719928264618, -0.013519170694053173, -0.04076196625828743], [-0.007788653019815683, -0.10647948086261749, -0.04785327985882759, 0.047349389642477036, 0.11412734538316727, -0.08945811539888382, 0.17009489238262177, 0.10562560707330704, 0.14758577942848206, 0.011276578530669212, 0.047660138458013535, 0.08029668033123016, -0.08101724088191986, 0.14934347569942474, -0.1355895698070526, 0.10845842212438583, 0.17464935779571533], [-0.1290530413389206, 0.07054904103279114, 0.0764312669634819, 0.013804715126752853, 0.08007056266069412, 0.1697482168674469, 0.046643178910017014, -0.12773087620735168, 0.0256945937871933, 0.0356108620762825, 0.14191094040870667, 0.16367191076278687, 0.10188745707273483, 0.0701078474521637, -0.1489848494529724, -0.12052270770072937, -0.15321816504001617], [0.10910879075527191, 0.16964305937290192, -0.17266525328159332, 0.11519618332386017, 0.015040756203234196, 0.07156188786029816, -0.15632759034633636, 0.03616071119904518, 0.1366640031337738, 0.06648901104927063, 0.023564577102661133, 0.08811087161302567, -0.016772717237472534, 0.042631011456251144, -0.1487795114517212, -0.1366380751132965, -0.09340502321720123], [0.11026656627655029, -0.10881911218166351, 0.06692828983068466, -0.08151070028543472, -0.0485602505505085, 0.1346837431192398, 0.046692006289958954, 0.008274058811366558, -0.08731731027364731, 0.10578998178243637, 0.10193276405334473, -0.05718964710831642, -0.04818139225244522, -0.08841563761234283, 0.1179233193397522, 0.07872319221496582, 0.08530166000127792], [-0.03005892038345337, -0.012548106722533703, -0.12463349848985672, -0.1767040342092514, -0.04573940113186836, -0.031918082386255264, 0.03941672295331955, 0.1484687626361847, -0.12890702486038208, -0.010617591440677643, 0.10076506435871124, -0.0455838181078434, 0.0835183635354042, -0.10692771524190903, -0.05924563482403755, 0.15332596004009247, -0.03712652623653412], [-0.1325991302728653, -0.1478576958179474, -0.023034263402223587, -0.1039494052529335, 0.16481423377990723, -0.0041880481876432896, 0.1444176286458969, -0.08982694149017334, 0.1199171394109726, -0.15710638463497162, -0.058526504784822464, 0.14040276408195496, -0.1473173052072525, 0.08791356533765793, 0.002180909737944603, 0.12642021477222443, -0.06189283728599548], [-0.12210790812969208, 0.09144885838031769, 0.1717783510684967, -0.04942809417843819, 0.03144711256027222, 0.06494177877902985, 0.15784186124801636, 0.14467856287956238, 0.12636308372020721, -0.014962615445256233, -0.10215363651514053, -0.0451345331966877, -0.009865080937743187, 0.009310386143624783, 0.029650665819644928, 0.12597963213920593, -0.1285734474658966], [-0.07309693098068237, 0.13974405825138092, 0.1036805808544159, -0.07237749546766281, -0.1362234205007553, 0.07614321261644363, 0.0361555814743042, -0.16197583079338074, 0.07806956022977829, -0.008952580392360687, -0.0569307915866375, 0.04867597296833992, -0.16971206665039062, 0.12761099636554718, 0.014730763621628284, 0.11480846256017685, -0.098573699593544], [-0.09493183344602585, -0.013835187070071697, 0.008455626666545868, 0.08707654476165771, -0.053005266934633255, -0.14694304764270782, 0.03692835196852684, 0.0201761182397604, -0.1472606658935547, 0.1455511450767517, -0.059508316218853, 0.10855047404766083, -0.062828429043293, 0.10861562937498093, 0.06584180891513824, 0.10903435945510864, 0.13574637472629547], [-0.07177239656448364, 0.061896566301584244, 0.027790915220975876, -0.17068152129650116, 0.12605811655521393, 0.15746401250362396, -0.03049425594508648, -0.1568082720041275, -0.09449068456888199, -0.11577262729406357, 0.018934492021799088, -0.06357619911432266, 0.05731332674622536, -0.15896035730838776, 0.17575931549072266, 0.023653190582990646, -0.13361771404743195], [-0.13395850360393524, 0.03560241311788559, -0.03038172423839569, -0.09623246639966965, -0.03233887627720833, 0.005575121846050024, 0.03098897635936737, 0.1356358677148819, -0.09333097189664841, 0.022618358954787254, 0.09155520051717758, 0.05118325725197792, 0.13346169888973236, 0.15505090355873108, 0.1676948517560959, 0.0041975099593400955, 0.026332443580031395], [-0.1635170429944992, -0.13972607254981995, 0.012294951826334, -0.10242046415805817, 0.00676494836807251, -0.012564459815621376, 0.130484938621521, 0.16832409799098969, -0.16683164238929749, 0.1273871213197708, -0.11841921508312225, 0.12528839707374573, 0.08862078934907913, 0.10700327903032303, 0.0078098950907588005, -0.16357412934303284, 0.1396593153476715], [0.11784300953149796, -0.09418442100286484, -0.07680413872003555, -0.16021829843521118, 0.05919937789440155, -0.06215937063097954, 0.029876867309212685, 0.13653799891471863, 0.15341491997241974, -0.08854875713586807, 0.15595604479312897, -0.007509156130254269, -0.11030495911836624, 0.09769991040229797, -0.08768396824598312, -0.13438794016838074, 0.0465974286198616], [0.16716189682483673, 0.0833396166563034, 0.08257436007261276, -0.12074515223503113, -0.1762920469045639, 0.11621451377868652, -0.0578119233250618, 0.12069228291511536, 0.15424785017967224, -0.02506171725690365, -0.1728074550628662, 0.10419737547636032, -0.13173902034759521, 0.16015422344207764, 0.1567857712507248, -0.10053485631942749, 0.1422325074672699], [0.1490224301815033, -0.1629766970872879, 0.11495538055896759, -0.1043604388833046, -0.06265109777450562, -0.08220256119966507, 0.11477366089820862, 0.05947320535778999, -0.05747458338737488, -0.07589970529079437, -0.012329365126788616, 0.12376215308904648, -0.11486160010099411, 0.0051705543883144855, 0.059606052935123444, -0.02738032117486, -0.07897134870290756], [0.15635211765766144, 0.061358772218227386, 0.05626009777188301, -0.15774041414260864, -0.06389737874269485, -0.08170004189014435, -0.1644926816225052, 0.1448676735162735, 0.0028171795420348644, 0.12363668531179428, 0.10455448925495148, -0.10816621780395508, -0.09238214045763016, -0.17133674025535583, 0.037717804312705994, 0.062208935618400574, 0.14266502857208252], [-0.17413492500782013, 0.06638545542955399, -0.08559959381818771, 0.16232812404632568, -0.03652188554406166, 0.13135503232479095, 0.13562710583209991, -0.030144985765218735, 0.07907534390687943, -0.1422439068555832, -0.16986069083213806, 0.027461642399430275, -0.13717563450336456, -0.10028106719255447, -0.10128624737262726, -0.08778499066829681, 0.12242913246154785], [-0.08058387041091919, 0.05161983519792557, -0.034707002341747284, -0.09367723017930984, 0.041904523968696594, 0.013632229529321194, 0.061774253845214844, 0.06862235814332962, -0.03684770315885544, 0.013942661695182323, 0.1514149308204651, -0.08591708540916443, 0.08649831265211105, -0.05222483351826668, -0.12083737552165985, -0.1270097941160202, 0.13214050233364105], [-0.08328461647033691, -0.1301310509443283, -0.11889522522687912, 0.173293337225914, -0.05937323346734047, -0.14985516667366028, -0.05840851366519928, 0.028177106752991676, 0.14156579971313477, 0.060727328062057495, -0.14924395084381104, 0.08475423604249954, 0.060928262770175934, -0.14366227388381958, -0.0021008728072047234, 0.020207516849040985, 0.16065628826618195], [0.0001856568705989048, 0.08027628064155579, -0.15379281342029572, -0.06564727425575256, 0.17577992379665375, -0.0961112305521965, 0.12978433072566986, 0.13901516795158386, 0.03991932421922684, -0.04611503705382347, 0.05836451053619385, -0.030453098937869072, 0.05416727811098099, 0.07373928278684616, 0.001502619474194944, 0.013228019699454308, -0.12288378924131393], [0.1595967710018158, 0.0708126649260521, 0.14801447093486786, 0.09536861628293991, 0.012038124725222588, -0.1023048385977745, -0.13461734354496002, -0.05782633647322655, -0.05886895954608917, 0.08532096445560455, 0.023510295897722244, 0.12383794784545898, -0.10605926811695099, -0.11053095012903214, 0.10197428613901138, -0.09088274091482162, -0.006013454403728247], [-0.1382637917995453, -0.15679407119750977, 0.05644267797470093, 0.1519967019557953, 0.1605379581451416, -0.16295766830444336, -0.07572513818740845, 0.17508675158023834, -0.03165295720100403, -0.039672594517469406, 0.005123518407344818, -0.011819998733699322, -0.17306406795978546, -0.021846523508429527, -0.02249634452164173, -0.08666498214006424, 0.1634095013141632], [0.014582999050617218, 0.17113877832889557, 0.019041061401367188, -0.10843100398778915, -0.11573248356580734, 0.02456933632493019, 0.12768033146858215, -0.12303880602121353, -0.0099249929189682, 0.009574605152010918, 0.06707651913166046, 0.03490355238318443, -0.1483738273382187, -0.05443231761455536, 0.11693999171257019, 0.019481875002384186, 0.11146340519189835], [0.0435338169336319, 0.16945840418338776, -0.09235653281211853, -0.1326068639755249, -0.15755915641784668, 0.0596955306828022, 0.14649377763271332, 0.17108798027038574, -0.15351298451423645, 0.03652572259306908, 0.07852756232023239, 0.1596941500902176, 0.16297736763954163, 0.02285170555114746, -0.10222441703081131, -0.08687487244606018, 0.11628300696611404], [-0.025158358737826347, -0.10935772955417633, 0.07118286192417145, -0.13236653804779053, 0.08125897496938705, 0.07408393919467926, -0.05411813408136368, 0.10143334418535233, 0.07851666957139969, 0.03675460070371628, 0.14073388278484344, -0.1718599498271942, -0.09869778156280518, 0.003705045208334923, 0.011952592991292477, 0.17092077434062958, -0.1732383817434311], [0.06992461532354355, 0.15142807364463806, 0.03848336264491081, 0.07883788645267487, 0.02764308452606201, -0.08943977952003479, 0.06291266530752182, -0.0051643578335642815, -0.1013234332203865, -0.03885074332356453, -0.19304467737674713, 0.11848200112581253, -0.0445425845682621, -0.013332042843103409, -0.10965141654014587, 0.07416687160730362, 0.11529124528169632], [-0.050349023193120956, -0.08134539425373077, -0.17544309794902802, -0.142609104514122, -0.10244615375995636, -0.12364561855792999, -0.1722451001405716, -0.08097673952579498, -0.1370823234319687, 0.017659824341535568, -0.13041457533836365, 0.05394041910767555, 0.13437405228614807, -0.08486160635948181, 0.09157856553792953, 0.10886210203170776, 0.10742264240980148], [-0.048936471343040466, -0.08043809980154037, -0.06553411483764648, 0.11516866087913513, 0.057854387909173965, 0.1742805689573288, -0.15666139125823975, 0.1633031815290451, 0.06976921856403351, -0.017347874119877815, 0.15204761922359467, -0.10069417208433151, -0.03225470706820488, 0.1300492137670517, -0.05734401196241379, 0.02073247730731964, 0.16988283395767212], [-0.16505302488803864, -0.11168903857469559, -0.020929934456944466, -0.07031860202550888, 0.09639302641153336, -0.11353378742933273, 0.10486192256212234, -0.14715562760829926, 0.04807290434837341, -0.042366959154605865, -0.1549406200647354, -0.11856772005558014, -0.14102692902088165, -0.012268989346921444, -0.14940497279167175, -0.07850339263677597, 0.1079886332154274], [0.08362269401550293, -0.11854445934295654, -0.12387803941965103, 0.08606314659118652, 0.047162976115942, -0.10844594985246658, 0.012899822555482388, -0.024446120485663414, 0.026386750862002373, -0.07979422807693481, 0.023655086755752563, 0.16900603473186493, -0.16645793616771698, 0.13498343527317047, 0.08100700378417969, -0.09423472732305527, -0.17538288235664368], [-0.00609723711386323, 0.11919842660427094, -0.14076898992061615, -0.08670506626367569, -0.11680402606725693, -0.13534247875213623, -0.15042787790298462, 0.06735709309577942, 0.07632280141115189, 0.13978508114814758, -0.0421597883105278, -0.10278531163930893, 0.020310692489147186, -0.1753253936767578, -0.14673176407814026, -0.13275359570980072, 0.15573826432228088], [0.03353135660290718, -0.12043948471546173, 0.01825232431292534, -0.10956359654664993, -0.14739905297756195, 0.17099231481552124, 0.008103890344500542, -0.09447135776281357, 0.06946651637554169, -0.11833256483078003, -0.08750096708536148, 0.1242624819278717, 0.053769685328006744, 0.09443338215351105, -0.1718505620956421, -0.03159133717417717, -0.015364338643848896], [-0.06753779202699661, 0.10789631307125092, 0.08436102420091629, -0.13276931643486023, -0.09358993917703629, 0.09175402671098709, 0.00635970663279295, -0.12215296924114227, -0.052358418703079224, 0.08246134221553802, 0.06105921417474747, 0.05414082854986191, -0.10735172778367996, 0.0011486702132970095, 0.09980320930480957, -0.14302679896354675, -0.10241033136844635], [0.05122886225581169, -0.08250097930431366, 0.14744365215301514, 0.09299486875534058, -0.0814075842499733, 0.1146896630525589, 0.09078779071569443, 0.060830291360616684, -0.15490292012691498, -0.05303116515278816, -0.12747330963611603, 0.05924002826213837, -0.07695744931697845, -0.08875961601734161, -0.11415741592645645, -0.0440940335392952, -0.08211120218038559], [-0.13932929933071136, -0.0021938488353043795, -0.07332596927881241, 0.07879047840833664, 0.14749717712402344, -0.11927720159292221, -0.0198160782456398, -0.1553725153207779, -0.14524483680725098, 0.15484444797039032, -0.02451060526072979, 0.1376899778842926, 0.13152582943439484, -0.11259660869836807, 0.02893655002117157, -0.01850729249417782, -0.0984048843383789], [-0.10538408160209656, -0.051051635295152664, -0.01971258595585823, -0.1615862101316452, -0.03622926026582718, 0.12925532460212708, -0.00018491929222363979, 0.06723497062921524, 0.1532936692237854, 0.0923619270324707, -0.039578378200531006, -0.11427262425422668, 0.019977964460849762, -0.1640033721923828, 0.07633402943611145, -0.0018489189678803086, 0.17343027889728546], [-0.029669610783457756, 0.0025308760814368725, 0.027771610766649246, -0.17021988332271576, 0.06569013744592667, -0.07398857921361923, -0.16168835759162903, 0.16706129908561707, 0.09447576105594635, -0.09092141687870026, 0.021971868351101875, 0.09983309358358383, -0.1170262023806572, 0.04068504646420479, 0.10875667631626129, -0.0018393726786598563, -0.00938277319073677], [0.1475985199213028, 0.0388144850730896, 0.014239460229873657, -0.1694229692220688, -0.02336050197482109, 0.12989355623722076, -0.10449197888374329, 0.03682585060596466, 0.021847955882549286, 0.08042604476213455, 0.17274902760982513, 0.019763289019465446, 0.003956451080739498, 0.11476755142211914, -0.10976695269346237, -0.03832518309354782, -0.061972957104444504], [0.16080708801746368, 0.12282326817512512, 0.161190003156662, -0.05499640852212906, -0.029866857454180717, 0.13360436260700226, -0.027749905362725258, -0.13469375669956207, -0.009587395936250687, -0.002678242512047291, 0.0754706934094429, 0.10073579102754593, 0.020935645326972008, -0.17568479478359222, -0.026874706149101257, -0.15945391356945038, 0.11300694942474365], [-0.10972375422716141, -0.09471986442804337, -0.0750078558921814, -0.10851958394050598, 0.16444708406925201, -0.027338236570358276, 0.07819972187280655, 0.05859970301389694, 0.11723572015762329, 0.055478956550359726, 0.013945777900516987, -0.028783924877643585, -0.1753985434770584, 0.009187701158225536, -0.043987762182950974, -0.0645148828625679, 0.05509837716817856], [-0.08072677999734879, 0.13921059668064117, 0.003892391687259078, 0.06037916988134384, -0.004710476845502853, -0.07290860265493393, -0.012983002699911594, -0.14268730580806732, 0.18362848460674286, 0.025229880586266518, 0.004177398514002562, 0.14880552887916565, 0.01533160824328661, 0.005479372106492519, -0.146066352725029, 0.1266041398048401, 0.16300570964813232], [-0.011381793767213821, 0.11320457607507706, 0.05370775982737541, -0.04239754006266594, 0.12441519647836685, -0.12781672179698944, -0.17429521679878235, -0.12295391410589218, 0.11914107948541641, -0.07195689529180527, 0.015032052993774414, 0.1432035118341446, -0.019269149750471115, 0.15924404561519623, 0.15023982524871826, -0.14783088862895966, -0.07005851715803146], [0.08677667379379272, -0.1204916387796402, 0.06333029270172119, 0.020570548251271248, -0.15982341766357422, -0.010849694721400738, 0.043640658259391785, -0.03800727054476738, -0.1125001385807991, -0.0808926373720169, 0.1028541773557663, -0.12143532931804657, -0.12077012658119202, -0.036588333547115326, -0.13515299558639526, -0.10523579269647598, -0.03667584806680679], [-0.04210575297474861, 0.10296127200126648, -0.0437888465821743, -0.1722506284713745, -0.08581894636154175, 0.09885962307453156, -0.07690927386283875, -0.041818439960479736, -0.08579838275909424, 0.09999316185712814, 0.1763736456632614, 0.10651513934135437, 0.076461061835289, 0.12480121850967407, 0.17448803782463074, 0.11443187296390533, -0.04477963596582413], [-0.05947352200746536, 0.07953529804944992, -0.024318816140294075, -0.05129758268594742, 0.13446179032325745, 0.17039284110069275, -0.03561002016067505, 0.109063059091568, -0.07369932532310486, -0.16552598774433136, 0.15449881553649902, 0.13464133441448212, 0.07620459794998169, 0.055072568356990814, 0.11585089564323425, 0.04262133687734604, -0.05039629340171814], [0.0836825892329216, 0.03679107874631882, -0.0180341936647892, 0.10881544649600983, -0.06607310473918915, 0.14755894243717194, 0.07077273726463318, -0.08738784492015839, -0.11219115555286407, 0.11822038888931274, -0.12752369046211243, -0.006975788157433271, -0.08470553159713745, 0.07675383239984512, -0.1711520552635193, -0.11557051539421082, 0.1436067372560501], [-0.031040942296385765, 0.1634860634803772, -0.054994869977235794, 0.12931713461875916, 0.03326616808772087, -0.0019527687691152096, -0.1578514724969864, -0.16545511782169342, 0.0470099002122879, 0.13402916491031647, -0.14506468176841736, -0.16016905009746552, -0.1201915591955185, -0.07765793055295944, -0.03114580363035202, 0.1377572864294052, -0.043481260538101196], [-0.019049573689699173, -0.05079932138323784, 0.14517660439014435, -0.016521289944648743, -0.09076347202062607, -0.04016036167740822, -0.08642560988664627, -0.06745290756225586, -0.1513737142086029, -0.017663154751062393, -0.16690286993980408, -0.00769213680177927, 0.08282386511564255, -0.035042405128479004, -0.129139706492424, -0.005947594530880451, 0.1761123687028885], [-0.15078024566173553, 0.023382144048810005, 0.053898632526397705, -0.012410160154104233, -0.09192004054784775, -0.004886505659669638, 0.05908140912652016, 0.17415408790111542, 0.0805150642991066, 0.02600310929119587, 0.05057573318481445, -0.10079553723335266, 0.11920803785324097, 0.07611876726150513, 0.0799289271235466, -0.04870264232158661, 0.03884986788034439], [0.06879647076129913, -0.07129748165607452, -0.06197548657655716, 0.10290597379207611, 0.1544601023197174, -0.07231267541646957, -0.07074801623821259, 0.03372131288051605, 0.01677166298031807, -0.12187036871910095, -0.09280484914779663, 0.12047728896141052, 0.10392215847969055, 0.12859588861465454, -0.15692299604415894, 0.1369309425354004, -0.09646403789520264], [-0.16021595895290375, -0.15700098872184753, -0.09242548793554306, -0.08367885649204254, -0.08824584633111954, 0.13017594814300537, 0.006718502379953861, -0.0049462695606052876, 0.09951595962047577, -0.04964036867022514, 0.15139946341514587, -0.037231430411338806, 0.09675192087888718, -0.040997713804244995, -0.014887995086610317, -0.09410566836595535, -0.11637351661920547], [-0.16695263981819153, -0.027178416028618813, -0.13666443526744843, -0.038910601288080215, 0.12931756675243378, 0.06039447337388992, -0.14635735750198364, -0.011636069975793362, -0.132436603307724, 0.17013826966285706, 0.046164434403181076, 0.1493884027004242, 0.027894258499145508, 0.15874481201171875, 0.12463550269603729, -0.04875781387090683, -0.12718287110328674], [-0.06644734740257263, -0.16902144253253937, -0.07163741439580917, -0.026312682777643204, -0.028808267787098885, -0.13082702457904816, -0.17581506073474884, 0.1309635490179062, -0.08758869022130966, 0.03126038983464241, 0.11483470350503922, -0.012733678333461285, -0.1787281334400177, -0.04485810920596123, 0.15103352069854736, 0.16075751185417175, -0.11211124807596207], [0.1652500182390213, 0.004637312144041061, 0.08256647735834122, -0.1354580521583557, 0.06764109432697296, 0.10522308200597763, -0.16991297900676727, -0.05158845707774162, 0.07821287214756012, 0.1501321941614151, 0.059237878769636154, 0.010638685896992683, 0.10837633907794952, -0.15577957034111023, -0.021317897364497185, 0.0708819329738617, -0.07059837132692337], [-0.1352468580007553, 0.048244085162878036, -0.1491241306066513, -0.03768899664282799, 0.09685349464416504, -0.029761701822280884, 0.11462334543466568, -0.11275243014097214, 0.11030504107475281, 0.023909253999590874, 0.1690758317708969, -0.14399227499961853, -0.014023941941559315, -0.029830148443579674, -0.06543120741844177, 0.07757563889026642, 0.1516236811876297], [0.14796854555606842, 0.0038862554356455803, -0.0955255776643753, -0.1506349891424179, -0.014980359934270382, 0.00030451096245087683, -0.12986014783382416, 0.103561170399189, 0.06376603245735168, 0.09501427412033081, -0.02806765027344227, -0.02189084142446518, -0.14665630459785461, 0.13167838752269745, -0.06156746298074722, -0.08751676976680756, 0.02354411408305168], [-0.12137307971715927, -0.06767700612545013, -0.020519571378827095, -0.06645898520946503, 0.13929054141044617, 0.04207717999815941, -0.08655847609043121, 0.003476482816040516, -0.13996580243110657, 0.09230509400367737, -0.13239574432373047, -0.07454898953437805, -0.011334214359521866, 0.07983656227588654, -0.1024009957909584, 0.020340047776699066, -0.11275847256183624], [0.08118347823619843, 0.02857469767332077, 0.04034264758229256, -0.1773822009563446, 0.02733210101723671, -0.11473902314901352, -0.0882708802819252, 0.14428077638149261, 0.07768134027719498, -0.16257716715335846, -0.07211771607398987, 0.14451496303081512, -0.06229188293218613, -0.11630983650684357, 0.1054118424654007, -0.05572878569364548, -0.1410917490720749], [-0.10060785710811615, 0.14305546879768372, 0.10598380863666534, -0.17420977354049683, 0.02144402079284191, 0.13982897996902466, 0.049576956778764725, 0.11565012484788895, -0.016530709341168404, -0.11659396439790726, -0.10852956771850586, -0.00785149447619915, -0.053980883210897446, -0.1253184676170349, -0.11463224142789841, -0.07215820252895355, 0.145262211561203], [0.11851442605257034, 0.021399471908807755, -0.043603718280792236, 0.09541571885347366, 0.026942245662212372, 0.004996593110263348, 0.1739230751991272, -0.1610175222158432, -0.12805061042308807, -0.040871020406484604, 0.0921773687005043, 0.17154762148857117, 0.02120494283735752, 0.09730647504329681, -0.05313107371330261, 0.0008263943018391728, -0.14382974803447723], [-0.10833973437547684, -0.10899282246828079, 0.11192192137241364, -0.030611803755164146, -0.11193718016147614, -0.08946838229894638, 0.09177275747060776, 0.010828557424247265, 0.04314307123422623, 0.07000593841075897, 0.1258048415184021, 0.07541550695896149, -0.018664056435227394, -0.07516017556190491, 0.07672569900751114, 0.15287506580352783, 0.04314901679754257], [0.06032941862940788, -0.04007181152701378, 0.032339636236429214, -0.1686844378709793, -0.09290210157632828, -0.15211980044841766, 0.17374517023563385, 0.11888159066438675, 0.08306246250867844, 0.0462569035589695, -0.1741511970758438, 0.018316935747861862, 0.1100141704082489, -0.12603434920310974, 0.15444912016391754, 0.010268974117934704, 0.1439148187637329], [-0.04385271668434143, 0.012002343311905861, 0.04410729557275772, 0.155681312084198, 0.01794465072453022, 0.05178385227918625, 0.014753847382962704, 0.10899954289197922, -0.1387385129928589, -0.02962440811097622, 0.12908673286437988, 0.061150796711444855, 0.06608562171459198, 0.12386094778776169, -0.1109522208571434, 0.06926305592060089, -0.13175851106643677], [0.016301240772008896, -0.030673379078507423, 0.12587928771972656, 0.08925682306289673, 0.13948045670986176, 0.0879417359828949, 0.08499468117952347, 0.15117362141609192, 0.027004286646842957, -0.0281585194170475, 0.09396371990442276, 0.09766309708356857, 0.01962112821638584, 0.1668565422296524, 0.10012942552566528, 0.14388339221477509, 0.013076038099825382], [0.11226898431777954, 0.036553267389535904, 0.06845897436141968, 0.10613866150379181, 0.04810868948698044, 0.10058458894491196, -0.061071015894412994, 0.035769544541835785, -0.057396020740270615, -0.04506758227944374, 0.10952597856521606, 0.10403630882501602, -0.05914157256484032, 0.17054738104343414, -0.17229443788528442, -0.03503098338842392, -0.11667577177286148], [-0.11920441687107086, -0.17489159107208252, 0.1552523672580719, -0.14263615012168884, -0.06883096694946289, -0.10496427863836288, 0.11897199600934982, -0.07918398082256317, 0.05214785039424896, 0.15452918410301208, -0.14330819249153137, 0.17228908836841583, -0.14109133183956146, 0.011120698414742947, 0.06474263966083527, 0.06476935744285583, 0.13352501392364502], [0.10451318323612213, 0.044518470764160156, -0.07218332588672638, -0.1257549375295639, -0.14848442375659943, 0.15373750030994415, 0.13324958086013794, -0.10235811024904251, -0.14995713531970978, -0.10086730867624283, -0.1646289825439453, -0.012525179423391819, -0.13917183876037598, -0.02196025662124157, 0.04795946553349495, -0.05958316847681999, 0.07783852517604828], [0.14025717973709106, 0.05097340792417526, -0.07843005657196045, 0.05542970076203346, -0.08234872668981552, 0.06477802246809006, 0.12711048126220703, -0.14550399780273438, 0.1205611601471901, -0.019000135362148285, -0.11563088744878769, 0.14736543595790863, -0.11489738523960114, -0.053598567843437195, -0.028514070436358452, 0.0795268639922142, -0.02910718135535717], [0.06713651120662689, 0.1430809050798416, 0.040636029094457626, 0.02638203091919422, 0.04573723301291466, 0.12230993807315826, -0.10924627631902695, -0.026637651026248932, -0.13945692777633667, -0.02623004838824272, 0.022732175886631012, -0.0804663822054863, -0.00961390696465969, -0.15937215089797974, 0.12063334137201309, 0.033611688762903214, -0.17476719617843628], [0.007077130023390055, 0.17061878740787506, -0.11257968842983246, -0.02715938724577427, -0.1456495225429535, -0.05409640818834305, -0.12113600224256516, 0.019245009869337082, -0.08839251846075058, 0.1732083261013031, -0.07427804172039032, 0.08453844487667084, -0.16333477199077606, 0.16745707392692566, -0.12535656988620758, -0.11848775297403336, -0.021335894241929054]], "lstm.weight_hh_l0": [[-0.10985904932022095, 0.09489874541759491, 0.03296222910284996, -0.07747825235128403, -0.13718263804912567, -0.10526714473962784, 0.12757271528244019, -0.16701224446296692, -0.006275434046983719, -0.15217521786689758, -0.0636473223567009, 0.14567837119102478, 0.009155917912721634, -0.1467421054840088, -0.08679905533790588, -0.015627482905983925, -0.05150100216269493, 0.09823425114154816, 0.1261524111032486, 0.03994109109044075, -0.06862577050924301, 0.10709098726511002, 0.1636691689491272, -0.17369632422924042, -0.02326866425573826, -0.01086101122200489, 0.1763981282711029, 0.17104636132717133, 0.06843579560518265, -0.07537999749183655, 0.12374576181173325, 0.04124722257256508], [-0.1208103597164154, 0.13656999170780182, 0.034702617675065994, -0.04324989393353462, 0.08496736735105515, -0.15103060007095337, -0.13200393319129944, -0.02129378914833069, -0.06148162856698036, -0.16737407445907593, -0.09491229802370071, 0.1272893249988556, 0.10163069516420364, 0.15411542356014252, -0.01240111980587244, 0.0690518394112587, -0.13566647469997406, -0.15971463918685913, -0.04353853687644005, 0.005266775377094746, 0.12789064645767212, 0.09966859221458435, 0.09592955559492111, -0.02087891660630703, -0.09408917278051376, -0.05696696415543556, -0.13738824427127838, 0.10593945533037186, -0.15841029584407806, -0.10514786839485168, 0.020890211686491966, -0.05301729962229729], [0.16430209577083588, -0.175791397690773, -0.12739911675453186, 0.09620672464370728, 0.005778185091912746, -0.13390350341796875, -0.09158927202224731, -0.16420310735702515, 0.07827763259410858, 0.09782504290342331, 0.08447730541229248, -0.1415591686964035, -0.023216042667627335, 0.11130495369434357, -0.1538669466972351, 0.173491433262825, -0.006537373177707195, -0.07304208725690842, 0.12046047300100327, 0.17266680300235748, 0.06291710585355759, 0.11040803045034409, -0.012052270583808422, -0.06197835132479668, -0.09932049363851547, -0.0621739961206913, -0.061900317668914795, -0.1145683228969574, -0.07238975912332535, 0.020400170236825943, 0.0334470234811306, -0.10469226539134979], [0.027673324570059776, 0.13051387667655945, 0.08634054660797119, 0.08001374453306198, 0.13076908886432648, 0.16656920313835144, -0.024781692773103714, -0.17301112413406372, -0.10603567212820053, 0.15619683265686035, -0.07186566293239594, -0.012067253701388836, 0.06291329860687256, 0.02175019681453705, -0.1511906087398529, -0.08930690586566925, -0.02145947702229023, -0.030001116916537285, -0.06750690191984177, 0.07193079590797424, -0.1088741198182106, 0.15627528727054596, -0.15187616646289825, -0.10057036578655243, 0.10548807680606842, -0.11763579398393631, 0.13166674971580505, 0.05664220079779625, -0.06019067019224167, -0.06490521878004074, 0.08585628867149353, 0.010473239235579967], [0.12109740078449249, 0.019274218007922173, -0.15764762461185455, -0.14599739015102386, 0.041322436183691025, -0.056725356727838516, -0.05115927755832672, -0.06827268749475479, -0.04202251508831978, -0.07897425442934036, 0.16984249651432037, 0.12369998544454575, 0.04630661383271217, 0.12581759691238403, -0.05612611398100853, -0.02579842321574688, -0.10774987190961838, -0.16962911188602448, 0.04515952616930008, -0.14671987295150757, -0.040701717138290405, -0.01574450358748436, 0.037231702357530594, -0.05400829762220383, 0.09106970578432083, -0.16410726308822632, 0.023387160152196884, -0.008318986743688583, -0.0426870658993721, 0.016285141929984093, 0.08216903358697891, -0.032336749136447906], [0.03205101191997528, 0.0951341986656189, -0.1767486035823822, -0.15860874950885773, 0.08367348462343216, 0.03109455294907093, 0.17166994512081146, -0.10363292694091797, 0.09759330004453659, -0.1761874407529831, -0.06625604629516602, -0.08850498497486115, -0.127273827791214, 0.03630030155181885, 0.061326444149017334, -0.17078013718128204, -0.09980715066194534, 0.0067489538341760635, 0.1084069013595581, 0.06267440319061279, -0.05135125666856766, -0.04922688752412796, 0.059457212686538696, -0.045633360743522644, 0.014520685188472271, -0.13391061127185822, 0.09742749482393265, -0.005321292206645012, -0.09100028872489929, 0.07973349094390869, 0.004508047830313444, 0.08472470939159393], [0.016251318156719208, -0.09400715678930283, 0.16156823933124542, -0.04392057657241821, 0.03000263310968876, -0.0961100310087204, 0.112803153693676, -0.1415536254644394, 0.13300099968910217, 0.11652859300374985, 0.1714213490486145, -0.03807474672794342, -0.0996517762541771, -0.01448928564786911, -0.14018353819847107, -0.16487765312194824, -0.1184469535946846, -0.03394433483481407, -0.12958072125911713, 0.16113921999931335, -0.05195532366633415, -0.12960323691368103, 0.017122387886047363, 0.09152756631374359, -0.09855540841817856, -0.020937373861670494, -0.07571784406900406, 0.11549220234155655, -0.05042579397559166, 0.12510937452316284, -0.05896740034222603, 0.17033378779888153], [0.17187200486660004, -0.07418414205312729, 0.028037136420607567, 0.006574023049324751, -0.0839233547449112, -0.11502814292907715, 0.09831175953149796, -0.027377834543585777, -0.028679201379418373, -0.11342306435108185, -0.1694050431251526, 0.10972759127616882, 0.09863702952861786, 0.15840435028076172, 0.03866589814424515, 0.1606600284576416, 0.15139168500900269, 0.1371513158082962, -0.036903128027915955, -0.11399013549089432, 0.1473098248243332, 0.14097817242145538, 0.08168497681617737, -0.16384083032608032, 0.12100100517272949, -0.0581081323325634, -0.0023364105727523565, -0.037151794880628586, 0.029426297172904015, -0.016612853854894638, 0.04854579269886017, 0.16865238547325134], [-0.016089454293251038, 0.12233916670084, 0.1653522402048111, 0.10967457294464111, 0.14678604900836945, 0.07276587933301926, 0.12440881133079529, -0.002050170209258795, 0.03847048431634903, 0.04403289780020714, -0.14206060767173767, 0.12154880911111832, 0.006907952483743429, 0.09611622244119644, 0.14982911944389343, 0.08273238688707352, 0.0877976343035698, 0.08136284351348877, -0.13145337998867035, -0.12867920100688934, 0.06407711654901505, 0.048684559762477875, -0.12086363136768341, 0.01316684391349554, 0.058793652802705765, 0.12845700979232788, -0.0806271955370903, 0.03927173838019371, -0.0004393176641315222, 0.15654605627059937, 0.1644822210073471, 0.12342820316553116], [0.0051110428757965565, -0.14309866726398468, -0.1595422923564911, -0.059936609119176865, 0.10273140668869019, -0.037912312895059586, -0.025559809058904648, 0.011251121759414673, -0.04487275704741478, 0.13425667583942413, 0.06558412313461304, 0.141605406999588, -0.10821055620908737, -0.09017469733953476, -0.034789253026247025, 0.010187904350459576, -0.021999390795826912, 0.12841680645942688, -0.04984162002801895, -0.024098660796880722, 0.0987493023276329, 0.07249224185943604, 0.09009263664484024, -0.16220669448375702, -0.0797778069972992, 0.12350581586360931, 0.17481079697608948, 0.16042914986610413, -0.14665286242961884, -0.13772401213645935, 0.03999847546219826, 0.11810463666915894], [0.07327113300561905, 0.008562956005334854, -0.05867711454629898, -0.05264599248766899, 0.08811485767364502, 0.17632924020290375, 0.09654508531093597, -0.16647730767726898, 0.16768896579742432, 0.1534653902053833, -0.12290667742490768, -0.12257224321365356, -0.11067374795675278, -0.15699191391468048, -0.048669494688510895, -0.15292295813560486, -0.06014298275113106, -0.10424921661615372, 0.05723948776721954, 0.13741356134414673, 0.12216940522193909, -0.08821206539869308, -0.06412234157323837, -0.009857621043920517, 0.0737992376089096, 0.04324841871857643, -0.09230580925941467, -0.06681308150291443, 0.15922917425632477, -0.03049943968653679, -0.13802248239517212, 0.07430973649024963], [0.0012151568662375212, -0.13980817794799805, -0.03608240187168121, -0.062229081988334656, 0.0016634517814964056, 0.12849636375904083, 0.11951577663421631, -0.15490376949310303, 0.001279704738408327, 0.051689568907022476, -0.10790591686964035, -0.03375747427344322, -0.07973498851060867, -0.042658258229494095, -0.16809001564979553, 0.13400055468082428, 0.07022476196289062, -0.0730544775724411, -0.16557666659355164, 0.13590742647647858, 0.15686658024787903, 0.050559211522340775, -0.14748753607273102, 0.009005242958664894, -0.12667135894298553, 0.14927197992801666, -0.03647841140627861, 0.07362481206655502, -0.012753551825881004, -0.09611691534519196, -0.11810678243637085, 0.038423869758844376], [0.02694593369960785, -0.14548206329345703, -0.0024255511816591024, -0.043344512581825256, 0.0010780531447380781, 0.09549358487129211, -0.052965227514505386, -0.13808350265026093, -0.0884692445397377, 0.018925093114376068, 0.047748226672410965, 0.08223456889390945, 0.16168689727783203, -0.0033993117976933718, -0.017528999596834183, -0.09688694030046463, 0.12650620937347412, 0.16372250020503998, 0.06286345422267914, -0.13400346040725708, 0.08911284804344177, 0.13572338223457336, 0.11952745169401169, 0.13016843795776367, -0.028674291446805, -0.014471921138465405, 0.033975839614868164, 0.10765442997217178, -0.04223733767867088, -0.17010655999183655, 0.06745781749486923, -0.12405511736869812], [-0.15150274336338043, -0.006331910379230976, -0.13047783076763153, -0.0034720152616500854, -0.10349979996681213, -0.01217809971421957, -0.006256952416151762, 0.12983785569667816, -0.14469626545906067, 0.131144180893898, 0.15293419361114502, -0.16818881034851074, 0.10744186490774155, -0.031132105737924576, -0.08368958532810211, 0.03249747306108475, -0.12131628394126892, -0.020442379638552666, -0.10046198219060898, 0.17234006524085999, -0.10686501860618591, 0.0352444164454937, -0.0900336354970932, 0.15976285934448242, 0.025318285450339317, -0.03060505911707878, -0.14614368975162506, -0.1604306697845459, -0.029925694689154625, 0.0600665919482708, -0.10953934490680695, 0.16026410460472107], [-0.06505428999662399, 0.04208046570420265, 0.04988422989845276, -0.015060333535075188, -0.039223965257406235, -0.15074387192726135, -0.12996254861354828, -0.08552256971597672, 0.06526844203472137, -0.03513078764081001, 0.0717950090765953, 0.07789365202188492, -0.0329647995531559, -0.06381633132696152, -0.1672210991382599, 0.03270608186721802, -0.03083682619035244, -0.13341647386550903, 0.17646527290344238, 0.16671550273895264, 0.08892009407281876, -0.08439402282238007, -0.15212072432041168, 0.018855087459087372, 0.07816337049007416, 0.0909680500626564, -0.0028576406184583902, 0.06824048608541489, -0.06611026078462601, -0.10217242687940598, 0.04596640542149544, -0.10781024396419525], [0.12113278359174728, 0.012496835552155972, -0.07604683935642242, 0.04674195125699043, -0.1690506488084793, 0.11484485119581223, 0.12356996536254883, 0.07099331170320511, -0.12745587527751923, -0.1296873837709427, -0.0786178857088089, 0.13206350803375244, 0.07894431054592133, 0.07905888557434082, 0.04292169585824013, -0.04183896631002426, 0.028245510533452034, 0.0014625588664785028, -0.09298975020647049, 0.03901483118534088, -0.03088809736073017, 0.1314115673303604, 0.08803648501634598, 0.16128385066986084, -0.12801803648471832, 0.11308140307664871, -0.005063248332589865, -0.005268419161438942, -0.12814202904701233, 0.08612289279699326, 0.025474440306425095, -0.11081995069980621], [0.16989661753177643, 0.15509498119354248, -0.12607477605342865, 0.1742880642414093, 0.049404870718717575, -0.03205267712473869, 0.0823192223906517, 0.061756279319524765, 0.07129042595624924, 0.12304620444774628, -0.06730826199054718, 0.06654249876737595, -0.00022251428163144737, -0.03774239867925644, -0.1080586388707161, -0.16820783913135529, 0.006532508414238691, -0.10848299413919449, 0.057986412197351456, -0.11135248094797134, -0.03732520714402199, 0.016980480402708054, -0.007643562741577625, -0.011666816659271717, 0.16856202483177185, 0.028742758557200432, -0.06641490012407303, 0.044048260897397995, -0.019338112324476242, -0.13175588846206665, 0.14828915894031525, -0.13835959136486053], [-0.12402879446744919, 0.0688319131731987, 0.1593293994665146, 0.12421367317438126, 0.16963988542556763, 0.15291361510753632, 0.09228281676769257, -0.10537967830896378, 0.1014944538474083, 0.16315527260303497, -0.08601539582014084, 0.019184740260243416, -0.10263442248106003, 0.000727033126167953, 0.12463250756263733, -0.1349572241306305, 0.150980144739151, 0.15239545702934265, -0.0872824564576149, -0.0819769874215126, -0.08767931163311005, -0.1442563384771347, -0.059249553829431534, 0.08571691066026688, 0.1138843446969986, 0.123033307492733, 0.16013343632221222, 0.14623260498046875, -0.09175924956798553, 0.16463734209537506, 0.13233821094036102, -0.003573694499209523], [-0.12353219836950302, 0.056854937225580215, -0.04717075079679489, 0.11735235899686813, 0.11774883419275284, -0.07412372529506683, 0.06243574991822243, -0.1350816935300827, -0.02263985387980938, -0.1301037222146988, -0.09853475540876389, -0.04971833899617195, -0.02066708542406559, -0.11266203969717026, -0.14834819734096527, -0.12215861678123474, 0.13363797962665558, -0.12972047924995422, 0.07043090462684631, 0.15135322511196136, 0.03417477011680603, -0.07487587630748749, -0.02461635135114193, -0.15897820889949799, -0.0637928768992424, -0.1467553675174713, 0.09084552526473999, 0.04176611453294754, -0.0447128526866436, 0.11076077818870544, 0.10838101804256439, 0.15583622455596924], [0.1265488862991333, 0.022220635786652565, -0.07908903062343597, -0.020418742671608925, -0.08596966415643692, 0.1663699448108673, -0.06581093370914459, 0.1296232044696808, -0.035660069435834885, 0.07546578347682953, 0.0939880833029747, -0.03652218356728554, 0.16326092183589935, 0.15532982349395752, 0.029217880219221115, -0.051898252218961716, -0.08814994245767593, -0.11302743852138519, -0.006459088530391455, -0.08387894183397293, 0.16821688413619995, -0.14107991755008698, -0.03732815757393837, 0.15489569306373596, -0.051166728138923645, 0.06840132176876068, 0.06027865409851074, -0.17527998983860016, -0.1320197731256485, -0.1514730304479599, 0.0535404272377491, -0.11296147853136063], [0.01499879825860262, -0.033948950469493866, -0.057114142924547195, -0.08497211337089539, -0.0944930836558342, -0.10929885506629944, -0.06482254713773727, 0.1525438129901886, -0.008744396269321442, 0.13402314484119415, 0.04136302322149277, -0.04412848874926567, 0.16459259390830994, -0.07789578288793564, -0.006894044112414122, -0.08334551751613617, 0.09075366705656052, -0.04647735133767128, 0.027163179591298103, -0.14361166954040527, 0.15535616874694824, -0.12868908047676086, 0.003923323471099138, 0.0059503549709916115, -0.1333906054496765, 0.06041404977440834, 0.1516367346048355, 0.13015300035476685, 0.14841029047966003, -0.1448630392551422, 0.04020872339606285, -0.1595335155725479], [-0.002052530413493514, 0.07936950773000717, -0.145194873213768, 0.1665372997522354, 0.12212072312831879, -0.16617852449417114, -0.1059139296412468, 0.13503380119800568, 0.10853806138038635, -0.045142076909542084, 0.026017608121037483, -0.15625838935375214, 0.13361415266990662, 0.15198594331741333, -0.09347277134656906, 0.005238937679678202, -0.1018800139427185, -0.037838153541088104, -0.11068008840084076, -0.12183231115341187, -0.10191050916910172, -0.07740481197834015, 0.014285420998930931, -0.10008373856544495, -0.09355679154396057, 0.046801988035440445, -0.1671840250492096, -0.10783448070287704, -0.14817440509796143, 0.08183853328227997, -0.0334489606320858, 0.0815156102180481], [0.14168086647987366, -0.09972289949655533, -0.05198952928185463, -0.16543465852737427, 0.17417049407958984, 0.04118792340159416, 0.008074408397078514, 0.005875249393284321, -0.04223497584462166, 0.09522348642349243, 0.01747395657002926, 0.03955066576600075, -0.12494879961013794, 0.03689275681972504, 0.1621001958847046, -0.09151598066091537, 0.14081324636936188, -0.04402900114655495, -0.08976298570632935, 0.12215553969144821, -0.08639819175004959, -0.13619597256183624, -0.10314391553401947, -0.17554375529289246, -0.15454858541488647, 0.15320836007595062, -0.0884615108370781, 0.060181230306625366, -0.17639470100402832, 0.0010584337869659066, -0.16445490717887878, -0.003251587273553014], [0.14465709030628204, 0.008638965897262096, -0.10720394551753998, 0.024708926677703857, -0.16578294336795807, 0.06183231249451637, 0.14050951600074768, 0.12713095545768738, -0.12015613168478012, -0.15905886888504028, -0.011011706665158272, -0.12710919976234436, 0.12204524129629135, 0.044043898582458496, 0.1636962741613388, 0.1114891991019249, -0.16933602094650269, -0.14308907091617584, -0.08406291902065277, 0.08867935091257095, 0.03528300300240517, 0.10028960555791855, 0.059689272195100784, 0.10123342275619507, -0.1340698003768921, -0.10126844048500061, 0.11558684706687927, 0.11494393646717072, 0.14005014300346375, 0.11471141129732132, 0.09238831698894501, 0.08345998823642731], [0.14806614816188812, 0.023442624136805534, 0.1239408552646637, 0.050418250262737274, 0.17476531863212585, -0.04768909513950348, 0.053204916417598724, -0.029431691393256187, 0.011951771564781666, -0.08611903339624405, -0.13180725276470184, 0.16218988597393036, -0.04050162434577942, 0.0593106672167778, 0.12655265629291534, 0.15914590656757355, 0.10343421995639801, 0.12279045581817627, 0.06894170492887497, 0.14392952620983124, -0.02594326063990593, 0.11412875354290009, -0.0010016619926318526, 0.004573712591081858, -0.08353401720523834, -0.15036581456661224, 0.17559383809566498, -0.10539982467889786, 0.03239939734339714, 0.12247511744499207, -0.10514239221811295, 0.10757941007614136], [-0.06542406976222992, -0.15250808000564575, 0.1105700209736824, 0.07978291064500809, -0.12082211673259735, -0.1449056714773178, -0.043118711560964584, -0.06706191599369049, -0.04288380593061447, -0.018666017800569534, 0.12536345422267914, 0.13404995203018188, 0.05958122760057449, 0.09018226712942123, -0.06752504408359528, 0.14787794649600983, 0.026807861402630806, 0.07652689516544342, -0.0507524348795414, 0.15145449340343475, 0.06521479040384293, -0.1294102519750595, -0.17296893894672394, -0.17557990550994873, 0.13300514221191406, 0.1594335436820984, 0.17508970201015472, 0.039420221000909805, 0.15117748081684113, 0.028608795255422592, -0.0926549956202507, -0.14809289574623108], [-0.14595134556293488, 0.0940716564655304, -0.1332416981458664, 0.0488264262676239, -0.1748233288526535, 0.009535702876746655, -0.07473873347043991, -0.16547814011573792, -0.017450669780373573, 0.16036950051784515, -0.06510351598262787, -0.05952896550297737, -0.15661117434501648, 0.1701740324497223, -0.07278279960155487, -0.01540113240480423, 0.1446451097726822, 0.018952004611492157, 0.09099843353033066, -0.10969189554452896, 0.05742141231894493, 0.05647500604391098, 0.048896413296461105, 0.12123405933380127, 0.09759934991598129, 0.13298340141773224, -0.1507634073495865, -0.09558797627687454, -0.16770726442337036, 0.16656745970249176, -0.08910734951496124, -0.012272066436707973], [-0.07902313023805618, -0.062339864671230316, -0.16128014028072357, 0.05010060966014862, 0.06562633067369461, 0.10798397660255432, -0.08614501357078552, 0.1291337013244629, 0.1720990240573883, -0.05362345650792122, -0.09326743334531784, 0.16070835292339325, -0.029304957017302513, -0.11605581641197205, 0.0976887196302414, -0.027116818353533745, 0.09279391169548035, 0.1381627768278122, -0.10785228759050369, 0.03974045068025589, -0.1250239908695221, -0.14489372074604034, -0.0825762078166008, 0.15045735239982605, -0.06624763458967209, 0.017888344824314117, -0.17564024031162262, 0.10300042480230331, 0.13113141059875488, -0.012963042594492435, -0.11330404877662659, -0.08771836012601852], [-0.06533265113830566, -0.12367802858352661, 0.04805147275328636, -0.07578841596841812, -0.1061207503080368, -0.12032261490821838, -0.06053798273205757, 0.02990519069135189, -0.14936524629592896, -0.06613051146268845, 0.047636307775974274, 0.07420726120471954, -0.09499779343605042, -0.018028398975729942, -0.0002779373899102211, 0.1326444149017334, 0.0071760909631848335, 0.0032306190114468336, -0.1071014404296875, -0.038229718804359436, -0.10204166918992996, -0.1506466418504715, 0.043059978634119034, -0.1485637128353119, -0.1383456140756607, -0.17248429358005524, 0.1193077340722084, -0.053410761058330536, 0.09647875279188156, 0.009480765089392662, -0.05037873983383179, 0.0815407931804657], [-0.1312110424041748, -0.023402754217386246, -0.14905519783496857, 0.06687747687101364, 0.09591490775346756, -0.061837855726480484, 0.1556914895772934, -0.04635609686374664, -0.0746847614645958, 0.00529916537925601, 0.017742706462740898, -0.14347225427627563, -0.15328791737556458, -0.1065906435251236, -0.13659928739070892, -0.08816372603178024, 0.09432521462440491, 0.05121558532118797, -0.13803686201572418, 0.04749138280749321, -0.17130911350250244, -0.09524255990982056, -0.1523580700159073, -0.1514710932970047, -0.054678961634635925, 0.030157923698425293, -0.062135960906744, -0.01620563119649887, -0.0826645940542221, 0.0923999696969986, 0.00959451962262392, -0.16135308146476746], [0.07748915255069733, -0.11546451598405838, -0.1518763154745102, 0.10172847658395767, 0.07061807811260223, 0.1328035145998001, 0.10058794170618057, -0.1523701548576355, -0.10150942206382751, 0.03070494718849659, -0.04216796159744263, 0.022447705268859863, 0.08351545035839081, -0.15865501761436462, -0.10916442424058914, 0.14771051704883575, 0.13763628900051117, -0.019163666293025017, -0.11804301291704178, 0.10158848762512207, 0.11045002937316895, 0.15974487364292145, -0.024475960060954094, -0.1153126135468483, -0.15779215097427368, 0.11895442008972168, 0.06859740614891052, 0.018064960837364197, 0.07630621641874313, -0.12592951953411102, 0.1265430599451065, -0.11433432251214981], [-0.0925462618470192, 0.0048709954135119915, -0.08094631135463715, 0.09035118669271469, 0.10098075121641159, 0.05352179706096649, 0.06750142574310303, -0.11561436951160431, -0.15479551255702972, 0.06030299514532089, 0.08214850723743439, 0.02697126381099224, 0.09275735169649124, 0.023570328950881958, -0.05123354122042656, 0.034599464386701584, -0.10460267961025238, -0.10950865596532822, 0.02971670962870121, 0.003301425836980343, 0.10067689418792725, -0.09666227549314499, -0.1702636182308197, -0.160885289311409, 0.025797832757234573, 0.15232345461845398, 0.013774601742625237, -0.03697346895933151, -0.07119183987379074, 0.005728051532059908, 0.016701890155673027, 0.0709800124168396], [0.11436878144741058, -0.09133338183164597, 0.015438579954206944, 0.07801655679941177, -0.07507149875164032, 0.014067142270505428, -0.16644831001758575, -0.15829022228717804, -0.013398230075836182, 0.12345241755247116, 0.16950543224811554, -0.09924465417861938, 0.028693489730358124, 0.050723519176244736, -0.004765670746564865, -0.11200512200593948, -0.03838437795639038, 0.047008443623781204, -0.053971946239471436, -0.015144837088882923, -0.042298998683691025, 0.03625893220305443, 0.12852256000041962, 0.04221896082162857, 0.13268831372261047, -0.0841902494430542, 0.1740155667066574, -0.07751283794641495, -0.12297061085700989, 0.04292922094464302, -0.14676743745803833, 0.14464977383613586], [-0.15601825714111328, -0.12001226097345352, 0.06744254380464554, 0.02242613397538662, -0.15682761371135712, 0.034053072333335876, 0.1443108469247818, -0.08728877454996109, 0.08720635622739792, 0.14907000958919525, -0.16210144758224487, 0.04038475081324577, -0.009942209348082542, 0.03504982590675354, 0.1711875945329666, -0.08265093713998795, -0.09516825526952744, -0.058837126940488815, -0.046826284378767014, -0.06360013037919998, 0.09997828304767609, -0.0911993756890297, -0.06737635284662247, 0.038464855402708054, -0.0869450569152832, -0.14034883677959442, -0.1202637329697609, -0.16509515047073364, 0.05193277820944786, -0.005493946839123964, -0.12587855756282806, -0.030090510845184326], [-0.015971273183822632, -0.0457843542098999, -0.054359085857868195, -0.17472900450229645, -0.10898921638727188, 0.11989656835794449, -0.10779062658548355, 0.06986115872859955, -0.019517993554472923, -0.1195775642991066, -0.17367000877857208, 0.15344315767288208, -0.15439562499523163, 0.04586460068821907, 0.05482124909758568, 0.1156853437423706, 0.11101142317056656, -0.03143392130732536, -0.15757441520690918, -0.016403764486312866, 0.07409898191690445, 0.16717490553855896, 0.015320062637329102, -0.05053771659731865, -0.01823061890900135, 0.04227718710899353, 0.016549697145819664, 0.0030887105967849493, -0.1531711220741272, -0.14944180846214294, 0.03354138880968094, 0.13534331321716309], [0.11364971101284027, 0.10417471826076508, -0.06445638835430145, -0.05730442330241203, -0.010209504514932632, 0.08916191011667252, 0.010851253755390644, -0.05571088194847107, 0.008999405428767204, -0.13272824883460999, 0.13236530125141144, -0.06050974503159523, -0.032685786485672, 0.04125192388892174, 0.05893909931182861, -0.07953719794750214, -0.03612427040934563, -0.06449085474014282, -0.0944109633564949, -0.055670373141765594, -0.002349244197830558, 0.012462422251701355, 0.14401674270629883, -0.11981762945652008, -0.16774481534957886, -0.008296922780573368, 0.012970144860446453, -0.04267600178718567, -0.0970485731959343, -0.15593650937080383, -0.09696118533611298, -0.16762255132198334], [0.12685751914978027, 0.10987261682748795, 0.14156147837638855, 0.13701394200325012, 0.12501107156276703, -0.08289595693349838, -0.17343151569366455, 0.16347283124923706, 0.1649024933576584, 0.04982985928654671, 0.13558432459831238, -0.13006757199764252, -0.029952332377433777, 0.05087556689977646, -0.010870852507650852, 0.015250330790877342, -0.09828678518533707, 0.010116971097886562, 0.15169188380241394, -0.0105210542678833, 0.14282576739788055, -0.0001399907487211749, 0.05753004550933838, 0.10230299830436707, -0.07398925721645355, 0.08540400862693787, 0.08633933216333389, 0.0747385174036026, 0.14534635841846466, -0.11185185611248016, -0.14909188449382782, -0.00908683892339468], [-0.14062845706939697, -0.00793315377086401, -0.07949453592300415, 0.17600256204605103, 0.015100878663361073, 0.17522339522838593, -0.005676253233104944, 0.15563613176345825, -0.025733517482876778, 0.05843784660100937, -0.02958708629012108, 0.14582572877407074, -0.09714266657829285, -0.156129851937294, -0.05243737995624542, 0.1753493845462799, -0.10231136530637741, -0.059941478073596954, -0.08875080943107605, -0.05092582479119301, 0.05578719079494476, -0.10140851885080338, -0.06508185714483261, 0.07600966840982437, 0.018284587189555168, -0.15368346869945526, -0.05360248684883118, -0.08281094580888748, -0.10099581629037857, -0.11379006505012512, 0.14137929677963257, -0.06563043594360352], [-0.11215449124574661, -0.009416680783033371, -0.10260023921728134, -0.1176958754658699, -0.051617372781038284, -0.13126005232334137, -0.01547946222126484, 0.16032153367996216, 0.1735752820968628, -0.036318909376859665, -0.1417226493358612, 0.06779263913631439, -0.15890423953533173, 0.15157043933868408, 0.1735318899154663, -0.03775744140148163, 0.09847380965948105, 0.1378479301929474, 0.0803130492568016, 0.08905940502882004, 0.105902299284935, -0.1727134883403778, 0.12130065262317657, 2.4107996068778448e-05, -0.0030733903404325247, 0.140868678689003, -0.16520917415618896, -0.13116532564163208, 0.0992332175374031, 0.14088310301303864, -0.11011561751365662, 0.037872884422540665], [0.06610865890979767, 0.17582136392593384, 0.11375204473733902, 0.06512454897165298, 0.15305082499980927, -0.030102670192718506, -0.12996460497379303, 0.008761844597756863, 0.1263844072818756, -0.04594824090600014, 0.15010258555412292, 0.1429443359375, 0.05370505154132843, 0.05374542996287346, -0.0432717464864254, 0.050645653158426285, -0.14484283328056335, 0.045838385820388794, -0.042567577213048935, -0.08300602436065674, 0.15830710530281067, -0.14060570299625397, 0.04373125359416008, 0.15630148351192474, 0.015376097522675991, -0.0076523711904883385, 0.027939293533563614, 0.14514312148094177, -0.03687551990151405, -0.0955040380358696, -0.12160366773605347, -0.1348855048418045], [-0.014727394096553326, 0.06159098073840141, -0.16811449825763702, 0.12927167117595673, -0.10014103353023529, -0.1278301626443863, -0.16843153536319733, -0.1661345362663269, -0.15532752871513367, 0.05805131793022156, 0.0895252376794815, -0.13225466012954712, -0.13065089285373688, 0.12464866787195206, 0.051077090203762054, -0.1554454118013382, 0.07485590130090714, 0.10830412060022354, -0.022676289081573486, -0.06634826213121414, -0.044286686927080154, 0.1518177092075348, 0.007590057328343391, 0.029805555939674377, -0.1286129653453827, -0.13922810554504395, -0.14777106046676636, 0.1343410760164261, -0.1644785851240158, 0.09917888790369034, 0.1614188700914383, 0.15138506889343262], [-0.04220075532793999, -0.14525707066059113, -0.16891831159591675, 0.05826542526483536, -0.09236861020326614, 0.17650263011455536, 0.05823059007525444, -0.07573495805263519, -0.13347654044628143, -0.05425045266747475, 0.05551804229617119, 0.16532613337039948, -0.039632346481084824, -0.07576768100261688, -0.1302361637353897, -0.01182402390986681, -0.11188285052776337, 0.06485510617494583, -0.0647619366645813, -0.04725772142410278, 0.13739775121212006, -0.07740131765604019, -0.05880039557814598, 0.16134700179100037, -0.16610315442085266, -0.08082184940576553, 0.07247525453567505, 0.125837504863739, 0.06340967863798141, -0.1384991556406021, 0.15404683351516724, 0.04608336463570595], [0.09821819514036179, 0.1557193100452423, -0.1433035135269165, 0.03380267694592476, -0.0843021497130394, -0.15900282561779022, -0.158187136054039, -0.03875674679875374, -0.07502005994319916, 0.17601026594638824, -0.039434824138879776, -0.05513913929462433, -0.10152553766965866, 0.09322737157344818, -0.07250916212797165, -0.013569283299148083, -0.14277596771717072, -0.17168845236301422, -0.1187073364853859, -0.007353318389505148, -0.04868146404623985, 0.10039566457271576, 0.008655845187604427, -0.01780695840716362, -0.15138176083564758, -0.12681935727596283, 0.09068583697080612, -0.14775888621807098, 0.14625565707683563, 0.1762552112340927, -0.14294376969337463, -0.0760565772652626], [0.007146714720875025, -0.07034279406070709, -0.012732288800179958, 0.11370886862277985, -0.08581650257110596, 0.07856690883636475, -0.11565467715263367, 0.012114521116018295, 0.04597713053226471, 0.013176199980080128, 0.1591726541519165, -0.06912363320589066, -0.015820810571312904, -0.03976951166987419, 0.10458268225193024, -0.13216495513916016, -0.1764436960220337, 0.07016021013259888, -0.03392890840768814, -0.018166808411478996, -0.15944156050682068, -0.16910995543003082, -0.06624896824359894, 0.12196728587150574, 0.05224677175283432, 0.056901827454566956, 0.16243205964565277, -0.14411534368991852, -0.11589881777763367, -0.16792447865009308, 0.12763646245002747, -0.10022248327732086], [-0.13020101189613342, -0.050727080553770065, 0.08089455217123032, 0.04970813915133476, 0.10618472844362259, -0.17147894203662872, -0.1662040501832962, -0.10388865321874619, -0.14994893968105316, 0.00253292010165751, -0.08258360624313354, 0.07587515562772751, -0.14589188992977142, 0.09176667034626007, -0.07468821853399277, -0.04996776580810547, 0.17070670425891876, 0.14587213099002838, 0.1374727487564087, -0.05344557389616966, 0.11724410206079483, 0.1101883202791214, 0.13870388269424438, -0.16682682931423187, -0.0518026277422905, -0.01762968860566616, -0.16303135454654694, -0.121895931661129, -0.13976387679576874, -0.10777254402637482, 0.15955492854118347, 0.09312491118907928], [0.1122613325715065, -0.0026720259338617325, 0.05793020874261856, 0.14110364019870758, -0.09797199070453644, -0.04770966246724129, -0.03004969097673893, 0.16342775523662567, -0.08197277039289474, -0.13938933610916138, -0.038093626499176025, 0.09614073485136032, 0.009196863509714603, -0.11986959725618362, 0.08274058252573013, 0.14039762318134308, 0.12173048406839371, 0.08765370398759842, 0.16353516280651093, -0.01834643818438053, 0.12780648469924927, -0.03572824224829674, -0.0964948907494545, 0.004548698663711548, -0.14886252582073212, 0.06500274688005447, -0.14390012621879578, -0.09904211759567261, 0.053365305066108704, -0.02897711656987667, 0.01159168966114521, 0.11282195150852203], [0.1607305258512497, -0.009798657149076462, 0.06379500776529312, -0.037139344960451126, 0.11386668682098389, 0.08298185467720032, 0.14587469398975372, 0.12386893481016159, 0.139850452542305, -0.15825125575065613, -0.13814149796962738, 0.11893907934427261, -0.018054993823170662, 0.039049919694662094, -0.028292503207921982, 0.0191977396607399, -0.07928391546010971, -0.16170400381088257, 0.0057333409786224365, 0.15515688061714172, 0.16846415400505066, -0.009815010242164135, 0.025734802708029747, 0.01458951085805893, -0.14240404963493347, 0.12616275250911713, 0.1017572209239006, -0.017552455887198448, 0.009961112402379513, 0.17159749567508698, 0.09875385463237762, 0.12077905982732773], [-0.050811585038900375, -0.002070779912173748, -0.10976613312959671, -0.0785052478313446, -0.04136618226766586, -0.14014264941215515, -0.0022463847417384386, 0.15347346663475037, -0.08406142145395279, -0.09064880758523941, 0.0522356852889061, 0.017491932958364487, 0.16992343962192535, -0.15722091495990753, 0.0005266248481348157, -0.09917199611663818, -0.15541258454322815, -0.035926733165979385, 0.03839091211557388, -0.007617284078150988, 0.15157108008861542, -0.13085395097732544, -0.06167969852685928, -0.11336208134889603, -0.03812761977314949, 0.17588116228580475, -0.14180153608322144, 0.1248532310128212, -0.15937720239162445, 0.005643778946250677, -0.11241468042135239, 0.12764082849025726], [0.15224699676036835, -0.022493835538625717, 0.16638892889022827, -0.14784160256385803, 0.004101183265447617, 0.13923586905002594, 0.10603965818881989, 0.044010791927576065, 0.1490294635295868, 0.07064247876405716, 0.047526996582746506, -0.12685252726078033, 0.014687164686620235, 0.026852767914533615, -0.10523395985364914, -0.01810266077518463, -0.023846622556447983, -0.15000230073928833, -0.08222854137420654, 0.02034011110663414, 0.011242271400988102, 0.08791021257638931, 0.14648792147636414, 0.15105096995830536, -0.07013893127441406, 0.012297670356929302, 0.021789582446217537, 0.033042747527360916, -0.01419255044311285, -0.02525491826236248, 0.06540238112211227, 0.01163710281252861], [0.13324500620365143, 0.12212692201137543, -0.09503159672021866, -0.1630060374736786, 0.14380447566509247, 0.057048499584198, -0.05405959114432335, 0.041874960064888, -0.04261377081274986, -0.07575052976608276, 0.11184587329626083, -0.1129833534359932, 0.07807689160108566, -0.06083378940820694, -0.008505423553287983, -0.055477939546108246, 0.10615463554859161, -0.07075699418783188, 0.01168755255639553, 0.14420795440673828, -0.1586872637271881, 0.05442407727241516, -0.14153623580932617, 0.12748639285564423, -0.08812309801578522, 0.1402951329946518, -0.007540703285485506, -0.08494206517934799, -0.11964617669582367, 0.03254080191254616, -0.07031497359275818, 0.068506620824337], [0.11667180806398392, -0.059821780771017075, 0.1256650984287262, -0.16205842792987823, -0.0242437943816185, 0.1513863205909729, 0.1147087961435318, -0.14934280514717102, -0.021222075447440147, -0.17105941474437714, 0.1677369922399521, -0.06372398883104324, -0.04363282024860382, 0.17415094375610352, -0.046994999051094055, -0.01809954270720482, 0.003782763844355941, -0.06648129969835281, -0.10502016544342041, -0.14596512913703918, 0.16308684647083282, 0.15517570078372955, 0.02842080034315586, 0.16278988122940063, 0.14434778690338135, -0.07116613537073135, 0.12970098853111267, 0.05249263346195221, -0.0994059145450592, -0.10737530887126923, -0.11760015785694122, -0.07107239961624146], [-0.02721957303583622, 0.12346073985099792, 0.05043070390820503, 0.1358746737241745, 0.061709433794021606, 0.16654329001903534, 0.12209739536046982, 0.0380985364317894, -0.1538914144039154, 0.007243525702506304, -0.1693226844072342, -0.07988499104976654, 0.018553253263235092, -0.020155824720859528, 0.12395670264959335, 0.1312064826488495, -0.16825537383556366, 0.15698698163032532, 0.0255778469145298, -0.030429203063249588, -0.16099321842193604, 0.018925830721855164, -0.12682603299617767, -0.007805469911545515, -0.02036149986088276, 0.09541808068752289, -0.10275647789239883, 0.02477349527180195, 0.1327885091304779, 0.08552872389554977, 0.04654856026172638, 0.0004761540039908141], [0.021087417379021645, -0.06131622567772865, 0.08449523895978928, -0.053704164922237396, -0.08567651361227036, -0.03144310787320137, -0.1729063093662262, 0.13232441246509552, -0.06854072213172913, 0.11278968304395676, 0.13632136583328247, -0.14141589403152466, -0.04279144108295441, 0.09891511499881744, -0.048222169280052185, 0.11318938434123993, -0.17653588950634003, -0.03243667632341385, -0.17341019213199615, 0.14644265174865723, 0.018465504050254822, 0.013131819665431976, -0.09230145066976547, 0.004509396385401487, -0.11735252290964127, 0.0318150520324707, 0.14116914570331573, -0.11247801035642624, -0.0901874452829361, 0.07705523073673248, 0.038732532411813736, -0.05236208438873291], [0.05421155318617821, 0.060280971229076385, -0.0015572207048535347, 0.08772917091846466, -0.1235101968050003, 0.1207946389913559, 0.03971714526414871, -0.010254306718707085, -0.043762147426605225, 0.036903105676174164, -0.05903355032205582, -0.16688986122608185, 0.05060894414782524, -0.08962032198905945, -0.0713297501206398, -0.07437850534915924, -0.05967051535844803, 0.16956251859664917, -0.1611861139535904, 0.14559271931648254, 0.12732575833797455, 0.02398073486983776, 0.12984786927700043, 0.0552268885076046, 0.10936862230300903, -0.04589992016553879, -0.03362732753157616, -0.15819871425628662, 0.13787634670734406, 0.025479814037680626, 0.07771120220422745, 0.14080294966697693], [0.16148710250854492, 0.034702155739068985, -0.10315432399511337, -0.1298341006040573, -0.05758734419941902, 0.054367516189813614, 0.16855578124523163, 0.12606053054332733, 0.056884799152612686, -0.1120491623878479, -0.12999902665615082, -0.1517651081085205, -0.06310232728719711, 0.04460582137107849, -0.010617001913487911, -0.07387664169073105, -0.0009928111685439944, -0.04782409220933914, -0.07274667918682098, -0.12026320397853851, 0.08705399930477142, 0.06482341140508652, -0.06217662990093231, 0.10101651400327682, -0.051184967160224915, -0.0063680727034807205, -0.0604410246014595, -0.12799949944019318, 0.13569369912147522, 0.11303578317165375, 0.04884703829884529, -0.15576501190662384], [-0.036552950739860535, 0.09919629245996475, 0.12493214756250381, 0.0578458309173584, 0.17147314548492432, -0.1140444204211235, -0.16388405859470367, -0.022447938099503517, 0.02701425366103649, -0.14907465875148773, -0.07920362055301666, -0.14784979820251465, -0.07711804658174515, 0.1136551946401596, 0.06799691915512085, -0.036345671862363815, 0.04048219323158264, -0.07888545095920563, 0.061435624957084656, -0.12976810336112976, -0.07963600754737854, -0.12603546679019928, 0.02067600004374981, -0.049119263887405396, 0.031299639493227005, -0.13860075175762177, 0.04841852933168411, -0.10666108876466751, 0.11821731179952621, 0.15094248950481415, -0.1444675773382187, 0.06451497972011566], [-0.07744978368282318, 0.08996236324310303, 0.06639905273914337, 0.16030502319335938, 0.03552911803126335, 0.007249763701111078, 0.16362403333187103, 0.1665058434009552, 0.05904615297913551, 0.0924622192978859, 0.1542355716228485, 0.15651099383831024, -0.04204072058200836, 0.008934836834669113, 0.1403319537639618, -0.0897187739610672, -0.077298603951931, -0.14903821051120758, 0.13625900447368622, -0.08303611725568771, -0.13656935095787048, 0.14402638375759125, -0.028259314596652985, -0.024691224098205566, 0.10278061032295227, 0.09199824184179306, 0.15077540278434753, -0.15031413733959198, 0.046337299048900604, 0.1473943591117859, -0.10131333023309708, -0.14627130329608917], [0.04651743546128273, -0.09913551807403564, -0.0980895608663559, 0.10361716151237488, -0.061910707503557205, -0.1284060776233673, -0.0059570567682385445, -0.07988479733467102, -0.11866053193807602, 0.1313752681016922, -0.12399804592132568, -0.08769317716360092, -0.08170600235462189, 0.1357244998216629, -0.12763667106628418, -0.06604765355587006, 0.08445689082145691, 0.15214164555072784, 0.16025622189044952, 0.06993591040372849, 0.035980235785245895, -0.053798429667949677, 0.019120823591947556, -0.141453355550766, -0.09026812016963959, 0.10090570896863937, -0.08917615562677383, 0.023613551631569862, 0.09895491600036621, 0.13009561598300934, -0.058508843183517456, 0.08229617029428482], [-0.04277799651026726, 0.10615642368793488, -0.12428479641675949, -0.01788986101746559, -0.031196149066090584, -0.08041390776634216, -0.13805799186229706, -0.11661286652088165, 0.048438046127557755, -0.06676457077264786, -0.0431152768433094, -0.12196233868598938, 0.15129266679286957, 0.05118170008063316, -0.1475822478532791, -0.0133842583745718, 0.005856915842741728, 0.1735432744026184, 0.10248444229364395, 0.003166682319715619, 0.14943957328796387, 0.053605206310749054, 0.0007916231406852603, 0.03362688422203064, -0.004044200759381056, -0.07078820466995239, 0.08747780323028564, -0.1717512309551239, 0.0240382868796587, -0.13717174530029297, -0.12316232174634933, 0.0431046336889267], [0.06018681451678276, 0.10681825876235962, -0.11925347149372101, 0.12358684092760086, -0.02988278865814209, -0.09943488985300064, -0.042279843240976334, 0.10688325017690659, -0.04076460003852844, 0.05440877750515938, 0.15118034183979034, 0.15809409320354462, 0.14385159313678741, -0.013800416141748428, -0.0008672135300002992, -0.11181405186653137, -0.06191239133477211, -0.024403972551226616, -0.11019915342330933, 0.17002542316913605, -0.1196448877453804, -0.1402669996023178, -0.0670897513628006, 0.004939083941280842, 0.06899470835924149, 0.12692643702030182, -0.07735603302717209, -0.05404625087976456, -0.06793555617332458, -0.1324136108160019, -0.04142626374959946, -0.15539388358592987], [0.169906884431839, 0.08799131959676743, -0.02561287209391594, 0.04639177396893501, -0.08367229998111725, 0.08708379417657852, -0.17050503194332123, -0.17152665555477142, -0.014753988943994045, 0.07104192674160004, 0.05476744845509529, 0.027860604226589203, 0.17159885168075562, -0.00739377923309803, 0.08220900595188141, 0.0914621353149414, -0.14815227687358856, -0.08693339675664902, -0.053128860890865326, -0.11282955855131149, 0.08580537885427475, -0.13202692568302155, -0.08806988596916199, 0.048196058720350266, 0.00906041357666254, -0.0001084016912500374, 0.058796368539333344, 0.16425439715385437, 0.11574281007051468, 0.01625702902674675, -0.12982624769210815, -0.10345238447189331], [-0.023267630487680435, 0.1166374608874321, 0.07234847545623779, -0.03725418820977211, 0.065596804022789, 0.01216756273061037, 0.0913536325097084, 0.13964900374412537, 0.1288951188325882, -0.0820295438170433, -0.05238345265388489, -0.11758985370397568, -0.06423462182283401, -0.12046077102422714, -0.04586990922689438, -0.1629970520734787, 0.11969552934169769, 0.10712046921253204, -0.15402963757514954, 0.07070125639438629, 0.1676526516675949, -0.14254213869571686, -0.005134413484483957, -0.08945133537054062, -0.06252527236938477, 0.05228213220834732, 0.1715279072523117, 0.06578265130519867, -0.054076891392469406, 0.009031711146235466, -0.0779290571808815, -0.09568179398775101], [-0.0819111317396164, -0.004508195444941521, 0.02250770293176174, -0.15843817591667175, -0.049852535128593445, -0.012064788490533829, -0.1212792843580246, -0.0007435125298798084, -0.14489132165908813, 0.034085147082805634, -0.1076609417796135, -0.17231152951717377, -0.005503640975803137, 0.13337549567222595, -0.0021008518524467945, -0.02270878478884697, 0.1403844952583313, -0.13028109073638916, -0.004890383221209049, -0.013854512013494968, -0.16423159837722778, 0.017652828246355057, 0.07451427727937698, -0.027843935415148735, -0.13693034648895264, 0.1053001657128334, -0.07657846063375473, -0.11426834762096405, -0.11413216590881348, -0.12632524967193604, -0.07953603565692902, 0.04949704557657242], [0.11178699135780334, 0.15216051042079926, -0.12072431296110153, 0.1693410575389862, 0.024644799530506134, -0.08818186819553375, 0.0682651475071907, 0.10113633424043655, -0.07166070491075516, 0.13142412900924683, -0.12666846811771393, -0.16531600058078766, -0.0640459731221199, -0.12928885221481323, -0.0748521089553833, 0.04048150032758713, 0.08987674117088318, -0.0008612918900325894, -0.09440967440605164, 0.004335035104304552, -0.05481962487101555, -0.017740851268172264, -0.16364341974258423, -0.12580189108848572, -0.08486225455999374, -0.010048883035779, -0.07241462916135788, -0.03984428197145462, 0.050008099526166916, 0.12154276669025421, -0.05032574012875557, 0.0073913768865168095], [0.0032080074306577444, 0.11148138344287872, -0.04456605762243271, 0.10686901956796646, -0.13987034559249878, -0.13199391961097717, -0.05679464712738991, 0.17040027678012848, 0.07489947974681854, 0.16967912018299103, -0.019035791978240013, -0.15660399198532104, 0.03827877715229988, 0.12949927151203156, 0.04439651966094971, -0.08916270732879639, -0.11762462556362152, 0.16209806501865387, 0.10692659765481949, 0.04489290341734886, -0.05032053217291832, 0.05606590583920479, 0.02694791555404663, -0.004285912960767746, -0.06305132806301117, 0.14689141511917114, -0.11154553294181824, 0.14527851343154907, -0.16429056227207184, -0.12625427544116974, 0.022389691323041916, -0.0005635455017909408], [-0.10621998459100723, -0.1409149318933487, 0.056296367198228836, 0.024396385997533798, 0.07832901179790497, 0.05138992518186569, 0.16456866264343262, -0.1699182689189911, 0.16875196993350983, 0.08378907293081284, 0.0989026352763176, 0.04013283923268318, 0.008171978406608105, -0.15499183535575867, -0.09052451699972153, 0.11107531934976578, -0.1207972913980484, -0.1592429280281067, -0.0833372175693512, 0.05545970797538757, 0.14348740875720978, 0.06700796633958817, 0.05193045735359192, 0.15179185569286346, -0.10505618155002594, 0.12180641293525696, 0.1409960389137268, -0.1123228669166565, -0.010614915750920773, -0.17003020644187927, 0.1264996975660324, -0.08382656425237656], [-0.10320840030908585, -0.020146066322922707, 0.13497169315814972, -0.1321631520986557, 0.100420281291008, 0.11443684995174408, 0.015645183622837067, -0.08637507259845734, -0.08437337726354599, -0.09130772948265076, 0.11943531781435013, 0.11775953322649002, 0.12578676640987396, -0.174610435962677, -0.14453236758708954, 0.08850850909948349, -0.0592762753367424, 0.16390620172023773, -0.12333349883556366, 0.17044900357723236, -0.11341799050569534, -0.13018660247325897, -0.0085412273183465, 0.12441582977771759, -0.17245788872241974, 0.12661387026309967, 0.12511037290096283, 0.06784471124410629, -0.08790871500968933, -0.04337332025170326, -0.024696577340364456, -0.0730009526014328], [0.08245126903057098, -0.07073492556810379, 0.1556062400341034, 0.07492740452289581, -0.04038597270846367, -0.011167039163410664, -0.12375671416521072, -0.016588915139436722, 0.018988925963640213, 0.1388615518808365, 0.018116232007741928, 0.06067131459712982, -0.1623774915933609, 0.059071335941553116, -0.12147490680217743, -0.07710890471935272, 0.0715625211596489, -0.09634240716695786, 0.1551450937986374, -0.16697080433368683, 0.16653424501419067, -0.10431624948978424, 0.15090306103229523, 0.09989228844642639, 0.04953257739543915, -0.12004227191209793, 0.11184237152338028, -0.16561287641525269, 0.08121541887521744, 0.11195936799049377, 0.16789434850215912, -0.004313308279961348], [0.02844395861029625, -0.004585197661072016, -0.06374887377023697, 0.13091160356998444, 0.06918399035930634, -0.04957055300474167, 0.07796555757522583, 0.11845331639051437, 0.15947452187538147, 0.16898655891418457, -0.08165796101093292, -0.12925463914871216, -0.034494854509830475, -0.025894727557897568, -0.15584412217140198, 0.041913922876119614, 0.027786700055003166, -0.1474459022283554, 0.16514959931373596, -0.0003331919142510742, 0.03403151407837868, -0.15457797050476074, -0.034729212522506714, -0.1520397961139679, 0.10535382479429245, -0.1132693812251091, 0.085879385471344, 0.09930922836065292, 0.10537133365869522, 0.09305372834205627, -0.014047397300601006, -0.1341426521539688], [-0.14970189332962036, -0.0887460857629776, -0.05768337845802307, 0.08826430886983871, -0.1425454467535019, 0.020331596955657005, -0.10884428024291992, -0.09651271998882294, -0.13388879597187042, 0.035649511963129044, -0.04656168818473816, -0.12026434391736984, -0.09619908779859543, 0.05285537242889404, -0.13766835629940033, -0.012296974658966064, -0.06225255876779556, -0.11608957499265671, 0.04481777921319008, -0.13825623691082, -0.05691126734018326, 0.06331333518028259, 0.12268981337547302, -0.052208587527275085, -0.043992478400468826, -0.00431155925616622, 0.12745630741119385, -0.0060219415463507175, -0.08577646315097809, -0.09336715191602707, 0.006220284849405289, -0.007806397043168545], [0.07133390009403229, -0.0011103376746177673, -0.10282757878303528, 0.10732022672891617, 0.030658438801765442, -0.05811949074268341, -0.042152222245931625, -0.01866869255900383, 0.008003327995538712, -0.05457300320267677, -0.08953366428613663, -0.08582174777984619, -0.0009405279997736216, -0.08124485611915588, -0.0028107943944633007, -0.018961971625685692, -0.07332967966794968, -0.022806039080023766, 0.0433899462223053, 0.04592154175043106, -0.07677185535430908, 0.0864219218492508, 0.16657060384750366, 0.021228333935141563, 0.0004396759031806141, 0.08595917373895645, 0.17533643543720245, 0.013916256837546825, 0.06913149356842041, 0.06995609402656555, -0.10968953371047974, 0.16966049373149872], [0.003670884994789958, 0.03136309236288071, -0.14834707975387573, 0.07595260441303253, -0.13501131534576416, -0.15797169506549835, 0.1601269245147705, 0.16513735055923462, 0.022681768983602524, 0.03204018250107765, 0.03648446127772331, 0.07258439809083939, -0.14947199821472168, -0.029600847512483597, -0.10125651955604553, 0.08528222888708115, -0.05387985706329346, -0.15545593202114105, -0.08471056818962097, -0.09580981731414795, -0.07364529371261597, 0.07386612147092819, -0.08888053894042969, -0.1731521040201187, 0.0897299200296402, -0.05470370128750801, -0.1299903392791748, 0.10232816636562347, 0.07432176917791367, 0.0036472617648541927, 0.160697802901268, -0.00443252082914114], [0.01775539293885231, 0.11355806142091751, -0.1615777313709259, 0.12874077260494232, -0.06757032871246338, 0.005787604954093695, 0.11331713199615479, 0.0547335185110569, -0.07353069633245468, 0.11204564571380615, -0.13983315229415894, -0.07171890884637833, -0.03882032260298729, -0.05590827763080597, 0.036371633410453796, 0.12343713641166687, 0.02206488698720932, -0.0471884123980999, -0.036708153784275055, -0.08742185682058334, 0.10076721012592316, 0.06107655540108681, -0.08482994884252548, 0.10409249365329742, -0.12344685196876526, -0.12421845644712448, 0.15256355702877045, -0.08060428500175476, -0.06212451681494713, 0.05891735106706619, -0.14366760849952698, -0.10234978795051575], [0.05361401289701462, 0.13378028571605682, -0.15934967994689941, -0.02638441137969494, 0.001322989584878087, 0.15180101990699768, 0.16291655600070953, -0.05279543995857239, -0.15667486190795898, -0.0603245310485363, 0.1561308652162552, 0.06259700655937195, 0.17654867470264435, 0.16658535599708557, -0.08918361365795135, -0.13052983582019806, 0.1759432554244995, -0.12120641022920609, -0.04108354449272156, -0.07710757106542587, 0.019557802006602287, 0.04102633148431778, 0.02617666870355606, -0.00917874090373516, -0.07703984528779984, -0.09803354740142822, -0.14442209899425507, 0.008252711035311222, -0.0434936098754406, -0.07924365997314453, 0.024244321510195732, 0.04885818436741829], [-0.11813316494226456, 0.11685099452733994, -0.024705154821276665, -0.16162411868572235, 0.0418134443461895, 0.11313823610544205, -0.02248559705913067, -0.12870754301548004, 0.13236837089061737, 0.019012000411748886, 0.00944812223315239, 0.020170995965600014, 0.11308186501264572, -0.031784601509571075, 0.023234819993376732, -0.15319333970546722, 0.03529743850231171, -0.004822800401598215, 0.0030676161404699087, -0.012070688419044018, 0.009504029527306557, 0.08306688815355301, 0.008375906385481358, 0.16211174428462982, -0.10247091203927994, 0.1588287502527237, 0.14532031118869781, -0.1329788863658905, 0.024235280230641365, -0.05072444677352905, 0.049856558442115784, 0.11933477222919464], [-0.0927145928144455, -0.005972629878669977, -0.06008642166852951, -0.06487099826335907, 0.016642441973090172, 0.1636153906583786, -0.17085468769073486, -0.13016963005065918, -0.15638898313045502, 0.0021660318598151207, -0.07579927146434784, 0.1459631472826004, -0.13796821236610413, -0.0030915767420083284, -0.021432852372527122, 0.1354871392250061, 0.014898679219186306, 0.011724536307156086, -0.02682916633784771, -0.14076796174049377, -0.0166565403342247, -0.12490665167570114, -0.07286714017391205, 0.06462316960096359, -0.1567634493112564, 0.1529180407524109, 0.12467043846845627, -0.005249347537755966, -0.09219873696565628, 0.04127965494990349, -0.06475768238306046, 0.09680595993995667], [-0.14468695223331451, 0.021412011235952377, -0.17118264734745026, 0.16774629056453705, -0.0788230374455452, 0.1093311533331871, -0.03374624252319336, 0.1226005032658577, 0.14463207125663757, 0.029556341469287872, 0.10405632853507996, -0.16535986959934235, 