{"lstm.weight_ih_l0": [[-0.06766156107187271, 0.05488443374633789, -0.021388137713074684, -0.050625573843717575, 0.08383297920227051, 0.017088843509554863, -0.08777441084384918, 0.026644039899110794, -0.03697601705789566, 0.08863713592290878, -0.05475759506225586, -0.09897112101316452, 0.07344021648168564, -0.07641766220331192, -0.01097327470779419, -0.083358995616436, -0.07589425891637802], [-0.038698744028806686, 0.07076156139373779, 0.0742943063378334, 0.007726812269538641, 0.0853344202041626, -0.0831131860613823, 0.03260991722345352, 0.009035813622176647, 0.011801970191299915, 0.0176031943410635, 0.013153421692550182, -0.04491844400763512, -0.054249107837677, -0.0765211209654808, -0.006361865904182196, 0.03759123012423515, 0.05312744528055191], [0.039200495928525925, -0.07736551761627197, -0.04778444766998291, 0.07277490943670273, -0.013436722569167614, 0.05862361192703247, 0.027401482686400414, 0.05104260519146919, -0.09882509708404541, -0.08894703537225723, -0.09877876192331314, 0.011361169628798962, -0.029412711039185524, -0.0943199172616005, -0.06846648454666138, 0.02097914181649685, 0.09168006479740143], [0.08877506852149963, 0.055056534707546234, -0.033892177045345306, -0.03468337655067444, -0.023765452206134796, 0.026487860828638077, -0.014136970974504948, -0.03825855627655983, 0.03457126393914223, 0.04332750290632248, -0.08866579085588455, -0.036192886531353, -0.04517523944377899, 0.04271279647946358, 0.06226104497909546, -0.051850639283657074, 0.07191917300224304], [0.0938471332192421, 0.0692305713891983, 0.08589456230401993, 0.03684578090906143, -0.05224577337503433, 0.02268858067691326, 0.07188030332326889, 0.08179383724927902, 0.06292050331830978, -0.01721709966659546, 0.08805497735738754, 0.02533947303891182, -0.05074805021286011, -0.00852359551936388, -0.07941804081201553, -0.030614471063017845, 0.05228539928793907], [0.02719082683324814, -0.024199821054935455, -0.053227994590997696, -0.04322545602917671, -0.03922121599316597, 0.05286792665719986, 0.014499467797577381, 0.027623793110251427, 0.09653091430664062, -0.06550532579421997, 0.03994192183017731, 0.0088126789778471, -0.03466852754354477, -0.08381283283233643, -0.04738456755876541, 0.031963154673576355, -0.0662693902850151], [-0.012594866566359997, -0.014233159832656384, -0.025913048535585403, 0.05249016359448433, 0.041027188301086426, -0.05677315220236778, 0.02930588833987713, 0.08456770330667496, -0.0680880919098854, -0.09018788486719131, -0.07927979528903961, -0.0364556685090065, -0.07612868398427963, -0.010279739275574684, 0.0035470842849463224, -0.04648497328162193, -0.0017627954948693514], [-0.09198176860809326, -0.02998427115380764, -0.002394306706264615, 0.0927351713180542, -0.07920891046524048, -0.07451331615447998, 0.034532368183135986, 0.00034371615038253367, 0.05975929647684097, 0.015259265899658203, -0.08071982860565186, -0.08294587582349777, 0.05322061851620674, -0.037400782108306885, -0.08190827816724777, -0.0765630230307579, -0.08087991923093796], [-0.07195979356765747, -0.0393403060734272, 0.09248041361570358, -0.08439788967370987, 0.09162671864032745, -0.052582789212465286, 0.037874069064855576, -0.0916329026222229, -0.01005773525685072, 0.06128644943237305, 0.05635065957903862, 0.009612441062927246, -0.05284656211733818, 0.06602537631988525, 0.03336989879608154, -0.020633673295378685, -0.05735006555914879], [0.020902205258607864, 0.05724482610821724, 0.04971010610461235, 0.03497849777340889, -0.07755320519208908, 0.04620876535773277, 0.052638281136751175, -0.06523654609918594, 0.04074648767709732, 0.002041983650997281, 0.08730717748403549, -0.05773388221859932, 0.011910713277757168, 0.05993819236755371, -0.08681591600179672, -0.005351531784981489, -0.07321437448263168], [-0.0772286206483841, -0.060316599905490875, 0.07277003675699234, 0.012501919642090797, -0.010011828504502773, -0.09854649752378464, -0.0018007875187322497, 0.05307033285498619, -0.00462297210469842, 0.0554380901157856, -0.07694149017333984, -0.07986629009246826, 0.0344555489718914, 0.037212397903203964, 0.010597956366837025, -0.05789368227124214, 0.0009383439901284873], [0.06676977872848511, 0.09689970314502716, -0.04178345203399658, 0.08017716556787491, 0.016034936532378197, -0.08841788023710251, 0.02363746240735054, -0.049003567546606064, 0.009233975782990456, -0.05377707630395889, 0.006732427980750799, -0.06870368868112564, 0.09890841692686081, -0.03319514915347099, -0.02281639538705349, 0.038319673389196396, -0.0567326657474041], [-0.0762137919664383, 0.04426725581288338, -0.05868000537157059, -0.04136669635772705, 0.005195321515202522, 0.017635958269238472, -0.005656152963638306, 0.055482763797044754, 0.0554032176733017, -0.08924452215433121, -0.028969427570700645, 0.013625102117657661, 0.038031477481126785, -0.08079615980386734, -0.04278767481446266, 0.0848664790391922, -0.08815249055624008], [0.025552261620759964, -0.04420718178153038, 0.07181254774332047, 0.015658248215913773, 0.05234476551413536, -0.07649947702884674, 0.06265298277139664, -0.0794602632522583, 0.07003235071897507, -0.040851663798093796, -0.09462740272283554, 0.046490371227264404, 0.052648793905973434, 0.06380434334278107, -0.015238619409501553, 0.07515598833560944, 0.03142648935317993], [-0.04592503234744072, -0.049103595316410065, -0.01685699261724949, 0.06740652769804001, -0.08777006715536118, -0.09000770002603531, -0.009578919969499111, 0.025471890345215797, -0.060530781745910645, 0.09427779167890549, 0.08623427152633667, -0.012306642718613148, 0.03872894123196602, 0.07666219770908356, -0.021182848140597343, -0.0004736662085633725, 0.060168780386447906], [-0.06434011459350586, 0.04363424330949783, -0.018101463094353676, 0.06957586854696274, 0.017989393323659897, -0.012908339500427246, -0.08343484252691269, -0.08359374850988388, 0.07354071736335754, 0.010277355089783669, 0.05120666325092316, -0.06433087587356567, -0.04923974722623825, 0.009026825428009033, -0.018621986731886864, -0.009326624684035778, 0.07271164655685425], [0.0003558635653462261, 0.06498401612043381, 0.03336541727185249, -0.0540304072201252, 0.09068530052900314, -0.05060866102576256, 0.08536428213119507, -0.09945046901702881, -0.027731502428650856, 0.05798988416790962, -0.07551895827054977, 0.08293485641479492, 0.08593268692493439, 0.01653890684247017, -0.03372429683804512, 0.02729937992990017, 0.029192661866545677], [0.05757138878107071, 0.03894244506955147, -0.023155177012085915, 0.07215674966573715, -0.03316764906048775, -0.02627694606781006, 0.09793787449598312, -0.05637266859412193, -0.04641035944223404, -0.08530421555042267, 0.09365929663181305, -0.032731760293245316, 0.06134672090411186, 0.014280545525252819, 0.05200611427426338, 0.053018856793642044, 0.0010878563625738025], [-0.046110499650239944, -0.08089064061641693, -0.08643887937068939, 0.05828936770558357, -0.04558953270316124, 0.05514496564865112, -0.029621394351124763, -0.014305508695542812, 0.02748626098036766, 0.017617106437683105, 0.08941424638032913, 0.007369653787463903, 0.057324279099702835, 0.09492220729589462, -0.08788128942251205, 0.07755158841609955, -0.006541067268699408], [0.09788461774587631, 0.08331795036792755, -0.00743821868672967, -0.036671340465545654, -0.03114781342446804, -0.011210608296096325, -0.044237542897462845, 0.08849650621414185, -0.005906975362449884, 0.06145956739783287, -0.027284061536192894, 0.08868836611509323, -0.04041910171508789, -0.09758760780096054, -0.09323488920927048, -0.08719891309738159, 0.05175666883587837], [0.00042760992073453963, -0.08612541109323502, -0.06986731290817261, 0.06953553110361099, 0.029207587242126465, 0.09366010874509811, 0.008098562248051167, 0.06581582129001617, 0.052947111427783966, 0.07897591590881348, -0.09808267652988434, 0.06475063413381577, 0.014963656663894653, -0.03636891767382622, -0.01232092920690775, -0.058744024485349655, 0.014484238810837269], [0.030000735074281693, 0.08523743599653244, 0.07195457071065903, 0.019251812249422073, 0.0099373459815979, 0.059616219252347946, 0.08167703449726105, -0.06667429208755493, 0.047116827219724655, -0.03579828888177872, -0.051228929311037064, 0.024692917242646217, 0.017660045996308327, 0.08198032528162003, 0.03789783641695976, -0.02102339267730713, 0.0019360065925866365], [-0.07976218312978745, 0.07668626308441162, -0.05326823517680168, -0.04660424217581749, -0.06275399774312973, 0.07479748874902725, -0.02709716185927391, 0.0632939413189888, 0.04443802312016487, -0.06810659170150757, -0.06336602568626404, -0.0008923605200834572, 0.04370267689228058, 0.08386148512363434, 0.029411839321255684, 0.02849399670958519, -0.02036309242248535], [0.01105036772787571, -0.0460963137447834, -0.09781897068023682, 0.08189662545919418, -0.03436584398150444, -0.04765789583325386, 0.00525587797164917, 0.09929820150136948, -0.017475342378020287, 0.07472258061170578, -0.0888725146651268, -0.012203383259475231, -0.06589453667402267, 0.01845158450305462, -0.0809037908911705, 0.020237887278199196, 0.05716909095644951], [0.048407722264528275, 0.025008579716086388, -0.07187547534704208, -0.050296224653720856, 0.07936890423297882, -0.011358369141817093, 0.09499846398830414, 0.05369076132774353, 0.08964583277702332, 0.09257908165454865, 0.001545629696920514, -0.054534684866666794, -0.05243562534451485, -0.031238211318850517, -0.09286277741193771, -0.03862842172384262, 0.009262395091354847], [0.01644538715481758, 0.002430009888485074, -0.049991585314273834, 0.012558603659272194, -0.08250268548727036, 0.06121788173913956, -0.023257827386260033, -0.03984875604510307, -0.016517138108611107, 0.07338055223226547, -0.08182110637426376, 0.0485055111348629, 0.09850867837667465, 0.03034985065460205, -0.08227069675922394, -0.06141430139541626, -0.004291582386940718], [0.0679570809006691, -0.051566243171691895, -0.09768901020288467, 0.003032600972801447, 0.026645053178071976, 0.0346885584294796, 0.07332763820886612, 0.01702427864074707, 0.07080956548452377, 0.03823641687631607, 0.08647781610488892, -0.05867164209485054, -0.09806229919195175, -0.017860103398561478, 0.09099175781011581, -0.08003568649291992, 0.09684813022613525], [0.03811195120215416, -0.0745413675904274, 0.08997682482004166, -0.07102438062429428, 0.025641227141022682, 0.07442990690469742, -0.009854006581008434, -0.003197145415470004, 0.04863176494836807, 0.06649605184793472, 0.04304070398211479, -0.09181418269872665, 0.09243253618478775, 0.057416439056396484, 0.03702504560351372, -0.011499404907226562, -0.03166617080569267], [-0.007710507605224848, -0.07854493707418442, -0.03267385810613632, 0.022325290367007256, 0.06450513750314713, -0.02484639547765255, -0.007105411496013403, 0.04144402593374252, 0.08044152706861496, -0.09070853143930435, -0.04753557965159416, 0.00746047031134367, -0.0833306685090065, 0.08019793033599854, -0.08835871517658234, 0.06095975264906883, -0.059114161878824234], [-0.0146036297082901, 0.030042076483368874, -0.019779901951551437, -0.017935574054718018, -0.08383846282958984, 0.09296800941228867, -0.0058662467636168, 0.005822491366416216, 0.08329545706510544, 0.06528116762638092, 0.09233193844556808, -0.025717878714203835, 0.0938434824347496, 0.028036797419190407, -0.004666777793318033, -0.08339200168848038, -0.016226982697844505], [-0.0375237837433815, -0.03925982862710953, -0.08148544281721115, -0.04515695571899414, -0.037137698382139206, -0.041141342371702194, 0.009824717417359352, -0.07666020840406418, -0.07253855466842651, 0.04082966968417168, 0.061079155653715134, 0.03339216858148575, -0.026133060455322266, 0.003072249935939908, 0.00658605108037591, -0.01882042922079563, -0.04019010066986084], [0.04921732097864151, 0.009807956404983997, -0.07444155216217041, 0.07630176842212677, -0.02728886716067791, -0.04298598691821098, -0.08917412906885147, 0.060679055750370026, -0.004761361982673407, 0.002982461592182517, -0.030722690746188164, 0.026810813695192337, 0.00998691376298666, 0.028630172833800316, -0.037627317011356354, -0.03124161995947361, 0.07357579469680786], [-0.033733345568180084, -0.09097087383270264, -0.09707518666982651, 0.07501589506864548, -0.004516732878983021, -0.04972008615732193, -0.027363646775484085, 0.033309757709503174, -0.0006665706750936806, 0.013153242878615856, -0.07178932428359985, -0.07306507974863052, 0.06488746404647827, 0.0688488632440567, 0.025871455669403076, -0.06418102979660034, 0.061751365661621094], [-0.08716031163930893, 0.022557854652404785, 0.02693774737417698, -0.08985531330108643, -0.05103349685668945, -0.03867831453680992, 0.012262046337127686, 0.058079566806554794, -0.06278101354837418, 0.05661354213953018, 0.05498824268579483, 0.029726458713412285, -0.05870549753308296, -0.01477503776550293, 0.015429330058395863, 0.009847069159150124, -0.08688757568597794], [0.03127694129943848, -0.09912627935409546, -0.08283374458551407, -0.09306589514017105, -0.06780137121677399, 0.06560943275690079, -0.04787193611264229, -0.09225018322467804, 0.09100206196308136, -0.041857898235321045, -0.05719861015677452, 0.06156407669186592, -0.019957160577178, 0.03115668334066868, -0.06938586384057999, 0.040038563311100006, -0.01132283266633749], [-0.05217104032635689, 0.0024218917824327946, -0.03395075723528862, 0.005647444631904364, 0.006831240840256214, -0.06303881853818893, -0.06677353382110596, -0.08441733568906784, 0.01657775603234768, -0.010539019480347633, -0.03731265291571617, 0.020518196746706963, 0.08871882408857346, -0.014145600609481335, -0.03096151351928711, -0.07586579769849777, -0.014182865619659424], [0.07464835792779922, -0.0677834302186966, -0.07221516221761703, 0.05124173313379288, -0.03318587690591812, -0.0745471641421318, 0.07610847800970078, -0.042312897741794586, -0.03990715742111206, 0.010357833467423916, 0.04315676912665367, 0.040374208241701126, 0.0825900062918663, 0.06335461139678955, -0.016547763720154762, 0.06460720300674438, -0.03385826572775841], [-0.09461498260498047, 0.21726547181606293, 0.01756148226559162, -0.0872771218419075, -0.014506532810628414, -0.02140360325574875, -0.07634668052196503, 0.04198985546827316, -0.0049863713793456554, -0.09851999580860138, 0.04794533550739288, -0.1243564561009407, 0.003195962868630886, -0.09717706590890884, 0.07598777860403061, -0.054802365601062775, -0.07126399129629135], [-0.032794784754514694, 0.09795190393924713, 0.06774002313613892, -0.08435799181461334, -0.06804003566503525, 0.04023062065243721, -0.09996297210454941, 0.042233049869537354, 0.06457143276929855, 0.09209709614515305, 0.05105721950531006, -0.09403246641159058, 0.07482502609491348, 0.023872746154665947, 0.019630003720521927, 0.09209354966878891, -0.06005514785647392], [0.009848389774560928, -0.08491041511297226, -0.01594291813671589, 0.02062753029167652, 0.030733756721019745, 0.09452296048402786, -0.034779489040374756, 0.014825799502432346, 0.026601437479257584, 0.05152321234345436, 0.05451788753271103, -0.09339683502912521, -0.0642697885632515, -0.07733293622732162, 0.013955112546682358, -0.05958792194724083, 0.08504804968833923], [-0.08648912608623505, -0.09991618990898132, 0.02089216187596321, 0.07167542725801468, -0.05567432940006256, 0.056177545338869095, 0.07371959835290909, 0.09203030169010162, -0.06574276089668274, 0.005891624838113785, 0.04691387340426445, 0.08846651017665863, -0.02267765998840332, 0.048111509531736374, -0.10543878376483917, 0.06391532719135284, -0.05994546413421631], [-0.09257593005895615, -0.01776033639907837, 0.07180760055780411, -0.03663250431418419, 0.08565212786197662, 0.006546735763549805, -0.08677386492490768, -0.05487802252173424, 0.007671189494431019, -0.0026665569748729467, -0.062027741223573685, 0.030409490689635277, 0.08840864896774292, -0.034609269350767136, -0.09936337918043137, 0.018887460231781006, -0.010070979595184326], [-0.03688919544219971, 0.047563470900058746, 0.06775639206171036, 0.03147529438138008, 0.03324887901544571, -0.0012466668849810958, 0.05546316131949425, -0.03760726377367973, 0.09186404943466187, -0.022941578179597855, -0.031938064843416214, -0.01188752707093954, 0.031152402982115746, 0.08646500110626221, 0.09622116386890411, 0.05046885088086128, 0.008208895102143288], [-0.11317422240972519, 0.09335265308618546, -0.047291092574596405, -0.0763167068362236, 0.07207943499088287, -0.027133438736200333, -0.029501978307962418, 0.129813551902771, -0.10938051342964172, 0.04041297733783722, 0.025552211329340935, -0.12183026224374771, 0.03756459057331085, -0.09442138671875, 0.06111755222082138, 0.05814120173454285, 0.01617184653878212], [0.002259504748508334, -0.09921028465032578, -0.06040778383612633, -0.029256677255034447, 0.07147011905908585, -0.021747827529907227, 0.07962622493505478, 0.09496700018644333, -0.05519261583685875, -0.09292866289615631, 0.03212738037109375, -0.07194645702838898, -0.01781921461224556, 0.07968322187662125, 0.0900464579463005, -0.09127340465784073, -0.06763632595539093], [0.025582600384950638, 0.012795460410416126, -0.0685272216796875, -0.04432385042309761, 0.0693700909614563, 0.014955759048461914, 0.03496328741312027, 0.027294576168060303, -0.0001224756269948557, 0.0007931828731670976, -0.007834660820662975, 0.06762304157018661, 0.09888073056936264, 0.06099355220794678, -0.03661372885107994, -0.0522003173828125, -0.07869308441877365], [-0.08557714521884918, 0.07081633061170578, -0.0250870231539011, 0.01022790651768446, 0.020699894055724144, 0.0069742086343467236, 0.07407643646001816, 0.04210537672042847, -0.09285838901996613, -0.025574957951903343, 0.04782823473215103, 0.09388692677021027, -0.08187346905469894, -0.0015385628212243319, -0.00865861214697361, -0.09435924142599106, -0.015205740928649902], [-0.08093004673719406, -0.0533943772315979, 0.02800830639898777, -0.0403667688369751, -0.03790346533060074, -0.0755016952753067, 0.01929347589612007, 0.08846793323755264, -0.07197302579879761, -0.042004991322755814, -0.07507790625095367, 0.05390128120779991, -0.04831646755337715, 0.034447621554136276, -0.05120284482836723, -0.08599694073200226, 0.04372202232480049], [-0.09084033966064453, -0.06448209285736084, -0.035919513553380966, -0.0464593768119812, 0.030958950519561768, -0.06619701534509659, -0.03254134580492973, -0.0718231350183487, 0.005471301265060902, 0.04057424142956734, -0.037970997393131256, -0.03179241344332695, 0.030963588505983353, -0.08203071355819702, -0.018579935654997826, -0.07080890238285065, -0.09795664995908737], [-0.013509774580597878, -0.06386498361825943, 0.03657029941678047, -0.016437817364931107, -0.075441874563694, -0.042915165424346924, 0.028501689434051514, 0.04107985645532608, 0.057810116559267044, 0.08398552983999252, 0.03467864915728569, 0.025243056938052177, 0.06020402908325195, 0.08635852485895157, -0.08508559316396713, 0.07046546787023544, -0.0921100303530693], [0.07121022790670395, -0.047858309000730515, 0.048829879611730576, -0.020808910951018333, 0.027347838506102562, -0.09604479372501373, 0.0956462025642395, 0.04475989565253258, -0.05507683753967285, -0.028156651183962822, -0.02302849292755127, 0.08608660846948624, 0.030272258445620537, -0.01989896409213543, -0.09532109647989273, 0.07458243519067764, 0.0006898641586303711], [0.046821750700473785, -0.04605395719408989, 0.07576092332601547, -0.08087935298681259, -0.014267909340560436, 0.03751663118600845, 0.0886773094534874, -0.045524802058935165, 0.03615285083651543, -0.0699208602309227, 0.09861647337675095, -0.0003132939455099404, 0.03938443586230278, -0.023284757509827614, -0.01159526128321886, -0.007767093367874622, -0.04625898599624634], [0.0028329731430858374, 0.0970539078116417, -0.013879991136491299, -0.04750322178006172, -0.043757855892181396, 0.0276429895311594, 0.0847388282418251, -0.05127015337347984, -0.053137876093387604, -0.034004904329776764, -0.03719400241971016, -0.09816725552082062, 0.07284698635339737, -0.018759597092866898, 0.0732220932841301, 0.0571768656373024, -0.00901572685688734], [-0.03442227467894554, -0.011850099079310894, -0.023124676197767258, 0.0213000625371933, -0.07324761152267456, -0.045094192028045654, 0.0016680581029504538, -0.025310548022389412, 0.0169129129499197, 0.09028378874063492, -0.004639534745365381, 0.006532004103064537, 0.025776488706469536, -0.08177685737609863, 0.07408038526773453, -0.08088869601488113, 0.05538703128695488], [-0.03649839386343956, 0.01840241067111492, -0.09796048700809479, -0.07115049660205841, -0.03335873782634735, -0.05182312801480293, 0.007716411724686623, -0.0136409318074584, -0.07744938880205154, -0.07095009088516235, 0.027364838868379593, -0.07840851694345474, 0.07986738532781601, 0.00180861447006464, 0.06620730459690094, -0.011298363097012043, 0.025816792622208595], [-0.08512407541275024, 0.06979749351739883, 0.044306766241788864, 0.002907717367634177, 0.036839284002780914, 0.08869242668151855, -0.04394103214144707, -0.08924812078475952, 0.09325845539569855, -0.006514215376228094, 0.07016968727111816, -0.029285406693816185, 0.08940775692462921, -0.03710135444998741, 0.07341592758893967, 0.02752166986465454, 0.03672238811850548], [-0.08816828578710556, 0.09823498129844666, -0.026544183492660522, 0.03443837910890579, -0.025363799184560776, 0.04076698049902916, 0.06568402051925659, 0.04361838847398758, -0.007373548578470945, 0.04535834491252899, -0.08324600011110306, 0.08436054736375809, -0.012774915434420109, 0.08357276767492294, 0.09189528226852417, 0.07411355525255203, 0.07043572515249252], [0.024617576971650124, 0.0679178237915039, 0.004825294017791748, -0.015253925696015358, -0.09028827399015427, 0.07238840311765671, -0.038279224187135696, 0.06953775882720947, -0.0986860990524292, -0.051182616502046585, -0.03689093515276909, -0.0844673439860344, 0.008914649486541748, 0.04612162336707115, -0.03542124107480049, -0.0925072580575943, -0.01630845107138157], [0.07451870292425156, 0.08258010447025299, 0.014403211884200573, 0.018826520070433617, -0.06531981378793716, -0.06884787231683731, -0.00978761911392212, 0.002919876715168357, 0.08279801905155182, 0.047982145100831985, -0.06943430006504059, -0.02097707986831665, -0.07923447340726852, 0.018550409004092216, -0.02965571917593479, -0.04925060272216797, -0.03422360494732857], [0.022911464795470238, 0.0608682744204998, 0.0047602178528904915, -0.056320320814847946, -0.08766740560531616, 0.029260529205203056, -0.07655074447393417, 0.045788682997226715, 0.09181995689868927, 0.08396603912115097, -0.08721809834241867, 0.010162830352783203, -0.03193157911300659, -0.03106210194528103, -0.04616246372461319, -0.03753054141998291, -0.033485960215330124], [0.07825839519500732, 0.03935450315475464, 0.09386570751667023, 0.09985164552927017, -0.010715472511947155, 0.005911052227020264, 0.03476608917117119, -0.05328604206442833, 0.0005071759223937988, 0.08323061466217041, -0.08735283464193344, 0.014112628065049648, 0.06456341594457626, -0.052159667015075684, -0.008432114496827126, 0.08359535038471222, 0.09772610664367676], [0.07892503589391708, 0.022241806611418724, 0.024033356457948685, 0.08254756778478622, 0.09329646080732346, 0.010423350147902966, -0.012122082524001598, -0.0072110178880393505, 0.016008783131837845, 0.049733616411685944, -0.004900706000626087, 0.034779857844114304, -0.07605025917291641, -0.02058354578912258, 0.0525628924369812, -0.08816652745008469, -0.03280442953109741], [-0.0015861968277022243, 0.07577305287122726, -0.09875115007162094, 0.005361378192901611, 0.00569908507168293, 0.0008740783086977899, 0.014722716063261032, 0.018019938841462135, 0.08513617515563965, 0.017770303413271904, 0.08728009462356567, -0.05952887609601021, 0.033319950103759766, 0.049207448959350586, 0.02190323919057846, -0.0845365896821022, 0.06655221432447433], [-0.05759866163134575, -0.06231367588043213, -0.007199156563729048, 0.047293711453676224, -0.020445287227630615, -0.03958043083548546, -0.06756430864334106, -0.00919410027563572, -0.0995786115527153, -0.09945078194141388, -0.0124960420653224, 0.0019743682350963354, -6.998777826083824e-05, -0.09657906740903854, -0.010426926426589489, -0.0009378075483255088, -0.021719694137573242], [-0.08331146091222763, -0.04468787834048271, -0.016665244475007057, -0.002557516098022461, 0.014699590392410755, -0.0004060387727804482, -0.07058161497116089, 0.06591608375310898, 0.043780840933322906, -0.07325386255979538, 0.06011326238512993, 0.09238685667514801, 0.05357788875699043, 0.09462417662143707, 0.073677659034729, 0.08201561123132706, 0.08209659904241562], [-0.1460351049900055, 0.12710894644260406, 0.01990864798426628, -0.08392834663391113, -0.0003362784336786717, -0.08874466270208359, -0.06666599214076996, 0.0753178671002388, -0.0024468775372952223, 0.04944920912384987, 0.07185161858797073, -0.09364822506904602, -0.12714853882789612, -0.023721899837255478, 0.01952260546386242, -0.007484875153750181, -0.00978798046708107], [0.08412732928991318, 0.09632612764835358, 0.0660630464553833, -0.05759620666503906, -0.08735135942697525, 0.025000179186463356, 0.011772406287491322, -0.08550062030553818, 0.08074231445789337, 0.03579806163907051, -0.06972154229879379, -0.06807593256235123, -0.09393417835235596, 0.042761921882629395, -0.06973621994256973, 0.0728035569190979, 0.06675734370946884], [-0.08653360605239868, 0.0902603417634964, 0.012937748804688454, -0.06574471294879913, 0.07881017029285431, 0.04979757219552994, -0.08028125762939453, 0.04453684017062187, 0.0645313635468483, -0.05335503816604614, -0.016342198476195335, 0.0298042893409729, -0.01858975924551487, -0.09403371065855026, 0.09292995929718018, 0.07183142751455307, 0.0007668376201763749], [-0.04649031162261963, -0.03207327052950859, 0.0897333025932312, -0.03564950451254845, -0.014176130294799805, -0.07084431499242783, 0.08792012184858322, 0.027432823553681374, 0.07255339622497559, -0.05626044422388077, -0.07595586031675339, -0.08018374443054199, 0.07683060318231583, -0.03951437398791313, 0.01724529266357422, -0.07457604259252548, -0.03268268331885338], [0.06425666064023972, 0.053846873342990875, 0.0271185040473938, -0.031384360045194626, -0.008220422081649303, 0.047122444957494736, 0.004073739051818848, -0.03717142343521118, -0.010252821259200573, -0.011822856031358242, 0.06841671466827393, 0.05954662710428238, -0.07642646133899689, -0.07026439905166626, 0.09494330734014511, 0.08147306740283966, -0.017152799293398857], [-0.05667750909924507, -0.057042717933654785, -0.02734149806201458, 0.0637182742357254, 0.03485647588968277, -0.07967483252286911, -0.027542604133486748, 0.0478401780128479, -0.08389701694250107, -0.04220065101981163, -0.03905770927667618, -0.030872583389282227, -0.027468014508485794, -0.06478404253721237, -0.09365934133529663, 0.06503257900476456, -0.0021687746047973633], [-0.011896813288331032, -0.06924211233854294, 0.010279727168381214, -0.09873630851507187, -0.051318563520908356, -0.016001272946596146, -0.02184276655316353, 0.019575584679841995, 0.031785931438207626, -0.06709925085306168, -0.09004868566989899, 0.09059249609708786, 0.07861770689487457, 0.0003781318664550781, -0.005182814784348011, -0.003403949784114957, -0.011442899703979492], [-0.00719032296910882, 0.0018708109855651855, -0.09541169553995132, 0.0060949684120714664, -0.009955442510545254, -0.05235768482089043, -0.06178506836295128, -0.06581252068281174, 0.05567563697695732, 0.08198288828134537, 0.04725688695907593, -0.03649984672665596, 0.014951038174331188, -0.09001525491476059, -0.06277002394199371, 0.006312060635536909, 0.08747142553329468], [0.03912752866744995, -0.06432636082172394, 0.04249758645892143, 0.02248331345617771, -0.09808248281478882, -0.017426276579499245, 0.050664305686950684, 0.03717335686087608, -0.05895637348294258, 0.03994709253311157, -0.06341595947742462, 0.0574243925511837, 0.07074027508497238, -0.026300299912691116, -0.07751651108264923, -0.032949209213256836, 0.0753929615020752], [0.06513605266809464, -0.09582141786813736, 0.09671346098184586, 0.004306209273636341, 0.042275216430425644, 0.04963188245892525, 0.09366052597761154, 0.09026356786489487, -0.06420762836933136, -0.040315281599760056, -0.09322883933782578, 0.07317035645246506, 0.09255391359329224, -0.06400038301944733, -0.0348820686340332, 0.0757521390914917, -0.0874025747179985], [0.07386749982833862, -0.0374881736934185, -0.05044698715209961, 0.022591281682252884, 0.00840747356414795, 0.053063105791807175, -0.08963987976312637, 0.0452437661588192, -0.05999898910522461, 0.0048296451568603516, -0.09540390968322754, 0.01606597937643528, -0.01119775790721178, -0.07096218317747116, -0.07527696341276169, 0.09039651602506638, -0.07315093278884888], [-0.0060402750968933105, -0.03834085538983345, 0.042586684226989746, 0.01037145871669054, -0.08189202845096588, -0.008192062377929688, -0.0707109346985817, -0.030906368046998978, -0.09606224298477173, -0.07994043081998825, -0.07849176228046417, -0.05219217762351036, -0.037341512739658356, -0.058478690683841705, 0.003953039646148682, 0.08019141107797623, 0.07391715049743652], [0.07616585493087769, -0.08499617874622345, 0.04588083177804947, -0.0160975344479084, 0.06030385568737984, -0.04376478120684624, -0.08594951778650284, -0.06709320843219757, -0.09392984956502914, 0.05697151646018028, -0.010666513815522194, 0.007975316606462002, 0.04572705179452896, 0.015197992324829102, -0.03747936710715294, -0.0670405775308609, -0.04362472519278526], [-0.016375219449400902, 0.08544130623340607, 0.0359700582921505, -0.06511157006025314, 0.07779718935489655, -0.05201338604092598, -0.07671232521533966, -0.015619485639035702, -0.04037956893444061, 0.09603633731603622, 0.06630469858646393, -0.0006403906154446304, -0.06360390037298203, -0.06254692375659943, 0.09157382696866989, -0.04417424649000168, 0.0636020302772522], [-0.02927579917013645, -0.08995275944471359, 0.05463221296668053, -0.08512254059314728, 0.09372570365667343, -0.08983581513166428, -0.09908614307641983, -0.07819361984729767, -0.0031434178818017244, 0.0017796040046960115, -0.059123244136571884, 0.04934629425406456, 0.029838932678103447, -0.0927002802491188, -0.05298438295722008, -0.06392321735620499, 0.016135871410369873], [0.035612933337688446, -0.04734283313155174, 0.014007270336151123, -0.09381721168756485, 0.050061482936143875, -0.015439152717590332, -0.08797449618577957, 0.026783281937241554, 0.03809569403529167, 0.013312614522874355, -0.09103752672672272, -0.03305137902498245, -0.0067781792022287846, -0.07990159839391708, 0.00327073666267097, 0.0034478968009352684, -0.040452029556035995], [0.07368574291467667, 0.06095839664340019, 0.08191149681806564, -0.03788837417960167, 0.09148835390806198, 0.0846891775727272, -0.07244507223367691, -0.05470398813486099, 0.016516471281647682, 0.03556410223245621, 0.0814230814576149, 0.08963203430175781, 0.0496208555996418, 0.05684516578912735, -0.07982970774173737, -0.0769876018166542, 0.05515172705054283], [-0.06574489921331406, 0.07749060541391373, 0.0916421040892601, 0.09890001267194748, 0.025063276290893555, 0.04242539405822754, -0.00840464886277914, 0.0005067348829470575, 0.060342658311128616, 0.020408404991030693, -0.04819413647055626, -0.06965005397796631, -0.07590033859014511, 0.043817292898893356, -0.09828440099954605, -0.04934725910425186, 0.008276117034256458], [-0.18297207355499268, 0.11150939762592316, 0.00730879046022892, -0.13703785836696625, 0.0269729383289814, 0.021538807079195976, 0.0050124069675803185, -0.047823257744312286, -0.06228281557559967, 0.0845877081155777, 0.027430588379502296, -0.03417601436376572, 0.09916475415229797, 0.025538329035043716, -0.041579052805900574, 0.06250680983066559, 0.056582093238830566], [-0.07060849666595459, -0.05016878992319107, -0.061670172959566116, -0.05663951858878136, 0.021832812577486038, 0.06755498796701431, -0.00653808144852519, 0.004449236672371626, -0.06321044266223907, 0.06757863610982895, 0.07785763591527939, 0.03584238514304161, 0.08522337675094604, 0.02814502827823162, -0.0522487536072731, -0.030058061704039574, 0.06036801263689995], [-0.08627846091985703, -0.05969737842679024, 0.030429769307374954, -0.027509665116667747, 0.09366853535175323, -0.07337015122175217, 0.07838290929794312, -0.059710707515478134, 0.035990286618471146, 0.050302278250455856, -0.040378835052251816, -0.06037810072302818, 0.07994156330823898, -0.027086233720183372, 0.013691115193068981, 0.030149508267641068, -0.09551884233951569], [-0.0016823530895635486, -0.009901809506118298, 0.025305211544036865, -0.07791972160339355, 0.036147426813840866, -0.06792415678501129, 0.0005456685903482139, 0.059710659086704254, 0.05169631168246269, 0.048889804631471634, -0.08324509114027023, 0.027407050132751465, 0.03152484819293022, -0.03287631273269653, 0.08179841190576553, -0.08764251321554184, -0.032475199550390244], [-0.024952281266450882, 0.05277369171380997, 0.02726827934384346, 0.07224368304014206, -0.061157967895269394, -0.02416079118847847, 0.024473965167999268, 0.06848808377981186, 0.03089742735028267, -0.09862659126520157, 0.031784143298864365, 0.00011174679093528539, -0.09265141934156418, -0.016416549682617188, 0.09809378534555435, 0.04932743310928345, -0.06855078041553497], [-0.056892458349466324, 0.04649403318762779, -0.07186196744441986, 0.08749185502529144, -0.041534170508384705, -0.08723755180835724, 0.08943457156419754, -0.01767612062394619, 0.08645700663328171, 0.041595589369535446, -0.025790410116314888, -0.01178280171006918, -0.06077614426612854, -0.09500095993280411, 0.011129075661301613, -0.06945648044347763, 0.04328903183341026], [0.010421538725495338, 0.002582693239673972, 0.06587957590818405, -0.015362131409347057, 0.06841965019702911, 0.06691956520080566, -0.015313553623855114, -0.05217927694320679, 0.07892060279846191, 0.06831655651330948, 0.08888087421655655, 0.08581379801034927, 0.03770497068762779, -0.0047099473886191845, -0.036722730845212936, 0.07688111066818237, -0.09263588488101959], [-0.003986728377640247, 0.08442536741495132, -0.09532531350851059, -0.03736630827188492, -0.0635724812746048, -0.08864059299230576, -0.01578211784362793, -0.06158722564578056, -0.06595452129840851, -0.02769869565963745, -0.09223020076751709, 0.06341419368982315, 0.09044428914785385, -0.08413367718458176, 0.0977788195014, -0.05406968668103218, -0.07016988843679428], [-0.07403876632452011, 0.07110293209552765, 0.0762409195303917, -0.0850861668586731, -0.08751902729272842, -0.04828507825732231, -0.049719929695129395, -0.0316309817135334, 0.0453622005879879, -0.06155320629477501, -0.012598693370819092, 0.06718669086694717, -0.02457226626574993, 0.06191391870379448, -0.08603785187005997, -0.06852438300848007, -0.07481073588132858], [-0.06567572802305222, 0.05984053760766983, 0.0044030421413481236, -0.03357818350195885, -0.04624524340033531, 0.09752794355154037, -0.04470672830939293, 0.027833854779601097, -0.07460711151361465, 0.07780840247869492, 0.067559614777565, 0.0462658666074276, -0.06828898191452026, -0.06405947357416153, 0.052522171288728714, 0.06448066234588623, -0.052834607660770416], [0.06325775384902954, -0.046257007867097855, -0.03698699548840523, -0.03359810262918472, 0.07346051186323166, 0.05956166982650757, 0.0686417743563652, -0.010902071371674538, 0.0818406268954277, -0.04075432941317558, 0.08761943876743317, -0.03365856409072876, -0.030639125034213066, -0.09382237493991852, 0.055408358573913574, -0.07517844438552856, 0.06167189031839371], [0.05763360485434532, -0.06357883661985397, -0.014996612444519997, 0.011022877879440784, 0.03889051824808121, 0.03472635895013809, 0.027039015665650368, -0.08827812969684601, 0.04765596613287926, 0.031728554517030716, -0.07490253448486328, 0.021419061347842216, -0.06078892946243286, 0.0898236632347107, 0.06132528930902481, 0.08436185121536255, 0.019200801849365234], [0.08775503188371658, -0.027030734345316887, 0.08319079875946045, 0.13928280770778656, -0.07462091743946075, 0.014033379033207893, 0.01755363866686821, -0.06904645264148712, -0.02682115137577057, 0.07865559309720993, -0.057459767907857895, -0.059884920716285706, -0.03649961203336716, -0.04889959841966629, -0.005070495419204235, 0.03223314508795738, 0.06295552849769592], [-0.07236342877149582, 0.018172098323702812, -0.0487174391746521, 0.07855739444494247, -0.0013849259121343493, 0.00909966230392456, 0.017153942957520485, 0.018592942506074905, -0.09519653767347336, -0.07184666395187378, -0.04966188594698906, 0.03330785036087036, -0.0761907622218132, 0.04224088415503502, -0.0189669132232666, 0.09893901646137238, -0.057448673993349075], [-0.07420150935649872, -0.040078286081552505, 0.0676891952753067, -0.03562590107321739, -0.004587906412780285, -0.08777876198291779, 0.07663433253765106, -0.08642859756946564, 0.0651792660355568, -0.022783370688557625, -0.09823086112737656, -0.06213288754224777, 0.012732417322695255, 0.02176501974463463, -0.06618555635213852, 0.08077270537614822, 0.046625617891550064], [0.09827389568090439, -0.016710031777620316, 0.0021828056778758764, -0.0339665524661541, -0.03927573189139366, -0.05869194492697716, 0.015314579010009766, 0.09047850221395493, 0.008147979155182838, 0.010439622215926647, 0.07566817849874496, 0.08233099430799484, -0.053364455699920654, -0.06658082455396652, -0.03010472096502781, 0.09356170892715454, 0.06786586344242096], [0.10571977496147156, -0.09591953456401825, 0.026449451223015785, 0.016033796593546867, -0.03530474379658699, 0.0062972018495202065, -0.025602174922823906, 0.07119597494602203, -0.047896936535835266, -0.07322142273187637, 0.04479587823152542, 0.011556306853890419, 0.09980212897062302, -0.0963793471455574, -0.029955608770251274, -0.046517856419086456, -0.04828344285488129], [-0.06632286310195923, 0.07988794147968292, -0.04595661163330078, 0.053869664669036865, -0.0764685645699501, -0.004437935538589954, 0.044683780521154404, -0.026574408635497093, -0.0017162918811663985, 0.06093239784240723, 0.017916738986968994, -0.0020925283897668123, 0.038595058023929596, 0.07764726877212524, 0.061167120933532715, 0.00334836239926517, 0.02777702920138836], [0.03372594341635704, -0.08399792015552521, 0.015368319116532803, 0.09361246973276138, -0.03544079139828682, -0.06260844320058823, -0.05197983980178833, 0.05307288095355034, 0.0677824392914772, -0.04332785680890083, 0.03389168903231621, -0.06855610758066177, 0.02943485975265503, 0.06175767257809639, -0.04742853716015816, 0.073518767952919, -0.042109180241823196], [0.04147651419043541, 0.08465979248285294, 0.02534515969455242, -0.05369655042886734, -0.043600644916296005, -0.02600555494427681, -0.0017999053234234452, 0.04464898258447647, 0.09481947869062424, 0.046770788729190826, 0.007165444083511829, 0.07464464008808136, 0.06698967516422272, 0.04961646720767021, 0.07556851208209991, 0.08015676587820053, -0.04955402761697769], [-0.010253328830003738, -0.056608978658914566, -0.07905318588018417, 0.027199985459446907, -0.0331832692027092, 0.0693904310464859, 0.020612873136997223, -0.04963163658976555, -0.0172582920640707, 0.052258897572755814, 0.08742672204971313, 0.08064402639865875, 0.07549750804901123, -0.02828521840274334, 0.005629986524581909, 0.009172779507935047, -0.0005165463080629706], [-0.07277842611074448, -0.041338421404361725, -0.05452590063214302, 0.07392056286334991, -0.015615224838256836, 0.07624232023954391, -0.08477866649627686, 0.08814292401075363, 0.05433790758252144, -0.0983269140124321, -0.09119073301553726, 0.03545882925391197, -0.08925767987966537, 0.08529766649007797, 0.0616423599421978, -0.04608187824487686, 0.08097105473279953], [-0.005502366926521063, 0.04771978780627251, -0.030518664047122, -0.06127068027853966, -0.015422153286635876, -0.038537800312042236, 0.030523991212248802, 0.0957537442445755, -0.022066963836550713, 0.08452880382537842, -0.0694282278418541, 0.08289618790149689, 0.0708453431725502, 0.09919474273920059, 0.024755263701081276, 0.09463920444250107, -0.04242749139666557], [0.009611928835511208, 0.09355498850345612, -0.0013651729095727205, 0.009038388729095459, -0.036048319190740585, -0.07235365360975266, -0.06404397636651993, 0.03754940256476402, 0.0296079870313406, -0.004045760724693537, -0.026803195476531982, -0.06348609924316406, -0.06658955663442612, -0.06161975860595703, 0.043682754039764404, 0.07111670076847076, -0.01028678473085165], [-0.03683583810925484, 0.05506627634167671, 0.01348027028143406, -0.070343516767025, 0.021011805161833763, 0.005336499307304621, 0.024301743134856224, -0.009366917423903942, -0.056351806968450546, 0.055577218532562256, -0.07575900852680206, 0.0857628583908081, -0.02620161883533001, 0.08500733226537704, -0.016135526821017265, -0.08282758295536041, -0.016207171604037285], [-0.0757874846458435, 0.07408338040113449, 0.07802262157201767, -0.027580464258790016, 0.007691240403801203, 0.05020442232489586, -0.09083107858896255, 0.04680360481142998, 0.05456750467419624, -0.06806571781635284, -0.07866650819778442, 0.01428608875721693, 0.015611469745635986, 0.06702186912298203, 0.09157132357358932, 0.09291207045316696, 0.04719332605600357], [-0.09520504623651505, 0.08326351642608643, 0.09735333174467087, -0.06380169838666916, -0.09672558307647705, 0.02838723734021187, -0.04676549509167671, -0.0015671969158574939, 0.003983914852142334, 0.03584928438067436, 0.04349534586071968, 0.006809496786445379, -0.07121539115905762, 0.05221905931830406, -0.059091318398714066, 0.010664748959243298, -0.029012668877840042], [0.0059244753792881966, -0.005303406622260809, 0.04224221780896187, 0.012267387472093105, 0.00509876012802124, -0.006899440195411444, -0.05665082857012749, 0.07131005823612213, 0.030428875237703323, -0.045341599732637405, 0.029508007690310478, 0.06768351793289185, 0.06469421833753586, 0.02721308544278145, -0.030933916568756104, -0.0496319904923439, 0.0002537727414164692], [0.0023181606084108353, -0.10102593153715134, 0.02869286946952343, -0.00743199372664094, -0.0027225555386394262, -0.03160553053021431, -0.05465458333492279, 0.07301324605941772, -0.06715667992830276, 0.07938911765813828, 0.057280559092760086, -0.008792961947619915, -0.06166444718837738, -0.09305731952190399, 0.056550879031419754, 0.06730423122644424, -0.09910959005355835], [-0.03263179957866669, -0.007963920943439007, -0.06940891593694687, -0.05684782564640045, 0.09464267641305923, 0.04550448805093765, -0.08928375691175461, 0.06244663521647453, -0.02073531784117222, 0.01633688434958458, -0.04486268386244774, 0.08678045868873596, 0.047740813344717026, 0.08955851942300797, 0.03514869883656502, 0.05133883282542229, -0.028884222730994225], [0.06584157794713974, -0.04369523748755455, 0.06802187114953995, -0.0005691766855306923, -0.0982150062918663, 0.08118908852338791, -0.01452790480107069, 0.0835401639342308, 0.035258401185274124, -0.027390409260988235, 0.02713702991604805, -0.01843808963894844, -0.058652114123106, -0.05006052181124687, 0.048482347279787064, 0.04553450271487236, 0.010074305348098278], [-0.010197127237915993, 0.024437058717012405, 0.08024859428405762, -0.037939250469207764, -0.05722317844629288, -0.0395299457013607, -0.010731184855103493, 0.09047528356313705, -0.048952650278806686, -0.09070044755935669, -0.07220210880041122, 0.00415085582062602, 0.05008360370993614, -0.06700047105550766, 0.043737079948186874, 0.015408575534820557, 0.08845283091068268], [0.02477825991809368, 0.02005763165652752, -0.01715858094394207, -0.03689398989081383, 0.032978713512420654, 0.09031901508569717, 0.03920353576540947, -0.05745286867022514, 0.03299672529101372, 0.046879351139068604, -0.07424622774124146, -0.06361385434865952, -0.09035295248031616, 0.010892296209931374, -0.005634808447211981, 0.0084549430757761, -0.05121973901987076], [0.08164054155349731, -0.057820167392492294, 0.010747933760285378, -0.05576632171869278, -0.058518972247838974, 0.009347653947770596, 0.08859234303236008, -0.03791705518960953, 0.09797143191099167, 0.09633251279592514, 0.05459308624267578, -0.052071716636419296, 0.030741048976778984, 0.09322305023670197, -0.004847240634262562, -0.06418758630752563, 0.06964164972305298], [0.07718797028064728, -0.03354105353355408, 0.06702440232038498, 0.04161554574966431, -0.07327686250209808, -0.09609329700469971, 0.03239339962601662, -0.08474751561880112, -0.05055413022637367, 0.0038786442019045353, 0.09600899368524551, 0.08444821834564209, -0.06953318417072296, -0.07710076868534088, -0.046991366893053055, 0.04328008368611336, 0.06644975394010544], [-0.004140305798500776, 0.07809736579656601, -0.021718204021453857, -0.015220284461975098, 0.0482943169772625, 0.017469823360443115, -0.052928220480680466, 0.07216434925794601, -0.022019362077116966, 0.05870385095477104, 0.0637921467423439, -0.009425461292266846, -0.0876086875796318, 0.01821507327258587, -0.07923203706741333, -0.07591751962900162, -0.010917342267930508], [-0.05855666473507881, -0.09879729896783829, 0.05523402616381645, 0.03688638284802437, -0.09617423266172409, -0.07880844920873642, 0.0028719783294945955, 0.05277334526181221, 0.0023152590729296207, -0.06988904625177383, 0.0011147618060931563, 0.059451378881931305, -0.0764586329460144, 0.027940774336457253, 0.06725370138883591, 0.023244572803378105, -0.06615525484085083], [-0.05203038454055786, 0.02679520845413208, -0.011606740765273571, -0.09195519983768463, 0.0654129907488823, 0.013510191813111305, 0.059388305991888046, -0.040860485285520554, -0.038980044424533844, -0.06681600958108902, -0.06829243153333664, 0.09044069051742554, 0.062193598598241806, 0.0331265814602375, -0.06877745687961578, -0.024229729548096657, -0.09635341167449951], [0.022776711732149124, 0.031395185738801956, 0.009321535006165504, -0.013153553009033203, 0.08479755371809006, -0.03339112922549248, -0.001145482063293457, 0.0319126732647419, 0.015393328852951527, 0.08667917549610138, 0.026845991611480713, -0.05204492807388306, 0.023654794320464134, -0.09460300207138062, 0.07132523506879807, 0.04958236217498779, 0.09089270979166031], [0.02785029448568821, 0.07156280428171158, -0.022155333310365677, 0.004479169845581055, 0.0660262256860733, -0.0005001306417398155, 0.05859595537185669, -0.01015255507081747, 0.05126931890845299, -0.009246373549103737, 0.07256566733121872, -0.05336691066622734, -0.04586461931467056, -0.019056260585784912, -0.042703237384557724, 0.08543912321329117, 0.09088846296072006], [-0.09513994306325912, 0.04858985170722008, -0.07811415195465088, -0.02728496864438057, -0.07200279086828232, 0.0652691051363945, -0.07931473106145859, -0.05309420824050903, 0.011606764979660511, 0.052670516073703766, 0.057652201503515244, 0.011661851778626442, -0.07106156647205353, 0.021183479577302933, 0.06792086362838745, -0.07821600884199142, -0.047083523124456406], [-0.026593005284667015, 0.03530029207468033, 0.08196139335632324, -0.05201904848217964, 0.04594562202692032, 0.027056384831666946, 0.05362531170248985, -0.06802552938461304, 0.09973883628845215, 0.06804467737674713, -0.05381321907043457, -0.0667540431022644, 0.04675105959177017, -0.04806021600961685, 0.008113503456115723, -0.08422856777906418, -0.002672255039215088], [-0.07215950638055801, 0.06468143314123154, -0.08487557619810104, -0.004720580764114857, 0.0911756306886673, -0.021399199962615967, 0.002234554383903742, -0.06559890508651733, 0.03053525649011135, -0.03036358393728733, -0.01651073805987835, -0.03933160379528999, 0.05886273458600044, 0.08672549575567245, -0.02324124611914158, -0.0315181128680706, 0.00773388147354126], [0.07216949760913849, 0.05389914661645889, 0.042904555797576904, 0.06227215752005577, -0.08350594341754913, 0.04453637823462486, 0.09601318091154099, -0.08697594702243805, -0.0514400377869606, 0.06776221096515656, 0.016747428104281425, -0.08086849749088287, -0.019187545403838158, 0.08365277200937271, -0.0009463191381655633, 0.06406765431165695, -0.014217174611985683], [-0.05696597322821617, 0.022538864985108376, 0.01769540272653103, 0.057379867881536484, -0.07421474903821945, -0.027333451434969902, -0.09870009869337082, 0.021442413330078125, 0.027243589982390404, -0.0041506411507725716, 0.08269713073968887, 0.03423753008246422, -0.08079840242862701, 0.03800816461443901, -0.07112061977386475, -0.033241044729948044, 0.07276295870542526], [-0.026883089914917946, -0.02261664904654026, -0.07642947882413864, -0.015112662687897682, -0.03566594049334526, 0.0013500333297997713, 0.04698770120739937, 0.04598882421851158, -0.09127037972211838, 0.06686677038669586, -0.05873986706137657, -0.057724859565496445, 0.014908981509506702, 0.021229732781648636, 0.05337880924344063, -0.056890763342380524, 0.028727281838655472], [-0.07817032188177109, -0.0015460014110431075, 0.09423206001520157, 0.09601175785064697, -0.05641167238354683, -0.04025306925177574, -0.05618171766400337, -0.09394937753677368, -0.0522364042699337, 0.004563236143440008, -0.035726796835660934, 0.07536856085062027, -0.02075885608792305, 0.04858870431780815, 0.002949357032775879, 0.036357104778289795, 0.03774385526776314], [-0.009199130348861217, -0.06997878849506378, -0.003984367940574884, -0.018255962058901787, 0.04578486829996109, 0.048633184283971786, -0.0619799979031086, -0.03773528337478638, 0.058419086039066315, 0.04352949932217598, 0.030947625637054443, 0.03412393480539322, -0.0284232497215271, -0.00039739609928801656, 0.08670584112405777, 0.08421432971954346, 0.0025946260429918766], [-0.07500158995389938, 0.010330617427825928, 0.020540619269013405, -0.08208154886960983, 0.04314890131354332, -0.03162742778658867, -0.06535183638334274, -0.006552934646606445, -0.05519707128405571, -0.021109580993652344, 0.007288336753845215, -0.05168978124856949, 0.08711311966180801, -0.05639998987317085, -0.013184726238250732, -0.04184386879205704, -0.015745867043733597], [0.051142942160367966, 0.04375666379928589, -0.02340691164135933, 0.06627946346998215, -0.06474757194519043, 0.0252238642424345, 0.07348090410232544, 0.07346060127019882, -0.0892149806022644, 0.06198757886886597, 0.09785015881061554, -0.08130472898483276, 0.024083256721496582, 0.05307166650891304, 0.08061788231134415, -0.013020920567214489, 0.060871221125125885], [0.010916197672486305, -0.014963114634156227, 0.0006531953695230186, -0.029855405911803246, -0.03245432302355766, -0.054438330233097076, -0.029060889035463333, 0.01676717959344387, 0.08316422998905182, 0.09951045364141464, -0.024644184857606888, 0.03431886434555054, -0.023095428943634033, 0.06026296690106392, 0.012257230468094349, -0.06790629774332047, -0.019208265468478203], [-0.016700411215424538, -0.04731934145092964, -0.08400791883468628, 0.05459168180823326, 0.04189176484942436, -0.021830368787050247, 0.09894908964633942, -0.06174666807055473, 0.06739745289087296, 0.024373387917876244, -0.031285833567380905, 0.08137033134698868, 0.03047349490225315, 0.01741659641265869, -0.034593500196933746, 0.01584872044622898, -0.03063586913049221], [-0.004532563965767622, 0.042137134820222855, 0.07550394535064697, -0.05944371223449707, -0.06320106238126755, 0.07564007490873337, -0.007027316372841597, 0.04962436109781265, -0.05606425926089287, -0.01085366029292345, -0.06049806997179985, -0.0386514775454998, -0.022797275334596634, -0.003300487995147705, -0.022244488820433617, -0.04617992788553238, -0.00915231741964817], [0.0016251326305791736, 0.03128305822610855, 0.08934251219034195, -0.05086877569556236, -0.057131122797727585, 0.0707908496260643, -0.07879797369241714, 0.022365033626556396, -0.05567682906985283, 0.025040972977876663, 0.014578771777451038, -0.039302028715610504, -0.08280165493488312, 0.047282874584198, -0.06823237240314484, -0.0618617907166481, 0.07456924021244049], [-0.016443341970443726, 0.05837416648864746, 0.028893299400806427, -0.030352801084518433, -0.01156019140034914, -0.009265816770493984, -0.05094441771507263, -0.02686413936316967, -0.05897471681237221, -0.036497630178928375, 0.041658829897642136, 0.015056665055453777, -0.03428845480084419, 0.06626762449741364, 0.07312476634979248, -0.08210214972496033, -0.09057381004095078], [0.020654642954468727, 0.08800990879535675, 0.062357425689697266, -0.0007626056903973222, 0.009333396330475807, 0.006685722153633833, -0.09864836186170578, 0.05103394016623497, -0.034757066518068314, -0.04664340242743492, 0.07968699932098389, -0.04705777391791344, 0.09129277616739273, -0.05802084133028984, 0.021396076306700706, 0.002326107118278742, 0.008476066403090954], [-0.06609232723712921, -0.009022915735840797, 0.0005280852201394737, -0.07104362547397614, 0.06040055677294731, 0.07535509020090103, -0.0808124914765358, -0.06579285115003586, -0.05845595523715019, 0.004859757609665394, -0.03365433216094971, 0.06025519594550133, 0.07458167523145676, 0.0209847092628479, -0.010719346813857555, -0.015587473288178444, -0.006609213538467884], [-0.015879059210419655, -0.04752329736948013, -0.08737219870090485, 0.07474441826343536, -0.06510380655527115, 0.010138249956071377, -0.02077479474246502, -0.038865018635988235, -0.0540703646838665, -0.05856888368725777, 0.053618527948856354, -0.0802011713385582, 0.007672631647437811, 0.09395452588796616, 0.09444548934698105, -0.09963365644216537, 0.012237024493515491], [0.083387590944767, 0.06786918640136719, 0.03300517797470093, 0.03946010023355484, -0.03146899864077568, -0.09302707016468048, -0.02245035208761692, 0.017599690705537796, 0.003833735128864646, -0.024187147617340088, 0.014003324322402477, 0.09196030348539352, -0.0356982946395874, 0.08688272535800934, -0.02581486664712429, -0.051246967166662216, 0.011356532573699951], [-0.053342413157224655, -0.040444910526275635, -0.06474443525075912, 0.016641438007354736, -0.03993966802954674, 0.04469297081232071, -0.03303143009543419, 0.02824421040713787, -0.08056618273258209, -0.02751563861966133, -0.031419944018125534, 0.00608018646016717, 0.06797218322753906, -0.012561678886413574, 0.07578805834054947, 0.02845633029937744, -0.02814110554754734], [-0.0027167003136128187, 0.0018778203520923853, 0.008406270295381546, 0.061065711081027985, 0.08946029841899872, 0.08967061340808868, -0.031455036252737045, -0.08411329984664917, -0.04304031655192375, -0.03993995115160942, -0.031641311943531036, -0.023946916684508324, -0.07916078716516495, 0.09625744074583054, 0.019214818254113197, -0.014705936424434185, -0.07869978249073029], [-0.03361312299966812, 0.04191821813583374, -0.044661879539489746, 0.08490315824747086, -0.03699728474020958, 0.06019803509116173, 0.09544143825769424, 0.02522486448287964, 0.011608731932938099, -0.0327032096683979, 0.059473562985658646, -0.09756558388471603, 0.016725588589906693, -0.06815333664417267, 0.024035954847931862, -0.046140264719724655, 0.08117649704217911], [0.08269169181585312, 0.016738487407565117, -0.09208495914936066, 0.06459387391805649, 0.09361859411001205, -0.06922971457242966, -0.06288027763366699, -0.0840735211968422, -0.03535500913858414, -0.09050671011209488, 0.060043394565582275, 0.0825076475739479, -0.056802429258823395, -0.0058758496306836605, -0.09336167573928833, -0.08787816762924194, -0.02164708450436592], [0.07626330107450485, 0.04568375274538994, 0.05399453639984131, -0.031317006796598434, 0.061453141272068024, -0.055376362055540085, 0.005336964037269354, 0.04598879814147949, -0.08507277071475983, -0.03198937326669693, -0.07627498358488083, 0.08648120611906052, -0.02476651780307293, 0.0015606880187988281, 0.03376057371497154, -0.003416645573452115, -0.03682286664843559], [0.0073589445091784, -0.031983282417058945, -0.010477102361619473, -0.021517634391784668, -0.05560016632080078, -0.06630102545022964, -0.08832017332315445, 0.07411092519760132, 0.02861764468252659, 0.01763397455215454, -0.020693112164735794, -0.09474688768386841, -0.09636230766773224, -0.07626727968454361, 0.05595390871167183, -0.025996530428528786, 0.04785817861557007], [0.09531041234731674, 0.024455536156892776, -0.08275321871042252, -0.09555863589048386, -0.08889486640691757, 0.02094862423837185, 0.003533268114551902, 0.04070589691400528, 0.04620859771966934, -0.09674886614084244, -0.00865185260772705, 0.09178145974874496, -0.01610405556857586, 0.02433556318283081, 0.01208509225398302, 0.0799601823091507, -0.06764352321624756], [0.061113763600587845, -0.031763434410095215, -0.0599941723048687, -0.04702429845929146, -0.08707965910434723, -0.061618831008672714, -0.03397423028945923, 0.05925023555755615, -0.03491190820932388, -0.054458439350128174, -0.04210684448480606, -0.07625921815633774, -0.09415727108716965, 0.07668840885162354, 0.014730477705597878, 0.044914234429597855, -0.05064432695508003], [0.07517587393522263, 0.028607314452528954, 0.04689633846282959, 0.022610297426581383, 0.015570098534226418, -0.08929383009672165, 0.05488056689500809, -0.01530524529516697, -0.03199548274278641, 0.01846214570105076, 0.0220580343157053, -0.09097375720739365, -0.08570273220539093, 0.007814873941242695, -0.003818344324827194, -0.021525543183088303, -0.024567294865846634], [0.08687585592269897, -0.11817114800214767, 0.008998514153063297, 0.08954455703496933, 0.009941563941538334, -0.09806005656719208, -0.032102812081575394, 0.02630571462213993, 0.03546169027686119, 0.030897004529833794, -0.03841489925980568, 0.06991607695817947, -0.06034174934029579, 0.0925300344824791, 0.07026783376932144, -0.03981412947177887, -0.08597009629011154], [0.06971700489521027, 0.07106190174818039, -0.04191943630576134, 0.01916610077023506, -0.008174538612365723, 0.012398016639053822, -0.03898215293884277, 0.05095579847693443, -0.0884024128317833, -0.08997119963169098, 0.0209739338606596, 0.05139879137277603, -0.0656890869140625, 0.07568620890378952, 0.01926037110388279, -0.09988522529602051, 0.02581270970404148], [-0.09267900139093399, 0.09230591356754303, 0.05639168247580528, 0.09830587357282639, 0.04613304138183594, 0.04890867695212364, -0.0157928466796875, 0.008464324288070202, -0.023617101833224297, 0.052482642233371735, 0.04684953764081001, -0.023577749729156494, 0.09672873467206955, -0.09110702574253082, -0.08305918425321579, 0.04236272722482681, 0.09787072241306305], [-0.008532059378921986, -0.04334564879536629, 0.04636472836136818, 0.0424911305308342, 0.09634377062320709, -0.0669906958937645, -0.0855921059846878, -0.028821488842368126, -0.08762466162443161, -0.02451143227517605, 0.015185262076556683, 0.004928315058350563, 0.055655162781476974, 0.049289871007204056, 0.023470712825655937, -0.015610628761351109, 0.02844785526394844], [0.07748674601316452, -0.02895667590200901, -0.05532243475317955, 0.07952775806188583, -0.007643318269401789, 0.06833434104919434, -0.09664729982614517, 0.08258938044309616, 0.038756098598241806, -0.027023935690522194, 0.002518594264984131, 0.05958594009280205, 0.017640579491853714, -0.07989419996738434, -0.04845220968127251, -0.04900413751602173, 0.0060135843232274055], [-0.0822518914937973, 0.034448496997356415, -0.047785576432943344, 0.00017549590847920626, 0.06612549722194672, -0.08336228132247925, -0.05446846783161163, -0.09040656685829163, -0.007119186222553253, -0.0012548823142424226, -0.018839508295059204, 0.0715373083949089, 0.0033734242897480726, -0.07749835401773453, 0.08503083884716034, 0.0771375522017479, -0.09353210777044296], [-0.0047834995202720165, 0.022174393758177757, 0.025922751054167747, -0.06527774780988693, -0.09299033880233765, -0.06101283058524132, -0.0011278033489361405, 0.05391986295580864, -0.014493989758193493, 0.03868476301431656, -0.08821964263916016, 0.0758269801735878, 0.024843359366059303, -0.005046975798904896, -0.02384289540350437, -0.09002827852964401, 0.05224980041384697], [0.039106059819459915, -0.08933549374341965, 0.033307887613773346, 0.01277934294193983, 0.03499791771173477, -0.03781973198056221, -0.0291326642036438, -0.0573200099170208, 0.06487182527780533, -0.07897339016199112, 0.0024643780197948217, -0.023604346439242363, 0.0801345482468605, 0.0443321131169796, 0.0005246639484539628, -0.00042122602462768555, 0.06631100177764893], [0.05745505169034004, 0.08362789452075958, -0.017166614532470703, -0.003168213414028287, 0.032018840312957764, 0.0651029720902443, -0.03927816078066826, 0.007377577014267445, -0.06235023960471153, 0.05728541687130928, 0.03657716512680054, 0.07343238592147827, 0.00306950812228024, 0.040012966841459274, -0.06916250288486481, 0.06964921206235886, -0.011799168772995472], [0.08620967715978622, -0.03320186212658882, -0.020337212830781937, -0.09769343584775925, -0.039770424365997314, 0.020207738503813744, -0.06952055543661118, 0.000540697481483221, 0.09565786272287369, -0.04657498747110367, 0.03435863181948662, -0.04335279390215874, -0.020218171179294586, -0.001273810863494873, 0.008070574142038822, 0.05449472740292549, -0.0011895180214196444], [-0.01791757345199585, 0.09036076068878174, 1.2516975402832031e-05, 0.013615095987915993, -0.06827058643102646, -0.0019487023819237947, 0.021078944206237793, 0.023325419053435326, 0.06764741241931915, -0.09039290249347687, -0.05266674980521202, 0.08304263651371002, 0.08515319973230362, 0.0005914807552471757, 0.06310924142599106, 0.03780881315469742, 0.0645989328622818], [0.0063110352493822575, -0.088858462870121, 0.0038553238846361637, 0.04098467901349068, -0.03981976583600044, 0.03290208801627159, -0.017909133806824684, 0.034672774374485016, 0.09777531772851944, -0.0028430582024157047, 0.04614553600549698, 0.014330828562378883, 0.021853042766451836, -0.025834394618868828, 0.00809702929109335, 0.05425519868731499, 0.01777411811053753], [-0.0561077706515789, 0.024946559220552444, -0.06724455207586288, -0.06948522478342056, -0.04081164672970772, -0.07045914232730865, 0.08575063943862915, -0.010907972231507301, -0.04246557876467705, 0.08391596376895905, -0.005592608358711004, 0.04251071438193321, 0.058651745319366455, 0.08696191757917404, -0.0026504993438720703, 0.04490368440747261, 0.056417979300022125], [-0.06390265375375748, 0.0259766336530447, -0.056313302367925644, -0.009862435050308704, -0.09606202691793442, -0.026758158579468727, -0.006524157710373402, -0.02852346934378147, -0.0015709400177001953, 0.008342171087861061, -0.04399362951517105, -0.0581907294690609, 0.001096451305784285, 0.01493928488343954, 0.015620017424225807, 0.007780992891639471, 0.049447156488895416], [-0.0005592746310867369, 0.0380038246512413, -0.04219896346330643, -0.02227453514933586, 0.011614580638706684, -0.06894708424806595, -0.01023516058921814, -0.04486343637108803, 0.12028134614229202, 0.037518326193094254, -0.04256223887205124, -0.04379161074757576, 0.05947604402899742, 0.038186803460121155, -0.035173218697309494, -0.04480193555355072, -0.031970757991075516], [0.04008132219314575, -0.018939031288027763, 0.009397327899932861, -0.04824410751461983, -0.00471186637878418, -0.04875030741095543, -0.05829308182001114, -0.04295746237039566, -0.0015719294315204024, -0.051795151084661484, -0.03285541757941246, 0.03440883383154869, 0.048844482749700546, -0.0782713070511818, -0.0029786587692797184, -0.0414620041847229, 0.09437637776136398], [0.1108568012714386, -0.06855204701423645, -0.06563454121351242, 0.05916052311658859, -0.06793134659528732, 0.0024592236150056124, 0.024247635155916214, -0.09107992053031921, 0.037675026804208755, -0.026201676577329636, -0.06361157447099686, 0.06453917920589447, 0.07419298589229584, -0.028955329209566116, 0.0024875097442418337, -0.0005984448944218457, 0.05489226430654526], [0.039306819438934326, 0.05353447422385216, -0.0843447595834732, -0.07994580268859863, 0.031466223299503326, -0.06562268733978271, 0.044585466384887695, 0.02971475198864937, 0.08959843218326569, -0.0022060037590563297, -0.0636277124285698, -0.06024686247110367, -0.04816117510199547, 0.02476598136126995, 0.07196592539548874, -0.05047919973731041, 0.03052285872399807], [0.09836231917142868, -0.018325496464967728, 0.08695484697818756, 0.03202265501022339, -0.0960450991988182, 0.0023777366150170565, 0.07753533124923706, -0.06317483633756638, 0.0715479850769043, -0.09932046383619308, 0.07361685484647751, 0.010511457920074463, -0.05403503403067589, 0.004952836316078901, 0.08967532217502594, -0.08347608894109726, -0.0117752430960536], [0.04283653572201729, -0.011161542497575283, 0.04381077364087105, -0.0880492702126503, -0.009961557574570179, -0.03410835191607475, 0.029702210798859596, 0.010404432192444801, 0.07446327060461044, 0.0064463140442967415, -0.043695904314517975, 0.08107423037290573, 0.03123422898352146, -0.03249716758728027, 0.08730937540531158, 0.08614259213209152, -0.058958303183317184], [-0.08226883411407471, -0.012901472859084606, -0.055467795580625534, -0.017714226618409157, -0.041877519339323044, -0.09087353944778442, 0.030483543872833252, -0.07795150578022003, 0.06296532601118088, 0.008017659187316895, -0.002069974085316062, -0.053649116307497025, -0.02847348526120186, -0.09434651583433151, 0.06988449394702911, -0.05138760805130005, -0.0018510461086407304], [-0.0520140640437603, 0.05447958782315254, -0.010214949026703835, 0.04790525510907173, -0.09182514250278473, -0.04897356033325195, 0.01151665486395359, -0.01610630750656128, 0.0964246615767479, 0.006397378630936146, -0.059176791459321976, 0.07123108208179474, -0.01763293705880642, -0.008466375060379505, -0.09979380667209625, 0.024651145562529564, 0.06571817398071289], [-0.024417364969849586, 0.05563720688223839, -0.0001109361692215316, 0.08439604192972183, 0.029649222269654274, 0.07961352169513702, -0.05040663480758667, 0.01398161705583334, 0.09017258882522583, 0.045303452759981155, 0.08462735265493393, -0.03322721645236015, -0.08584216982126236, 0.035164427012205124, 0.09138369560241699, -0.0475955605506897, -0.025069965049624443], [-0.05794418230652809, 0.02309512346982956, -0.04037950187921524, 0.004179391078650951, -0.05102193355560303, 0.06245771795511246, 0.014933031983673573, 0.09922143816947937, -0.06825833767652512, 0.0726936012506485, 0.012170306406915188, -0.016309652477502823, 0.045836079865694046, 0.0029424885287880898, 0.02412244863808155, 0.09721642732620239, 0.052785541862249374], [-0.02106562815606594, -0.07772737741470337, 0.07563149183988571, -0.030921339988708496, -0.05155129358172417, -0.02671266905963421, -0.048966553062200546, 0.05302300676703453, -0.07815317064523697, 0.08998223394155502, 0.061175789684057236, 0.013090121559798717, 0.016363883391022682, 0.002880525542423129, -0.003564858576282859, 0.0441322922706604, -0.07141601294279099], [0.07502322643995285, -0.001258254051208496, -0.05141798406839371, -0.08171861618757248, -0.06145444139838219, -0.06476793438196182, -0.08449063450098038, -0.0978495255112648, -0.0756920576095581, 0.06402447074651718, -0.09173311293125153, -0.02196953259408474, -0.027829254046082497, 0.08214827626943588, -0.035150196403265, 0.030715644359588623, 0.01030962448567152], [0.03627023845911026, -0.031842947006225586, -0.09299272298812866, 0.021634209901094437, -0.022562885656952858, 0.06638975441455841, 0.056691695004701614, 0.0035819411277770996, 0.06240672990679741, 0.01774275302886963, 0.025294089689850807, -0.055561091750860214, 0.028358805924654007, -0.07017111033201218, -0.06407783180475235, 0.03499608114361763, -0.05419379472732544], [0.027851691469550133, -0.027197830379009247, -0.027015315368771553, -0.02741326577961445, -0.029725458472967148, 0.08418146520853043, 0.06916212290525436, -0.051718249917030334, 0.013918020762503147, -0.07054664939641953, -0.05342847853899002, -0.07861823588609695, -0.08297665417194366, -0.09516113251447678, 0.04654131829738617, 0.01348026841878891, 0.034990500658750534], [0.09357776492834091, 0.06435723602771759, 0.015573513694107533, -0.07755132764577866, 0.054482366889715195, -0.024552369490265846, -0.006534934043884277, -0.038827359676361084, -0.08225605636835098, -0.04688822105526924, -0.06814787536859512, -0.02992885187268257, -0.054986465722322464, -0.018166864290833473, 0.0010327220661565661, 0.03944164514541626, 0.011860120110213757], [0.06972155719995499, -0.0920504778623581, -0.06811592727899551, 0.056449390947818756, 0.0527723990380764, 0.016833389177918434, 0.013903331942856312, 0.04701651632785797, -0.011698730289936066, -0.04297056421637535, -0.030237548053264618, 0.05205071344971657, -0.07096964865922928, -0.04755058512091637, 0.022967185825109482, 0.047836776822805405, 0.049163904041051865], [0.013033128343522549, -0.008200562559068203, -0.07360576838254929, 0.032362353056669235, -0.08840896189212799, -0.06461726874113083, -0.027249181643128395, 0.021694911643862724, -0.03471776470541954, -0.01242439728230238, -0.09563799202442169, -0.0038052797317504883, -0.07495701313018799, 0.02268996275961399, -0.046530772000551224, 0.012358009815216064, 0.06737714260816574], [-0.02630993165075779, -0.09741522371768951, -0.002402353333309293, 0.07057011127471924, 0.022110475227236748, -0.01581582985818386, -0.05390216037631035, 0.09820514917373657, -0.03269714117050171, 0.09410419315099716, -0.035882581025362015, -0.012014472857117653, -0.07841010391712189, 0.010465443134307861, 0.02088639698922634, -0.040095556527376175, 0.07905509322881699], [-0.018970323726534843, -0.06745930016040802, -0.006758785340934992, -0.01865769736468792, -0.08868885040283203, 0.09703824669122696, -0.006850898265838623, -0.05390281602740288, -0.03144892677664757, 0.00541799096390605, 0.0028915645089000463, 0.07573562115430832, -0.09287331253290176, -0.09048210829496384, -0.09150432795286179, -0.024165524169802666, 0.08455584198236465], [0.06708475202322006, 0.09341257810592651, 0.09950176626443863, -0.0964827686548233, -0.03538566827774048, 0.0756075531244278, -0.06987788528203964, 0.004867041017860174, 0.043078601360321045, -0.07627207040786743, 0.04970259591937065, -0.06524065881967545, 0.08206285536289215, 0.0382024310529232, -0.02974170446395874, -0.0764819011092186, -0.05054192617535591], [-0.021455613896250725, 0.0644775852560997, 0.0715818777680397, -0.01538918074220419, -0.032733358442783356, -0.020277243107557297, 0.001607490354217589, -0.07037992030382156, -0.07099781185388565, 0.01544690877199173, -0.05586809292435646, -0.07693970203399658, 0.07491514086723328, -0.036347921937704086, 0.07163810729980469, -0.05158384516835213, 0.055741455405950546], [0.025022853165864944, 0.026918113231658936, 0.056529153138399124, -0.09145324677228928, 0.005904865451157093, 0.0357152484357357, 0.09213296324014664, -0.03150555118918419, -0.018463028594851494, 0.0195685513317585, -0.06102656200528145, -0.04214362055063248, 0.038829900324344635, 0.09098169952630997, -0.06594415009021759, -0.029973745346069336, 0.0759369283914566], [-0.07916084676980972, -0.09966734796762466, -0.053911544382572174, 0.018149947747588158, -0.04153064638376236, -0.04674915224313736, -0.07167204469442368, 0.08462313562631607, 0.06533968448638916, -0.0568702332675457, 0.05577797815203667, -0.07329708337783813, 0.02107980288565159, 0.07120127975940704, 0.07356435060501099, -0.02215520106256008, 0.06073784828186035], [0.06250263750553131, 0.02660280466079712, -0.0776040107011795, 0.010151982307434082, -0.0528065450489521, 0.03333369642496109, 0.07259668409824371, 0.08996065706014633, 0.0683361068367958, -0.09727511554956436, -0.03593486547470093, -0.09898710250854492, 0.07448901981115341, 0.050198353826999664, 0.01453542709350586, 0.02846064604818821, -0.008642196655273438], [-0.027450382709503174, -0.05133718252182007, 0.09561868011951447, -0.09338420629501343, -0.05245361477136612, 0.009056664071977139, 0.02674255333840847, -0.020236147567629814, 0.04859721660614014, -0.06849304586648941, 0.02289215289056301, -0.06844320148229599, 0.08028518408536911, -0.06401779502630234, -0.00954416859894991, -0.04600820690393448, 0.04836861044168472], [0.005924546625465155, -0.08001581579446793, -0.07771726697683334, -0.03373103216290474, 0.023581350222229958, 0.09250941127538681, -0.008454883471131325, -0.08613049983978271, -0.022365856915712357, -0.05332009866833687, 0.02829165570437908, 0.05109700188040733, 0.02595379389822483, -0.06281248480081558, -0.00906605739146471, 0.028902078047394753, -0.03308504819869995], [0.0404047966003418, 0.07717970758676529, -0.049198221415281296, -0.050127435475587845, 0.07633223384618759, 0.04590668901801109, 0.07743503898382187, -0.09582964330911636, 0.054879166185855865, 0.04361119493842125, -0.006751644890755415, 0.08583197742700577, 0.07106722891330719, 0.0345463752746582, -0.03639862686395645, -0.05168202146887779, 0.07178857177495956], [0.014001763425767422, -0.04729464277625084, -0.03445714712142944, -0.0322272889316082, 0.00795902032405138, -0.04044543579220772, -0.0368078239262104, 0.04457862302660942, -0.02223879098892212, 0.06532859802246094, -0.0845436081290245, -0.01719198189675808, -0.029205013066530228, -0.02728598192334175, 0.035760439932346344, 0.05058875307440758, 0.010291779413819313], [-0.07809356600046158, -0.04274045303463936, -0.03126296028494835, 0.08819528669118881, -0.07745017111301422, 0.061841703951358795, 0.07450858503580093, 0.0018987655639648438, 0.033013343811035156, -0.05641276761889458, 0.05897606536746025, -0.08620961755514145, -0.011751437559723854, 0.015457701869308949, 0.07915369421243668, 0.037464212626218796, -0.00997911673039198], [-0.08210531622171402, -0.055406391620635986, -0.08479426056146622, -0.027110004797577858, 0.09483899176120758, -0.030787408351898193, -0.09447457641363144, 0.04458867385983467, -0.06052427366375923, -0.041663993149995804, -0.05866534635424614, -0.06738803535699844, -0.08822089433670044, 0.020231271162629128, -0.0868525430560112, 0.03645746782422066, 0.03099456988275051], [0.09373150020837784, -0.0684516653418541, -0.05604306608438492, -0.09814532101154327, -0.06321485340595245, 0.05661826208233833, 0.015548646450042725, 0.09103401750326157, -0.05447518825531006, 0.04293711110949516, 0.005176460836082697, -0.05131498724222183, -0.05093628168106079, 0.038214292377233505, -0.015251374803483486, 0.01467210054397583, -0.09331461042165756], [0.031736817210912704, -0.06235598400235176, -0.04843124374747276, -0.07658735662698746, 0.023146260529756546, 0.03519686684012413, 0.0456031933426857, -0.09309732913970947, -0.026387346908450127, -0.07296784967184067, -0.012840700335800648, -0.04745154455304146, 0.014766681008040905, -0.016212059184908867, -0.02543351612985134, -0.06302835792303085, 0.04334423691034317], [-0.027422932907938957, 0.08725322782993317, 0.0970267802476883, -0.04537259787321091, -0.08205299824476242, -0.0841674730181694, 0.07103695720434189, -0.05287851393222809, 0.0654546469449997, -0.0495077483355999, 0.0176880843937397, -0.06340384483337402, -0.07069709151983261, -0.07047299295663834, -0.03587574511766434, 0.0513942688703537, -0.08120208978652954], [0.1139976903796196, -0.0805005207657814, -0.012517599388957024, 0.013079719617962837, 0.07955323159694672, 0.032548632472753525, -0.024508995935320854, -0.06705880165100098, 3.712385660037398e-05, -0.059781428426504135, 0.002507556229829788, -0.024319935590028763, -0.009790263138711452, 0.09660734236240387, -0.030971476808190346, -0.0005068886675871909, -0.0031330075580626726], [0.0708635225892067, -0.08931206911802292, -0.003479564329609275, -0.0039407373405992985, -0.0635785460472107, 0.027759302407503128, 0.08714058250188828, 0.038111235946416855, -0.03745555877685547, -0.0186692476272583, -0.0049183727242052555, 0.046433378010988235, 0.05471382290124893, -0.010602093301713467, 0.05373969301581383, 0.03086381033062935, -0.0478573702275753], [-0.021689653396606445, -0.0598050020635128, -0.09115546941757202, 0.0020834922324866056, 0.08182070404291153, -0.06624885648488998, -0.08646497875452042, -0.04950796440243721, 0.07129979133605957, 0.0756978914141655, 0.03966597467660904, 0.015137446112930775, -0.09843380749225616, -0.053840018808841705, -0.09230823814868927, 0.02131141535937786, -0.03857064247131348], [-0.032242145389318466, 0.047539737075567245, -0.08714115619659424, 0.06041464954614639, 0.015970027074217796, -0.00172501802444458, 0.005736029241234064, -0.08602242916822433, -0.08834677189588547, -0.08994155377149582, -0.061456549912691116, -0.022127199918031693, -0.002702176570892334, 0.032171476632356644, -0.08117830753326416, -0.021432721987366676, 0.09765177220106125], [-0.06362787634134293, -0.06313176453113556, 0.005596471019089222, 0.08115171641111374, -0.029022563248872757, 0.04002177715301514, -0.0725998654961586, 0.043198585510253906, -0.04997607693076134, 0.08210482448339462, -0.03536444902420044, -0.01934756152331829, 0.09610772132873535, 0.08453977108001709, 0.07157708704471588, 0.09306182712316513, 0.004917645361274481], [-0.02556389570236206, 0.09195294231176376, 0.06711582094430923, 0.029074490070343018, -0.03850870206952095, 0.07127689570188522, 0.016307903453707695, 0.027956103906035423, 0.08061248064041138, -0.007734477519989014, 0.0005346536636352539, -0.019185423851013184, -0.08942746371030807, -0.0767955556511879, 0.08910639584064484, 0.06928917020559311, 0.09051501005887985], [-0.06535779684782028, 0.010013294406235218, 0.08351843804121017, 0.0374516025185585, -0.07687864452600479, 0.00842283945530653, 0.05211467668414116, -0.006656301207840443, 0.09735524654388428, 0.035369958728551865, -0.034000981599092484, 0.032557692378759384, -0.05339476093649864, 0.026454508304595947, 0.03661414608359337, 0.076787568628788, -0.013293981552124023], [0.05827045813202858, -0.0020834836177527905, -0.04831898957490921, 0.09156401455402374, -0.024511752650141716, -0.05210844799876213, -0.06114919111132622, 0.061141982674598694, 0.016046609729528427, -0.028129830956459045, -0.06924878060817719, -0.04319475591182709, 0.07062438875436783, 0.030922789126634598, 0.015668505802750587, -0.013332034461200237, 0.006409674882888794], [-0.03710651397705078, 0.07307195663452148, -0.03887610509991646, 0.022501766681671143, 0.06553174555301666, -0.07906629145145416, 0.06970325857400894, -0.015803063288331032, 0.05825308710336685, -0.05812788009643555, -0.0804123803973198, -0.09691905975341797, 0.010646534152328968, 0.058460723608732224, 0.0726209431886673, -0.07673796266317368, -0.004848194308578968], [-0.059944428503513336, -0.08927073329687119, -0.061405789107084274, 0.05471007898449898, 0.00776704540476203, -0.00662606954574585, 0.05167446285486221, -0.07930175215005875, -0.058332741260528564, 0.06365122646093369, 0.03766486793756485, -0.06722269207239151, 0.03827909380197525, 0.061875272542238235, -0.05535406991839409, 0.08908858150243759, 0.0017017483478412032], [-0.022043121978640556, 0.03893221542239189, -0.09449335187673569, -0.01393219269812107, 0.01263571996241808, 0.04295241832733154, 0.07190997898578644, 0.028120851144194603, 0.03445768356323242, -0.08356481790542603, 0.01678870990872383, -0.06070070341229439, 0.02537231519818306, -0.00950686912983656, -0.08629833906888962, 0.08239330351352692, 0.04707206413149834], [-0.039283037185668945, 0.05547146871685982, -0.027507150545716286, 0.023159587755799294, 0.08733788877725601, -0.08943109959363937, 0.043946947902441025, 0.02289813756942749, -0.046596478670835495, 0.018237901851534843, 0.09330973774194717, -0.0025045990478247404, -0.0887107402086258, 0.03225300461053848, 0.0807182788848877, -0.039812278002500534, 0.05245106294751167], [0.04373795911669731, -0.07835930585861206, -0.0814746543765068, -0.02438681200146675, 0.028796959668397903, 0.09104038774967194, -0.015273774042725563, -0.09549788385629654, -0.05967465788125992, 0.018733276054263115, 0.029329096898436546, 0.09169594198465347, 0.06663792580366135, -0.03051743470132351, -0.042738474905490875, 0.06515505164861679, -0.08905606716871262], [0.026591254398226738, 0.07737177610397339, 0.08450397104024887, -0.00734897842630744, 0.018981194123625755, 0.02020205371081829, -0.06638000160455704, 0.06966797262430191, -0.07400087267160416, 0.06768113374710083, 0.023186875507235527, 0.06895297020673752, 0.06995310634374619, -0.03889572620391846, 0.05486544594168663, 0.09867434948682785, 0.09776139259338379], [-0.033109795302152634, -0.08979541063308716, 0.03007439337670803, 0.006303227040916681, 0.09367769956588745, 0.08941157907247543, 0.0775274857878685, -0.02554723061621189, -0.04873974248766899, -0.0321226492524147, 0.05648520216345787, 0.06947831064462662, 0.09877892583608627, -0.06663963943719864, 0.03643517568707466, -0.005457842256873846, 0.028702711686491966], [-0.08840128034353256, -0.07095169275999069, -0.0007614612695761025, -0.03831453248858452, -0.01582961156964302, -0.057696785777807236, -0.06920067220926285, -0.062280263751745224, 0.005523908417671919, -0.08291374891996384, -0.05305052921175957, -0.08618463575839996, -0.08680238574743271, -0.05461388826370239, -0.0285072922706604, -0.002725589321926236, -0.040678512305021286], [0.02986363135278225, 0.03454570844769478, 0.047621775418519974, 0.0419645793735981, 0.03469740226864815, 0.08040311187505722, -0.09649579972028732, 0.010326302610337734, 0.014791655354201794, 0.08581040054559708, -0.0774509459733963, 0.04129861667752266, 0.06859808415174484, 0.04202660545706749, -0.011478913016617298, 0.06414421647787094, 0.007986390963196754], [-0.01378636434674263, 0.09331361204385757, -0.08434442430734634, 0.08466774225234985, -0.007624603807926178, 0.008513271808624268, 0.05011725425720215, -0.018883777782320976, -0.06445621699094772, 0.01229097880423069, 0.09332595020532608, 0.05489983782172203, 0.08285856246948242, 0.050078656524419785, -0.016213571652770042, -0.07327238470315933, 0.012818587012588978], [-0.0673946738243103, 0.034919824451208115, -0.050884127616882324, 0.02844623290002346, -0.024934684857726097, 0.04987442493438721, -0.05573688820004463, 0.0444677360355854, -0.04696030542254448, -0.03300786018371582, 0.027149414643645287, -0.006758380215615034, 0.006270647048950195, 0.09015224128961563, -0.02824249304831028, -0.03501999378204346, 0.007644462864845991], [-0.1297144591808319, 0.11245158314704895, 0.024945085868239403, 0.01322145201265812, 0.037315186113119125, -0.08975467830896378, 0.05015924572944641, -0.0668284222483635, -0.019864359870553017, -0.013148129917681217, -0.017236288636922836, -0.11942355334758759, 0.0029182834550738335, 0.08950412273406982, -0.03878435492515564, -0.01632862538099289, 0.07954523712396622], [-0.04588109254837036, 0.026857947930693626, -0.04497307538986206, -0.016702210530638695, 0.08838196843862534, 0.05988255888223648, -0.07158809155225754, -0.04524118825793266, -0.04207555204629898, -0.04460572078824043, -0.09723081439733505, -0.08697978407144547, 0.06407540291547775, -0.08432712405920029, -0.01942671649158001, 0.06345023214817047, -0.04404371976852417], [0.05248614773154259, -0.029474223032593727, -0.07543953508138657, -0.07010681927204132, -0.09072893112897873, -0.06361917406320572, -0.08224524557590485, -0.008309805765748024, -0.09619414061307907, 0.05319568142294884, -0.0030906081665307283, 0.07975343614816666, -0.06738896667957306, 0.09603042900562286, -0.04350924491882324, 0.0651443600654602, 0.07726877182722092], [0.03665332868695259, 0.07760625332593918, 0.07479409128427505, -0.021008802577853203, 0.015333867631852627, 0.003696787403896451, -0.05741336569190025, -0.05794484540820122, -0.038497306406497955, 0.08008988201618195, 0.06387387961149216, 0.02274683676660061, -0.02065296284854412, -0.056344449520111084, -0.021556664258241653, -0.06959902495145798, 0.09759571403265], [0.08698522299528122, 0.09286575764417648, -0.03950832039117813, -0.09303504228591919, -0.02069254033267498, 0.08724725246429443, -0.06800420582294464, 0.09257572889328003, 0.08903392404317856, -0.05164307355880737, 0.08286551386117935, 0.04142044857144356, -0.04711858183145523, -0.09423511475324631, 0.033452775329351425, 0.007034373469650745, 0.07802355289459229], [0.09281788021326065, -0.004685926716774702, 0.08583929389715195, -0.08397965878248215, 0.015028429217636585, 0.013453066349029541, 0.052505504339933395, -0.09707265347242355, 0.0868503600358963, -0.06711806356906891, 0.09446518868207932, 0.07915002107620239, 0.01888415776193142, -0.055169880390167236, -0.03526301309466362, -0.03368484973907471, 0.06209821626543999], [0.0384875051677227, -0.02549455128610134, 0.06345974653959274, -0.03841475397348404, -0.04953693225979805, 0.03724595531821251, -0.009179162792861462, 0.03863588720560074, -0.030295908451080322, 0.015952706336975098, -0.08287038654088974, 0.08204833418130875, -0.003487455891445279, 0.09773468226194382, -0.022387398406863213, 0.054809749126434326, -0.06624237447977066], [-0.045978106558322906, 0.015388965606689453, -0.015535044483840466, -0.06721675395965576, -0.05484607443213463, -0.0004527449782472104, 0.07916709035634995, 0.053561437875032425, -0.01082316692918539, -0.09364844858646393, -0.09396793693304062, -0.017481530085206032, 0.09421626478433609, -0.06853926181793213, -0.01985548809170723, -0.035601772367954254, 0.04590215906500816], [0.03330708667635918, 0.0763191506266594, 0.02558201551437378, -0.015025818720459938, 0.0816626101732254, 0.09405336529016495, 0.07245194166898727, -0.06111576780676842, -0.03162388876080513, -0.004070496652275324, 0.0645793005824089, -0.01693524233996868, -0.07942459732294083, 0.07485450804233551, -0.09765690565109253, 0.04852057620882988, 0.054976094514131546], [0.029851211234927177, -0.025264954194426537, -0.00778918294236064, 0.005366540048271418, 0.08089486509561539, -0.008342909626662731, 0.07063531130552292, -0.09463164955377579, 0.08116336166858673, 0.08555590361356735, 0.06920681148767471, 0.03424588590860367, 0.019330335780978203, -0.05868789181113243, 0.04641366004943848, -0.028458762913942337, 0.061912477016448975], [-0.05489606782793999, 0.07126056402921677, 8.316040475619957e-05, 0.06605452299118042, -0.065242700278759, -0.037170957773923874, -0.072517991065979, 0.018381763249635696, 0.011395740322768688, 0.049612272530794144, -0.05623060464859009, -0.05795029550790787, 0.04041830450296402, -0.004489612765610218, -0.07261168956756592, -0.0626511499285698, -0.08754567056894302], [0.03490101173520088, -0.09601926058530807, -0.05480772256851196, -0.09926148504018784, -0.09859941154718399, -0.07217376679182053, -0.0772133395075798, 0.08643931150436401, 0.06305519491434097, 0.08644028753042221, -0.062229085713624954, -0.005515170283615589, 0.022924864664673805, -0.003222990082576871, -0.04476083442568779, -0.046067703515291214, 0.07048002630472183], [-0.013127184472978115, 0.0036814571358263493, -0.08096485584974289, 0.04404931142926216, 0.04148012399673462, -0.02897646464407444, 0.02325274981558323, -0.05474749952554703, 0.0903109535574913, -0.04262249544262886, 0.0900007113814354, 0.08440935611724854, 0.027702463790774345, 0.028453027829527855, 0.015376043505966663, 0.04325444623827934, 0.07771871238946915], [0.07814941555261612, -0.04960833862423897, 0.09542552381753922, -0.06613560765981674, -0.09858045727014542, 0.013065993785858154, 0.060473036020994186, -0.023754049092531204, 0.09200429916381836, 0.06621170043945312, 0.0410895012319088, 0.08995407819747925, -0.01707388274371624, 0.06983872503042221, 0.07101210206747055, -0.0737646222114563, -0.06347864866256714], [0.08110865205526352, -0.0798889622092247, 0.08537304401397705, -0.05774218961596489, -0.023231828585267067, 0.05997884273529053, -0.021867990493774414, 0.09380356222391129, 0.07908600568771362, 0.041861988604068756, -0.06529640406370163, -0.07171005010604858, 0.020472515374422073, -0.03097924031317234, 0.04516569525003433, 0.05263476446270943, 0.008272993378341198], [-0.051184237003326416, 0.05474970489740372, 0.015762686729431152, 0.08811276406049728, -0.0513094924390316, 0.06071063503623009, -0.024139035493135452, -0.02495884895324707, 0.009041393175721169, 0.06371765583753586, 0.04184848070144653, 0.007630479522049427, 0.020078230649232864, 0.0802285224199295, -0.050756897777318954, 0.056409742683172226, 0.04229750856757164], [-0.048286378383636475, 0.043311264365911484, 0.032652437686920166, 0.05433988571166992, 0.03731190040707588, 0.060593198984861374, -0.07000019401311874, 0.05393476411700249, 0.05254080519080162, -0.008054065518081188, -0.07611919939517975, 0.015228236094117165, -0.055436182767152786, 0.033082593232393265, -0.007991278544068336, 0.06133372709155083, 0.058566153049468994], [-0.0029505372513085604, -0.012841629795730114, 0.025001918897032738, -0.04126828908920288, 0.05047903209924698, -0.09256570786237717, 0.0704268142580986, 0.09671127796173096, -0.09827952831983566, 0.07126127928495407, -0.02235553227365017, 0.0886181965470314, 0.03252542018890381, -0.02698315493762493, -0.04162590578198433, 0.09856346994638443, -0.04013167694211006], [-0.056940507143735886, 0.04015536233782768, 0.0479913130402565, -0.04305260255932808, -0.06049349531531334, -0.06166020780801773, 0.049246419221162796, 0.06013906002044678, 0.08627554029226303, 0.010649717412889004, -0.02862422540783882, -0.033100783824920654, -0.05306346341967583, 0.07544872909784317, 0.05111271142959595, 0.0767882838845253, 0.097397081553936], [-0.18709450960159302, 0.22595524787902832, -0.03329804167151451, -0.08928151428699493, 0.042147938162088394, 0.02247866615653038, 0.013036701828241348, 0.0891404002904892, -0.014394259080290794, 0.025494761765003204, 0.047792136669158936, -0.18374091386795044, 0.0006229755817912519, -0.046698156744241714, 0.056021176278591156, -0.04390682652592659, 0.022044764831662178], [-0.03196209669113159, 0.013795328326523304, 0.09758694469928741, 0.05332597717642784, 0.08843358606100082, -0.041129518300294876, -0.09261993318796158, 0.08760620653629303, 0.022364413365721703, 0.05384371429681778, 0.09855896234512329, -0.03307001665234566, -0.09871913492679596, -0.0869922786951065, 0.06386852264404297, 0.006098842713981867, 0.038462962955236435], [0.04315655305981636, 0.050216902047395706, 0.06948202103376389, 0.012183762155473232, -0.09850802272558212, -0.08777888119220734, -0.003931283950805664, 0.03391566500067711, 0.020843565464019775, 0.09509020298719406, 0.0720750242471695, 0.08171945810317993, 0.0015156746376305819, 0.02365875244140625, -0.01844813860952854, 0.05682973936200142, 0.06184542179107666], [0.033068954944610596, -0.01758636347949505, 0.016315102577209473, -0.08827561140060425, -0.04613105207681656, 0.068977490067482, -0.09662798792123795, -0.09777037054300308, -0.0036322951782494783, 0.07043279707431793, -0.019668150693178177, 0.01567673683166504, -0.08398103713989258, -0.09453611820936203, -0.08530602604150772, 0.02290903404355049, 0.04202261194586754], [-0.0826915055513382, 0.06780300289392471, 0.07734350115060806, 0.008798194117844105, -0.0456545352935791, -0.09465203434228897, 0.08518610149621964, 0.057209279388189316, 0.03412757068872452, -0.022410321980714798, -0.03760268911719322, 0.058561693876981735, 0.01206893939524889, -0.039553869515657425, -0.05457913875579834, 0.0747450515627861, -0.03767279535531998], [0.0774853378534317, -0.07497938722372055, -0.07844513654708862, -0.015125668607652187, 0.08249708265066147, -0.07870682328939438, 0.026195872575044632, 0.05674247816205025, 0.012102007865905762, -0.02688307873904705, -0.03130684047937393, 0.034218598157167435, 0.06714161485433578, 0.026449978351593018, -0.07263447344303131, -0.017293203622102737, -0.0992896780371666], [-0.08589491993188858, 0.0943143293261528, -0.040837932378053665, 0.09393873065710068, -0.013289368711411953, -0.0026191831566393375, -0.07837287336587906, 0.04739891365170479, -0.026485145092010498, 0.036704909056425095, -0.04568822309374809, -0.01579589955508709, 0.02471799962222576, 0.05607122182846069, -0.03671615198254585, 0.0015415906673297286, -0.04858267307281494], [-0.018101535737514496, -0.0898604542016983, 0.06344079226255417, 0.010566351003944874, 0.050999149680137634, 0.05274266004562378, -0.048988502472639084, 0.0937848687171936, -0.09364059567451477, 0.0901590958237648, -0.021158279851078987, -0.08768932521343231, 0.033080607652664185, 0.08021394908428192, -0.006400283891707659, 0.05399400368332863, -0.06760460138320923], [0.012608706951141357, 0.0792393684387207, 0.005010151769965887, 0.025371229276061058, 0.028287339955568314, 0.07627280056476593, -0.019688844680786133, -0.0002042770356638357, 0.014327824115753174, 0.0802881121635437, 0.002422678517177701, -0.03015819750726223, 0.08506544679403305, 0.022005939856171608, -0.03907489776611328, -0.030801737681031227, 0.04609112814068794], [-0.02489018440246582, -0.04960900545120239, -0.006576514337211847, -0.015971673652529716, 0.08639197796583176, -0.058602143079042435, 0.09876012057065964, 0.006652760785073042, 0.09541567414999008, -0.06068775802850723, -0.03821895271539688, 0.04198237881064415, 0.018537236377596855, 0.004896783735603094, -0.03194394335150719, -0.02329024113714695, -0.03955409675836563], [-0.055299606174230576, 0.07165669649839401, -0.04223507642745972, -0.05951973423361778, -0.08425362408161163, -0.06670217961072922, 0.03267275169491768, 0.0859672948718071, -0.011839533224701881, -0.05983996391296387, -0.05450376495718956, 0.06108587980270386, 0.08661951124668121, 0.03942946344614029, 0.04228043556213379, -0.09224611520767212, -0.03861762210726738], [-0.08602350205183029, 0.003072381019592285, -0.020154643803834915, 0.026318823918700218, 0.061729490756988525, -0.08414828777313232, -0.02346416749060154, -0.058042656630277634, -0.0002593398094177246, 0.0983269140124321, 0.010363543406128883, -0.02975611761212349, 0.0777198001742363, -0.06527908146381378, 0.06743257492780685, -0.06740148365497589, -0.06702645868062973], [0.07546240091323853, -0.057072486728429794, 0.07131794840097427, -0.07882727682590485, 0.07849134504795074, -0.05643269047141075, -0.07181067764759064, -0.06962573528289795, 0.042692553251981735, 0.09336996078491211, 0.007443952839821577, -0.09099234640598297, 0.04729379341006279, -0.038343705236911774, 0.07652061432600021, 0.017074644565582275, -0.04939105734229088], [-0.0901273787021637, -0.08984418958425522, 0.03173462301492691, 0.070587158203125, -0.07234420627355576, -0.06786997616291046, -0.07861468195915222, -0.06699780374765396, 0.0038868426345288754, 0.08713032305240631, 0.02661697193980217, 0.014913497492671013, -0.05263857543468475, -0.0761149525642395, 0.0961548313498497, 0.07320702075958252, -0.09097810834646225], [-0.041107095777988434, 0.0846952348947525, -0.014265382662415504, -0.01547317486256361, 0.06900588423013687, 0.04454353079199791, 0.054328273981809616, -0.08817308396100998, 0.07501596212387085, 0.036759164184331894, 0.07046158611774445, -0.027312422171235085, 0.01612565480172634, -0.03304710611701012, 0.05797088146209717, -0.047116804867982864, -0.021532345563173294], [0.05774344503879547, 0.0001542904501548037, -0.07904255390167236, 0.05128895118832588, 0.1020604744553566, -0.061232198029756546, -0.020241081714630127, 0.10040787607431412, 0.032663267105817795, 0.037006158381700516, 0.07420200854539871, -0.010832256637513638, -0.06183755770325661, -0.08486375957727432, -0.07239460945129395, 0.04287492856383324, 0.05095730349421501], [-0.05794167518615723, 0.07849817723035812, -0.010930526070296764, 0.00023471117310691625, -0.06666430085897446, 0.018211817368865013, 0.016741836443543434, 0.07181037962436676, -0.07441490143537521, 0.08941401541233063, -0.05264061689376831, 0.01586906984448433, -0.019695783033967018, 0.013294077478349209, 0.07409381866455078, -0.05061706528067589, -0.07149221748113632], [0.00714079150930047, -0.09389626234769821, -0.08741527795791626, 0.01706218719482422, -0.09813138097524643, -0.021418405696749687, -0.09465799480676651, -0.018160594627261162, 0.043812062591314316, -0.047502946108579636, -0.03521145507693291, -0.011339152231812477, 0.06154128536581993, 0.05129532888531685, 0.005987811367958784, -0.04437820985913277, -0.04344414547085762], [-0.07309546321630478, -0.04885460063815117, 0.0918402224779129, 0.051365721970796585, -0.0582769438624382, 0.020895838737487793, -0.053450848907232285, 0.0008120785350911319, 0.05176812782883644, -0.08283831924200058, -0.07930436730384827, -0.027587616816163063, 0.08498329669237137, 0.052759815007448196, -0.044254448264837265, 0.03786466270685196, 0.05500636249780655], [0.0006440639845095575, -0.05435025691986084, 0.028090273961424828, 0.03732048347592354, -0.02680305205285549, -0.040166761726140976, 0.03780321031808853, 0.07489385455846786, -0.0014374376041814685, 0.06675509363412857, 0.09263210743665695, -0.07746465504169464, 0.030058229342103004, -0.0032339810859411955, -0.08904922008514404, -0.0708879828453064, -0.0987725779414177], [0.0513857863843441, 0.08918619155883789, -0.07620362192392349, -0.052267301827669144, 0.08476249128580093, 0.07456647604703903, 0.025783145800232887, 0.009300613775849342, 0.002582848072052002, 0.08484834432601929, 0.09301169961690903, -0.03310539945960045, 0.04247721657156944, -0.06089174747467041, -0.0451846607029438, -0.02045239321887493, -0.05884455516934395], [0.06280429661273956, -0.013562452979385853, -0.06177816540002823, -0.04952184110879898, 0.09990792721509933, -0.0330745093524456, 0.011978971771895885, 0.09115462750196457, 0.0324920192360878, 0.08507344871759415, 0.05411186441779137, -0.029808426275849342, -0.09177140146493912, -0.01044533308595419, 0.005697894375771284, -0.04690209776163101, 0.08630682528018951], [0.06178572401404381, 0.07678280025720596, 0.01589217223227024, -0.08401893824338913, 0.005404353141784668, 0.04837733507156372, 0.047464992851018906, 0.030236173421144485, 0.026364196091890335, 0.029806209728121758, 0.061532020568847656, -0.019815420731902122, 0.019364668056368828, -0.011122978292405605, 0.08575562387704849, 0.09054934978485107, 0.02331707440316677], [0.0872918888926506, 0.022550547495484352, -0.07040270417928696, 0.01261758804321289, -0.07545190304517746, 0.026464426890015602, -0.026066720485687256, -0.016785025596618652, 0.06765907257795334, 0.05606488138437271, -0.07020504772663116, -0.0986710786819458, 0.014711761847138405, 0.002718603704124689, 0.04694021865725517, 0.010560846887528896, -0.0502956286072731], [-0.014310765080153942, 0.04405558109283447, -0.08274072408676147, 0.01319111604243517, -0.06855844706296921, -0.0064210775308310986, 0.03681620582938194, 0.0840727686882019, 0.05170891433954239, -0.07326602190732956, -0.04615103080868721, 0.034724701195955276, -0.05981234461069107, -0.07350349426269531, -0.028566790744662285, -0.031166745349764824, 0.09453244507312775], [0.03489856794476509, 0.07292765378952026, -0.03950396925210953, -0.02738257683813572, -0.04315653070807457, -0.05751584842801094, 0.0715269073843956, -0.05972139909863472, 0.09688933193683624, -0.0004865288792643696, 0.05949757248163223, 0.03654050827026367, -0.060456324368715286, 0.03607461601495743, -0.05315215513110161, 0.09774269908666611, -0.0667392835021019], [0.04794969782233238, 0.09409242868423462, -0.01662789098918438, 0.08364449441432953, -0.022293323650956154, -0.05495479330420494, 0.03392847627401352, 0.0637500137090683, 0.009299146011471748, 0.06094028800725937, 0.06119761988520622, -0.013444211333990097, 0.006459880154579878, 0.03292132914066315, -0.07143006473779678, -0.05781598389148712, 0.08466443419456482], [0.05646073818206787, 0.0020785927772521973, -0.03627737984061241, 0.05366158485412598, 0.06565842777490616, -0.06408818811178207, 0.0156527291983366, -0.07351074367761612, -0.026447057723999023, -0.033895254135131836, 0.04832463338971138, -0.022570300847291946, -0.018359292298555374, 0.09766729176044464, -0.018706560134887695, -0.08319246023893356, 0.03227506950497627], [0.01259151753038168, -0.078526072204113, -0.028906941413879395, -0.09779975563287735, 0.08982890099287033, -0.04093807935714722, -0.007596933748573065, 0.07457178086042404, -0.009285998530685902, 0.08483760803937912, 0.0007378339651040733, -0.07575321197509766, -0.01672394387423992, 0.09261484444141388, 0.09172037988901138, 0.05486471578478813, 0.036846280097961426], [0.047465384006500244, 0.09079431742429733, 0.055693186819553375, -0.07288211584091187, 0.0969337746500969, 0.08787473291158676, -0.07256174087524414, -0.0766424760222435, 0.053408216685056686, -0.0820842757821083, 0.026338888332247734, -0.026323532685637474, 0.031114686280488968, 0.002290320349857211, -0.07893017679452896, 0.01769707165658474, 0.013760829344391823], [-0.038371991366147995, 0.06598804146051407, -0.046903014183044434, -0.023909224197268486, -0.08824118226766586, -0.03885946422815323, -0.07928448170423508, -0.033234357833862305, -0.004748189356178045, -0.0998770222067833, 0.014720439910888672, 0.018144119530916214, 0.09403663873672485, -0.0492391362786293, 0.046112217009067535, -0.013699985109269619, -0.02114623785018921], [0.025705063715577126, 0.010062587447464466, 0.012433386407792568, 0.06649495661258698, 0.035132136195898056, 0.09389554709196091, -0.08525770902633667, -0.017981315031647682, 0.001954043051227927, 0.012750840745866299, -0.017278386279940605, 0.023684073239564896, 0.09131300449371338, -0.00969839096069336, -0.09838666021823883, -0.09507302194833755, 0.09593291580677032], [-0.03420460224151611, 0.09891223162412643, 0.06404443085193634, -0.046841442584991455, 0.06326469033956528, -0.0194932222366333, 0.0517103336751461, -0.005747461225837469, 0.01652592420578003, 