{"lstm.weight_ih_l0": [[-0.015248561277985573, -0.08576255291700363, -0.05939152464270592, -0.07779945433139801, 0.15787310898303986, 0.09291034191846848, 0.12428077310323715, 0.023877959698438644, 0.12656950950622559, -0.16181053221225739, -0.028287995606660843, -0.13962320983409882, 0.05608049035072327, -0.07793550938367844, 0.11979063600301743, -0.12658309936523438, 0.15099415183067322], [-0.17489023506641388, -0.16717024147510529, -0.07194449752569199, 0.024202363565564156, -0.12039301544427872, -0.1647716462612152, 0.17272831499576569, -0.06469482183456421, -0.019556010141968727, 0.03347155079245567, -0.06586163491010666, -0.038751307874917984, 0.03119983710348606, 0.06787646561861038, -0.033014826476573944, -0.15514397621154785, 0.03582077473402023], [-0.07417120039463043, -0.003493678756058216, -0.03397316113114357, 0.06390688568353653, 0.1754462867975235, 0.10130824893712997, 0.1120743677020073, -0.06727602332830429, 0.1041756272315979, -0.1270444244146347, 0.1550566554069519, 0.1393411010503769, 0.12232302874326706, 0.055460426956415176, -0.052341852337121964, 0.08382952958345413, 0.022169558331370354], [0.07523930817842484, -0.121952585875988, 0.04590902104973793, 0.20728184282779694, 0.1679312139749527, 0.020342234522104263, -0.10515136271715164, -0.007522912230342627, -0.01149943470954895, -0.07892219722270966, -0.11516310274600983, -0.09091660380363464, -0.05268881097435951, -0.0823870599269867, 0.10021241009235382, -0.07474217563867569, 0.16909904778003693], [-0.011348923668265343, 0.07921388000249863, 0.006157275289297104, 0.08764059841632843, 0.1502751111984253, 0.15915988385677338, -0.05735364183783531, 0.13275709748268127, 0.05218043178319931, 0.10984855145215988, 0.08344431221485138, -0.04416873678565025, -0.10310745984315872, -0.02540559321641922, 0.13890677690505981, 0.05669185146689415, 0.036455485969781876], [0.17458629608154297, 0.1534043699502945, 0.1098351925611496, 0.09029433131217957, -0.0657704547047615, -0.00018453996744938195, 0.002047325251623988, 0.12592831254005432, -0.0027054904494434595, 0.019759897142648697, 0.03231910988688469, -0.12116727977991104, 0.04008565470576286, 0.08768767863512039, 0.02257661148905754, 0.14949223399162292, -0.030613910406827927], [0.11298679560422897, 0.12593591213226318, -0.07497056573629379, -0.13756893575191498, 0.12259746342897415, -0.06354354321956635, 0.04374716430902481, 0.04808512330055237, -0.03738006204366684, 0.15762951970100403, 0.07403919100761414, -0.1539282500743866, -0.16535000503063202, -0.023297607898712158, -0.11977846920490265, 0.001790567534044385, 0.1630120426416397], [-0.07547758519649506, -0.11007658392190933, 0.06997133046388626, 0.03933363035321236, -0.05642860382795334, -0.08626239746809006, 0.10207726061344147, 0.12324143201112747, -0.004171968903392553, 0.15531374514102936, -0.10988079756498337, -0.09169480949640274, -0.12844449281692505, 0.003890175139531493, 0.08201784640550613, -0.044021349400281906, 0.1764315962791443], [0.06986641883850098, -0.08241590112447739, -0.011614554561674595, 0.16133278608322144, -0.0946548655629158, 0.06781347095966339, 0.14304538071155548, -0.018835844472050667, -0.03822174668312073, 0.0922628715634346, -0.008180649019777775, -0.06441635638475418, -0.13189008831977844, -0.029124250635504723, -0.04809626564383507, 0.12960007786750793, -0.06627225130796432], [0.023701047524809837, 0.11176039278507233, 0.0009700729278847575, -0.0687965527176857, 0.17415033280849457, -0.1279418170452118, -0.15609575808048248, -0.1122928336262703, -0.030248034745454788, -0.050051700323820114, -0.09381483495235443, 0.02978094108402729, -0.07069607079029083, -0.009347306564450264, 0.01464733574539423, -0.16919827461242676, 0.12121719866991043], [0.16571639478206635, -0.04447071626782417, -0.05033516138792038, 0.11337076127529144, 0.03632446005940437, -0.10570060461759567, -0.03477058187127113, 0.0729469507932663, -0.07560750097036362, 0.045801207423210144, -0.10305836796760559, 0.03067011758685112, -0.03117436170578003, -0.024198733270168304, 0.1209322065114975, 0.030910350382328033, -0.0457770898938179], [-0.12502487003803253, -0.02199738845229149, 0.02772076241672039, -0.1054195687174797, 0.004268822260200977, -0.06196638196706772, -0.1461300402879715, 0.12350054830312729, 0.06300627440214157, -0.14168046414852142, -0.11009152978658676, -0.10025710612535477, -0.1600683182477951, 0.005101559683680534, 0.10896462947130203, -0.08403696119785309, 0.10223057121038437], [0.03833889961242676, 0.08120878040790558, 0.06841803342103958, 0.16926309466362, -0.12886175513267517, -0.02568146586418152, -0.07399150729179382, -0.03459874913096428, -0.09145315736532211, -0.07848537713289261, -0.028114644810557365, -0.036755867302417755, 0.05618707835674286, 0.05915546044707298, 0.053492505103349686, -0.09096331149339676, 0.022250965237617493], [0.14924557507038116, 0.03793974965810776, 0.06169958785176277, -0.019032232463359833, -0.06442247331142426, -0.058909282088279724, -0.07651763409376144, 0.13371799886226654, -0.11054098606109619, -0.13771039247512817, -0.06948458403348923, 0.08815032243728638, -0.007489542476832867, -0.1164594292640686, 0.040749359875917435, 0.14011940360069275, 0.1668170690536499], [0.13064509630203247, -0.1291358917951584, 0.08444209396839142, 0.11628319323062897, -0.014010033570230007, -0.040019866079092026, 0.07449351996183395, 0.15026125311851501, -0.1317337453365326, -0.16497920453548431, -0.1116965189576149, 0.08500037342309952, 0.16244889795780182, 0.13206203281879425, -0.14566506445407867, 0.06604153662919998, -0.02529837191104889], [0.021990496665239334, -0.17634227871894836, -0.1322193592786789, 0.08735642582178116, -0.16094112396240234, 0.1464347541332245, 0.11176051944494247, 0.15696975588798523, -0.10956667363643646, 0.12435498833656311, -0.03674328327178955, -0.12460905313491821, 0.14259761571884155, 0.02776568941771984, -0.15385247766971588, 0.12512178719043732, -0.10264904797077179], [-0.08292761445045471, 0.04549035802483559, 0.09214742481708527, -0.06099420040845871, -0.04323539510369301, 0.13396184146404266, 0.0860489010810852, -0.0671909898519516, 0.1656392216682434, -0.012071194127202034, -0.14799067378044128, -0.08493255823850632, 0.09537599980831146, 0.13786868751049042, -0.017877744510769844, 0.016668593510985374, -0.10053323209285736], [0.1284427046775818, -0.04530859738588333, -0.11831536889076233, -0.13934434950351715, -0.0988982766866684, 0.13047051429748535, 0.015387729741632938, 0.09108462929725647, -0.11622994393110275, -0.0566115602850914, -0.09723882377147675, 0.1500687450170517, -0.14026784896850586, 0.166728675365448, -0.16323630511760712, 0.1414264589548111, -0.04186178743839264], [0.13089105486869812, -0.03277475759387016, 0.04998934268951416, 0.06661475449800491, 0.10643923282623291, -0.09398852288722992, -0.00882409606128931, 0.16146120429039001, 0.07955432683229446, 0.07937555760145187, 0.05927777290344238, 0.1455937772989273, 0.10224766284227371, 0.14756876230239868, -0.16508634388446808, 0.0400165356695652, 0.0599946454167366], [-0.15873955190181732, 0.18061189353466034, 0.02056225575506687, -0.032475460320711136, -0.06009479984641075, 0.08252706378698349, 0.004535904619842768, 0.0036017801612615585, 0.03828015550971031, -0.14609748125076294, -0.002879255684092641, -0.09481802582740784, -0.03398807346820831, -0.16733287274837494, 0.11108098924160004, -0.05862138792872429, -0.09152810275554657], [-0.11539322137832642, -0.1176031082868576, -0.1190919429063797, -0.11590549349784851, -0.10160614550113678, -0.10462893545627594, -0.005473589990288019, 0.12700389325618744, 0.007705729454755783, -0.0201788991689682, -0.15006177127361298, -0.15318429470062256, -0.10752978175878525, 0.1115914061665535, 0.01074026059359312, -0.07820223271846771, 0.12773558497428894], [0.1512095183134079, -0.15927451848983765, 0.1331326961517334, -0.017550503835082054, 0.1455492526292801, -0.10500927269458771, -0.001312259933911264, 0.1550806611776352, -0.17501185834407806, 0.12722747027873993, 0.05667925998568535, -0.013578122481703758, -0.04209757596254349, -0.05702919512987137, -0.06275393068790436, -0.11411283165216446, 0.058627549558877945], [-0.2029276341199875, 0.10588808357715607, 0.010701077058911324, -0.14739283919334412, 0.06802251935005188, -0.11551401764154434, -0.01621747761964798, -0.03466107323765755, 0.04540162533521652, 0.005275874398648739, -0.08508037775754929, -0.036322321742773056, 0.12685152888298035, -0.16546224057674408, 0.03268907964229584, -0.031101612374186516, 0.14122417569160461], [-0.0032256036065518856, 0.0638899877667427, -0.03865327313542366, 0.13007834553718567, 0.1301652491092682, -0.026459412649273872, -0.05644790455698967, -0.0010814880952239037, -0.03812433034181595, 0.06448526680469513, 0.04401114955544472, 0.08178939670324326, 0.11704331636428833, 0.033376891165971756, 0.024918332695961, -0.09665056318044662, 0.03404828906059265], [-0.06111329421401024, 0.14073416590690613, 0.085492342710495, -0.04625199735164642, -0.1810680776834488, -0.020169343799352646, 0.14348934590816498, 0.07338807731866837, -0.14521600306034088, -0.04019549489021301, -0.08808388561010361, -0.15750731527805328, 7.990684389369562e-05, 0.011795501224696636, 0.13784795999526978, -0.10382060706615448, 0.002328490372747183], [0.023220567032694817, -0.08401024341583252, 0.051815252751111984, -0.15678083896636963, 0.10262629389762878, -0.09215254336595535, -0.14386744797229767, 0.15988469123840332, 0.15781332552433014, -0.15998350083827972, -0.13454070687294006, -0.16292396187782288, 0.08774343878030777, 0.05027894675731659, -0.09814663231372833, 0.16508126258850098, 0.07335016876459122], [-0.13868221640586853, -0.06860033422708511, -0.0169577207416296, 0.012029173783957958, 0.05171641707420349, 0.07818914949893951, 0.10312530398368835, -0.011349809356033802, -0.01723247580230236, -0.12397211045026779, -0.025550220161676407, -0.08279583603143692, 0.14076952636241913, -0.08412822335958481, 0.051558323204517365, 0.15167473256587982, -0.158322274684906], [0.04615136608481407, -0.08224126696586609, -0.15187717974185944, 0.09858120232820511, 0.03419793024659157, -0.1053595319390297, 0.03868081793189049, -0.04027809947729111, -0.0765075534582138, 0.15275152027606964, -0.0011783204972743988, -0.037346720695495605, -0.15519404411315918, -0.06153757870197296, -0.14481355249881744, -0.042353030294179916, -0.07102293521165848], [0.1316828578710556, 0.049793317914009094, 0.08262132853269577, 0.0845995545387268, 0.10308469831943512, 0.07956307381391525, 0.12825098633766174, 0.07808059453964233, -0.014817419461905956, -0.14436829090118408, 0.09037632495164871, 0.013139195740222931, -0.13105179369449615, 0.08554878830909729, 0.011021442711353302, -0.07226656377315521, -0.0471792034804821], [0.1296614110469818, 0.06672944128513336, 0.1146373599767685, 0.10709431767463684, -0.13166598975658417, 0.1202847883105278, -0.05371255427598953, 0.07196076959371567, -0.09011385589838028, 0.12982718646526337, -0.10815978795289993, 0.03371969237923622, 0.1544378101825714, -0.16465075314044952, 0.12236332148313522, -0.021011341363191605, -0.032967474311590195], [-0.11211783438920975, -0.008769284002482891, 0.16711300611495972, 0.08162423223257065, 0.09424496442079544, -0.01666737161576748, -0.03356770798563957, -0.16330718994140625, 0.04963112249970436, 0.02785847708582878, 0.033745177090168, -0.12065698206424713, 0.13079190254211426, 0.1352587789297104, -0.07526484876871109, -0.07235460728406906, -0.031593866646289825], [0.12363453209400177, 0.1325610727071762, 0.06311985850334167, 0.07484207302331924, 0.012325740419328213, 0.15694691240787506, -0.13562960922718048, -0.05254068225622177, 0.09512147307395935, 0.14866916835308075, -0.0008186603663489223, 0.06307469308376312, 0.1435820609331131, 0.020847221836447716, -0.014081956818699837, 0.08043302595615387, 0.1258099377155304], [-0.13912920653820038, -0.13147693872451782, -0.16468335688114166, -0.009054407477378845, -0.08134143799543381, -0.026741141453385353, 0.027122359722852707, 0.147730752825737, -0.07565896213054657, -0.10954248160123825, -0.014493626542389393, 0.15261858701705933, 0.07181806117296219, -0.16433537006378174, -0.10850510001182556, -0.09940233081579208, -0.1491316854953766], [0.0645553395152092, -0.08786361664533615, 0.0899512991309166, 0.03371496871113777, 0.16882416605949402, 0.007831537164747715, 0.06404883414506912, -0.10465861111879349, 0.13594700396060944, 0.15739572048187256, -0.021527113392949104, 0.16539183259010315, 0.028989465907216072, -0.035065121948719025, 0.07590325176715851, -0.0752844512462616, -0.12762156128883362], [0.043125104159116745, -0.1641463190317154, 0.12273100763559341, 0.16368399560451508, -0.06475558876991272, -0.049582839012145996, -0.07836415618658066, -0.15890420973300934, -0.07312840223312378, -0.0858229249715805, 0.01461032684892416, 0.027292851358652115, 0.06580889225006104, 0.030872829258441925, 0.18025881052017212, -0.03230498358607292, 0.12243738770484924], [0.16996601223945618, 0.10292346775531769, 0.13641969859600067, -0.15849532186985016, -0.025358030572533607, 0.039482198655605316, -0.04674399271607399, -0.17562250792980194, 0.13639198243618011, 0.02947733737528324, -0.12683436274528503, 0.06245933100581169, -0.0116592301055789, 0.054529234766960144, 0.17376744747161865, 0.08292699605226517, 0.05856192857027054], [0.14432911574840546, 0.007774892263114452, -0.02286611869931221, 0.028782209381461143, 0.15525509417057037, -0.13900746405124664, -0.03804471716284752, 0.14818717539310455, 0.04871400073170662, 0.0514572337269783, 0.11985231935977936, 0.10711958259344101, 0.01930176094174385, -0.1203969195485115, -0.03451308608055115, -0.14351311326026917, -0.16921743750572205], [0.13796930015087128, 0.010087838396430016, -0.14740882813930511, 0.04033603519201279, -0.12663838267326355, 0.16406330466270447, -0.12048133462667465, 0.11694735288619995, -0.08908907324075699, 0.03411853313446045, 0.14178171753883362, 0.07788969576358795, 0.15945203602313995, -0.054553139954805374, -0.10125041007995605, 0.13795655965805054, 0.06951554864645004], [0.07320186495780945, 0.032161373645067215, -0.07986052334308624, -0.17340435087680817, 0.1180100366473198, 0.07157181948423386, 0.004378804471343756, 0.11097992211580276, -0.11125201731920242, 0.11790831387042999, -0.05490166321396828, 0.15130367875099182, -0.1726807951927185, 0.04441112279891968, -0.16364403069019318, -0.1355101615190506, 0.15680918097496033], [0.10240647196769714, -0.10118777304887772, 0.031455036252737045, 0.02043192833662033, 0.00580553850159049, -0.04129670187830925, 0.10334929823875427, -0.11650225520133972, -0.03161098062992096, -0.004045465029776096, -0.11760881543159485, -0.006606096867471933, 0.11807370185852051, -0.13124148547649384, 0.014398711733520031, 0.15519556403160095, 0.07915365695953369], [0.12197823822498322, -0.15366868674755096, -0.13170906901359558, 0.14375033974647522, -0.11022506654262543, 0.14897438883781433, 0.01944768987596035, 0.024167591705918312, -0.05374135449528694, -0.13920044898986816, -0.02314630337059498, -0.05107894912362099, 0.14964726567268372, 0.09984923899173737, -0.004939645994454622, 0.1479300558567047, -0.04473897069692612], [0.07452034950256348, 0.11498283594846725, 0.037896592170000076, 0.1695035845041275, -0.15112078189849854, 0.04364069923758507, -0.07219213247299194, -0.08426990360021591, 0.07399087399244308, 0.16769084334373474, -0.129582017660141, 0.14310523867607117, 0.05481285974383354, 0.08099876344203949, -0.12870348989963531, 0.13293609023094177, 0.1520693600177765], [0.1702423244714737, -0.08049696683883667, -0.062420908361673355, -0.009537401609122753, 0.1124408021569252, 0.022056682035326958, -0.0013172619510442019, -0.050315774977207184, -0.09420790523290634, -0.09689701348543167, 0.0839117094874382, -0.17940643429756165, -0.17383898794651031, -0.026031535118818283, 0.056903768330812454, 0.08073626458644867, 0.13092684745788574], [-0.0040017589926719666, 0.16273453831672668, -0.009849254973232746, 0.10982134938240051, -0.12107173353433609, -0.01828560046851635, -0.135548397898674, -0.05514061450958252, 0.0026531019248068333, -0.029703475534915924, -0.11455544829368591, 0.022801633924245834, 0.12444457411766052, -0.10079652816057205, -0.12390760332345963, -0.07123040407896042, -0.05167243629693985], [-0.024302968755364418, 0.13744999468326569, 0.11423487961292267, 0.06376335769891739, -0.06213204190135002, -0.058998674154281616, -0.1730453222990036, -0.16204790771007538, 0.035940367728471756, -0.1514386385679245, 0.024956371635198593, -0.11347024887800217, 0.00865110382437706, 0.12397998571395874, -0.013803008012473583, -0.015856802463531494, 0.14359541237354279], [-0.02916393242776394, -0.032614052295684814, 0.01825348287820816, -0.17591246962547302, 0.124324731528759, -0.017366481944918633, 0.12280701845884323, 0.08744727075099945, 0.08216878026723862, -0.05978216230869293, 0.12970982491970062, -0.13707423210144043, -0.005348877515643835, -0.17529775202274323, -0.14266380667686462, 0.1291045993566513, 0.10220237821340561], [-0.08645544946193695, -0.07826507091522217, -0.0810292512178421, -0.14707070589065552, -0.06727509200572968, 0.017617065459489822, -0.10867886990308762, 0.0521959625184536, 0.04592904448509216, -0.17120645940303802, 0.07312732934951782, 0.038288410753011703, -0.007611678447574377, 0.04673221334815025, 0.15244272351264954, -0.04859953001141548, 0.06585143506526947], [-0.098502516746521, 0.07299351692199707, 0.12494896352291107, -0.05516954883933067, -0.12646515667438507, 0.034697625786066055, 0.0948357805609703, 0.0676766037940979, 0.0798979252576828, -0.1429479867219925, 0.06253576278686523, 0.006512046325951815, 0.11166297644376755, -0.07255274057388306, -0.012231878936290741, 0.05591544508934021, 0.1416407823562622], [-0.12319144606590271, -0.1610044538974762, -0.11012513935565948, 0.1554350107908249, 0.17663924396038055, 0.0339081734418869, -0.1318521499633789, 0.01382136344909668, -0.0006247005658224225, 0.162896066904068, -0.0010185628198087215, -0.14790862798690796, -0.13212181627750397, 0.05660410225391388, -0.03721558302640915, -0.052133165299892426, -0.15713076293468475], [0.04768938943743706, 0.09106277674436569, 0.12717147171497345, 0.017381949350237846, -0.0023388550616800785, -0.03151465207338333, -0.07743427157402039, -0.16678908467292786, -0.000577854341827333, -0.09500670433044434, -0.07438509911298752, 0.14447790384292603, 0.13998107612133026, 0.04761923849582672, 0.07781972736120224, -0.13982777297496796, -0.15591785311698914], [-0.08645819127559662, 0.08544792979955673, 0.09664255380630493, -0.04950016736984253, -0.14798808097839355, 0.06010330095887184, -0.1395404189825058, -0.1765984147787094, -0.11040345579385757, 0.09035428613424301, 0.025449741631746292, -0.13771985471248627, -0.15774711966514587, 0.07773402333259583, 0.0048393853940069675, -0.13013865053653717, -0.07689416408538818], [-0.12405888736248016, 0.18148057162761688, 0.049801055341959, -0.053180795162916183, 0.049238454550504684, 0.13341282308101654, 0.11040535569190979, -0.12885314226150513, 0.08776989579200745, -0.007475821767002344, -0.09245125949382782, 0.03162502869963646, -0.021617388352751732, 0.10769817233085632, -0.12958712875843048, 0.010202690027654171, -0.0061471485532820225], [0.16773301362991333, 0.05647827312350273, -0.011548025533556938, 0.14888568222522736, -0.15263335406780243, -0.12759247422218323, 0.005240412428975105, 0.14418400824069977, -0.08578607439994812, 0.014443261548876762, -0.1115250289440155, 0.1378134936094284, -0.11651230603456497, 0.12147029489278793, 0.0770428329706192, 0.1443924456834793, 0.14677703380584717], [0.023726146668195724, -0.1207490935921669, -0.06993301957845688, -0.1732669621706009, 0.06192638352513313, -0.1753075122833252, -0.15675653517246246, -0.018574537709355354, -0.13360169529914856, 0.09167927503585815, -0.045913007110357285, -0.07418778538703918, 0.0237862691283226, 0.13128085434436798, 0.1586557775735855, 0.06444329023361206, -0.09164798259735107], [-0.0307779461145401, -0.04301045835018158, -0.12776771187782288, 0.10355328768491745, -0.17472711205482483, -0.00253938976675272, -0.16316306591033936, -0.11744213104248047, -0.12347431480884552, -0.10454175621271133, -0.06768202036619186, 0.15120866894721985, 0.17518889904022217, -0.08774469792842865, -0.16332289576530457, -0.12199988961219788, 0.0852200835943222], [-0.11693630367517471, 0.11472540348768234, -0.036579858511686325, -0.05688665434718132, 0.11850549280643463, -0.06749438494443893, 0.17042295634746552, 0.008329101838171482, -0.13244305551052094, -0.027502546086907387, -0.16010364890098572, -0.04766542837023735, -0.1678798794746399, -0.16347837448120117, -0.127961665391922, -0.04147804155945778, 0.011483794078230858], [-0.07997798174619675, -0.06585162878036499, 0.14824073016643524, -0.09970972687005997, 0.062229230999946594, 0.17553696036338806, 0.12844742834568024, -0.033467356115579605, 0.0685841292142868, -0.16453154385089874, -0.046346358954906464, 0.14335930347442627, -0.07203473895788193, -0.042618345469236374, -0.06082390621304512, 0.06468293815851212, -0.10604362189769745], [0.1448720246553421, 0.14600759744644165, -0.05447174981236458, -0.11866036057472229, -0.12518271803855896, 0.12933588027954102, 0.02010202407836914, -0.050916027277708054, 0.12042359262704849, 0.10785216093063354, -0.09778037667274475, -0.051517318934202194, -0.05699305608868599, -0.12986552715301514, 0.14543086290359497, 0.043374136090278625, 0.06647364795207977], [0.10025626420974731, 0.04316028952598572, 0.1451193243265152, 0.05497780069708824, 0.0321941003203392, -0.1755283921957016, -0.08570749312639236, -0.11102377623319626, 0.16068169474601746, -0.03444324806332588, 0.1745649129152298, 0.06882209330797195, -0.0005072794738225639, -0.052982550114393234, -0.07016623765230179, -0.127816304564476, 0.024497434496879578], [-0.0898870900273323, 0.023694705218076706, 0.14260339736938477, -0.06591341644525528, -0.006007737945765257, 0.0431646928191185, 0.14074143767356873, 0.1454124003648758, -0.061158258467912674, 0.13832791149616241, -0.01204086933284998, -0.15458346903324127, 0.05176638066768646, 0.053258612751960754, 0.04768559709191322, 0.07815268635749817, 0.07047486305236816], [-0.0315140001475811, 0.02343168668448925, -0.15795084834098816, -0.04993925243616104, -0.10533811897039413, -0.015277641825377941, 0.09458062052726746, -0.015647796913981438, 0.07645554095506668, 0.06442459672689438, -0.029192930087447166, 0.11181002110242844, -0.16919204592704773, -0.05025649070739746, -0.1432649791240692, -0.01005480531603098, 0.1331941783428192], [0.048575758934020996, 0.07580270618200302, -0.06870054453611374, 0.16217005252838135, -0.0690392330288887, -0.09073961526155472, -0.12959013879299164, -0.03036334738135338, -0.09904134273529053, -0.06296256184577942, 0.13016179203987122, 0.06677217781543732, 0.0241071954369545, 0.05472639575600624, 0.10837376862764359, 0.04999539256095886, -0.05449357628822327], [-0.035604581236839294, -0.12316674739122391, -0.14281709492206573, 0.08913064002990723, 0.04520367458462715, 0.07008808106184006, -0.06091593578457832, 0.09249027073383331, -0.016558758914470673, -0.10428442806005478, 0.04651416838169098, 0.1285741627216339, -0.07615745812654495, 0.10356511175632477, -0.1665608435869217, -0.14707563817501068, 0.1169845387339592], [-0.16615968942642212, -0.08611650764942169, 0.0073999748565256596, -6.109185778768733e-05, -0.09131962060928345, -0.035920895636081696, -0.07464579492807388, 0.045981474220752716, 0.05265595391392708, -0.023691775277256966, -0.06922055035829544, -0.1723165214061737, 0.15087507665157318, -0.12721362709999084, -0.1690313220024109, 0.02942007966339588, -0.14240901172161102], [-0.0880889743566513, -0.071933314204216, -0.004543767310678959, -0.08211999386548996, -0.035263318568468094, 0.1117173433303833, -0.012501977384090424, 0.036150868982076645, 0.046203967183828354, 0.16834969818592072, 0.10772913694381714, 0.09826478362083435, -0.112613745033741, 0.055804092437028885, -0.12721586227416992, -0.021127350628376007, 0.0598231740295887], [-0.13172204792499542, 0.1309879720211029, 0.07491235435009003, 0.028825176879763603, -0.16742481291294098, -0.045424818992614746, 0.05101818963885307, -0.024702394381165504, -0.032477349042892456, 0.03996286168694496, 0.08269201219081879, 0.02493833191692829, -0.006837251130491495, 0.13839474320411682, 0.1013261005282402, -0.16400881111621857, -0.16552889347076416], [-0.20907022058963776, 0.14839354157447815, 0.1289711892604828, -0.018955569714307785, -0.08731934428215027, 0.1506744772195816, 0.06803818792104721, -0.138092041015625, -0.13970915973186493, 0.1355462223291397, -0.05660204961895943, -0.10725829005241394, 0.07229743897914886, -0.04020572826266289, 0.08585113286972046, -0.03807416185736656, -0.05052923783659935], [-0.05616730824112892, -0.17151470482349396, -0.02861839346587658, 0.026563046500086784, 0.031478021293878555, 0.08287495374679565, -0.07420004159212112, 0.008512324653565884, -0.1704949587583542, -0.055797114968299866, 0.10991756618022919, -0.12822440266609192, 0.11888531595468521, 0.10189620405435562, -0.1227770447731018, 0.14214082062244415, -0.0443749725818634], [0.11612126976251602, -0.15495343506336212, -0.1259324848651886, -0.06637932360172272, -0.08738836646080017, -0.08848195523023605, 0.03960442170500755, -0.1339632123708725, 0.06758200377225876, -0.12173893302679062, 0.09970972687005997, -0.05463550612330437, -0.16538658738136292, 0.05573610961437225, 0.13153426349163055, -0.10990989953279495, -0.02473604865372181], [0.06611525267362595, -0.008840175345540047, -0.05135047435760498, 0.09939290583133698, -0.0858655646443367, 0.09727481752634048, 0.004151316825300455, -0.1357642263174057, 0.113802470266819, -0.001227885135449469, -0.06106351315975189, -0.013470301404595375, 0.146427720785141, 0.1681298464536667, 0.08679721504449844, 0.07148400694131851, 0.14367394149303436], [-0.11843997240066528, 0.08898702263832092, -0.00741190230473876, 0.03378767520189285, -0.062155432999134064, 0.11057042330503464, -0.13279710710048676, -0.12847229838371277, 0.1358872950077057, 0.14413627982139587, -0.11574335396289825, -0.0979185476899147, 0.008458134718239307, -0.03737030178308487, -0.08318664878606796, 0.13318543136119843, -0.09234991669654846], [0.1572851836681366, -0.1169196367263794, 0.11968450993299484, -0.07817251980304718, 0.1164354681968689, -0.162046879529953, -0.0720546692609787, 0.02143620327115059, -0.10047597438097, 0.013053321279585361, 0.04243110865354538, 0.053802240639925, 0.16443116962909698, -0.09328943490982056, -0.17334027588367462, 0.16641122102737427, -0.12054736167192459], [0.06594399362802505, -0.11553504317998886, -0.0015452720690518618, -0.09024714678525925, 0.08665977418422699, 0.13879884779453278, -0.15315450727939606, 0.07773320376873016, -0.11430496722459793, 0.012058529071509838, 0.015435924753546715, 0.06127576529979706, 0.17150932550430298, 0.1478150486946106, 0.11620433628559113, 0.04712430760264397, -0.15875206887722015], [0.09677308052778244, 0.11485827714204788, 0.11225207895040512, 0.026882607489824295, -0.028879420831799507, 0.063271164894104, 0.14574478566646576, 0.16883805394172668, 0.10624493658542633, -0.13783420622348785, -0.08251260966062546, -0.03294766694307327, -0.14719833433628082, 0.05842292681336403, 0.06639359146356583, -0.09030181169509888, 0.1679893434047699], [-0.11941525340080261, -0.02530776523053646, 0.016647562384605408, 0.11336051672697067, 0.13284353911876678, 0.003732051234692335, -0.1611066609621048, 0.09413553029298782, 0.1357363909482956, 0.162740558385849, 0.06319858133792877, -0.12953788042068481, 0.05151756480336189, -0.08738750219345093, -0.11863270401954651, -0.056886136531829834, 0.0984860211610794], [-0.02073180302977562, -0.06136756017804146, -0.09300793707370758, 0.1585702896118164, 0.1671474426984787, 0.03048224374651909, -0.12317553162574768, 0.07187069952487946, -0.11026822775602341, -0.07938387989997864, 0.03641991317272186, 0.028627509251236916, 0.014388006180524826, -0.15846402943134308, 0.027443014085292816, 0.0495733767747879, -0.004867075942456722], [0.10263530910015106, 0.10621540993452072, 0.019610611721873283, 0.08304212242364883, -0.058493103832006454, -0.09993419796228409, -0.1696983128786087, 0.13111157715320587, -0.15414543449878693, 0.016871299594640732, -0.16344191133975983, 0.022837460041046143, 0.017468752339482307, -0.004451170563697815, -0.02821463905274868, 0.007661664858460426, -0.10315179824829102], [-0.1711937040090561, -0.13667581975460052, 0.027896050363779068, -0.08236853033304214, -0.15198875963687897, 0.08858045190572739, 0.10401932895183563, -0.10417988151311874, 0.08372481912374496, 0.03166617080569267, 0.14919769763946533, -0.15660011768341064, -0.1767098307609558, -0.1388263702392578, -0.1524314284324646, 0.13968028128147125, 0.1290111392736435], [0.08459702879190445, 0.08661506325006485, -0.12441465258598328, 0.06055568531155586, 0.0008317680330947042, -0.046073418110609055, -0.1178819090127945, 0.09905927628278732, -0.14432896673679352, -0.16457107663154602, -0.11345992237329483, 0.09447664767503738, -0.034895461052656174, -0.098822221159935, -0.09884203225374222, 0.1433025747537613, 0.12983019649982452], [0.006370622664690018, -0.027101939544081688, 0.09872142225503922, 0.02623439021408558, 0.09709099680185318, 0.15906700491905212, 0.10221902281045914, -0.12536798417568207, 0.1342894732952118, -0.08255340903997421, -0.16006670892238617, 0.0627693459391594, -0.11866364628076553, -0.13879051804542542, -0.02954346500337124, 0.10931111872196198, -0.019983021542429924], [-0.023038415238261223, -0.08102906495332718, -0.016468269750475883, 0.04539826512336731, -0.06459838896989822, -0.1343287229537964, -0.027705293148756027, -0.17546866834163666, -0.06274755299091339, -0.10555863380432129, -0.021453609690070152, -0.036476980894804, -0.15347915887832642, -0.12548787891864777, 0.17178019881248474, -0.06283005326986313, 0.1429203599691391], [-0.1348295509815216, 0.14616404473781586, 0.052285756915807724, 0.10409704595804214, -0.025909416377544403, -0.13151681423187256, 0.12317298352718353, -0.04334103688597679, -0.11558962613344193, -0.020510489121079445, 0.07978037744760513, -0.026163456961512566, -0.056770097464323044, 0.07517454773187637, -0.0486273467540741, -0.00173830462154001, -0.112406887114048], [0.07045808434486389, -0.07837293297052383, -0.07075062394142151, 0.1340058296918869, -0.06267760694026947, -0.05241846293210983, 0.0020714704878628254, 0.1646260917186737, -0.08807831257581711, -0.13252122700214386, 0.022095587104558945, -0.1338963359594345, -0.0006587460520677269, -0.11608627438545227, -0.144464373588562, 0.12449914962053299, 0.1714285910129547], [-0.09169255942106247, 0.1383485347032547, -0.1896839737892151, 0.07562781125307083, 0.09920798987150192, 0.15644614398479462, -0.18626707792282104, 0.1716523915529251, 0.08002890646457672, -0.004605676978826523, -0.053169917315244675, 0.16335855424404144, -0.15672199428081512, 0.0057932729832828045, 0.07503291964530945, 0.09412457793951035, -0.04803953319787979], [0.06314628571271896, 0.02278243564069271, 0.010497409850358963, 0.10820923000574112, 0.04156450554728508, -0.07886113226413727, 0.11811525374650955, -0.042717788368463516, -0.11720433831214905, 0.07033931463956833, 0.1760636270046234, 0.012024453841149807, 0.09881467372179031, 0.08169055730104446, 0.045925818383693695, 0.13333499431610107, 0.051928963512182236], [0.10422059893608093, -0.09730257093906403, 0.12752489745616913, -0.0435517281293869, -0.042206041514873505, -0.12949924170970917, -0.08655335754156113, -0.08238465338945389, -0.023141948506236076, -0.11812838166952133, -0.07325611263513565, 0.10993396490812302, -0.11461746692657471, 0.06383688002824783, -0.11263087391853333, -0.10010356456041336, -0.11092818528413773], [-0.11959081888198853, -0.1118319183588028, -0.07491296529769897, -0.0396379716694355, 0.08728955686092377, 0.08201947063207626, 0.035377874970436096, 0.16256114840507507, -0.11735007911920547, -0.1541547030210495, -0.12015964835882187, -0.13075098395347595, 0.1482052206993103, -0.13927826285362244, -0.05876467376947403, -0.02526317909359932, -0.09141786396503448], [-0.04906708747148514, -0.10552281141281128, -0.040198758244514465, 0.026334445923566818, 0.04908653721213341, 0.08753735572099686, -0.033767253160476685, -0.07128829509019852, 0.16734187304973602, -0.004594238009303808, -0.04813915863633156, 0.14170660078525543, -0.08739359676837921, 0.09329202771186829, -0.08841799944639206, -0.001456763595342636, 0.14772748947143555], [0.0020778607577085495, 0.11144363880157471, 0.10728290677070618, 0.10017900913953781, -0.08951219171285629, 0.08496572822332382, 0.0661945566534996, 0.01474336814135313, 0.1045563817024231, -0.06528900563716888, -0.0019473740831017494, 0.06952343881130219, -0.08220422267913818, -0.058998506516218185, -0.17583967745304108, 0.14878638088703156, -0.0912112146615982], [0.04466427117586136, 0.09560579061508179, 0.00046095289872027934, -0.039346031844615936, -0.022027796134352684, 0.10185433179140091, -0.008815934881567955, -0.0036869337782263756, 0.16392618417739868, 0.1521826833486557, -0.15886995196342468, -0.02947101555764675, 0.1272532045841217, 0.14679640531539917, 0.028324320912361145, -0.13357244431972504, -0.10794223845005035], [-0.1657586693763733, -0.16245655715465546, -0.16460351645946503, 0.010435685515403748, -0.05079426243901253, -0.08710381388664246, -0.07836736738681793, -0.17100678384304047, 0.07406754046678543, -0.046416450291872025, -0.004941949620842934, -0.07828237861394882, 0.014588436111807823, -0.0552712082862854, 0.0550658255815506, -0.01708519458770752, 0.14583061635494232], [0.10468077659606934, 0.08199524134397507, 0.0515776053071022, 0.14684006571769714, 0.017308762297034264, 0.1396094709634781, 0.14101602137088776, 0.11585308611392975, -0.04529901221394539, 0.09640809148550034, -0.12000086158514023, -0.05752168223261833, -0.007659936789423227, -0.09296686202287674, -0.011691324412822723, -0.05888879671692848, -0.07916849106550217], [-0.10840607434511185, 0.13569952547550201, 0.13041245937347412, -0.11961717903614044, -0.15281091630458832, -0.004529816564172506, -0.012735491618514061, -0.06856830418109894, -0.10372651368379593, 0.032917361706495285, -0.16748367249965668, -0.1218944787979126, 0.03274097666144371, -0.07124155759811401, 0.09230058640241623, -0.06008235365152359, 0.13988825678825378], [0.08652016520500183, -0.08931288123130798, 0.14844344556331635, -0.08025781810283661, 0.0459146723151207, 0.038730088621377945, 0.09360945224761963, 0.08831269294023514, 0.046193238347768784, 0.06947203725576401, -0.14332903921604156, 0.13659991323947906, -0.04479683190584183, -0.015672937035560608, -0.10238632559776306, 0.15368354320526123, -0.052274756133556366], [-0.08405076712369919, -0.0500829741358757, 0.03490670025348663, -0.11320119351148605, -0.03981754183769226, -0.17283928394317627, -0.009834002703428268, 0.023592844605445862, 0.008024079725146294, -0.013150530867278576, -0.050668902695178986, -0.07327263802289963, -0.1443498730659485, 0.018090780824422836, 0.11991829425096512, 0.13680802285671234, -0.13666924834251404], [0.07337188720703125, -0.08221612870693207, 0.02336796186864376, -0.05418146029114723, 0.17650672793388367, 0.1335018426179886, -0.07517246156930923, 0.0709611102938652, 0.004108032211661339, -0.07440749555826187, 0.07961884886026382, -0.1541440635919571, 0.13853424787521362, -0.05187729001045227, -0.166768416762352, 0.08132069557905197, 0.04392744600772858], [0.18475522100925446, -0.22197358310222626, -0.02715289033949375, 0.06087169796228409, 0.02915656566619873, -0.09747092425823212, -0.04163726046681404, -0.05727371573448181, -0.001255650189705193, 0.11705508828163147, -0.01632007211446762, 0.22906208038330078, -0.07630303502082825, -0.09702498465776443, -0.0026822201907634735, 0.07262833416461945, -0.016991911455988884], [0.16766564548015594, -0.0623185820877552, -0.14596343040466309, -0.117427758872509, 0.07055974751710892, -0.1243310272693634, -0.08113963901996613, -0.06118333712220192, -0.07444414496421814, 0.08833681792020798, -0.06588966399431229, 0.08407847583293915, -0.1506650745868683, 0.003101628739386797, 0.10495279729366302, 0.11663862317800522, 0.07933960855007172], [0.11131089925765991, 0.07941962033510208, -0.14688704907894135, 0.016883669421076775, -0.08735431730747223, 0.1765720695257187, -0.026610368862748146, 0.014115422032773495, 0.037365056574344635, 0.10351691395044327, -0.09212447702884674, -0.051045987755060196, 0.09689688682556152, -0.12306820601224899, 0.07810978591442108, 0.162523552775383, -0.015105156227946281], [0.0007802699692547321, 0.14036543667316437, -0.042742013931274414, 0.0750395804643631, -0.09252607822418213, -0.07308144122362137, -0.10996367037296295, -0.15296177566051483, 0.02594798430800438, 0.11431603133678436, -0.07793324440717697, 0.1222233846783638, 0.18564486503601074, 0.015452638268470764, 0.10874667763710022, 0.062179919332265854, -0.1514100879430771], [0.042583342641592026, 0.043175313621759415, -0.16586299240589142, 0.08956630527973175, 0.08240096271038055, 0.002154336078092456, 0.04359440132975578, 0.1487312912940979, 0.06707074493169785, 0.0544535368680954, 0.052450213581323624, 0.1709236055612564, 0.17063648998737335, -0.1399509608745575, -0.08005167543888092, -0.03486410528421402, -0.005517506971955299], [-0.09161466360092163, 0.10078215599060059, 0.10626425594091415, 0.08813375979661942, 0.1443299800157547, -0.16903111338615417, 0.1187896654009819, -0.15492449700832367, -0.002661951817572117, 0.10739149898290634, -0.13036471605300903, -0.12913811206817627, -0.045693863183259964, -0.17295949161052704, 0.0683879405260086, 0.09341182559728622, -0.03885764628648758], [-0.0025858033914119005, -0.02848166786134243, 0.07613762468099594, 0.1352962702512741, -0.142622709274292, -0.09140081703662872, 0.011575535871088505, 0.04840027913451195, -0.0339350700378418, -0.15587326884269714, 0.13970538973808289, 0.13597752153873444, -0.08497357368469238, -0.01667862758040428, -0.019077280536293983, -0.0031810523942112923, 0.029603999108076096], [0.1468781977891922, -0.001593488035723567, 0.08303571492433548, -0.167180135846138, 0.17136560380458832, 0.060126546770334244, -0.06751322001218796, -0.115876205265522, -0.027784066274762154, -0.02102537639439106, 0.15289653837680817, -0.1032852753996849, 0.12444942444562912, -0.08322702348232269, 0.05126108229160309, 0.09676051884889603, 0.10594476014375687], [0.16695161163806915, 0.09109354019165039, 0.07167021185159683, -0.03960404545068741, -0.1184471845626831, -0.08633650839328766, 0.11568831652402878, 0.1618504524230957, 0.12882478535175323, -0.17280417680740356, -0.07844573259353638, -0.04244745895266533, 0.16125716269016266, 0.15540187060832977, -0.1321536898612976, 0.12617674469947815, 0.02894485369324684], [-0.1360929310321808, -0.0009393267682753503, -0.10758669674396515, 0.04672439768910408, -0.09321118891239166, -0.03175695613026619, -0.08321193605661392, 0.1566440463066101, 0.08931566029787064, -0.03482532873749733, -0.0846303403377533, -0.006362783256918192, 0.17201857268810272, 0.14064836502075195, 0.13978920876979828, -0.08691969513893127, -0.1687454879283905], [0.12664104998111725, -0.1630142778158188, 0.034077856689691544, 0.02893804758787155, -0.0007679787813685834, 0.1253035068511963, -0.02890652045607567, 0.021254191175103188, -0.061825841665267944, -0.14587396383285522, -0.06981363892555237, 0.14333418011665344, 0.08597207069396973, -0.1300031542778015, 0.11624574661254883, 0.16804036498069763, 0.1666450798511505], [0.007677490822970867, 0.0678958147764206, 0.1504635512828827, 0.10413406789302826, -0.07988888770341873, -0.008402037434279919, -0.17348477244377136, 0.011154606007039547, -0.15219689905643463, 0.039439018815755844, 0.1181567907333374, -0.1391238570213318, -0.08019386231899261, -0.013507390394806862, -0.09887106716632843, 0.08782410621643066, 0.06295887380838394], [0.0034423016477376223, 0.11508453637361526, -0.10136369615793228, -0.02916429191827774, 0.12352827936410904, 0.1526634693145752, 0.004372124560177326, 0.07669872790575027, 0.04214714467525482, 0.08676284551620483, -0.05736889690160751, -0.08455439656972885, 0.07617422938346863, -0.037274397909641266, -0.14246505498886108, -0.15942130982875824, -0.08061404526233673], [-0.003070882521569729, -0.0028514449950307608, -0.005952357314527035, 0.11576344072818756, 0.12025610357522964, -0.08128470927476883, 0.13183507323265076, 0.03604545816779137, 0.1591520607471466, 0.06256937980651855, -0.07615315914154053, 0.06304226815700531, 0.03287995606660843, -0.05064131319522858, 0.1759263128042221, 0.04603847861289978, -0.07365325838327408], [-0.16820789873600006, -0.0034420276060700417, -0.02755025587975979, -0.030388763174414635, -0.10106152296066284, 0.10634484142065048, -0.1446482092142105, -0.16470330953598022, 0.11990729719400406, -0.08492118120193481, -0.11268866062164307, 0.04252513498067856, -0.0401785671710968, 0.0349351204931736, 0.09947025030851364, 0.16895678639411926, 0.1662503480911255], [-0.10265842825174332, 0.15417367219924927, 0.16012519598007202, -0.04619206115603447, -0.06498681753873825, -0.1712224930524826, -0.013093297369778156, -0.07844264060258865, -0.039467550814151764, -0.05061379075050354, 0.06802071630954742, 0.06481850147247314, -0.04614192619919777, 0.03487953171133995, 0.0931657999753952, -0.1303359866142273, -0.13505788147449493], [0.0735231563448906, -0.08362526446580887, -0.07421602308750153, -0.0025010150857269764, -0.11184342205524445, -0.09692078828811646, -0.01316123828291893, 0.06997320801019669, 0.030846813693642616, 0.09635540843009949, 0.022407665848731995, -0.17582455277442932, -0.016061067581176758, 0.05712785944342613, 0.030752573162317276, -0.16588036715984344, 0.029166903346776962], [-0.12738889455795288, 0.02604866959154606, 0.02655666507780552, 0.15984848141670227, 0.162759929895401, 0.10449031740427017, -0.0616069957613945, 0.035848211497068405, 0.04549058899283409, -0.07964165508747101, -0.16997398436069489, 0.0939200147986412, 0.13217809796333313, -0.051405392587184906, 0.1538226306438446, -0.17015674710273743, 0.14506849646568298], [0.24509847164154053, -0.14736336469650269, 0.0001561822573421523, 0.10579425096511841, -0.028002167120575905, -0.048532646149396896, -0.07203575223684311, 0.018875423818826675, 0.07455829530954361, -0.12584275007247925, -0.029185911640524864, 0.12408823519945145, -0.10633180290460587, -0.03783971071243286, 0.04099589213728905, -0.03931024670600891, 0.14146046340465546], [-0.16575364768505096, 0.02057318203151226, 0.0913780927658081, -0.10460944473743439, 0.16663648188114166, 0.004596956539899111, 0.14727124571800232, 0.08813875168561935, 0.15919102728366852, -0.14483138918876648, -0.0184348002076149, -0.1184544712305069, -0.01796703226864338, -0.037879038602113724, -0.09890187531709671, 0.14373508095741272, -0.091270811855793], [0.16802053153514862, -0.016557874158024788, 0.048287685960531235, -0.1491449624300003, 0.07901288568973541, -0.07521874457597733, 0.16332346200942993, 0.14311209321022034, -0.15773436427116394, 0.17520672082901, -0.104209765791893, 0.07798787206411362, 0.1423836648464203, -0.08991414308547974, 0.11025115847587585, 0.10484456270933151, -0.14221756160259247], [0.10622899979352951, -0.16632455587387085, -0.07357767969369888, -0.14747761189937592, 0.07319767028093338, -0.018018268048763275, 0.1066882461309433, 0.040801648050546646, -0.12063339352607727, 0.09961650520563126, -0.1485452950000763, -0.017227234318852425, -0.16514776647090912, 0.10284996032714844, 0.04264664277434349, 0.15589331090450287, 0.020763417705893517], [-0.07492738962173462, 0.032223571091890335, -0.021640095859766006, 0.054639656096696854, -0.1370861977338791, 0.0640760064125061, -0.03516436740756035, -0.11769966036081314, -0.12588907778263092, -0.013884871266782284, 0.24219919741153717, -0.009803262539207935, -0.03938015550374985, 0.08737464249134064, 0.15560516715049744, 0.03139697387814522, 0.05572374165058136], [0.002443760633468628, -0.010615932755172253, -0.15633796155452728, 0.042755454778671265, 0.0680021345615387, 0.10386041551828384, 0.17160916328430176, -0.06320762634277344, -0.012865896336734295, -0.10013212263584137, -0.09955477714538574, 0.13380159437656403, -0.02605779841542244, -0.16783201694488525, 0.0706302598118782, 0.08240032941102982, 0.14017459750175476], [0.13213007152080536, 0.06186596676707268, 0.07854754477739334, -0.11544818431138992, 0.07167185097932816, -0.08678314089775085, 0.03681664168834686, 0.003454123856499791, -0.14081928133964539, 0.013656780123710632, 0.17194658517837524, -0.0784764364361763, -0.1197798028588295, -0.16370588541030884, 0.1676795333623886, 0.12710604071617126, 0.11393993347883224], [-0.09742515534162521, 0.02681605890393257, 0.13954970240592957, -0.0039669666439294815, 0.13464687764644623, 0.12865027785301208, -0.13597993552684784, -0.038895029574632645, 0.1526646912097931, -0.02920679561793804, -0.11572419852018356, 0.048375118523836136, 0.10618668794631958, -0.1482977271080017, 0.1629178673028946, -0.026534242555499077, -0.17421162128448486], [-0.06266810745000839, -0.07496131211519241, 0.1506928950548172, 0.0536089763045311, 0.13472427427768707, 0.07640964537858963, 0.1336231827735901, -0.027347993105649948, -0.08933203667402267, -0.07688234001398087, -0.08575320243835449, 0.014423768036067486, -0.16452933847904205, 0.15626871585845947, -0.1464432328939438, -0.054568640887737274, 0.11027269810438156], [0.16145171225070953, -0.03393476456403732, 0.08993463218212128, -0.04771185293793678, 0.09566259384155273, 0.12113172560930252, 0.1320687085390091, 0.09823504835367203, 0.13817749917507172, 0.12657205760478973, 0.1617344170808792, 0.051085226237773895, 0.03964170068502426, -0.06378910690546036, -0.15615074336528778, -0.08283891528844833, 0.08974967151880264], [-0.030021555721759796, 0.13112734258174896, -0.15863868594169617, 0.04715355113148689, 0.12348950654268265, 0.17443034052848816, 0.08147292584180832, 0.17553451657295227, -0.11121256649494171, -0.10646019876003265, 0.167714461684227, 0.09473313391208649, -0.0790698304772377, -0.16929486393928528, 0.1204410269856453, -0.05683080106973648, 0.1474376767873764], [-0.0008717442979104817, -0.13864415884017944, -0.1341085135936737, -0.027839256450533867, 0.014915495179593563, 0.09413295984268188, -0.1332993060350418, 0.13358353078365326, 0.11607760190963745, 0.12515179812908173, -0.11043854057788849, -0.061639998108148575, -0.11361867189407349, -0.1229008212685585, -0.12136130034923553, -0.17534799873828888, -0.02684490755200386], [0.09661789983510971, -0.08536390960216522, 0.04531538486480713, -0.09901140630245209, -0.09744129329919815, 0.17335151135921478, -0.060154929757118225, 0.15295976400375366, 0.06215418875217438, -0.11770627647638321, -0.037463534623384476, 0.16556182503700256, 0.1468445062637329, -0.10678140819072723, -0.08057044446468353, -0.05492307245731354, 0.16434594988822937], [-0.09806300699710846, 0.11342776566743851, 0.0624096617102623, 0.14181534945964813, 0.17171689867973328, -0.05060264468193054, 0.166622593998909, -0.0940207690000534, -0.099439837038517, -0.15192703902721405, -0.1267651617527008, 0.002661067759618163, 0.14631204307079315, -0.037827618420124054, -0.1032261848449707, 0.12063827365636826, 0.03670179098844528]], "lstm.weight_hh_l0": [[0.06929264217615128, -0.13031797111034393, 0.08351296931505203, -0.04187605530023575, -0.028777804225683212, 0.17420727014541626, -0.08535375446081161, -0.14441850781440735, 0.04015776887536049, 0.12528976798057556, -0.15035013854503632, -0.1532226949930191, 0.0883050411939621, -0.09626173228025436, 0.17483928799629211, 0.1422388255596161, 0.16148105263710022, -0.13655273616313934, 0.12984563410282135, -0.08103220164775848, -0.02362746000289917, -0.14974428713321686, -0.0923103615641594, -0.027873290702700615, -0.1004825085401535, 0.09366146475076675, -0.16421985626220703, -0.0723186582326889, 0.1696004718542099, -0.1536361277103424, 0.07947232574224472, -0.02330891415476799], [0.09693275392055511, 0.00890769436955452, -0.09478474408388138, 0.05211704224348068, -0.15856817364692688, -0.008868265897035599, -0.17183075845241547, 0.015127114951610565, -0.008213956840336323, -0.061784014105796814, 0.1459043323993683, 0.17491869628429413, -0.14507927000522614, 0.0738898515701294, -0.06610158085823059, -0.12477175891399384, 0.1220882460474968, 0.1698509156703949, -0.1744571179151535, 0.06351450085639954, 0.09605905413627625, -0.011265936307609081, 0.13015612959861755, 0.04953257739543915, 0.09110262244939804, -0.025877363979816437, -0.038492146879434586, 0.10957864671945572, -0.07601047307252884, -0.04782069846987724, 0.03355708718299866, -0.0730130523443222], [0.001547000021673739, 0.0021999601740390062, 0.14108125865459442, -0.14464256167411804, 0.17536519467830658, 0.022255221381783485, 0.007610308937728405, 0.12614068388938904, -0.0006544773350469768, 0.017976725473999977, 0.12848462164402008, -0.12055931240320206, -0.09698480367660522, 0.10021510720252991, 0.09748361259698868, -0.11346325278282166, -0.15554334223270416, 0.07780206948518753, 0.16497235000133514, -0.11747510731220245, 0.16537752747535706, 0.07052866369485855, -0.06629812717437744, 0.16213689744472504, 0.09710570424795151, -0.1088671013712883, 0.09733732044696808, 0.08781133592128754, -0.04041294753551483, -0.07569573819637299, -0.1761208474636078, -0.07248946279287338], [-0.07317093014717102, -0.15758125483989716, 0.12015978991985321, 0.10385016351938248, -0.0328141450881958, 0.06839223951101303, 0.0040124855004251, 0.13825279474258423, -0.0680542066693306, -0.13038720190525055, -0.0681445449590683, 0.04194974899291992, 0.16879521310329437, -0.16834093630313873, -0.13981474936008453, -0.11411783844232559, -0.022835899144411087, 0.1580839604139328, -0.053001243621110916, -0.0674872174859047, 0.04405660554766655, -0.07405367493629456, -0.05744761601090431, -0.05243014916777611, -0.009384248405694962, 0.06710338592529297, -0.12333257496356964, -0.14911015331745148, 0.10688356310129166, 0.03508537635207176, -0.07777240872383118, -0.11225429177284241], [0.1491679847240448, -0.023473897948861122, 0.07783437520265579, 0.00894863996654749, 0.0900731235742569, -0.01716289110481739, -0.018064329400658607, -0.050363942980766296, -0.014215542003512383, 0.1572807878255844, 0.01613655313849449, 0.1384909451007843, -0.08857893198728561, -0.009453222155570984, -0.03502765670418739, 0.015085241757333279, 0.06949334591627121, -0.15793772041797638, 0.08079489320516586, -0.06845136731863022, -0.05179472640156746, 0.1720203161239624, -0.0527568943798542, -0.034169018268585205, 0.1475411355495453, -0.0310053713619709, -0.04997964948415756, 0.07730739563703537, 0.08031731098890305, -0.052795711904764175, 0.1482807844877243, 0.09938738495111465], [-0.12267493456602097, 0.050108809024095535, 0.04764612764120102, -0.1210579052567482, 0.0068133119493722916, 0.047175999730825424, -0.06118639186024666, 0.11757952719926834, 0.11560442298650742, 0.1409820020198822, 0.09087543189525604, 0.1337326020002365, 0.017403971403837204, 0.06262229382991791, -0.15461820363998413, -0.007740668952465057, 0.1427180916070938, -0.0598074309527874, -0.16356058418750763, -0.12556858360767365, -0.015509871765971184, 0.011094904504716396, 0.0752423033118248, -0.13617819547653198, 0.10260797291994095, -0.05097806826233864, 0.12688899040222168, 0.005017539951950312, -0.050130683928728104, 0.0028849728405475616, -0.08143144100904465, 0.17438456416130066], [0.07518856227397919, -0.010490477085113525, -0.06984486430883408, 0.13232579827308655, 0.02188318595290184, 0.14487208425998688, 0.007086955476552248, 0.005154158920049667, -0.0407177098095417, 0.09498586505651474, 0.1663130819797516, -0.07652470469474792, -0.029549092054367065, 0.10788974165916443, 0.013470279984176159, -0.10975993424654007, -0.15485692024230957, -0.16014908254146576, 0.16951791942119598, 0.1495456099510193, 0.02796097658574581, -0.054234493523836136, -0.14428983628749847, -0.08544089645147324, -0.06972422450780869, 0.13122789561748505, -0.10530044138431549, 0.022677723318338394, 0.12099377810955048, 0.17427130043506622, -0.08197085559368134, -0.05540365353226662], [-0.09525813162326813, 0.1731565147638321, -0.03410929813981056, 0.07408370822668076, 0.0068561541847884655, -0.17050479352474213, -0.11437729001045227, -0.09193512797355652, 0.06982516497373581, 0.1401689350605011, -0.045793794095516205, -0.10709625482559204, -0.11483819037675858, 0.15973398089408875, -0.1430939882993698, 0.032803796231746674, 0.12563039362430573, 0.16979512572288513, -0.011444766074419022, -0.04370803013443947, -0.17290116846561432, -0.06941364705562592, -0.09505454450845718, -0.05442066490650177, -0.0010663573630154133, 0.15183372795581818, -0.08330560475587845, -0.09483867138624191, 0.026921825483441353, 0.12520235776901245, -0.07055936753749847, 0.14423662424087524], [0.08689425140619278, 0.11523634940385818, -0.11157865822315216, -0.10761065036058426, 0.12862083315849304, 0.023714056238532066, -0.07798641175031662, 0.14403735101222992, 0.03995878994464874, 0.16250722110271454, -0.014713739044964314, 0.05133115127682686, -0.1348063200712204, 0.14878401160240173, 0.048416633158922195, -0.020532257854938507, -0.16832375526428223, -0.05009053647518158, -0.14476723968982697, -0.031596437096595764, -0.052130699157714844, 0.15041913092136383, 0.10455773770809174, -0.019661376252770424, -0.03385280817747116, -0.002848518779501319, -0.13854192197322845, -0.14685146510601044, -0.06182500720024109, 0.026424450799822807, 0.11444977670907974, 0.10082686692476273], [-0.08315570652484894, 0.06275172531604767, -0.08323819190263748, -0.04166926071047783, 0.06066545471549034, -0.16544972360134125, 0.05687565356492996, 0.14345699548721313, 0.013823596760630608, 0.006971889641135931, -0.06869649887084961, 0.03416183218359947, 0.12214183807373047, -0.009743824601173401, -0.11200948059558868, 0.05949423834681511, 0.06850236654281616, -0.09931767731904984, -0.0533297136425972, 0.09163074195384979, -0.03152063861489296, 0.14405758678913116, -0.09173090755939484, 0.12829002737998962, 0.10161086916923523, 0.12773601710796356, 0.04783879965543747, 0.09365147352218628, -0.11603499203920364, 0.1259218454360962, 0.1765676587820053, -0.04913658648729324], [0.13179464638233185, 0.09718608111143112, 0.14616283774375916, -0.04043610394001007, 0.1324343979358673, 0.05643772706389427, 0.12891757488250732, 0.11936484277248383, 0.13875210285186768, 0.07185803353786469, -0.03539200872182846, 0.05704769864678383, -0.11086881905794144, 0.1206023320555687, 0.07150174677371979, 0.12429758906364441, 0.06623851507902145, 0.08124087005853653, -0.09503614157438278, -0.06446383148431778, -0.12492789328098297, -0.10703006386756897, 0.09269948303699493, 0.1113705188035965, 0.020115425810217857, 0.11820653080940247, 0.051221318542957306, 0.018676722422242165, -0.0022968726698309183, -0.14267586171627045, -0.018815476447343826, 0.08573859184980392], [-0.052222032099962234, 0.0289104413241148, 0.03202776983380318, -0.07606344670057297, -0.14130249619483948, -0.05030236765742302, -0.027727799490094185, 0.12796121835708618, -0.06877592206001282, 0.12195879220962524, 0.08672807365655899, 0.11360472440719604, 0.1389128714799881, -0.09702320396900177, -0.08551930636167526, 0.13103659451007843, 3.909120277967304e-05, 0.08950982987880707, -0.03958718478679657, 0.028207283467054367, -0.034852512180805206, 0.06535566598176956, -0.14273683726787567, -0.08926242589950562, -0.07794178277254105, 0.01217396929860115, -0.17246538400650024, -0.02759796753525734, -0.0677093118429184, -0.16648802161216736, 0.13612917065620422, -0.170937180519104], [-0.16648398339748383, -0.029143722727894783, -0.16430774331092834, 0.003041400806978345, 0.14994461834430695, -0.009109999053180218, 0.15309378504753113, -0.14429302513599396, 0.09519076347351074, 0.0010098805651068687, 0.10036418586969376, 0.1460508555173874, 0.0824759230017662, 0.012092984281480312, -0.1326000690460205, 0.033988840878009796, -0.12515754997730255, 0.14398202300071716, -0.1554275006055832, -0.14539647102355957, 0.032969918102025986, 0.10126260668039322, -0.004332400858402252, 0.04453882947564125, 0.11494326591491699, 0.02552400529384613, 0.16068576276302338, -0.02298158034682274, 0.04595755413174629, 0.01598602533340454, 0.07178164273500443, 0.14965000748634338], [0.0969972014427185, 0.11181309819221497, -0.002826704876497388, 0.0487729012966156, -0.01346210390329361, 0.14976975321769714, -0.014210821129381657, 0.02971555106341839, -0.08524499088525772, 0.07089304178953171, 0.09205424040555954, -0.06898674368858337, 0.11584898084402084, -0.028867999091744423, 0.1515781283378601, 0.10435198992490768, 0.05370389297604561, 0.16020320355892181, 0.10364443063735962, 0.0337398387491703, -0.16607451438903809, -0.1108686551451683, -0.09900031238794327, 0.035273391753435135, -0.05269927904009819, 0.1201585978269577, 0.11910684406757355, 0.0023985770530998707, 0.11323753744363785, 0.1434599608182907, 0.03513721749186516, -0.024189846590161324], [0.05296170711517334, -0.02286479063332081, 0.10140394419431686, 0.053349077701568604, 0.05957859382033348, -0.005490849260240793, 0.0061082374304533005, 0.022886602208018303, 0.04384376481175423, 0.07186781615018845, 0.07787679880857468, -0.1316780000925064, 0.15413348376750946, 0.10352660715579987, 0.017817853018641472, 0.12762096524238586, -0.04720676690340042, 0.11619816720485687, 0.14658960700035095, -0.10796448588371277, 0.00011259530583629385, -0.031224850565195084, 0.14215829968452454, 0.02350468561053276, -0.15410615503787994, -0.03249100595712662, 0.08862137794494629, 0.0058149793185293674, -0.0700259730219841, -0.060673125088214874, -0.13166184723377228, 0.035243552178144455], [-0.02440211921930313, 0.039813198149204254, -0.1352328211069107, 0.1252409815788269, 0.012750706635415554, 0.022338271141052246, -0.05750621110200882, 0.08448820561170578, 0.09762605279684067, -0.12142108380794525, -0.04600290581583977, -0.12688392400741577, 0.09928916394710541, -0.03298475593328476, 0.12029313296079636, 0.15587188303470612, 0.10885028541088104, 0.026735009625554085, -0.13536210358142853, 0.09568729251623154, 0.09461674094200134, 0.13198283314704895, 0.1362103372812271, -0.057065483182668686, -0.019211355596780777, 0.10070633143186569, 0.14968806505203247, 0.09260077774524689, 0.04667310416698456, 0.1376008838415146, 0.04297123849391937, 0.16214172542095184], [0.17649036645889282, 0.12879601120948792, -0.15387359261512756, -0.08128485083580017, -0.04319579899311066, 0.17527875304222107, 0.14392681419849396, 0.060541123151779175, 0.07089721411466599, 0.10610298067331314, 0.164406418800354, 0.13357320427894592, 0.027175508439540863, -0.09860657900571823, 0.15105697512626648, -0.01184948068112135, -0.13849197328090668, 0.04161607101559639, 0.14676634967327118, 0.16518914699554443, 0.01712963730096817, 0.12940718233585358, -0.16037647426128387, 0.08658237755298615, 0.17607754468917847, 0.08537907898426056, 0.1666702926158905, -0.06348166614770889, -0.17583806812763214, 0.06273414939641953, -0.00986392144113779, 0.13116179406642914], [0.028170151636004448, 0.041948527097702026, -0.05784014239907265, -0.03280548378825188, -0.10112107545137405, -0.02231873758137226, -0.11967140436172485, 0.026457156985998154, -0.1530928760766983, -0.11724979430437088, 0.13973237574100494, 0.06373968720436096, 0.11288364976644516, 0.12247446179389954, -0.02521064318716526, 0.029276801273226738, -0.15608705580234528, 0.018885791301727295, 0.04121335968375206, -0.15953506529331207, 0.09835993498563766, -0.10632507503032684, -0.1462191939353943, 0.13377030193805695, 0.034402891993522644, 0.07562006264925003, 0.045355360954999924, -0.12262111157178879, -0.12032225728034973, -0.07650028169155121, 0.03908197209239006, 0.03221789374947548], [-0.04134209454059601, -0.11089669913053513, 0.0814041718840599, -0.16209858655929565, 0.0018304797122254968, 0.03277115523815155, 0.13290034234523773, -0.1046181470155716, -0.04757019877433777, -0.11347667872905731, -0.047657378017902374, 0.13877789676189423, 0.0017847082344815135, -0.03684825077652931, -0.011568066664040089, -0.12248310446739197, 0.0916081964969635, -0.17436359822750092, 0.007436579558998346, 0.14063043892383575, 0.17301809787750244, 0.05011148378252983, 0.05174343287944794, -0.08518805354833603, -0.14172811806201935, -0.00034581488580442965, 0.10840647667646408, 0.10084221512079239, -0.015479146502912045, -0.16684606671333313, -0.004607641138136387, 0.15209712088108063], [-0.06619147211313248, -0.08164927363395691, 0.08758707344532013, -0.1682961881160736, 0.1571226269006729, -0.015768082812428474, -0.12926717102527618, -0.10146031528711319, 0.10763798654079437, 0.07862246036529541, -0.14763788878917694, -0.054203059524297714, 0.08939986675977707, 0.0891103520989418, -0.1453496366739273, -0.06348925083875656, -0.12610812485218048, 0.003494711359962821, -0.08285913616418839, -0.16268156468868256, 0.10188772529363632, -0.17628896236419678, -0.1738431751728058, 0.03244125097990036, -0.06269225478172302, 0.02790425904095173, -0.0588420145213604, 0.020126406103372574, 0.0082662682980299, -0.05251434072852135, 0.10453074425458908, -0.14891573786735535], [-0.018926674500107765, 0.1424463987350464, -0.05047460272908211, 0.16723494231700897, -0.042964350432157516, -0.16263790428638458, 0.14133170247077942, -0.12966224551200867, 0.10741539299488068, 0.01329229399561882, 0.11670558899641037, -0.14692163467407227, 0.06178717315196991, -0.13367018103599548, -0.07646803557872772, 0.16958235204219818, 0.17676526308059692, -0.03866992145776749, 0.019603973254561424, 0.0688549280166626, -0.17478801310062408, 0.09399086236953735, 0.04924473538994789, 0.0726090744137764, -0.06274506449699402, -0.000712260662112385, 0.07786568999290466, 0.0039126817137002945, 0.06211176887154579, 0.16433440148830414, 0.04959071800112724, 0.05459527671337128], [-0.14003977179527283, -0.034597862511873245, 0.036983877420425415, -0.13592009246349335, -0.07881637662649155, -0.0528118796646595, -0.016328131780028343, 0.16859957575798035, 0.12469254434108734, -0.06099647656083107, -0.0865594893693924, 0.09142323583364487, 0.0509113073348999, 0.017087899148464203, -0.1243276372551918, 0.08968491107225418, -0.08522764593362808, -0.04852857440710068, 0.17233484983444214, -0.07330434769392014, 0.017745720222592354, -0.11263344436883926, 0.1641339212656021, -0.14113527536392212, 0.15541604161262512, -0.12408856302499771, 0.05903315171599388, 0.07081431150436401, 0.13213081657886505, -0.002419861266389489, 0.09440415352582932, 0.05791284143924713], [-0.021188324317336082, -0.12856177985668182, -0.1696152538061142, 0.12776704132556915, 0.03021036460995674, -0.160903662443161, 0.026423731818795204, 0.002539073582738638, -0.011631849221885204, 0.0008969270857051015, -0.026359284296631813, -0.1618136763572693, 0.09200484305620193, 0.052916813641786575, -0.07021462172269821, -0.06621409207582474, 0.08786682039499283, 0.12076745182275772, -0.1361781358718872, 0.1246255561709404, 0.1194218099117279, -0.00028290008776821196, 0.05219084396958351, 0.11695973575115204, 0.03835767135024071, -0.013981292024254799, -0.12960535287857056, -0.10604136437177658, -0.07597249746322632, 0.08801024407148361, -0.03983987495303154, -0.03584948554635048], [-0.036425601691007614, -0.09076663106679916, 0.098699189722538, 0.11475720256567001, 0.07250330597162247, 0.08331519365310669, -0.05950089544057846, -0.09262795746326447, -0.07174312323331833, 0.03185298666357994, -0.12242963910102844, 0.1724952906370163, 0.06695439666509628, 0.06729595363140106, 0.06866560131311417, -0.1404561996459961, 0.046124983578920364, -0.08681059628725052, -0.11561556905508041, -0.07966523617506027, 0.10249843448400497, 0.018213486298918724, 0.08682475984096527, -0.11964101344347, 0.11387404054403305, 0.11627651751041412, 0.166413351893425, -0.09844139963388443, 0.02367468550801277, 0.09503518044948578, -0.147132009267807, -0.03082403354346752], [0.08844644576311111, -0.09248771518468857, -0.17185862362384796, -0.12412457168102264, 0.16601179540157318, -0.11852598935365677, -0.07077673822641373, 3.6014480429003015e-05, 0.15010376274585724, -0.020244669169187546, -0.164194256067276, 0.00555316312238574, -0.16629238426685333, -0.0034120159689337015, 0.0337592251598835, -0.12944439053535461, -0.14306414127349854, 0.1347944736480713, -0.13049128651618958, -0.07355131208896637, -0.05624663457274437, -0.07877475768327713, -0.009069137275218964, -0.16319815814495087, 0.017586179077625275, -0.04929174482822418, 0.09878778457641602, -0.14743848145008087, -0.157928928732872, 0.16077406704425812, 0.12028834968805313, 0.14859580993652344], [0.026192888617515564, -0.17292478680610657, 0.04740654677152634, 0.11424431949853897, -0.14682942628860474, -0.15026317536830902, 0.07767010480165482, -0.07553654909133911, -0.12290054559707642, -0.018613291904330254, -0.09099496901035309, 0.11040569096803665, -0.030224978923797607, 0.05174824967980385, -0.15619079768657684, 0.01379078533500433, -0.021674437448382378, -0.1332644820213318, 0.1512932926416397, -0.07155289500951767, 0.05673060566186905, -0.14610902965068817, 0.07864110916852951, 0.17101235687732697, -0.00546667817980051, 0.0011073079658672214, 0.15589947998523712, 0.05848383158445358, 0.11217819899320602, -0.14946776628494263, 0.028209790587425232, -0.08173173666000366], [-0.06802347302436829, 0.16833613812923431, -0.026733851060271263, 0.009739230386912823, -0.04760389402508736, 0.15771432220935822, 0.16557516157627106, -0.1626962125301361, 0.016949880868196487, 0.08520588278770447, 0.17384862899780273, -0.08444827049970627, -7.470529089914635e-05, -0.030139612033963203, 0.14714260399341583, -0.07286924123764038, 0.14428994059562683, -0.02766576036810875, -0.12946973741054535, 0.08650001883506775, 0.06676271557807922, -0.06357894092798233, -0.16888917982578278, 0.12286768853664398, 0.027165202423930168, 0.09460340440273285, 0.11768040806055069, 0.039563458412885666, 0.032407574355602264, 0.11701851338148117, -0.14949537813663483, -0.14043176174163818], [-0.10117963701486588, -0.0904371440410614, -0.1628023386001587, 0.06780144572257996, 0.005887324456125498, -0.17310255765914917, 0.03607730194926262, 0.10921074450016022, 0.17049460113048553, -0.06130526587367058, 0.10660204291343689, 0.07780729234218597, -0.16779066622257233, 0.05447223037481308, 0.05853132903575897, -0.04304676875472069, -0.15560129284858704, 0.10866546630859375, -0.08472890406847, 0.1310606449842453, 0.04908217489719391, -0.08491160720586777, -0.09938344359397888, 0.17576436698436737, -0.17480698227882385, -0.000434449699241668, 0.09136444330215454, -0.00948162842541933, 0.0185781829059124, -0.054869674146175385, 0.07907315343618393, 0.09200458973646164], [-0.0075937663204967976, 0.013618194498121738, -0.03412122279405594, -0.15917514264583588, -0.1620454490184784, 0.04424293711781502, 0.008491136133670807, 0.05820808559656143, -0.07600539177656174, -0.12359074503183365, -0.10942491143941879, -0.1428043246269226, -0.006281587295234203, -0.03223361447453499, 0.10365776717662811, 0.07830081135034561, 0.16345371305942535, 0.11961018294095993, -0.16479548811912537, 0.06482572853565216, 0.011187374591827393, 0.10455276072025299, -0.16851794719696045, -0.10354473441839218, 0.02791423723101616, -0.16539792716503143, 0.09366469085216522, 0.12265484780073166, -0.05997026339173317, -0.11154993623495102, 0.01681254617869854, -0.11689377576112747], [-0.09225419908761978, 0.11621584743261337, 0.06348748505115509, -0.010253063403069973, -0.10097379237413406, -0.07977793365716934, 0.14222553372383118, 0.13326871395111084, 0.16967368125915527, -0.01476475689560175, 0.11369144171476364, 0.006213583517819643, -0.024396302178502083, -0.056847330182790756, 0.047399334609508514, -0.09940566122531891, -0.0250864140689373, 0.04671453312039375, 0.10321038216352463, 0.0389922633767128, -0.1522231251001358, -0.054968636482954025, 0.06409570574760437, -0.1410384178161621, 0.015621223486959934, 0.08253541588783264, -0.043578363955020905, -0.09848237037658691, 0.01467117015272379, 0.03620123490691185, 0.10728722810745239, 0.10518940538167953], [-0.08375751227140427, 0.11214852333068848, -0.04110139608383179, 0.1630641520023346, 0.07246959954500198, -0.03197577968239784, -0.09772541373968124, 0.08050033450126648, -0.05214504525065422, 0.0347343347966671, -0.12530477344989777, 0.011579888872802258, 0.08404829353094101, -0.04125002771615982, -0.051079344004392624, 0.12828832864761353, -0.12104052305221558, 0.02009391039609909, -0.13361558318138123, 0.07564010471105576, -0.08235242962837219, 0.1613372415304184, 0.13355475664138794, -0.011238333769142628, -0.050451841205358505, 0.1546180546283722, -0.04370693489909172, 0.17139138281345367, 0.05272512510418892, 0.10143058001995087, -0.1263541579246521, -0.09361905604600906], [0.09823699295520782, -0.17025519907474518, 0.07744074612855911, 0.08168463408946991, 0.16396568715572357, 0.039610978215932846, 0.0754074975848198, 0.040998175740242004, -0.175088033080101, 0.1666432023048401, -0.12264121323823929, 0.045790065079927444, -0.14583289623260498, 0.13987232744693756, 0.17323605716228485, -0.12262535095214844, -0.04444452375173569, 0.026552893221378326, -0.08065996319055557, -0.004451465792953968, 0.1339084804058075, -0.12407928705215454, -0.05979560688138008, -0.14295494556427002, -0.054240357130765915, -0.10366111993789673, -0.012674231082201004, -0.09018424153327942, -0.09710069000720978, 0.1607399433851242, 0.03481818363070488, 0.16433167457580566], [-0.1097351536154747, -0.021897710859775543, -0.16811108589172363, -0.14814245700836182, -0.12598168849945068, -0.12480238080024719, 0.10685894638299942, 0.04819643869996071, 0.026177765801548958, 0.017788857221603394, 0.06360382586717606, 0.023038605228066444, 0.012916302308440208, 0.17300210893154144, -0.1719217300415039, -0.11883251368999481, 0.00616041524335742, 0.14262324571609497, -0.11566207557916641, 0.13674721121788025, 0.07936336100101471, -0.08706638962030411, 0.061151787638664246, 0.13006140291690826, 0.10592035949230194, 0.03469892963767052, 0.13888338208198547, -0.09127799421548843, 0.05702213570475578, 0.10818862169981003, 0.006411399692296982, -0.032765842974185944], [-0.034305404871702194, 0.06833310425281525, 0.09245296567678452, 0.11264201998710632, -0.08376641571521759, -0.11185143142938614, 0.04302765429019928, -0.04571181908249855, 0.11080564558506012, -0.1624298244714737, 0.11816378682851791, -0.051624324172735214, 0.12085416913032532, 0.05485308915376663, 0.026470981538295746, -0.06303200125694275, -0.07709097117185593, -0.1559412032365799, 0.036637939512729645, -0.1429307460784912, -0.07047168165445328, -0.13180918991565704, -0.07511120289564133, -0.12922029197216034, -0.15028446912765503, 0.11773806065320969, -0.1312556117773056, 0.07938794791698456, -0.1314191222190857, 0.10577935725450516, -0.05725472420454025, -0.14463528990745544], [0.12046469748020172, 0.0736447274684906, 0.16030125319957733, -0.12997542321681976, 0.04684992507100105, -0.032046183943748474, -0.1424494832754135, -0.09452597796916962, 0.13883662223815918, -0.11032278835773468, 0.1363065242767334, 0.06607966125011444, 0.07741910219192505, -0.01871453784406185, 0.03650342673063278, 0.04921044781804085, 0.03515932336449623, -0.15484125912189484, 0.09367099404335022, -0.12907537817955017, -0.11784553527832031, 0.07801380008459091, 0.04477248713374138, 0.060977451503276825, -0.1429530382156372, 0.02794565260410309, 0.09031279385089874, -0.13491837680339813, 0.1019475907087326, 0.16788138449192047, 0.030618777498602867, 0.11778765171766281], [-0.16917355358600616, -0.058245111256837845, -0.04274986311793327, -0.1429523527622223, 0.16351284086704254, -0.08747497946023941, -0.09228107333183289, 0.07104190438985825, 0.10905728489160538, 0.03861123323440552, -0.06260054558515549, 0.01127305906265974, -0.03436654061079025, -0.10251786559820175, -0.036461807787418365, 0.15387025475502014, -0.10445107519626617, 0.14641527831554413, 0.11055109649896622, 0.16780129075050354, -0.11310584843158722, 0.10628707706928253, -0.009042163379490376, 0.05753215402364731, 0.07331225275993347, -0.03942129388451576, 0.004405146464705467, -0.10032054036855698, 0.15852849185466766, 0.05253823846578598, 0.14611287415027618, -0.06894399970769882], [0.06856914609670639, 0.09830823540687561, 0.0405752956867218, -0.035259272903203964, 0.11336863785982132, 0.08822121471166611, 0.16819553077220917, 0.155392587184906, 0.0913846492767334, -0.0042875986546278, -0.03185852989554405, 0.1761084794998169, -0.07871808856725693, 0.09101388603448868, 0.09865595400333405, -0.07049985229969025, -0.04140184074640274, -0.1486523598432541, -0.03971465677022934, 0.16362017393112183, 0.06917720288038254, -0.123787522315979, 0.003584441961720586, 0.11428699642419815, 0.16568736732006073, -0.09759391099214554, -0.09469475597143173, 0.06161148473620415, 0.08054591715335846, -0.17661644518375397, 0.11878953874111176, 0.17575491964817047], [0.09334767609834671, -0.14271801710128784, 0.04944460839033127, -0.03960365056991577, 0.053670767694711685, 0.11026640236377716, 0.07912766933441162, -0.12111147493124008, 0.08424504101276398, 0.01327695231884718, -0.09052654355764389, 0.08177293837070465, -0.13532185554504395, -0.03312630206346512, -0.04795999452471733, 0.014901523478329182, -0.15657658874988556, -0.12564000487327576, -0.009446658194065094, 0.01664913073182106, -0.11204607039690018, 0.08414825052022934, 0.021735146641731262, 0.04030966758728027, 0.011598980985581875, 0.06691495329141617, 0.08971332013607025, -0.003308401210233569, -0.10871168971061707, 0.04345002770423889, -0.016823358833789825, -0.05858074873685837], [-0.034193336963653564, -0.00788061786442995, -0.11432252079248428, -0.10586961358785629, -0.11397040635347366, 0.09165883809328079, -0.11108846962451935, -0.16797477006912231, -0.17323090136051178, -0.0628761425614357, -0.043667230755090714, -0.01405540481209755, -0.16569171845912933, -0.0023511408362537622, 0.048699017614126205, 0.00027983399922959507, -0.09951161593198776, -0.09386491030454636, -0.026452036574482918, -0.10609651356935501, -0.10900091379880905, -0.07823464274406433, 0.00044226794852875173, -0.034720003604888916, 0.09276685863733292, 0.03804052248597145, 0.052753251045942307, -0.11483346670866013, 0.046441275626420975, -0.06223177909851074, -0.12758685648441315, -0.023591065779328346], [-0.06238586828112602, -0.07009218633174896, -0.10452791303396225, 0.017313461750745773, 0.12273591756820679, -0.16088733077049255, -0.14436066150665283, -0.11797360330820084, 0.17498795688152313, -0.17511878907680511, -0.12258252501487732, 0.034317586570978165, 0.07455258816480637, 0.17488150298595428, -0.007810106035321951, 0.15213914215564728, -0.09218280762434006, 0.07242720574140549, 0.12576158344745636, 0.1426047831773758, -0.04970112070441246, 0.09790533781051636, -0.03901464119553566, -0.1317884474992752, -0.05253315716981888, 0.024371478706598282, 0.1282176375389099, 0.017423950135707855, 0.04414422810077667, 0.0072034019976854324, 0.10611718893051147, 0.09105344116687775], [0.030585136264562607, 0.12802241742610931, 0.1368608921766281, 0.0909048393368721, 0.08898745477199554, -0.09833608567714691, -0.13881687819957733, -0.13553747534751892, -0.046428658068180084, -0.039260104298591614, 0.04590313136577606, -0.11405708640813828, -0.14714951813220978, 0.14638429880142212, 0.030987057834863663, -0.0801490768790245, -0.0022863189224153757, -0.11475183069705963, 0.17520222067832947, -0.0152780432254076, 0.04175858944654465, -0.0022561633959412575, -0.0539802685379982, 0.15226514637470245, 0.1594950556755066, 0.09227706491947174, -0.1459626704454422, 0.10783249884843826, -0.12454071640968323, -0.15763317048549652, -0.11855288594961166, -0.08854670822620392], [-0.00642381189391017, -0.009554795920848846, 0.014625925570726395, -0.14794205129146576, 0.04323973506689072, 0.010140952654182911, 0.09710913896560669, -0.15884152054786682, 0.1470765471458435, -0.15589569509029388, 0.11487726122140884, -0.02597632445394993, -0.14632591605186462, 0.046913087368011475, 0.09839807450771332, -0.14227551221847534, 0.14238320291042328, -0.15556469559669495, 0.08564388751983643, -0.08882559835910797, -0.10468202084302902, 0.07580412179231644, -0.1372767984867096, 0.14523255825042725, -0.14295387268066406, -0.000591530988458544, 0.0700107216835022, -0.13251839578151703, -0.05477486550807953, -0.12416191399097443, -0.025373835116624832, -0.014165850356221199], [0.1556999832391739, -0.05741220340132713, -0.12328392267227173, 0.011332736350595951, 0.14610444009304047, 0.1035810261964798, 0.12409581243991852, -0.0030143004842102528, -0.13587787747383118, 0.07273835688829422, -0.09791305661201477, 0.11357947438955307, 0.10642296075820923, 0.01627030223608017, 0.1722271740436554, -0.14897173643112183, 0.054444264620542526, -0.03624904900789261, 0.06829941272735596, 0.15349864959716797, -0.14069435000419617, -0.06782709062099457, 0.06759960949420929, -0.08693107962608337, -0.09597370028495789, -0.11506222188472748, 0.15834589302539825, 0.10932989418506622, 0.003995857667177916, 0.08805437386035919, -0.0724596157670021, 0.12625080347061157], [0.043543003499507904, -0.006881631910800934, 0.047674573957920074, 0.04506678134202957, -0.15890225768089294, -0.04856307432055473, 0.15094459056854248, 0.005299839656800032, 0.1514127403497696, 0.06985757499933243, -0.08396714180707932, 0.10302204638719559, -0.09914510697126389, 0.08854401856660843, -0.0582454688847065, 0.11294476687908173, 0.07500866055488586, 0.1740351915359497, -0.05343649163842201, -0.007306556683033705, -0.020933812484145164, 0.17351804673671722, 0.0039500026032328606, 0.11640685051679611, 0.12000579386949539, 0.1751215010881424, -0.03482417017221451, 0.10185787081718445, 0.07575908303260803, -0.16106021404266357, 0.10829122364521027, -0.09975556284189224], [0.09163910895586014, 0.07093038409948349, -0.12222672253847122, 0.12054481357336044, 0.09632411599159241, -0.05858852341771126, -0.0720880925655365, 0.16876548528671265, -0.1149095892906189, -0.1467166393995285, 0.09784591197967529, -0.16165943443775177, -0.04319046810269356, -0.09678473323583603, 0.1367594599723816, 0.0981665849685669, -0.037970200181007385, 0.04751810431480408, 0.0423797108232975, 0.1246211901307106, 0.0952669009566307, 0.04542726278305054, 0.015234546735882759, -0.08993720263242722, 0.06122780218720436, 0.008236252702772617, 0.056196603924036026, 0.08170469850301743, 0.10285904258489609, 0.007964616641402245, 0.1472640186548233, -0.09146302193403244], [0.02673834003508091, 0.1653342843055725, 0.13502638041973114, 0.10946503281593323, 0.10408720374107361, 0.12051393836736679, 0.15906637907028198, -0.023043662309646606, -0.150146022439003, 0.02212977223098278, -0.16987963020801544, 0.1543111801147461, 0.011301339603960514, 0.11143531650304794, 0.009934033267199993, 0.15914922952651978, 0.11733707785606384, 0.012455552816390991, -0.009747912175953388, -0.11990034580230713, 0.05994090810418129, 0.07089830935001373, 0.07953023910522461, 0.028289111331105232, 0.06942582875490189, 0.16752757132053375, 0.08849790692329407, 0.10301026701927185, -0.08051080256700516, -0.014646387659013271, -0.09363912791013718, -0.07188773155212402], [-0.1327143907546997, -0.002766013378277421, 0.15912742912769318, -0.13122397661209106, 0.12681478261947632, 0.1659746617078781, -0.10557882487773895, -0.06900209933519363, 0.1415882259607315, 0.15623162686824799, 0.12137706577777863, -0.12090514600276947, -0.12331923097372055, -0.09338489919900894, -0.04588925465941429, -0.10923773795366287, 0.1394639015197754, -0.032620903104543686, -0.057278070598840714, 0.10773575305938721, 0.008880003355443478, -0.05276226997375488, -0.05413176864385605, -0.09932642430067062, -0.08314180374145508, -0.07309751212596893, -0.12491948157548904, -0.14892715215682983, -0.09496329724788666, 0.02062571980059147, 0.045836616307497025, -0.09512364119291306], [0.04780217632651329, 0.0978483110666275, -0.1618366241455078, 0.02712029591202736, -0.17221902310848236, 0.049686286598443985, -0.13945633172988892, 0.17327040433883667, 0.11315223574638367, 0.11628414690494537, 0.0031435436103492975, -0.07073985785245895, -0.0638943463563919, 0.05807264521718025, -0.12385573983192444, -0.03091679885983467, -0.12026383727788925, -0.1630382090806961, 0.01145112980157137, -0.15478503704071045, 0.026862651109695435, -0.0447038970887661, -0.06638488918542862, 0.06941971182823181, -0.0562865249812603, -0.023922571912407875, 0.15206114947795868, 0.16124770045280457, -0.0278521329164505, 0.11482816189527512, -0.1306113302707672, 0.004763984587043524], [0.02090289816260338, -0.13841688632965088, 0.026380619034171104, 0.16884256899356842, -0.03573879972100258, 0.1619756817817688, -0.049394987523555756, -0.1381227672100067, 0.019679458811879158, 0.14943508803844452, 0.07583732903003693, -0.14884831011295319, 0.07988298684358597, -0.04580003023147583, 0.07385282218456268, -0.0061699403449893, -0.10489608347415924, -0.08565990626811981, -0.04250006005167961, 0.10008599609136581, -0.08186662942171097, 0.07469908893108368, 0.06589849293231964, -0.1371840238571167, -0.019297966733574867, -0.14633706212043762, -0.07795723527669907, 0.03270677477121353, -0.0029740501195192337, -0.09739284962415695, -0.16674084961414337, 0.16438701748847961], [-0.14643672108650208, 0.09571165591478348, 0.15392008423805237, -0.04021405801177025, 0.14587026834487915, 0.16939502954483032, 0.15555429458618164, 0.1564989984035492, -0.04047437757253647, 0.0178410355001688, -0.06864830106496811, 0.01797967590391636, 0.12994708120822906, 0.13219483196735382, 0.03977048024535179, -0.005666559562087059, -0.1289263218641281, -0.1290498822927475, -0.02706063725054264, -0.13493183255195618, -0.16951505839824677, -0.09441673755645752, 0.1326994150876999, -0.0019491863204166293, 0.15974994003772736, 0.038668192923069, 0.024195367470383644, 0.10006032884120941, 0.10787690430879593, -0.103206567466259, 0.07985445111989975, -0.0733494684100151], [-0.07160894572734833, 0.11021120101213455, -0.10670970380306244, -0.08644720911979675, 0.14538277685642242, -0.026235612109303474, 0.011351157911121845, 0.03387405350804329, 0.02268543466925621, 0.08953836560249329, -0.0038333821576088667, -0.01838017627596855, -0.04259944334626198, 0.05086207762360573, -0.043869853019714355, 0.12254271656274796, 0.17101538181304932, -0.14294962584972382, -0.040307287126779556, -0.1343972384929657, 0.15828774869441986, -0.014816239476203918, -0.036102864891290665, -0.05702158808708191, -0.12755490839481354, 0.15650121867656708, 0.1179385557770729, 0.1083536446094513, 0.07098264992237091, 0.04860195517539978, 0.0050900960341095924, 0.14035312831401825], [-0.08903329819440842, -0.017922189086675644, 0.17366650700569153, -0.14462338387966156, -0.17007505893707275, -0.041241955012083054, 0.03676791489124298, 0.0661548301577568, 0.06991511583328247, -0.058471355587244034, 0.11949712038040161, -0.04113132134079933, -0.17668867111206055, 0.15136274695396423, 0.16244545578956604, -0.14029461145401, -0.15253308415412903, -0.12980243563652039, 0.09679704159498215, 0.054511696100234985, 0.04299831762909889, -0.15699751675128937, 0.068860724568367, -0.11152054369449615, -0.11502271145582199, 0.01796036958694458, -0.09799447655677795, 0.15447698533535004, 0.002970020053908229, 0.11006172746419907, -0.06949828565120697, -0.030946047976613045], [-0.07149495929479599, -0.12246769666671753, -0.051344238221645355, 0.025842614471912384, -0.14895299077033997, 0.13160522282123566, 0.1521763801574707, 0.1549975872039795, -0.04942506179213524, 0.01447622012346983, -0.08843034505844116, 0.15352825820446014, 0.009389516897499561, 0.09592162817716599, -0.028350267559289932, -0.156190425157547, -0.12393251061439514, 0.015485194511711597, 0.012808911502361298, -0.005090327467769384, 0.061937786638736725, 0.14757826924324036, -0.13281969726085663, 0.07441163063049316, 0.08966482430696487, -0.13769575953483582, -0.04381963610649109, 0.17121531069278717, 0.14951524138450623, 0.09849119931459427, -0.13198551535606384, 0.08023868501186371], [-0.11317551881074905, -0.13024111092090607, -0.1533355563879013, 0.01662893407046795, 0.16034437716007233, 0.1326330602169037, -0.1088520735502243, -0.1422736644744873, 0.05233658477663994, 0.1673804372549057, -0.15388621389865875, -0.09633900970220566, -0.17003437876701355, -0.08719063550233841, -0.009328234940767288, 0.042022705078125, -0.08616258949041367, 0.055826302617788315, -0.026413723826408386, -0.1231541857123375, -0.027791019529104233, 0.09391984343528748, 0.10212919116020203, -0.02093261107802391, 0.06410316377878189, 0.1412346065044403, 0.1562809944152832, -0.1477353423833847, -0.17338848114013672, 0.13027223944664001, -0.13994337618350983, 0.029853539541363716], [0.10420974344015121, 0.11425704509019852, -0.007069733459502459, 0.1617172807455063, 0.08417566120624542, 0.09559585899114609, 0.11458279937505722, 0.08560556173324585, 0.13195160031318665, 0.12754589319229126, 0.05196162685751915, -0.07612643390893936, 0.03629305213689804, 0.003615588415414095, 0.05526069179177284, 0.09580964595079422, -0.03392732888460159, 0.08358678966760635, 0.15748317539691925, -0.060160957276821136, -0.00426500802859664, -0.11686374992132187, 0.12294256687164307, -0.06479237228631973, 0.17472679913043976, 0.15242858231067657, 0.11730194836854935, -0.07904750853776932, -0.16066862642765045, -0.02431904710829258, -0.1453166902065277, 0.1462082862854004], [0.1570650339126587, 0.17292599380016327, -0.09848927706480026, 0.10619711875915527, -0.009936393238604069, -0.08117406815290451, -0.01786615327000618, 0.08627769351005554, 0.10360150039196014, 0.12780950963497162, 0.03854107856750488, -0.15251922607421875, 0.07269235700368881, -0.016010597348213196, -0.1049589067697525, 0.16662155091762543, 0.1340702772140503, -0.14842621982097626, 0.10817652195692062, 0.11295291781425476, -0.07508952170610428, 0.14397558569908142, 0.03427661955356598, -0.11631208658218384, 0.1443054974079132, 0.15374250710010529, 0.14858125150203705, -0.053823504596948624, -0.09411804378032684, 0.1397947371006012, -0.0326295830309391, -0.03520176559686661], [-0.0919436663389206, 0.1546706110239029, 0.15883885324001312, -0.16790872812271118, 0.05418072268366814, 0.054164472967386246, -0.1660144031047821, 0.02649133838713169, 0.14426210522651672, -0.12252487242221832, -0.12263710796833038, -0.047545142471790314, 0.06364338099956512, -0.10995223373174667, -0.04926648363471031, -0.04522965848445892, -0.08537229895591736, 0.12784560024738312, -0.14324378967285156, -0.12786580622196198, 0.13569895923137665, -0.04148969426751137, 0.16364678740501404, 0.17658917605876923, 0.06437330693006516, 0.14876770973205566, -0.12256001681089401, 0.14874741435050964, -0.04130574315786362, 0.11153998970985413, 0.1517319232225418, 0.16298474371433258], [-0.09271343797445297, 0.017380937933921814, 0.07224928587675095, -0.024712277576327324, -0.09577441215515137, 0.10846254974603653, -0.07863004505634308, -0.031873639672994614, 0.04952629655599594, 0.021581314504146576, -0.09682734310626984, 0.04442547634243965, -0.018813783302903175, -0.07830511033535004, -0.11506253480911255, 0.02883145771920681, 0.15101361274719238, 0.160455584526062, 0.01951032318174839, 0.09872400015592575, -0.12584267556667328, -0.13415135443210602, -0.028813334181904793, 0.07173197716474533, -0.17233321070671082, -0.06544829905033112, 0.0841921865940094, 0.09903109818696976, -0.05505602806806564, -0.13929633796215057, -0.06468968093395233, 0.10308220982551575], [-0.06608095020055771, 0.1490039825439453, 0.12701715528964996, 0.05899205803871155, -0.03149905800819397, -0.058468930423259735, 0.1720505952835083, -0.11946353316307068, -0.12510442733764648, 0.039043132215738297, 0.1347978413105011, -0.044563401490449905, -0.12162138521671295, -0.009963872842490673, -0.042896997183561325, -0.0822349265217781, 0.1103866845369339, -0.11810362339019775, -0.04971001669764519, 0.005344093777239323, 0.10461199283599854, -0.11724454164505005, -0.08858407288789749, -0.04170626401901245, 0.007586769759654999, -0.04346458986401558, 0.03471408411860466, 0.059935133904218674, 0.09400304406881332, -0.11995698511600494, 0.01968405395746231, 0.1103520393371582], [-0.020480185747146606, -0.06107501685619354, -0.12294353544712067, -0.03316250815987587, 0.02455165609717369, 0.10398080199956894, -0.13940967619419098, -0.05802927538752556, -0.04975216090679169, 0.16466990113258362, 0.09213720262050629, 0.025263579562306404, -0.07833202183246613, 0.06614994257688522, 0.17445087432861328, -0.029736962169408798, 0.15760721266269684, 0.006629615090787411, -0.059497714042663574, -0.052920255810022354, 0.08994023501873016, -0.058362025767564774, -0.027840711176395416, 0.1761249154806137, 0.12330766022205353, 0.047998812049627304, -0.16200770437717438, -0.09621270000934601, 0.0066986302845180035, -0.13542774319648743, 0.05445846915245056, -0.01902732066810131], [0.15304377675056458, 0.027349911630153656, -0.161795973777771, -0.121612049639225, 0.019469378516077995, -0.11497171223163605, -0.022415632382035255, -0.17364469170570374, 0.031426332890987396, 0.1025489941239357, 0.11714345216751099, 0.17178109288215637, 0.08198868483304977, -0.01661858707666397, -0.06264578551054001, 0.07112976163625717, 0.11519899219274521, 0.07593930512666702, 0.1746825873851776, -0.0028535944875329733, -0.04293893277645111, 0.07637613266706467, 0.16696755588054657, 0.010148096829652786, -0.10381679236888885, 0.1072409451007843, 0.1613302081823349, 0.010442071594297886, 0.06015164405107498, -0.10039886832237244, -0.07585486769676208, -0.016844134777784348], [-0.11379498988389969, -0.06973008066415787, -0.14754848182201385, -0.13142336905002594, -0.03278879448771477, 0.09345623105764389, -0.037249255925416946, 0.011933669447898865, 0.1384190171957016, -0.09605709463357925, 0.17622391879558563, 0.012200647965073586, -0.0874166488647461, 0.09619453549385071, 0.02558107115328312, -0.1600470244884491, -0.007535645738244057, -0.15992364287376404, 0.10837101191282272, -0.08283115923404694, 0.15916478633880615, 0.023848604410886765, -0.052097171545028687, -0.14862734079360962, -0.15305344760417938, 0.1752442717552185, 0.13806791603565216, -0.15624777972698212, -0.019615648314356804, -0.15318000316619873, 0.12107790261507034, 0.08761478215456009], [0.08845074474811554, 0.14370286464691162, -0.09432084858417511, 0.05134154111146927, 0.05509718507528305, 0.142974853515625, 0.1616453230381012, 0.1616082787513733, 0.04719861224293709, 0.07103263586759567, -0.053611189126968384, -0.09145941585302353, 0.10464735329151154, -0.06643392890691757, 0.09695165604352951, -0.16377484798431396, -0.13598832488059998, 0.12383618205785751, -0.1755780130624771, -0.02829136699438095, 0.06308791041374207, -0.15638649463653564, -0.004249687772244215, -0.047954365611076355, 0.08315518498420715, -0.1290358155965805, 0.10192028433084488, -0.08528629690408707, 0.15552842617034912, 0.06742990016937256, -0.02774183452129364, 0.16473588347434998], [-0.12843313813209534, 0.1176922470331192, -0.13677430152893066, 0.05567501485347748, -0.11211854219436646, 0.019762784242630005, -0.1268003135919571, 0.08749289065599442, -0.11490684747695923, 0.01121628750115633, 0.14576974511146545, -0.023102182894945145, -0.08582832664251328, -0.05424381420016289, -0.0966937392950058, -0.15566366910934448, -0.00265600997954607, 0.04553728923201561, -0.1585821956396103, 0.04560204595327377, 0.07706829160451889, -0.09158433973789215, 0.16713431477546692, -0.17326368391513824, 0.10099796950817108, 0.17078392207622528, -0.1747526079416275, -0.15956561267375946, -0.16988827288150787, -0.04491496831178665, 0.06379646062850952, -0.09618159383535385], [-0.03851625695824623, 0.06024731695652008, 0.013625001534819603, 0.1334349364042282, -0.13130205869674683, 0.14723187685012817, 0.13458487391471863, -0.004304605070501566, -0.1280072033405304, -0.07344204187393188, -0.05529352277517319, 0.07101765275001526, 0.07567818462848663, 0.15063761174678802, -0.08327696472406387, 0.10095229744911194, 0.14827433228492737, 0.15167047083377838, -0.07921099662780762, -0.00955216120928526, 0.019397391006350517, -0.14629743993282318, -0.03151334449648857, -0.14211073517799377, 0.08653352409601212, -0.09446265548467636, -0.11163648217916489, 0.04396607354283333, -0.006172490306198597, -0.05453138425946236, -0.04584582522511482, 0.016424331814050674], [0.10587362200021744, 0.17572839558124542, 0.030254798009991646, 0.16890892386436462, 0.17303666472434998, 0.07333511114120483, 0.06765498220920563, 0.01296295877546072, -0.07013966888189316, -0.07508330047130585, 0.0223738644272089, -0.02892955392599106, -0.04226359352469444, -0.03220170736312866, -0.02352915145456791, 0.013959773816168308, -0.10085508972406387, -0.07529256492853165, -0.10740401595830917, -0.13281257450580597, -0.08767808973789215, 0.004757051356136799, -0.14459609985351562, 0.07228974997997284, 0.16456091403961182, 0.04247234761714935, -0.11929673701524734, 0.037964385002851486, 0.10492662340402603, -0.1062803566455841, 0.11225604265928268, -0.06001599505543709], [-0.007901258766651154, -0.12397356331348419, 0.03161226958036423, -0.11344855278730392, 0.037286724895238876, 0.04523489996790886, -0.081880122423172, 0.06492148339748383, 0.14042527973651886, -0.010878901928663254, -0.08116280287504196, 0.1322982758283615, -0.14646218717098236, -0.07019159942865372, -0.058524101972579956, -0.07237020134925842, -0.0872950330376625, 0.0649801567196846, 0.17042869329452515, 0.09853716194629669, 0.07819999754428864, 0.08257444947957993, -0.008711330592632294, 0.04725838080048561, 0.113803431391716, -0.057727497071027756, -0.13907574117183685, 0.17609766125679016, -0.12967532873153687, 0.06353297829627991, -0.07481033354997635, -0.05796150490641594], [0.016323208808898926, 0.040021445602178574, -0.14738160371780396, -0.13074910640716553, 0.1687740534543991, -0.06665829569101334, -0.13082562386989594, -0.11597391963005066, 0.0623248890042305, 0.03453706577420235, -0.07397639006376266, -0.02626035176217556, 0.008817141875624657, 0.08323687314987183, 0.14592257142066956, -0.16571208834648132, 0.013510298915207386, 0.16889363527297974, -0.11422242224216461, -0.11017776280641556, 0.00019830091332551092, 0.010544508695602417, -0.03520634025335312, 0.09209758043289185, -0.009168541058897972, -0.025333605706691742, 0.06048382446169853, -0.0710645392537117, 0.03458491712808609, 0.04989967495203018, -0.045682184398174286, 0.053655073046684265], [0.07154592126607895, -0.1610497087240219, 0.02249065414071083, 0.06520597636699677, 0.10761215537786484, -0.03138827532529831, 0.08985794335603714, 0.03002777509391308, -0.049823831766843796, 0.12674111127853394, 0.017718428745865822, 0.013389378786087036, 0.10619163513183594, 0.10528352111577988, -0.13156625628471375, 0.041122280061244965, 0.11741970479488373, 0.1188364326953888, 0.07694720476865768, 0.14886978268623352, -0.16380713880062103, 0.13905619084835052, 0.035246629267930984, -0.05656572803854942, 0.08774270117282867, 0.15222355723381042, 0.0010907393880188465, 0.0026692019309848547, -0.1521647423505783, 0.03777803108096123, 0.13784708082675934, -0.09036920219659805], [0.11318040639162064, -0.15722738206386566, -0.10737130790948868, -0.16686822474002838, -0.058570630848407745, -0.14425504207611084, 0.16737888753414154, -0.17586520314216614, -0.09649036079645157, -0.07000294327735901, 0.11989334970712662, 0.04515322297811508, 0.08509334921836853, -0.06771854311227798, -0.1371760219335556, 0.14900530874729156, -0.10823807865381241, -0.11661423742771149, 0.019622771069407463, 0.0003840420686174184, 0.14854015409946442, 0.06491318345069885, -0.13246574997901917, 0.06926269829273224, 0.1128106340765953, -0.0829915925860405, 0.06493818014860153, 0.17016299068927765, 0.0964663177728653, 0.06528053432703018, 0.1377643495798111, 0.1743079572916031], [-0.06887374818325043, -0.049386054277420044, -0.049783941358327866, -0.11486685276031494, -0.12012005597352982, -0.04312773048877716, -0.038307227194309235, -0.09268949180841446, 0.12770412862300873, 0.01607522927224636, 0.08772731572389603, 0.14211876690387726, -0.09713657945394516, -0.13886743783950806, -0.1505768597126007, -0.04661154747009277, 0.09114019572734833, 0.04393908008933067, 0.11046290397644043, -0.009679129347205162, -0.06559105217456818, 0.1684364676475525, 0.10512646287679672, 0.14188838005065918, 0.09304139763116837, -0.05057501792907715, -0.0564814954996109, -0.026009684428572655, -0.15952110290527344, 0.03746958076953888, -0.015164288692176342, -0.07041027396917343], [0.13936540484428406, 0.033491864800453186, -0.049946583807468414, 0.15400323271751404, -0.17284291982650757, -0.07141707837581635, -0.1554928869009018, -0.024614455178380013, 0.0789736658334732, -0.08230634778738022, 0.1394284963607788, 0.09074892848730087, 0.0025448265951126814, -0.11752037703990936, -0.0626269280910492, -0.01116284541785717, 0.09901396930217743, 0.15707221627235413, 0.0020521089900285006, 0.05466300621628761, 0.1311880648136139, 0.02073555439710617, 0.03338633105158806, -0.15114451944828033, -0.031061045825481415, -0.045402418822050095, 0.014021286740899086, 0.008326973766088486, -0.1055557057261467, -0.14547640085220337, 0.031124645844101906, -0.09062197804450989], [-0.03099721483886242, 0.023827403783798218, -0.042728178203105927, 0.031072890385985374, 0.0025082642678171396, 0.09526938945055008, 0.08032938092947006, -0.1304875612258911, -0.08603887259960175, 0.03345886617898941, 0.10122838616371155, -0.12133044749498367, 0.023858193308115005, 0.11054239422082901, -0.031437650322914124, 0.0890025943517685, 0.06289669126272202, 0.07691245526075363, -0.011992000043392181, 0.07990110665559769, -0.008057065308094025, 0.04781170189380646, 0.1327248066663742, 0.094782255589962, 0.15710677206516266, 0.010864973068237305, -0.03696088865399361, 0.12050793319940567, 0.09819406270980835, 0.044652897864580154, -0.09600048512220383, -0.13947682082653046], [0.04985866695642471, -0.0036597372964024544, 0.13939368724822998, -0.15590715408325195, -0.13123616576194763, 0.1459219604730606, -0.006254550069570541, 0.009782704524695873, -0.038835518062114716, 0.09336066246032715, -0.0612357035279274, 0.12954461574554443, -0.14054961502552032, -0.11011036485433578, 0.012273752130568027, -0.020227516070008278, 0.14292143285274506, -0.07111062854528427, 0.05036544054746628, 0.034090541303157806, -0.12680988013744354, -0.09048483520746231, -0.01387375220656395, -0.1340206116437912, -0.10156798362731934, -0.043910883367061615, -0.11310553550720215, -0.1742658168077469, 0.16052472591400146, -0.1545388102531433, -0.08870088309049606, 0.09925384819507599], [-0.07576700299978256, 0.17490877211093903, 0.04554200544953346, -0.0142767783254385, 0.12535670399665833, -0.08698489516973495, -0.07160681486129761, -0.10878097265958786, 0.0691041499376297, 0.10834873467683792, 0.038777705281972885, 0.048500675708055496, 0.1324121057987213, 0.09460791945457458, 0.09174125641584396, -0.012125563807785511, -0.15739788115024567, -0.01418258249759674, 0.11486415565013885, -0.09005837142467499, 0.1764432042837143, 0.15979865193367004, 0.16388660669326782, -0.10726171731948853, 0.15923205018043518, -0.15354560315608978, 0.1346980184316635, 0.00779463816434145, 0.01859033852815628, -0.08476485311985016, -0.11330688744783401, 0.07390351593494415], [-0.07945285737514496, 0.08057746291160583, 0.050709716975688934, -0.10503582656383514, 0.08247634768486023, -0.10217618197202682, 0.07069960981607437, 0.0900692269206047, 0.10795516520738602, 0.0033212979324162006, 0.00033496206742711365, 0.03583424165844917, 0.16224616765975952, -0.07582803815603256, 0.09337703883647919, 0.0846710130572319, -0.08720105141401291, 0.143480584025383, -0.09169478714466095, -0.13250938057899475, -0.021518578752875328, -0.14022068679332733, 0.004286123905330896, 0.010230978950858116, 0.023805467411875725, 0.0615057572722435, -0.07619404047727585, -0.03564310446381569, 0.04740414023399353, 0.07819371670484543, 0.0439312607049942, 0.03683583810925484], [0.13743098080158234, 0.03118811920285225, 0.10439009219408035, -0.14400890469551086, 0.03511582687497139, -0.014109394513070583, -0.054316937923431396, -0.17512546479701996, -0.06990884989500046, 0.027629703283309937, 0.15919043123722076, 0.015077508054673672, 0.14951446652412415, 