{"lstm.weight_ih_l0": [[-0.4484286904335022, -0.22964859008789062, 0.3333423137664795, -0.27024149894714355, -0.48586195707321167, 0.07054001092910767, -0.4449728727340698, 0.28718066215515137, 0.2564172148704529, -0.3535615801811218, 0.46297597885131836, 0.4389699697494507, 0.21435600519180298, -0.10714179277420044, 0.07621866464614868, -0.4948427081108093, 0.07408875226974487], [0.042996346950531006, 0.4215785264968872, -0.31791746616363525, 0.49973171949386597, 0.28212589025497437, -0.4310191869735718, -0.3519677519798279, 0.34971779584884644, -0.23983967304229736, -0.21206480264663696, -0.375654399394989, -0.4830947518348694, 0.050105392932891846, -0.4822659492492676, -0.2084673047065735, -0.38518834114074707, 0.45114612579345703], [-0.38793808221817017, 0.10826981067657471, -0.4952496290206909, -0.45813024044036865, -0.45246976613998413, 0.13643211126327515, -0.21953803300857544, -0.45484983921051025, -0.2867303490638733, -0.4797443151473999, -0.4563415050506592, 0.100860595703125, 0.31458204984664917, 0.322742223739624, 0.3607185482978821, 0.24622642993927002, 0.014955282211303711], [0.2863319516181946, -0.49064433574676514, -0.19624090194702148, -0.09256350994110107, 0.07642394304275513, 0.10949462652206421, -0.4356563687324524, -0.41501104831695557, -0.15573173761367798, -0.08257371187210083, 0.20043253898620605, -0.44496482610702515, -0.3322446942329407, 0.41836243867874146, 0.3204473853111267, -0.30799025297164917, 0.3732230067253113], [0.3220360279083252, 0.026336193084716797, 0.023222386837005615, 0.3560754656791687, 0.09976023435592651, -0.24706190824508667, -0.2943035364151001, -0.09620153903961182, 0.09906119108200073, 0.29510271549224854, 0.20693689584732056, -0.0672031044960022, 0.06225919723510742, 0.08109885454177856, 0.43959856033325195, 0.2528899312019348, 0.243710458278656], [0.11218619346618652, -0.4676781892776489, 0.3265877366065979, -0.2767924666404724, 0.0107308030128479, 0.2323092818260193, -0.09892392158508301, 0.036138713359832764, -0.18701952695846558, 0.058408915996551514, 0.051504433155059814, 0.03765285015106201, 0.1668584942817688, 0.34803807735443115, -0.4359284043312073, 0.31855636835098267, 0.4095752239227295], [-0.13394266366958618, 0.20398199558258057, -0.32099205255508423, -0.04505646228790283, -0.4801507592201233, 0.23309814929962158, -0.3052966594696045, 0.10788601636886597, 0.05221760272979736, -0.14556503295898438, 0.3417237401008606, -0.22872674465179443, 0.2934269905090332, -0.08501917123794556, -0.44452255964279175, 0.01651674509048462, -0.2216663956642151], [0.42183881998062134, -0.11816942691802979, 0.0615534782409668, -0.4919050931930542, 0.022754967212677002, -0.154022216796875, 0.4743252992630005, -0.29949378967285156, -0.347362220287323, 0.07529038190841675, 0.32842838764190674, -0.011018455028533936, -0.20616209506988525, 0.35624849796295166, -0.34631842374801636, 0.07406532764434814, 0.42441850900650024], [-0.17102879285812378, 0.4578993320465088, -0.41472768783569336, -0.01788651943206787, -0.2990649342536926, 0.4035491943359375, 0.2758494019508362, -0.03572481870651245, 0.29398953914642334, 0.39232730865478516, -0.46153563261032104, 0.14448654651641846, 0.4581621289253235, -0.420896053314209, 0.13565754890441895, -0.18187803030014038, 0.4068900942802429], [0.4634641408920288, -0.1733112931251526, 0.18915116786956787, -0.11256569623947144, -0.09905749559402466, -0.23441052436828613, -0.43523597717285156, 0.2776836156845093, 0.4338976740837097, -0.322948694229126, -0.4312087297439575, -0.36440330743789673, 0.06458020210266113, 0.02838033437728882, 0.4940173625946045, 0.27684205770492554, -0.01935821771621704], [0.3733360171318054, -0.025711655616760254, 0.4227573871612549, 0.06337511539459229, 0.4655182957649231, -0.23416930437088013, 0.1505921483039856, -0.09624642133712769, -0.24318432807922363, -0.08345431089401245, 0.4419822096824646, 0.4354292154312134, 0.34265124797821045, -0.4656696915626526, 0.3942457437515259, -0.12223607301712036, 0.3125764727592468], [-0.248205304145813, -0.3745851516723633, -0.31607943773269653, -0.2177441120147705, -0.4955848455429077, -0.3049629330635071, 0.20139139890670776, 0.489557683467865, -0.22191399335861206, 0.4948182702064514, 0.26680999994277954, -0.07346832752227783, -0.04628986120223999, 0.2410561442375183, -0.28131240606307983, 0.1303398609161377, 0.48582392930984497], [-0.4587768316268921, -0.4537174105644226, -0.27163636684417725, -0.1308768391609192, 0.026969492435455322, 0.24733340740203857, 0.3199700713157654, -0.40120577812194824, 0.017659783363342285, -0.4957121014595032, -0.43023383617401123, -0.011781752109527588, -0.19369536638259888, 0.33282309770584106, 0.20968776941299438, -0.4976920485496521, 0.27042895555496216], [-0.3425602316856384, 0.03638356924057007, 0.3039211630821228, -0.4386913776397705, 0.09577387571334839, -0.19481128454208374, -0.10320770740509033, -0.13797086477279663, -0.2861022353172302, 0.2434166669845581, -0.3089056611061096, 0.06893777847290039, 0.39249324798583984, 0.4098502993583679, -0.16992533206939697, 0.19340991973876953, -0.17677873373031616], [-0.43564659357070923, -0.11619263887405396, 0.2982912063598633, 0.05639702081680298, -0.12226855754852295, 0.058640241622924805, 0.28160130977630615, -0.37608611583709717, 0.29751282930374146, -0.22313672304153442, -0.420681357383728, 0.04156780242919922, -0.3395804762840271, -0.31859099864959717, 0.11533534526824951, -0.3690747618675232, 0.36627715826034546], [-0.2833077907562256, 0.2196781039237976, 0.36631643772125244, -0.41631895303726196, 0.009233474731445312, -0.44741976261138916, -0.2508430480957031, 0.09714359045028687, -0.3563774824142456, 0.134671151638031, -0.36785006523132324, -0.38611900806427, -0.30763500928878784, 0.38162124156951904, -0.31081122159957886, 0.45185375213623047, -0.31722384691238403]], "lstm.weight_hh_l0": [[-0.403637170791626, -0.3902517557144165, 0.31516700983047485, -0.4136948585510254], [0.30140554904937744, 0.03235346078872681, -0.4391847848892212, -0.016955018043518066], [0.13108783960342407, 0.15567278861999512, -0.1066131591796875, 0.22796297073364258], [0.26992857456207275, -0.3367425203323364, 0.2243211269378662, 0.2798294425010681], [0.4839779734611511, 0.19056212902069092, 0.1433013677597046, 0.4770042896270752], [0.23206347227096558, 0.34346556663513184, -0.29153960943222046, -0.3438728451728821], [-0.46480846405029297, -0.03770691156387329, 0.2639468312263489, 0.3899490237236023], [-0.3347277045249939, 0.2517603635787964, -0.23944592475891113, 0.4861053228378296], [0.4889264702796936, -0.17760777473449707, -0.13018542528152466, 0.14896637201309204], [0.2552507519721985, 0.16139847040176392, -0.105843186378479, -0.22500461339950562], [-0.08511286973953247, -0.30868321657180786, 0.024584412574768066, -0.024136006832122803], [-0.03555184602737427, 0.2646774649620056, 0.11018103361129761, -0.030162155628204346], [0.3125944137573242, -0.14028304815292358, 0.32738763093948364, -0.2150118350982666], [0.25145041942596436, -0.30747437477111816, 0.1821078062057495, 0.3424326181411743], [-0.1183672547340393, -0.1797230839729309, -0.3766483664512634, -0.41390085220336914], [-0.18458998203277588, 0.04753077030181885, 0.1733216643333435, 0.38490504026412964]], "lstm.bias_ih_l0": [-0.2142946720123291, 0.2169134020805359, -0.06298196315765381, -0.28908640146255493, -0.23230648040771484, 0.3663114905357361, -0.39357805252075195, -0.27234262228012085, 0.3762858510017395, 0.12878388166427612, -0.3950229287147522, -0.02194535732269287, 0.23902082443237305, 0.29090380668640137, -0.02889728546142578, -0.3910006284713745], "lstm.bias_hh_l0": [0.32799625396728516, 0.37385624647140503, 0.0751345157623291, -0.09833842515945435, -0.4999231696128845, 0.06635493040084839, -0.10187023878097534, 0.04916119575500488, 0.24666684865951538, -0.3886481523513794, -0.11168795824050903, -0.22956699132919312, -0.031143486499786377, 0.1819746494293213, -0.33787769079208374, -0.2240470051765442], "fc.weight": [[0.29395759105682373, 0.4342474341392517, -0.040317654609680176, -0.27343130111694336]], "fc.bias": [0.03222044184803963]}