{"lstm.weight_ih_l0": [[-0.04258247837424278, 0.004676382523030043, -0.0888730138540268, -0.0042771464213728905, 0.16719786822795868, -0.012454730458557606, 0.09878228604793549, 0.10865533351898193, -0.06329451501369476, -0.028784042224287987, 0.09430024027824402, -0.13236352801322937, -0.1273987889289856, -0.003082114737480879, 0.10628941655158997, 0.006819318048655987, 0.060180723667144775], [0.05189577117562294, -0.06745729595422745, -0.12683071196079254, -0.003955755848437548, 0.008412194438278675, 0.06003110483288765, 0.058799467980861664, 0.16716469824314117, 0.125601127743721, 0.0184768196195364, -0.08836889266967773, -0.048464175313711166, 0.13782235980033875, 0.04776464402675629, -0.0020067801233381033, 0.035651471465826035, 0.07763782143592834], [0.11830363422632217, -0.0417819619178772, 0.08082953840494156, -0.10428685694932938, -0.0750657469034195, 0.0898672565817833, -0.10778576135635376, 0.14997053146362305, 0.1321364790201187, 0.01062136422842741, 0.0003028040227945894, 0.1506681889295578, 0.019039206206798553, -0.17476454377174377, 0.04906339943408966, 0.13340313732624054, 0.07989601045846939], [0.13397100567817688, -0.17542211711406708, 0.0901961699128151, -0.08715677261352539, 0.13127565383911133, 0.13383139669895172, -0.15952034294605255, 0.1633511334657669, -0.059649400413036346, 0.03521742299199104, 0.0040913843549788, -0.06487078219652176, 0.1528981775045395, -0.1708824783563614, 0.09890297055244446, -0.07800262421369553, -0.14204798638820648], [0.052534591406583786, 0.14579759538173676, 0.14700935781002045, 0.16564135253429413, 0.08693579584360123, -0.02787626162171364, -0.019168639555573463, -0.14607883989810944, 0.15870696306228638, 0.15619075298309326, -0.13805170357227325, -0.091619573533535, 0.09314444661140442, 0.14833343029022217, -0.026133405044674873, 0.03581894189119339, -0.06928429752588272], [0.12869274616241455, -0.07811930775642395, -0.06578176468610764, -0.129890576004982, 0.06314358860254288, 0.029941795393824577, -0.1582311987876892, -0.04680902510881424, -0.07313399016857147, -0.11649491637945175, -0.08233863115310669, -0.001727767870761454, 0.05536947399377823, 0.0075808060355484486, -0.0031975549645721912, -0.10127908736467361, 0.06689545512199402], [0.16148297488689423, 0.09410467743873596, 0.12421693652868271, -0.15237194299697876, 0.12764626741409302, 0.1118096187710762, -0.1158657968044281, 0.07750982791185379, -0.1584361046552658, 0.03464250639081001, -0.0020892575848847628, 0.14881400763988495, 0.1333022564649582, -0.009725121781229973, -0.049533940851688385, -0.1432666778564453, 0.0007407310185953975], [-0.047945789992809296, -0.023496150970458984, -0.06712798029184341, 0.026888404041528702, 0.1428321897983551, 0.020455636084079742, 0.049024034291505814, 0.11294805258512497, 0.04065411165356636, 0.05562104657292366, 0.1276858150959015, -0.1142849251627922, 0.1084466427564621, 0.17571301758289337, -0.11324312537908554, -0.060013845562934875, -0.020383942872285843], [-0.006546353921294212, 0.1349915862083435, 0.16451583802700043, -0.06804779171943665, 0.06971187889575958, -0.0727623999118805, -0.0892057865858078, -0.052905041724443436, -0.10435416549444199, -0.1733241081237793, 0.07542498409748077, -0.11607153713703156, 0.1031637042760849, 0.01940636895596981, -0.14926686882972717, 0.1378583312034607, -0.08910178393125534], [0.1254124790430069, 0.023362061008810997, -0.12412573397159576, -0.13608576357364655, -0.0805111825466156, -0.07150168716907501, 0.03890097141265869, -0.11487922072410583, -0.15563584864139557, -0.04288399592041969, 0.11344178020954132, 0.05822517350316048, -0.14240752160549164, 0.13654725253582, -0.029284557327628136, 0.1370510756969452, -0.14790566265583038], [0.1070433184504509, 0.031279031187295914, 0.013690898194909096, -0.044442690908908844, 0.10204171389341354, 0.1553053855895996, -0.03762238472700119, 0.10736454278230667, -0.04233172535896301, -0.169076606631279, 0.1007966697216034, 0.0736251026391983, -0.0040537468157708645, -0.11182456463575363, -0.05531276389956474, 0.09437711536884308, -0.07258306443691254], [0.0464722104370594, -0.1388467401266098, -0.15885356068611145, 0.06244063749909401, 0.02412622608244419, -0.08609943836927414, 0.16565103828907013, -0.053923774510622025, -0.11491226404905319, 0.032577723264694214, 0.10582102090120316, -0.1584109365940094, 0.07423119992017746, 0.07486477494239807, -0.14847424626350403, -0.1708100438117981, 0.07006163150072098], [0.027576429769396782, 0.11166265606880188, -0.1423170566558838, -0.10979002714157104, 0.08573001623153687, -0.1424257457256317, -0.14297647774219513, -0.09019547700881958, -0.16950729489326477, -0.07552042603492737, -0.13048788905143738, 0.08495866507291794, 0.03611201047897339, 0.026062998920679092, -0.09527809172868729, 0.022659052163362503, -0.10638070851564407], [0.04069510102272034, 0.012286649085581303, -0.15016695857048035, 0.01180982030928135, 0.11599986255168915, 0.1445547342300415, -0.14470568299293518, 0.10725137591362, -0.1585078239440918, 0.03427204489707947, 0.025903725996613503, 0.15326839685440063, -0.08513619005680084, 0.060660336166620255, -0.14245904982089996, -0.05945581942796707, -0.03483850136399269], [-0.1277952939271927, 0.1418703943490982, -0.1622859090566635, -0.15329484641551971, -0.08682189881801605, 0.09551611542701721, 0.05644575506448746, -0.13134439289569855, -0.07673362642526627, 0.02530665323138237, -0.027490997686982155, -0.10601948946714401, -0.08535031974315643, 0.14055529236793518, 0.044048260897397995, 0.017907142639160156, 0.15391917526721954], [-0.07342159748077393, 0.12731313705444336, 0.031080350279808044, -0.17676010727882385, -0.160966694355011, 0.035727862268686295, -0.14309851825237274, 0.14264772832393646, -0.014671106822788715, -0.10201945900917053, 0.07258410006761551, 0.03340987116098404, 0.1604328155517578, -0.164786696434021, -0.04558718949556351, 0.10432370752096176, 0.057689908891916275], [-0.12341418862342834, 0.10059168934822083, -0.1612076312303543, -0.15376752614974976, -0.10225577652454376, -0.004441582132130861, 0.1537286639213562, 0.06468909233808517, -0.007548647932708263, -0.17019586265087128, -0.12638065218925476, -0.15210005640983582, -0.0932258740067482, -0.1342233121395111, -0.010327895171940327, 0.09888080507516861, 0.012153822928667068], [0.12010728567838669, -0.019359193742275238, 0.08506987988948822, 0.0031814498361200094, 0.1678505390882492, 0.00403521116822958, -0.0774535983800888, -0.13226579129695892, 0.13295017182826996, 0.017831068485975266, 0.012977573089301586, -0.13203628361225128, -0.06594701111316681, -0.030208181589841843, -0.12348274886608124, -0.040656208992004395, 0.05026276409626007], [0.08775072544813156, -0.1270279437303543, 0.09157226979732513, -0.10208282619714737, -0.12326277792453766, -0.16295848786830902, -0.09933561086654663, 0.08127901703119278, -0.03836241737008095, -0.07370617240667343, -0.07528337091207504, 0.01016721036285162, -0.16885331273078918, -0.16412873566150665, 0.10651475936174393, -0.08828672766685486, -0.07189799100160599], [0.06083391606807709, -0.007706235162913799, 0.14849251508712769, 0.07457014173269272, 0.14273202419281006, 0.007988618686795235, -0.08065401762723923, 0.0911434218287468, 0.15523666143417358, -0.032875996083021164, -0.02854860946536064, 0.1554034799337387, -0.15077222883701324, -0.1006208136677742, 0.13581368327140808, -0.10861613601446152, -0.048118192702531815], [-0.17119745910167694, -0.10114988684654236, 0.14835534989833832, -0.042252637445926666, -0.09638494998216629, 0.011196247301995754, -0.02455846220254898, -0.020149817690253258, 0.03947048261761665, 0.1339236944913864, -0.0020311197731643915, 0.16128313541412354, 0.1475675404071808, 0.0506964847445488, 0.15390370786190033, -0.1475248485803604, 0.05996019020676613], [0.14813503623008728, -0.1364513486623764, 0.005963167641311884, -0.0761360228061676, -0.015945184975862503, -0.10716630518436432, 0.07248122245073318, -0.02341512404382229, 0.028469225391745567, 0.07208628207445145, 0.027556240558624268, -0.17473547160625458, -0.02825617417693138, 0.012843388132750988, -0.15694119036197662, -0.0674358382821083, -0.15427108108997345], [0.02242332510650158, -0.1260717809200287, 0.07302933931350708, -0.12639880180358887, -0.05087868496775627, -0.026218606159090996, -0.09740505367517471, -0.1475672572851181, -0.12875401973724365, -0.041404031217098236, -0.14901848137378693, 0.0623149573802948, -0.0952417179942131, -0.16499295830726624, -0.02004232257604599, -0.08421987295150757, 0.014951510354876518], [0.0749981626868248, 0.14126615226268768, -0.07221817225217819, -0.017147548496723175, -0.11626438051462173, -0.09323558211326599, 0.07870027422904968, -0.10593628883361816, 0.13123111426830292, 0.10418079048395157, 0.016217904165387154, 0.03716397285461426, 0.03717406466603279, -0.17526893317699432, -0.09514475613832474, 0.021675381809473038, 0.10022347420454025], [-0.08439087867736816, 0.2946968376636505, -0.01903643272817135, -0.07180821150541306, -0.04287179186940193, -0.02257007732987404, -0.050164226442575455, 0.021627824753522873, -0.045354828238487244, -0.07359866052865982, -0.06809172034263611, -0.06120654568076134, 0.007949532009661198, -0.013091661036014557, 0.225004181265831, -0.06215810403227806, -0.06991027295589447], [-0.13420996069908142, -0.15086211264133453, -0.027884311974048615, -0.03820175677537918, 0.1400313824415207, -0.09406917542219162, 0.012435680255293846, -0.11332244426012039, -0.019573522731661797, -0.02705039456486702, 0.07149523496627808, -0.05409402400255203, -0.12692737579345703, -0.0935463160276413, -0.07381786406040192, 0.05312454327940941, -0.029661180451512337], [0.15786287188529968, -0.11309078335762024, -0.15405991673469543, 0.1263185292482376, -0.03992865979671478, 0.07042477279901505, -0.1446191519498825, -0.16934776306152344, 0.12141115963459015, 0.15422506630420685, -0.0324183851480484, -0.03332209959626198, 0.11976771056652069, 0.1527823805809021, 0.13809950649738312, 0.031309377402067184, 0.17402125895023346], [-0.15044809877872467, 0.06874489784240723, 0.07286728173494339, -0.16998238861560822, 0.10249287635087967, -0.17178180813789368, -0.1552085280418396, -0.1728106588125229, 0.09668462723493576, -0.13866016268730164, -0.09898260235786438, -0.014686129055917263, 0.16935712099075317, -0.0898798406124115, -0.11932382732629776, -0.10223815590143204, -0.07423140853643417], [-0.02079409547150135, -0.13035018742084503, 0.09212363511323929, -0.014655470848083496, 0.1334906965494156, 0.17396609485149384, -0.02145131304860115, 0.015081196092069149, 0.14742982387542725, -0.0918927937746048, -0.10858827829360962, 0.12721379101276398, -0.06306038796901703, 0.17320211231708527, 0.005237672943621874, 0.06442080438137054, -0.12089229375123978], [0.054145533591508865, -0.19031262397766113, -0.006498211994767189, 0.13266056776046753, 0.019593389704823494, -0.030298221856355667, 0.003259657183662057, 0.07175440341234207, 0.11508693546056747, -0.02533586509525776, -0.03763960674405098, -0.15619471669197083, -0.03574118763208389, 0.046207837760448456, 0.09457530081272125, -0.05869576334953308, 0.11750853806734085], [-0.06208173930644989, -0.021464399993419647, -0.07291659712791443, -0.07393857091665268, -0.12746508419513702, 0.05936680734157562, -0.02304792031645775, -0.021590987220406532, 0.13030430674552917, 0.009479373693466187, 0.010704056359827518, -0.07945512980222702, -0.16153569519519806, 0.05709875747561455, -0.11507590115070343, 0.021579796448349953, -0.0008701849146746099], [-0.0597238764166832, -0.1651250272989273, 0.15384526550769806, 0.03505001589655876, 0.04495909437537193, -0.08850841969251633, 0.05336382985115051, 0.08933115005493164, 0.0833173617720604, -0.055498819798231125, -0.050356484949588776, 0.06546617299318314, -0.1628234088420868, -0.08722475916147232, -0.05706847459077835, -0.08740672469139099, -0.17371973395347595], [-0.05963842198252678, -0.13879968225955963, -0.001954665407538414, 0.06603886187076569, 0.1332196295261383, 0.17124032974243164, 0.09968835860490799, -0.07453250885009766, 0.17619100213050842, 0.0344538688659668, -0.15373176336288452, 0.17675526440143585, -0.01757548749446869, 0.10559597611427307, -0.00358193414285779, 0.019561657682061195, 0.007951361127197742], [0.04113803431391716, 0.11070584505796432, -0.0033852297347038984, 0.033847469836473465, -0.08093669265508652, -0.05590111017227173, 0.08108818531036377, 0.024580132216215134, -0.17206592857837677, 0.06314558535814285, 0.11539678275585175, -0.0017338648904114962, -0.13416481018066406, -0.16252122819423676, 0.08896348625421524, 0.03356238454580307, -0.16752777993679047], [-0.0018790540052577853, 0.1434793770313263, -0.1280052661895752, -0.1607249230146408, 0.03009217418730259, -0.12736962735652924, 0.019313476979732513, -0.08468852937221527, -0.1062670424580574, -0.001577430055476725, 0.16775010526180267, 0.036221232265233994, -0.052985984832048416, 0.06484391540288925, -0.0037495309952646494, 0.11993446201086044, 0.16292458772659302], [0.1158970519900322, 0.08196382969617844, -0.0023277816362679005, 0.1593131721019745, -0.17580391466617584, 0.1737571507692337, 0.06159389764070511, -0.11214475333690643, -0.01970650814473629, -0.16693904995918274, 0.019299663603305817, -0.1456567943096161, -0.15227721631526947, -0.03599540889263153, -0.11018230020999908, 0.17106252908706665, -0.14062124490737915], [0.19724081456661224, 0.1064033955335617, -0.14624731242656708, 0.14098595082759857, -0.10619101673364639, 0.09900218993425369, 0.15837761759757996, 0.11265145987272263, -0.1149432361125946, 0.09202321618795395, -0.07552407681941986, 0.0428863950073719, -0.033703647553920746, -0.07163666933774948, 0.015217123553156853, 0.07454133033752441, 0.15535150468349457], [-0.023124542087316513, 0.0652470514178276, 0.05211908742785454, -0.14644558727741241, -0.13039912283420563, -0.059600554406642914, 0.12887658178806305, -0.17034660279750824, -0.08420328795909882, -0.058524079620838165, 0.0945323035120964, 0.056744955480098724, 0.049247559159994125, 0.06428302824497223, 0.1073567271232605, -0.11661487072706223, 0.15670162439346313], [0.07561194896697998, 0.09196058660745621, 0.04945995658636093, 0.006693087983876467, -0.08532921969890594, -0.08270768821239471, -0.12474293261766434, -0.14806832373142242, -0.09192153811454773, -0.17523051798343658, -0.0919550210237503, -0.11988860368728638, -0.0001598208473296836, 0.0980011373758316, 0.06307817250490189, -0.014267340302467346, -0.1556350141763687], [0.10222922265529633, -0.15264786779880524, 0.10658501833677292, 0.06746985763311386, 0.14636293053627014, 0.05363616347312927, 0.052312057465314865, 0.17296560108661652, -0.03780949488282204, -0.09119229018688202, 0.15721425414085388, 0.1375235766172409, -0.035911012440919876, 0.0030316016636788845, 0.05253124237060547, -0.06225186213850975, 0.11899460852146149], [0.0015004489105194807, 0.1583743393421173, -0.08581355214118958, 0.12748169898986816, -0.015711123123764992, -0.1428351253271103, 0.16567473113536835, 0.08899623155593872, 0.13731500506401062, -0.03492247685790062, 0.09356353431940079, -0.12846018373966217, -0.13447900116443634, -0.03958570957183838, -0.11242461204528809, 0.0694747194647789, 0.12712064385414124], [-0.049782443791627884, -0.07238906621932983, -0.11605050414800644, 0.14220544695854187, -0.13262276351451874, 0.0019479640759527683, -0.143697127699852, 0.11959220468997955, -0.13480481505393982, -0.06252320855855942, -0.01638776995241642, -0.17346839606761932, -0.1332041472196579, -0.15955060720443726, -0.034113362431526184, 0.004925301764160395, 0.16963520646095276], [-0.041441258043050766, 0.03982758894562721, -0.008063414134085178, 0.06208724528551102, 0.15136931836605072, -0.0764557421207428, -0.0041439589112997055, 0.11624140292406082, -0.05057086795568466, 0.06924491375684738, -0.10211168229579926, 0.15337251126766205, 0.07423340529203415, -0.14683298766613007, -0.024768194183707237, -0.04268563911318779, -0.07788202911615372], [0.06989053636789322, 0.016276059672236443, 0.07777494937181473, 0.13001830875873566, -0.11547902971506119, -0.003990189637988806, 0.11387791484594345, 0.06844030320644379, -0.11751436442136765, -0.029096076264977455, -0.031660228967666626, 0.08630561828613281, 0.1268012374639511, -0.05886443704366684, -0.08648817986249924, -0.15934070944786072, 0.06610918790102005], [-0.14049780368804932, -0.12566697597503662, 0.033699166029691696, 0.06497197598218918, 0.04674673452973366, -0.0395505391061306, -0.06997440755367279, -0.0912485122680664, -0.06120426207780838, -0.04093116521835327, 0.13822585344314575, -0.09242997318506241, -0.16134805977344513, 0.03883473947644234, 0.00832589901983738, 0.13736402988433838, -0.0981307402253151], [-0.1686757504940033, -0.09968365728855133, 0.1475004404783249, -0.08449850976467133, -0.11476721614599228, -0.17635220289230347, -0.049418866634368896, -0.09027991443872452, -0.1541469395160675, -0.09692902863025665, -0.09501111507415771, 0.040574222803115845, 0.12912291288375854, 0.1526024341583252, 0.03018690086901188, -0.16683077812194824, -0.019880056381225586], [0.09906431287527084, -0.1634296327829361, -0.07309422641992569, 0.09450549632310867, 0.11031020432710648, -0.06649404764175415, 0.14718374609947205, 0.013186863623559475, -0.1569376438856125, 0.029751291498541832, 0.153799369931221, -0.01406433992087841, 0.12765978276729584, 0.006693087983876467, -0.16191889345645905, -0.014370367862284184, 0.12722927331924438], [0.022525213658809662, 0.0722048431634903, -0.07600788027048111, 0.008444816805422306, -0.0541081428527832, -0.1268102377653122, -0.13302208483219147, -0.07079441845417023, -0.10893746465444565, -0.13012409210205078, 0.08788846433162689, -0.0031357253901660442, -0.11922675371170044, 0.055613692849874496, -0.14766176044940948, 0.010310931131243706, 0.13544611632823944], [-0.050105880945920944, -0.15168079733848572, -0.060403112322092056, -0.061349015682935715, -0.16114754974842072, 0.06512010097503662, 0.17206436395645142, -0.0011406622361391783, -0.029185406863689423, 0.15914498269557953, 0.16787435114383698, -0.11647599935531616, 0.07939829677343369, 0.03267029672861099, 0.07237543165683746, 0.14581631124019623, 0.1291988641023636], [-0.10651133954524994, 0.03598205745220184, 0.1364663988351822, -0.10625919699668884, -0.014007847756147385, -0.03634366765618324, -0.035940829664468765, 0.13308879733085632, 0.19281809031963348, -0.010469199158251286, -0.05418206378817558, -0.1386982798576355, 0.022871598601341248, -0.11157044768333435, 0.056915875524282455, -0.07707647234201431, 0.02890864387154579], [0.11500401794910431, -0.17569276690483093, -0.020942136645317078, -0.14717236161231995, -0.03968747332692146, 0.017674027010798454, -0.06725140661001205, 0.08996318280696869, 0.13634833693504333, -0.03389853984117508, -0.1746995449066162, -0.003664900315925479, 0.08863726258277893, -0.06667793542146683, -0.16012875735759735, 0.13864313066005707, 0.11979615688323975], [0.1006741002202034, -0.20785608887672424, 0.09329253435134888, 0.11421993374824524, -0.15813855826854706, 0.04712160304188728, -0.023630816489458084, -0.06497025489807129, 0.07621368765830994, 0.13233914971351624, 0.014705539681017399, 0.026572106406092644, -0.05571669712662697, 0.1514873206615448, 0.10994255542755127, -0.08005458861589432, -0.06854193657636642], [-0.10120351612567902, -0.02796163037419319, 0.07908663898706436, 0.04703185707330704, 0.10446197539567947, -0.04928220435976982, 0.026718594133853912, -0.10647446662187576, 0.0008561710710637271, -0.0828661173582077, 0.044698163866996765, 0.10472358018159866, -0.05682876706123352, -0.08978911489248276, -0.06854721158742905, -0.0775958001613617, -0.13067008554935455], [-0.13031679391860962, -0.002205165335908532, 0.1660916656255722, -0.11834946274757385, 0.0460297092795372, -0.01893714815378189, -0.08763052523136139, -0.08769180625677109, 0.018957652151584625, -0.12516452372074127, 0.12540103495121002, 0.1640336513519287, 0.09922780096530914, -0.1394684910774231, -0.0520753376185894, 0.1434408277273178, 0.04643042013049126], [0.0020177382975816727, 0.10703128576278687, -0.14325711131095886, 0.14859525859355927, -0.11686071008443832, 0.16671185195446014, -0.08423321694135666, -0.12644430994987488, -0.06707272678613663, -0.1481400728225708, -0.03262549638748169, 0.17513452470302582, -0.043182164430618286, 0.15845441818237305, 0.14916305243968964, 0.02715485543012619, -0.11825240403413773], [-0.15181204676628113, 0.09197212755680084, -0.04279408976435661, 0.001831202069297433, 0.12897303700447083, -0.07568196207284927, -0.009135465137660503, 0.10083384811878204, 0.08924544602632523, 0.09726901352405548, 0.1282086819410324, 0.09908618777990341, -0.04465917870402336, 0.06909370422363281, 0.01428573951125145, -0.09256736934185028, 0.11185096949338913], [-0.17067907750606537, 0.013808717019855976, -0.12684911489486694, -0.03427623584866524, -0.04319776967167854, 0.10501714050769806, 0.03830588236451149, 0.09202680736780167, 0.11261966824531555, 0.16582052409648895, 0.12044057995080948, 0.09061466157436371, 0.1113821342587471, 0.13137835264205933, -0.15724697709083557, 0.06985874474048615, -0.0010511133586987853], [-0.08736714720726013, 0.13909433782100677, 0.05694117024540901, -0.05325916036963463, 0.14210949838161469, -0.0967780128121376, 0.1650811731815338, 0.03189995884895325, -0.10939176380634308, -0.09402631223201752, 0.1685279905796051, 0.12870989739894867, 0.0661129355430603, -0.14128634333610535, 0.10822240263223648, -0.1733744889497757, 0.05381617322564125], [0.10659131407737732, -0.1379126012325287, -0.12535874545574188, 0.1391759067773819, -0.04324690252542496, 0.16661986708641052, 0.1453237384557724, -0.00398624874651432, 0.02517237327992916, -0.03055393509566784, -0.027349131181836128, -0.07324258238077164, -0.12981638312339783, 0.01830359548330307, -0.10934700071811676, 0.06561383605003357, -0.08434393256902695], [0.1555384248495102, -0.10445722937583923, -0.16645874083042145, -0.1563035100698471, -0.07919542491436005, 0.1388119012117386, 0.1612943708896637, 0.07586021721363068, -0.01285556796938181, -0.09837398678064346, -0.07084699720144272, 0.12242308259010315, -0.13712666928768158, -0.1564939022064209, -0.07003208994865417, 0.06491421908140182, -0.004792286083102226], [-0.1610022634267807, 0.09353139996528625, -0.1005120575428009, -0.04143490269780159, -0.08780790120363235, -0.02825665846467018, 0.11079506576061249, -0.004777830094099045, -0.14076866209506989, 0.17496642470359802, 0.12002159655094147, -0.014571218751370907, -0.10042150318622589, 0.06736684590578079, -0.02638961561024189, -0.14231036603450775, 0.06834792345762253], [-0.06009487062692642, 0.07862450182437897, 0.10180128365755081, 0.03406704589724541, -0.0061533343978226185, -0.08860494196414948, 0.1466677188873291, 0.1719779223203659, 0.08989731222391129, 0.1364404708147049, 0.07160517573356628, 0.1277419477701187, -0.05367377772927284, -0.03156933933496475, -0.13241121172904968, -0.11876115947961807, 0.13084636628627777], [0.06514522433280945, -0.09244421869516373, 0.13090309500694275, 0.05049264058470726, 0.08402284234762192, 0.05466766655445099, -0.004373831208795309, -0.1559315174818039, 0.12684302031993866, -0.10548432916402817, -0.11030152440071106, -0.15510621666908264, -0.1036466658115387, -0.10641738027334213, -0.1425842046737671, -0.06175147369503975, -0.13819323480129242], [-0.1513325423002243, -0.15590430796146393, -0.03783809021115303, 0.1594184935092926, 0.05295863002538681, -0.020229075103998184, 0.0460580550134182, 0.15754856169223785, -0.0639035552740097, 0.12079421430826187, -0.1706220656633377, 0.021599141880869865, -0.07025609910488129, 0.09688694030046463, -0.11791181564331055, -0.15190978348255157, -0.012334759347140789], [0.1288495659828186, 0.12308814376592636, -0.1714012175798416, 0.17057885229587555, 0.04457136616110802, 0.129703551530838, -0.12092297524213791, -0.07434630393981934, 0.04125101491808891, 0.01606547273695469, 0.07224363833665848, -0.06411030888557434, -0.008069603703916073, 0.08007441461086273, -0.09146805852651596, -0.09978118538856506, 0.07935724407434464], [-0.03446640819311142, -0.11998189985752106, -0.15125872194766998, -0.0251061599701643, -0.07100702822208405, 0.17657706141471863, -0.06732899695634842, 0.015416157431900501, -0.03423834964632988, -0.17574390769004822, 0.13813456892967224, -0.03944586589932442, -0.17262379825115204, -0.16239537298679352, 0.1045093685388565, -0.019072480499744415, -0.07168158888816833], [0.08296937495470047, 0.05398111417889595, -0.16647475957870483, -0.0920095220208168, 0.10612308979034424, 0.15601614117622375, 0.03766174986958504, 0.15248991549015045, -0.12821996212005615, -0.05577481910586357, -0.14186111092567444, -0.1311134696006775, -0.13919024169445038, 0.1552489846944809, 0.00882675126194954, -0.002566089853644371, 0.1097056120634079], [0.0073663839139044285, 0.13113464415073395, -0.09366987645626068, -0.04859853908419609, -0.17602717876434326, -0.17640988528728485, -0.009461082518100739, 0.019926080480217934, 0.1322932243347168, 0.11715453863143921, -0.15481451153755188, 0.03804357722401619, 0.08000428229570389, 0.046695273369550705, 0.12876087427139282, -0.17225761711597443, -0.028260262683033943], [-0.16312956809997559, -0.05048026889562607, -0.12323489785194397, 0.030860595405101776, -0.1509067863225937, -0.08398197591304779, 0.011228194460272789, -0.1734975129365921, -0.17562013864517212, 0.10055163502693176, -0.13990755379199982, 0.033061884343624115, -0.1763502061367035, -0.16199234127998352, -0.05066167190670967, -0.1413794457912445, 0.02507619373500347], [0.15720592439174652, -0.046289652585983276, -0.027886798605322838, 0.10906845331192017, 0.11965133994817734, 0.00673523498699069, -0.09734141081571579, -0.008103406056761742, 0.028574172407388687, 0.03142772242426872, -0.12312742322683334, 0.05533784255385399, 0.10219333320856094, 0.1499682366847992, 0.1678730696439743, 0.09515632688999176, 0.1365026980638504], [-0.12578564882278442, -0.03005830943584442, -0.09246931970119476, -0.1616290658712387, -0.09693315625190735, 0.13574086129665375, -0.11636411398649216, -0.10042346268892288, -0.05098491534590721, 0.14905251562595367, -0.016206979751586914, 0.14074745774269104, 0.10990265011787415, -0.13749490678310394, 0.036969464272260666, 0.11027257144451141, 0.11563996970653534], [-0.07762883603572845, -0.11118428409099579, 0.022373022511601448, -0.0031467063818126917, 0.02492731809616089, -0.015432336367666721, -0.17018386721611023, 0.14549781382083893, 0.15675903856754303, -0.06519433856010437, 0.11449679732322693, 0.1609058529138565, -0.16766642034053802, 0.11245822161436081, 0.09035144746303558, -0.1237681582570076, 0.15147748589515686], [-0.11551675200462341, 0.15556953847408295, -0.13523031771183014, 0.12802158296108246, -0.043060317635536194, 0.0033832117915153503, 0.055354680866003036, 0.06706145405769348, -0.060552459210157394, 0.02888414077460766, 0.007321560755372047, 0.007151519414037466, -0.15847651660442352, -0.11918041110038757, -0.007487703580409288, 0.014218112453818321, -0.002214500680565834], [-0.10337568074464798, -0.12930238246917725, -0.02519877813756466, 0.10227619856595993, 0.024161523208022118, 0.00855865515768528, -0.06740930676460266, 0.005761368665844202, 0.06863009184598923, -0.16598939895629883, 0.13563936948776245, 0.04848042502999306, -0.08298857510089874, -0.012963084504008293, -0.04922328144311905, 0.11073701083660126, -0.1306954324245453], [0.06307351589202881, -0.14008846879005432, -0.056068457663059235, -0.015576990321278572, 0.07127845287322998, 0.125631645321846, 0.15820881724357605, 0.12031599879264832, -0.03345054015517235, 0.03964720293879509, 0.11419163644313812, 0.146064892411232, -0.03727102652192116, -0.041212137788534164, -0.12002387642860413, -0.00941187608987093, -0.15073475241661072], [-0.022777462378144264, 0.08483568578958511, -0.08134350180625916, -0.0395359992980957, 0.029006240889430046, 0.1448620855808258, -0.07751201838254929, 0.1398395299911499, 0.1439594328403473, -0.08759630471467972, 0.08781616389751434, -0.13155557215213776, 0.11039188504219055, -0.17631269991397858, 0.006316758692264557, 0.003085254691541195, -0.08267989009618759], [0.015164457261562347, -0.13113412261009216, -0.16008640825748444, 0.16655951738357544, 0.061319977045059204, 0.1506357192993164, -0.030063072219491005, -0.16916939616203308, 0.05056622996926308, 0.062398724257946014, 0.052012138068675995, -0.11656897515058517, 0.07446576654911041, -0.17398853600025177, 0.022633973509073257, -0.14847485721111298, -0.1675747036933899], [0.161921426653862, -0.08803170174360275, 0.14679287374019623, 0.09656443446874619, -0.15503045916557312, 0.016331860795617104, 0.11906632035970688, -0.12428627163171768, -0.047317106276750565, -0.09906115382909775, 0.007200388703495264, 0.11755059659481049, -0.0584220215678215, -0.17085446417331696, -0.1518029421567917, 0.08089610934257507, -0.060221102088689804], [0.14795923233032227, -0.13583587110042572, -0.002569503616541624, -0.03963394835591316, -0.1351982206106186, 0.03384646773338318, -0.0034890423994511366, -0.07911578565835953, -0.031943242996931076, 0.021789731457829475, -0.17281052470207214, 0.08300866186618805, 0.15814970433712006, -0.14789310097694397, 0.1188063770532608, -0.019500399008393288, 0.12195125222206116], [-0.07425446063280106, -0.11437318474054337, -0.030741088092327118, -0.13425271213054657, -0.09214083105325699, -0.0278508048504591, -0.019245009869337082, 0.13055525720119476, 0.12872672080993652, 0.15169841051101685, 0.047792207449674606, 0.008424880914390087, 0.137986421585083, -0.045946259051561356, 0.05421793833374977, -0.061518970876932144, -0.07411754876375198], [-0.062131766229867935, 0.020688138902187347, 0.1512892097234726, -0.08249575644731522, -0.0048844823613762856, 0.15575507283210754, 0.02130287140607834, -0.11521017551422119, -0.17498399317264557, -0.1203698143362999, -0.09225665032863617, 0.08330221474170685, -0.02598622813820839, -0.08113978058099747, 0.1509552299976349, -0.03437300771474838, 0.08864931762218475], [-0.36717328429222107, 0.25928738713264465, -0.03305812180042267, -0.15720286965370178, 0.09675508737564087, 0.07425734400749207, -0.06563491374254227, -0.013525663875043392, -0.10790793597698212, -0.16733506321907043, 0.11167429387569427, -0.3039863407611847, 0.10105986893177032, 0.16218610107898712, 0.05698347091674805, -0.12354739010334015, -0.01490419078618288], [-0.02005639858543873, -0.12316375225782394, 0.05974739417433739, 0.12751497328281403, -0.08454611152410507, -0.06278051435947418, 0.08761067688465118, 0.14517058432102203, -0.039517663419246674, 0.11845677345991135, 0.16834768652915955, -0.05630456283688545, 0.10627917945384979, 0.15810436010360718, -0.09441707283258438, 0.046864911913871765, -0.08092652261257172], [0.15295667946338654, -0.09181556105613708, -0.16906119883060455, -0.15956898033618927, -0.17643789947032928, 0.023659005761146545, 0.040885478258132935, -0.09930288046598434, -0.03855285793542862, 0.014863107353448868, 0.08534892648458481, -0.152551531791687, -0.16451287269592285, -0.07198047637939453, 0.04055371880531311, 0.13767990469932556, 0.1466652750968933], [0.0033111406955868006, -0.01539344061166048, -0.11299555003643036, -0.0893871858716011, 0.057347510010004044, 0.08791988343000412, 0.022868921980261803, 0.04645337164402008, -0.07359705865383148, -0.0654054582118988, -0.10117245465517044, -0.08451151102781296, 0.17361563444137573, -0.12069091200828552, 0.17474114894866943, 0.05477749928832054, 0.15042787790298462], [0.14353621006011963, 0.14781418442726135, 0.08767987787723541, -0.1138070672750473, -0.12660826742649078, -0.09363368898630142, 0.1551799774169922, 0.06484292447566986, 0.15868225693702698, -0.08033031225204468, 0.009205609560012817, -0.053275175392627716, 0.07385265827178955, -0.09440033882856369, -0.06692898273468018, -0.15289947390556335, 0.06092158332467079], [0.04964194819331169, 0.045387644320726395, -0.08524465560913086, 0.14306478202342987, 0.04152870178222656, -0.1385410726070404, -0.16708654165267944, -0.14779554307460785, 0.047558628022670746, -0.11064305901527405, -0.17442400753498077, 0.11833256483078003, -0.039186011999845505, -0.06084904819726944, -0.04209696874022484, -0.11095385253429413, -0.06850896030664444], [-0.13489381968975067, -0.004298363346606493, -0.0013648513704538345, 0.16264885663986206, 0.023410215973854065, 0.15385758876800537, 0.11639437079429626, 0.0501544326543808, -0.0074625625275075436, 0.16470399498939514, 0.05034542828798294, 0.053447410464286804, 0.003552159992977977, -0.007188283838331699, -0.11472967267036438, -0.15616323053836823, -0.12335869669914246], [-0.01670682057738304, -0.02846231497824192, -0.06257228553295135, 0.007196321152150631, 0.06015286594629288, 0.040654152631759644, -0.06750588864088058, -0.11729425936937332, -0.12024737894535065, -0.12241335213184357, -0.16026104986667633, -0.0875624343752861, -0.11431394517421722, 0.12763629853725433, -0.15286721289157867, 0.162195086479187, -0.07224829494953156], [0.14660578966140747, -0.04509856179356575, 0.15553732216358185, -0.01341759692877531, 0.11986148357391357, -0.13991571962833405, 0.04278001934289932, -0.03751389682292938, 0.1655619591474533, -0.07137872278690338, 0.1415567845106125, 0.12290758639574051, -0.05897671729326248, -0.04861845448613167, 0.071506068110466, -0.12032560259103775, 0.012846211902797222], [-0.12416505813598633, -0.134036123752594, 0.06553683429956436, -0.016289882361888885, -0.09915106743574142, 0.004942876752465963, -0.08025054633617401, 0.10811100900173187, 0.14265158772468567, -0.08967127650976181, -0.07230593264102936, -0.0034004077315330505, 0.06251028925180435, 0.13957905769348145, -0.16459909081459045, -0.05844874307513237, 0.04435355216264725], [0.08769935369491577, 0.13088341057300568, 0.1341918259859085, 0.07367083430290222, -0.10051239281892776, 0.0029959455132484436, 0.08788498491048813, -0.13691405951976776, 0.0007777147111482918, 0.11166250705718994, 0.09002674371004105, 0.0517771914601326, 0.13863703608512878, 0.1326151341199875, -0.15503472089767456, -0.008051102049648762, -0.08946321904659271], [-0.15499195456504822, -0.02137898840010166, -0.008231237530708313, 0.037110067903995514, 0.0986056923866272, 0.003210557159036398, 0.05544940382242203, 0.004732880275696516, -0.05456113815307617, -0.10159828513860703, -0.07508008182048798, -0.12201200425624847, -0.08829102665185928, 0.16788843274116516, 0.07171924412250519, 0.16068348288536072, 0.009663976728916168], [0.0628264918923378, 0.11712149530649185, 0.10869863629341125, 0.09504447132349014, 0.10419855266809464, -0.029129836708307266, -0.014352792873978615, -0.06700916588306427, 0.05617605894804001, -0.11868790537118912, 0.14726334810256958, -0.10866574198007584, -0.14674124121665955, 0.07034353166818619, -0.10548384487628937, 0.11432962864637375, -0.047495704144239426], [0.061895933002233505, -0.09098267555236816, -0.16607752442359924, 0.02113013155758381, 0.15186400711536407, 0.16004008054733276, 0.16031420230865479, 0.06193692237138748, -0.017675355076789856, -0.06893915683031082, -0.09417757391929626, 0.018358493223786354, 0.14094775915145874, 0.11735353618860245, 0.17534948885440826, 0.12622660398483276, 0.008630473166704178], [0.15971627831459045, -0.11432652920484543, 0.04779587313532829, 0.14455769956111908, -0.12436012923717499, -0.015205655246973038, -0.10971113294363022, -0.030969418585300446, 0.10396776348352432, 0.003548343200236559, 0.10516169667243958, 0.12741652131080627, 0.027579737827181816, 0.08672613650560379, 0.07577244937419891, 0.10661386698484421, -0.1476588398218155], [-0.07754585891962051, -0.1017981469631195, -0.1746724545955658, 0.05210288241505623, 0.14089712500572205, -0.09575938433408737, 0.09833274781703949, 0.006884055212140083, -0.1581105887889862, 0.13896320760250092, 0.07669480890035629, 0.006781996693462133, -0.11451705545186996, -0.1406165063381195, -0.01789761707186699, 0.062487613409757614, 0.16732484102249146], [0.10275766253471375, 0.14198967814445496, -0.04491935670375824, 0.05385928601026535, 0.08777449280023575, 0.028636865317821503, -0.1542801856994629, 0.00037191377487033606, 0.04405641555786133, -0.12818725407123566, -0.11610792577266693, 0.1184936910867691, 0.1186310201883316, -0.029932059347629547, 0.14165543019771576, -0.09006096422672272, 0.027558643370866776], [-0.15958841145038605, -0.10327749699354172, 0.09469734877347946, -0.16046084463596344, -0.139778733253479, 0.13166140019893646, -0.077534519135952, -0.17655955255031586, 0.07364729791879654, -0.1371472328901291, 0.17595168948173523, -0.10741910338401794, -0.14611168205738068, 0.11450297385454178, -0.0037720375694334507, -0.14244256913661957, 0.10059055685997009], [-0.16240936517715454, 0.28731632232666016, 0.06995677202939987, -0.025646869093179703, 0.051313623785972595, -0.0013630683533847332, 0.009431876242160797, 0.05376875028014183, -0.14508016407489777, 0.04158398136496544, -0.14536979794502258, -0.09223132580518723, 0.02088489755988121, 0.030602049082517624, 0.13540999591350555, 0.017228225246071815, 0.10765895247459412], [0.12111489474773407, -0.10385114699602127, 0.09650729596614838, -0.09198050200939178, -0.09105446934700012, -0.12432390451431274, 0.13641655445098877, 0.0319211445748806, -0.16587232053279877, 0.10895898193120956, 0.025404391810297966, 0.16529636085033417, 0.030906714498996735, -0.051013048738241196, 0.035565778613090515, -0.010104584507644176, -0.09251496195793152], [0.07778199017047882, 0.08424006402492523, -0.1310906857252121, 0.08650355786085129, 0.06235843151807785, 0.06931110471487045, 0.058673154562711716, 0.05576472729444504, -0.048164576292037964, -0.015396137721836567, -0.03955422714352608, -0.16833598911762238, 0.121913842856884, 0.016800766810774803, -0.10155211389064789, -0.11344477534294128, -0.005063143093138933], [0.05622436851263046, -0.13161081075668335, 0.038240376859903336, 0.07813390344381332, 0.08374783396720886, 0.05032213032245636, 0.09251481294631958, -0.05501607805490494, 0.082042396068573, -0.13052985072135925, -0.1185540109872818, 0.014261981472373009, -0.07859722524881363, -0.1641780287027359, -0.15477919578552246, -0.08755120635032654, 0.14887069165706635], [0.10523670166730881, -0.0019820015877485275, 0.13183727860450745, 0.1243567168712616, -0.09932803362607956, -0.02591976337134838, -0.09812186658382416, 0.08628007769584656, 0.16051383316516876, 0.14206309616565704, 0.09609691798686981, -0.10451241582632065, -0.0984714925289154, -0.035734206438064575, -0.02359863929450512, -0.07139493525028229, -0.10879784822463989], [0.11592734605073929, 0.09417576342821121, 0.08902769535779953, -0.1444893777370453, -0.06745316088199615, -0.02159692905843258, -0.01572536863386631, -0.16742664575576782, 0.04841627553105354, 0.05181082338094711, 0.021134937182068825, 0.043819360435009, 0.13128720223903656, -0.0674857646226883, 0.12299520522356033, -0.03128524869680405, -0.02365373820066452], [0.06920942664146423, 0.0773356705904007, -0.11822193115949631, -0.007882787846028805, -0.10399623215198517, 0.0383368581533432, 0.09316221624612808, 0.05901951715350151, -0.16687077283859253, 0.04107246175408363, -0.14532102644443512, 0.008016098290681839, -0.1126166507601738, 0.14130432903766632, -0.01001605112105608, 0.012705693952739239, -0.16234000027179718], [0.15178297460079193, -0.11066204309463501, 0.08935398608446121, 0.12741602957248688, -0.13639262318611145, -0.0037165137473493814, -0.0940142348408699, 0.07326433062553406, 0.03209583833813667, -0.03707282245159149, -0.136040598154068, 0.14644365012645721, 0.07891328632831573, 0.07612381130456924, 0.03037712723016739, -0.16459566354751587, -0.11936937272548676], [0.00822843424975872, -0.11759214848279953, -0.11184041202068329, -0.09449822455644608, -0.050196073949337006, -0.15726535022258759, 0.026375455781817436, 0.1685347706079483, -0.15541458129882812, 0.1201038733124733, -0.04187449440360069, 0.1399766206741333, -0.05649038776755333, 0.11489405483007431, 0.1706201583147049, -0.101654551923275, -0.1556117832660675], [0.023686274886131287, -0.012432519346475601, -0.1371794492006302, 0.0475364588201046, -0.14203521609306335, 0.1161193922162056, 0.033748921006917953, -0.06423036009073257, -0.11389515548944473, -0.08028485625982285, -0.10464899986982346, -0.09240809828042984, 0.007490801624953747, 0.11943253129720688, 0.16062062978744507, -0.17337360978126526, 0.05403339862823486], [-0.05242197588086128, -0.0639408752322197, 0.029273008927702904, 0.0386887826025486, -0.00916582252830267, -0.11856409907341003, 0.012042134068906307, 0.16823123395442963, -0.01836540549993515, 0.13837496936321259, -0.01614494062960148, -0.13561858236789703, 0.15369760990142822, -0.11791731417179108, -0.01928275264799595, 0.057818688452243805, 0.005008879117667675], [0.10312727093696594, -0.15290048718452454, 0.1573527753353119, 0.006502626463770866, 0.08867709338665009, 0.027441054582595825, -0.023885630071163177, 0.16571523249149323, -0.12396112829446793, 0.01368965394794941, 0.005528528243303299, 0.00460671354085207, 0.02786559984087944, -0.1424611657857895, -0.051989421248435974, 0.06673689931631088, 0.16464798152446747], [-0.13234710693359375, -0.03192227706313133, -0.11647806316614151, -0.05014490708708763, -0.1765393614768982, 0.06650517880916595, 0.030854590237140656, 0.09623471647500992, -0.025515258312225342, -0.05522271618247032, 0.08064563572406769, -0.059907276183366776, 0.07643398642539978, 0.0021074688993394375, -0.09959407895803452, -0.06685546040534973, 0.15673276782035828], [0.015014034695923328, 0.09271815419197083, 0.05226803570985794, -0.02561497874557972, 0.04401835799217224, 0.17339950799942017, 0.08303140103816986, -0.164277583360672, -0.05010560527443886, 0.15693891048431396, -0.0665404349565506, 0.15968666970729828, 0.11564715951681137, -0.002225163858383894, -0.042496729642152786, 0.007037132512778044, -0.13496507704257965], [-0.03688698261976242, 0.08822791278362274, 0.07717975229024887, 0.1363142430782318, 0.14504386484622955, -0.11527228355407715, -0.04959225654602051, -0.027822187170386314, 0.03657836467027664, -0.08626265078783035, 0.14707300066947937, -0.09595172107219696, -0.013589576818048954, 0.09320802986621857, -0.07757017761468887, 0.129832923412323, 0.11185231804847717], [0.13710561394691467, -0.035093825310468674, -0.036482058465480804, 0.04142487049102783, -0.11651325225830078, -0.07350806146860123, -0.1371215283870697, 0.04422121122479439, 0.12281794100999832, 0.17380207777023315, -0.16793514788150787, 0.05771543085575104, -0.10494925826787949, 0.08910730481147766, 0.1463651955127716, 0.05250656232237816, -0.06039074435830116], [-0.1321626454591751, 0.1156553104519844, -0.07516561448574066, 0.10027053207159042, 0.09905721247196198, 0.09644640237092972, 0.04124317690730095, 0.08245312422513962, 0.01224313210695982, -0.16861611604690552, 0.16484814882278442, -0.0343019925057888, 0.11088886111974716, 0.17020666599273682, 0.07629258185625076, 0.1688583791255951, -0.0061208391562104225], [0.07131832838058472, 0.11018404364585876, -0.024840550497174263, 0.08763044327497482, -0.0047502657398581505, 0.11409187316894531, -0.1322794407606125, 0.10929235816001892, -0.059971824288368225, 0.10813979059457779, -0.16102419793605804, -0.040373288094997406, -0.11406325548887253, 0.08995877951383591, -0.1561252921819687, -0.11664740741252899, 0.12633654475212097], [-0.1154329851269722, 0.1237679272890091, -0.08503459393978119, 0.1067919135093689, -0.17214059829711914, 0.1280437856912613, 0.026193169876933098, 0.052099402993917465, -0.12038713693618774, 0.0006424865568988025, -0.1561567485332489, -0.12775200605392456, 0.09887877851724625, -0.14867176115512848, -0.1039339154958725, -0.07028113305568695, -0.06735064089298248], [0.08548491448163986, -0.12982243299484253, 0.019013075157999992, -0.0542370080947876, -0.1413535475730896, 0.05709462612867355, -0.048159390687942505, -0.03536266088485718, 0.1362353414297104, 0.06806277483701706, -0.1747388243675232, 0.054349351674318314, 0.06461891531944275, 0.036798011511564255, -0.09113054722547531, -0.066451795399189, 0.01675676554441452], [0.14555038511753082, -0.2243121862411499, 0.05550210177898407, 0.15590856969356537, -0.025302451103925705, -0.1655413955450058, -0.055335164070129395, 0.019276345148682594, -0.014556164853274822, 0.0948387086391449, 0.12901848554611206, 0.21326476335525513, -0.0354374460875988, -0.15634800493717194, -0.13946948945522308, 0.007578287273645401, 0.051986608654260635], [-0.025540504604578018, -0.021750280633568764, 0.15395590662956238, 0.07127855718135834, -0.08805511146783829, 0.060589127242565155, 0.13621850311756134, 0.1655450016260147, -0.0926065519452095, 0.05372842401266098, -0.09453493356704712, -0.0721292719244957, 0.08361757546663284, -0.043618131428956985, 0.03283978998661041, 0.00423209136351943, 0.059196531772613525], [-0.03362620994448662, 0.1419101506471634, 0.06835409253835678, -0.16165098547935486, -0.07245161384344101, -0.11812842637300491, -0.04160298407077789, 0.1300857961177826, 0.09654584527015686, -0.021309277042746544, -0.07265222817659378, -0.08223050087690353, -0.07024214416742325, -0.07285921275615692, 0.08198107779026031, 0.11046069115400314, 0.16066816449165344], [0.16605228185653687, -0.100465789437294, -0.03135788440704346, 0.035934824496507645, 0.013188808225095272, 0.08614164590835571, -0.13769139349460602, -0.09332992881536484, 0.07641943544149399, -0.09355862438678741, -0.03869841992855072, -0.09226884692907333, -0.1415129452943802, 0.06733834743499756, 0.014277230948209763, 0.040428176522254944, 0.04773058742284775], [-0.163992241024971, 0.056443143635988235, 0.04819582775235176, 0.024981215596199036, 0.11166428029537201, -0.11342951655387878, 0.15489186346530914, 0.1439058780670166, 0.05227922275662422, 0.16238126158714294, 0.09299470484256744, 0.1270178109407425, -0.08705207705497742, -0.0002911293413490057, -0.11956365406513214, -0.007779823616147041, -0.14511722326278687], [0.16896295547485352, 0.17660798132419586, -0.1264292299747467, -0.07501814514398575, -0.1575818955898285, 0.05047694221138954, 0.14438863098621368, 0.030005479231476784, 0.06015798822045326, 0.012497910298407078, -0.15030017495155334, -0.17203618586063385, -0.13334667682647705, 0.10142894089221954, -0.11526547372341156, 0.05242954194545746, -0.026719562709331512], [-0.19144625961780548, 0.29368388652801514, -0.04423753172159195, -0.10193579643964767, -0.021495474502444267, -0.007292186841368675, -0.053606484085321426, -0.023121651262044907, 0.004150815773755312, -0.09074632823467255, 0.07734416425228119, -0.08816361427307129, -0.02050968073308468, 0.08924275636672974, 0.07021478563547134, 0.03513510525226593, 0.04337865486741066], [-0.15567606687545776, -0.08074726909399033, -0.00966060534119606, 0.07356759905815125, -0.014275158755481243, -0.007993381470441818, 0.026353200897574425, -0.12101289629936218, -0.1179053857922554, 0.035774897783994675, 0.17467817664146423, 0.16563858091831207, -0.02683563530445099, -0.03882070258259773, -0.05701889097690582, 0.09209181368350983, 0.15795427560806274], [-0.1257818341255188, -0.15458816289901733, 0.03404367342591286, -0.16489312052726746, 0.0688115805387497, 0.06263677030801773, -0.07282134145498276, -0.16547958552837372, 0.0054915654473006725, 0.019630273804068565, -0.1298232078552246, 0.1265968680381775, 0.003250048728659749, -0.11852327734231949, -0.11209666728973389, 0.16033020615577698, 0.019056254997849464]], "lstm.weight_hh_l0": [[-0.07532931119203568, -0.15694299340248108, -0.1471080780029297, -0.12233124673366547, -0.09756358712911606, -0.06014363467693329, -0.09720340371131897, -0.10897952318191528, -0.09560645371675491, -0.08045049011707306, 0.15003590285778046, 0.15696236491203308, 0.036442313343286514, -0.08899323642253876, -0.12739558517932892, -0.02069043554365635, -0.057047296315431595, -0.012133614160120487, -0.08756237477064133, -0.02073146589100361, 0.13058024644851685, -0.07714170962572098, 0.12625688314437866, -0.018778569996356964, 0.13560524582862854, -0.047125592827796936, -0.09319091588258743, 0.1052403599023819, 0.038234565407037735, -0.14327262341976166, 0.057477280497550964, -0.04198182001709938], [0.16141806542873383, -0.12169010937213898, 0.007464185822755098, 0.15401069819927216, -0.15595756471157074, -0.14754879474639893, -0.029347630217671394, 0.07226553559303284, -0.15367171168327332, -0.15817543864250183, -0.011009999550879002, -0.012296637520194054, 0.09420351684093475, 0.10787681490182877, 0.029296569526195526, -0.10851559787988663, -0.06520180404186249, 0.11052562296390533, -0.13220444321632385, -0.1212008073925972, 0.10384100675582886, 0.014927949756383896, -0.024105235934257507, 0.17063182592391968, 0.13830409944057465, -0.0004157997318543494, 0.10296548902988434, -0.016900232061743736, -0.03581765666604042, 0.01944057084619999, -0.175933837890625, 0.07501211762428284], [-0.11430231481790543, -0.027223175391554832, 0.1707838922739029, -0.1620398759841919, 0.17571231722831726, 0.14445656538009644, 0.041748031973838806, 0.12450391799211502, 0.10875743627548218, -0.13130217790603638, -0.08512820303440094, -0.11027282476425171, -0.08234012871980667, 0.15514039993286133, -0.09706893563270569, -0.006549851968884468, -0.11639376729726791, -0.10938426107168198, 0.07987432181835175, -0.06719117611646652, 0.03246251493692398, 0.16149772703647614, 0.0015976395225152373, -0.061166033148765564, 0.024789175018668175, 0.012283972464501858, 0.06830712407827377, 0.1295492947101593, 0.1606694757938385, -0.12859408557415009, -0.13947808742523193, 0.16518013179302216], [-0.02714530937373638, 0.1645936369895935, -0.12026459723711014, -0.005043544806540012, -0.03768023103475571, 0.14356358349323273, -0.01253588404506445, -0.16918037831783295, -0.09453991055488586, -0.1690588891506195, 0.1441391408443451, -0.07540511339902878, 0.039848748594522476, 0.11242011934518814, -0.16630123555660248, -0.06080279126763344, -0.14824150502681732, 0.08699450641870499, -0.1692778468132019, 0.1756645143032074, -0.0034831208176910877, 0.05746518447995186, 0.04661323502659798, -0.008701090700924397, 0.14757680892944336, 0.08960814028978348, -0.10897495597600937, 0.024024609476327896, 0.08585727959871292, -0.09035609662532806, -0.04608285799622536, 0.020327594131231308], [0.05334065109491348, -0.13370876014232635, 0.024190962314605713, 0.09463036060333252, -0.0477018877863884, 0.1714615523815155, -0.06751185655593872, 0.11382853984832764, -0.0022653299383819103, -0.015827152878046036, -0.020699454471468925, -0.1706932932138443, -0.06700409203767776, 0.04208061471581459, 0.1015908271074295, 0.053363136947155, -0.03963276743888855, 0.07426021993160248, -0.10686641186475754, 0.13157454133033752, -0.05432591587305069, 0.0015282868407666683, 0.044031571596860886, -0.16927944123744965, 0.16586211323738098, -0.06372898072004318, -0.0016041722847148776, -0.09114483743906021, 0.07938580214977264, -0.1560107320547104, -0.1067151427268982, -0.10176164656877518], [-0.03095943108201027, -0.15486109256744385, -0.13259436190128326, -0.09727933257818222, 0.16376513242721558, 0.08355680108070374, -0.11748096346855164, 0.011479347012937069, -0.062233928591012955, 0.09640438109636307, 0.06357476860284805, -0.01785026490688324, -0.17592237889766693, 0.031598545610904694, 0.04540134221315384, 0.06862086057662964, 0.022271890193223953, 0.1514826864004135, -0.1585482656955719, -0.060282573103904724, 0.16818107664585114, 0.15704220533370972, 0.040602777153253555, -0.020856600254774094, -0.07965025305747986, -0.1362919956445694, 0.1055610179901123, -0.1398177593946457, -0.012271328829228878, 0.07986994087696075, 0.13184754550457, 0.13651183247566223], [-0.11945388466119766, -0.0766381099820137, 0.12420003861188889, -0.14404135942459106, -0.03807411342859268, 0.02428060956299305, -0.01373162493109703, 0.0867769718170166, -0.05226221680641174, 0.022580552846193314, -0.014817272312939167, 0.15908347070217133, 0.1391046643257141, 0.16290965676307678, 0.14248718321323395, 0.1402464658021927, 0.012198561802506447, -0.04978768900036812, 0.03730206936597824, -0.1599494218826294, 0.07441911101341248, -0.16372187435626984, 0.016768628731369972, 0.0949028879404068, 0.17072004079818726, -0.12653492391109467, 0.16586165130138397, 0.11357515305280685, 0.1684766560792923, 0.060630809515714645, -0.09764423966407776, -0.005982091650366783], [0.03268858790397644, -0.16985121369361877, 0.13252103328704834, 0.1253272145986557, 0.17549890279769897, -0.11318723857402802, -0.06109853461384773, -0.02322198636829853, 0.023078687489032745, 0.16312366724014282, 0.04068884253501892, -0.004275038838386536, 0.15981681644916534, 0.12342026084661484, -0.058770112693309784, -0.11007873713970184, 0.10237579047679901, 0.05458284541964531, 0.08243906497955322, 0.0036961310543119907, -0.07961206883192062, 0.021397259086370468, -0.05762188509106636, 0.10092636197805405, -0.07649844884872437, 0.0575508251786232, -0.15693216025829315, 0.1445307433605194, 0.06126859784126282, -0.017998242750763893, 0.04359699413180351, -0.11429502069950104], [0.1304043084383011, -0.0658797174692154, 0.06213170289993286, 0.01911848410964012, -0.14861229062080383, -0.015032452531158924, -0.11509391665458679, -0.028498750180006027, 0.13392741978168488, -0.07531403750181198, 0.11530657112598419, 0.16098472476005554, 0.02239852026104927, 0.17301152646541595, 0.1756376475095749, -0.007432975806295872, 0.11014825850725174, -0.055913716554641724, 0.028767289593815804, -0.15270096063613892, -0.05780033394694328, -0.018401293084025383, 0.0983944907784462, -0.0055717709474265575, -0.1456100046634674, 0.1214132010936737, 0.07266634702682495, -0.16703516244888306, 0.061844177544116974, -0.13400962948799133, 0.15347960591316223, -0.122109554708004], [-0.08584002405405045, -0.1581542193889618, 0.07024836540222168, 0.05975501984357834, -0.006222075782716274, 0.1550687849521637, 0.08432115614414215, 0.0946323350071907, -0.17302273213863373, 0.11465691775083542, 0.04720371216535568, -0.03627973422408104, 0.08859942108392715, 0.15020611882209778, 0.11555500328540802, -0.07095154374837875, -0.15323695540428162, 0.015759170055389404, -0.05291479825973511, 0.11295679956674576, -0.1002945750951767, -0.1315949708223343, -0.04183420166373253, 0.1381358504295349, 0.10583619028329849, 0.020989466458559036, 0.13725754618644714, 0.1402490735054016, -0.1705792248249054, -0.1274954229593277, -0.01953447423875332, 0.17089404165744781], [0.0793817788362503, 0.019364917650818825, 0.07799392193555832, -0.1591499149799347, 0.12164804339408875, -0.14367465674877167, 0.10417017340660095, -0.06831000745296478, -0.03855941444635391, 0.12800481915473938, -0.16408643126487732, -0.15686342120170593, 0.026050208136439323, -0.0080929109826684, 0.042315226048231125, 0.15185119211673737, 0.11095891147851944, -0.10388384759426117, 0.07926879823207855, 0.042270317673683167, 0.026119960471987724, 0.07028690725564957, 0.08206360042095184, -0.14821138978004456, 0.003033371875062585, 0.0635838732123375, 0.014507556334137917, 0.1503087431192398, 0.15870796144008636, 0.07818752527236938, -0.05025630071759224, -0.06627389788627625], [-0.10473624616861343, 0.10738671571016312, -0.07522501796483994, 0.04756143316626549, -0.05266507714986801, 0.06571660935878754, 0.15799854695796967, -0.14004942774772644, 0.13840249180793762, 0.08141361176967621, 0.04264342039823532, 0.041603196412324905, 0.02876933291554451, 0.15326909720897675, -0.12153509259223938, 0.04694351553916931, 0.07711324095726013, 0.029080692678689957, 0.12785235047340393, 0.13257582485675812, -0.03183886781334877, -0.007451036013662815, 0.003894684836268425, 0.1330515444278717, 0.10172506421804428, 0.13230834901332855, 0.14612190425395966, 0.14775462448596954, -0.018284736201167107, 0.024983050301671028, 0.014690347015857697, -0.058912359178066254], [0.020740104839205742, 0.02571716345846653, -0.13414204120635986, 0.15963394939899445, 0.08635307848453522, 0.13246260583400726, 0.1629747450351715, 0.11901498585939407, -0.14217250049114227, 0.07982189208269119, 0.03506160527467728, 0.08119902014732361, -0.11452209204435349, 0.06640414893627167, -0.0941205695271492, 0.12303608655929565, -0.049206677824258804, -0.010047661140561104, 0.046102918684482574, 0.007941119372844696, -0.11299833655357361, 0.1596456915140152, -0.07534199953079224, 0.0058506145142018795, -0.09024737775325775, 0.1655166745185852, -0.12462380528450012, 0.12475201487541199, 0.119362972676754, -0.10944118350744247, -0.08503632247447968, 0.16554464399814606], [-0.09779299050569534, -0.11684463173151016, 0.096539206802845, -0.09410744160413742, -0.11495146155357361, -0.08072436600923538, -0.07043680548667908, 0.03107425943017006, -0.011267791502177715, 0.0010165820131078362, -0.09263822436332703, 0.12992243468761444, -0.11627080291509628, -0.12792430818080902, 0.15230509638786316, 0.07570463418960571, -0.009767594747245312, -0.07256477326154709, 0.14058955013751984, -0.09678437560796738, -0.006690959446132183, 0.0014393148012459278, -0.05942612886428833, 0.17024484276771545, -0.09144772589206696, 0.1128591001033783, 0.02178914099931717, -0.10978777706623077, -0.05618642643094063, 0.06090434640645981, -0.15016113221645355, -0.10130307078361511], [-0.0321805514395237, 0.09647072106599808, -0.12058170884847641, 0.14931803941726685, 0.1306084245443344, -0.11508923768997192, 0.01488203089684248, -0.12625692784786224, 0.09388766437768936, -0.0832110270857811, 0.04305315390229225, -0.1486886590719223, 0.03791216388344765, 0.02728363499045372, -0.09236486256122589, 0.046721022576093674, 0.10780179500579834, -0.1404062956571579, -0.15557318925857544, -0.08529055118560791, -0.10416028648614883, 0.06870625168085098, 0.09507913887500763, 0.028752895072102547, -0.02835199423134327, -0.021991781890392303, 0.10651024430990219, -0.07481154054403305, 0.0822642594575882, 0.13744612038135529, -0.14952188730239868, 0.06646423041820526], [-0.14953960478305817, 0.05770145729184151, 0.06164345145225525, -0.15681041777133942, -0.05208876356482506, 0.16705718636512756, -0.10423840582370758, 0.0025178948417305946, 0.15424536168575287, 0.11471255123615265, 0.12312925606966019, -0.04708896577358246, 0.11946757882833481, -0.03307067230343819, -0.17256683111190796, -0.035192303359508514, -0.040187567472457886, -0.1698261946439743, 0.0036414875648915768, 0.17452242970466614, 0.07636471092700958, -0.1647108644247055, 0.03980034217238426, 0.10997294634580612, -0.1363665759563446, -0.1136075034737587, -0.1357673853635788, -0.16010403633117676, 0.04750870540738106, 0.12082186341285706, -0.11858310550451279, -0.018610171973705292], [-0.0935327485203743, -0.010865815915167332, -0.04965884983539581, 0.09371937811374664, 0.04868852347135544, -0.170204296708107, 0.12988649308681488, 0.06711111962795258, -0.17224004864692688, -0.12444185465574265, 0.011294174939393997, 0.1576911062002182, -0.09080207347869873, -0.13845492899417877, 0.112667016685009, 0.07082980126142502, -0.12353325635194778, -0.11874149739742279, -0.06158090755343437, -0.08147166669368744, -0.14287039637565613, 0.047446709126234055, -0.09117895364761353, -0.025456443428993225, 0.17120985686779022, 0.1489378809928894, 0.1569347083568573, -0.07976849377155304, 0.008480093441903591, 0.019652947783470154, 0.03868585452437401, -0.1713782250881195], [-0.04053470864892006, 0.1687101572751999, 0.04710613936185837, -0.016856830567121506, -0.1319819986820221, -0.09813954681158066, 0.13891053199768066, -0.11759848892688751, -0.09833109378814697, -0.0773317739367485, 0.11042717099189758, -0.12626954913139343, -0.17372587323188782, -0.1318071484565735, 0.029362360015511513, -0.07372815161943436, -0.15234118700027466, -0.0988471508026123, 0.08924578130245209, -0.04836462438106537, 0.022253492847085, 0.13854731619358063, 0.061733879148960114, 0.03604869917035103, -0.14081667363643646, -0.04376954212784767, -0.0972699522972107, -0.05190182104706764, -0.16815169155597687, 0.0024083254393190145, 0.16359148919582367, -0.03673034533858299], [0.1172240599989891, 0.12234728038311005, 0.04895162582397461, 0.02180621027946472, -0.08346924185752869, 0.11719230562448502, -0.1744728833436966, 0.09732301533222198, -0.007780223619192839, -0.15383198857307434, -0.1483006328344345, 0.15395709872245789, -0.06809906661510468, 0.0648423582315445, 0.03704613074660301, -0.11307811737060547, 0.04178883135318756, -0.023994432762265205, 0.1359805464744568, -0.15992988646030426, 0.07218111306428909, -0.12582406401634216, 0.0449981652200222, -0.1757766753435135, -0.05611736699938774, -0.005489078816026449, 0.12804186344146729, 0.07728958129882812, -0.14049094915390015, 0.06933103501796722, -0.1722806841135025, 0.07767925411462784], [-0.06290307641029358, 0.1343849152326584, 0.029855309054255486, 0.09470959007740021, -0.09606286883354187, -0.10110021382570267, 0.05789923295378685, 0.15265803039073944, 0.02846033312380314, 0.0671977773308754, 0.01744755171239376, -0.12148548662662506, -0.11315339058637619, 0.015911299735307693, -0.03512636199593544, -0.020455025136470795, -0.09035679697990417, 0.004114522598683834, 0.043858978897333145, 0.15311799943447113, 0.13880431652069092, -0.12325847893953323, 0.0700935572385788, 0.004242248833179474, 0.13048648834228516, 0.08450980484485626, 0.11445008218288422, -0.0881635993719101, 0.020541636273264885, -0.10764981061220169, -0.10356590896844864, 0.014563084580004215], [0.17221897840499878, 0.0854194164276123, 0.007434493396431208, -0.0069291312247514725, -0.04022861644625664, 0.11332520097494125, 0.0998140424489975, -0.1558215469121933, -0.06470988690853119, -0.04811298847198486, -0.11673623323440552, 0.010976999066770077, -0.07247181981801987, 0.07820627838373184, 0.03273288533091545, 0.11175089329481125, -0.07504941523075104, -0.0199161134660244, -0.04298493638634682, 0.06574036180973053, -0.13650847971439362, -0.07932873070240021, 0.0732635036110878, 0.15594328939914703, 0.16507166624069214, 0.05714520439505577, 0.039706356823444366, 0.16676175594329834, -0.05204583704471588, -0.12562762200832367, 0.09499125927686691, -0.12769843637943268], [-0.09545297920703888, -0.10205288231372833, -0.1289021521806717, -0.01724657416343689, -0.15626837313175201, -0.09699279069900513, -0.15733595192432404, -0.059462711215019226, 0.12558113038539886, -0.025402789935469627, 0.15611641108989716, -0.005233289673924446, -0.016184747219085693, -0.11057436466217041, 0.12391597032546997, -0.08756349235773087, -0.12268222123384476, -0.06777166575193405, 0.17646655440330505, -0.06904393434524536, -0.12012555450201035, 0.17599299550056458, 0.10139930993318558, 0.049846403300762177, -0.09479125589132309, -0.030306091532111168, -0.133267343044281, -0.1551036387681961, -0.045109160244464874, -0.07132064551115036, 0.052069418132305145, 0.0012742677936330438], [-0.1211591437458992, -0.026052124798297882, 0.09157709032297134, -0.08148311078548431, -0.03046494349837303, 0.13607192039489746, -0.16439476609230042, 0.05876107141375542, -0.026391029357910156, -0.16478481888771057, -0.1437879055738449, 0.14883960783481598, 0.09400717169046402, 0.07526036351919174, -0.006354164332151413, 0.1718500256538391, 0.005005591548979282, -0.07518181949853897, -0.15394045412540436, 0.0649203285574913, -0.14401493966579437, 0.08557645231485367, -0.028240853920578957, 0.11848393827676773, 0.12644393742084503, 0.13536064326763153, 0.17619071900844574, 0.05088719725608826, -0.16957415640354156, -0.1585267335176468, 0.046977296471595764, -0.10255253314971924], [-0.09004545211791992, 0.04961036145687103, -0.024175157770514488, -0.15980641543865204, -0.1384400725364685, 0.04560815915465355, 0.13547971844673157, 0.1455722451210022, -0.15331187844276428, -0.0011391449952498078, 0.05352483689785004, -0.14326579868793488, -0.005892888177186251, 0.11362792551517487, -0.07863040268421173, -0.013187474571168423, 0.09144625067710876, -0.10009558498859406, -0.14282475411891937, 0.1631111055612564, -0.09636807441711426, 0.17665860056877136, -0.09862197935581207, 0.0852956548333168, 0.009254289790987968, -0.0048718806356191635, -0.026856012642383575, -0.08732698112726212, -0.08352047204971313, -0.1673894226551056, 0.05992228165268898, 0.029686974361538887], [-0.0801241472363472, -0.01145875733345747, 0.046081192791461945, 0.032438974827528, -0.07032258808612823, -0.16054879128932953, 0.10703594237565994, 0.06625821441411972, 0.06451452523469925, 0.013977116905152798, -0.03381127491593361, -0.14737950265407562, -0.07674326002597809, 0.1109592467546463, 0.1067977100610733, -0.1652859002351761, -0.01896066591143608, -0.16647256910800934, -0.07212098687887192, 0.11384527385234833, -0.17558997869491577, 0.05208085849881172, -0.109404556453228, -0.1664142608642578, -0.013339437544345856, 0.13110114634037018, 0.03880739212036133, -0.1288190633058548, 0.13803362846374512, -0.023452581837773323, 0.11030306667089462, 0.013364428654313087], [0.015247633680701256, 0.024425510317087173, 0.0877913385629654, -0.09097357094287872, 0.048852454870939255, -0.15053340792655945, 0.05109228566288948, -0.12051444500684738, 0.14678451418876648, -0.12116087228059769, -0.16051746904850006, -0.16052189469337463, 0.10739707946777344, 0.13020825386047363, 0.12995284795761108, 0.14979398250579834, 0.1585087925195694, 0.043240662664175034, 0.0565800778567791, 0.08201439678668976, -0.06625452637672424, 0.03767666965723038, -0.009339678101241589, 0.055408626794815063, -0.14436884224414825, 0.10891683399677277, 0.1734102964401245, 0.08118251711130142, 0.12238951772451401, -0.008952938951551914, 0.03841904178261757, 0.01220964640378952], [-0.12046683579683304, -0.09838151186704636, 0.067595474421978, 0.012569433078169823, -0.11949034035205841, 0.001365768606774509, 0.04062298685312271, -0.15308763086795807, -0.1504458338022232, -0.011295460164546967, 0.015852946788072586, -0.13716110587120056, 0.17281889915466309, -0.1036805734038353, 0.010110544040799141, 0.156239315867424, 0.030611256137490273, 0.0249412190169096, -0.07874822616577148, -0.10293710231781006, 0.0014617369743064046, -0.03165978565812111, 0.0003830516361631453, 0.05426821857690811, -0.05703427270054817, -0.12096069753170013, 0.14132753014564514, -0.14000597596168518, 0.12460747361183167, 0.04645887017250061, 0.072539322078228, 0.0314270481467247], [0.0700162798166275, 0.04696924611926079, -0.026939421892166138, -0.15090733766555786, 0.1234174370765686, -0.1497194766998291, 0.15999029576778412, -0.1182183250784874, 0.05018201842904091, -0.16597343981266022, -0.14977839589118958, -0.10401991754770279, -0.14644482731819153, -0.026687700301408768, 0.07153616100549698, -0.0016794465482234955, -0.09637884050607681, 0.030184371396899223, -0.005223680287599564, -0.06738943606615067, 0.047807127237319946, -0.09757711738348007, 0.1450279802083969, -0.01439171563833952, -0.10508831590414047, -0.1605948507785797, 0.1284453272819519, 0.034751929342746735, 0.13693633675575256, -0.13101935386657715, 0.1419811248779297, -0.002157602459192276], [-0.020218832418322563, -0.0739317238330841, 0.009364460594952106, 0.07923636585474014, -0.10179338604211807, -0.14976605772972107, 0.09813621640205383, 0.04388633370399475, 0.11017143726348877, -0.1577049046754837, 0.028495315462350845, -0.022651486098766327, 0.13108769059181213, 0.16777300834655762, -0.11967110633850098, -0.17614693939685822, -0.17383532226085663, -0.11660779267549515, 0.05144880339503288, 0.01572292298078537, -0.13978560268878937, -0.1443525105714798, 0.04373864829540253, 0.060965899378061295, -0.03508859872817993, 0.02922121062874794, 0.08007338643074036, 0.12856851518154144, -0.1592646986246109, 0.008824032731354237, 0.0835798978805542, 0.06818685680627823], [0.08751537650823593, 0.07192514836788177, 0.05666106194257736, -0.17144057154655457, 0.027849148958921432, -0.05312719568610191, 0.1317652463912964, 0.033266086131334305, -0.07525873184204102, 0.14060957729816437, -0.15523110330104828, -0.0821620523929596, -0.060634393244981766, -0.11730887740850449, 0.08435626327991486, -0.1743166595697403, -0.04134877771139145, -0.07204784452915192, -0.02303755097091198, -0.13740016520023346, 0.028542056679725647, -0.17229332029819489, 0.12529200315475464, 0.15768954157829285, 0.09396447986364365, 0.015484962612390518, 0.10866662859916687, -0.14276181161403656, 0.15869927406311035, 0.08481036126613617, -0.03126992657780647, -0.01746460050344467], [0.15528184175491333, -0.14605537056922913, 0.09698794782161713, 0.06723528355360031, -0.16181112825870514, 0.03655381500720978, 0.02415427379310131, 0.013125497847795486, -0.08481806516647339, -0.08582720905542374, -0.05230128765106201, -0.16629070043563843, 0.02232377417385578, -0.054199643433094025, -0.1478077918291092, -0.037804268300533295, 0.08902887254953384, -0.14406754076480865, 0.1555807888507843, 0.003968842327594757, -0.0022885105572640896, 0.052682653069496155, -0.1659536510705948, -0.06565216928720474, 0.06401749700307846, -0.11097504943609238, -0.044548310339450836, 0.010811888612806797, -0.13154317438602448, 0.05629822239279747, 0.08073395490646362, 0.037538088858127594], [0.014658695086836815, 0.17090080678462982, -0.08507859706878662, -0.04642970487475395, 0.07830199599266052, 0.03126777708530426, 0.0991269201040268, -0.07061620056629181, -0.007775903679430485, -0.1728059947490692, -0.12482364475727081, 0.062244951725006104, 0.11433286964893341, 0.08596424758434296, 0.04067356139421463, -0.16161566972732544, -0.14412009716033936, -0.16575376689434052, -0.14726701378822327, 0.14504478871822357, 0.11694496124982834, 0.1618558168411255, 0.14682543277740479, -0.05191408470273018, 0.13159886002540588, 0.16364462673664093, 0.013979287818074226, -0.09407121688127518, -0.12299954891204834, -0.032560061663389206, 0.058957453817129135, 0.014109542593359947], [0.11163540929555893, 0.06819463521242142, 0.08250536024570465, 0.022274566814303398, 0.13370101153850555, -0.16402484476566315, -0.1420872062444687, 0.06410461664199829, 0.09289255738258362, -0.07504300773143768, -0.0623188354074955, 0.11387580633163452, 0.051374055445194244, 0.051423054188489914, -0.06921277195215225, 0.06383685767650604, 0.0787380039691925, 0.04813896864652634, -0.051274992525577545, -0.10578447580337524, 0.08221568912267685, -0.06159070506691933, -0.1592971533536911, 0.11945375800132751, 0.17578044533729553, 0.11853031814098358, 0.10012655705213547, 0.023603541776537895, -0.14343704283237457, 0.03195938467979431, 0.016176382079720497, 0.0771130919456482], [0.11410243064165115, -0.15514947474002838, -0.17158956825733185, 0.09500279277563095, 0.1504378467798233, -0.17048366367816925, -0.05232371389865875, 0.025247985497117043, -0.17345507442951202, -0.0008362566586583853, 0.11940715461969376, 0.09339060634374619, -0.1589965671300888, -0.09939577430486679, -0.16069941222667694, 0.08248696476221085, -0.14798301458358765, 0.13023005425930023, 0.1278308480978012, 0.14454394578933716, -0.11955022811889648, 0.004172453656792641, -0.1511537730693817, 0.12095858156681061, -0.040892377495765686, -0.00861104391515255, -0.11883127689361572, -0.14304682612419128, -0.11657065898180008, -0.03994635492563248, -0.14041131734848022, -0.07706576585769653], [0.08891958743333817, -0.08586187660694122, 0.01051715575158596, -0.12623544037342072, 0.04072677344083786, -0.06893528252840042, -0.10896506905555725, -0.1455322653055191, 0.047031983733177185, -0.051928117871284485, -0.1712670475244522, 0.08415189385414124, 0.1659705638885498, -0.08831174671649933, -0.06086952984333038, 0.08240576833486557, -0.1023292988538742, -0.03396620601415634, 0.08921973407268524, -0.03279384970664978, 0.16964878141880035, 0.14988866448402405, 0.09094139188528061, -0.004395663272589445, -0.12574449181556702, 0.14295506477355957, 0.004867602605372667, -0.16451767086982727, 0.12238188832998276, -0.1339505910873413, -0.0486038513481617, -0.11461713165044785], [-0.04900529980659485, 0.07427726686000824, -0.05455079302191734, 0.027757976204156876, -0.13313254714012146, 0.14973358809947968, 0.06749001890420914, -0.14364206790924072, 0.14744316041469574, 0.0025552581064403057, -0.1264805644750595, 0.05462400242686272, -0.03964043781161308, 0.1125105693936348, 0.08865328133106232, -0.07196597754955292, 0.10042443126440048, -0.06824582070112228, -0.1259288340806961, 0.012577725574374199, -0.12744252383708954, -0.1288585066795349, 0.16812700033187866, 0.15476326644420624, -0.12872552871704102, 0.027605300769209862, 0.14895178377628326, 0.03302646055817604, 0.11048288643360138, -0.17126744985580444, 0.06919945776462555, 0.07770603895187378], [0.09754946827888489, 0.08796176314353943, 0.16849009692668915, 0.16312983632087708, -0.12395097315311432, 0.09237729012966156, -0.07687468826770782, 0.07188861817121506, 0.1484362781047821, 0.05316879600286484, 0.14132525026798248, 0.1394139528274536, -0.15652599930763245, 0.08783388137817383, -0.09364540874958038, -0.016996601596474648, 0.1058790385723114, 0.042236898094415665, -0.09203655272722244, 0.11552543938159943, 0.09588662534952164, -0.11619443446397781, -0.12048427015542984, -0.020084375515580177, 0.16414830088615417, -0.030347226187586784, 0.07991984486579895, -0.1619717925786972, -0.04045996069908142, 0.014847281388938427, -0.021941838786005974, -0.013190888799726963], [-0.07579438388347626, 0.08633385598659515, -0.1443045288324356, -0.04188448190689087, -0.07743602246046066, -0.16329383850097656, 0.1573527455329895, 0.11280275136232376, 0.12005537748336792, 0.06779689341783524, 0.12773557007312775, -0.14853796362876892, -0.053071435540914536, -0.13588005304336548, 0.1212577223777771, 0.1422022581100464, -0.13878680765628815, -0.06601878255605698, -0.05759480595588684, 0.08564399927854538, 0.029747433960437775, 0.05242505297064781, 0.06322313845157623, -0.17054720222949982, -0.022078605368733406, -0.041042473167181015, 0.010691601783037186, -0.11931154876947403, 0.013225090689957142, 0.004959124606102705, 0.10647591948509216, 0.1371057778596878], [0.12035171687602997, 0.003097835462540388, -0.12065351009368896, -0.03204178437590599, 0.06740743666887283, 0.030099887400865555, -0.17522761225700378, 0.15322642028331757, 0.057013560086488724, -0.002565963426604867, -0.15763984620571136, 0.01882779784500599, -0.15801747143268585, -0.05118680000305176, -0.1455654352903366, -0.02154344506561756, 0.13438452780246735, -0.062247078865766525, -0.17272906005382538, 0.09824982285499573, -0.05317889153957367, 0.04311687871813774, -0.14212296903133392, 0.06155907362699509, 0.06846730411052704, 0.1754339188337326, 0.006666767410933971, -0.08936250954866409, 0.14123117923736572, 0.013036547228693962, -0.1348177194595337, -0.14644339680671692], [-0.03633517771959305, -0.020591305568814278, 0.015750762075185776, -0.0989169031381607, -0.08475808799266815, 0.0009244700195267797, -0.023508353158831596, 0.14172033965587616, 0.09147045761346817, 0.05300343409180641, 0.02549576573073864, 0.11439870297908783, 0.009194166399538517, -0.01745338924229145, -0.03500622510910034, -0.0062131197191774845, 0.1396389603614807, -0.007785302586853504, 0.05380913242697716, 0.118342824280262, 0.13535021245479584, -0.03451485559344292, -0.1255151927471161, -0.14946196973323822, -0.1262151002883911, 0.13790005445480347, -0.09193150699138641, 0.022903840988874435, -0.011661316268146038, -0.0031810966320335865, 0.013903296552598476, 0.04631953313946724], [0.10154977440834045, 0.095269575715065, 0.11377977579832077, -0.12390882521867752, 0.12623195350170135, 0.023640673607587814, -0.04318660870194435, 0.0026680429000407457, 0.14535395801067352, -0.12090303748846054, 0.05893794074654579, 0.010302333161234856, -0.01674608141183853, 0.019358215853571892, 0.13137787580490112, -0.0017867734422907233, -0.023102393373847008, -0.14431561529636383, -0.09163700044155121, -0.027131274342536926, 0.042325571179389954, -0.1588454693555832, 0.09072357416152954, -0.0012367571471258998, -0.0900084525346756, -0.022663161158561707, 0.06081370636820793, 0.07307492196559906, -0.14253582060337067, -0.1104656234383583, 0.09227950870990753, 0.007601752877235413], [0.13908636569976807, 0.14465710520744324, -0.16775661706924438, -0.06535692512989044, 0.0036916001699864864, -0.08742941915988922, 0.1334732472896576, -0.10153108090162277, 0.023661304265260696, 0.050909072160720825, 0.05811702460050583, 0.11554040014743805, 0.037062376737594604, -0.026292720809578896, -0.06071004644036293, 0.09607157111167908, -0.12524698674678802, 0.04648460075259209, 0.12417137622833252, 0.061169616878032684, 0.13736498355865479, 0.05328339338302612, 0.14609916508197784, -0.0861145630478859, -0.09969537705183029, -0.01874476857483387, -0.12294313311576843, 0.028241591528058052, 0.05995894968509674, -0.17500726878643036, -0.04813707247376442, -0.04806527495384216], [0.0446164645254612, -0.13577863574028015, 0.08119914680719376, -0.06312523037195206, -0.031701721251010895, -0.053652726113796234, -0.11933373659849167, -0.1398913413286209, 0.09403319656848907, -0.08837403357028961, -0.004628694150596857, 0.043390579521656036, 0.029571956023573875, 0.10791908949613571, 0.022780349478125572, 0.011411637999117374, -0.15520091354846954, 0.025200173258781433, 0.07101501524448395, 0.08269354701042175, -0.06317753344774246, -0.03630407154560089, 0.1302710324525833, 0.013551022857427597, -0.06355452537536621, -0.018348757177591324, 0.0658135861158371, -0.07259202003479004, -0.05469364672899246, 0.14449186623096466, -0.11140857636928558, -0.01302523072808981], [0.020945044234395027, -0.10287735611200333, -0.01932266540825367, 0.08639869838953018, 0.02175702527165413, -0.06625711917877197, -0.06815480440855026, -0.02254205197095871, -0.04532982036471367, 0.09818152338266373, -0.13153547048568726, 0.11482369154691696, -0.15551723539829254, -0.012194010429084301, -0.1719018816947937, -0.01922113262116909, 0.13626188039779663, 0.12817294895648956, 0.16165375709533691, -0.05927880480885506, -0.031430862843990326, -0.03563908115029335, -0.16186928749084473, 0.026268234476447105, 0.11184222251176834, 0.06515517085790634, 0.10912542045116425, -0.1480543315410614, -0.08851265907287598, -0.07768020033836365, 0.04526902362704277, -0.037809789180755615], [-0.13528409600257874, -0.10836498439311981, 0.11358263343572617, 0.14244015514850616, 0.13022811710834503, -0.04312271624803543, -0.16555804014205933, 0.12439298629760742, 0.030563483014702797, -0.13402174413204193, -0.03614288195967674, -0.17540733516216278, -0.0336172953248024, -0.10465976595878601, -0.10934147983789444, 0.13681159913539886, -0.15768618881702423, 0.07472499459981918, 0.12049952149391174, -0.17147181928157806, 0.04952682554721832, -0.1497408002614975, -0.0780969113111496, 0.05106537416577339, 0.16000260412693024, -0.12074267119169235, 0.10748130828142166, 0.1534111052751541, -0.11247063428163528, 0.17208026349544525, 0.09679164737462997, 0.041342560201883316], [0.08109749108552933, 0.0443611815571785, -0.007706909440457821, 0.01727026142179966, 0.05185583606362343, -0.14790919423103333, -0.023889992386102676, -0.051616571843624115, -0.17440812289714813, 0.12498382478952408, -0.0026765356305986643, 0.15818317234516144, 0.10210811346769333, -0.09790356457233429, -0.014103768393397331, 0.081014484167099, 0.06648256629705429, 0.10220829397439957, -0.17518015205860138, 0.02799827791750431, 0.09577677398920059, -0.12069380283355713, 0.12043388187885284, -0.12731538712978363, -0.022067120298743248, -0.09556753188371658, -0.040298350155353546, 0.12040892988443375, -0.04185415804386139, -0.025590280070900917, -0.035981036722660065, 0.04090602323412895], [-0.11406818777322769, -0.05485355481505394, 0.030326953157782555, 0.010389640927314758, -0.1728062629699707, -0.03492867201566696, -0.039365705102682114, 0.13442257046699524, -0.00030807239818386734, -0.05297372117638588, 0.14382191002368927, -0.14251132309436798, -0.1528494656085968, 0.06473542749881744, 0.06005816161632538, -0.0168813094496727, 0.17473027110099792, 0.06432464718818665, -0.11484459787607193, 0.13880561292171478, -0.11893971264362335, -0.033276643604040146, -0.05966876819729805, -0.03458597883582115, -0.07872698456048965, 0.13536682724952698, -0.1613571047782898, 0.09456486254930496, 0.00783429853618145, -0.09820101410150528, -0.03452735021710396, -0.058407269418239594], [-0.026783078908920288, 0.09184647351503372, 0.130062997341156, 0.16257233917713165, -0.11650798469781876, -0.05669115483760834, -0.1557423621416092, 0.0012114900164306164, -0.13567911088466644, -0.027904711663722992, -0.15208569169044495, -0.020609239116311073, 0.05884812772274017, -0.07707716524600983, -0.10537314414978027, 0.09670284390449524, 0.13229039311408997, 0.020539740100502968, -0.17658916115760803, -0.004182568751275539, -0.04522843658924103, 0.08699890971183777, -0.03966404125094414, -0.11321279406547546, -0.008858845569193363, 0.06745956838130951, -0.1350613832473755, 0.09778812527656555, 0.06125032901763916, -0.10547611117362976, 0.057799406349658966, 0.044642575085163116], [-0.12473247945308685, -0.01218385249376297, 0.15825048089027405, -0.08348394930362701, -0.0865178033709526, 0.01667274534702301, -0.09732311964035034, 0.07120739668607712, -0.06958884745836258, -0.05190807953476906, -0.050068240612745285, 0.030336648225784302, -0.010555404238402843, 0.06821589171886444, -0.15164798498153687, -0.05879002809524536, 0.1233808696269989, 0.17317591607570648, 0.09464196860790253, 0.16771353781223297, -0.0019180398667231202, 0.09184794872999191, 0.16980309784412384, 0.007211831398308277, 0.10570448637008667, 0.03480276092886925, 0.11059499531984329, -0.09992735087871552, -0.0063712759874761105, -0.13160084187984467, -0.1614684909582138, -0.014969464391469955], [0.13173913955688477, -0.09678011387586594, -0.16487069427967072, -0.17035290598869324, 0.11738331615924835, 0.12576022744178772, 0.058138035237789154, 0.07925791293382645, 0.04802241176366806, 0.07693441212177277, -0.07447710633277893, 0.11597805470228195, -0.13432632386684418, -0.12124166637659073, 0.14374586939811707, 0.011348502710461617, 0.06428353488445282, 0.08275488764047623, 0.10192050039768219, -0.16138269007205963, 0.013570589944720268, -0.03341705724596977, 0.1104191392660141, 0.1605987697839737, -0.15984191000461578, -0.09762615710496902, -0.11263439804315567, -0.10827116668224335, -0.08852334320545197, -0.09527572989463806, 0.16280148923397064, 0.1547984629869461], [0.15968680381774902, -0.0460321344435215, -0.04230154678225517, -0.16501691937446594, -0.05269590765237808, 0.04760240018367767, -0.08377870172262192, -0.035651806741952896, 0.15556246042251587, 0.15507662296295166, 0.11545543372631073, -0.06989005208015442, 0.07739012688398361, 0.11088479310274124, 0.11462326347827911, -0.14948990941047668, 0.01341224368661642, -0.06768634170293808, -0.12026478350162506, -0.16346155107021332, -0.07284300774335861, -0.014877057634294033, 0.045748695731163025, 0.07579339295625687, 0.030709562823176384, -0.0036075804382562637, 0.10916636139154434, 0.08065690845251083, 0.06833481043577194, 0.10323350131511688, 0.08428802341222763, 0.13087934255599976], [-0.060214631259441376, 0.1685415506362915, 0.003574158065021038, -0.07135093957185745, -0.13183075189590454, 0.013344387523829937, -0.018058454617857933, 0.04510544240474701, -0.05723866820335388, 0.06253277510404587, -0.08722579479217529, 0.1359235644340515, -0.1642857939004898, -0.07733462005853653, 0.1752258837223053, 0.09218805283308029, -0.08281777799129486, 0.1617097556591034, -0.07051859050989151, 0.114204041659832, 0.06198800355195999, -0.1744542270898819, -0.12920218706130981, 0.03731312230229378, -0.10447671264410019, 0.1585492491722107, 0.1548360139131546, 0.06604801118373871, -0.07173800468444824, -0.10103856027126312, -0.12457889318466187, -0.09156233817338943], [-0.13518860936164856, 0.06637422740459442, 0.16197285056114197, 0.06289508938789368, 0.08447899669408798, -0.0546187125146389, 0.06850747019052505, 0.011255821213126183, 0.04769737645983696, -0.10832321643829346, -0.07225368916988373, -0.14960883557796478, 0.06575504690408707, 0.10914229601621628, 0.13491056859493256, 0.1313217133283615, 0.01544007658958435, 0.10434029251337051, 0.131514772772789, 0.1736464500427246, -0.07701898366212845, -0.005713953636586666, -0.17462414503097534, 0.04325069487094879, -0.01238790713250637, 0.12140090018510818, 0.17023494839668274, -0.016569212079048157, 0.015093144029378891, 0.038985688239336014, -0.06697622686624527, -0.14888930320739746], [0.15585729479789734, 0.013245237059891224, 0.036753591150045395, 0.023907609283924103, -0.08966107666492462, -0.14622044563293457, 0.14573317766189575, 0.13609929382801056, 0.12836100161075592, -0.08940916508436203, 0.08479756116867065, -0.15307952463626862, -0.17458999156951904, -0.030339449644088745, 0.15967236459255219, 0.09269503504037857, -0.16300050914287567, 0.17297235131263733, -0.023097969591617584, -0.03246118500828743, -0.0679733157157898, 0.16721850633621216, 0.07478193193674088, -0.10169876366853714, 0.08060816675424576, 0.03244984894990921, -0.14167828857898712, 0.08215061575174332, -0.10235174745321274, -0.07026281952857971, 0.1193530261516571, -0.036300741136074066], [0.06355232745409012, -0.11359340697526932, -0.15078090131282806, 0.07472594082355499, -0.10470699518918991, -0.0003225498367100954, -0.15216270089149475, 0.12566351890563965, -0.08711495995521545, -0.10253561288118362, 0.11723678559064865, -0.13289517164230347, -0.17308062314987183, -0.1700611412525177, -0.05214213952422142, -0.047265876084566116, 0.059174321591854095, -0.16180330514907837, 0.09399893134832382, -0.14543549716472626, -0.1447155624628067, -0.08221202343702316, 0.013887260109186172, -0.026676615700125694, -0.1755731850862503, -0.11587405204772949, -0.04675208777189255, -0.04707963019609451, 0.06521626561880112, -0.05159355700016022, -0.09907221049070358, -0.05922222137451172], [0.031679362058639526, 0.12960682809352875, -0.15457381308078766, -0.1555432379245758, 0.09813333302736282, -0.017379969358444214, 0.1456778198480606, 0.0689556673169136, 0.025014841929078102, -0.13913437724113464, 0.14222563803195953, 0.05395401269197464, -0.06308388710021973, -0.0335308313369751, 0.09220723062753677, 0.02808311954140663, 0.14082545042037964, -0.031357016414403915, 0.15399610996246338, -0.024168217554688454, -0.11838297545909882, -0.1575280725955963, 0.0836213082075119, -0.05780777335166931, 0.15133696794509888, 0.13578051328659058, 0.09964174777269363, 0.17019005119800568, 0.03563277795910835, -0.17562493681907654, -0.07372547686100006, -0.07777100801467896], [0.11451055854558945, -0.07077798992395401, -0.08792736381292343, -0.17131897807121277, 0.032906245440244675, -0.004929284565150738, -0.17355749011039734, 0.04734646528959274, 0.035904888063669205, 0.14743658900260925, 0.02696831151843071, -0.09722750633955002, -0.04401753470301628, -0.11316226422786713, -0.14362148940563202, -0.08982841670513153, 0.02312970533967018, 0.007870177738368511, 0.09253820776939392, -0.06784962862730026, -0.022062230855226517, -0.17449887096881866, 0.1763106882572174, -0.06749138981103897, -0.0791957750916481, 0.09645847976207733, 0.15023425221443176, 0.06145111471414566, 0.08643151074647903, 0.012721870094537735, -0.12114719301462173, 0.0180977713316679], [-0.08571077883243561, 0.03834185004234314, -0.03228536993265152, -0.12361948937177658, -0.16143211722373962, -0.047645892947912216, -0.10614167153835297, 0.1247602105140686, -0.05867515504360199, 0.12162303179502487, -0.15792813897132874, -0.06486962735652924, 0.1284230500459671, -0.061526328325271606, 0.16128218173980713, -0.14498311281204224, -0.03427501767873764, 0.0048609222285449505, 0.12588629126548767, 0.05755994841456413, 0.1017332598567009, 0.08198921382427216, 0.13387362658977509, 0.17362451553344727, 0.041078150272369385, -0.1262597292661667, -0.06215336546301842, 0.13637930154800415, -0.053756408393383026, -0.03455622121691704, -0.13632634282112122, 0.017308466136455536], [0.16262997686862946, 0.030454911291599274, 0.15711084008216858, 0.16140234470367432, -0.13247865438461304, -0.042066242545843124, 0.04143444076180458, 0.1689314842224121, -0.1203443631529808, 0.1522444188594818, 0.10146360844373703, -0.062194500118494034, -0.16003461182117462, 0.06688926368951797, -0.12089909613132477, -0.031510964035987854, 0.0400984063744545, 0.08335042744874954, 0.1687641739845276, -0.10087061673402786, -0.12341996282339096, 0.11226622015237808, 0.12156733870506287, 0.14379823207855225, -0.1142839789390564, -0.15348467230796814, 0.15486927330493927, -0.08307980000972748, -0.1113361045718193, -0.06294391304254532, 0.1563626378774643, 0.12276818603277206], [0.010601850226521492, 0.14338195323944092, -0.1377047300338745, 0.16119462251663208, -0.049750518053770065, -0.14787828922271729, 0.0736297219991684, -0.02316567860543728, 0.13914155960083008, -0.132166787981987, 0.01278421375900507, -0.02736329287290573, 0.062351349741220474, 0.012457028031349182, -0.1498204469680786, 0.1130339503288269, -0.10582274943590164, 0.1233629584312439, 0.01973075233399868, -0.004809355828911066, -0.17392297089099884, 0.1578824520111084, 0.13844171166419983, 0.1025247797369957, -0.10690880566835403, 0.10493884235620499, 0.06340079009532928, 0.005155929364264011, -0.04260321334004402, -0.0014551199274137616, -0.08910619467496872, -0.16901397705078125], [-0.1383177787065506, -0.15682287514209747, 0.12189479172229767, 0.10420472919940948, 0.12292671948671341, 0.01744445413351059, -0.06037898361682892, -0.03409384936094284, -0.14088577032089233, -0.0115573825314641, 0.15533845126628876, -0.09579059481620789, -0.09533281624317169, -0.08036600798368454, -0.15946198999881744, 0.09206658601760864, -0.03546985983848572, 0.041190579533576965, 0.11379294842481613, -0.16653122007846832, 0.15928396582603455, 0.027256472036242485, -0.07976286858320236, 0.17519725859165192, -0.04540248215198517, -0.020677665248513222, -0.13354475796222687, 0.1616562008857727, -0.011928105726838112, -0.048158567398786545, 0.09112144261598587, 0.13308826088905334], [0.005357665009796619, -0.08556560426950455, -0.16048593819141388, 0.05045643448829651, 0.08909577876329422, -0.06737099587917328, -0.004278853535652161, 0.09091945737600327, -0.15878981351852417, -0.0763101577758789, -0.14377661049365997, -0.05949889495968819, 0.011547161266207695, -0.13950632512569427, 0.13310378789901733, 0.035629574209451675, -0.045878488570451736, -0.1415405124425888, 0.10109996050596237, -0.1704951524734497, 0.07804898917675018, 0.13643121719360352, -0.11147186160087585, 0.12384777516126633, 0.04267406091094017, 0.010985154658555984, -0.09599374234676361, 0.018261680379509926, -0.02909681387245655, -0.08615380525588989, 0.0010291627841070294, 0.06322132796049118], [-0.05898963287472725, -0.08798597007989883, -0.084323450922966, -0.14956921339035034, -0.10368721187114716, 0.036090534180402756, 0.08639838546514511, 0.07093287259340286, -0.10841210186481476, 0.12146613746881485, 0.11616840958595276, -0.11064544320106506, 0.1580578088760376, 0.15912047028541565, 0.03225652128458023, -0.03704524412751198, 0.08269008994102478, 0.02995043434202671, -0.12417887896299362, 0.042836811393499374, 0.1198892593383789, -0.1693488210439682, 0.0751374214887619, -0.13580431044101715, -0.06174635514616966, -0.07152608782052994, -0.12546660006046295, -0.12561476230621338, -0.06609118729829788, -0.0017514122882857919, 0.09739409387111664, 0.1433715671300888], [-0.09734395891427994, -0.1697521209716797, 0.0026019145734608173, 0.14850850403308868, -0.10069867968559265, -0.08729121834039688, -0.14309050142765045, -0.04772363603115082, 0.1635277420282364, 0.16481006145477295, -0.04998578131198883, -0.05828247219324112, -0.12737368047237396, -0.08380963653326035, 0.14988169074058533, -0.05559666454792023, 0.10367114841938019, -0.08632408082485199, 0.13682609796524048, -0.09986001998186111, 0.04670104756951332, 0.05636909231543541, 0.17113827168941498, -0.14287257194519043, -0.016504347324371338, -0.14818517863750458, -0.035618238151073456, 0.007238320540636778, -0.148586243391037, -0.05350639298558235, -0.13771575689315796, -0.027302833274006844], [-0.09358467161655426, 0.14513792097568512, 0.03537306934595108, 0.13750246167182922, -0.06994499266147614, 0.142581969499588, 0.16681014001369476, -0.06131649762392044, 0.09813438355922699, 0.07653627544641495, -0.10366206616163254, -0.11543616652488708, -0.008472401648759842, -0.13956744968891144, 0.02646067552268505, -0.10297189652919769, 0.027802083641290665, -0.06423257291316986, -0.12831875681877136, -0.04644622653722763, 0.03647744283080101, 0.0032243181485682726, 0.10527555644512177, -0.043741557747125626, -0.012356781400740147, 0.1438952386379242, 0.14009656012058258, 0.09678928554058075, 0.15825170278549194, -0.06409041583538055, 0.05812804773449898, 0.16435593366622925], [-0.07514999806880951, -0.1457466036081314, 0.0007910752319730818, -0.15178696811199188, 0.11421656608581543, 0.07700469344854355, -0.08880334347486496, -0.03799772262573242, -0.1203061118721962, 0.014268077909946442, -0.09357443451881409, -0.10781095921993256, 0.061405282467603683, -0.11827067285776138, 0.003207796486094594, 0.004119412042200565, 0.04870302230119705, -0.051789309829473495, -0.16589659452438354, 0.011235043406486511, -0.09672809392213821, -0.1748649775981903, -0.07649220526218414, -0.05889952555298805, -0.08031981438398361, -0.04083835706114769, -0.04210600629448891, 0.1570865511894226, -0.016945751383900642, -0.056142572313547134, 0.09789897501468658, -0.02912374585866928], [-0.10707094520330429, -0.11249638348817825, -0.14188234508037567, -0.12837697565555573, -0.16488610208034515, 0.13157546520233154, -0.14588487148284912, -0.1595337986946106, -0.03486745432019234, 0.17333826422691345, 0.09892784059047699, 0.09666478633880615, -0.13556057214736938, 0.024265963584184647, 0.1711454689502716, 0.02610383927822113, -0.137891486287117, 0.08811982721090317, -0.012092710472643375, -0.148019939661026, -0.12850888073444366, -0.035768598318099976, 0.020998740568757057, 0.17357298731803894, -0.0031215220224112272, 0.15741868317127228, 0.04083110764622688, 0.06112458184361458, -0.07605982571840286, -0.023093417286872864, 0.16343365609645844, -0.12194433808326721], [0.022526899352669716, 0.1559428870677948, -0.06136081740260124, -0.040014784783124924, -0.008731204085052013, -0.0054355524480342865, -0.044213201850652695, 0.061139967292547226, -0.04148010537028313, 0.12973080575466156, -0.12194640189409256, 0.08258455991744995, 0.09704029560089111, 0.04577343538403511, 0.03334047645330429, -0.11800797283649445, 0.0076342481188476086, 0.11769389361143112, 0.1721375435590744, 0.08407889306545258, -0.05894576013088226, 0.07959577441215515, -0.12802760303020477, -0.0017698726151138544, 0.08653763681650162, -0.1613941192626953, -0.13680428266525269, -0.14911657571792603, 0.12071284651756287, -0.12085849046707153, 0.165726900100708, -0.004045212175697088], [0.1541505753993988, -0.041513822972774506, -0.06994623690843582, -0.16132394969463348, 0.06222078204154968, 0.01425467524677515, 0.1660889834165573, -0.047737520188093185, 0.14950866997241974, 0.1178588792681694, 0.01639198325574398, 0.03211187198758125, 0.13405005633831024, -0.10968668758869171, -0.013490636833012104, 0.1553855836391449, -0.09260676056146622, 0.010549039579927921, -0.09389982372522354, -0.09097333997488022, 0.05591314658522606, 0.10740911215543747, -0.023764457553625107, 0.15455299615859985, -0.08614775538444519, -0.04015401750802994, -0.014871999621391296, -0.17308127880096436, 0.0811491385102272, 0.06931518763303757, 0.09567131847143173, 0.0592675507068634], [-0.1233004778623581, 0.10695116966962814, 0.031957805156707764, 0.006804503034800291, 0.13466444611549377, -0.127681702375412, -0.09008214622735977, -0.09113134443759918, 0.09464839845895767, 0.13044825196266174, -0.06180723384022713, 0.053196150809526443, -0.06946437060832977, 0.005674145650118589, -0.054190393537282944, -0.05481661111116409, -0.058323122560977936, -0.07672660797834396, -0.08221254497766495, -0.1092248409986496, -0.1309463083744049, -0.0235200896859169, -0.04148585721850395, 0.16923828423023224, -0.04971524327993393, 0.015015531331300735, 0.05889946222305298, -0.08418548107147217, -0.07798133790493011, -0.004675686825066805, 0.16804981231689453, -0.08836693316698074], [0.15318937599658966, 0.13163498044013977, 0.03335826098918915, -0.15416401624679565, -0.13234317302703857, -0.09880965948104858, -0.02508040890097618, -0.03772085905075073, 0.020416922867298126, -0.04879247769713402, 0.01952393725514412, 0.07937587797641754, -0.06064824014902115, -0.10721471160650253, -0.16861841082572937, 0.13948452472686768, -0.13106034696102142, -0.1090603619813919, 0.09993968158960342, -0.1116948351264, -0.01674846187233925, -0.1457509845495224, 0.17065750062465668, -0.019003909081220627, 0.002882106928154826, -0.016784876585006714, -0.11480769515037537, 0.05540388450026512, 0.013263781554996967, -0.035509563982486725, -0.03706926852464676, -0.155551016330719], [-0.05114688724279404, -0.008306382223963737, -0.1394778937101364, 0.0040390510112047195, -0.0056212530471384525, -0.014104210771620274, -0.07595019787549973, 0.11679185926914215, -0.059879135340452194, -0.11597476154565811, 0.10831817239522934, -0.06912561506032944, 0.007837711833417416, 0.020522627979516983, -0.08616653084754944, -0.14164775609970093, -0.03930364176630974, -0.11811511963605881, -0.10221748799085617, 0.055446431040763855, 0.13257542252540588, 0.07235914468765259, -0.03158031776547432, -0.17466779053211212, -0.12243378162384033, -0.09125926345586777, -0.0815482959151268, 0.017458362504839897, -0.0612226165831089, -0.15731480717658997, -0.12309852987527847, 0.17552688717842102], [-0.09159936755895615, 0.08076301217079163, -0.06290347129106522, -0.13545775413513184, 0.07988522201776505, 0.0004444595833774656, -0.11307809501886368, -0.11821375042200089, -0.03555765002965927, 0.1270853728055954, -0.1703166961669922, -0.09695825725793839, 0.08754850924015045, -0.08789920806884766, -0.1613432615995407, 0.12125003337860107, 0.07814992964267731, 0.08297205716371536, -0.10019610077142715, -0.07378901541233063, 0.06894870102405548, 0.05388335511088371, 0.0036978800781071186, -0.16903400421142578, -0.092985600233078, -0.11308369785547256, -0.04538347199559212, -0.09169264137744904, -0.053554270416498184, 0.1283433735370636, -0.025989748537540436, -0.06435530632734299], [0.16660241782665253, 0.04898688197135925, -0.08555873483419418, 0.1414531171321869, 0.16926436126232147, -0.03039809875190258, 0.13994178175926208, 0.17120838165283203, 0.11232537776231766, -0.007917053997516632, -0.11167626827955246, 0.15307943522930145, 0.08686018735170364, 0.10712314397096634, 0.13933339715003967, -0.10823912918567657, 0.15255877375602722, -0.1727871149778366, 0.15468525886535645, -0.1623772233724594, 0.022060228511691093, -0.16429173946380615, -0.09839177131652832, -0.0426286906003952, 0.09832499176263809, -0.04494750499725342, -0.16869689524173737, 0.07468535006046295, 0.0413350984454155, -0.01855030283331871, 0.08750022947788239, -0.1529335081577301], [-0.031117482110857964, -0.12208808213472366, 0.11985792219638824, 0.07901794463396072, -0.1569792628288269, -0.10355470329523087, -0.03899295628070831, -0.1281886100769043, -0.08994550257921219, 0.1408761739730835, 0.1278911978006363, -0.0422966368496418, 0.06831991672515869, 0.17243286967277527, 0.06595530360937119, 0.05072784051299095, 0.12449634820222855, 0.013253645040094852, -0.0457288883626461, -0.022207215428352356, 0.028135675936937332, 0.10698254406452179, -0.145116925239563, -0.10906356573104858, -0.17193128168582916, 0.09265316277742386, 0.12458127737045288, 0.02912244014441967, -0.10299288481473923, 0.030897727236151695, 0.12295757234096527, 0.01396344043314457], [0.005819173064082861, 0.07361096888780594, 0.12434574216604233, -0.15127867460250854, 0.13271421194076538, -0.029116539284586906, 0.13925284147262573, 0.16693952679634094, -0.10027386248111725, -0.039042625576257706, -0.12647190690040588, 0.04303079470992088, -0.0594259612262249, -0.1739322394132614, 0.1641884446144104, 0.0745752826333046, -0.011937040835618973, 0.030514191836118698, -0.020235713571310043, 0.10310659557580948, -0.11997013539075851, 0.07999541610479355, -0.024227019399404526, 0.07259516417980194, -0.05099621042609215, -0.17582298815250397, 0.17373214662075043, -0.12281018495559692, 0.04944455251097679, 0.15619629621505737, -0.08735254406929016, 0.11664243042469025], [-0.01963231712579727, 0.04081130027770996, 0.007929001934826374, 0.1531766653060913, -0.13817472755908966, 0.12024788558483124, 0.02539994567632675, -0.07725940644741058, 