{"lstm.weight_ih_l0": [[-0.17029444873332977, -0.011288801208138466, -0.026940686628222466, -0.09532322734594345, -0.0577532984316349, -0.08717095851898193, 0.16832667589187622, 0.14181692898273468, 0.07729095220565796, -0.15638074278831482, 0.06695439666509628, -0.15212368965148926, 0.08417697250843048, 0.14927569031715393, -0.06339935213327408, 0.009790944866836071, -0.06935227662324905], [0.14766539633274078, 0.1567160040140152, 0.07535848766565323, -0.08729458600282669, -0.13683485984802246, -0.13631726801395416, -0.057955894619226456, 0.1528496891260147, 0.13539756834506989, 0.17194195091724396, 0.012003527022898197, 0.11035598069429398, 0.16423118114471436, -0.14671257138252258, -0.13719168305397034, -0.15265190601348877, 0.08314591646194458], [-0.1496562659740448, 0.03261561319231987, 0.020774919539690018, 0.05550512298941612, 0.1228734627366066, 0.10004021972417831, 0.028602030128240585, 0.03377903252840042, -0.04017580673098564, 0.08677127957344055, -0.007612142246216536, 0.12016884237527847, 0.08652115613222122, 0.10734770447015762, 0.09400734305381775, -0.05490177124738693, 0.12099812179803848], [0.06022722274065018, -0.026746736839413643, -0.1110057383775711, 0.16833829879760742, -0.06454784423112869, 0.0866289883852005, -0.03712674230337143, -0.028918912634253502, -0.13312555849552155, -0.0792015790939331, -0.14602936804294586, -0.07585033029317856, 0.07626364380121231, 0.16171346604824066, 0.13804315030574799, 0.16808517277240753, -0.09036916494369507], [0.11037580668926239, -0.08955088257789612, -0.14504176378250122, 0.10025162994861603, -0.10111171752214432, -0.012350817210972309, -0.08335202932357788, -0.13140691816806793, 0.09611190110445023, 0.12313937395811081, -0.1634160429239273, -0.16278821229934692, -0.11005882173776627, 0.1526942402124405, 0.0290189478546381, -0.08189092576503754, -0.03851509466767311], [-0.12821991741657257, 0.13497503101825714, 0.10299370437860489, 0.09002244472503662, -0.14443650841712952, 0.10073398053646088, -0.15367501974105835, -0.010639213025569916, -0.0027357519138604403, 0.017561642453074455, -0.054410990327596664, -0.07206008583307266, -0.024976074695587158, -0.05248662829399109, 0.16875006258487701, -0.08939820528030396, 0.0496772900223732], [-0.1436871886253357, 0.16291484236717224, 0.07627447694540024, -0.06103748828172684, 0.16263100504875183, -0.12859532237052917, -0.017228946089744568, -0.11163027584552765, 0.1645960956811905, 0.03362400084733963, -0.08135724067687988, 0.09797345101833344, -0.09095606952905655, 0.03935140371322632, 0.1506762057542801, -0.15376099944114685, -0.1452164649963379], [-0.09259959310293198, 0.028130218386650085, 0.14192083477973938, -0.12544241547584534, -0.07398571819067001, 0.04268443211913109, -0.11056618392467499, -0.04793179780244827, -0.1563558131456375, 0.16474686563014984, -0.13121220469474792, -0.1373969465494156, 0.1357937902212143, 0.11551722139120102, -0.1250523328781128, 0.11965184658765793, -0.13520973920822144], [-0.04649101570248604, 0.2411370724439621, 0.04526815190911293, -0.09231175482273102, -0.04970730468630791, 0.14842252433300018, -0.0442235954105854, 0.04297998920083046, -0.10084442794322968, -0.13066700100898743, -0.007599081844091415, -0.11217715591192245, 0.08595697581768036, 0.11532137542963028, 0.03949107974767685, -0.04312236234545708, -0.11543376743793488], [-0.13690876960754395, 0.19357354938983917, -0.01704421453177929, -0.09998252987861633, -0.03901827707886696, -0.1040969118475914, -0.034649427980184555, -0.01592562161386013, 0.079795241355896, -0.03996629640460014, -0.10454970598220825, -0.1040194109082222, 0.015057113021612167, -0.060509953647851944, 0.16442804038524628, -0.0018295447807759047, -0.12011119723320007], [0.019771181046962738, -0.119440957903862, 0.08837908506393433, 0.19885697960853577, -0.0447208471596241, 0.17497973144054413, -0.06027322635054588, -0.14828583598136902, -0.00786574650555849, -0.021613992750644684, 0.14912694692611694, 0.1795690357685089, -0.0482877679169178, -0.017788011580705643, -0.12908916175365448, 0.048244595527648926, 0.03683822974562645], [-0.13079552352428436, 0.03287651017308235, 0.08476211875677109, -0.006714342162013054, -0.061992280185222626, -0.15035799145698547, -0.13256213068962097, 0.07242602854967117, 0.14856532216072083, 0.10812409967184067, -0.1514466255903244, 0.16848205029964447, 0.13451087474822998, 0.1247074156999588, 0.14488722383975983, -0.12166287004947662, 0.12760703265666962], [-0.2414282262325287, 0.17344915866851807, -0.012309241108596325, -0.07346712052822113, -0.05986059084534645, -0.09811443835496902, -0.07762061804533005, 0.029050832614302635, 0.08014796674251556, -0.13663038611412048, -0.012408357113599777, -0.05254136025905609, 0.016813933849334717, 0.008741052821278572, 0.21932053565979004, -0.06956866383552551, 0.08322026580572128], [0.14574158191680908, -0.13655172288417816, 0.09600232541561127, 0.09230966866016388, -0.02205350622534752, -0.1017073392868042, 0.15976713597774506, 0.12417854368686676, -0.08593868464231491, 0.043221864849328995, -0.04803202301263809, 0.12460003048181534, -0.1016230434179306, 0.16712118685245514, 0.1650199145078659, -0.026671895757317543, 0.07737680524587631], [-0.0262126624584198, 0.13015314936637878, 0.11320457607507706, 0.1324739307165146, 0.12867727875709534, -0.03672328591346741, -0.1540759801864624, -0.158057302236557, -0.04338670149445534, -0.026922499760985374, 0.1651628166437149, -0.0116715794429183, -0.07965191453695297, -0.06299817562103271, -0.09784223884344101, 0.09546969085931778, -0.16748720407485962], [0.12734778225421906, 0.11318502575159073, -0.10638406127691269, 0.09724858403205872, -0.16547657549381256, -0.17004278302192688, 0.09332793205976486, 0.11790620535612106, 0.16058914363384247, -0.14376820623874664, -0.009179499000310898, -0.13376165926456451, -0.13151055574417114, 0.04511280730366707, -0.1495627909898758, 0.16970720887184143, 0.04496046528220177], [-0.1354905515909195, -0.12463238090276718, -0.07911919802427292, -0.1550815850496292, -0.026952002197504044, 0.02911980450153351, 0.003056552726775408, -0.14454694092273712, -0.04990650340914726, 0.13249638676643372, -0.04801126569509506, -0.05482242628931999, 0.003494078991934657, -0.09914396703243256, 0.022687459364533424, -0.06207718700170517, 0.05549268797039986], [-0.143864244222641, 0.10196372121572495, 0.05811932310461998, 0.1050611361861229, 0.004812263883650303, 0.05142004042863846, 0.16083575785160065, 0.14503857493400574, -0.14566002786159515, 0.03086243011057377, 0.1390235871076584, 0.1445837914943695, -0.03573445603251457, -0.034700214862823486, -0.024396471679210663, 0.04182988405227661, -0.15242403745651245], [-0.032906994223594666, -0.022518428042531013, 0.07003975659608841, -0.12397537380456924, 0.03327447175979614, -0.024665599688887596, -0.15913383662700653, 0.08794106543064117, 0.16625089943408966, 0.11363068222999573, -0.12648692727088928, -0.16088904440402985, -0.17430810630321503, 0.020358571782708168, 0.011565685272216797, -0.08895006030797958, 0.12556031346321106], [-0.13126064836978912, -0.1542675793170929, 0.05393930524587631, 0.012119305320084095, 0.0649491548538208, -0.17389380931854248, -0.03606840968132019, 0.16133037209510803, -0.038492947816848755, -0.08185449242591858, -0.01736902818083763, -0.007511558942496777, 0.1720024198293686, 0.015968218445777893, -0.07444459199905396, 0.12425122410058975, -0.030556991696357727], [-0.1698610484600067, -0.0030694915913045406, 0.07881441712379456, -0.059596043080091476, 0.0966307744383812, -0.15347424149513245, -0.15089549124240875, -0.1261780560016632, -0.09800758212804794, -0.16498571634292603, 0.0846126452088356, 0.05346902832388878, -0.1206251010298729, 0.014327146112918854, 0.0017218041466549039, 0.12865743041038513, 0.011927199549973011], [-0.08972429484128952, 0.03554479777812958, -0.04764140769839287, 0.15310151875019073, 0.013330542482435703, 0.1436060220003128, -0.15354707837104797, -0.0038079465739428997, 0.12166532874107361, 0.04861835017800331, 0.16631174087524414, -0.047730039805173874, 0.16746653616428375, -0.13902336359024048, -0.08454430103302002, 0.12355341762304306, -0.006552001461386681], [-0.08909185975790024, 0.1323247104883194, 0.043281231075525284, 0.05418883264064789, 0.17503058910369873, -0.04380347207188606, 0.058768320828676224, 0.01827653869986534, -0.05425114929676056, 0.11703667789697647, 0.012661924585700035, 0.06611881405115128, 0.025338685140013695, 0.14330726861953735, -0.12282369285821915, 0.049953266978263855, 0.0635690987110138], [-0.12188705056905746, -0.0673680305480957, -0.07980533689260483, -0.13687090575695038, -0.09926421195268631, -0.05124419927597046, -0.07401416450738907, 0.012911854311823845, -0.023144559934735298, 0.052047550678253174, 0.21409595012664795, 0.06212898716330528, -0.05733664333820343, 0.1718975305557251, 0.21128949522972107, 0.02579372748732567, 0.139522984623909], [0.11331049352884293, 0.13459938764572144, 0.1468411535024643, 0.007433481514453888, -0.021611260250210762, 0.1618572622537613, -0.12120340019464493, 0.14427493512630463, 0.11984904855489731, -0.17240530252456665, -0.11834653466939926, 0.14189022779464722, 0.11844471842050552, -0.022420648485422134, -0.004985761363059282, 0.13602018356323242, 0.15433469414710999], [-0.15278242528438568, 0.024736111983656883, -0.13517990708351135, -0.11169460415840149, -0.03454869985580444, -0.06993268430233002, 0.028212089091539383, 0.14449898898601532, -0.04924924671649933, -0.15848781168460846, -0.08158371597528458, -0.09029359370470047, -0.039007287472486496, 0.021674374118447304, 0.1052413359284401, 0.1358683705329895, 0.04825592786073685], [-0.1270025074481964, 0.016580190509557724, 0.1054132729768753, 0.12011408805847168, -0.1478046327829361, 0.030405621975660324, -0.016395650804042816, 0.07958119362592697, 0.11497664451599121, 0.08362846821546555, 0.17261812090873718, -0.1028716042637825, -0.167353093624115, -0.11070394515991211, 0.11757154017686844, -0.024414699524641037, 0.12294182926416397], [0.13564546406269073, 0.15733788907527924, 0.022382505238056183, -0.12103491276502609, -0.11488259583711624, -0.007253809832036495, 0.02446533925831318, 0.12660543620586395, -0.07729984819889069, 0.050562795251607895, -0.034760382026433945, 0.07611697167158127, -0.018150096759200096, 0.03794078156352043, 0.02369835041463375, -0.09081604331731796, -0.01799950748682022], [-0.10060648620128632, -0.04864620789885521, 0.050426553934812546, -0.04656476527452469, -0.08109395205974579, 0.1604759842157364, 0.017493870109319687, -0.09437509626150131, 0.10977909713983536, -0.08995895087718964, -0.16796328127384186, -0.08048897236585617, 0.12477930635213852, 0.12007489055395126, 0.0450146459043026, -0.07088393718004227, -0.12686319649219513], [0.2186780422925949, -0.154377743601799, 0.04576297849416733, 0.08949830383062363, -0.136888787150383, 0.09026478976011276, -0.06446579098701477, -0.047750186175107956, 0.13409306108951569, 0.1305522322654724, 0.07393485307693481, 0.10157620906829834, -0.06633014976978302, -0.025238903239369392, -0.14436234533786774, 0.03378402814269066, 0.08179611712694168], [0.005023503676056862, -0.023856190964579582, 0.08767589926719666, -0.08731786161661148, 0.08719535917043686, -0.019054926931858063, -0.033747147768735886, 0.039569735527038574, 0.14967773854732513, 0.13173966109752655, 0.04973751679062843, -0.02494366280734539, 0.01210965309292078, 0.1748107522726059, -0.07232782244682312, 0.1699238270521164, 0.0026087635196745396], [0.09647044539451599, 0.11151063442230225, -0.13702701032161713, 0.16260892152786255, -0.13905376195907593, 0.13861560821533203, 0.1472461223602295, 0.09546857327222824, -0.0994771420955658, -0.04788535088300705, 0.07089131325483322, -0.07687793672084808, 0.0018279720097780228, 0.08572495728731155, 0.006645925808697939, 0.03408990800380707, 0.0876394584774971], [0.13484856486320496, -0.035293348133563995, 0.16009320318698883, 0.06894014775753021, -0.13790655136108398, 0.10080242902040482, -0.09151577204465866, -0.13059574365615845, -0.15087705850601196, 0.17028610408306122, 0.035125140100717545, -0.16688694059848785, 0.00037613953463733196, -0.14781898260116577, 0.06463573127985, 0.02971850149333477, -0.05080147087574005], [-0.06197917461395264, -0.1548701673746109, -0.038886092603206635, 0.08410287648439407, -0.11962832510471344, -0.14393846690654755, -0.03801148384809494, -0.1418929100036621, -0.16471228003501892, 0.06527528911828995, 0.16900520026683807, 0.03025926649570465, 0.05993958190083504, 0.12901830673217773, 0.021464714780449867, -0.12040338665246964, 0.10931918770074844], [-0.054980140179395676, -0.016397105529904366, 0.06747185438871384, 0.10640568286180496, 0.0029920467641204596, -0.10206596553325653, -0.1583828330039978, 0.043815210461616516, -0.16085411608219147, -0.09552855044603348, -0.1596134603023529, -0.07080543786287308, 0.09473281353712082, -0.08107816427946091, -0.04665868729352951, -0.1619422286748886, -0.16381406784057617], [-0.09526389092206955, 0.04574275389313698, -0.10640353709459305, 0.13323640823364258, -0.029706034809350967, -0.16108664870262146, 0.07587148249149323, -0.011641675606369972, -0.0983097180724144, 0.08469963073730469, 0.11713408678770065, 0.03106987662613392, -0.040826037526130676, 0.1005198284983635, -0.02007591724395752, 0.1478477418422699, 0.1551690399646759], [-0.0027515781112015247, -0.12578533589839935, 0.1519675850868225, -0.04396820440888405, -0.1569404900074005, -0.07610923796892166, 0.1677309274673462, -0.16798463463783264, 0.05072103440761566, 0.08758321404457092, 0.10635411739349365, 0.07278313487768173, -0.026365002617239952, 0.002723065670579672, -0.10297977179288864, -0.13788528740406036, 0.16314484179019928], [-0.14277394115924835, -0.127579927444458, 0.1294110268354416, -0.10999321937561035, -0.05513071268796921, -0.17671425640583038, 0.1321791112422943, 0.03330475464463234, 0.03426270931959152, -0.12012043595314026, -0.14534488320350647, 0.08395040780305862, -0.12717826664447784, -0.1074424535036087, 0.045769158750772476, -0.10320456326007843, 0.10129349678754807], [0.14831355214118958, -0.030124543234705925, 0.10244166105985641, -0.14170458912849426, 0.14978258311748505, -0.09813331067562103, -0.11274325847625732, -0.1543281078338623, 0.010040580295026302, -0.001984273549169302, -0.1660667210817337, 0.1641676425933838, 0.14792068302631378, -0.16455833613872528, 0.10093923658132553, -0.01316075399518013, -0.112938292324543], [-0.013846040703356266, 0.13107934594154358, 0.01896892674267292, 0.12189671397209167, -0.11773068457841873, 0.17484183609485626, -0.14836926758289337, 0.05986923724412918, 0.13458049297332764, -0.0021943545434623957, -0.020137891173362732, 0.015951991081237793, 0.09363982081413269, -0.08046267181634903, -0.058077894151210785, -0.13270094990730286, 0.13186098635196686], [-0.13111141324043274, 0.08564896881580353, -0.10584283620119095, -0.06848518550395966, 0.09274318814277649, -0.143117293715477, 0.021720850840210915, 0.11014876514673233, -0.08529245108366013, -0.10563046485185623, 0.13084864616394043, -0.13836535811424255, 0.0032616285607218742, 0.013149627484381199, 0.07404810190200806, -0.025862252339720726, -0.13547423481941223], [-0.10216628015041351, 0.025907330214977264, -0.10988545417785645, 0.07743360102176666, 0.09627914428710938, 0.009786919690668583, 0.06470148265361786, 0.12519441545009613, 0.13103924691677094, -0.13195163011550903, -0.16453351080417633, 0.03327753022313118, -0.05657896026968956, -0.00857081450521946, -0.04831133037805557, -0.03300570324063301, 0.11441086232662201], [-0.1491248607635498, 0.031152673065662384, -0.12143077701330185, -0.042606186121702194, -0.1200382262468338, -0.12436986714601517, -0.03006475791335106, 0.06645984947681427, -0.13836877048015594, 0.034089889377355576, -0.12038026750087738, -0.07997819781303406, -0.14793819189071655, 0.14871585369110107, 0.09349911659955978, 0.107826828956604, 0.07478005439043045], [-0.17285417020320892, 0.16374802589416504, -0.09711073338985443, -0.14042949676513672, -0.008527981117367744, 0.048102304339408875, -0.09675609320402145, 0.15315599739551544, 0.06019612029194832, -0.10507645457983017, 0.04313218966126442, -0.07617737352848053, 0.1556667983531952, -0.015567612834274769, -0.0250018872320652, -0.06696368008852005, -0.023542512208223343], [0.0769609659910202, 0.05812836438417435, 0.15989269316196442, 0.16430187225341797, 0.08393239229917526, 0.09339899569749832, -0.09832484275102615, 0.16130593419075012, 0.1244409903883934, -0.015274143777787685, 0.03702845051884651, -0.12686870992183685, -0.0433548167347908, -0.0830061286687851, 0.09548044204711914, 0.07694309204816818, -0.06450031697750092], [-0.15075747668743134, 0.16567447781562805, -0.019900012761354446, 0.16062763333320618, 0.03062853217124939, -0.09534910321235657, 0.17563478648662567, -0.11063389480113983, -0.15473487973213196, -0.14663545787334442, -0.04215173423290253, 0.1144319549202919, 0.011409204453229904, -0.07517018914222717, 0.08257807791233063, 0.09023266285657883, -0.08674077689647675], [0.15215599536895752, -0.15335315465927124, -0.08754456043243408, 0.09055251628160477, 0.10193517059087753, -0.026557719334959984, 0.05904518812894821, 0.043434593826532364, 0.0344766303896904, 0.028182944282889366, 0.1031823605298996, -0.05414704233407974, -0.1595204621553421, 0.1758621484041214, -0.12601827085018158, -0.17058512568473816, -0.011492455378174782], [-0.11399830877780914, -0.04244389757514, 0.06327523291110992, 0.11133848130702972, 0.16659829020500183, -0.10145536810159683, -0.05132124572992325, -0.08096491545438766, 0.13935482501983643, 0.0498022735118866, -0.11175278574228287, -0.06528890132904053, -0.004575904458761215, -0.1234765276312828, 0.17656999826431274, 0.016309713944792747, -0.03641938790678978], [-0.11828306317329407, -0.09316375106573105, 0.02400505356490612, -0.03998856991529465, -0.16142535209655762, 0.09518168121576309, 0.045150887221097946, -0.09089399874210358, 0.1692133992910385, 0.16175469756126404, 0.12594027817249298, 0.12149026989936829, -0.1688264012336731, -0.08204880356788635, -0.10074196755886078, 0.16483332216739655, 0.14090460538864136], [0.0090407095849514, -0.06963902711868286, 0.04287046566605568, -0.10341384261846542, -0.17571304738521576, 0.15608136355876923, 0.15192654728889465, 0.09193413704633713, 0.021115338429808617, 0.0660841315984726, -0.07161512225866318, -0.12884698808193207, -0.11686815321445465, -0.09310070425271988, 0.004655350930988789, -0.08918125182390213, -0.02425888180732727], [-0.110063835978508, -0.05215996876358986, -0.14025110006332397, 0.08764919638633728, 0.03550197556614876, 0.0753035843372345, 0.027697201818227768, 0.05254698172211647, 0.06551915407180786, 0.07829678803682327, -0.01926785334944725, 0.021769732236862183, -0.1532314568758011, 0.12496961653232574, 0.14720477163791656, 0.03291026130318642, -0.10056448727846146], [0.04299594461917877, 0.06844256818294525, 0.0072421119548380375, -0.10865495353937149, 0.16794821619987488, -0.09605846554040909, -0.10782283544540405, -0.09324623644351959, -0.07562562823295593, -0.058334968984127045, 0.05829029530286789, 0.14881543815135956, -0.008086500689387321, -0.07663983851671219, -0.10868915915489197, 0.14315102994441986, -0.1458362489938736], [0.15226434171199799, -0.026688184589147568, -0.14353899657726288, -0.009325116872787476, -0.12872470915317535, 0.06392785161733627, 0.11119428277015686, 0.013077366165816784, 0.0820465087890625, 0.07474254816770554, -0.147532656788826, -0.09059111028909683, 0.1491503119468689, -0.04150855541229248, -0.13523434102535248, 0.11370309442281723, 0.1616021692752838], [-0.10601343959569931, -0.10654105991125107, -0.12665897607803345, -0.06500930339097977, 0.06915701180696487, 0.07985946536064148, -0.11647612601518631, -0.012194137088954449, -0.10461277514696121, 0.032821666449308395, -0.1389477252960205, 0.10559753328561783, -0.14383377134799957, 0.11221088469028473, -0.043377894908189774, -0.07308998703956604, 0.14759743213653564], [0.1425079107284546, -0.050977833569049835, -0.001064060372300446, -0.08901770412921906, 0.12170494347810745, -0.05860382318496704, -0.14207792282104492, -0.006988516543060541, -0.08900430053472519, 0.12318122386932373, -0.15128254890441895, 0.09159904718399048, 0.04976590350270271, -0.022355636581778526, -0.05173104256391525, -0.01023024134337902, -0.06498993188142776], [0.10762151330709457, 0.0422770194709301, -0.11898527294397354, 0.08776046335697174, -0.16987697780132294, 0.11379235982894897, 0.1463092863559723, -0.006348158232867718, 0.042688898742198944, -0.09911887347698212, 0.17441122233867645, -0.026883598417043686, 0.090448759496212, 0.1471312791109085, 0.14969834685325623, -0.11516531556844711, 0.13521434366703033], [-0.05105740949511528, -0.03310320898890495, -0.009321913123130798, 0.17002053558826447, 0.1729399412870407, 0.11323431134223938, 0.1005743071436882, -0.12118255347013474, 0.05440184473991394, 0.15382343530654907, 0.13004741072654724, 0.036087628453969955, 0.004409887827932835, -0.16025462746620178, 0.05843283236026764, 0.13704673945903778, -0.05927262827754021], [0.1307760626077652, -0.029510043561458588, 0.04766755923628807, 0.11987541615962982, -0.1287578046321869, -0.12737837433815002, -0.05864737927913666, 0.08024384826421738, -0.16719888150691986, 0.060535285621881485, -0.04355878755450249, 0.01922553777694702, 0.024150628596544266, -0.018313100561499596, -0.14462488889694214, -0.08048197627067566, -0.08786117285490036], [-0.006083117797970772, -0.11823992431163788, 0.14815323054790497, -0.1349191665649414, 0.07454795390367508, -0.15774427354335785, 0.056349556893110275, -0.020537041127681732, 0.08850694447755814, 0.10450797528028488, 0.009867946617305279, -0.04103551805019379, 0.021529389545321465, 0.16234655678272247, 0.05376490205526352, 0.10936588793992996, -0.015770044177770615], [-0.06982459872961044, -0.16000518202781677, 0.005787204951047897, -0.049212343990802765, -0.09451000392436981, 0.15904521942138672, -0.1709403246641159, -0.1527988165616989, -0.10291069746017456, -0.03232873976230621, 0.15621565282344818, 0.0878714770078659, 0.013283590786159039, 0.13604353368282318, 0.0677761361002922, -0.03653682768344879, 0.16306792199611664], [-0.004588632844388485, 0.06201381981372833, -0.012268463149666786, -0.12920567393302917, -0.17374107241630554, 0.10243865102529526, 0.16809958219528198, 0.10797879099845886, -0.10951182246208191, 0.03219247981905937, -0.046872708946466446, -0.16953647136688232, -0.03031683899462223, -0.06875023245811462, -0.025701021775603294, -0.03649996966123581, -0.1592908352613449], [-0.08519719541072845, -0.16694442927837372, -0.03528211638331413, -0.08100169152021408, 0.06840591132640839, 0.06457529217004776, -0.07614641636610031, 0.05278117209672928, -0.11288877576589584, -0.0966685339808464, -0.15020835399627686, -0.1664579212665558, -0.08882001787424088, 0.07722259312868118, 0.036360107362270355, 0.09461815655231476, -0.05291728675365448], [-0.17220847308635712, -0.02552269771695137, -0.11598215997219086, 0.12430911511182785, 0.14132218062877655, -0.014538533985614777, -0.08242260664701462, -0.02843681536614895, 0.17450860142707825, -0.08443491160869598, -0.11172868311405182, 0.1519201397895813, 0.07650645077228546, 0.046553827822208405, 0.011189335025846958, -0.08273988962173462, 0.1109338328242302], [0.13378071784973145, 0.012344706803560257, 0.04373616352677345, 0.07771840691566467, -0.040528662502765656, -0.03722108155488968, -0.08396463096141815, 0.09233973920345306, -0.16268177330493927, -0.10019011795520782, -0.02615150809288025, -0.11259891092777252, -0.04984855279326439, 0.11766702681779861, 0.006727437488734722, 0.14040496945381165, -0.14017871022224426], [0.12007470428943634, 0.05861705541610718, -0.12492015957832336, 0.16460491716861725, 0.14638230204582214, 0.16196176409721375, 0.07829908281564713, 0.03992358222603798, -0.014987608417868614, 0.014136558398604393, 0.05165513604879379, 0.1388314664363861, 0.17291949689388275, 0.052551914006471634, 0.04087776318192482, -0.15255816280841827, -0.009981216862797737], [0.07967493683099747, -0.06478419899940491, -0.14964503049850464, -0.10609668493270874, -0.03251105174422264, 0.16955916583538055, 0.1636194884777069, 0.12212619185447693, -0.11666261404752731, 0.10228267312049866, -0.15641283988952637, 0.1210857480764389, -0.11312223970890045, -0.06896863132715225, 0.03792257606983185, 0.14480063319206238, -0.13826629519462585], [-0.03808397427201271, -0.13765858113765717, -0.1261349618434906, -0.00801515020430088, -0.0788469985127449, 0.09441778808832169, 0.09447186440229416, -0.11040221154689789, -0.08333972096443176, 0.13344570994377136, -0.1382826864719391, -0.02650151588022709, 0.1019861027598381, 0.11857562512159348, 0.14832580089569092, -0.1524825394153595, 0.04342684894800186], [0.093380406498909, -0.11630593240261078, 0.05277453362941742, 0.15048237144947052, 0.08686243742704391, 0.06355898827314377, -0.029685288667678833, 0.039275024086236954, 0.09788118302822113, -0.08665977418422699, -0.0570814348757267, -0.17473535239696503, -0.02810659445822239, -0.0015320379752665758, -0.15309958159923553, -0.05112212523818016, 0.16902098059654236], [-0.11119727045297623, -0.09534278512001038, -0.1251167505979538, 0.1039852499961853, 0.10580632835626602, -0.15477047860622406, -0.036027926951646805, 0.1457548439502716, 0.05273141711950302, 0.011988733895123005, -0.05696551129221916, 0.09287159144878387, -0.08524151146411896, 0.031980227679014206, 0.05927281826734543, -0.12145855277776718, -0.16411620378494263], [-0.08667465299367905, -0.1508648544549942, -0.09034105390310287, 0.15291902422904968, -0.0252255629748106, 0.16170445084571838, -0.1112130805850029, -0.11625118553638458, 0.13763079047203064, 0.05589325353503227, 0.1285167634487152, 0.0356002002954483, -0.170961394906044, 0.07253693789243698, -0.10759854316711426, -0.09311547130346298, 0.09116993099451065], [-0.12553788721561432, -0.007214655168354511, -0.09493031352758408, -0.16100181639194489, -0.15860912203788757, -0.10068648308515549, 0.10110130906105042, -0.14475981891155243, -0.14498214423656464, -0.08190194517374039, -0.022890374064445496, 0.1276153028011322, 0.0066609932109713554, 0.08602648228406906, -0.016736408695578575, -0.13547144830226898, -0.12131333351135254], [0.0660383552312851, -0.11842077970504761, -0.15622788667678833, -0.11598757654428482, 0.003268214175477624, 0.03224727138876915, 0.07676336169242859, -0.0729597955942154, 0.16724959015846252, -0.13600577414035797, 0.15802858769893646, 0.07718164473772049, -0.02843780629336834, -0.0006449521169997752, 0.06827869266271591, 0.10788128525018692, -0.09910508990287781], [-0.11789166927337646, 0.16866394877433777, -0.0926542803645134, 0.11907944828271866, -0.09273716062307358, -0.029170213267207146, -0.11356645077466965, 0.07068188488483429, -0.033479392528533936, -0.13365012407302856, 0.16686421632766724, -0.1300317496061325, -0.16127796471118927, -0.058319076895713806, 0.12315214425325394, -0.036092642694711685, -0.07663930207490921], [-0.07089968025684357, 0.1393498331308365, 0.02646149881184101, 0.1320522129535675, 0.11388101428747177, -0.15490257740020752, -0.05984394997358322, -0.12390673905611038, 0.03613181784749031, 0.0051929764449596405, 0.014925800263881683, 0.08472269028425217, -0.004318576771765947, 0.0040169949643313885, 0.0706949308514595, 0.002692424925044179, -0.11072948575019836], [0.0711936354637146, 0.043766699731349945, -0.056017227470874786, -0.1428627222776413, -0.11300189793109894, -0.015543230809271336, 0.10472244024276733, 0.10556400567293167, 0.11800411343574524, 0.09401834011077881, -0.022049186751246452, -0.032584674656391144, 0.05295348912477493, 0.1422204226255417, -0.0250271987169981, 0.009486707858741283, 0.0055064857006073], [0.005734036676585674, 0.05365217849612236, 0.12990787625312805, 0.09096471965312958, -0.14045554399490356, -0.15828701853752136, 0.03102300874888897, -0.004797786474227905, -0.08134248852729797, 0.08878345042467117, -0.10535112768411636, 0.012659311294555664, -0.12613607943058014, 0.0758470669388771, -0.01437186449766159, -0.029579605907201767, 0.06423427909612656], [-0.01881367899477482, -0.021789561957120895, 0.07937537133693695, -0.13347847759723663, 0.024311881512403488, 0.1615637093782425, 0.149479478597641, -0.008409497328102589, 0.12893149256706238, -0.08834662288427353, -0.03265645354986191, 0.0877353847026825, 0.17376531660556793, -0.06817905604839325, 0.04753062129020691, 0.042338382452726364, -0.054792292416095734], [0.09293180704116821, 0.10377904772758484, 0.011010486632585526, 0.15086397528648376, -0.0323987677693367, 0.005703567992895842, -0.035063404589891434, 0.1682281643152237, 0.13091257214546204, -0.07051532715559006, -0.05841763690114021, 0.05479146167635918, 0.16358354687690735, 0.12025407701730728, -0.15088807046413422, -0.10829048603773117, 0.12449344247579575], [-0.04703843221068382, -0.14460811018943787, -0.07000324130058289, 0.1377972662448883, 0.10207127779722214, 0.016842681914567947, 0.13028006255626678, 0.02208060771226883, -0.0026469274889677763, 0.1763731837272644, -0.04194209724664688, -0.11778610944747925, -0.14280997216701508, -0.16138871014118195, -0.06621261686086655, -0.08364406228065491, -0.13364040851593018], [0.02625548467040062, 0.10868751257658005, -0.09032084047794342, 0.06721197813749313, 0.09522062540054321, 0.05601240321993828, -0.003130351658910513, 0.030163276940584183, -0.10682177543640137, 0.14010383188724518, -0.10272116214036942, 0.10398223996162415, 0.0655573159456253, -0.005894489586353302, 0.01035236194729805, 0.10059238970279694, -0.06894223392009735], [-0.15148061513900757, -0.024870222434401512, 0.13021180033683777, -0.08223474025726318, 0.15720881521701813, -0.06213250383734703, 0.1377921998500824, 0.019923383370041847, -0.0261552594602108, 0.02514185942709446, -0.10488613694906235, 0.041274577379226685, -0.009447511285543442, 0.12352476269006729, 0.09881817549467087, 0.06545180082321167, -0.05678902193903923], [-0.097092404961586, 0.03747092932462692, -0.09842799603939056, 0.10266643017530441, -0.053040921688079834, -0.10706597566604614, -0.06877788156270981, -0.02939005009829998, 0.06157197058200836, 0.11463116854429245, 0.02282881923019886, 0.006585571449249983, 0.1539066731929779, -0.10552569478750229, -0.08072427660226822, 0.13330577313899994, -0.12487982213497162], [0.11997772753238678, -0.02358739823102951, -0.029191622510552406, -0.1760733425617218, 0.030658144503831863, -0.027703965082764626, 0.14410164952278137, -0.1296953409910202, -0.17659787833690643, -0.04609931632876396, -0.11381878703832626, -0.09671249240636826, 0.041509609669446945, 0.09454646706581116, -0.1640409678220749, -0.14697149395942688, -0.1647166609764099], [-0.06751063466072083, -0.01834852434694767, 0.15216808021068573, -0.056457072496414185, -0.06444726884365082, -0.15087153017520905, -0.1214478462934494, 0.04960159212350845, -0.04380275681614876, 0.026171507313847542, -0.08641345053911209, 0.026352589949965477, -0.07119053602218628, 0.03001074679195881, -0.00038998477975837886, 0.05868088826537132, -0.08192611485719681], [0.10936799645423889, -0.16273550689220428, 0.04822094738483429, 0.09094783663749695, 0.1426953673362732, 0.01986505277454853, 0.04902182146906853, -0.13317246735095978, -0.14300182461738586, 0.09897251427173615, 0.11207915097475052, -0.11565440893173218, 0.12001434713602066, 0.15344154834747314, -0.08117400854825974, 0.14484983682632446, -0.1528300791978836], [-0.13917770981788635, 0.12575876712799072, 0.046542953699827194, 0.08229341357946396, -0.07721546292304993, 0.018974285572767258, 0.1633540540933609, 0.07096513360738754, 0.12295066565275192, 0.16198578476905823, 0.09766852110624313, 0.1516706943511963, -0.17222797870635986, -0.03377385437488556, -0.018835604190826416, 0.012895320542156696, -0.025357188656926155], [-0.028101958334445953, -0.09715566784143448, -0.07259666174650192, -0.11183415353298187, 0.09260709583759308, -0.08953208476305008, 0.0017951607005670667, 0.0024530307855457067, 0.005630355328321457, -0.03636396303772926, -0.13926026225090027, -0.0029664216563105583, -0.030056370422244072, -0.11217185109853745, 0.04932359233498573, 0.013240410946309566, -0.1264559030532837], [-0.15820856392383575, -0.006460163276642561, 0.04825238883495331, 0.08444976806640625, 0.05314485728740692, 0.11563301831483841, 0.16130416095256805, -0.10429104417562485, -0.08814594149589539, -0.17599111795425415, -0.09103047102689743, 0.017067408189177513, -0.04057573899626732, -0.1286950558423996, -0.16300784051418304, 0.06615228205919266, -0.1262260228395462], [-0.07894820719957352, -0.12311258912086487, 0.14929349720478058, -0.1183522492647171, 0.12210062146186829, -0.15695777535438538, -0.04409308359026909, 0.0664665475487709, 0.012609114870429039, -0.03676547482609749, 0.15321123600006104, -0.12901167571544647, 0.008156047202646732, -0.12217749655246735, 0.15965472161769867, -0.029138855636119843, -0.10424519330263138], [0.14245042204856873, 0.10785382241010666, -0.15333697199821472, -0.1458134949207306, 0.14566433429718018, 0.09477348625659943, -0.1514406055212021, -0.05154629051685333, 0.012611770071089268, 0.10322307050228119, -0.04412233456969261, 0.08544658124446869, -0.044895876199007034, 0.07170341908931732, 0.1470644325017929, 0.044969022274017334, 0.075502410531044], [-0.14319345355033875, 0.025058386847376823, -0.015158177353441715, -0.14793099462985992, 0.08086557686328888, -0.11780800670385361, 0.0502278096973896, 0.11561251431703568, -0.004438737407326698, 0.0927785113453865, 0.12205952405929565, -0.11444590985774994, 0.161010280251503, 0.09563111513853073, -0.05288997292518616, -0.02724974974989891, -0.025190012529492378], [-0.0337686650454998, 2.573065103206318e-05, 0.1549650877714157, 0.10885787010192871, -0.11180178076028824, -0.07189687341451645, 0.03957296162843704, -0.16654451191425323, 0.04232894256711006, -0.07124718278646469, -0.07810894399881363, -0.004502926953136921, 0.10253795236349106, -0.023162074387073517, 0.13591136038303375, 0.11753198504447937, -0.13121022284030914], [0.10445365309715271, -0.04734203591942787, -0.06453002989292145, 0.14537838101387024, -0.12918752431869507, -0.0672498270869255, -0.02838185615837574, 0.1746136099100113, -0.15904104709625244, 0.1098620593547821, 0.046733543276786804, 0.004782023373991251, -0.16953326761722565, 0.08733054250478745, 0.12603816390037537, -0.14054052531719208, -0.17391127347946167], [-0.1490977257490158, -0.06625088304281235, -0.06585127115249634, -0.12147840857505798, -0.08535154163837433, 0.012047823518514633, -0.17581792175769806, 0.0025701357517391443, -0.05301211401820183, 0.07186342775821686, -0.041716866195201874, -0.1654510796070099, -0.09810034930706024, 0.011039923876523972, 0.012080319225788116, 0.11878621578216553, 0.08519113063812256], [-0.05706038326025009, 0.041750647127628326, 0.12168817222118378, 0.1309373527765274, -0.05246391147375107, 0.11256500333547592, 0.08161424845457077, 0.12255433201789856, 0.04394679144024849, 0.030052978545427322, 0.17466643452644348, -0.048024795949459076, 0.08100049197673798, -0.1603713482618332, -0.1688830703496933, -0.07715103030204773, -0.0035669931676238775], [-0.018147272989153862, 0.15743443369865417, -0.040364351123571396, 0.04881875589489937, -0.1170959323644638, -0.11450029909610748, -0.03595798462629318, 0.02992626465857029, 0.007856362499296665, -0.0703699141740799, 0.14689691364765167, 0.06962880492210388, -0.1283826231956482, -0.020875902846455574, 0.1426377296447754, -0.1419273465871811, -0.1445079892873764], [0.1011950746178627, -0.1765277087688446, -0.08635030686855316, 0.09781426191329956, -0.1759268194437027, -0.12163682281970978, 0.13408935070037842, -0.09768690913915634, 0.14036554098129272, -0.08432282507419586, -0.17314724624156952, 0.00308068934828043, 0.12093718349933624, 0.13291847705841064, -0.12687744200229645, -0.08702059835195541, -0.12498324364423752], [0.007741554174572229, 0.14350256323814392, 0.04023289680480957, 0.09015046060085297, 0.010053519159555435, -0.16236434876918793, -0.03038300946354866, 0.03677040711045265, 0.06497825682163239, 0.061892203986644745, 0.12365256994962692, -0.08546851575374603, -0.13747359812259674, 0.02416124939918518, 0.05400361865758896, 0.1133541613817215, 0.15077054500579834], [-0.09637416154146194, 0.2633664906024933, -0.018064023926854134, -0.03856334090232849, -0.0795074999332428, 0.12775561213493347, 0.08438321948051453, 0.08181780576705933, 0.03172982856631279, 0.10175750404596329, -0.09308833628892899, -0.13290424644947052, -0.019000809639692307, -0.12002242356538773, 0.051247358322143555, 0.01598491705954075, -0.020206021144986153], [-0.08683619648218155, 0.1529165804386139, -0.012195168063044548, -0.09737225621938705, -0.027560167014598846, -0.09066259115934372, -0.014195098541676998, -0.00338657945394516, -0.04008521884679794, -0.16262082755565643, -0.009812512435019016, -0.10298565775156021, -0.03430623933672905, 0.156686931848526, 0.11791081726551056, -0.011875399388372898, -0.03465676307678223], [0.023201819509267807, -0.009357822127640247, -0.058524079620838165, -0.15672029554843903, 0.0967121571302414, 0.09097608178853989, -0.09921768307685852, -0.138375923037529, -0.16024218499660492, 0.091061070561409, -0.07184766978025436, 0.022095737978816032, -0.11102807521820068, 0.13971930742263794, -0.07937387377023697, 0.1524941474199295, 0.12116896361112595], [-0.12276341766119003, 0.08012164384126663, 0.09881136566400528, -0.15284088253974915, -0.09611599147319794, -0.022716814652085304, 0.10450755804777145, 0.11880148947238922, -0.1524842381477356, 0.06460998207330704, 0.05144185200333595, -0.10966816544532776, 0.01529068686068058, -0.16016952693462372, 0.09906991571187973, 0.031577788293361664, 0.1275806427001953], [-0.08952388912439346, -0.1529894471168518, -0.18030160665512085, 0.13348598778247833, 0.13319721817970276, -0.09791616350412369, -0.16941359639167786, -0.0183391273021698, 0.1311006098985672, 0.14254750311374664, -0.008895715698599815, -0.0722820833325386, 0.1428130567073822, -0.06851547211408615, 0.07594388723373413, -0.1455376297235489, 0.03671291843056679], [0.008389540947973728, 0.15875934064388275, -0.15294817090034485, -0.17421679198741913, -0.032264698296785355, -0.08010143041610718, -0.11434728652238846, 0.11366347223520279, -0.03068499080836773, 0.10944706201553345, -0.15836524963378906, -0.034683000296354294, -0.12574046850204468, -0.0888364315032959, 0.16337567567825317, 0.04980733245611191, -0.06243159994482994], [-0.06556055694818497, -0.1160883679986, -0.16893069446086884, -0.12286516278982162, 0.05586336925625801, 0.10826456546783447, 0.16226159036159515, 0.09789161384105682, 0.17457129061222076, -0.06666073948144913, 0.11351292580366135, 0.007386059500277042, 0.061070866882801056, -0.0739390179514885, -0.05072111636400223, -0.09734568744897842, -0.16923944652080536], [-0.13769488036632538, -0.02770068123936653, -0.026587525382637978, -0.12285016477108002, -0.01574348285794258, 0.16210034489631653, -0.11122503876686096, -0.048511214554309845, 0.17086319625377655, -0.07099560648202896, 0.15732580423355103, -0.06153841316699982, 0.060602255165576935, 0.14402851462364197, 0.11650650948286057, -0.1064336821436882, 0.01194599736481905], [0.06381171941757202, 0.14659352600574493, 0.1604306548833847, 0.08555346727371216, 0.1220245435833931, -0.15542201697826385, 0.14346589148044586, 0.0009308342123404145, -0.05825130641460419, -0.13352040946483612, 0.12837426364421844, -0.05298543721437454, 0.0039517516270279884, -0.15672269463539124, -0.06814169883728027, -0.035955097526311874, -0.1524432897567749], [0.08789806813001633, -0.1248067244887352, -0.008530031889677048, 0.07150472700595856, -0.17279087007045746, 0.13939301669597626, 0.05046999827027321, 0.09495224058628082, 0.10029508173465729, -0.008313638158142567, 0.10662221908569336, -0.12463295459747314, -0.15944410860538483, 0.06906143575906754, -0.1208781749010086, 0.07035406678915024, 0.14271126687526703], [-0.01557284127920866, -0.04435525834560394, -0.17032986879348755, -0.0034805312752723694, 0.0824800506234169, -0.00936524011194706, -0.14533215761184692, 0.12080420553684235, 0.1359221488237381, 0.04417663812637329, -0.046567946672439575, 0.004341272637248039, 0.09077350050210953, 0.16176922619342804, 0.11411689221858978, 0.13544736802577972, -0.05196375399827957], [-0.04410441964864731, 0.15624897181987762, -0.11152816563844681, 0.15164746344089508, 0.1030791774392128, 0.11621822416782379, -0.04881047457456589, -0.12210451811552048, 0.07597112655639648, 0.0843769758939743, -0.033660221844911575, -0.06790291517972946, -0.042748261243104935, -0.0021507958881556988, 0.06025800108909607, 0.15924744307994843, 0.08263439685106277], [0.02663249522447586, -0.192110076546669, -0.08497502654790878, 0.02502000890672207, 0.07633020728826523, 0.017540473490953445, -0.10777334868907928, -0.01847849227488041, 0.10322485864162445, -0.13083380460739136, 0.04950294271111488, 0.219763845205307, -0.08111359179019928, 0.1587752252817154, -0.005785985849797726, 0.07242326438426971, 0.1431124359369278], [-0.06420806795358658, -0.05103190988302231, -0.07858800143003464, 0.10974834859371185, 0.12253924459218979, 0.10630155354738235, -0.02147548459470272, 0.13225218653678894, 0.02211839146912098, 0.10199043899774551, -0.03246358782052994, -0.012560034170746803, -0.11189204454421997, -0.007067246828228235, -0.018522106111049652, 0.005067062564194202, -0.0029659578576684], [0.03803251311182976, 0.02008284628391266, -0.10858622938394547, 0.04439856484532356, 0.13075776398181915, 0.15528491139411926, -0.08445867896080017, 0.08781921863555908, -0.10397220402956009, -0.12439136207103729, 0.01712137646973133, 0.047095414251089096, -0.06530017405748367, 0.038552794605493546, 0.05356438830494881, -0.14597229659557343, -0.09993881732225418], [-0.002961743390187621, 0.09606773406267166, 0.08690214157104492, -0.012813800945878029, -0.13924621045589447, 0.011745019815862179, 0.0223222766071558, 0.10215660184621811, -0.1265134960412979, -0.09251846373081207, -0.035994209349155426, -0.004725926090031862, -0.05582961067557335, -0.08690214157104492, -0.16975843906402588, 0.15402674674987793, -0.047705426812171936], [0.15159690380096436, -0.17194312810897827, 0.1465204656124115, 0.006283842027187347, 0.07159112393856049, -0.05559392645955086, 0.09866496920585632, 0.12118744105100632, -0.05647631362080574, -0.0758269652724266, 0.11112756282091141, -0.06505757570266724, -0.03630375489592552, -0.05825299024581909, 0.09327670931816101, -0.02504763938486576, 0.10280585289001465], [-0.12950913608074188, -0.029187049716711044, 0.06297609210014343, -0.07700473815202713, 0.007554464042186737, 0.031861625611782074, -0.03501153364777565, 0.0931602343916893, 0.06793983280658722, -0.12991617619991302, 0.06055440008640289, -0.022754935547709465, 0.09218746423721313, 0.0031946466770023108, 0.15940314531326294, -0.14109031856060028, -0.14525823295116425], [-0.08213358372449875, 0.13344410061836243, -0.024080432951450348, -0.08215148001909256, -0.057453591376543045, 0.09029822796583176, -0.10902232676744461, -0.1659933626651764, 0.08880250155925751, -0.13288317620754242, -0.08041542768478394, -0.10285209119319916, 0.02924228459596634, 0.06191645935177803, -0.03305711969733238, -0.02675698883831501, -0.03876530006527901], [-0.17319683730602264, -0.06944234669208527, 0.02616204507648945, 0.007073505315929651, -0.16174320876598358, 0.1283455789089203, 0.09658274799585342, -0.14536237716674805, 0.13816657662391663, -0.16812965273857117, -0.026451002806425095, 0.07933006435632706, 0.16359229385852814, 0.1266755759716034, -0.02819076180458069, 0.14895962178707123, 0.13846400380134583], [-0.3120034337043762, 0.07414159178733826, -0.05066971108317375, -0.06600932776927948, -0.10385292768478394, 0.020080093294382095, 0.07838478684425354, -0.025750018656253815, 0.12596456706523895, 0.1694844365119934, -0.09824240952730179, 0.07222718000411987, 0.13045282661914825, -0.009376374073326588, 0.162131667137146, -0.04319301247596741, -0.14051413536071777], [-0.26815271377563477, 0.24885466694831848, 0.040161143988370895, -0.04006646201014519, -0.013182824477553368, -0.04054664820432663, 0.02178153209388256, 0.05955735966563225, -0.019547317177057266, -0.07084798812866211, -0.07253263145685196, -0.03624320030212402, -0.06271965056657791, -0.17581388354301453, 0.16701845824718475, 0.04473590850830078, 0.12251399457454681], [-0.07819228619337082, -0.15702030062675476, -0.04161088913679123, -0.15951205790042877, 0.02301047183573246, -0.06222402676939964, 0.10716735571622849, 0.10323358327150345, 0.09344679117202759, -0.09360183030366898, -0.16782458126544952, 0.07456614077091217, -0.15057170391082764, 0.09872186928987503, -0.09838094562292099, 0.13385038077831268, -0.1575641930103302], [0.06330128014087677, -0.03294627368450165, -0.09241218864917755, -0.0062162806279957294, -0.11842094361782074, -0.09077396243810654, -0.1453326940536499, -0.09367524832487106, 0.17254510521888733, 0.04317266121506691, 0.11790266633033752, -0.0437508299946785, 0.14705583453178406, -0.014145641587674618, 0.12309028953313828, -0.058802880346775055, 0.12994596362113953], [0.10155784338712692, 0.06911963224411011, 0.17412307858467102, 0.16465234756469727, -0.02956487610936165, -0.1182527169585228, -0.15414904057979584, -0.1009073331952095, -0.14053411781787872, 0.027948269620537758, -0.015558382496237755, 0.09916029870510101, -0.05436985567212105, 0.13094507157802582, -0.11329174041748047, -0.00702214939519763, 0.14100120961666107], [-0.0381845161318779, -0.13681574165821075, -0.024670004844665527, -0.15023638308048248, 0.05302109196782112, 0.021888522431254387, -0.16927491128444672, 0.11768525093793869, -0.042571455240249634, -0.015139969997107983, 0.03153941407799721, 0.10651161521673203, 0.17639592289924622, 0.16376841068267822, -0.1367654651403427, -0.16273188591003418, -0.06735022366046906], [-0.16987383365631104, -0.03723518177866936, 0.08560271561145782, 0.013638129457831383, -0.13639837503433228, -0.099446140229702, -0.17327271401882172, 0.09396738559007645, 0.16723786294460297, -0.0443941168487072, -0.04681551828980446, 0.14570030570030212, 0.06441829353570938, 0.1399366557598114, 0.038251087069511414, -0.004086958710104227, 0.12497912347316742], [0.11523411422967911, -0.1631772667169571, 0.06078634411096573, 0.055257976055145264, -0.11726104468107224, 0.1640169471502304, -0.10377935320138931, -0.049099016934633255, 0.1407599002122879, -0.11253427714109421, 0.050640832632780075, -0.02654236927628517, 0.04484717920422554, 0.04566136375069618, 0.08570268750190735, -0.08699289709329605, -0.12771786749362946], [0.024760225787758827, 0.15939688682556152, 0.014270280487835407, 0.15926593542099, -0.1618541181087494, -0.16669806838035583, 0.15445034205913544, 0.0565178245306015, -0.17749854922294617, -0.11228673905134201, 0.05079459771513939, -0.14271263778209686, -0.13542009890079498, -0.03634985163807869, -0.034163057804107666, 0.0823095440864563, 0.042976029217243195], [-0.001547695486806333, -0.1279234141111374, -0.1602938026189804, -0.09682593494653702, -0.150056853890419, -0.05057002231478691, 0.1594410389661789, 0.1342378556728363, -0.11690433323383331, 0.048827290534973145, 0.00037192486342974007, 0.0773698091506958, 0.0020749736577272415, 0.14246195554733276, -0.12019071727991104, -0.0419243760406971, -0.09823110699653625]], "lstm.weight_hh_l0": [[-0.0020404974929988384, -0.08096158504486084, -0.04908605292439461, 0.1552373170852661, -0.17196539044380188, 0.12235783785581589, 0.12046173959970474, -0.038313128054142, -0.08346769958734512, -0.09748184680938721, -0.13389410078525543, -0.10255253314971924, 0.08473598212003708, -0.010335397906601429, -0.12083941698074341, 0.12760740518569946, -0.03827991709113121, 0.016893763095140457, -0.11750085651874542, 0.14241693913936615, -0.15295390784740448, 0.12711036205291748, -0.15601952373981476, 0.008953613229095936, 0.13966430723667145, -0.10498315840959549, 0.08100344240665436, 0.10529620945453644, -0.11713163554668427, 0.08405858278274536, -0.05253560468554497, -0.0918532982468605], [0.13131947815418243, 0.007940785028040409, -0.09691597521305084, -0.0003477957798168063, -0.0836787298321724, -0.1641591489315033, 0.1425432413816452, -0.1533612161874771, 0.04310878366231918, 0.14758284389972687, 0.06770440936088562, 0.028831876814365387, 0.17535562813282013, 0.07273610681295395, -0.10938163101673126, 0.08746933192014694, -0.048172034323215485, 0.0020013009198009968, -0.023101404309272766, -0.166578009724617, 0.04022105410695076, -0.07242493331432343, -0.10353858023881912, 0.08165619522333145, -0.12422738969326019, -0.05930854007601738, 0.1011119931936264, 0.03247741237282753, 0.06776486337184906, -0.15453320741653442, 0.12688930332660675, 0.07608814537525177], [0.05802278593182564, 0.15024790167808533, -0.01614966057240963, 0.14945270121097565, 0.12516836822032928, 0.17333494126796722, -0.11912258714437485, -0.027899084612727165, -0.08736782521009445, -0.08778870105743408, 0.16358181834220886, -0.027287069708108902, -0.060975298285484314, -0.04973336309194565, 0.12390800565481186, 0.1248948723077774, 0.05438724160194397, -0.11818507313728333, 0.12564991414546967, -0.04733038321137428, -0.16151782870292664, -0.10622255504131317, 0.03910057991743088, 0.024659404531121254, 0.047414593398571014, -0.17479853332042694, 0.04791325330734253, -0.05931669473648071, 0.015787219628691673, 0.0730489194393158, 0.08747363090515137, -0.0019263216527178884], [0.06632976233959198, -0.04231638461351395, 0.08999886363744736, 0.09867316484451294, 0.0708458349108696, -0.17658507823944092, 0.08575332164764404, 0.1513357162475586, -0.16619016230106354, -0.06235858052968979, -0.10521890968084335, -0.031185802072286606, -0.15409937500953674, -0.034945257008075714, 0.1472949981689453, -0.04829876869916916, -0.01642928458750248, -0.04213186353445053, 0.14610375463962555, 0.0829605683684349, 0.13296456634998322, 0.08208117634057999, -0.07760800421237946, -0.1000494509935379, -0.10571204870939255, -0.0920301303267479, -0.007673908490687609, -0.17393818497657776, -0.03188832476735115, 0.13932958245277405, -0.14175932109355927, -0.08709574490785599], [0.061619892716407776, -0.170974001288414, 0.15986321866512299, 0.07672222703695297, 0.1741981953382492, -0.1683104932308197, 0.09916051477193832, -0.13449060916900635, 0.13513992726802826, -0.09646720439195633, -0.09282847493886948, 0.14065240323543549, 0.12262360006570816, 0.10409241169691086, 0.03927190601825714, 0.005918154958635569, -0.08683396875858307, -0.04754263535141945, 0.0777830183506012, 0.04379972070455551, 0.058655284345149994, -0.029090365394949913, -0.02154439315199852, -0.07098909467458725, -0.07539976388216019, -0.040840063244104385, 0.0716913640499115, -0.08507925271987915, -0.06485828757286072, 0.06890512257814407, -0.0011976237874478102, 0.07281894236803055], [-0.06525646895170212, -0.1321544498205185, 0.07187312841415405, -0.11215539276599884, -0.05194390192627907, -0.08044606447219849, 0.011894388124346733, -0.029929740354418755, 0.12154725193977356, -0.17652933299541473, -0.125065416097641, 0.07400213181972504, 0.16175837814807892, 0.09586267173290253, 0.007022423669695854, -0.10530606657266617, -0.12869474291801453, 0.0057353428564965725, 0.07921422272920609, -0.008963285945355892, 0.001342714298516512, 0.014792194589972496, 0.024887418374419212, -0.16461926698684692, -0.05323239415884018, 0.09913282096385956, 0.12539564073085785, 0.1653280258178711, 0.14507819712162018, 0.1664501279592514, -0.1414366066455841, 0.10638325661420822], [-0.1365729123353958, 0.14025498926639557, -0.14066258072853088, 0.09973333030939102, 0.03219614550471306, 0.0730692520737648, 0.057037919759750366, 0.08099755644798279, -0.05094663426280022, 0.13750103116035461, 0.08170349895954132, -0.09602370113134384, 0.010205665603280067, -0.044221680611371994, 0.07783222198486328, -0.16833733022212982, -0.07610085606575012, -0.015212652273476124, -0.02235066331923008, -0.002281603403389454, -0.046445511281490326, -0.15150809288024902, 0.009263708256185055, -0.08855173736810684, 0.16376326978206635, -0.06182512640953064, 0.09889764338731766, -0.10505325347185135, 0.02702285163104534, 0.17017781734466553, -0.0734110027551651, -0.16129246354103088], [-0.15636029839515686, 0.050175126641988754, 0.1726391613483429, -0.029968958348035812, -0.06360425055027008, -0.0962812677025795, -0.011209249496459961, 0.15676389634609222, -0.008686613291501999, 0.0873655453324318, -0.10396632552146912, 0.006874129641801119, 0.16884368658065796, 0.10056402534246445, -0.1683153510093689, -0.1539815217256546, 0.029730914160609245, 0.11071738600730896, 0.05597192049026489, 0.07632271200418472, -0.0897141769528389, 0.06411705166101456, -0.12034290283918381, -0.09228507429361343, 0.07159921526908875, 0.12117306888103485, 0.09848371893167496, -0.15430361032485962, -0.13993777334690094, 0.14467568695545197, -0.07491328567266464, 0.05678792670369148], [0.04559703543782234, 0.1198892891407013, 0.001078614965081215, -0.04437129572033882, -0.10549722611904144, 0.04529256373643875, 0.01825227215886116, -0.07805240154266357, 0.15731820464134216, -0.01114046573638916, -0.00536551745608449, -0.11366617679595947, -0.11564788222312927, -0.14901626110076904, 0.0038096250500530005, 0.09180065989494324, 0.15020562708377838, -0.11746229231357574, -0.09153665602207184, -0.10158529877662659, -0.10974293202161789, -0.04726235568523407, 0.14859427511692047, 0.09293295443058014, -0.16174980998039246, 0.01905161887407303, 0.052813563495874405, -0.08318818360567093, -0.1725802719593048, 0.02155044674873352, -0.1503838747739792, -0.09367082267999649], [-0.12911495566368103, 0.08290177583694458, 0.028430068865418434, -0.06387106329202652, 0.11843032389879227, 0.03951869532465935, -0.03386174514889717, -0.03752152621746063, 0.058336373418569565, -0.08387976139783859, 0.12629565596580505, 0.03808293119072914, -0.11352947354316711, -0.044948019087314606, -0.009093795903027058, -0.12562808394432068, 0.005982323549687862, 0.11333213746547699, -0.007898803800344467, 0.16986200213432312, 0.11300096660852432, 0.12426196783781052, -0.05670776590704918, -0.00357351778075099, 0.07931315898895264, 0.022414367645978928, 0.17571818828582764, 0.0134363304823637, 0.07553056627511978, -0.0033897142857313156, -0.044151462614536285, 0.08305204659700394], [0.06824156641960144, -0.10312335193157196, 0.10260362178087234, -0.11017761379480362, -0.10144691169261932, 0.05327005311846733, 0.1105007752776146, 0.08098335564136505, 0.02574538253247738, 0.10310384631156921, 0.031934235244989395, -0.09436232596635818, 0.05400466173887253, -0.12077901512384415, -0.12382601201534271, 0.1698550581932068, 0.10400411486625671, 0.0683736503124237, 0.05323144793510437, -0.13790379464626312, -0.030103828758001328, 0.15236110985279083, -0.1400565356016159, 0.0904795229434967, -0.0558946430683136, -0.10227147489786148, 0.1678570657968521, 0.10165798664093018, 0.007907022722065449, -0.1591588407754898, 0.15419070422649384, 0.08052418380975723], [-0.10193762928247452, 0.09236098825931549, 0.14007842540740967, -0.06457999348640442, -0.016650112345814705, -0.10150665789842606, 0.05383364483714104, 0.10109934955835342, -0.12235493212938309, 0.07638739794492722, -0.07729612290859222, -0.0906810462474823, 0.14172804355621338, 0.02399803139269352, 0.14802560210227966, 0.0849342867732048, -0.16976341605186462, 0.002008802955970168, -0.05483199656009674, 0.15359441936016083, -0.07290085405111313, 0.1650766283273697, -0.1382758915424347, -0.08096543699502945, -0.16993707418441772, -0.09516840428113937, -0.1606491208076477, -0.16662640869617462, -0.16043956577777863, -0.12439838796854019, 0.03814120963215828, 0.12088046967983246], [0.17257051169872284, -0.013052635826170444, -0.17152045667171478, 0.026698151603341103, -0.05367719382047653, -0.14070013165473938, -0.056681953370571136, 0.124304860830307, 0.029227206483483315, -0.0564754381775856, 0.05423792824149132, 0.13487255573272705, 0.17337848246097565, 0.008314307779073715, -0.12732172012329102, 0.012055031023919582, -0.035811398178339005, -0.10609275847673416, -0.023725071921944618, -0.16203370690345764, -0.16891084611415863, 0.0913785845041275, -0.008089477196335793, -0.18374153971672058, 0.003361780196428299, -0.06608492881059647, 0.08219756186008453, -0.13914380967617035, -0.06073938310146332, 0.09788402915000916, -0.14525975286960602, -0.09765768051147461], [0.1297503113746643, -0.16774950921535492, -0.1443829983472824, -0.10865988582372665, -0.13402973115444183, -0.0057144383899867535, -0.16381096839904785, 0.10729175806045532, -0.0979183167219162, 0.011485479772090912, -0.013253076002001762, -0.1016007736325264, -0.1378159523010254, 0.020089715719223022, -0.036503639072179794, -0.1382649838924408, 0.05460324510931969, 0.13206490874290466, -0.051960740238428116, -0.07055036723613739, 0.030863462015986443, 0.1415272355079651, 0.1748272329568863, -0.1663634032011032, 0.0013414709828794003, 0.05823790282011032, 0.020988624542951584, -0.07224342972040176, 0.033438801765441895, -0.08124331384897232, 0.12208778411149979, 0.03193144127726555], [0.16274410486221313, -0.08319800347089767, 0.1576027274131775, 0.0269109308719635, 0.007277074735611677, -0.010110396891832352, 0.1322365403175354, -0.10752663761377335, 0.12390294671058655, -0.11579587310552597, 0.14686132967472076, 0.038851428776979446, 0.14518189430236816, 0.14749376475811005, 0.05510721355676651, 0.10470198094844818, 0.07003885507583618, 0.09271866083145142, -0.05304104834794998, 0.1173631027340889, -0.04386359453201294, -0.12855996191501617, -0.060536909848451614, -0.014928897842764854, 0.16897524893283844, 0.05430730804800987, -0.0412941537797451, -0.022107644006609917, 0.16203132271766663, 0.1548493504524231, 0.15209552645683289, 0.0955997109413147], [0.06455059349536896, -0.13637098670005798, -0.16013339161872864, -0.1471463143825531, -0.1450321227312088, -0.003055583219975233, 0.02808680757880211, -0.03641869127750397, -0.1645602136850357, -0.1469859927892685, 0.030872439965605736, 0.12650203704833984, 0.014581777155399323, 0.012029953300952911, 0.010970255360007286, 0.04004072770476341, 0.15352611243724823, 0.14255279302597046, -0.11497849971055984, 0.16837120056152344, 0.01124387327581644, 0.12947869300842285, 0.12945351004600525, 0.14435653388500214, -0.08166328817605972, 0.038230668753385544, -0.14517338573932648, 0.06102210283279419, -0.13140881061553955, 0.055559493601322174, 0.09005358815193176, -0.03093559667468071], [0.10047794133424759, -0.08419197052717209, 0.05304884538054466, -0.08012080192565918, 0.01265187282115221, -0.15775719285011292, -0.012175002135336399, 0.0500970296561718, 0.1627465933561325, 0.0421861931681633, -0.07683856785297394, -0.0075684781186282635, 0.13613958656787872, 0.1664971113204956, -0.1318068951368332, 0.01727915368974209, -0.14605647325515747, -0.12794248759746552, 0.16510219871997833, -0.08400806784629822, -0.027335813269019127, 0.032734401524066925, -0.08867380768060684, -0.09279005974531174, 0.056332021951675415, -0.1263609230518341, -0.14043033123016357, 0.1651986837387085, -0.16204968094825745, 0.1254623532295227, -0.07896829396486282, 0.09454052150249481], [-0.1284988969564438, -0.06701399385929108, -0.012027488090097904, -0.1111886128783226, 0.1529630422592163, 0.0012849520426243544, -0.051270145922899246, 0.17356999218463898, 0.016409916803240776, 0.1598731130361557, -0.01972653716802597, 0.15470939874649048, 0.084190733730793, 0.06744934618473053, -0.16787908971309662, -0.09148352593183517, 0.023069962859153748, 0.1283043771982193, 0.1661386787891388, -0.03473370149731636, 0.1066877469420433, 0.14015784859657288, -0.13589783012866974, -0.12635184824466705, -0.15856680274009705, -0.009726712480187416, 0.17295104265213013, 0.052490927278995514, 0.15201270580291748, 0.05368707701563835, -0.12634138762950897, -0.0012363356072455645], [0.004266462288796902, -0.06104608625173569, -0.06831905245780945, 0.16192729771137238, -0.07051745057106018, -0.06249288097023964, -0.14932881295681, -0.1421596109867096, 0.08234880864620209, 0.12631024420261383, 0.006492405664175749, 0.16012436151504517, 0.08004999160766602, 0.04427459090948105, 0.05148022621870041, 0.14910359680652618, -0.1715867966413498, 0.09326806664466858, 0.11301892250776291, -0.09132764488458633, 0.16889816522598267, -0.1409025341272354, 0.11668824404478073, 0.15916131436824799, -0.061541058123111725, -0.13939741253852844, -0.09653937816619873, -0.10762163996696472, 0.06368135660886765, 0.0365811251103878, 0.1322527825832367, -0.09990619122982025], [0.1729813516139984, 0.08057364821434021, -0.08006128668785095, 0.11433320492506027, 0.058433420956134796, -0.1649048775434494, 0.08653329312801361, 0.02851550281047821, 0.16011926531791687, 0.13306884467601776, 0.01190115325152874, -0.10250966995954514, 0.16291895508766174, -0.14061172306537628, -0.05375288799405098, 0.07033969461917877, -0.03362837806344032, 0.142923504114151, 0.11033400148153305, 0.05618421360850334, 0.12897822260856628, -0.05138825997710228, 0.10594940185546875, -0.12056394666433334, 0.012011788785457611, 0.08291182667016983, -0.12844009697437286, 0.056476861238479614, -0.17590229213237762, 0.0074773565866053104, 0.11108244210481644, -0.11848507076501846], [-0.10406751930713654, -0.054680436849594116, -0.09215323626995087, -0.11280157417058945, 0.011578350327908993, 0.17557288706302643, -0.053177352994680405, 0.16952362656593323, -0.0033071788493543863, -0.0816468745470047, 0.07207922637462616, 0.11229638010263443, 0.1285082846879959, -0.10145654529333115, -0.06349646300077438, 0.009429514408111572, 0.13583488762378693, 0.056761644780635834, 0.1638033092021942, -0.04792067036032677, -0.08334534615278244, -0.16404879093170166, 0.022026427090168, 0.016657572239637375, 0.13824689388275146, -0.07952176779508591, -0.1470709592103958, -0.1303238719701767, 0.1286582201719284, 0.13203895092010498, -0.10809427499771118, -0.1425102949142456], [-0.1708398312330246, -0.059629086405038834, -0.07520104199647903, 0.0017186431214213371, 0.0628339946269989, 0.07346832007169724, 0.030748464167118073, 0.08404126018285751, -0.07295627892017365, -0.018097413703799248, -0.15353256464004517, -0.06789102405309677, -0.06979332864284515, -0.03801441192626953, -0.03860868141055107, -0.15463657677173615, -0.12664206326007843, -0.10614548623561859, 0.048910994082689285, -0.0637011006474495, -0.09430279582738876, 0.02527843602001667, 0.07490624487400055, 0.019456354901194572, 0.11387228965759277, 0.17520630359649658, -0.03355087339878082, 0.048947010189294815, 0.13146238029003143, 0.06502974033355713, -0.08483441919088364, -0.08851820230484009], [-0.14970558881759644, -0.09931503981351852, 0.006642111577093601, -0.043080251663923264, 0.10389459133148193, 0.031031839549541473, 0.03836130350828171, -0.14860272407531738, 0.06897630542516708, 0.04335123673081398, 0.10644542425870895, 0.009858906269073486, -0.03734944015741348, 0.17233116924762726, -0.04025900736451149, 0.06375182420015335, -0.035973262041807175, -0.031172608956694603, -0.16587258875370026, -0.13200655579566956, -0.03064090572297573, 0.07903353869915009, 0.028344744816422462, 0.009424541145563126, -0.10248952358961105, -0.08150099962949753, -0.11374703049659729, 0.002053563017398119, -0.017379358410835266, -0.16278336942195892, -0.07453642785549164, 0.16360628604888916], [0.15746551752090454, 0.14396032691001892, 0.0052031539380550385, -0.12509861588478088, 0.14300841093063354, -0.09437326341867447, 0.1103774681687355, 0.04746270179748535, -0.09536024928092957, 0.037199053913354874, 0.042207829654216766, -0.05673256516456604, 0.16378049552440643, -0.12957394123077393, -0.09031028300523758, 0.09560462087392807, -0.04468752443790436, 0.07789181917905807, 0.043297942727804184, 0.13589461147785187, -0.14242690801620483, 0.02369181253015995, 0.11827890574932098, 0.013816761784255505, -0.00797791313380003, -0.15140344202518463, -0.06764411181211472, -0.011484974063932896, -0.04701044782996178, -0.03220461308956146, -0.02512061782181263, -0.10793023556470871], [-0.11461886018514633, -0.03849320113658905, 0.0037990957498550415, -0.1717730164527893, -0.06677230447530746, -0.1192910224199295, -0.08194269984960556, 0.042573753744363785, 0.13845302164554596, 0.007562155835330486, 0.03384341299533844, 0.14170092344284058, -0.13097789883613586, 0.03957199305295944, 0.1352219581604004, 0.03366706892848015, -0.10620108246803284, 0.15227118134498596, -0.12613511085510254, -0.15643276274204254, 0.07838432490825653, -0.16333505511283875, 0.011889309622347355, -0.1527658998966217, 0.07293564826250076, -0.013278722763061523, 0.11509162187576294, -0.14132757484912872, -0.1212954893708229, 0.08475726842880249, -0.12849722802639008, -0.1375589668750763], [0.17538993060588837, -0.04060817137360573, 0.06825439631938934, 0.1432293802499771, 0.1583913266658783, 0.1317482888698578, -0.10706715285778046, -0.14102548360824585, -0.01462147943675518, -0.16868825256824493, -0.07627566158771515, -0.027414122596383095, 0.12253481894731522, 0.055898815393447876, 0.032046735286712646, 0.06589526683092117, -0.06293933838605881, 0.032441020011901855, 0.014390450902283192, 0.10391400009393692, 0.0384916216135025, 0.010094991885125637, -0.0958838015794754, -0.10205252468585968, 0.0235354732722044, -0.14417022466659546, 0.006130322348326445, -0.05917423591017723, 0.14553475379943848, 0.14947617053985596, 0.08971074223518372, 0.13496632874011993], [-0.14255939424037933, -0.01567559316754341, 0.09625903517007828, -0.08233115077018738, -0.09441966563463211, 0.12813103199005127, 0.02565598674118519, 0.09327788650989532, 0.02368907816708088, 0.028485747054219246, 0.1621754914522171, 0.08848629891872406, -0.059270668774843216, 0.07224789261817932, 0.07005937397480011, 0.11861583590507507, 0.04883715510368347, 0.12698237597942352, -0.1310759335756302, 0.013787519186735153, 0.04060985893011093, 0.013439175672829151, -0.12338785082101822, -0.1290658563375473, 0.0909729152917862, -0.0447196401655674, 0.032493092119693756, 0.13659575581550598, -0.05923794209957123, -0.14012707769870758, -0.0875336304306984, -0.012927470728754997], [0.0255875401198864, 0.016877558082342148, 0.12318257242441177, -0.034274257719516754, -0.1200534850358963, 0.09524492174386978, -0.007626577280461788, -0.11278867721557617, -0.021482057869434357, 0.010140658356249332, 0.030265040695667267, -0.033811550587415695, -0.14843259751796722, -0.13679975271224976, 0.11989422887563705, 0.07154743373394012, 0.14669425785541534, -0.05457782745361328, 0.08009646087884903, -0.1316642165184021, -0.08955054730176926, 0.15221281349658966, 0.12546347081661224, -0.1288030445575714, -0.011897275224328041, 0.03691874071955681, 0.1602298766374588, 0.07634332776069641, 0.09334186464548111, -0.1402490884065628, 0.0963810533285141, -0.026259424164891243], [-0.011718551628291607, -0.1574079990386963, 0.11756129562854767, 0.14432896673679352, 0.011690481565892696, -0.1593245267868042, -0.10886707901954651, -0.041940391063690186, 0.16280758380889893, 0.11680657416582108, 0.007690535392612219, -0.018725907430052757, 0.15906481444835663, -0.0710299164056778, 0.13273075222969055, -0.1629895120859146, -0.052369460463523865, -0.05254571884870529, -0.02135043404996395, 0.0005180268781259656, -0.045800767838954926, -0.01958979107439518, -0.09810087829828262, 0.02683420293033123, -0.0004958787467330694, 0.04844152182340622, -0.10606954246759415, 0.011626755818724632, -0.16086073219776154, -0.13661521673202515, 0.14329306781291962, 0.05154399201273918], [0.10997537523508072, 0.022342005744576454, -0.1578471064567566, -0.11669296771287918, -0.16906322538852692, 0.04136748984456062, 0.11238682270050049, 0.026898477226495743, 0.1853754222393036, 0.10400645434856415, -0.11951211839914322, 0.04928460717201233, 0.1280432641506195, 0.01682204008102417, -0.10971563309431076, 0.01607181504368782, -0.11113335937261581, 0.03177060931921005, 0.13031445443630219, 0.016561223194003105, 0.16666296124458313, 0.002896027872338891, -0.08214598894119263, -0.07141241431236267, -0.009775855578482151, 0.02146623283624649, 0.06264433264732361, 0.024499624967575073, -0.04584647715091705, 0.1540275514125824, -0.018360832706093788, 0.1309748888015747], [0.11651384085416794, 0.1403234601020813, -0.06797346472740173, 0.1298697143793106, -0.04299813136458397, -0.0204103272408247, -0.11254455894231796, -0.02654644474387169, 0.11538325250148773, -0.005997053813189268, 0.12102419137954712, 0.10755300521850586, 0.12334336340427399, -0.12347028404474258, 0.11632348597049713, -0.025049325078725815, -0.02219787985086441, 0.028344597667455673, -0.03292813152074814, -0.000618631427641958, 0.1733054518699646, 0.11223043501377106, -0.039734531193971634, -0.1349259316921234, -0.14194324612617493, 0.1601056605577469, 0.0028427205979824066, 0.06175868213176727, -0.12161830812692642, 0.02468983456492424, 0.06492376327514648, 0.017986968159675598], [0.06945142894983292, 0.15638284385204315, -0.12198096513748169, 0.07848124206066132, -0.03906117007136345, 0.0185412410646677, 0.11122924089431763, 0.10453353822231293, -0.028765561059117317, 0.062455832958221436, -0.047007475048303604, 0.030004404485225677, -0.03111235983669758, -0.04174297675490379, 0.053935762494802475, -0.07927965372800827, 0.005431401077657938, 0.06401252746582031, -0.11339609324932098, -0.06823663413524628, -0.0296938456594944, -0.13234813511371613, -0.02426440455019474, 0.07029999047517776, -0.16335967183113098, 0.12942135334014893, -0.0028122062794864178, 0.01769697666168213, -0.04623968526721001, 0.004840565379709005, 0.06035514920949936, 0.02249615453183651], [0.11455336213111877, 0.06588646024465561, 0.030078498646616936, 0.013547745533287525, 0.09559661895036697, -0.08120797574520111, -0.07390919327735901, 0.12073972076177597, 0.029127053916454315, 0.0050731529481709, -0.0940374955534935, -0.16698825359344482, 0.16875998675823212, -0.0073316339403390884, 0.06521065533161163, 0.0709969773888588, 0.012356591410934925, -0.032312218099832535, 0.08106088638305664, 0.03773651644587517, -0.008265649899840355, -0.03753391653299332, -0.10202615708112717, 0.17479538917541504, 0.16794487833976746, 0.027897819876670837, -0.12027256190776825, -0.04633447527885437, -0.16936881840229034, 0.04195099323987961, -0.14727556705474854, -0.03657039999961853], [0.007767811417579651, 0.0767313688993454, 0.07605668157339096, -0.03509199246764183, 0.11120104044675827, -0.06175457313656807, -0.15360799431800842, -0.052903417497873306, -0.13262754678726196, -0.15605387091636658, -0.050837188959121704, 0.07706210017204285, -0.001831744099035859, -0.041691914200782776, 0.13825272023677826, 0.17377664148807526, 0.14352089166641235, 0.07196801900863647, -0.17501474916934967, -0.01362194586545229, 0.12752296030521393, -0.07098719477653503, -0.11241070181131363, 0.1412895917892456, 0.04390525817871094, 0.12329916656017303, 0.16397635638713837, -0.029618360102176666, 0.1343129426240921, -0.12367701530456543, 0.17075215280056, 0.1759190708398819], [0.0635824203491211, -0.15689431130886078, 0.09008446335792542, -0.030240004882216454, -0.04043412581086159, 0.0008318312466144562, -0.045906536281108856, -0.14326591789722443, 0.07726817578077316, 0.030763806775212288, -0.1109212338924408, 0.16709846258163452, 0.05397281050682068, 0.01566160097718239, 0.08954664319753647, 0.02171892486512661, -0.03744757920503616, 0.02875603549182415, -0.0598805770277977, 0.007638926617801189, 0.15789014101028442, -0.15202386677265167, -0.0609402097761631, -0.1302492320537567, 0.08483483642339706, 0.1732788383960724, -0.04245409741997719, -0.14777910709381104, 0.15015268325805664, 0.06272603571414948, -0.083450086414814, -0.10607784241437912], [0.1187494620680809, 0.13382366299629211, 0.17149975895881653, 0.15027616918087006, 0.1766260415315628, -0.17086929082870483, -0.15907418727874756, -0.17032945156097412, -0.08919510245323181, 0.06372921913862228, 0.06317117065191269, 0.17463910579681396, -0.053244851529598236, -0.025412505492568016, 0.040625810623168945, 0.11157163977622986, -0.13997286558151245, -0.015977364033460617, -0.09556325525045395, -0.11130331456661224, 0.09073778241872787, 0.05535748228430748, 0.09291095286607742, 0.07524451613426208, -0.12436489760875702, 0.14722970128059387, -0.05273664370179176, -0.020354947075247765, -0.025037629529833794, 0.09177743643522263, -0.07856385409832001, 0.15195441246032715], [-0.14272025227546692, -0.15869736671447754, -0.05061796307563782, -0.045595262199640274, -0.15552785992622375, -0.15190333127975464, -0.07487547397613525, -0.00587925361469388, -0.04389960691332817, -0.16078093647956848, 0.04188503324985504, 0.09938102215528488, -0.1739337146282196, 0.1253594309091568, -0.03962330520153046, 0.16780704259872437, 0.1722218245267868, 0.12029487639665604, 0.09348457306623459, -0.1253920942544937, -0.14976933598518372, -0.04243618622422218, -0.11357852816581726, 0.06015271693468094, 0.14072643220424652, -0.1346900314092636, 0.1649581491947174, 0.022382842376828194, 0.07275079190731049, -0.06408990919589996, 0.1396787017583847, 0.15351511538028717], [-0.058636803179979324, 0.1326627880334854, -0.015996288508176804, 0.1766911745071411, -0.08976422995328903, -0.08271259814500809, -0.01395916286855936, 0.0043702698312699795, 0.07283850014209747, 0.05528250336647034, -0.06567542999982834, 0.04969321936368942, -0.17188823223114014, 0.1663881540298462, -0.15439508855342865, -0.16761671006679535, 0.07928924262523651, -0.03017573058605194, 0.16171644628047943, -0.031954266130924225, -0.09614298492670059, 0.17018799483776093, 0.036476537585258484, -0.07276160269975662, 0.11361727863550186, -0.15982167422771454, 0.01472518127411604, 0.1050722599029541, 0.006195228546857834, 0.07873322069644928, -0.10293212532997131, -0.12903232872486115], [0.0037037807051092386, -0.14031484723091125, 0.11123071610927582, -0.0051619564183056355, 0.0032823123037815094, 0.05784096568822861, 0.07594452798366547, 0.14111202955245972, -0.007072662468999624, 0.06503286212682724, -0.07411980628967285, -0.06600367277860641, -0.09591691195964813, 0.16462771594524384, -0.04338680952787399, -0.1415894329547882, 0.13485141098499298, -0.17355279624462128, -0.16639524698257446, 0.058734793215990067, -0.14914672076702118, 0.04054172709584236, 0.15373572707176208, -0.0953458622097969, 0.009683406911790371, 0.04721401631832123, 0.1368778795003891, 0.007525530178099871, 0.05135194957256317, 0.08616280555725098, -0.09972858428955078, 0.16557496786117554], [-0.07439006865024567, -0.062099650502204895, 0.018216393887996674, -0.06912060081958771, 0.04972809553146362, -0.0065477024763822556, 0.06451451778411865, 0.1187657043337822, 0.060242071747779846, 0.08444873243570328, 0.14321742951869965, -0.09981079399585724, 0.13907526433467865, -0.1704615354537964, 0.17358386516571045, 0.0744822695851326, -0.030240532010793686, 0.1694057136774063, 0.1429237276315689, 0.06132054328918457, -0.0669972226023674, 0.09592877328395844, -0.004341673105955124, -0.13204529881477356, -0.06981859356164932, 0.1559087187051773, 0.11028221994638443, 0.13599805533885956, -0.16307848691940308, 0.14375527203083038, -0.11605315655469894, -0.16691255569458008], [0.129903182387352, -0.027113229036331177, -0.03758777678012848, 0.10261984169483185, -0.13100536167621613, 0.10170651972293854, -0.11848780512809753, -0.1760426163673401, -0.1135936751961708, -0.05721031874418259, -0.06287368386983871, 0.009455167688429356, -0.026928644627332687, -0.08866164088249207, 0.1332470327615738, -0.10331878066062927, -0.06329147517681122, 0.15559925138950348, -0.03961281105875969, -0.10663383454084396, -0.16212202608585358, 0.02451309747993946, 0.1402893364429474, -0.12968198955059052, -0.06358812749385834, 0.08961410075426102, 0.16252239048480988, -0.020094014704227448, -0.07832707464694977, -0.041172780096530914, -0.12174724042415619, -0.06562180072069168], [0.05436035245656967, 0.007424673065543175, -0.11850079149007797, -0.016660332679748535, 0.15316028892993927, 0.04004477337002754, 0.1557263433933258, 0.02174501307308674, 0.02094428613781929, 0.07586148381233215, -0.03835875168442726, -0.0224284864962101, -0.17411109805107117, -0.10527833551168442, -0.001341555267572403, 0.040920689702034, -0.15673376619815826, 0.007877372205257416, 0.1210106834769249, -0.06889142841100693, 0.011716802604496479, 0.09804079681634903, 0.12098290771245956, -0.03773748502135277, 0.06506451219320297, 0.11706449091434479, 0.10910889506340027, 0.007887318730354309, -0.152889221906662, 0.17612506449222565, 0.01688782125711441, 0.10697858035564423], [-0.09722523391246796, 0.05257102847099304, 0.1344555914402008, 0.04813387244939804, -0.04093443229794502, 0.17357440292835236, -0.1629871279001236, 0.0652221217751503, 0.15179294347763062, 0.011600624769926071, -0.08583033084869385, 0.12575043737888336, 0.009693458676338196, 0.09985054284334183, 0.13453499972820282, 0.05422310158610344, 0.031898610293865204, 0.11020037531852722, 0.04345002770423889, 0.13239148259162903, -0.143692746758461, -0.07973195612430573, -0.15923890471458435, 0.08049826323986053, -0.03844629228115082, -0.11178899556398392, -0.04286770522594452, 0.17142876982688904, 0.07245852053165436, 0.07209406048059464, 0.16858899593353271, -0.09671793133020401], [0.05939171463251114, -0.14814744889736176, 0.027803432196378708, 0.1173919066786766, 0.05921950191259384, 0.11707943677902222, -0.043970245867967606, 0.013653302565217018, 0.06316900253295898, -0.0271590705960989, -0.10881839692592621, -0.004591372329741716, -0.07191910594701767, -0.069465272128582, 0.16921906173229218, 0.15570084750652313, 0.1418951451778412, -0.07009783387184143, -0.01117363478988409, -0.14397090673446655, 0.11911769956350327, -0.14692693948745728, -0.08691887557506561, 0.004611665848642588, 0.05768917128443718, -0.15905040502548218, -0.023093881085515022, -0.05666393041610718, 0.1458679586648941, -0.02700451761484146, -0.16968806087970734, 0.16833290457725525], [0.1261078119277954, 0.01166725903749466, -0.04869946092367172, 0.07419253140687943, 0.040298327803611755, 0.14615610241889954, 0.05188997834920883, -0.035576533526182175, 0.016316836699843407, 0.09868913888931274, 0.17444942891597748, 0.09615744650363922, 0.12628251314163208, -0.04452032595872879, 0.12940382957458496, -0.04727620258927345, -0.16271793842315674, -0.02584952488541603, -0.16766896843910217, 0.10806439071893692, -0.08529196679592133, -0.0429723784327507, -0.04597015678882599, -0.12018388509750366, -0.12067753076553345, 0.16258005797863007, -0.015306470915675163, 0.16575974225997925, 0.10687941312789917, -0.11960076540708542, -0.06949912011623383, -0.019444700330495834], [0.10322045534849167, -0.1607033610343933, 0.03620847687125206, -0.09466900676488876, -0.10086480528116226, -0.1239563450217247, -0.04196913167834282, 0.13816271722316742, -0.04428699240088463, 0.027593493461608887, 0.11529494822025299, -0.041128430515527725, 0.045653458684682846, -0.09418073296546936, 0.11293166130781174, -0.15638624131679535, -0.030627334490418434, -0.16629882156848907, 0.06264612823724747, -0.07847777754068375, -0.04549311846494675, -0.019566237926483154, -0.04216572269797325, -0.0833929032087326, 0.02155006304383278, -0.0030930095817893744, 0.15261906385421753, -0.16550709307193756, 0.16254785656929016, -0.08968343585729599, 0.15759587287902832, -0.08497282862663269], [0.025707533583045006, -0.10529496520757675, 0.1413036286830902, -0.06398972868919373, 0.03277423232793808, -0.1309780776500702, -0.013320300728082657, 0.0768953412771225, -0.12976199388504028, 0.01699679158627987, -0.16480964422225952, -0.05876920744776726, 0.061798449605703354, 0.029051611199975014, -0.03496873378753662, -0.13416233658790588, 0.02202271856367588, 0.012640830129384995, 0.12960819900035858, -0.041283152997493744, 0.0933036133646965, 0.09328974783420563, -0.03204220533370972, -0.019285617396235466, -0.03550073131918907, 0.1337009072303772, -0.1409822404384613, -0.044346701353788376, 0.11496353894472122, -0.1313689798116684, 0.0933220386505127, 0.15951678156852722], [-0.05251988396048546, -0.1615252047777176, -0.12300512939691544, 0.09317675232887268, -0.16902382671833038, 0.0043679941445589066, 0.148764505982399, -0.08981851488351822, 0.04216505587100983, -0.09491090476512909, -0.10012125223875046, 0.13077518343925476, -0.10091238468885422, -0.06341463327407837, -0.013284116983413696, 0.06222708150744438, -0.15084299445152283, 0.07797069847583771, 0.1657078117132187, -0.1611657291650772, -0.10091286897659302, 0.1465734839439392, -0.1292390078306198, -0.0954819992184639, 0.041387952864170074, -0.13290627300739288, 0.004911962430924177, -0.12971189618110657, 0.05614476278424263, 0.11344996094703674, 0.062052465975284576, 0.08204151690006256], [0.04644331708550453, 0.14874714612960815, 0.1170516386628151, -0.13912615180015564, -0.07018596678972244, 0.027303339913487434, -0.016254542395472527, -0.1752830445766449, 0.02429215796291828, 0.10870517045259476, -0.042976971715688705, -0.13571736216545105, -0.035415153950452805, -0.09881912171840668, -0.12771882116794586, -0.12503080070018768, -0.1387212723493576, 0.01633291505277157, -0.08242490142583847, -0.1695876270532608, -0.10719350725412369, 0.14863349497318268, 0.023931527510285378, 0.16912314295768738, -0.16990888118743896, -0.06777647137641907, 0.03271061182022095, 0.06279446184635162, 0.119169220328331, -0.14882215857505798, -0.0630924180150032, 0.021704910323023796], [-0.04432680830359459, -0.09773162752389908, 0.14224804937839508, -0.15393902361392975, -0.008331377990543842, 0.15342824161052704, -0.1339377462863922, 0.064512237906456, -0.052625227719545364, -0.011109024286270142, 0.09232500940561295, 0.005483958404511213, -0.06744692474603653, 0.05387840047478676, -0.03768381103873253, 0.04917529970407486, -0.12111887335777283, 0.11206528544425964, -0.15707145631313324, 0.028212403878569603, 0.052086781710386276, 0.10517579317092896, -0.1185314729809761, -0.03730269894003868, 0.06095123291015625, 0.15764391422271729, 0.16303418576717377, 0.11230208724737167, -0.10856642574071884, -0.025258837267756462, 0.11530833691358566, -0.057422131299972534], [-0.05938705801963806, -0.14581355452537537, -0.002351225120946765, -0.0379837304353714, 0.03892851620912552, 0.016969816759228706, 0.16000279784202576, 0.16531383991241455, 0.14346762001514435, 0.014960971660912037, 0.10208017379045486, -0.07095900177955627, 0.1376505345106125, -0.1320330947637558, -0.131942018866539, 0.06121709570288658, 0.08593221753835678, 0.15812356770038605, -0.0736747533082962, 0.14274314045906067, 0.15987226366996765, 0.04343099892139435, -0.15283511579036713, -0.11324969679117203, 0.03251667320728302, 0.030969293788075447, 0.06180047243833542, -0.030028386041522026, -0.10676934570074081, -0.1718793511390686, 0.1693270206451416, -0.13272270560264587], [0.04020040109753609, 0.12472556531429291, -0.06352465599775314, 0.11458273977041245, -0.08575320243835449, 0.14349956810474396, 0.06131257489323616, 0.11881710588932037, 0.12439883500337601, -0.04756271839141846, 0.11092545837163925, -0.16384048759937286, -0.1655208021402359, -0.07119447737932205, 0.04348233342170715, -0.15193799138069153, -0.16183999180793762, 0.11212214082479477, 0.039506033062934875, -0.14657416939735413, -0.15810391306877136, 0.11824092268943787, -0.016152357682585716, 0.12146691977977753, -0.09264745563268661, -0.07143919914960861, -0.144021138548851, -0.010920501314103603, 0.09323645383119583, -0.13134455680847168, 0.017184922471642494, -0.09397977590560913], [0.13753800094127655, -0.013606667518615723, 0.14386647939682007, 0.02877049148082733, -0.05269017815589905, -0.08791419118642807, -0.17456859350204468, -0.08240347355604172, 0.024968361482024193, -0.07518013566732407, 0.05632532015442848, 0.035686008632183075, 0.13477739691734314, 0.12359312176704407, -0.025227122008800507, -0.13891316950321198, 0.16707922518253326, 0.07593138515949249, 0.1393720805644989, 0.12932425737380981, 0.036982763558626175, -0.07992066442966461, -0.016419822350144386, 0.14432168006896973, 0.11323707550764084, 0.07960100471973419, 0.0885307788848877, 0.054197072982788086, -0.06381405889987946, -0.1302478313446045, 0.09813632071018219, -0.10662033408880234], [-0.05449458956718445, -0.1369805485010147, 0.11477179080247879, -0.16158798336982727, -0.16361132264137268, -0.13453766703605652, -0.0009981216862797737, 0.13615837693214417, 0.0031129661947488785, 0.052347078919410706, -0.05039547011256218, 0.034815508872270584, 0.15368178486824036, -0.14810636639595032, 0.03746329993009567, 0.06387636810541153, 0.0969395861029625, -0.01791481301188469, 0.1599615067243576, 0.14198286831378937, 0.13661842048168182, 0.15821319818496704, -0.01973888650536537, 0.06730552017688751, -0.01771712303161621, 0.028334947302937508, 0.031110674142837524, 0.10492881387472153, -0.0838487520813942, -0.06976683437824249, -0.1609649509191513, -0.1672026813030243], [-0.06490616500377655, 0.0744277685880661, -0.0342944897711277, -0.0234599057585001, 0.11582569032907486, -0.11476894468069077, -0.12395800650119781, -0.08373543620109558, -0.16187411546707153, 0.0940963551402092, -0.01601407490670681, -0.05784214287996292, -0.032774463295936584, -0.11331327259540558, 0.05756751447916031, -0.13963262736797333, 0.08797764778137207, 0.10414601862430573, -0.0260000117123127, -0.057541996240615845, 0.03516581282019615, 0.11774632334709167, -0.08263114839792252, 0.14484377205371857, 0.003385550808161497, 0.1103106290102005, -0.10475651919841766, 0.12002777308225632, -0.009083130396902561, -0.015010831877589226, -0.00917798187583685, -0.003775556804612279], [-0.02103509195148945, 0.15865953266620636, 0.14431984722614288, -0.07632283866405487, 0.023488080129027367, 0.06380660086870193, 0.10796675831079483, 0.09899970144033432, 0.10774102061986923, 0.03604402765631676, -0.047095563262701035, -0.09930296987295151, 0.15889707207679749, -0.09527170658111572, -0.14017312228679657, 0.027932338416576385, -0.028722591698169708, -0.13449829816818237, 0.0700012594461441, -0.05630530044436455, -0.04840110242366791, 0.013817359693348408, -0.14868322014808655, -0.04753879830241203, 0.08221866190433502, 0.05996609106659889, -0.10603948682546616, 0.0703715831041336, 0.034033432602882385, 0.1674533188343048, -0.02334005944430828, 0.14994721114635468], [-0.03167879208922386, 0.054809827357530594, -0.14509421586990356, 0.15929676592350006, 0.1333319991827011, 0.11688549816608429, 0.11145029962062836, 0.09629903733730316, 0.07042489945888519, -0.02300267480313778, -0.07147357612848282, -0.09651035815477371, 0.17531970143318176, -0.11591394990682602, -0.16395507752895355, -0.08820344507694244, -0.02666083164513111, -0.11520060896873474, 0.102816142141819, -0.14921265840530396, 0.09620387107133865, -0.02225741371512413, 0.04326961934566498, -0.13018804788589478, 0.1221228763461113, 0.16028210520744324, -0.07935977727174759, 0.042800143361091614, 0.008379868231713772, 0.1439802050590515, -0.1671600192785263, 0.10692206770181656], [0.11253627389669418, 0.026326121762394905, -0.06463567167520523, 0.15930572152137756, -0.01458675041794777, -0.12815625965595245, 0.12133177369832993, -0.06961742788553238, -0.027418335899710655, 0.13257312774658203, -0.08581410348415375, 0.15570761263370514, -0.020823998376727104, 0.12908241152763367, -0.0734991729259491, 0.04994846135377884, 0.14827436208724976, -0.09411028772592545, -0.040247585624456406, -0.02429860644042492, -0.12429466098546982, 0.1469280868768692, -0.14102986454963684, 0.056856561452150345, -0.11837924271821976, 0.04500887170433998, -0.0389968566596508, -0.10719291865825653, -0.07115153223276138, -0.13645903766155243, -0.005888820625841618, 0.022074980661273003], [0.015840744599699974, -0.06254345923662186, 0.16329587996006012, -0.12139269709587097, 0.12668637931346893, -0.1543833166360855, 0.08273276686668396, 0.054350655525922775, 0.07761240750551224, -0.07268624007701874, -0.07983822375535965, 0.16923964023590088, -0.13431024551391602, 0.08329921960830688, 0.05313311889767647, 0.008148440159857273, 0.10844514518976212, -0.09101205319166183, -0.1374131441116333, 0.06758479028940201, -0.06111273914575577, -0.16064302623271942, -0.0012199404882267118, 0.1272374987602234, 0.09858303517103195, -0.12830618023872375, 0.14510716497898102, -0.0310116708278656, 0.032840486615896225, 0.14126485586166382, 0.06342845410108566, -0.09819960594177246], [-0.16990771889686584, -0.10431207716464996, -0.11806473881006241, -0.16414107382297516, -0.1391134411096573, -0.028096817433834076, 0.08003599941730499, -0.10375658422708511, -0.1434744894504547, 0.0013727860059589148, -0.07480711489915848, -0.09155167639255524, 0.012244101613759995, -0.09490549564361572, -0.14267301559448242, -0.030319305136799812, 0.16139467060565948, -0.06293072551488876, 0.041284143924713135, 0.12378748506307602, -0.10135331004858017, -0.029559796676039696, 0.04196867346763611, -0.15180057287216187, -0.11790907382965088, 0.059740081429481506, -0.16258953511714935, 0.10984132438898087, -0.006949382834136486, 0.08014914393424988, 0.007538933306932449, 0.13899452984333038], [0.15857569873332977, -0.045732490718364716, 0.14584428071975708, 0.138765349984169, 0.04983742535114288, -0.14171327650547028, 0.024853933602571487, -0.10256439447402954, -0.09960617125034332, -0.15228374302387238, -0.0021176051814109087, -0.007086044177412987, -0.13282713294029236, 0.127115398645401, -0.0885464996099472, 0.07319779694080353, 0.15387773513793945, 0.06768123805522919, 0.12773475050926208, -0.0344831608235836, -0.13224223256111145, 0.08853356540203094, -0.038966719061136246, -0.08656732738018036, -0.16424599289894104, 0.1124456599354744, 0.040455177426338196, 0.0004159683012403548, -0.11717656254768372, -0.15809784829616547, -0.13066022098064423, -0.16393928229808807], [0.1346130669116974, -0.033560775220394135, 0.07312669605016708, 0.025453008711338043, -0.16271814703941345, -0.002888365648686886, 0.005207137670367956, 0.06626247614622116, 0.15571913123130798, -0.07332124561071396, -0.076040118932724, -0.08227148652076721, -0.1266072392463684, -0.0312846340239048, -0.027633391320705414, -0.01195151824504137, 0.15521490573883057, -0.12824156880378723, 0.05643734708428383, -0.15172024071216583, 0.16210642457008362, 0.1420140117406845, 0.07777614891529083, 0.12381597608327866, 0.07516051828861237, -0.0924086719751358, -0.014677955769002438, -0.011732122860848904, 0.08978147059679031, -0.1361301690340042, 0.04502526670694351, 0.047467127442359924], [-0.08360585570335388, -0.08296908438205719, 0.04507489502429962, -0.06108629330992699, -0.04542696848511696, -0.03785981610417366, -0.168166846036911, -0.03115098737180233, -0.10607495158910751, 0.1623953878879547, 0.144858255982399, -0.15613624453544617, -0.017280248925089836, 0.1420309841632843, -0.16200761497020721, 0.043240852653980255, 0.1599220633506775, 0.13845066726207733, -0.1369636356830597, 0.0009443001472391188, -0.15255072712898254, 0.14831915497779846, -0.05962223559617996, 0.0008389751310460269, 0.170659601688385, -0.0549568347632885, -0.09944692254066467, 0.11690186709165573, 0.07647930830717087, 0.09427927434444427, 0.1640460044145584, -0.016691943630576134], [0.15552222728729248, 0.10998555272817612, 0.1495891660451889, 0.06685914844274521, 0.0849836990237236, 0.12160349637269974, 0.0884336307644844, -0.03471184894442558, 0.07308275997638702, 0.14494362473487854, -0.14271460473537445, -0.16720865666866302, 0.1659844070672989, 0.007097634486854076, -0.16773898899555206, -0.10231222957372665, -0.14937688410282135, 0.07450328022241592, -0.13411174714565277, 0.07373549044132233, 0.056456733494997025, -0.02790873683989048, 0.17393170297145844, 0.14844615757465363, 0.026447251439094543, -0.10233766585588455, -0.033665068447589874, -0.014041243121027946, 0.1305346041917801, 0.12548033893108368, -0.08067937195301056, 0.14577679336071014], [-0.049455996602773666, 0.1429303139448166, -0.14670947194099426, -0.004156205803155899, 0.137342169880867, -0.11381891369819641, 0.15587204694747925, -0.16741830110549927, -0.006098606623709202, -0.040856458246707916, 0.07364145666360855, -0.1286085546016693, -0.1539469063282013, -0.13740995526313782, 0.13636547327041626, -0.1527489572763443, -0.04723247513175011, 0.11154734343290329, 0.07033137232065201, -0.01193611416965723, 0.13092420995235443, 0.12298227101564407, 0.11128921806812286, -0.11364857107400894, -0.13034941256046295, 0.1587989181280136, 0.0897868424654007, -0.11005212366580963, -0.15242746472358704, 0.07938356697559357, -0.15214264392852783, 0.011544991284608841], [-0.16675998270511627, 0.05077359080314636, 0.08128347992897034, 0.14316780865192413, 0.019631559029221535, -0.054442811757326126, 0.10551819205284119, 0.08796953409910202, 0.006011549849063158, -0.17093168199062347, 0.05421823263168335, -0.06282000243663788, 0.06626904010772705, -0.07959195226430893, 0.14480453729629517, 0.008813664317131042, -0.11220850050449371, 0.1410716325044632, -0.07605545967817307, -0.11603930592536926, -0.12330551445484161, -0.002501255599781871, 0.13329800963401794, 0.07080534100532532, -0.06558140367269516, 0.14531278610229492, 0.1319693624973297, 0.07005147635936737, -0.15754170715808868, -0.01129456702619791, 0.013810868375003338, -0.04495871812105179], [-0.14627140760421753, 0.11570858955383301, -0.12757211923599243, 0.17086133360862732, -0.1048450693488121, -0.007541609462350607, -0.14614075422286987, -0.01907515712082386, 0.09509369730949402, 0.0096181845292449, 0.08052264899015427, -0.04909504950046539, -0.07279365509748459, -0.07596728950738907, -0.1609780341386795, 0.06062360480427742, -0.12077413499355316, -0.1471390724182129, 0.06861785054206848, -0.09627340734004974, -0.03540780022740364, -0.06698331236839294, -0.026845160871744156, -0.12548477947711945, -0.11672649532556534, -0.1439868062734604, 0.006997957359999418, 0.11070128530263901, 0.056671325117349625, 0.12215163558721542, 0.032783545553684235, -0.14250774681568146], [-0.048997607082128525, -0.15405386686325073, 0.013756878674030304, 0.15553805232048035, 0.01888326369225979, 0.13489022850990295, 0.016856757923960686, 0.07550530135631561, 0.12287154793739319, 0.12095161527395248, 0.08304629474878311, 0.012718021869659424, -0.06471947580575943, -0.02550177276134491, -0.17277775704860687, -0.0782158225774765, -0.14480061829090118, -0.08908939361572266, -0.07814276218414307, 0.06027093902230263, 0.10930070281028748, -0.14590351283550262, 0.058726027607917786, 0.038224682211875916, -0.0350893996655941, 0.1658497005701065, 0.16131499409675598, 0.0003626947000157088, -0.005210909992456436, -0.08555641770362854, -0.15642507374286652, -0.039144475013017654], [0.0774819627404213, 0.05626107007265091, -0.1763184666633606, 0.10460769385099411, 0.1290643811225891, -0.09867643564939499, -0.06449156999588013, 0.14064110815525055, 0.10021456331014633, 0.09357447177171707, -0.08097834140062332, -0.11675755679607391, -0.10451777279376984, 0.025925684720277786, -0.1251242309808731, 0.053342483937740326, -0.13350483775138855, 0.04461125656962395, 0.04795573651790619, -0.0495363287627697, 0.11459922045469284, -0.1494530588388443, 0.05521169677376747, 0.023327775299549103, 0.07764524221420288, -0.1625206619501114, 0.15285800397396088, 0.10703868418931961, 0.02304633893072605, -0.01584460213780403, -0.010504595935344696, 0.1530497521162033], [-0.009448248893022537, -0.10001019388437271, 0.06637692451477051, 0.07953569293022156, 0.17464342713356018, 0.07262015342712402, 0.03521352261304855, -0.17672044038772583, -0.05673222988843918, 0.011181221343576908, 0.1712879240512848, -0.02532045729458332, -0.13502849638462067, -0.004171126056462526, -0.15727047622203827, 0.04656409099698067, 0.05918191000819206, 0.04799259454011917, 0.018630128353834152, 0.16491487622261047, -0.16975544393062592, 0.060991059988737106, 0.13887079060077667, 0.16762109100818634, 0.16884179413318634, -0.05575256794691086, 0.11638099700212479, 0.007051167543977499, -0.024582169950008392, 0.1410752832889557, -0.16834869980812073, -0.09855757653713226], [0.13218648731708527, -0.02569221332669258, -0.10808689892292023, 0.016830837354063988, -0.0018975143320858479, 0.028839318081736565, 0.025837114080786705, -0.11759012937545776, -0.022797925397753716, -0.12143883109092712, 0.1265694499015808, -0.11322858184576035, -0.10633080452680588, 0.0978562980890274, 0.1371622234582901, -0.09456484019756317, 0.044789813458919525, 0.022452089935541153, 0.0708264485001564, -0.02223242074251175, -0.03009999357163906, -0.11588969081640244, -0.036249976605176926, 0.16240718960762024, 0.12150715291500092, -0.010225962847471237, -0.1283138245344162, 0.1375264972448349, -0.030813749879598618, -0.010972910560667515, 0.0004950779257342219, -0.15159574151039124], [-0.023265628144145012, 0.0996253713965416, -0.027637269347906113, -0.032235026359558105, 0.08904772996902466, -0.11662599444389343, 0.14510853588581085, 0.051214490085840225, -0.13191302120685577, 0.0750437080860138, 0.1206241324543953, 0.11584794521331787, 0.10378123819828033, 0.1691882312297821, -0.018502866849303246, 0.12336666882038116, 0.004160800017416477, 0.04303840175271034, 0.013839212246239185, 0.09859835356473923, -0.033472690731287, -0.16386939585208893, -0.07317069917917252, -0.07603177428245544, -0.06937938183546066, -0.07680938392877579, -0.13438203930854797, -0.10632728785276413, 0.1664644181728363, 0.16643552482128143, -0.08864626288414001, -0.1701446920633316], [0.054661259055137634, -0.15175186097621918, 0.08266490697860718, 0.041260793805122375, -0.0363684743642807, -0.14232288300991058, 0.11488138884305954, 0.07630672305822372, -0.027771610766649246, -0.08356858044862747, -0.021158264949917793, -0.0589773915708065, -0.14049002528190613, -0.05310620740056038, 0.07884558290243149, -0.02980378456413746, 0.03343228995800018, 0.02791748195886612, 0.12279558181762695, 0.06315287947654724, -0.010145820677280426, 0.02340119518339634, -0.1269819438457489, -0.06581856310367584, 0.012538687326014042, 0.0029317347798496485, -0.1345689594745636, -0.159368634223938, 0.15714329481124878, -0.09065365791320801, 0.11138366907835007, -0.09926191717386246], [-0.11669831722974777, -0.1314282864332199, -0.11758637428283691, 0.11601478606462479, 0.04743315652012825, 0.08331534266471863, -0.03713383898139, -0.05433502048254013, -0.04534398019313812, 0.019943762570619583, -0.07503017783164978, -0.08968636393547058, -0.0024753264151513577, -0.06815671920776367, 0.0908326506614685, 0.0826292335987091, -0.08625444769859314, -0.05323677882552147, 0.0006890587974339724, -0.06554867327213287, 0.04174910858273506, -0.13500705361366272, 0.11544548720121384, 0.17350643873214722, -0.04119239002466202, -0.11359170079231262, 0.07091765850782394, -0.03248828649520874, -0.12236782908439636, 0.13658444583415985, -0.08319265395402908, -0.032263074070215225], [-0.11409590393304825, -0.16695314645767212, 0.007986701093614101, -0.02963317558169365, 0.16566497087478638, 0.06163453683257103, 0.037060946226119995, -0.15522480010986328, 0.09667593240737915, -0.008667267858982086, 0.01604212261736393, -0.1333322674036026, -0.08060816675424576, -0.06254025548696518, -0.10513033717870712, 0.06960435956716537, -0.1373051404953003, -0.14913837611675262, -0.04015637934207916, 0.08224651962518692, -0.07936706393957138, -0.006014397367835045, -0.12603113055229187, 0.12742231786251068, -0.07742658257484436, 0.15557248890399933, 0.0870947539806366, 0.04840613901615143, 0.16957679390907288, -0.02414613962173462, -0.044207554310560226, -0.06501743197441101], [-0.03895171731710434, -0.15565770864486694, -0.06242447718977928, -0.06993772089481354, -0.17583055794239044, -0.004547708202153444, 0.11952906847000122, 0.1748550534248352, 0.12870296835899353, 0.006541970651596785, -0.17420460283756256, -0.0492352731525898, 0.14671897888183594, -0.10923417657613754, 0.028503386303782463, 0.025152860209345818, 0.0015523105394095182, -0.1619296371936798, 0.07962840050458908, -0.07754690945148468, -0.15163598954677582, -0.149363175034523, 0.15915098786354065, 0.12331046909093857, 0.041169166564941406, 0.08549804240465164, -0.06249511241912842, -0.11523295938968658, -0.06866241991519928, -0.08838547766208649, 0.07596558332443237, 0.10810228437185287], [-0.01749979332089424, 0.15181739628314972, 0.1498091220855713, 0.10338680446147919, -0.03813231736421585, 0.16313403844833374, 0.003489190014079213, -0.04549117758870125, 0.16037517786026, 0.1027446761727333, 0.05475823953747749, 0.12420026957988739, 