{"lstm.weight_ih_l0": [[-0.1403999775648117, 0.06465089321136475, 0.15717244148254395, -0.1850718855857849, -0.19613422453403473, 0.11579089611768723, 0.017431294545531273, -0.12577912211418152, 0.11034272611141205, 0.05484319478273392, -0.025736821815371513, -0.06278706341981888, -0.09708017110824585, -0.07305435091257095, 0.19302895665168762, -0.03666984289884567, -0.10488782823085785], [-0.1375173032283783, 0.0801563486456871, -0.09863772243261337, -0.17255115509033203, 0.10891617834568024, -0.05020947754383087, 0.1595918834209442, -0.12237429618835449, -0.09181838482618332, 0.13925501704216003, -0.08342690020799637, -0.012247768230736256, -0.0836547464132309, -0.08149392157793045, -0.02128780446946621, -0.14421647787094116, 0.10852807015180588], [-0.15725691616535187, 0.03844320401549339, 0.14893412590026855, -0.1592545062303543, 0.02261129952967167, 0.020438389852643013, -0.1749013215303421, -0.0749611184000969, 0.08626853674650192, 0.056965287774801254, -0.021744461730122566, 0.11468555778265, -0.11062096059322357, 0.1727287322282791, 0.03831565007567406, 0.12148372828960419, 0.03906744346022606], [-0.01760159805417061, 0.13099323213100433, -0.10223065316677094, -0.119221992790699, -0.1605127900838852, -0.05120884254574776, 0.09137379378080368, -0.015380079858005047, -0.04614961892366409, -0.08386307954788208, 0.05793752148747444, -0.09075472503900528, 0.09104930609464645, -0.16991664469242096, -0.16334782540798187, 0.07369382679462433, 0.034680597484111786], [0.10555530339479446, 0.04379253461956978, 0.17344383895397186, 0.09353028237819672, -0.15827226638793945, -0.0740571990609169, -0.017279911786317825, -0.12190628051757812, -0.042165327817201614, -0.09915298968553543, -0.09265803545713425, -0.06323672831058502, 0.018757032230496407, -0.13362954556941986, 0.003747173584997654, 0.16753049194812775, -0.06591743975877762], [-0.08752807229757309, -0.023995013907551765, 0.03784007206559181, 0.11973116546869278, -0.1519622802734375, -0.10390984266996384, 0.06900352984666824, 0.01640801690518856, -0.11558415740728378, 0.007251244504004717, 0.1032547801733017, 0.0045225839130580425, 0.16359777748584747, 0.16324035823345184, -0.06981898099184036, 0.013478129170835018, -0.003551461733877659], [0.07041424512863159, -0.12957362830638885, -0.1694868505001068, 0.12155483663082123, 0.055951908230781555, 0.16226726770401, -0.02407553233206272, -0.06752991676330566, -0.056479793041944504, -0.01970091089606285, 0.10877121239900589, -0.06445996463298798, -0.1516556441783905, -0.09794358164072037, -0.058853063732385635, 0.1300857961177826, -0.12342169135808945], [0.13191257417201996, 0.0989886075258255, -0.15691743791103363, -0.16817955672740936, 0.06541405618190765, 0.048854585736989975, 0.046560827642679214, 0.15930838882923126, 0.12241031229496002, -0.04955756664276123, -0.15424321591854095, -0.013114321045577526, 0.12008975446224213, 0.16311268508434296, -0.12618939578533173, 0.061823371797800064, 0.06955096870660782], [0.02628987655043602, -0.02441115863621235, 0.12232372164726257, 0.1611892431974411, 0.13495753705501556, -0.051673680543899536, -0.06815686821937561, -0.11450622230768204, -0.0860147625207901, 0.02277499809861183, 0.09389333426952362, 0.039577070623636246, 0.11004021763801575, 0.1396264135837555, 0.16496171057224274, -0.045185234397649765, -0.11748960614204407], [0.031820379197597504, 0.17182070016860962, 0.034635014832019806, 0.054573945701122284, -0.08995191752910614, 0.04705960303544998, 0.025059163570404053, -0.03305119648575783, 0.11365913599729538, 0.08501610904932022, -0.16037006676197052, -0.028195960447192192, 0.11424257606267929, 0.15880632400512695, -0.1257239580154419, -0.13438284397125244, -0.1575322151184082], [0.07515657693147659, 0.1740323007106781, 0.11762898415327072, -0.11757048964500427, 0.05610807612538338, 0.17627237737178802, -0.10876499861478806, -0.08871713280677795, 0.10833194106817245, -0.039258357137441635, 0.17245163023471832, -0.10440047830343246, -0.10413971543312073, -0.14663997292518616, 0.13054361939430237, 0.1568661481142044, 0.018256982788443565], [0.016425510868430138, 0.04325811192393303, -0.1448076367378235, -0.07630482316017151, -0.06058744341135025, 0.13317689299583435, -0.10003172606229782, -0.11324278265237808, 0.11867159605026245, 0.15872327983379364, 0.04586135596036911, -0.0011675519635900855, 0.01987055316567421, 0.07107216864824295, -0.11595834791660309, 0.13984251022338867, -0.10481023043394089], [0.09265246987342834, 0.057475656270980835, 0.13155028223991394, -0.08444666862487793, -0.005155486520379782, -0.1595352590084076, 0.053114742040634155, 0.021128404885530472, 0.13563759624958038, -0.039659950882196426, -0.10504838079214096, 0.05916519835591316, -0.14436015486717224, -0.013611936010420322, 0.0927632749080658, 0.16106493771076202, 0.14612838625907898], [0.0742279514670372, 0.06019061058759689, -0.04353933781385422, -0.03295803442597389, -0.07847841829061508, -0.05725288763642311, -0.0935930386185646, 0.17287570238113403, -0.12343943864107132, 0.03146376088261604, -0.07400088757276535, 0.1739739030599594, 0.007819904945790768, -0.0012815592344850302, -0.15171748399734497, 0.049019839614629745, -0.1514531373977661], [-0.13345155119895935, 0.0039879134856164455, 0.10016476362943649, -0.08733941614627838, -0.029228100553154945, 0.1342165470123291, 0.0707259476184845, 0.01771887205541134, 0.1522635519504547, 0.05645277351140976, 0.09381508827209473, 0.034572847187519073, 0.09267094731330872, 0.1129760593175888, -0.13792742788791656, -0.014356628060340881, 0.04752451181411743], [-0.06931708753108978, -0.01610712707042694, 0.1084865853190422, -0.07998829334974289, 0.08420576900243759, 0.04503186419606209, -0.10561010241508484, 0.1350904107093811, -0.08740371465682983, 0.09307026118040085, 0.1704133152961731, -0.10241853445768356, -0.11575520038604736, -0.13143481314182281, 0.10374747216701508, 0.0745299831032753, 0.14613249897956848], [-0.09963763505220413, -0.12997668981552124, -0.1616853028535843, 0.0831342563033104, -0.041860416531562805, 0.01315873023122549, -0.1208219900727272, -0.16589298844337463, -0.005899926647543907, 0.11747439205646515, 0.00012077179417246953, 0.038231153041124344, 0.10611642897129059, 0.051376692950725555, 0.04171941429376602, -0.10864414274692535, 0.11210650950670242], [0.008286934345960617, 0.07504834234714508, -0.16686023771762848, 0.15004347264766693, -0.08291736990213394, -0.12635383009910583, -0.026161961257457733, 0.12852653861045837, 0.12684178352355957, 0.05338452383875847, 0.02005351148545742, 0.014658610336482525, -0.17252598702907562, -0.1395704299211502, -0.13114258646965027, -0.04522232338786125, -0.14389075338840485], [0.06077329069375992, 0.06525593996047974, -0.152597576379776, -0.17377276718616486, 0.1174331083893776, -0.1210925504565239, -0.008922656066715717, 0.023189807310700417, -0.0004192346823401749, 0.08391153067350388, -0.005231583025306463, -0.155290424823761, 0.15284204483032227, 0.17518264055252075, -0.1115264818072319, 0.1712772399187088, 0.10764553397893906], [-0.08883251249790192, 0.1596868336200714, 0.07459598034620285, -0.10896684229373932, 0.14858101308345795, 0.08162851631641388, -0.0421312116086483, 0.11266391724348068, 0.15301872789859772, 0.11581431329250336, 0.05822654440999031, -0.013453779742121696, -0.10729695856571198, -0.008916249498724937, 0.07281161099672318, -0.10562550276517868, -0.06738035380840302], [-0.0028122062794864178, -0.09241016954183578, -0.04389377310872078, -0.15825699269771576, 0.09994868189096451, -0.1015685498714447, 0.1456640213727951, 0.15047597885131836, -0.08142117410898209, -0.16922320425510406, -0.1193382740020752, -0.06445277482271194, 0.06512463837862015, 0.012022661976516247, 0.15469640493392944, -0.0520758219063282, -0.07303247600793839], [-0.11603811383247375, 0.16080164909362793, 0.00665599899366498, -0.009912032634019852, 0.011503244750201702, -0.06035064160823822, 0.17132607102394104, -0.16649967432022095, -0.13146334886550903, 0.003929076716303825, -0.06253991276025772, -0.06547774374485016, 0.14379248023033142, 0.10109966993331909, 0.05498380959033966, -0.023562468588352203, -0.019020598381757736], [-0.23881244659423828, 0.16891317069530487, 0.04067601263523102, -0.17836043238639832, 0.015625542029738426, -0.1522936075925827, -0.18881438672542572, -0.12189530581235886, -0.07245782017707825, -0.020466947928071022, 0.0969170406460762, 0.0071767414920032024, 0.06948086619377136, -0.013669454492628574, 0.14730539917945862, 0.016597673296928406, 0.07397765666246414], [-0.17117242515087128, -0.05803227052092552, 0.05316673219203949, -0.04173092171549797, 0.1568218469619751, 0.11916957795619965, -0.05489721894264221, 0.13859257102012634, 0.12862135469913483, 0.05374414473772049, 0.0714118480682373, 0.028547871857881546, -0.0505998395383358, 0.15360572934150696, -0.09318655729293823, -0.01868234947323799, -0.13466109335422516], [-0.055844150483608246, 0.016431685537099838, -0.0008091773488558829, -0.06911404430866241, -0.11809521168470383, 0.1468300223350525, -0.019874578341841698, 0.11863330006599426, -0.13207243382930756, 0.024067072197794914, -0.017586635425686836, 0.1338973343372345, -0.14557723701000214, 0.050951600074768066, 0.13554984331130981, -0.09452436119318008, 0.11300425231456757], [-0.018105294555425644, 0.12550336122512817, -0.04141806438565254, 0.13664031028747559, 0.17158421874046326, 0.17375487089157104, -0.1604844331741333, 0.05814610794186592, -0.007628073915839195, 0.07626231759786606, 0.1730498969554901, -0.1300022304058075, -0.05218258127570152, 0.152520090341568, 0.07457400113344193, -0.021584896370768547, 0.12304628640413284], [-0.17402945458889008, -0.11598477512598038, 0.13437949120998383, -0.013205576688051224, 0.09533290565013885, -0.1760258823633194, 0.13266044855117798, 0.10976661741733551, 0.12197376042604446, -0.023737674579024315, -0.015435418114066124, 0.05323918163776398, -0.05798207223415375, 0.06964859366416931, 0.00025859009474515915, -0.10817593336105347, 0.06060921028256416], [0.12550368905067444, 0.02065119706094265, 0.07796094566583633, -0.055973101407289505, 0.07620034366846085, -0.17514795064926147, 0.06796447187662125, -0.09608657658100128, 0.02692941203713417, -0.16404177248477936, 0.1436174213886261, -0.148066446185112, 0.06102239713072777, 0.025143438950181007, 0.14807504415512085, 0.015127936378121376, -0.174775630235672], [0.14516209065914154, 0.073853500187397, -0.06711780279874802, -0.08056344836950302, 0.09990697354078293, 0.017910955473780632, 0.15219064056873322, -0.01899847202003002, -0.17176568508148193, 0.13355398178100586, -0.06850000470876694, 0.12938369810581207, 0.155798077583313, 0.026336491107940674, 0.11514841020107269, -0.15072010457515717, 0.12244605273008347], [-0.0401935949921608, -0.12269364297389984, 0.004175066947937012, -0.12040235102176666, -0.07281481474637985, 0.06633231043815613, -0.13345618546009064, -0.1330195963382721, 0.014125031419098377, -0.10716651380062103, -0.10514479130506516, 0.12590469419956207, -0.06870897114276886, 0.172340989112854, 0.08934857696294785, -0.1566614955663681, -0.13579225540161133], [0.12692950665950775, -0.06453312188386917, 0.03320568799972534, -0.05935561656951904, 0.17178253829479218, 0.01218530721962452, 0.11109696328639984, 0.07788436114788055, -0.09239471703767776, -0.0753934383392334, 0.14502964913845062, -0.08581481873989105, 0.0830681249499321, 0.07893573492765427, 0.17377817630767822, 0.13259783387184143, -0.06416598707437515], [0.08463548868894577, -0.1029653400182724, -0.011081544682383537, 0.16563408076763153, 0.17228549718856812, 0.09529490768909454, 0.16654223203659058, 0.14508236944675446, 0.0012040722649544477, -0.1178470328450203, -0.009568809531629086, 0.010496293194591999, -0.056977756321430206, 0.05061044171452522, 0.11418408900499344, -0.08847951143980026, 0.08714507520198822], [0.09666796773672104, -0.14697577059268951, 0.0020288650412112474, -0.05865328013896942, -0.1610541194677353, -0.06140068545937538, -0.15200212597846985, 0.15125970542430878, -0.11146090179681778, 0.10496453195810318, 0.09712035208940506, -0.10756651312112808, 0.04944857954978943, -0.07272853702306747, -0.1702558845281601, 0.07437816262245178, -0.10463808476924896], [-0.02631550095975399, -0.022621119394898415, 0.1247839629650116, -0.10368946194648743, 0.0006256067426875234, 0.08203673362731934, 0.15729323029518127, -0.17521806061267853, -0.11142612993717194, -0.08489047735929489, 0.03593115881085396, -0.014812235720455647, -0.08396680653095245, 0.026975836604833603, 0.08750001341104507, 0.10599643737077713, 0.145070418715477], [0.16025011241436005, -0.0838090255856514, -0.13106299936771393, -0.14412230253219604, 0.017428353428840637, 0.008205295540392399, 0.15369975566864014, 0.021556511521339417, 0.07648757100105286, 0.12776941061019897, -0.052568793296813965, 0.07087637484073639, 0.115829698741436, 0.04442376643419266, 0.09936477243900299, -0.0047155581414699554, -0.07528301328420639], [0.00798853486776352, -0.05651462450623512, -0.14219847321510315, 0.11159836500883102, -0.05706685408949852, -0.014775083400309086, 0.10632598400115967, 0.06328243762254715, -0.08792079240083694, 0.053256187587976456, -0.10948796570301056, -0.08511218428611755, -0.09971863776445389, -0.14163728058338165, 0.01745469495654106, -0.036539316177368164, -0.010235446505248547], [0.026202863082289696, 0.0738760456442833, -0.00017400326032657176, 0.09976116567850113, -0.014659558422863483, 0.01650615967810154, 0.03743189945816994, -0.02343672327697277, -0.113205187022686, 0.08046216517686844, 0.14772364497184753, 0.03349694609642029, 0.08166942000389099, 0.15646260976791382, 0.1274801790714264, 0.023942571133375168, 0.10722661763429642], [0.08705919981002808, -0.12695275247097015, 0.13809815049171448, 0.1602756232023239, -0.14919938147068024, -0.1454445868730545, -0.04258732125163078, -0.0046674758195877075, 0.0694112703204155, -0.14185474812984467, -0.09071451425552368, 0.06909001618623734, -0.17941175401210785, -0.08733480423688889, 0.13425981998443604, 0.1336614042520523, -0.03371419012546539], [0.1401190459728241, 0.0032220210414379835, 0.08746746182441711, 0.1371936798095703, -0.13168811798095703, 0.11018998175859451, 0.1422220766544342, 0.04827337712049484, 0.06539865583181381, 0.10299787670373917, 0.12667281925678253, -0.1049576848745346, 0.11254099756479263, -0.03816908970475197, 0.0036105939652770758, 0.1729680448770523, -0.08195361495018005], [-0.11235866695642471, -0.06657589972019196, 0.06866336613893509, 0.16371552646160126, 0.14499934017658234, -0.17211048305034637, 0.0954289585351944, -0.06246331334114075, -0.020405607298016548, 0.13456906378269196, 0.024483419954776764, 0.025984227657318115, 0.0793624296784401, 0.06160210818052292, 0.14659756422042847, -0.16008110344409943, -0.12737002968788147], [-0.03249525651335716, 0.0443635992705822, -0.055899206548929214, -0.022621912881731987, 0.019366243854165077, 0.1696363240480423, 0.11892031878232956, 0.15673935413360596, -0.10634820908308029, -0.07534492015838623, -0.0692484900355339, 0.09605035185813904, 0.06185366213321686, 0.09740850329399109, 0.14498087763786316, -0.06151975318789482, -0.054220348596572876], [0.17043690383434296, -0.15545706450939178, -0.053921159356832504, 0.049235209822654724, 0.04863710328936577, -0.08419224619865417, 0.09948164969682693, 0.03906070813536644, 0.156148299574852, -0.09794525057077408, -0.12514260411262512, -0.06576155871152878, 0.06822223961353302, 0.0851554125547409, 0.09295057505369186, 0.07245700806379318, 0.11501868069171906], [0.12196873873472214, 0.0668010264635086, -0.12304238975048065, -0.06137297675013542, -0.06452810764312744, 0.02979244850575924, -0.03684104606509209, 0.16223257780075073, -0.019349174574017525, -0.044332120567560196, -0.13145020604133606, -0.0480605773627758, 0.062080979347229004, -0.11438673734664917, 0.04281831160187721, -0.08852578699588776, -0.11092925816774368], [0.08489129692316055, -0.12337172776460648, -0.004938978236168623, -0.1142699271440506, -0.030663855373859406, 0.029362402856349945, 0.04418155178427696, 0.17675405740737915, -0.09755353629589081, 0.027031175792217255, 0.05818149074912071, 0.04440627619624138, 0.13886474072933197, -0.11836377531290054, 0.047493092715740204, 0.13209456205368042, 0.15492361783981323], [-0.10607621818780899, -0.17541281878948212, -0.09177102893590927, -0.0380062572658062, 0.10957527160644531, 0.17660555243492126, 0.11549034714698792, -0.052778515964746475, 0.09617811441421509, -0.06835681200027466, 0.12633450329303741, 0.08327624946832657, -0.02107985131442547, -0.028449881821870804, 0.06478322297334671, 0.061908114701509476, -0.04033000394701958], [0.0745132640004158, 0.005964832846075296, -0.06029525771737099, 0.08602232486009598, -0.006608520168811083, 0.0030454257503151894, 0.15796348452568054, -0.1319633573293686, -0.1589003950357437, -0.010068670846521854, 0.05439092963933945, -0.10848031938076019, 0.06339136511087418, -0.004095030017197132, 0.15515011548995972, 0.10303039103746414, -0.16742902994155884], [0.06347435712814331, 0.07170160859823227, 0.07702962309122086, -0.10796462744474411, -0.14780651032924652, 0.13383594155311584, -0.11896466463804245, -0.1743575483560562, -0.0020784717053174973, -0.06853167712688446, -0.030200008302927017, 0.0633394867181778, -0.09352366626262665, 0.09509654343128204, -0.04171581193804741, 0.1235121563076973, 0.08005952090024948], [0.1041312962770462, -0.053816892206668854, 0.10865849256515503, 0.057761888951063156, 0.0669478103518486, -0.10869214683771133, -0.04947369918227196, 0.007214623969048262, -0.15336574614048004, -0.13725367188453674, -0.026898352429270744, -0.04163200035691261, -0.03132682293653488, -0.09832829982042313, -0.013067049905657768, 0.13781066238880157, -0.0973714217543602], [0.07537379860877991, 0.12325148284435272, 0.010474861599504948, 0.025604020804166794, 0.017134632915258408, -0.1479485183954239, -0.1476154327392578, -0.09584102779626846, -0.06851191073656082, -0.1614805907011032, -0.1496734619140625, -0.051335662603378296, -0.036578088998794556, 0.07036177814006805, 0.1241949200630188, -0.029554232954978943, 0.10350460559129715], [-0.14689074456691742, -0.09708128124475479, 0.13388532400131226, 0.14486700296401978, -0.06302778422832489, -0.16923780739307404, 0.09359908849000931, -0.07171351462602615, -0.10701777786016464, -0.1624542623758316, -0.11850108951330185, 0.16774295270442963, 0.045939452946186066, 0.07043859362602234, 0.06530378013849258, 0.07184242457151413, 0.05330105498433113], [-0.010408627800643444, 0.09433383494615555, 0.1748071014881134, -0.020400086417794228, -0.0995398536324501, 0.06439755856990814, -0.07142113894224167, -0.17480066418647766, 0.05377979949116707, -0.156309112906456, 0.15135984122753143, -0.15484263002872467, -0.008922824636101723, 0.16917464137077332, -0.026365824043750763, 0.040842004120349884, -0.03988644853234291], [0.16716061532497406, 0.001351059298031032, -0.13176675140857697, 0.17537353932857513, 0.0713345929980278, -0.14215804636478424, -0.07669948786497116, 0.15308628976345062, 0.07375940680503845, 0.11056742817163467, 0.022644363343715668, 0.17493441700935364, 0.1575002819299698, -0.13144038617610931, -0.1605100780725479, 0.10732129961252213, 0.1541784405708313], [0.03477226570248604, -0.15597721934318542, 0.08254500478506088, -0.14219391345977783, 0.00424262834712863, 0.06877195835113525, 0.036314357072114944, -0.13917584717273712, -0.02590920589864254, 0.11274223029613495, 0.12527970969676971, 0.12730133533477783, -0.10108078271150589, 0.11722494661808014, -0.03940588980913162, 0.10181847959756851, -0.08572247624397278], [0.006957201287150383, -0.06000804901123047, 0.06436067819595337, 0.06952153891324997, -0.17139114439487457, -0.15686392784118652, 0.11892513185739517, -0.08185330778360367, 0.14236190915107727, -0.1201375275850296, -0.07108746469020844, -0.10278598219156265, 0.09094324707984924, 0.04100953787565231, -0.11149092763662338, -0.11269108206033707, -0.09941670298576355], [0.07344766706228256, 0.11144261062145233, -0.07468967139720917, -0.04224220663309097, 0.01171813067048788, 0.15935499966144562, 0.17165659368038177, -0.08961791545152664, 0.12431246787309647, 0.020465519279241562, -0.1752478927373886, -0.09559594094753265, 0.07806367427110672, 0.15270426869392395, 0.07238413393497467, -0.07012702524662018, 0.03451786935329437], [-0.12085288017988205, 0.12575744092464447, 0.034474458545446396, -0.019797343760728836, 0.14748819172382355, -0.0031221541576087475, 0.05710676684975624, -0.1724092811346054, 0.06322380900382996, 0.020134244114160538, 0.004184929188340902, 0.035009533166885376, 0.08335407078266144, 0.03909512236714363, -0.14481933414936066, -0.10792753845453262, 0.022603586316108704], [0.0008990555070340633, 0.10031259804964066, 0.1632663756608963, -0.07473824918270111, -0.10613138973712921, -0.11602993309497833, 0.12727662920951843, -0.06765791028738022, 0.10911357402801514, 0.10430662333965302, -0.001123908907175064, 0.09210527688264847, 0.11361704766750336, 0.04508975148200989, 0.02547304891049862, 0.09317928552627563, -0.05408414080739021], [-0.03493243083357811, 0.09315196424722672, -0.06119607388973236, -0.09491731971502304, 0.07680407166481018, 0.07448600977659225, -0.07927468419075012, 0.07136255502700806, 0.15232396125793457, -0.06978195160627365, -0.08811894059181213, 0.04493899270892143, -0.02632002718746662, -0.11555322259664536, 0.13879723846912384, -0.01334395445883274, -0.018102161586284637], [0.12408803403377533, 0.0908283144235611, -0.04137971252202988, -0.1586533635854721, 0.011196855455636978, -0.03746592998504639, -0.09207906574010849, 0.018299978226423264, 0.121689073741436, 0.02980929985642433, 0.15770907700061798, -0.0328199565410614, -0.008704906329512596, 0.04142599180340767, -0.09855788946151733, -0.07314123213291168, -0.060376133769750595], [0.09037192165851593, 0.1487155556678772, -0.1751307249069214, 0.09266941249370575, -0.01667369343340397, 0.0833670124411583, -0.040033478289842606, -0.018232325091958046, 0.07215829193592072, 0.08059947937726974, 0.0785112977027893, 0.17342369258403778, -0.07949422299861908, -0.017291903495788574, 0.09040524065494537, 0.08073622733354568, 0.12933485209941864], [0.05951402708888054, 0.11955510079860687, 0.029793016612529755, -0.11203178018331528, -0.15578851103782654, 0.08802518993616104, 0.1528703272342682, 0.16759851574897766, -0.08658932894468307, -0.16073082387447357, -0.07086124271154404, -0.17498621344566345, -0.11683877557516098, 0.058309659361839294, -0.14061491191387177, -0.0010587077122181654, -0.05270756408572197], [-0.05201487988233566, 0.16469451785087585, 0.06054428219795227, 0.1536470502614975, -0.10423604398965836, -0.01766359619796276, -0.13116779923439026, -0.10211759805679321, -0.029613176360726357, 0.06669816374778748, 0.05603448674082756, 0.09095220267772675, -0.0920439139008522, -0.032408058643341064, 0.11468091607093811, 0.0002752399886958301, -0.12551918625831604], [-0.04481297358870506, 0.08595600724220276, -0.06977170705795288, 0.12210133671760559, 0.12890051305294037, -0.14425219595432281, -0.04337993636727333, -0.1547224521636963, -0.034354064613580704, 0.14883802831172943, -0.042391087859869, -0.11759229749441147, 0.14741083979606628, -0.1484193056821823, -0.07053757458925247, 0.15808813273906708, 0.03137478604912758], [-0.04592868313193321, 0.1511736810207367, 0.07276882976293564, 0.1289556622505188, -0.09340900182723999, -0.12513087689876556, -0.08069372177124023, -0.12315121293067932, -0.13604092597961426, 0.13939544558525085, 0.030261393636465073, -0.07176101207733154, 0.16819323599338531, 0.15722042322158813, -0.14459411799907684, -0.005561592523008585, -0.02948123589158058], [0.048059187829494476, -0.04870344325900078, 0.025331351906061172, 0.031030364334583282, -0.005638552829623222, 0.001269947737455368, -0.04559618979692459, -0.15681596100330353, 0.0016636624932289124, -0.04554999619722366, -0.09904075413942337, 0.05882342904806137, -0.158669114112854, 0.12235128879547119, 0.013020489364862442, -0.14428646862506866, -0.01683802343904972], [-0.14020472764968872, 0.04587631672620773, -0.12725885212421417, 0.06097356975078583, -0.14155790209770203, 0.07370809465646744, -0.17641954123973846, -0.040274959057569504, 0.17195215821266174, -0.040158674120903015, 0.04191609472036362, -0.14761340618133545, -0.016479481011629105, 0.13342705368995667, -0.06812898814678192, -0.13400596380233765, -0.16718146204948425], [-0.027729801833629608, 0.013239841908216476, 0.1397937834262848, -0.061060793697834015, -0.11533025652170181, -0.08038017153739929, -0.01886010356247425, 0.14386411011219025, -0.11001648753881454, -0.023469366133213043, -0.0025743083097040653, 0.11467885226011276, -0.07643572986125946, -0.16318288445472717, 0.00039133348036557436, 0.04563401639461517, 0.0006596192251890898], [-0.1747448742389679, 0.11412280797958374, -0.05146640166640282, 0.09911811351776123, -0.008503885008394718, -0.03512745723128319, 0.090654157102108, 0.14317360520362854, -0.17527341842651367, 0.12920542061328888, 0.11314631253480911, 0.015151328407227993, 0.10961927473545074, 0.1459164172410965, -0.136307492852211, -0.01472631935030222, 0.013640173710882664], [0.1428793966770172, 0.07543196529150009, 0.0700192078948021, 0.1327747106552124, 0.1369156539440155, -0.13080792129039764, 0.11894185841083527, -0.08971276879310608, -0.0075365519151091576, -0.03504030033946037, 0.04647853225469589, -0.052717212587594986, -0.02080465294420719, -0.020579125732183456, 0.17055818438529968, 0.08853756636381149, 0.06654597073793411], [0.14115120470523834, -0.014502666890621185, -0.0923980101943016, 0.06707797199487686, -0.08729294687509537, 0.035544417798519135, 0.06250894069671631, 0.11486392468214035, -0.04111265018582344, -0.10132983326911926, -0.06646616756916046, -0.16958189010620117, -0.1064831018447876, 0.008534273132681847, -0.10712883621454239, 0.11219777166843414, -0.05904914438724518], [0.08410437405109406, 0.07347561419010162, 0.08949980139732361, 0.0737190693616867, -0.1246631070971489, 0.1308239847421646, 0.15682938694953918, -0.13692572712898254, 0.06949739158153534, -0.025857217609882355, -0.020941399037837982, -0.11499641090631485, 0.1572684347629547, 0.13573172688484192, -0.08635492622852325, -0.14968667924404144, 0.025082621723413467], [-0.08109258115291595, -0.027206197381019592, 0.01606064848601818, 0.018118832260370255, 0.1483973264694214, 0.09984495490789413, -0.058187179267406464, -0.018919995054602623, 0.14632119238376617, 0.11006277799606323, -0.07012449204921722, -0.16937565803527832, -0.15035636723041534, 0.1460951715707779, 0.08657706528902054, 0.15757355093955994, 0.13921575248241425], [-0.03215709701180458, -0.15928608179092407, 0.10496030002832413, 0.13192151486873627, 0.1252772957086563, -0.05370387062430382, -0.0983743667602539, 0.17335699498653412, -0.14539054036140442, -0.10856758058071136, 0.06811147928237915, -0.05838141217827797, 0.1640305519104004, 0.17571155726909637, 0.009353122673928738, -0.07050337642431259, 0.05020134150981903], [-0.011321951635181904, -0.026263805106282234, 0.12430021911859512, -0.10169320553541183, 0.10772444307804108, -0.1439908742904663, -0.039584316313266754, -0.14170457422733307, -0.04931693524122238, -0.12160176783800125, -0.04218533635139465, 0.04111820459365845, 0.04343957081437111, -0.023348743095993996, -0.1623051017522812, 0.11156386137008667, -0.08131060749292374], [0.06856697797775269, -0.029715929180383682, 0.037511516362428665, -0.02825421467423439, 0.12879368662834167, -0.07236192375421524, 0.12935799360275269, 0.10149230808019638, 0.17032930254936218, -0.09700343757867813, -0.17519652843475342, 0.007987291552126408, 0.08133728057146072, 0.0053921835497021675, 0.16876906156539917, -0.08816682547330856, -0.09453542530536652], [-0.00736178969964385, -0.11880461126565933, -0.10681581497192383, 0.1698450744152069, 0.09377726167440414, 0.07624249160289764, -0.034663211554288864, 0.004025234840810299, -0.021239671856164932, -0.03384796530008316, 0.1023828312754631, -0.016374997794628143, -0.09373968839645386, -0.04862873628735542, 0.11852190643548965, 0.10187352448701859, -0.09288246184587479], [0.05616367608308792, -0.051325321197509766, -0.1153111681342125, 0.1856534332036972, -0.02762625180184841, 0.1721758097410202, -0.08465861529111862, -0.030049243941903114, 0.16639550030231476, 0.09005127847194672, 0.0005192285170778632, 0.10330624133348465, 0.09549102932214737, -0.013264656066894531, 0.007042688317596912, -0.0193114522844553, -0.09208955615758896], [-0.032774295657873154, 0.11830489337444305, 0.09207058697938919, -0.030573280528187752, -0.08042554557323456, 0.007568077649921179, -0.12217627465724945, -0.10401688516139984, -0.06830555945634842, 0.06798223406076431, -0.03691378980875015, -0.1554378867149353, -0.08694235235452652, -0.06463170796632767, -0.00250946544110775, -0.022695550695061684, 0.10369380563497543], [0.06416256725788116, -0.10786928981542587, 0.11072556674480438, -0.11551138013601303, -0.08019531518220901, -0.03447593003511429, -0.10654071718454361, 0.16203391551971436, 0.14228467643260956, -0.0780751183629036, -0.03100990131497383, -0.06430679559707642, 0.005953748244792223, -0.08762015402317047, 0.11727027595043182, -0.1090882197022438, -0.07231713831424713], [-0.1458081156015396, 0.04321177303791046, -0.08506979048252106, -0.04021070525050163, 0.022150887176394463, 0.002188095822930336, -0.08596235513687134, -0.1404462307691574, -0.10619115084409714, 0.1708952933549881, -0.0990314781665802, -0.1532011777162552, -0.040495365858078, -0.019445965066552162, -0.16847437620162964, 0.032798804342746735, -0.06025994196534157], [-0.0745033398270607, -0.09291338175535202, 0.025038620457053185, 0.04244326800107956, -0.009505104273557663, 0.1267104148864746, 0.05833816900849342, -0.1454836130142212, 0.00849385466426611, 0.16063866019248962, 0.13647328317165375, -0.1252363920211792, 0.11383301019668579, 0.013267090544104576, -0.15199561417102814, 0.08594867587089539, -0.129322811961174], [-0.14077787101268768, -0.07726726680994034, 0.009308995679020882, -0.09029538929462433, 0.09327392280101776, 0.14370490610599518, -0.11685295403003693, -0.049709804356098175, 0.16495907306671143, 0.08092213422060013, 0.006988347973674536, -0.0867733433842659, -0.037992581725120544, 0.057685840874910355, -0.052308641374111176, 0.055998556315898895, 0.08130782097578049], [-0.047974955290555954, 0.09397903829813004, -0.0692150741815567, -0.0663672536611557, 0.0821608155965805, -0.15351873636245728, 0.0224411953240633, 0.16588546335697174, 0.04793635010719299, -0.025112967938184738, 0.13192550837993622, 0.01300068013370037, -0.16898980736732483, -0.13472390174865723, -0.02118494361639023, -0.08397854119539261, -0.02002672851085663], [-0.11926666647195816, -0.10894881933927536, -0.1440657377243042, -0.05033646523952484, -0.025469467043876648, -0.06906650215387344, -0.011508765630424023, 0.1679973304271698, -0.15546905994415283, 0.14348676800727844, 0.11355848610401154, 0.1374456137418747, 0.13616640865802765, -0.0009708526195026934, -0.17044486105442047, 0.09391419589519501, 0.0948779284954071], [0.1095140352845192, -0.15477873384952545, -0.07191872596740723, -0.060629524290561676, 0.11911050975322723, 0.09892115741968155, 0.11745458096265793, -0.009515599347651005, -0.041207943111658096, 0.07390350848436356, -0.17555460333824158, -0.08280966430902481, -0.016614308580756187, 0.05691832676529884, 0.1285143792629242, 0.15557411313056946, 0.08801806718111038], [-0.12765459716320038, 0.08366397768259048, 0.14297081530094147, -0.022409604862332344, -0.05329245701432228, -0.03437022864818573, -0.12627962231636047, 0.047070760279893875, 0.054328467696905136, -0.030716581270098686, 0.06400344520807266, 0.01998978666961193, 0.1684665083885193, -0.053774699568748474, 0.03182733803987503, 0.13489486277103424, -0.14071525633335114], [0.09144669026136398, 0.004702244885265827, -0.17451325058937073, 0.12002768367528915, -0.10748230665922165, 0.035278912633657455, -0.02117394655942917, -0.16664709150791168, -0.06983078271150589, -0.08836474269628525, -0.011205749586224556, -0.17138151824474335, -0.14658093452453613, 0.028381265699863434, 0.15451829135417938, 0.16696599125862122, 0.06572137027978897], [-0.13006709516048431, 0.0659499317407608, 0.03744658827781677, 0.0424935482442379, 0.06617464125156403, 0.009782304055988789, 0.17614363133907318, 0.060855939984321594, -0.16211780905723572, -0.05284963920712471, -0.14054197072982788, -0.1593320220708847, 0.0721571072936058, 0.07149133831262589, 0.11477905511856079, 0.07631772011518478, 0.05064042657613754], [-0.04201994463801384, -0.13845011591911316, -0.1273260861635208, -0.057293836027383804, -0.03405764698982239, 0.11901869624853134, 0.12845194339752197, -0.053800810128450394, -0.09926672279834747, 0.15121756494045258, 0.0167173370718956, 0.019878117367625237, -0.1175791472196579, 0.1404523402452469, -0.13799609243869781, 0.1577666699886322, 0.05730418115854263], [-0.11432448029518127, 0.05567653477191925, 0.1151849552989006, -0.11418621987104416, -0.11091632395982742, 0.11726504564285278, -0.13566526770591736, -0.044464122503995895, 0.0371486097574234, -0.043434686958789825, 0.13315807282924652, -0.1749752312898636, -0.10201910138130188, -0.01361269410699606, 0.10131887346506119, -0.06557069718837738, 0.00617533503100276], [-0.16808000206947327, 0.046690382063388824, -0.015297599136829376, -0.11985383182764053, 0.05930124595761299, 0.09232544898986816, -0.08590108901262283, 0.012811988592147827, 0.1626625508069992, -0.07679212838411331, -0.04745342954993248, -0.1526625007390976, -0.03547137603163719, 0.11961577087640762, -0.15207652747631073, -0.07797183841466904, 0.10341224074363708], [-0.024254942312836647, -0.16682270169258118, 0.09039732068777084, 0.11177101731300354, -0.17560160160064697, 0.07884670048952103, -0.03266426920890808, -0.11691303551197052, -0.007747349329292774, -0.04943056032061577, -0.08784810453653336, -0.12843601405620575, 0.0522800050675869, 0.1047569140791893, 0.0036973743699491024, 0.17352542281150818, -0.12811504304409027], [-0.11975520849227905, 0.15027140080928802, 0.1264805644750595, -0.07467056065797806, -0.014470172114670277, -0.008940800093114376, -0.09379791468381882, 0.11922934651374817, -0.000571363721974194, 0.14047425985336304, 0.03768046200275421, -0.11122196912765503, 0.0657307505607605, -0.047811996191740036, 0.15631791949272156, -0.06889736652374268, -0.04755255952477455], [0.14589613676071167, 0.058581020683050156, 0.08958417922258377, 0.034964729100465775, 0.08136933296918869, -0.14581504464149475, 0.08677241206169128, -0.12811018526554108, -0.02553017996251583, -0.05423671379685402, 0.09645535796880722, -0.15085892379283905, 0.09432987123727798, 0.03350529074668884, 0.1416350156068802, 0.17427241802215576, -0.11101085692644119], [0.1664598137140274, -0.16724246740341187, 0.035118650645017624, 0.00016441485786344856, 0.10411106050014496, 5.519129626918584e-05, -0.05556722730398178, 0.12901893258094788, 0.0617443323135376, 0.014657936058938503, 0.07902614027261734, 0.021879250183701515, -0.067000612616539, 0.15941371023654938, 0.05724930763244629, 0.09753748029470444, 0.11483597755432129], [0.031908921897411346, -0.020183900371193886, -0.029892586171627045, 0.046946968883275986, -0.10232823342084885, -0.12569384276866913, -0.01753718964755535, -0.14208336174488068, 0.15993018448352814, -0.09577153623104095, -0.14572620391845703, 0.020900581032037735, -0.02142730914056301, 0.020233305171132088, -0.12973380088806152, 0.15226562321186066, -0.1673506200313568], [0.1415114551782608, -0.013789057731628418, 0.14712940156459808, 0.015077781863510609, 0.020931726321578026, 0.048997439444065094, -0.06286533176898956, -0.1364990770816803, -0.08350928127765656, -0.14907734096050262, 0.1744784414768219, 0.08449945598840714, -0.11360621452331543, 0.039736807346343994, 0.09246198832988739, 0.14959017932415009, 0.043729230761528015], [0.10937810689210892, 0.04311002790927887, -0.07422645390033722, -0.16976900398731232, -0.16175197064876556, 0.16935065388679504, -0.042514409869909286, 0.010326947085559368, 0.10348010063171387, -0.1342540979385376, 0.004717876203358173, -0.07148750126361847, -0.037222832441329956, -0.0013290165225043893, -0.11057358235120773, 0.02690846472978592, -0.04507441073656082], [0.16837571561336517, 0.09609431028366089, -0.16508428752422333, -0.15580783784389496, -0.05486585944890976, 0.07490860670804977, 0.13605661690235138, 0.09529435634613037, -0.17273028194904327, -0.15009424090385437, -0.05783609673380852, 0.026737792417407036, 0.10933636128902435, -0.1589895486831665, 0.1270134001970291, 0.15855997800827026, 0.05266828089952469], [0.09474547952413559, 0.16170896589756012, -0.012710288166999817, 0.12442531436681747, 0.0508272647857666, -0.008780158124864101, 0.0865144357085228, 0.14544881880283356, 0.005710117984563112, -0.14777615666389465, -0.03608918562531471, -0.04222884401679039, -0.030105197802186012, -0.05698976665735245, -0.09080047160387039, 0.17496362328529358, 0.14094862341880798], [0.17239554226398468, -0.17440269887447357, -0.04928487911820412, 0.0021749737206846476, -0.06219610944390297, 0.061319321393966675, 0.0183423962444067, 0.0951181948184967, -0.017630472779273987, -0.08393475413322449, 0.08164330571889877, -0.18448950350284576, 0.017206337302923203, -0.0040351878851652145, -0.0038558561354875565, 0.04948487877845764, -0.172260120511055], [0.016472863033413887, 0.05255903676152229, 0.039477329701185226, -0.06708598136901855, -0.10606856644153595, -0.1640143245458603, 0.08780045807361603, -0.12861445546150208, -0.04643118008971214, 0.027101244777441025, 0.03456583246588707, 0.1447466015815735, 0.16713222861289978, 0.15293586254119873, 0.11667663604021072, -0.03439557924866676, 0.09416648745536804], [0.037408530712127686, -0.06015092879533768, 0.15739740431308746, 0.0648348331451416, -0.13553264737129211, 0.0017308446113020182, 0.07568170130252838, 0.13607452809810638, 0.1634519249200821, -0.052000824362039566, 0.04153677076101303, 0.1679079383611679, -0.12054000794887543, -0.10509733855724335, -0.03908475115895271, -0.08438818901777267, 0.14404049515724182], [0.008502199314534664, -0.06697148829698563, 0.15731452405452728, -0.14457732439041138, 0.06777025759220123, -0.1459515243768692, -0.06804075092077255, -0.01588348299264908, -0.02063855342566967, -0.012411234900355339, -0.01650938391685486, 0.16257742047309875, 0.08746512234210968, -0.09372666478157043, 0.08494088053703308, 0.044755928218364716, -0.07966607809066772], [0.2804376482963562, -0.07687661796808243, -0.11355432122945786, 0.1623435616493225, -0.018010782077908516, -0.11769725382328033, -0.04525171220302582, -0.01636897213757038, -0.04686729609966278, -0.09391049295663834, -0.0935068354010582, 0.20021627843379974, 0.16419610381126404, -0.09580884128808975, -0.022138332948088646, -0.06116284057497978, 0.06007034704089165], [0.1414310783147812, -0.004720236174762249, 0.09785197675228119, 0.08680684864521027, -0.12334784865379333, -0.12846212089061737, -0.05488322302699089, 0.11481913924217224, 0.1097826138138771, 0.07449191808700562, -0.017241496592760086, -0.03450495004653931, -0.03333297371864319, 0.013701392337679863, -0.09703633189201355, 0.10057580471038818, 0.17651641368865967], [-0.10280174762010574, 0.27583038806915283, -0.010289270430803299, -0.0230021420866251, 0.008350305259227753, -0.0012079034931957722, -0.041480761021375656, 0.015529154799878597, -0.0636664405465126, 0.16364686191082, 0.029827306047081947, -0.20859867334365845, 0.012925412505865097, -0.119624562561512, -0.007341968361288309, -0.030712073668837547, 0.15116700530052185], [0.05482027679681778, 0.08027023077011108, -0.009306634776294231, 0.12742111086845398, -0.034016381949186325, -0.0314001590013504, -0.10022526979446411, 0.13530166447162628, -0.1120510846376419, -0.014958822168409824, 0.023732975125312805, -0.14813964068889618, -0.00041013097506947815, 0.03213602304458618, -0.06716194748878479, -0.08632100373506546, -0.08371906727552414], [0.13399630784988403, 0.06004348769783974, -0.13621069490909576, -0.03301025182008743, -0.0681501254439354, 0.03871350735425949, -0.06854664534330368, -0.039809443056583405, 0.06480889022350311, -0.0753764659166336, 0.055654678493738174, 0.1608477532863617, 0.08748837560415268, 0.11821789294481277, 0.09839844703674316, -0.1081773191690445, -0.16094279289245605], [-0.04801204428076744, 0.159511998295784, 0.16178321838378906, -0.1690521389245987, 0.10665906965732574, -0.014608350582420826, 0.05638885870575905, -0.029515227302908897, -0.07676941156387329, 0.023540763184428215, 0.04764842242002487, -0.15187834203243256, -0.06992107629776001, 0.1245257705450058, -0.0020580305717885494, -0.09951876103878021, 0.021845638751983643], [0.06681910902261734, -0.08743258565664291, -0.12073568999767303, -0.15172536671161652, -0.0909145250916481, 0.1278039962053299, -0.17667153477668762, 0.12429088354110718, 0.045879900455474854, -0.02722507156431675, -0.12808085978031158, 0.14604344964027405, 0.16226555407047272, 0.14721837639808655, 0.056515615433454514, -0.1614682823419571, 0.11221341043710709], [0.1880386918783188, -0.2610938549041748, 0.05838220566511154, 0.08286596834659576, 0.006116836331784725, 0.17582592368125916, -0.007987192831933498, -0.09012758731842041, -0.07818793505430222, 0.004874166566878557, -0.06278154999017715, 0.19460633397102356, 0.07232817262411118, 0.08873452246189117, -0.050103601068258286, 0.011778711341321468, 0.0020174714736640453], [0.11827663332223892, 0.11259374767541885, 0.1288606971502304, -0.043623801320791245, -0.12183648347854614, 0.11494450271129608, -0.05877329409122467, 0.09005002677440643, 0.07785175740718842, -0.1474153995513916, 0.16400249302387238, -0.09479060024023056, 0.061785172671079636, -0.006943651009351015, 0.08637155592441559, -0.09720256179571152, -0.008226558566093445], [0.0444839745759964, -0.04716849699616432, 0.07060185074806213, -0.015208542346954346, -0.047532182186841965, 0.14937224984169006, -0.019621191546320915, 0.10597645491361618, 0.10941053926944733, -0.1085682138800621, -0.16962909698486328, 0.11188554763793945, -0.14025986194610596, 0.07690703868865967, -0.1187608391046524, 0.10625319182872772, -0.05120690166950226], [0.05140412971377373, -0.11684320122003555, -0.0840269923210144, 0.10341643542051315, 0.045546919107437134, 0.12241435796022415, -0.14291034638881683, -0.0200298260897398, -0.13809722661972046, -0.15064559876918793, -0.12204083055257797, -0.030490737408399582, -0.09141314029693604, -0.16252261400222778, -0.048141878098249435, -0.14555196464061737, 0.04250340908765793], [0.09151241928339005, 0.02294331043958664, -0.033309370279312134, 0.06678423285484314, 0.16882535815238953, -0.021663879975676537, -0.019388288259506226, 0.1420890986919403, -0.06450747698545456, -0.058514535427093506, 0.1644095778465271, 0.07458717375993729, -0.07529532164335251, -0.07581539452075958, 0.14076173305511475, 0.05927914008498192, -0.01838856376707554], [-0.08384694159030914, 0.00407431460916996, 0.015873724594712257, -0.0003632004663813859, 0.16129036247730255, 0.09843757003545761, -0.14161351323127747, 0.08995591104030609, -0.1281004697084427, 0.03417845815420151, -0.12319829314947128, 0.08264269679784775, -0.10223982483148575, -0.10518814623355865, -0.1058039739727974, 0.009975611232221127, 0.04706567898392677], [0.15860797464847565, 0.1230292022228241, -0.04359963908791542, 0.10898959636688232, -0.021996373310685158, -0.060145407915115356, -0.1477583944797516, -0.12555518746376038, -0.10265500098466873, -0.13974206149578094, -0.11680632084608078, 0.12678591907024384, 0.011594297364354134, 0.056485943496227264, 0.0387430302798748, -0.00960962101817131, -0.15944257378578186], [-0.06728065758943558, 0.09772684425115585, 0.11452282965183258, -0.11847767978906631, -0.09064872562885284, -0.1558641791343689, -0.02639090269804001, -0.1476452499628067, 0.17108780145645142, 0.1594228744506836, 0.13799694180488586, -0.16556057333946228, 0.019326500594615936, -0.127127006649971, 0.1751631647348404, -0.09886645525693893, -0.12719017267227173], [-0.14963121712207794, -0.031689561903476715, 0.05119655653834343, 0.008386274799704552, 0.04774019867181778, 0.010129467584192753, -0.12957540154457092, -0.1273634135723114, -0.06724569946527481, -0.06094461679458618, -0.13836778700351715, -0.06980518996715546, 0.04029902443289757, 0.07109125703573227, -0.11329635232686996, 0.10784444957971573, 0.05911394581198692], [0.06359978020191193, -0.032314009964466095, 0.06857142597436905, 0.15432775020599365, -0.03351755440235138, 0.005087756551802158, -0.094689279794693, -0.1363900601863861, 0.10330424457788467, 0.1514001339673996, -0.011139706708490849, -0.0793290063738823, 0.1619873046875, -0.009816485457122326, -0.07761687785387039, -0.030242154374718666, -0.13574546575546265], [-0.02456706017255783, 0.10355990380048752, -0.06328831613063812, 0.07318494468927383, 0.1198473870754242, 0.03279756009578705, -0.11342053860425949, 0.022889235988259315, 0.09730304032564163, 0.10425517708063126, -0.08411653339862823, 0.054155558347702026, 0.08218797296285629, -0.135770782828331, 0.08447309583425522, 0.1694476455450058, -0.12711335718631744], [0.2297288179397583, -0.2520022690296173, 0.02745024487376213, 0.016876909881830215, -0.1564539074897766, 0.13532693684101105, 0.006885843817144632, -0.04812359809875488, 0.10010860860347748, 0.1270396113395691, 0.06562964618206024, 0.08565936982631683, 0.08287316560745239, 0.023041587322950363, -0.18501333892345428, -0.022868268191814423, -0.023591848090291023], [0.03616003692150116, -0.05904923006892204, 0.07434994727373123, 0.09574337303638458, -0.09159479290246964, 0.13049381971359253, 0.12938828766345978, 0.020055260509252548, -0.09683004021644592, -0.05344591289758682, -0.1417360156774521, -0.0871761217713356, -0.027962327003479004, 0.02263905294239521, 0.0856892392039299, -0.12720319628715515, 0.09839615970849991], [-0.11365894228219986, -0.03530207276344299, -0.02719312533736229, 0.0462811179459095, -0.1416132003068924, -0.1516406238079071, 0.08969686180353165, 0.02321825549006462, -0.13941380381584167, -0.14529885351657867, 0.04529479518532753, -0.09280805289745331, -0.12321460247039795, -0.05439531058073044, -0.1272774338722229, -0.08408496528863907, 0.09691646695137024], [0.0022872250992804766, -0.12481968104839325, -0.16221940517425537, 0.15755099058151245, 0.042990542948246, -0.020263109356164932, -0.11051906645298004, -0.13359326124191284, -0.13088446855545044, 0.16895219683647156, -0.016524873673915863, 0.03346938267350197, -0.15325677394866943, 0.09867270290851593, -0.1725686490535736, 0.14773748815059662, 0.1331695169210434], [0.04532356932759285, -0.14186625182628632, 0.07278741896152496, -0.10290215909481049, -0.06872290372848511, 0.12993532419204712, -0.01982378028333187, -0.1243419200181961, 0.0963524729013443, -0.025488242506980896, 0.17216965556144714, -0.0023266903590410948, -0.09359356760978699, -0.08598601818084717, -0.16250096261501312, 0.1535591036081314, -0.04223352298140526], [0.10894524306058884, -0.1479090452194214, 0.16272491216659546, 0.09256448596715927, -0.01562741957604885, 0.052001096308231354, -0.09290096908807755, -0.11302477866411209, 0.15219837427139282, -0.0709468424320221, 0.13528986275196075, -0.027378739789128304, -0.10186461359262466, 0.057258494198322296, 0.17619967460632324, -0.05941301956772804, 0.11942288279533386]], "lstm.weight_hh_l0": [[-0.07982031255960464, -0.10873109102249146, 0.13534973561763763, -0.1343243420124054, -0.1575259119272232, -0.14325426518917084, 0.17492032051086426, 0.050679631531238556, -0.12137199193239212, -0.09736666828393936, -0.03402838110923767, 0.043384406715631485, 0.15609045326709747, -0.11616427451372147, -0.09703045338392258, -0.0047392090782523155, -0.04819907248020172, -0.1502792239189148, 0.0906490832567215, 0.14342696964740753, -0.16466733813285828, -0.176233172416687, -0.11533110588788986, 0.007462689653038979, 0.028705311939120293, -0.1204756572842598, -0.15061579644680023, -0.001522849895991385, 0.13133563101291656, 0.03727266937494278, 0.10191038250923157, 0.17048300802707672], [0.11343520879745483, -0.0045970831997692585, -0.08102013170719147, -0.07228279113769531, -0.07097651064395905, -0.09324393421411514, -0.026432016864418983, -0.0814511850476265, 0.07657179981470108, 0.016055315732955933, -0.12026413530111313, 0.12107891589403152, -0.03808543086051941, -0.06266126036643982, -0.09551870822906494, 0.16146640479564667, 0.05029914528131485, -0.09177463501691818, 0.020978868007659912, 0.10373127460479736, 0.03612517938017845, -0.06475905328989029, 0.047139838337898254, -0.13871267437934875, -0.0529790073633194, -0.013060886412858963, -0.15516100823879242, -0.14653365314006805, -0.09580536931753159, -0.10783768445253372, 0.06872163712978363, 0.07347341626882553], [-0.1179083064198494, -0.09610705822706223, -0.1034686490893364, -0.009277659468352795, 0.12902820110321045, -0.11596756428480148, -0.12520933151245117, -0.05290570110082626, 0.0007409712416119874, 0.12018365412950516, -0.11451415717601776, 0.10238518565893173, -0.1421741545200348, 0.16666530072689056, -0.06376499682664871, 0.02962813526391983, 0.13765360414981842, -0.03341284021735191, -0.008033674210309982, -0.0366436131298542, 0.049914196133613586, 0.026517385616898537, 0.00811394490301609, -0.07706966251134872, -0.14098086953163147, -0.000851286225952208, 0.0852004811167717, 0.11262044310569763, -0.0817197635769844, -0.13372895121574402, 0.004070008639246225, -0.039447635412216187], [0.1339339315891266, 0.1574876755475998, 0.01869804784655571, -0.013384890742599964, -0.05408043414354324, -0.163472980260849, -0.12074585258960724, 0.11898954957723618, 0.05727718770503998, 0.13671419024467468, 0.08919238299131393, -0.16426366567611694, -0.08054330199956894, 0.10896186530590057, -0.13193970918655396, 2.7079349820269272e-05, -0.03771108016371727, -0.06871581822633743, 0.1591062694787979, -0.014550883322954178, -0.02027979865670204, -0.06011417508125305, -0.13139843940734863, -0.03576524555683136, -0.0012707274872809649, 0.10758943855762482, 0.11426589637994766, 0.10598728805780411, -0.06991934776306152, -0.08465177565813065, 0.14165709912776947, -0.10343609750270844], [-0.1553047001361847, -0.1546422690153122, -0.054975125938653946, 0.07699213176965714, 0.16901081800460815, -0.16055186092853546, -0.17229481041431427, 0.08317362517118454, 0.14311878383159637, -0.17570438981056213, 0.01600625552237034, -0.006197841372340918, -0.037961266934871674, -0.03083212673664093, 0.00542872492223978, -0.012621337547898293, 0.09065550565719604, 0.17151330411434174, -0.1300821155309677, 0.08428733050823212, -0.12330075353384018, -0.06411964446306229, 0.004651136230677366, -0.029105495661497116, 0.03937938064336777, 0.12977273762226105, 0.09792708605527878, 0.15537604689598083, -0.05972229316830635, 0.055137328803539276, 0.03760875016450882, -0.009395227767527103], [-0.1392650008201599, -0.16081376373767853, -0.11238934844732285, -0.030261436477303505, -0.17195674777030945, 0.11521618068218231, 0.09608536958694458, 0.09737779945135117, -0.08749836683273315, 0.06764398515224457, -0.08283396810293198, -0.1650768369436264, 0.12043847143650055, 0.05248275026679039, 0.14205466210842133, -0.0006866299081593752, 0.01265364233404398, -0.022771457210183144, 0.1550685316324234, -0.09417162090539932, 0.06938888132572174, -0.00828714482486248, 0.17442111670970917, -0.012133318930864334, -0.17449431121349335, -0.0014948087045922875, 0.12857232987880707, -0.13061122596263885, 0.07140295207500458, -0.003689366392791271, -0.1630951166152954, -0.1274053454399109], [-0.17603863775730133, -0.12663207948207855, -0.008873134851455688, 0.08972663432359695, 0.04046076163649559, 0.17569893598556519, 0.021326515823602676, -0.16229678690433502, 0.06334439665079117, 0.11529500037431717, -0.018069617450237274, 0.02467765286564827, 0.06961695849895477, -0.000393988739233464, 0.12780408561229706, -0.1609269678592682, 0.08020640164613724, 0.03440976142883301, -0.1334400177001953, -0.0877341628074646, 0.07377896457910538, 0.08659274131059647, -0.1380123794078827, -0.10709324479103088, 0.0007246729219332337, -0.12035040557384491, -0.030888034030795097, -0.12347125262022018, 0.150274395942688, 0.09111941605806351, -0.03747845068573952, -0.13589262962341309], [0.1290052980184555, 0.17324623465538025, -0.15215909481048584, 0.1007651686668396, 0.08833331614732742, 0.1559818685054779, -0.024376071989536285, -0.07959464192390442, -0.08026692271232605, -0.06696217507123947, -0.1324111521244049, -0.11886388808488846, -0.07072266191244125, -0.1499537229537964, 0.0356600247323513, 0.056858666241168976, 0.016385957598686218, -0.126491516828537, 0.17667169868946075, 0.10056382417678833, 0.16565653681755066, 0.06685023009777069, -0.08448533713817596, -0.09972022473812103, 0.04042559117078781, -0.0514482818543911, 0.1615208387374878, 0.1635555773973465, 0.015797123312950134, 0.14985345304012299, -0.040168557316064835, -0.03170111030340195], [-0.10777437686920166, -0.07767316699028015, -0.04100852459669113, 0.015815457329154015, 0.1365063488483429, 0.14108414947986603, 0.09475532174110413, 0.09258788079023361, 0.1403290033340454, 0.10517869889736176, -0.003872536588460207, -0.023214567452669144, 0.0696839764714241, 0.17431741952896118, 0.11878006160259247, -0.12150350213050842, 0.11760028451681137, 0.17184321582317352, 0.008951041847467422, 0.047700729221105576, -0.08372258394956589, -0.001339173992164433, -0.06609715521335602, -0.10148503631353378, 0.16737902164459229, 0.12373117357492447, -0.10974516719579697, -0.044820453971624374, 0.12057994306087494, -0.16221502423286438, 0.005655980668962002, 0.17301416397094727], [0.16728836297988892, 0.1569315493106842, -0.009075615555047989, -0.1089085265994072, 0.12315970659255981, 0.13891015946865082, 0.10285274684429169, -0.0348198376595974, 0.05859466642141342, -0.041630081832408905, -0.14232267439365387, -0.12827721238136292, -0.08508332818746567, -0.00994419027119875, 0.007935387082397938, -0.0845029428601265, -0.1051565557718277, 0.1694706231355667, 0.040687449276447296, -0.01540906447917223, -0.05796150490641594, 0.09133190661668777, -0.043528228998184204, 0.08582744002342224, 0.060786690562963486, -0.004729933105409145, 0.0620991513133049, -0.029602723196148872, 0.11386445164680481, -0.03959791362285614, 0.0027544829063117504, 0.0020671202801167965], [-0.15503838658332825, 0.1363072246313095, -0.06788571923971176, -0.16278231143951416, 0.14589209854602814, 0.1499572992324829, -0.11960101872682571, 0.012419200502336025, 0.12779167294502258, 0.16472627222537994, 0.11386048793792725, -0.01527106761932373, 0.0810868889093399, 0.1740642935037613, -0.10965950042009354, 0.0996212586760521, 0.11297081410884857, 0.15109305083751678, 0.06117899343371391, -0.06771796941757202, 0.15462751686573029, 0.036120861768722534, 0.05367475003004074, 0.05872052535414696, 0.1308431625366211, 0.10274624079465866, 0.08931232988834381, -0.15718811750411987, 0.08801848441362381, 0.029143892228603363, 0.14695674180984497, -0.11812960356473923], [0.17441146075725555, 0.08902638405561447, 0.12074481695890427, -0.1616450697183609, -0.055427465587854385, -0.16152067482471466, 0.13539323210716248, -0.17114439606666565, 0.017874794080853462, -0.023446081206202507, -0.054433517158031464, -0.04277314990758896, 0.04146284610033035, 0.03623931482434273, 0.16072961688041687, -0.16671790182590485, -0.16583460569381714, -0.1211017593741417, -0.0430225133895874, -0.09010321646928787, -0.15140216052532196, -0.17536810040473938, 0.05059851333498955, -0.054010722786188126, -0.04487541317939758, 0.09220651537179947, 0.1292833685874939, -0.023945309221744537, -0.05895265191793442, -0.09418220818042755, 0.1320050060749054, 0.0025885961949825287], [0.09369432181119919, 0.07538775354623795, -0.15627075731754303, 0.003084727795794606, 0.09578539431095123, 0.17253707349300385, -0.05422567203640938, 0.11165886372327805, 0.013840203173458576, 0.1127425879240036, -0.1422007530927658, 0.11123838275671005, 0.07809958606958389, -0.1645255982875824, -0.045870646834373474, 0.06426123529672623, -0.012082194909453392, 0.09784398972988129, -0.008563523180782795, -0.08442721515893936, -0.16091816127300262, 0.04864441603422165, 0.07494185864925385, 0.02720041573047638, 0.1723540723323822, 0.029457485303282738, 0.002230242593213916, 0.15541426837444305, -0.05902343615889549, 0.09101025760173798, -0.05458366498351097, 0.0013035809388384223], [-0.1263686567544937, 0.06304805725812912, 0.002299089450389147, 0.0019936934113502502, -0.1722148209810257, 0.0685800239443779, -0.14187781512737274, -0.039593655616045, -0.026151001453399658, -0.14193861186504364, 0.08486402779817581, -0.08743913471698761, 0.03610730916261673, 0.04003369063138962, 0.13562670350074768, -0.09123389422893524, -0.07149378210306168, -0.1115180104970932, 0.06670495122671127, -0.16888722777366638, -0.020112939178943634, 0.02062038704752922, -0.06229405105113983, -0.12107640504837036, 0.15167862176895142, 0.03387793153524399, 0.14759710431098938, -0.11408871412277222, -0.16542688012123108, -0.1407145857810974, 0.13469131290912628, -0.0007886096718721092], [0.07420110702514648, 0.04219354689121246, -0.09906667470932007, -0.13520099222660065, 0.12408965826034546, 0.060763657093048096, 0.06467998772859573, -0.09414373338222504, 0.1235538199543953, -0.08813272416591644, 0.04522961750626564, -0.16438621282577515, 0.01637008786201477, 0.06925949454307556, -0.10100413858890533, -0.05346706882119179, -0.04266291484236717, -0.024321449920535088, 0.03665485978126526, 0.06117947772145271, -0.013348075561225414, -0.02616923116147518, -0.12132726609706879, 0.09381753206253052, -0.0191512331366539, -0.03570971637964249, 0.03634360432624817, 0.03747748211026192, 0.14867690205574036, 0.008892416022717953, 0.014692496508359909, 0.13020290434360504], [0.10931865125894547, -0.09285964071750641, 0.05920274928212166, 0.0023549129255115986, -0.13508965075016022, -0.050114814192056656, -0.012477722018957138, -0.046800531446933746, 0.08974219113588333, 0.011920103803277016, 0.019951658323407173, -0.14563950896263123, -0.014853954315185547, 0.04939796030521393, 0.023770591244101524, 0.13852937519550323, -0.10048586130142212, 0.03490498661994934, -0.07164584845304489, 0.01068340614438057, -0.10951963812112808, 0.08138063549995422, 0.010452141053974628, -0.163656085729599, -0.13799406588077545, -0.1725401133298874, -0.025734521448612213, 0.1505942940711975, 0.11461850255727768, 0.04978558421134949, 0.06525879353284836, 0.15938732028007507], [0.08434262871742249, -0.03593958541750908, -0.08848673850297928, -0.006504670716822147, 0.11907677352428436, 0.09310493618249893, -0.11210662871599197, -0.09366770088672638, 0.10317087173461914, -0.17442433536052704, 0.111553855240345, -0.04677322134375572, 0.1297106295824051, -0.14849022030830383, -0.0735115185379982, 0.04485948383808136, 0.09651834517717361, 0.031068043783307076, -0.08037418872117996, -0.026468051597476006, 0.012156478129327297, -0.04981076717376709, 0.07618318498134613, -0.14606697857379913, 0.010190622881054878, 0.008564471267163754, 0.11035279929637909, -0.14863747358322144, -0.054473958909511566, 0.08248017728328705, 0.08353155106306076, -0.03388730809092522], [-0.04516687989234924, -0.17153170704841614, -0.13792508840560913, 0.15184491872787476, 0.12386271357536316, 0.11866069585084915, -0.033998262137174606, -0.014408426359295845, 0.039265964180231094, 0.1289655566215515, 0.0660296306014061, 0.1695411056280136, 0.03984980285167694, 0.030373210087418556, -0.1767110973596573, 0.012284963391721249, 0.09915006160736084, -0.06305054575204849, -0.022977134212851524, 0.09476299583911896, -0.16434453427791595, -0.04016992822289467, 0.09316527098417282, -0.03426818922162056, -0.01668505184352398, -0.06944242864847183, 0.08382141590118408, -0.07804706692695618, 0.03995972126722336, 0.08563775569200516, -0.02541419118642807, 0.1163245439529419], [0.04058275744318962, 0.12863163650035858, 0.10422464460134506, 0.03841891512274742, -0.16959436237812042, -0.15764154493808746, -0.04142211005091667, 0.06532904505729675, 0.1104767918586731, -0.14924010634422302, -0.11529527604579926, -0.048592764884233475, -0.06320126354694366, -0.10213767737150192, -0.14791911840438843, -0.1267174333333969, -0.0832204669713974, -0.04624514281749725, -0.04990905523300171, 0.14821642637252808, 0.11133117228746414, -0.08747997879981995, -0.14715074002742767, -0.06909514218568802, -0.14594689011573792, 0.16218271851539612, 0.043262895196676254, -0.1348772644996643, -0.10745789855718613, 0.021670622751116753, -0.02984011545777321, 0.10949999839067459], [0.01802104339003563, 0.1711871325969696, 0.13875795900821686, 0.14623643457889557, -0.15579476952552795, -0.05611424893140793, -0.04513322561979294, 0.15699824690818787, 0.07473687827587128, -0.10843397676944733, -0.0031677570659667253, 0.11814284324645996, 0.03967816010117531, -0.03275294601917267, -0.0006004240131005645, -0.13789056241512299, -0.09838856756687164, 0.11545170098543167, 0.08944229036569595, -0.006089376751333475, -0.033763039857149124, 0.13373516499996185, -0.04634547606110573, 0.029166165739297867, 0.005440525710582733, 0.012346329167485237, 0.13021643459796906, -0.16441166400909424, 0.12832874059677124, -0.06943176686763763, -0.006978464312851429, 0.1342916339635849], [0.09983180463314056, 0.16564178466796875, 0.16468536853790283, 0.032725635915994644, 0.02535727247595787, -0.13299834728240967, -0.011328187771141529, 0.13112054765224457, -0.14339447021484375, 0.0552324540913105, -0.1510043442249298, 0.0654139295220375, 0.0591764934360981, 0.07576755434274673, 0.04854414984583855, 0.12651796638965607, -0.1555049866437912, -0.07396390289068222, 0.06873763352632523, -0.0450146459043026, -0.12680256366729736, 0.012371574528515339, -0.07689060270786285, -0.09221553057432175, -0.04341032728552818, 0.09522762149572372, -0.12981998920440674, -0.1701827496290207, 0.15207962691783905, 0.14529405534267426, 0.056795258074998856, 0.17497976124286652], [-0.15271541476249695, -0.00045775691978633404, 0.04082883149385452, 0.048158738762140274, 0.003361780196428299, 0.11847048997879028, -0.0838613510131836, -0.13342176377773285, -0.13978731632232666, -0.043633028864860535, -0.0011504192370921373, -0.027981609106063843, 0.1622547060251236, 0.09751248359680176, 0.13652312755584717, -0.17277979850769043, -0.09122255444526672, 0.08049985021352768, -0.034040238708257675, -0.038094617426395416, 0.040476083755493164, -0.1374896615743637, 0.1647043377161026, -0.010363825596868992, -0.06921643763780594, -0.15051336586475372, 0.08487865328788757, 0.07740626484155655, 0.05816064774990082, -0.02632395178079605, -0.17018994688987732, -0.07081374526023865], [0.06754656136035919, 0.0903577208518982, -0.0705556645989418, -0.13621507585048676, -0.08328967541456223, -0.14123782515525818, 0.02166295237839222, 0.12235163152217865, -0.10295198112726212, 0.014686216600239277, 0.05265653133392334, 0.11319279670715332, 0.0226215161383152, 0.14174678921699524, 0.05328531190752983, 0.050385914742946625, -0.059682782739400864, 0.052864789962768555, 0.12794229388237, -0.08988059312105179, 0.06424696743488312, 0.11784924566745758, 0.07944981008768082, 0.15626323223114014, 0.14712688326835632, -0.12249542772769928, -0.17224550247192383, -0.1565411239862442, 0.14742474257946014, -0.15197554230690002, 0.02317233197391033, 0.01588924415409565], [0.02842903882265091, 0.016312388703227043, 0.06816211342811584, -0.11014910042285919, -0.16205677390098572, 0.04513687267899513, 0.08314218372106552, 0.05026816576719284, -0.030220743268728256, 0.029191264882683754, -0.16123883426189423, -0.1256648451089859, -0.12010806053876877, -0.17461253702640533, -0.035868462175130844, -0.10704755783081055, -0.10527342557907104, -0.025153597816824913, -0.1743791699409485, -0.05598083510994911, 0.050876766443252563, -0.09858054667711258, -0.024469321593642235, -0.12234224379062653, 0.09537424892187119, -0.0815313309431076, -0.010696722194552422, 0.15545737743377686, -0.13472825288772583, -0.08250807970762253, -0.04316985607147217, -0.13488927483558655], [0.00025762259610928595, 0.049504149705171585, -0.1640501767396927, 0.10436086356639862, 0.1630558967590332, 0.05078263208270073, -0.14049318432807922, -0.12798313796520233, -0.12773604691028595, -0.022302299737930298, 0.0014813141897320747, -0.002954557305201888, -0.06050045043230057, 0.0666976198554039, 0.16841517388820648, 0.00517946807667613, 0.013514935038983822, 0.1477358043193817, -0.03526850417256355, -0.0192010086029768, 0.08723727613687515, 0.06110749393701553, -0.16728036105632782, -0.12806570529937744, -0.07567498087882996, 0.14945727586746216, 0.09218136966228485, 0.08888835459947586, -0.036594633013010025, -0.1348709911108017, 0.028529874980449677, -0.05679374188184738], [0.033837489783763885, 0.020054712891578674, -0.11234939843416214, -0.023491472005844116, -0.09459307789802551, -0.0974416583776474, -0.10473910719156265, 0.11537589877843857, -0.11990746855735779, 0.06451818346977234, 0.06622964143753052, 0.11268779635429382, 0.09910733997821808, 0.05470728129148483, 0.05951322615146637, -0.09256486594676971, 0.15649202466011047, -0.17343488335609436, 0.07524645328521729, 0.06782886385917664, -0.055171553045511246, -0.17179358005523682, -0.10953228175640106, 0.03103828802704811, 0.04326656460762024, -0.15173545479774475, 0.06321647763252258, -0.12307108938694, 0.0641421526670456, 0.060692787170410156, -0.09483460336923599, -0.1722240149974823], [-0.03755412623286247, 0.04455914348363876, -0.1592637002468109, -0.13335293531417847, -0.04104677215218544, 0.015746990218758583, 0.027024811133742332, 0.16533581912517548, -0.17615728080272675, 0.15214122831821442, 0.035621967166662216, -0.029571091756224632, -0.1286347359418869, -0.1762680858373642, -0.09469068795442581, 0.0498574860394001, -0.0013994018081575632, 0.10212556272745132, 0.1642075777053833, -0.07231924682855606, -0.13225790858268738, 0.12511040270328522, -0.05097625404596329, -0.1747635453939438, 0.12573178112506866, -0.03655672073364258, 0.1734723150730133, -0.08732277154922485, -0.011654003523290157, -0.04865459352731705, -0.10106919705867767, -0.08241850137710571], [-0.062095772475004196, -0.09121960401535034, 0.041411954909563065, 0.14482936263084412, 0.019471528008580208, -0.09470436722040176, 0.1673082709312439, 0.002183480653911829, -0.009054133668541908, -0.026594344526529312, -0.11139079183340073, -0.04338935762643814, -0.11040661484003067, 0.08898765593767166, 0.08153370767831802, 0.015307145193219185, -0.17404814064502716, 0.06077497452497482, -0.06460591405630112, -0.1537828892469406, -0.16003338992595673, -0.026077013462781906, 0.012666096910834312, 0.07833537459373474, 0.16739638149738312, 0.05923362076282501, -0.04185822606086731, 0.11792045086622238, -0.05812674015760422, -0.1648041009902954, -0.12708202004432678, -0.00678627472370863], [0.029765326529741287, -0.17083746194839478, -0.14241603016853333, 0.07969924807548523, -0.14861752092838287, 0.15662150084972382, -0.11191011965274811, -0.02771233208477497, 0.11922287195920944, -0.028073910623788834, -0.02163848653435707, 0.171659916639328, 0.07400453090667725, 0.15825800597667694, 0.09074345231056213, 0.09949785470962524, -0.054575636982917786, 0.00032341384212486446, 0.029951509088277817, 0.15405580401420593, 0.029258467257022858, 0.1333562284708023, -0.15837790071964264, -0.018561450764536858, -0.04558265954256058, -0.14419551193714142, 0.13349846005439758, 0.051074814051389694, -0.05178644135594368, -0.16114971041679382, 0.11190319061279297, -0.16194818913936615], [0.1005675196647644, 0.16652610898017883, -0.12043508142232895, -0.1080542728304863, 0.027512619271874428, 0.10275639593601227, -0.14416071772575378, 0.03811332955956459, -0.16990947723388672, 0.08918892592191696, -0.03157989680767059, 0.1353646069765091, -0.04873039573431015, -0.0407307967543602, -0.10195562988519669, 0.028224922716617584, -0.1586178094148636, 0.00836922600865364, -0.06492865085601807, -0.05334557965397835, -0.13520845770835876, -0.10854248702526093, -0.054929859936237335, 0.17414839565753937, -0.0027526107151061296, -0.03119930997490883, -0.023078201338648796, 0.0701480358839035, -0.1357426941394806, 0.08139675110578537, -0.1685294806957245, -0.012639439664781094], [0.13204734027385712, 0.1732800006866455, -0.11280207335948944, 0.06789315491914749, -0.15159162878990173, 0.016123445704579353, -0.14450131356716156, -0.0473666712641716, -0.007515499368309975, -0.11226649582386017, -0.10097619891166687, -0.0011475743958726525, 0.12533250451087952, 0.1032123863697052, -0.015505509451031685, 0.10309639573097229, 0.15673989057540894, 0.048626482486724854, 0.07574913650751114, -0.11123086512088776, 0.1737951785326004, 0.16760487854480743, 0.019836561754345894, 0.12125512957572937, 0.031773392111063004, 0.08845293521881104, 0.005845009349286556, -0.1376734972000122, -0.021617498248815536, -0.10984073579311371, 0.14777860045433044, -0.17036619782447815], [0.12239901721477509, 0.02180507220327854, -0.0692819356918335, -0.16115802526474, 0.15379539132118225, -0.10401348769664764, -0.022704865783452988, 0.0007971444283612072, 0.17069566249847412, -0.1146945133805275, 0.11363485455513, 0.040872834622859955, -0.08048932999372482, 0.1356232911348343, -0.15514031052589417, -0.11609174311161041, 0.15479764342308044, 0.16235877573490143, -0.04688217118382454, -0.0416824109852314, 0.1634933054447174, -0.046501945704221725, -0.0008022231049835682, -0.0967245101928711, -0.010056511498987675, -0.06470382213592529, -0.15493755042552948, 0.04269629344344139, 0.03300793468952179, 0.1358976662158966, -0.07699988782405853, -0.16596412658691406], [0.17111273109912872, -0.17326682806015015, 0.14133460819721222, -0.05055459588766098, 0.051441408693790436, 0.05944328010082245, 0.02236735261976719, 0.033194057643413544, 0.02049032226204872, -0.03460169956088066, 0.09667087346315384, -0.08910852670669556, 0.04410199820995331, -0.13707895576953888, -0.0862589180469513, 0.07179045677185059, -0.15721134841442108, 0.016712995246052742, -0.14253786206245422, 0.07544507086277008, 0.09707929939031601, 0.1615031212568283, -0.15773700177669525, 0.03855479881167412, 0.12106233090162277, -0.13114680349826813, -0.07952054589986801, 0.08588134497404099, 0.06030267849564552, 0.11426606774330139, 0.037632036954164505, -0.007369186729192734], [0.11388836801052094, 0.020345041528344154, 0.0010604357812553644, -0.13436652719974518, -0.03928465396165848, 0.004224083386361599, -0.08138029277324677, 0.009327328763902187, -0.039945896714925766, -0.1445310413837433, -0.14944817125797272, 0.16857731342315674, -0.09579584747552872, 0.09098777174949646, -0.07468994706869125, -0.12287978827953339, 0.027486762031912804, -0.08261562138795853, 0.10708144307136536, 0.028898218646645546, -0.1458432525396347, 0.11523072421550751, -0.12021420896053314, 0.01943005435168743, 0.07256850600242615, 0.16622282564640045, -0.15754765272140503, -0.033780381083488464, 0.06253854930400848, 0.11462690681219101, 0.0690952017903328, 0.06125226616859436], [-0.004646247252821922, -0.1438351571559906, 0.0011493866331875324, 0.10336598753929138, -0.08296865969896317, 0.09141255170106888, 0.048291098326444626, 0.11984150856733322, 0.17485854029655457, 0.004051639698445797, -0.11213994771242142, 0.1454789638519287, 0.06555343419313431, -0.13647130131721497, 0.10337058454751968, 0.0627424344420433, -0.03550151363015175, 0.011037353426218033, 0.09591299295425415, 0.11177341639995575, -0.05535406991839409, 0.10735470056533813, -0.04551832005381584, 0.016699908301234245, -0.07765842974185944, -0.1393730342388153, -0.12466051429510117, -0.17659248411655426, 0.12542378902435303, 0.018489716574549675, 0.059513963758945465, 0.05762045085430145], [-0.08523224294185638, 0.15273191034793854, 0.12144702672958374, 0.15531684458255768, 0.134473517537117, 0.1614857167005539, -0.12975245714187622, -0.04402227699756622, 0.011666099540889263, -0.08391770720481873, 0.0036593580152839422, -0.03727058321237564, -0.019264165312051773, 0.09906595200300217, 0.04230605810880661, 0.11582453548908234, 0.0249783918261528, 0.12905997037887573, 0.016268346458673477, -0.034012485295534134, 0.15508881211280823, -0.011716528795659542, -0.013404636643826962, -0.128779336810112, -0.15167903900146484, 0.10906046628952026, -0.1167876273393631, -0.05901003256440163, 0.13057789206504822, -0.112922303378582, -0.0956951379776001, 0.09057115018367767], [0.15163889527320862, -0.0003855172253679484, 0.10670355707406998, 0.08570641279220581, 0.15123696625232697, -0.1522253453731537, 0.06660991162061691, 0.17431023716926575, 0.17022420465946198, 0.10198929905891418, 0.10235591977834702, 0.1442546248435974, -0.1283644139766693, -0.1136978417634964, -0.05085822194814682, 0.15412361919879913, 0.01838061958551407, -0.1291389763355255, 0.04078584164381027, 0.12619748711585999, 0.011938347481191158, -0.0693855956196785, -0.09590788930654526, -0.09101101756095886, 0.038606174290180206, 0.1355721652507782, 0.10155265778303146, -0.1457197368144989, 0.059734560549259186, -0.014849493280053139, -0.09867818653583527, 0.10691943019628525], [-0.02474154159426689, 0.04621703177690506, 0.08139795064926147, 0.018620919436216354, -0.16081880033016205, 0.15416574478149414, -0.06486958265304565, 0.09565630555152893, -0.14562569558620453, -0.16216517984867096, -0.17503957450389862, -0.1398646980524063, 0.07504196465015411, 0.11602146178483963, 0.018011203035712242, -0.11222118139266968, 0.04357315972447395, 0.050817254930734634, -0.14680913090705872, 0.10274326056241989, 0.007213117089122534, -0.05680195987224579, 0.03868601471185684, -0.12879331409931183, 0.16030530631542206, 0.049106813967227936, 0.08416203409433365, 0.09129072725772858, 0.05118534341454506, -0.027455490082502365, -0.15607309341430664, 0.15242484211921692], [-0.13868606090545654, 0.10560213029384613, 0.1218864694237709, -0.11708284914493561, 0.07230780273675919, 0.10150398313999176, -0.15702560544013977, -0.145130455493927, 0.05189655348658562, 0.09510737657546997, 0.004166637547314167, 0.00044650372001342475, -0.014832571148872375, 0.0123002203181386, 0.12792249023914337, -0.10334261506795883, -0.13030873239040375, 0.10842622071504593, -0.12902994453907013, -0.05561133101582527, 0.059235457330942154, -0.05830763652920723, -0.04651184752583504, 0.14931344985961914, -0.04614782705903053, 0.03185408189892769, -0.03573382645845413, 0.09263347834348679, -0.048760805279016495, -0.05826527625322342, -0.04837514087557793, -0.1530342698097229], [0.05398320034146309, -0.1371760219335556, 0.11785659939050674, 0.07347112149000168, -0.04579902067780495, 0.16894014179706573, 0.16095083951950073, -0.169409841299057, 0.009073225781321526, -0.05810905992984772, -0.1538403183221817, -0.09889966249465942, -0.08983952552080154, 0.1569700986146927, -0.09204966574907303, -0.15053686499595642, -0.13978493213653564, 0.06332509219646454, -0.13325904309749603, 0.021576635539531708, 0.13024833798408508, 0.1457318663597107, 0.05362946167588234, -0.05899566039443016, -0.10417445003986359, -0.011397350579500198, 0.04634551703929901, -0.09399805217981339, -0.022817039862275124, 0.025625579059123993, -0.03725035488605499, 0.16053618490695953], [0.05409732460975647, 0.17474649846553802, 0.13594363629817963, -0.05980759859085083, 0.11069916933774948, 0.12760408222675323, 0.1043393686413765, -0.031152240931987762, 0.15117321908473969, 0.043926287442445755, -0.0435059517621994, -0.092729851603508, 0.09160468727350235, 0.02913072146475315, 0.0631100982427597, -0.06901136785745621, 0.09139415621757507, 0.09155629575252533, 0.05287060886621475, 0.005638809408992529, -0.14442825317382812, 0.10083812475204468, -0.12633202970027924, -0.10680320858955383, 0.13524585962295532, 0.14697124063968658, 0.16828922927379608, -0.11326541751623154, 0.08448518812656403, -0.16753892600536346, 0.1231292337179184, 0.09424114972352982], [-0.11496634036302567, 0.05978557839989662, -0.022549912333488464, -0.06574370712041855, 0.16017965972423553, 0.11386241018772125, -0.10291723161935806, 0.11010166257619858, 0.1129646822810173, 0.12401817739009857, 0.025530895218253136, -0.02714202180504799, 0.0662102922797203, -0.08473096787929535, -0.08081907033920288, 0.13144704699516296, -0.045174382627010345, 0.044877585023641586, 0.14473386108875275, 0.13930673897266388, 0.05345754325389862, 0.024703679606318474, 0.025126328691840172, -0.0647575780749321, 0.0009341848781332374, -0.11593268066644669, 0.16525693237781525, -0.053787849843502045, -0.07405038923025131, -0.14533528685569763, -0.15221844613552094, 0.11939805746078491], [0.16566501557826996, -0.01816851645708084, -0.09484408050775528, 0.16385678946971893, 0.060425177216529846, 0.0874973013997078, -0.1675051897764206, 0.16914165019989014, -0.07384704798460007, 0.15943148732185364, 0.03159698471426964, -0.019566083326935768, -0.029971865937113762, -0.10818303376436234, 0.11291905492544174, 0.1522509604692459, 0.005533754825592041, -0.14499354362487793, 0.09781849384307861, 0.01850389875471592, -0.051795314997434616, 0.06948713213205338, 0.11275297403335571, 0.10594040155410767, 0.05778505653142929, -0.17101632058620453, -0.12492357194423676, 0.12078087776899338, 0.15259723365306854, 0.0419352687895298, 0.000983665231615305, 0.028577417135238647], [-0.11079864948987961, -0.03277762606739998, 0.05304958298802376, 0.09531629830598831, -0.16623634099960327, 0.1757151037454605, -0.11985349655151367, 0.16875576972961426, -0.04136009141802788, 0.03587619587779045, -0.16575276851654053, 0.14751006662845612, 0.1667833775281906, 0.00430580647662282, 0.017108753323554993, 0.14994651079177856, 0.07829843461513519, -0.15744221210479736, 0.036351654678583145, 0.10381006449460983, -0.14641818404197693, 0.08105144649744034, -0.12389742583036423, 0.038130905479192734, 0.10860979557037354, 0.10352633148431778, 0.1582842618227005, 0.05078528821468353, 0.1140444353222847, 0.09853406250476837, -0.10060865432024002, 0.15625810623168945], [0.05703353509306908, 0.16488271951675415, -0.013766424730420113, 0.08747436851263046, -0.052421510219573975, 0.10056505352258682, 0.0792011097073555, -0.0814405232667923, 0.14132905006408691, 0.15313167870044708, -0.0033500632271170616, -0.03987623006105423, -0.022450804710388184, -0.025026651099324226, -0.01946895569562912, -0.028239673003554344, 0.03973707929253578, -0.08103977143764496, 0.16230812668800354, -0.13741940259933472, -0.010217850096523762, -0.15006645023822784, -0.12966716289520264, 0.08376755565404892, -0.1591886281967163, 0.031097883358597755, -0.018793068826198578, -0.04935355857014656, -0.05627375468611717, 0.018321404233574867, 0.09768883138895035, 0.15789997577667236], [-0.15939012169837952, -0.031174758449196815, 0.07563559710979462, -0.023823801428079605, -0.04983752965927124, 0.08533602952957153, -0.07092458754777908, 0.14957500994205475, -0.08324582129716873, -0.1126767098903656, -0.04671744257211685, 0.1557035893201828, 0.07478943467140198, 0.14860323071479797, -0.025739142671227455, 0.03668602928519249, -0.13032056391239166, 0.16067293286323547, -0.019268738105893135, 0.1614471673965454, -0.06333331018686295, -0.05690724402666092, -0.022071629762649536, 0.004416125826537609, 0.054235681891441345, 0.07600323855876923, -0.03279682248830795, -0.1086759865283966, 0.15968486666679382, 0.11297224462032318, -0.02537476271390915, -0.07321067899465561], [0.08437208831310272, -0.12660720944404602, -0.05898137390613556, -0.10162654519081116, 0.08125511556863785, 0.027434205636382103, -0.08521751314401627, -0.12833045423030853, 0.10526362806558609, 0.11004406958818436, 0.0006502204923890531, 0.08386586606502533, -0.02281809225678444, 0.09676776826381683, -0.13206548988819122, 0.05761033669114113, -0.12193352729082108, -0.05764036625623703, 0.17358236014842987, 0.005702805705368519, -0.07127977907657623, 0.16660356521606445, -0.025197913870215416, 0.0353187620639801, 0.14569121599197388, -0.16558891534805298, -0.14356836676597595, -0.1553783416748047, -0.07254018634557724, -0.06881149113178253, -0.10072266310453415, -0.12625853717327118], [-0.05894426256418228, -0.11657598614692688, -0.08172909915447235, -0.1534314751625061, -0.1114937961101532, 0.005895648151636124, 0.07150594145059586, -0.14036878943443298, -0.04077328369021416, -0.01851315051317215, 0.1546243280172348, 0.1366346925497055, -0.01622185856103897, 0.0961582213640213, 0.05240486189723015, -0.016725091263651848, 0.10927250981330872, -0.06149939447641373, 0.07750268280506134, -0.07653003185987473, 0.08089368790388107, 0.026403840631246567, 0.04120393842458725, 0.07042999565601349, 0.02223130315542221, -0.0722428560256958, 0.01952343061566353, -0.06328477710485458, 0.11451403796672821, -0.13478338718414307, -0.17508180439472198, 0.06496487557888031], [0.02310163527727127, 0.06353689730167389, 0.0233379527926445, 0.0669010579586029, -0.10640522092580795, -0.16480638086795807, -0.016634855419397354, 0.03083682619035244, 0.010504343546926975, -0.0538603849709034, 0.024037886410951614, -0.005612527020275593, -0.1617821753025055, 0.15307942032814026, -0.015520808286964893, -0.13393644988536835, -0.1409589946269989, -0.010063149966299534, -0.15780170261859894, -0.12716448307037354, 0.08732405304908752, 0.07161927223205566, -0.0846790000796318, 0.15421424806118011, 0.04242609068751335, 0.06003304198384285, -0.04433298483490944, -0.13123933970928192, -0.10215412080287933, -0.10668279975652695, 0.06650886684656143, 0.01525524165481329], [0.04185382276773453, -0.11591360718011856, 0.058350056409835815, -0.015494192950427532, 0.044641729444265366, -0.1117861270904541, -0.14068575203418732, -0.048034656792879105, -0.13938479125499725, -0.09561063349246979, -0.14071840047836304, 0.03942544758319855, 0.006947128102183342, -0.11244894564151764, 0.04188774898648262, 0.15697960555553436, 0.15829692780971527, 0.08284616470336914, -0.08360683172941208, 0.09596674889326096, -0.08894630521535873, 0.14064961671829224, -0.16858313977718353, 0.17045976221561432, 0.012884797528386116, -0.09433351457118988, -0.17401748895645142, -0.1589752584695816, -0.030102690681815147, -0.05534369871020317, 0.05079335719347, 0.09843511879444122], [-0.12892097234725952, -0.11571668088436127, -0.17309288680553436, -0.04585610702633858, -0.027836645022034645, -0.05134086683392525, 0.05544942617416382, -0.1696775257587433, 0.036948539316654205, -0.04188079759478569, -0.13114053010940552, -0.127296581864357, -0.17299413681030273, -0.06733667105436325, -0.156986802816391, 0.15501421689987183, -0.07196034491062164, -0.14842690527439117, -0.05323405936360359, 0.012168764136731625, 0.09273122251033783, -0.14986936748027802, 0.13092218339443207, 0.027399813756346703, 0.056798018515110016, -0.09969405084848404, 0.058431800454854965, 0.17156024277210236, 0.11510895937681198, 0.13935931026935577, -0.1503014713525772, -0.1435655802488327], [0.042426493018865585, -0.17631027102470398, 0.04517758637666702, 0.07408933341503143, 0.004286840092390776, -0.08853166550397873, -0.1127735823392868, 0.12625738978385925, -0.03192193806171417, -0.07020097225904465, 0.14710457623004913, 0.15563447773456573, 0.12735381722450256, 0.1403971165418625, -0.1617751270532608, -0.1752619743347168, -0.17607669532299042, 0.1398523449897766, 0.17496347427368164, -0.049621906131505966, -0.12882058322429657, -0.12886942923069, -0.05888506770133972, -0.11074147373437881, -0.16607575118541718, -0.03769862651824951, 0.08870530873537064, -0.051813606172800064, 0.07644589245319366, -0.021168380975723267, 0.16645477712154388, 0.011916578747332096], [-0.16323357820510864, -0.1646546870470047, -0.09636621922254562, 0.11483193188905716, -0.1309562772512436, 0.1589989811182022, -0.15131951868534088, -0.03117210417985916, -0.14279483258724213, -0.0737890750169754, -0.12216175347566605, -0.16209197044372559, -0.13581174612045288, 0.07770418375730515, -0.17191196978092194, -0.03362100571393967, 0.10815837979316711, -0.16089634597301483, 0.08532844483852386, 0.07620769739151001, -0.021325714886188507, 0.006239545997232199, 0.12994639575481415, -0.09372550994157791, -0.06978559494018555, -0.06432943046092987, 0.0931757465004921, 0.028946496546268463, -0.09014197438955307, 0.05954641476273537, -0.15854400396347046, 0.022707520052790642], [-0.17528627812862396, 0.005803115200251341, 0.1395634561777115, 0.07590328902006149, 0.006637706886976957, -0.039719779044389725, -0.11496008187532425, -0.16884596645832062, -0.004787502810359001, 0.09436047077178955, -0.035261381417512894, -0.1290573924779892, -0.04043353721499443, -0.06575706601142883, -0.16238756477832794, -0.09100547432899475, 0.026499008759856224, 0.006752262357622385, 0.017720704898238182, 0.029255181550979614, 0.01986878179013729, 0.06615480780601501, 0.05996742099523544, 0.014331783168017864, 0.11411874741315842, 0.07043604552745819, -0.09280173480510712, -0.03859639912843704, 0.11000143736600876, -0.08364014327526093, 0.02969074808061123, 0.010346988216042519], [0.037520408630371094, -0.011769149452447891, 0.06782245635986328, 0.13881532847881317, -0.14358901977539062, -0.0985010415315628, -0.010433684103190899, 0.015643013641238213, 0.12550199031829834, -0.12664878368377686, 0.08200324326753616, -0.02522587962448597, 0.04485893249511719, 0.1362968385219574, -0.10623842477798462, -0.09988407045602798, -0.05603210628032684, -0.09027881920337677, 0.10471892356872559, -0.06262172013521194, -0.05227600038051605, 0.11269690096378326, 0.16058483719825745, -0.10974002629518509, 0.13994279503822327, 0.1670268028974533, -0.005901022348552942, -0.020351363345980644, -0.08215451240539551, -0.05235736444592476, 0.014137569814920425, 0.1761815845966339], [0.026341378688812256, -0.12523503601551056, 0.03740353509783745, -0.10497704893350601, -0.03042208030819893, 0.06597162038087845, 0.025697775185108185, 0.16433075070381165, 0.06432761996984482, -0.11399837583303452, -0.1429063230752945, 0.0886760801076889, -0.07947354763746262, 0.036553435027599335, 0.07726579159498215, 0.0736716166138649, 0.10460729897022247, -0.10233195871114731, -0.057635266333818436, -0.13516536355018616, 0.030271193012595177, 0.15598931908607483, -0.014927844516932964, -0.14670893549919128, 0.0835680142045021, -0.028539737686514854, -0.16459013521671295, -0.04294190555810928, 0.16917020082473755, 0.1389218270778656, 0.0842665508389473, 0.09526710957288742], [-0.07812390476465225, 0.002246026648208499, -0.06681544333696365, 0.08615384995937347, 0.15465936064720154, 0.0671376958489418, 0.0973772183060646, -0.1287596970796585, 0.1124873012304306, -0.10610035061836243, 0.02252342365682125, -0.1614658534526825, -0.09799938648939133, -0.15601372718811035, 0.12838979065418243, -0.14726747572422028, 0.06792657822370529, -0.10760518163442612, -0.00603142473846674, 0.14381366968154907, -0.11361106485128403, -0.16912126541137695, -0.12562938034534454, 0.12440232187509537, -0.02012164331972599, 0.14005234837532043, -0.04659395292401314, -0.03221740946173668, 0.07693766057491302, -0.09548480063676834, -0.13296204805374146, -0.14193856716156006], [0.1530374437570572, 0.17173607647418976, -0.06285858154296875, -0.07881869375705719, 0.027043860405683517, -0.09444981813430786, 0.06912671029567719, -0.17395874857902527, -0.06178773194551468, -0.12479297816753387, 0.02603944018483162, -0.03348428010940552, 0.12794502079486847, -0.1762586236000061, 0.05332355946302414, 0.09101220965385437, 0.1724172681570053, -0.06973118335008621, -0.09211170673370361, 0.05611122027039528, 0.16006752848625183, -0.004950147122144699, 0.048738349229097366, -0.04890486225485802, -0.11021944135427475, -0.15003907680511475, 0.13981907069683075, 0.008552986197173595, -0.09867341816425323, 0.11755246669054031, 0.08995115756988525, 0.06953032314777374], [-0.05357060208916664, 0.06177067384123802, 0.05535925552248955, 0.006285843905061483, 0.08526762574911118, -0.1581607311964035, 0.137315034866333, -0.005079409573227167, 0.10628324002027512, -0.03907676786184311, -0.1357850879430771, -0.06871356815099716, -0.1198459267616272, -0.15676119923591614, -0.004835107363760471, 0.06932750344276428, 0.07635628432035446, 0.15932096540927887, -0.16644276678562164, -0.08235814422369003, -0.10675286501646042, 0.10889826714992523, 0.1294962614774704, 0.12164320051670074, 0.14904136955738068, 0.07684292644262314, -0.043841540813446045, 0.1078786700963974, -0.037000950425863266, -0.019757704809308052, -0.09990726411342621, -0.1430637538433075], [0.0069861141964793205, -0.16635984182357788, -0.024792883545160294, -0.12306886166334152, -0.014396583661437035, 0.01946684904396534, -0.15999381244182587, 0.04773297160863876, -0.026973897591233253, -0.08118706941604614, -0.0004388962115626782, 0.11060535907745361, 0.13763107359409332, 0.10100079327821732, -0.02428792230784893, 0.1478644609451294, -0.09312072396278381, 0.1414305716753006, -0.1548638492822647, 0.044738393276929855, 0.0727601870894432, -0.0065399897284805775, -0.042558517307043076, 0.12853245437145233, 0.016008447855710983, -0.044790782034397125, 0.005982681643217802, -0.16746826469898224, 0.029490171000361443, -0.07013379037380219, 0.014745728112757206, -0.16025611758232117], [0.13250328600406647, 0.10018549859523773, 0.05476970225572586, 0.13242296874523163, -0.1463872492313385, -0.16560569405555725, -0.1216304674744606, -0.01601993292570114, 0.164841428399086, 0.03859127685427666, -0.058961860835552216, -0.1126275435090065, -0.02893492765724659, 0.12149263173341751, -0.06964313238859177, -0.00015697593335062265, 0.10332106053829193, 0.12198109179735184, 0.11887059360742569, -0.15131790935993195, 0.14817795157432556, 0.1548910290002823, -0.14096438884735107, 0.09981381148099899, 0.13601091504096985, -0.01548563688993454, -0.13862425088882446, 0.019148997962474823, 0.1519087851047516, 0.16826137900352478, 0.06678833812475204, -0.008693018928170204], [-0.05592359974980354, 0.16458258032798767, 0.1661192774772644, 0.16300137341022491, 0.12830781936645508, -0.12830370664596558, -0.11471221596002579, -0.11035317927598953, -0.09614897519350052, -0.03601391240954399, 0.01990448124706745, -0.08981575816869736, 0.036532361060380936, 0.13294146955013275, 0.026693768799304962, -0.08055796474218369, 0.0026052864268422127, -0.16678506135940552, 0.020362047478556633, -0.006168928928673267, 0.010158401913940907, -0.1526859998703003, -0.058521002531051636, 0.17618903517723083, -0.13569660484790802, 0.033170223236083984, 0.05889686942100525, 0.08110741525888443, 0.14204341173171997, -0.0767008364200592, -0.052940867841243744, 0.1700402796268463], [0.02677013911306858, -0.14229290187358856, -0.0823470801115036, 0.025318222120404243, -0.1158953607082367, 0.08769679814577103, -0.1317230463027954, -0.16931724548339844, -0.15934252738952637, -0.10805749893188477, -0.02063676156103611, -0.1518077254295349, 0.08380778133869171, 0.0854611024260521, -0.16707126796245575, -0.11377499252557755, -0.10700523853302002, 0.15079398453235626, -0.019070837646722794, 0.1258547455072403, 0.020307868719100952, -0.12500852346420288, -0.0788913369178772, 0.1688927412033081, -0.09099359065294266, -0.08115885406732559, -0.01113420631736517, 0.1524883657693863, 0.08573330193758011, 0.08147227764129639, -0.02902444824576378, 0.01585315726697445], [-0.08775494247674942, -0.10406014323234558, -0.0037132215220481157, -0.09105232357978821, 0.06621929258108139, -0.09985028952360153, 0.10768776386976242, -0.15853220224380493, -0.14588753879070282, -0.10162896662950516, 0.142490416765213, -0.07766015827655792, -0.13600707054138184, -0.16017064452171326, 0.09554173797369003, -0.13372771441936493, 0.04975645989179611, 0.14659014344215393, 0.0787258893251419, -0.11799304932355881, 0.175942525267601, 0.13139772415161133, -0.04603017494082451, -0.10311122983694077, -0.032206155359745026, 0.11018221080303192, 0.15014871954917908, -0.016264658421278, 0.16223889589309692, 0.15736474096775055, -0.0046867504715919495, -0.15300220251083374], [-0.1679224818944931, -0.037896908819675446, -0.14949707686901093, 0.10536354035139084, -0.08593902736902237, 0.033853884786367416, -0.07747220993041992, 0.0938703864812851, -0.025930995121598244, -0.05503986403346062, 0.08182033151388168, 0.08506489545106888, -0.11956951022148132, 0.14574646949768066, 0.07753405719995499, 0.146711528301239, 0.1431979238986969, -0.09191203117370605, -0.0576334111392498, 0.021252401173114777, -0.13172265887260437, -0.13800157606601715, -0.08703349530696869, 0.17512668669223785, -0.11805102229118347, 0.014454957097768784, -0.011957123875617981, 0.10711735486984253, -0.13158132135868073, -0.12809038162231445, 0.1517518162727356, -0.10249947011470795], [0.17124155163764954, -0.15199777483940125, 0.04456304386258125, 0.13809460401535034, -0.15130798518657684, -0.09314107894897461, -0.12128524482250214, -0.03470268100500107, -0.030062081292271614, 0.053645096719264984, 0.12431853264570236, 0.15755334496498108, 0.17493492364883423, 0.13442476093769073, 0.08218603581190109, -0.13448449969291687, 0.15748995542526245, -0.053426459431648254, 0.16946594417095184, 0.09761112928390503, -0.0010659780818969011, -0.08541680127382278, 0.0816655233502388, 0.01528792642056942, -0.0708133652806282, -0.02035418711602688, -0.11511001735925674, 0.12730062007904053, -0.12974674999713898, 0.04814406856894493, 0.0032789616379886866, -0.034281741827726364], [0.17153924703598022, 0.17097768187522888, 0.13764943182468414, -0.14938472211360931, 0.07414121180772781, -0.17297862470149994, 0.1096147820353508, -0.08086252212524414, 0.0600338838994503, -0.13522343337535858, 0.042362913489341736, 0.08681405335664749, 0.11519432812929153, 0.034372396767139435, -0.023157542571425438, -0.1483069360256195, -0.13919804990291595, 0.03621531277894974, 0.15570855140686035, 0.07981222122907639, -0.08390834927558899, 0.09154131263494492, -0.012898200191557407, -0.1609247773885727, 0.1434723138809204, -0.03187958151102066, -0.10280536860227585, 0.1327597200870514, 0.05703404173254967, -0.17071835696697235, -0.017665892839431763, 0.09751265496015549], [0.09265229851007462, 0.05275836959481239, 0.04750501736998558, 0.04172738268971443, 0.005148764234036207, 0.08349178731441498, -0.12790803611278534, 0.09567629545927048, -0.10774654150009155, -0.14173778891563416, -0.14703918993473053, 0.17212675511837006, 0.0032902357634156942, 0.09016797691583633, 0.13818469643592834, 0.07035059481859207, -0.06440335512161255, -0.059593744575977325, 0.06801655888557434, -0.13892245292663574, 0.07583726942539215, -0.07022644579410553, 0.1442287713289261, -0.12084133177995682, 0.05103985220193863, -0.002900799037888646, 0.06881056725978851, -0.16389384865760803, -0.12154817581176758, 0.07886775583028793, 0.14825688302516937, 0.11195043474435806], [-0.12863287329673767, 0.06649994850158691, 0.062074508517980576, 0.09214744716882706, 0.11767397820949554, -0.04731636866927147, -0.040094632655382156, -0.17566458880901337, 0.08627362549304962, 0.13368947803974152, 0.11651622503995895, 0.09347053617238998, 0.00975200068205595, -0.12090198695659637, 0.022093692794442177, -0.06990598142147064, -0.10286073386669159, 0.0758381113409996, -0.026291456073522568, 0.03470972180366516, 0.031041258946061134, 0.12439604103565216, 0.051134977489709854, -0.09635359793901443, -0.06749103218317032, -0.03710595890879631, 0.10508055984973907, -0.10273077338933945, 0.08965378254652023, 0.0035045105032622814, -0.1214028149843216, 0.07496314495801926], [-0.09911244362592697, 0.019057519733905792, 0.17385759949684143, -0.1190289556980133, -0.0006241947994567454, 0.050649888813495636, 0.14519058167934418, 0.014586728997528553, -0.10717640072107315, -0.09184278547763824, -0.12699148058891296, -0.009635338559746742, -0.14234372973442078, 0.07090830057859421, -0.09515805542469025, -0.16312189400196075, -0.05829039588570595, 0.0772056058049202, -0.013506884686648846, -0.05175481364130974, 0.09218406677246094, -0.07395848631858826, -0.17278701066970825, -0.10559332370758057, 0.07787776738405228, -0.15213339030742645, 0.07762265205383301, 0.11934764683246613, -0.13640953600406647, 0.07692313939332962, 0.09619691222906113, 0.15480834245681763], [-0.02619042992591858, 0.07236506044864655, -0.08223535120487213, 0.13270223140716553, -0.08908718079328537, -0.008058140054345131, -0.1075352132320404, -0.10755005478858948, 0.07676108181476593, 0.14108434319496155, 0.17328545451164246, 0.12892480194568634, -0.03171217441558838, -0.05990666523575783, -0.029661793261766434, -0.02033104933798313, 0.05051653832197189, 0.09815583378076553, -0.13146653771400452, -0.03654443472623825, -0.06562793254852295, 0.12623143196105957, -0.10855462402105331, -0.14431644976139069, -0.1733243316411972, -0.014669210650026798, -0.011626840569078922, -0.15688787400722504, 0.14517049491405487, -0.03110932558774948, 0.03639359399676323, -0.014724591746926308], [-0.12634292244911194, 0.12142051756381989, 0.09268797188997269, -0.14686855673789978, 0.08203976601362228, -0.0016821477329358459, 0.130097433924675, -0.03576646000146866, 0.15044260025024414, 0.08248546719551086, 0.11907556653022766, -0.09494452178478241, 0.0197924692183733, 0.03571964427828789, -0.02118660882115364, -0.13890911638736725, -0.04664865881204605, -0.047072023153305054, 0.16588734090328217, 0.0537385530769825, 0.09354516118764877, 0.006517883390188217, 0.03808744624257088, 0.022616419941186905, -0.013738439418375492, 0.07308674603700638, 0.02616667002439499, -0.1537298709154129, -0.07655742764472961, 0.05777011439204216, -0.14405296742916107, 0.15100425481796265], [0.1761389672756195, 0.023836318403482437, -0.12991061806678772, -0.041433174163103104, 0.05087586119771004, -0.1731887310743332, -0.0031254205387085676, 0.024201394990086555, 0.12172827124595642, -0.06603163480758667, 0.11391530185937881, 0.07723572105169296, 0.0017074530478566885, -0.003176376223564148, 0.12139541655778885, 0.09187806397676468, 0.07360325008630753, 0.056299444288015366, -0.08432581275701523, 0.009239389561116695, -0.018948759883642197, -0.1732483059167862, 0.03004712052643299, -0.010946400463581085, -0.17265132069587708, -0.10251607745885849, -0.03491535410284996, -0.1612728238105774, -0.03398926183581352, -0.058531392365694046, -0.11386630684137344, 0.16290926933288574], [-0.0259040966629982, -0.043143242597579956, -0.018053296953439713, 0.09677956998348236, 0.10581539571285248, -0.11306966841220856, -0.13375091552734375, 0.11237860471010208, 0.06946796923875809, 0.09914970397949219, 0.11213819682598114, 0.076222725212574, -0.11184949427843094, -0.11079325526952744, 0.14406634867191315, -0.01272598747164011, 0.00981973111629486, -0.16320045292377472, 0.01412142813205719, -0.11622290313243866, 0.16741202771663666, -0.1685383915901184, -0.037203993648290634, -0.16228753328323364, -0.15000465512275696, 0.04621017724275589, -0.06116213649511337, 0.004854010418057442, -0.15758177638053894, -0.051844142377376556, 0.14646252989768982, -0.11224714666604996], [0.0354788564145565, -0.01277846097946167, -0.13402992486953735, -0.1324225515127182, -0.08751280605792999, -0.08859855681657791, -0.10498516261577606, 0.13221797347068787, -0.09267482906579971, -0.14620225131511688, -0.03484014421701431, -0.004391849040985107, -0.11568603664636612, 0.001916901906952262, 0.1689877063035965, 0.15456132590770721, -0.050820667296648026, -0.1363719403743744, -0.031430020928382874, 0.0580299086868763, -0.07914027571678162, -0.018583809956908226, 0.09804608672857285, 0.10203631967306137, -0.09507477283477783, -0.0775865912437439, -0.11544597148895264, 0.11831985414028168, 0.054135918617248535, -0.00663836020976305, 0.11915716528892517, -0.1603107452392578], [0.0077785588800907135, 0.034516751766204834, 0.054761357605457306, -0.14308036863803864, -0.1015903651714325, 0.1637231856584549, -0.04345875233411789, -0.043054819107055664, 0.07605362683534622, 0.1333610564470291, -0.1500207781791687, 0.07154888659715652, -0.12722837924957275, -0.03333708271384239, 0.12684297561645508, 0.056438252329826355, -0.036051761358976364, 0.08650539070367813, 0.0193315576761961, 0.0927346795797348, 0.08373405039310455, 0.13721692562103271, -0.10671371221542358, -0.1435079127550125, 0.055539388209581375, 0.029441047459840775, 0.038472484797239304, -0.055782850831747055, 0.0553770586848259, -0.1611277163028717, 0.08775980770587921, 0.03166970983147621], [0.004202060401439667, -0.11861587315797806, 0.05456381291151047, 0.030923226848244667, 0.09982510656118393, 0.13106483221054077, -0.12086980789899826, -0.03658471629023552, -0.10691507905721664, 