{"lstm.weight_ih_l0": [[0.06861051917076111, 0.0653124749660492, -0.06973236799240112, 0.0673997700214386, -0.002373814582824707, -0.1693914532661438, 0.1604689061641693, 0.08604082465171814, -0.03165513277053833, -0.06673920154571533, -0.06659471988677979, -0.15539461374282837, -0.04654589295387268, -0.08266445994377136, -0.2384740710258484, -0.08597436547279358, -0.19507759809494019], [-0.024456828832626343, 0.14319893717765808, -0.14584562182426453, 0.19187083840370178, -0.14296084642410278, 0.12085264921188354, -0.13524970412254333, -0.08398008346557617, 0.008147567510604858, -0.11878538131713867, -0.21934238076210022, 0.0527820885181427, -0.1982964277267456, -0.10663661360740662, 0.19686108827590942, 0.021114468574523926, 0.14665493369102478], [-0.3524739742279053, 0.21095168590545654, 0.09139804542064667, -0.26349321007728577, -0.12463312596082687, -0.18985815346240997, -0.08570899814367294, -0.1669343262910843, -0.03592638671398163, 0.0898706465959549, 0.15324874222278595, -0.15404167771339417, 0.06019489839673042, 0.15629629790782928, 0.0390639528632164, -0.0017931371694430709, -0.2295326143503189], [0.004957470111548901, -0.27333173155784607, -0.080986887216568, 0.12024470418691635, 0.005654704757034779, 0.1878390908241272, 0.08672850579023361, 0.07658854871988297, 0.06815651059150696, 0.07767552137374878, -0.06151639670133591, 0.2771577835083008, 0.07568122446537018, 0.14834679663181305, 0.05005119740962982, 0.061545439064502716, -0.04854905232787132], [-0.22681750357151031, 0.11266859620809555, -0.2463090568780899, -0.025385066866874695, -0.09261929243803024, -0.1435878574848175, 0.15798795223236084, 0.1602916419506073, 0.24540433287620544, -0.006515204906463623, -0.16980040073394775, 0.0674784705042839, 0.159195214509964, -0.2277195155620575, 0.042097367346286774, -0.2104833871126175, 0.22026225924491882], [0.04698777198791504, -0.11774033308029175, -0.24674588441848755, -0.1415824592113495, -0.1111193597316742, 0.06283271312713623, -0.04124578833580017, -0.13968539237976074, 0.14034563302993774, 0.11176416277885437, -0.04118752479553223, -0.14501377940177917, -0.23679926991462708, 0.2456967830657959, -0.1652829945087433, 0.018575847148895264, 0.034176796674728394], [-0.010495811700820923, -0.0661165714263916, -0.15454819798469543, -0.2494547963142395, 0.22578874230384827, 0.03870052099227905, -0.12842369079589844, 0.020399004220962524, -0.17882710695266724, 0.17034754157066345, -0.00945192575454712, 0.22796866297721863, -0.046571284532547, 0.04823493957519531, 0.19330766797065735, -0.13525253534317017, 0.05183088779449463], [-0.20628821849822998, -0.10833752155303955, -0.1070670485496521, -0.08340880274772644, 0.1623246967792511, -0.18823206424713135, -0.02465572953224182, 0.057122230529785156, -0.19879943132400513, 0.18968310952186584, -0.0018360912799835205, 0.12126794457435608, -0.21396562457084656, 0.13722696900367737, 0.08338040113449097, 0.18896442651748657, 0.16937020421028137], [0.18292191624641418, 0.18846920132637024, -0.2254999876022339, -0.12484106421470642, 0.16830545663833618, -0.18804028630256653, 0.16004768013954163, 0.12467867136001587, -0.1388344168663025, 0.1358286738395691, 0.1878538429737091, -0.06944230198860168, -0.22042497992515564, 0.06484124064445496, -0.22375738620758057, -0.07422538846731186, 0.21332383155822754], [0.03517180681228638, 0.16430717706680298, -0.05853906273841858, 0.06991982460021973, 0.11955434083938599, -0.020482033491134644, -0.10483059287071228, -0.16616755723953247, -0.15557533502578735, 0.1522153913974762, -0.14781031012535095, 0.24288862943649292, -0.05099865794181824, 0.14057135581970215, 0.11966332793235779, -0.1734355390071869, 0.10042804479598999], [0.2162400186061859, -0.03589606285095215, 0.21578949689865112, 0.13430404663085938, -0.21447250247001648, 0.014221400022506714, -0.07819250226020813, -0.18257084488868713, 0.10619795322418213, 0.13280877470970154, -0.22320470213890076, -0.06704249978065491, 0.2305622696876526, 0.051668256521224976, 0.11755892634391785, -0.15139272809028625, -0.0021023154258728027], [0.05943065881729126, -0.14596277475357056, 0.031406521797180176, -0.11974093317985535, -0.118022620677948, -0.1706911027431488, 0.1160748302936554, 0.017501473426818848, -0.21607789397239685, 0.050431281328201294, -0.24921733140945435, -0.08388394117355347, 0.0827915370464325, 0.09963390231132507, -0.2283349335193634, -0.05831193923950195, -0.06457054615020752], [0.20410838723182678, -0.12368017435073853, 0.14621081948280334, 0.22690227627754211, -0.05027729272842407, -0.14252087473869324, -0.21143838763237, -0.21433421969413757, -0.17721974849700928, -0.1427554190158844, 0.09860217571258545, 0.15495991706848145, 0.14178824424743652, -0.14217296242713928, 0.2180740237236023, 0.019640475511550903, 0.148413747549057], [-0.05233845114707947, -0.06591230630874634, -0.06297427415847778, 0.18245315551757812, -0.20212596654891968, 0.17027175426483154, 0.010740816593170166, -0.05082213878631592, 0.14018777012825012, 0.09267839789390564, 0.13326740264892578, -0.12328022718429565, 0.17375096678733826, -0.2399228811264038, 0.20500051975250244, -0.16306188702583313, -0.08483657240867615], [0.21340972185134888, -0.19391795992851257, 0.18188589811325073, 0.16865205764770508, 0.04389813542366028, 0.08212223649024963, 0.0026637017726898193, 0.047470927238464355, 0.2210710644721985, 0.0866672694683075, 0.16161498427391052, -0.2030845582485199, -0.0629149079322815, 0.212657630443573, -0.14540717005729675, -0.036539226770401, 0.22547855973243713], [-0.18033522367477417, 0.09454134106636047, 0.06788834929466248, -0.009436160326004028, 0.062419593334198, -0.08412888646125793, -0.10663843154907227, 0.07413789629936218, 0.032857686281204224, -0.025527209043502808, -0.12380930781364441, -0.20574986934661865, 0.18156388401985168, 0.20683449506759644, 0.11623784899711609, 0.1039244532585144, -0.06484556198120117], [-0.18460053205490112, 0.23771092295646667, 0.12276682257652283, 0.025468021631240845, -0.23230895400047302, 0.04433751106262207, -0.21662312746047974, -0.10321614146232605, -0.08965826034545898, -0.0006210505962371826, -0.13360506296157837, -0.12038072943687439, 0.13621586561203003, -0.1723177134990692, -0.017792880535125732, -0.10665550827980042, 0.032339394092559814], [0.08444201946258545, 0.048433512449264526, -0.18871119618415833, 0.14346525073051453, 0.07963448762893677, -0.23463737964630127, -0.19038105010986328, 0.019675105810165405, -0.19247561693191528, -0.21987634897232056, -0.22168204188346863, -0.24612322449684143, -0.16685065627098083, 0.07874858379364014, 0.02633914351463318, 0.20513927936553955, -0.20823130011558533], [0.0359707735478878, 0.004609549883753061, 0.00441425247117877, 0.12827005982398987, 0.2195184826850891, 0.04629426449537277, -0.029323698952794075, -0.1627766489982605, 0.13753853738307953, 0.07535208761692047, -0.2620643675327301, 0.11019846051931381, -0.16200709342956543, 0.18482229113578796, -0.17773151397705078, 0.14462025463581085, -0.19131579995155334], [-0.16948498785495758, -0.21240317821502686, -0.15080995857715607, -0.0832921490073204, 0.22351065278053284, -0.23801027238368988, 0.21201899647712708, 0.12246301025152206, 0.11399427801370621, -0.12405751645565033, -0.07393400371074677, -0.24663317203521729, -0.22791315615177155, -0.022191189229488373, 0.1412406712770462, 0.21254852414131165, -0.18259099125862122], [0.01636195182800293, -0.18053597211837769, 0.011567890644073486, -0.13535550236701965, 0.0499231219291687, 0.039293915033340454, -0.13867774605751038, 0.02023574709892273, 0.22110971808433533, 0.2100447416305542, 0.0638880729675293, -0.24032846093177795, 0.15933433175086975, 0.1020713746547699, 0.19612354040145874, 0.20142844319343567, 0.21510043740272522], [0.057649165391922, -0.07302629947662354, -0.004978299140930176, 0.24915257096290588, -0.12313172221183777, 0.10781839489936829, -0.0008147060871124268, -0.0031684935092926025, 0.09505701065063477, 0.1405676305294037, 0.1571519672870636, 0.007954925298690796, -0.04476025700569153, -0.021941304206848145, -0.16687241196632385, -0.12943491339683533, -0.0008433759212493896], [-0.10527113080024719, -0.12646764516830444, -0.1940407156944275, 0.10260602831840515, -0.20593899488449097, -0.2118605673313141, -0.10227274894714355, -0.15841436386108398, -0.09103730320930481, 0.1988183557987213, 0.039341092109680176, -0.13571131229400635, 0.09128305315971375, 0.04775381088256836, 0.20917293429374695, 0.03534957766532898, 0.2318984568119049], [-0.08510959148406982, 0.17018046975135803, -0.027042657136917114, -0.10362666845321655, 0.04645386338233948, -0.07960417866706848, 0.030505657196044922, 0.20163631439208984, 0.05629602074623108, 0.11388346552848816, -0.24332097172737122, -0.21868127584457397, 0.24727347493171692, -0.07539138197898865, -0.1776975393295288, -0.025398194789886475, 0.1968475580215454], [-0.04873400926589966, -0.20530936121940613, -0.10942471027374268, -0.061559975147247314, -0.1745004951953888, 0.148488849401474, 0.1340840458869934, 0.025239169597625732, 0.13394275307655334, 0.05599120259284973, -0.0758618414402008, -0.24528411030769348, -0.151967853307724, -0.08131486177444458, 0.1676127016544342, -0.23294854164123535, -0.05591532588005066], [0.19053736329078674, 0.11274102330207825, 0.1978384256362915, 0.1894974410533905, -0.02512112259864807, -0.15630283951759338, -0.06352022290229797, 0.15746426582336426, -0.07026195526123047, -0.10660859942436218, -0.13643494248390198, 0.08173671364784241, 0.167344331741333, 0.028868913650512695, 0.18518871068954468, 0.08002644777297974, 0.07318294048309326], [-0.24574214220046997, -0.08375823497772217, 0.20077300071716309, -0.017431318759918213, 0.14820459485054016, 0.06847113370895386, -0.13632237911224365, -0.04514157772064209, -0.11184749007225037, -0.0765378475189209, -0.02500012516975403, -0.00763508677482605, 0.006566047668457031, 0.04351168870925903, 0.05023491382598877, 0.24836823344230652, -0.12400168180465698], [-0.04068922996520996, 0.11717572808265686, 0.06479474902153015, 0.08991235494613647, 0.20090454816818237, 0.15136510133743286, 0.04488939046859741, 0.20335769653320312, 0.060639023780822754, 0.12280738353729248, -0.05165684223175049, 0.18129783868789673, 0.08280575275421143, 0.1603095829486847, -0.2398725152015686, 0.162968248128891, -0.14544641971588135], [0.10605597496032715, -0.12337973713874817, 0.20510178804397583, 0.13136452436447144, -0.1895042359828949, 0.23306778073310852, 0.06398510932922363, 0.22913813591003418, 0.09763661026954651, 0.22300976514816284, 0.17557483911514282, 0.1395769715309143, 0.07464003562927246, -0.12401419878005981, 0.15265238285064697, 0.240197092294693, -0.19264847040176392], [-0.2103618085384369, -0.1872965693473816, 0.17843741178512573, 0.024916470050811768, -0.22155940532684326, 0.14450767636299133, -0.1517036259174347, 0.0360090434551239, 0.15652528405189514, -0.21437758207321167, -0.2146223783493042, -0.028992682695388794, -0.19022181630134583, 0.04783305525779724, 0.032032281160354614, -0.09328523278236389, 0.008455485105514526], [0.04684412479400635, -0.22561931610107422, -0.21574640274047852, 0.08493974804878235, -0.01613527536392212, 0.16819429397583008, -0.24376708269119263, 0.0010387003421783447, -0.05132639408111572, 0.07392004132270813, -0.10707545280456543, 0.24528735876083374, 0.09965920448303223, -0.083974689245224, -0.15847593545913696, 0.13332322239875793, 0.202522873878479], [-0.1825105845928192, 0.24579235911369324, -0.13659444451332092, -0.06260925531387329, -0.24767115712165833, -0.20974624156951904, -0.1335863173007965, 0.04789602756500244, -0.08719968795776367, -0.1759408414363861, 0.23179379105567932, 0.05884423851966858, -0.1549149751663208, 0.2078985869884491, 0.12278702855110168, -0.09541857242584229, 0.03432583808898926], [-0.11520791053771973, 0.010553687810897827, 0.22378721833229065, 0.08209946751594543, -0.09840995073318481, -0.15570023655891418, -0.15479034185409546, 0.050330668687820435, -0.17370635271072388, 0.15953949093818665, -0.05017843842506409, 0.16920694708824158, -0.01728081703186035, 0.1330726444721222, 0.17784687876701355, -0.23547786474227905, 0.007574588060379028], [-0.04457813501358032, 0.15301838517189026, 0.17164644598960876, 0.10665029287338257, 0.23344817757606506, 0.19314244389533997, 0.12885895371437073, -0.23803073167800903, -0.13952308893203735, -0.020043671131134033, 0.1680040955543518, 0.19432008266448975, 0.23560452461242676, 0.13435852527618408, -0.10259893536567688, -0.04268482327461243, -0.0828109085559845], [-0.2189549207687378, 0.13303658366203308, -0.19225835800170898, -0.06548643112182617, 0.08131426572799683, -0.20663982629776, 0.07074537873268127, 0.11975595355033875, -0.23440492153167725, -0.1006622314453125, 0.09426838159561157, 0.1766120195388794, 0.07379066944122314, -0.07944637537002563, 0.047334372997283936, -0.04421833157539368, 0.22506198287010193], [0.09004151076078415, -0.15532679855823517, -0.03185320645570755, 0.007357638794928789, -0.15309745073318481, -0.15984074771404266, 0.22466817498207092, 0.1681419461965561, -0.15060855448246002, -0.19378812611103058, -0.14404350519180298, 0.03198925778269768, -0.06786537170410156, 0.17996439337730408, 0.13878554105758667, -0.015066420659422874, 0.04098867252469063], [-0.09309041500091553, 0.07753178477287292, 0.21839946508407593, 0.21665960550308228, -0.0599399209022522, -0.09158912301063538, -0.11797314882278442, -0.19927802681922913, 0.058747321367263794, 0.19174551963806152, -0.18881770968437195, 0.21626710891723633, -0.15747269988059998, 0.1947728991508484, -0.12138241529464722, -0.10426822304725647, -0.13127022981643677], [0.10510554909706116, 0.07926285266876221, 0.21137401461601257, -0.05482769012451172, -0.16081759333610535, -0.18564856052398682, 0.20428180694580078, -0.23635798692703247, -0.24038052558898926, 0.07149577140808105, 0.05491536855697632, -0.06627053022384644, -0.14687225222587585, 0.06015065312385559, -0.1977788209915161, -0.07073220610618591, 0.046267151832580566], [0.16158685088157654, 0.08985832333564758, 0.22576436400413513, -0.10104218125343323, 0.12296915054321289, -0.020400792360305786, -0.21227476000785828, 0.2071579098701477, -0.09246012568473816, -0.0835709273815155, 0.03781479597091675, 0.2294827103614807, 0.14083155989646912, -0.009462207555770874, 0.07076382637023926, -0.17657595872879028, -0.017395436763763428], [-0.05072861909866333, 0.10957980155944824, 0.0706789493560791, 0.12386932969093323, 0.12066850066184998, 0.02542281150817871, -0.06715908646583557, 0.19111034274101257, 0.21709656715393066, 0.1859552562236786, 0.013993680477142334, -0.10385710000991821, -0.07753771543502808, 0.09184956550598145, -0.1031288206577301, 0.029465317726135254, -0.20666146278381348], [-0.160161554813385, 0.066862553358078, -0.0163118839263916, 0.101726233959198, -0.046933770179748535, 0.083851158618927, 0.09698218107223511, 0.2391609251499176, -0.22046411037445068, 0.02719864249229431, 0.024326086044311523, -0.14548256993293762, 0.13955986499786377, -0.05677109956741333, 0.19153645634651184, 0.11527931690216064, -0.1938813030719757], [-0.18212363123893738, -0.21286824345588684, 0.17320317029953003, 0.054403603076934814, 0.09161946177482605, -0.2164507806301117, -0.24235409498214722, -0.17822736501693726, 0.1504310667514801, -0.13102909922599792, 0.08061730861663818, 0.2235994040966034, -0.009857356548309326, -0.20898619294166565, 0.1113913357257843, 0.1544777750968933, 0.00937458872795105], [0.08100694417953491, -0.10019421577453613, 0.24499082565307617, 0.07654008269309998, 0.015225023031234741, 0.049050331115722656, 0.15696796774864197, -0.21861517429351807, 0.19211694598197937, -0.04483649134635925, -0.1567671298980713, -0.12170693278312683, 0.2470141351222992, 0.16041630506515503, -0.2016824185848236, 0.22681134939193726, -0.16502955555915833], [0.07916566729545593, -0.23205387592315674, -0.03351593017578125, -0.13159474730491638, -0.10917365550994873, 0.0666939914226532, -0.1271299123764038, 0.05297726392745972, -0.010417640209197998, 0.054105162620544434, -0.11878004670143127, 0.23617655038833618, -0.11714887619018555, 0.12467607855796814, -0.008664608001708984, -0.010280579328536987, -0.19701242446899414], [-0.22366079688072205, 0.01846444606781006, 0.19936612248420715, 0.1848985254764557, 0.237809956073761, 0.17867419123649597, -0.17866069078445435, -0.1833517849445343, -0.03549453616142273, 0.23376086354255676, 0.1277870237827301, -0.2408263087272644, -0.062021613121032715, 0.14531928300857544, -0.05813413858413696, 0.10249575972557068, -0.05659973621368408], [0.18923336267471313, 0.24688270688056946, 0.1696135699748993, -0.24418532848358154, -0.12780126929283142, -0.1325700879096985, 0.06313952803611755, 0.11088177561759949, -0.1419183313846588, -0.14451584219932556, -0.06746640801429749, -0.16104251146316528, 0.04334166646003723, 0.2285047471523285, 0.19031518697738647, -0.14064350724220276, 0.22598624229431152], [0.025113284587860107, -0.03656911849975586, -0.14436376094818115, -0.11971694231033325, 0.09150734543800354, 0.1327909529209137, 0.1453772485256195, -0.16795656085014343, 0.12457412481307983, 0.06296363472938538, 0.23135817050933838, -0.1950332224369049, 0.1116989254951477, 0.21475514769554138, 0.23150363564491272, 0.167863130569458, -0.0405752956867218], [0.024948537349700928, -0.24530071020126343, -0.1797294318675995, 0.22775891423225403, 0.01951313018798828, 0.13666832447052002, -0.19544798135757446, 0.07401454448699951, 0.1842072308063507, -0.18189755082130432, -0.23845210671424866, 0.1478603482246399, 0.1461758315563202, -0.1110980212688446, 0.006675601005554199, 0.09742122888565063, 0.1702115535736084], [-0.04019445180892944, -0.20931997895240784, 0.13315388560295105, -0.1414089798927307, -0.21134153008460999, 0.049417465925216675, 0.14864897727966309, -0.1443113088607788, -0.023043930530548096, -0.21976321935653687, -0.09828212857246399, 0.09236973524093628, 0.02610895037651062, -0.07904699444770813, 0.13764983415603638, 0.13545328378677368, -0.24473837018013], [0.04401141405105591, 0.18278643488883972, -0.12158337235450745, 0.046458899974823, -0.0009085536003112793, -0.20192331075668335, -0.10242468118667603, 0.19676151871681213, -0.16130590438842773, 0.14026883244514465, 0.07926619052886963, -0.10285252332687378, 0.16954776644706726, 0.1125229001045227, 0.05096489191055298, 0.18520843982696533, -0.06513938307762146], [-0.051152560859918594, -0.23097097873687744, 0.10636185854673386, -0.17069920897483826, 0.045827534049749374, -0.07689511775970459, 0.12987643480300903, -0.2233322411775589, 0.23917260766029358, 0.21639612317085266, 0.09196443855762482, -0.09854809194803238, -0.19646942615509033, 0.1523592621088028, -0.09274058789014816, -0.05718739330768585, -0.18727228045463562], [-0.0689026415348053, -0.1381579041481018, -0.2446538209915161, 0.14157316088676453, 0.21176892518997192, 0.12794220447540283, 0.2176048755645752, 0.16904425621032715, 0.24635881185531616, -0.004915058612823486, -0.10258659720420837, 0.11396399140357971, 0.14919960498809814, 0.13451328873634338, 0.19687500596046448, 0.08049628138542175, 0.17686080932617188], [0.09674078226089478, -0.11656290292739868, -0.1753913164138794, 0.02803802490234375, -0.19884920120239258, 0.12892457842826843, 0.21678298711776733, -0.00028756260871887207, 0.23789533972740173, -0.1598568856716156, 0.19987580180168152, -0.04251262545585632, -0.16511684656143188, 0.03590250015258789, -0.045879065990448, 0.0010049045085906982, 0.15129071474075317], [-0.230195552110672, 0.011988073587417603, -0.20162540674209595, -0.24602189660072327, 0.03335052728652954, -0.14369100332260132, 0.023945480585098267, -0.2183040976524353, 0.020269781351089478, 0.032867878675460815, -0.0217609703540802, 0.09324577450752258, -0.015476793050765991, -0.043121665716171265, -0.12251412868499756, 0.19897153973579407, -0.13052979111671448], [-0.050610512495040894, -0.1332431435585022, -0.11339813470840454, 0.2327171266078949, 0.20351245999336243, -0.10128539800643921, -0.09129026532173157, 0.05154150724411011, 0.0199621319770813, -0.21953794360160828, -0.15550899505615234, -0.21308889985084534, -0.06028446555137634, 0.18696510791778564, 0.16783282160758972, -0.016319245100021362, -0.12426409125328064], [0.0511244535446167, 0.2389969825744629, 0.2474151849746704, 0.08450824022293091, -0.13554471731185913, 0.023889750242233276, 0.09048524498939514, -0.2165290117263794, -0.2323380708694458, -0.1481521725654602, -0.19519859552383423, -0.049258649349212646, -0.2279907464981079, -0.132185697555542, 0.11329373717308044, -0.04601985216140747, -0.04300910234451294], [0.14773070812225342, 0.24569407105445862, 0.1452353298664093, -0.06562334299087524, -0.14397934079170227, -0.04367786645889282, 0.17472076416015625, -0.10568684339523315, -0.1251668930053711, -0.18475022912025452, 0.08277639746665955, 0.11393868923187256, -0.04517051577568054, 0.026532113552093506, 0.22270634770393372, 0.2481032907962799, 0.010552704334259033], [0.16848450899124146, -0.13197839260101318, -0.21907171607017517, 0.21333187818527222, 0.013330042362213135, -0.09580919146537781, -0.08992594480514526, -0.21138155460357666, -0.11546483635902405, 0.08485949039459229, 0.18043676018714905, 0.18605458736419678, 0.22332879900932312, 0.2407262623310089, 0.1909354329109192, 0.199593186378479, 0.07415097951889038], [-0.22467264533042908, 0.1601535975933075, -0.1820867359638214, 0.2151513397693634, -0.06791451573371887, -0.11224004626274109, -0.024721741676330566, 0.1960291564464569, -0.08933821320533752, 0.18661901354789734, -0.04010710120201111, 0.024309635162353516, 0.044135332107543945, 0.07468828558921814, 0.010505735874176025, -0.02287381887435913, 0.01631796360015869], [0.18033859133720398, -0.04796648025512695, 0.010878890752792358, -0.19020655751228333, 0.12531635165214539, 0.053195297718048096, 0.12624797224998474, 0.15290507674217224, -0.04540809988975525, -0.08260411024093628, 0.24150335788726807, -0.10545307397842407, -0.24974966049194336, 0.14715254306793213, 0.10358300805091858, -0.007378131151199341, -0.17607006430625916], [-0.17592346668243408, 0.22143879532814026, -0.07849633693695068, 0.0814548134803772, 0.07244595885276794, 0.08279907703399658, 0.04010125994682312, 0.24880912899971008, -0.20999425649642944, 0.01723960041999817, -0.020598888397216797, -0.1353677213191986, -0.18845543265342712, -0.2332303524017334, -0.14638221263885498, -0.06889131665229797, 0.20677578449249268], [0.22349852323532104, -0.19145530462265015, 0.046706028282642365, -0.16340775787830353, -0.20718108117580414, -0.2254626750946045, 0.14028625190258026, 0.12801779806613922, -0.20939156413078308, 0.14508596062660217, -0.16764023900032043, 0.2333642989397049, -0.03198438137769699, 0.1724410057067871, -0.10133226960897446, 0.14061541855335236, -0.008457213640213013], [-0.29567858576774597, 0.27841225266456604, 0.014090990647673607, 0.024873342365026474, 0.14786753058433533, -0.1978333294391632, 0.1712479442358017, -0.007475340273231268, -0.06554094702005386, 0.15592846274375916, -0.1507670134305954, -0.22614768147468567, -0.06090724840760231, 0.10816676914691925, 0.07104725390672684, 0.012530901469290257, 0.09307777136564255], [-0.1294211447238922, 0.034888774156570435, -0.19826588034629822, -0.025060445070266724, -0.1503046154975891, 0.11393219232559204, -0.17482417821884155, 0.09533700346946716, -0.20564574003219604, 0.1804448366165161, -0.018203943967819214, 0.12279114127159119, 0.1391114592552185, -0.20095551013946533, -0.16600146889686584, -0.06024670600891113, -0.09553810954093933]], "lstm.weight_hh_l0": [[0.24819797277450562, -0.1714886724948883, 0.21963748335838318, 0.14508941769599915, 0.1966259777545929, 0.12636712193489075, -0.05723801255226135, 0.16526299715042114, 0.2053704559803009, -0.005570888519287109, -0.09147942066192627, -0.23397764563560486, 0.019159287214279175, 0.015379577875137329, -0.09109500050544739, -0.2455378770828247], [-0.13636702299118042, 0.15563228726387024, -0.14097094535827637, -0.22564223408699036, -0.06270724534988403, 0.2320898175239563, 0.15512597560882568, 0.2275923192501068, 0.0518699586391449, -0.12557268142700195, 0.10297459363937378, -0.24413838982582092, -0.10633695125579834, 0.12233290076255798, -0.21561750769615173, -0.22598162293434143], [-0.09398224949836731, -0.12283653020858765, 0.08539678901433945, -0.14119748771190643, -0.09838110208511353, -0.24367839097976685, -0.24628379940986633, -0.1878085434436798, 0.1027475893497467, -0.07674667239189148, 0.13728827238082886, -0.09256431460380554, 0.02012750506401062, 0.2429070770740509, -0.047935228794813156, 0.03061625361442566], [0.10602957010269165, 0.19031864404678345, -0.2119743824005127, 0.20823678374290466, 0.02197226881980896, -0.03444105386734009, -0.24928221106529236, 0.013875842094421387, 0.13634362816810608, 0.04932704567909241, -0.1893334686756134, -0.004281222820281982, 0.06429049372673035, 0.10765078663825989, -0.05519508942961693, -0.23370766639709473], [0.0038646161556243896, 0.05498439073562622, 0.19226637482643127, -0.15666109323501587, 0.004092484712600708, -0.10702449083328247, -0.0635107159614563, -0.011274993419647217, -0.20167773962020874, 0.21218150854110718, 0.11686816811561584, 0.0043364763259887695, -0.06925240159034729, -0.019103199243545532, -0.006737828254699707, -0.21665677428245544], [-0.1691129207611084, 0.19143390655517578, -0.16047999262809753, -0.24209925532341003, -0.05882570147514343, 0.08180755376815796, -0.1864839494228363, 0.18560045957565308, -0.04737299680709839, 0.03310239315032959, -0.10530829429626465, -0.07150429487228394, -0.17211440205574036, -0.14099353551864624, 0.0280340313911438, 0.21036791801452637], [-0.04595935344696045, -0.0446261465549469, 0.24001646041870117, -0.2206183671951294, 0.13851970434188843, 0.16569259762763977, -0.04279378056526184, -0.13145092129707336, -0.13704195618629456, -0.16150635480880737, 0.2248634397983551, 0.175613135099411, 0.19335713982582092, -0.12228962779045105, 0.09915569424629211, 0.180826336145401], [-0.06256389617919922, 0.08227118849754333, -0.02949318289756775, 0.15703174471855164, 0.12310120463371277, 0.185451477766037, 0.10839396715164185, 0.09862414002418518, -0.23681455850601196, 0.21893668174743652, -0.13743528723716736, 0.14959216117858887, -0.1379358470439911, 0.22918930649757385, 0.12128975987434387, 0.1510733664035797], [-0.11317908763885498, -0.08936160802841187, 0.013750404119491577, -0.01359662413597107, -0.06802266836166382, -0.21466109156608582, -0.08124411106109619, -0.13990330696105957, 0.0391068160533905, 0.14313802123069763, -0.14749985933303833, -0.17696040868759155, 0.23765817284584045, -0.08779233694076538, 0.08510556817054749, 0.0036844611167907715], [-0.010125428438186646, -0.012016057968139648, -0.2334650456905365, 0.029063880443572998, -0.01935228705406189, 0.01805165410041809, 0.019091635942459106, -0.24986493587493896, 0.08955952525138855, 0.04923129081726074, 0.0698205828666687, -0.11438405513763428, 0.227090984582901, 0.1237511932849884, 0.06825688481330872, -0.02624240517616272], [-0.01153680682182312, -0.13389915227890015, 0.08066841959953308, -0.18163710832595825, -0.03255105018615723, -0.16833165287971497, 0.10979074239730835, -0.22195479273796082, 0.1256055235862732, 0.14369499683380127, 0.05246400833129883, -0.08537420630455017, 0.11208537220954895, -0.05595085024833679, -0.14278504252433777, 0.19106507301330566], [0.23221999406814575, -0.1366824209690094, -0.01796165108680725, -0.07075989246368408, 0.15593478083610535, 0.04796665906906128, 0.13486993312835693, 0.1735968291759491, 0.0794602632522583, 0.12553906440734863, 0.20935693383216858, -0.03903919458389282, 0.10774755477905273, 0.18073922395706177, -0.03546476364135742, -0.011641472578048706], [0.19485613703727722, -0.04124167561531067, 0.06972452998161316, 0.1693648099899292, 0.1891803741455078, 0.09395214915275574, -0.11211088299751282, 0.20770835876464844, -0.24475154280662537, -0.18172982335090637, 0.026423662900924683, 0.09272050857543945, 0.20949813723564148, -0.06468665599822998, -0.2306850552558899, -0.24862685799598694], [0.17704737186431885, 0.07427996397018433, 0.021426916122436523, 0.018965691328048706, 0.09822052717208862, 0.17531174421310425, 0.0762890875339508, -0.12936827540397644, 0.022882550954818726, 0.01569458842277527, 0.01417618989944458, -0.10363546013832092, -0.2381688356399536, 0.011825084686279297, -0.019059807062149048, 0.17972323298454285], [-0.05545124411582947, -0.11178907752037048, 0.030590534210205078, 0.1062144935131073, -0.12124589085578918, -0.18086472153663635, -0.0628039538860321, 0.22803035378456116, -0.016033172607421875, 0.06033945083618164, 0.03690418601036072, 0.05814629793167114, 0.1109963059425354, -0.019838541746139526, 0.2109971046447754, -0.007741987705230713], [-0.13369333744049072, 0.10567858815193176, 0.12049341201782227, -0.17822441458702087, -0.0345880389213562, 0.158529132604599, -0.13683411478996277, -0.23647084832191467, 0.1806151270866394, 0.0649343729019165, -0.1261509358882904, -0.18909773230552673, 0.11325302720069885, -0.1630229949951172, 0.10274901986122131, 0.24422094225883484], [0.03415003418922424, 0.01971307396888733, 0.1892637312412262, 0.0907701849937439, 0.2231745421886444, 0.20912319421768188, 0.09623456001281738, 0.011040836572647095, -0.22138842940330505, 0.08418390154838562, 0.13058656454086304, -0.020953357219696045, 0.043662965297698975, -0.1841917335987091, -0.1595066785812378, 0.06937727332115173], [-0.12648546695709229, -0.13357111811637878, -0.23423060774803162, 0.038331449031829834, 0.05614578723907471, -0.09812316298484802, 0.15843334794044495, 0.23475611209869385, 0.045881688594818115, -0.010992884635925293, 0.20404401421546936, -0.13733458518981934, -0.21596118807792664, -0.05002674460411072, -0.006577402353286743, 0.1667799949645996], [-0.053138941526412964, 0.01246902346611023, -0.0864873081445694, -0.009184250608086586, -0.03314492106437683, 0.12084066867828369, 0.1717773973941803, -0.15398254990577698, -0.13622218370437622, -0.1773459017276764, -0.06098383665084839, -0.16789257526397705, -0.12281104922294617, -0.2374112606048584, -0.21179905533790588, -0.1185326874256134], [0.048079609870910645, -0.05235221982002258, -0.23630687594413757, 0.24381119012832642, 0.005905449390411377, 0.0495782196521759, -0.21446838974952698, -0.06657931208610535, -0.10128509998321533, -0.19575917720794678, 0.18967828154563904, 0.01832813024520874, 0.1869903802871704, 0.056670159101486206, 0.046559788286685944, 0.10788673162460327], [-0.00442543625831604, 0.015536367893218994, -0.2487524449825287, -0.24766474962234497, -0.23896527290344238, 0.030216604471206665, 0.1750304102897644, 0.05134403705596924, 0.17177888751029968, 0.01938953995704651, 0.22739437222480774, 0.13155341148376465, -0.11495807766914368, 0.21427905559539795, -0.22131192684173584, -0.22319629788398743], [-0.06788983941078186, -0.10143062472343445, 0.1763555109500885, 0.06692376732826233, -0.168580561876297, -0.23940223455429077, -0.0894167423248291, -0.08261200785636902, 0.07907244563102722, -0.036653488874435425, -0.10925683379173279, -0.14266660809516907, -0.227901428937912, -0.1598081886768341, 0.08577674627304077, -0.1708507239818573], [0.011761248111724854, -0.24503660202026367, 0.05199673771858215, -0.1380675733089447, -0.23978227376937866, 0.07186838984489441, -0.1131029725074768, -0.18223139643669128, -0.23802456259727478, -0.007497876882553101, -0.08832180500030518, 0.18413323163986206, -0.21679386496543884, -0.13099336624145508, 0.023410320281982422, -0.2422163486480713], [-0.11561271548271179, 0.24731841683387756, 0.14961591362953186, -0.014637261629104614, -0.12290871143341064, 0.0723346471786499, 0.07726868987083435, -0.180949866771698, 0.21020424365997314, -0.09822627902030945, -0.20586946606636047, -0.17956063151359558, -0.15144863724708557, 0.18832051753997803, -0.24020105600357056, 0.24811691045761108], [-0.11675351858139038, -0.08535492420196533, -0.004369378089904785, -0.04734158515930176, 0.21830910444259644, -0.06049060821533203, -0.12924617528915405, 0.14382293820381165, -0.15044015645980835, -0.24381086230278015, 0.09438875317573547, 0.24891513586044312, -0.08721137046813965, 0.09447029232978821, 0.22644931077957153, 0.17457711696624756], [-0.2134760618209839, -0.04114070534706116, 0.2048712968826294, 0.1599178910255432, -0.13681352138519287, -0.20351144671440125, -0.17626848816871643, -0.2334197759628296, 0.08489856123924255, 0.06070888042449951, 0.03174746036529541, 0.12080204486846924, 0.02944067120552063, 0.17110615968704224, 0.155269056558609, -0.11391511559486389], [-0.22604665160179138, -0.14093121886253357, 0.17165732383728027, 0.18784499168395996, 0.11661279201507568, -0.15199923515319824, -0.0703158974647522, -0.1699654757976532, -0.1998780071735382, 0.11558708548545837, 0.19490653276443481, -0.060174018144607544, -0.05247080326080322, -0.14044618606567383, -0.0074897706508636475, 0.18298983573913574], [0.08860239386558533, -0.16809922456741333, 0.06651738286018372, 0.038579314947128296, -0.1559332311153412, -0.01064532995223999, -0.17178362607955933, -0.0963490903377533, -0.050025880336761475, -0.09879159927368164, 0.018158376216888428, 0.24385181069374084, -0.14774492383003235, -0.22879299521446228, 0.06149786710739136, -0.19104903936386108], [-0.023500531911849976, -0.16428247094154358, -0.011561006307601929, -0.12734952569007874, -0.08359482884407043, 0.07625529170036316, -0.2109425663948059, 0.038705259561538696, 0.053921520709991455, 0.1564214825630188, -0.0294111967086792, 0.08069747686386108, -0.027546554803848267, -0.11297670006752014, 0.1595715582370758, 0.04357689619064331], [0.07395023107528687, -0.08545467257499695, 0.2023654282093048, -0.2480800747871399, -0.14243489503860474, -0.1495988368988037, -0.18840771913528442, -0.12404900789260864, -0.05427876114845276, 0.20683085918426514, -0.23328691720962524, -0.16910383105278015, 0.04927745461463928, 0.07450312376022339, 0.14675968885421753, -0.03828227519989014], [0.005817383527755737, -0.026526689529418945, -0.16805586218833923, -0.05470481514930725, -0.10060971975326538, 0.24591386318206787, 0.08184221386909485, -0.07218852639198303, 0.12525177001953125, 0.01163533329963684, -0.1661641001701355, 0.2412642538547516, 0.07265684008598328, 0.14689752459526062, -0.010970711708068848, -0.11494672298431396], [-0.009275674819946289, 0.18523171544075012, -0.19410309195518494, 0.22422072291374207, 0.14453372359275818, 0.1884041130542755, 0.02652016282081604, -0.14850035309791565, 0.2388409972190857, -0.14985394477844238, -0.20451506972312927, 0.1861039102077484, -0.0369870662689209, 0.03697893023490906, -0.0428101122379303, -0.14598330855369568], [-0.19145777821540833, 0.1792386770248413, 0.15407460927963257, 0.1547645926475525, -0.13449892401695251, 0.18227744102478027, 0.22971314191818237, 0.0674223005771637, -0.17234516143798828, -0.20508962869644165, 0.06294700503349304, -0.10840091109275818, 0.1089387834072113, 0.2029818892478943, -0.16558337211608887, -0.10707682371139526], [0.008831322193145752, 0.24888041615486145, -0.16114696860313416, -0.08165693283081055, -0.06441402435302734, -0.07701215147972107, 0.23847022652626038, 0.07077202200889587, -0.008416205644607544, -0.20521259307861328, -0.19545221328735352, -0.05855625867843628, 0.09618839621543884, -0.06251069903373718, 0.09463223814964294, 0.06517162919044495], [0.12329119443893433, 0.20883044600486755, 0.14360591769218445, -0.21832969784736633, 0.06719774007797241, 0.047896772623062134, -0.21759167313575745, 0.055667996406555176, -0.03949236869812012, 0.19106197357177734, -0.13762015104293823, 0.15650403499603271, 0.16143780946731567, 0.2340090572834015, -0.24639689922332764, 0.2142961025238037], [0.16405165195465088, -0.15353146195411682, -0.24502240121364594, -0.17547020316123962, 0.24918881058692932, 0.137629896402359, -0.10690206289291382, -0.0586455762386322, 0.16305166482925415, -0.060855865478515625, -0.02678176760673523, 0.08542585372924805, -0.23619088530540466, 0.11750048398971558, -0.18467988073825836, 0.20407646894454956], [0.050939470529556274, -0.07846152782440186, -0.008462727069854736, 0.053968727588653564, -0.004840850830078125, -0.22492817044258118, -0.11652091145515442, -0.13789305090904236, 0.09375929832458496, 0.16897916793823242, 0.04789218306541443, -0.23987692594528198, -0.0818057656288147, -0.05806580185890198, 0.12611007690429688, 0.19902196526527405], [-0.23917672038078308, -0.015091121196746826, -0.17788299918174744, 0.11339697241783142, -0.11983844637870789, -0.00880056619644165, -0.11913082003593445, 0.12315371632575989, -0.12488168478012085, 0.056918442249298096, -0.026792138814926147, -0.2142716944217682, 0.19014862179756165, 0.173750638961792, -0.23768025636672974, 0.23838621377944946], [-0.15042591094970703, 0.24508202075958252, 0.09147259593009949, -0.215087890625, 0.09087532758712769, -0.09626701474189758, -0.13262724876403809, -0.11369690299034119, -0.012834906578063965, 0.19833320379257202, 0.14286702871322632, 0.20289477705955505, 0.11475178599357605, -0.16123417019844055, -0.19011548161506653, 0.04496884346008301], [0.02401500940322876, 0.2199658453464508, 0.18719413876533508, -0.02159056067466736, 0.07618620991706848, 0.012686818838119507, -0.029972165822982788, -0.24843579530715942, -0.12092843651771545, -0.17065772414207458, 0.20529863238334656, 0.20214387774467468, -0.02300199866294861, 0.22008016705513, 0.03846743702888489, -0.16139045357704163], [0.14794090390205383, 0.24989184737205505, 0.18470486998558044, 0.09709984064102173, -0.1606457233428955, 0.15465596318244934, 0.14690068364143372, 0.24184101819992065, 0.1551075279712677, 0.23351359367370605, -0.06861138343811035, 0.21117475628852844, -0.017332732677459717, -0.06767615675926208, 0.1511784791946411, -0.0463559627532959], [-0.08807817101478577, -0.04099324345588684, -0.016194194555282593, 0.0016915202140808105, -0.1199226975440979, 0.24916687607765198, -0.1789073348045349, 0.13711273670196533, 0.06939300894737244, -0.18420809507369995, 0.2422146201133728, 0.03563299775123596, 0.14019906520843506, -0.02439287304878235, 0.03562140464782715, -0.24262750148773193], [-0.23482578992843628, -0.19315281510353088, -0.06690078973770142, -0.21472033858299255, 0.09309840202331543, 0.22896301746368408, 0.2495487928390503, 0.02445921301841736, 0.06554266810417175, -0.13330265879631042, 0.12123501300811768, -0.1461144983768463, 0.11119908094406128, 0.19292083382606506, 0.14713701605796814, -0.07208287715911865], [-0.22150260210037231, -0.21155789494514465, 0.01824718713760376, 0.13413101434707642, 0.24148178100585938, 0.2106395661830902, 0.04156637191772461, -0.16396445035934448, 0.2347240447998047, 0.10460472106933594, 0.1140630841255188, 0.17788070440292358, 0.12176808714866638, 0.24342066049575806, -0.14148086309432983, -0.011058181524276733], [-0.04020330309867859, 0.039005666971206665, -0.05769112706184387, -0.1984674632549286, -0.20386305451393127, -0.13957777619361877, 0.027253657579421997, -0.14531096816062927, 0.12477898597717285, -0.12008243799209595, 0.2270505130290985, -0.19343960285186768, -0.028416067361831665, -0.055175185203552246, -0.08112791180610657, -0.05902719497680664], [0.13361838459968567, 0.16403508186340332, -0.17215147614479065, -0.08797347545623779, -0.17944884300231934, 0.08031639456748962, 0.16676387190818787, 0.18816298246383667, 0.22776615619659424, 0.2453603744506836, 0.15806633234024048, -0.23887020349502563, -0.22973564267158508, 0.18557682633399963, 0.13037168979644775, -0.15199431777000427], [0.13346168398857117, 0.14909499883651733, 0.0018341541290283203, -0.08668527007102966, 0.05308011174201965, -0.08165279030799866, -0.2029379904270172, -0.0635313093662262, -0.17497622966766357, -0.24442628026008606, -0.21237000823020935, -0.0866265594959259, 0.22270867228507996, -0.17284154891967773, 0.17589303851127625, -0.21068263053894043], [-0.14147493243217468, -0.2201281487941742, -0.14015823602676392, 0.01066446304321289, 0.17846542596817017, -0.2299513816833496, -0.18880626559257507, 0.24014058709144592, -0.20313790440559387, -0.1828334927558899, -0.01381632685661316, 0.2325623333454132, -0.0785636305809021, -0.15350183844566345, 0.24266156554222107, -0.24283045530319214], [0.01883643865585327, -0.0015291273593902588, 0.24098733067512512, 0.11731010675430298, 0.1871160864830017, 0.22370293736457825, -0.20859301090240479, -0.12199652194976807, -0.22489935159683228, -0.19869881868362427, 0.10775935649871826, 0.03515920042991638, -0.10026845335960388, 0.15388092398643494, -0.22278830409049988, -0.22534805536270142], [-0.04197666049003601, -0.11023122072219849, 0.07213485240936279, -0.2067807912826538, -0.13086217641830444, 0.1617177128791809, 0.13886281847953796, 0.14990681409835815, -0.1138952374458313, 0.16911861300468445, -0.003759533166885376, 0.14996296167373657, -0.025606483221054077, 0.13644680380821228, -0.03616639971733093, -0.2166403830051422], [0.07788988947868347, -0.07189410924911499, -0.2024829387664795, 0.1461815983057022, -0.1411675214767456, -0.17980411648750305, 0.16398680210113525, -0.010699570178985596, 0.1663590669631958, 0.2290128767490387, 0.030938953161239624, 0.16216012835502625, -0.23126360774040222, -0.00768616795539856, 0.1307130604982376, -0.06351619958877563], [0.1751829981803894, 0.1569673717021942, 0.009249955415725708, 0.2218494415283203, 0.14925092458724976, -0.02099505066871643, 0.04973214864730835, 0.21380797028541565, 0.017848044633865356, -0.22805166244506836, 0.07605534791946411, -0.23661217093467712, 0.184393972158432, 0.16055864095687866, 0.19553646445274353, 0.21574530005455017], [0.19243338704109192, 0.009947150945663452, -0.19504320621490479, 0.04689449071884155, 0.12129011750221252, 0.2139061689376831, -0.10846015810966492, 0.15019294619560242, 0.01608613133430481, -0.16379666328430176, 0.24708005785942078, -0.03632119297981262, 0.08862963318824768, 0.10426360368728638, -0.23492220044136047, 0.12113475799560547], [-0.1857185661792755, -0.1574508547782898, -0.14104557037353516, -0.049867212772369385, -0.24887403845787048, -0.235626220703125, 0.04586434364318848, -0.17894822359085083, 0.11661046743392944, 0.21259894967079163, -0.006549417972564697, 0.09199255704879761, 0.08023354411125183, 0.1774594485759735, 0.21632850170135498, 0.07436016201972961], [0.03247043490409851, 0.00044614076614379883, -0.17926695942878723, 0.13811665773391724, 0.1370437741279602, 0.037172526121139526, -0.06391796469688416, -0.038696736097335815, 0.10413527488708496, 0.12250116467475891, -0.16082754731178284, -0.06549367308616638, -0.14840495586395264, 0.100491464138031, 0.11527994275093079, -0.2061040699481964], [-0.11129522323608398, 0.03149488568305969, -0.1679767668247223, -0.10914191603660583, 0.017944157123565674, 0.03459426760673523, 0.13385045528411865, -0.2055121660232544, -0.20517468452453613, 0.023656338453292847, 0.10518631339073181, -0.17472293972969055, -0.04305809736251831, 0.10478216409683228, 0.07073473930358887, 0.062178194522857666], [0.08440202474594116, 0.15050387382507324, -0.1257965862751007, 0.019095659255981445, 0.19428855180740356, -0.18517503142356873, 0.02254602313041687, -0.13333985209465027, -0.2270226776599884, -0.03681880235671997, 0.18466344475746155, 0.08268198370933533, -0.20316064357757568, 0.07619655132293701, -0.028331726789474487, 0.09542381763458252], [0.1535727083683014, -0.12165740132331848, 0.01419934630393982, 0.24815818667411804, -0.22554218769073486, 0.19244980812072754, 0.11212402582168579, -0.08358722925186157, -0.22809141874313354, 0.18594130873680115, 0.16335651278495789, -0.04077669978141785, -0.1315811276435852, 0.11873486638069153, 0.06689757108688354, 0.051376670598983765], [0.02605035901069641, 0.052569448947906494, -0.08176282048225403, -0.11489540338516235, -0.20280683040618896, -0.21144482493400574, -0.1096397340297699, 0.20497307181358337, -0.0692717432975769, 0.08096233010292053, 0.24583816528320312, 0.10482412576675415, -0.17221063375473022, 0.1056719422340393, -0.15804144740104675, 0.18540996313095093], [-0.030620068311691284, -0.07951816916465759, -0.13743960857391357, 0.12996900081634521, -0.07618939876556396, -0.006378769874572754, 0.15568500757217407, -0.24267935752868652, 0.10309299826622009, 0.11031776666641235, -0.21153074502944946, 0.11509457230567932, 0.23902517557144165, 0.036802083253860474, 0.018661439418792725, -0.22655150294303894], [0.06789559125900269, -0.08996936678886414, 0.14813339710235596, 0.13340461254119873, -0.24881017208099365, 0.06828087568283081, -0.027622997760772705, -0.11634242534637451, 0.05610954761505127, 0.22040578722953796, -0.2217821478843689, -0.023217439651489258, -0.21695229411125183, 0.1357625126838684, 0.06298062205314636, 0.12661752104759216], [-0.2047644555568695, 0.24551475048065186, 0.1627735197544098, -0.009965835139155388, 0.09700655937194824, 0.18733862042427063, 0.026486128568649292, -0.0911378264427185, -0.08986479043960571, 0.034396857023239136, 0.11361825466156006, -0.14238956570625305, -0.08734497427940369, 0.24040865898132324, -0.03689974546432495, 0.2217690646648407], [0.10516834259033203, 0.14691391587257385, -0.13031764328479767, -0.12374523282051086, -0.14305630326271057, -0.08352071046829224, -0.09437420964241028, 0.15791162848472595, 0.0161476731300354, 0.1595722734928131, 0.243100106716156, 0.2442532777786255, 0.17758002877235413, 0.17294526100158691, 0.18672877550125122, -0.15057769417762756], [-0.0284712016582489, 0.1459512710571289, 0.020933330059051514, -0.14812874794006348, 0.19669994711875916, 0.09926646947860718, 0.11863765120506287, 0.180840402841568, -0.09212496876716614, 0.08219975233078003, 0.03272390365600586, 0.2011416256427765, -0.21797427535057068, 0.14551249146461487, -0.00382271409034729, 0.20614966750144958]], "lstm.bias_ih_l0": [-0.041452884674072266, 0.18044453859329224, -0.13473908603191376, 0.1904255449771881, -0.06272515654563904, -0.08391067385673523, 0.11744999885559082, 0.21137946844100952, 0.11411750316619873, -0.14488014578819275, -0.007300317287445068, -0.08060190081596375, -0.027256906032562256, -0.14186495542526245, 0.09435591101646423, -0.02109980583190918, -0.09709447622299194, -0.1360853612422943, 0.045514483004808426, -0.08140919357538223, -0.1091865599155426, 0.0885147750377655, -0.23476803302764893, 0.1499602198600769, 0.10870435833930969, -0.1382177472114563, -0.12760323286056519, 0.04100358486175537, 0.2302577793598175, 0.18493309617042542, -0.20052370429039001, -0.166570246219635, 0.1358741819858551, 0.00891941785812378, -0.07578921318054199, -0.11135242134332657, -0.2128584384918213, 0.02386617660522461, 0.14375066757202148, 0.2247963845729828, -0.24338847398757935, 0.07796013355255127, -0.09145009517669678, 0.18735623359680176, 0.2143884301185608, -0.14987599849700928, -0.07293221354484558, 0.013669222593307495, -0.16189703345298767, 0.16556674242019653, 0.08206932991743088, -0.0034454762935638428, -0.23447170853614807, -0.07868695259094238, 0.026456356048583984, 0.13974246382713318, 0.007296055555343628, -0.16575780510902405, -0.11289533972740173, 0.22626203298568726, -0.14876893162727356, 0.08626693487167358, 0.0301214512437582, -0.239995539188385], "lstm.bias_hh_l0": [-0.1139422059059143, 0.02587127685546875, -0.05559125915169716, 0.195755273103714, -0.1578800082206726, 0.03480488061904907, 0.09727656841278076, 0.10607156157493591, -0.24736091494560242, 0.2307443916797638, 0.049118876457214355, 0.10564756393432617, 0.02537637948989868, -0.08064442873001099, 0.021400868892669678, -0.21934378147125244, -0.21590077877044678, 0.20211052894592285, 0.24550040066242218, -0.06443587690591812, -0.20433354377746582, -0.14672410488128662, -0.1119697093963623, -0.06835201382637024, 0.18239867687225342, -0.04369810223579407, -0.196871817111969, 0.10777398943901062, -0.0718824565410614, 0.1692240834236145, -0.20870277285575867, -0.18651384115219116, 0.03833508491516113, 0.21934926509857178, -0.18881219625473022, -0.06640628725290298, 0.02197137475013733, -0.20247623324394226, -0.03342154622077942, 0.0702124536037445, -0.16044843196868896, -0.1408270299434662, -0.01308026909828186, 0.17777973413467407, -0.07049599289894104, 0.1364210546016693, 0.10378614068031311, 0.005505681037902832, 0.028937190771102905, -0.2017601728439331, -0.07898900657892227, -0.12663781642913818, 0.22637835144996643, 0.10913687944412231, 0.07630833983421326, -0.1863972544670105, 0.10475921630859375, 0.10638660192489624, -0.22240427136421204, -0.17648082971572876, -0.0005199909210205078, -0.23799076676368713, -0.09533039480447769, -0.1433987319469452], "fc.weight": [[-0.14888083934783936, -0.01513439416885376, -2.5147387981414795, 0.8387845754623413, -0.060532089322805405, -0.0012323856353759766, 0.18970054388046265, 0.09798690676689148, 0.11633184552192688, 0.10823565721511841, 0.08959159255027771, 0.18968957662582397, 0.15535053610801697, 0.18114706873893738, 1.93205726146698, -0.11424806714057922]], "fc.bias": [0.21489867568016052]}