{"lstm.weight_ih_l0": [[0.14171987771987915, 0.12780924141407013, -0.08564034849405289, -0.155157208442688, -0.0715353786945343, -0.09490003436803818, 0.13728484511375427, 0.16127078235149384, 0.02256200835108757, 0.09469711780548096, -0.14924181997776031, 0.08516940474510193, 0.09082308411598206, -0.1489807665348053, 0.08160651475191116, -0.0043754540383815765, 0.060786712914705276], [0.12893527746200562, -0.18583829700946808, -0.034906644374132156, 0.0413944274187088, -0.007608985062688589, 0.14902938902378082, -0.022019168362021446, -0.025005314499139786, 0.11511747539043427, -0.14734850823879242, -0.10076904296875, 0.14319008588790894, -0.11669120192527771, -0.07873541116714478, 0.09542064368724823, 0.030949363484978676, -0.0865834653377533], [-0.12674202024936676, -0.12253831326961517, 0.16495707631111145, 0.057971324771642685, -0.17037931084632874, -0.09603779017925262, -0.1244523897767067, -0.018326397985219955, -0.024069011211395264, 0.11645104736089706, -0.08391700685024261, 0.0004314362013246864, 0.17101775109767914, 0.015380565077066422, 0.046017423272132874, -0.02582634426653385, 0.02833448350429535], [0.03326273337006569, 0.04598844796419144, -0.16355302929878235, 0.02270459197461605, -0.09114350378513336, 0.029220914468169212, 0.02561580017209053, 0.0012239866191521287, -0.08690737187862396, 0.07927288860082626, 0.11824068427085876, 0.16731202602386475, -0.061915744096040726, -0.040529925376176834, 0.14118315279483795, -0.063045933842659, 0.06147511675953865], [0.09358464926481247, -0.05918022245168686, 0.13265705108642578, -0.1474262773990631, 0.11775890737771988, -0.15553979575634003, 0.16096119582653046, -0.1741018444299698, 0.16721397638320923, 0.17103102803230286, 0.132942333817482, 0.055793892592191696, -0.11398905515670776, 0.045548077672719955, -0.13709375262260437, 0.08450978249311447, -0.09305988252162933], [-0.13019698858261108, -0.04332737997174263, -0.06170724332332611, -0.06494064629077911, -0.028243130072951317, -0.13691310584545135, 0.02397989109158516, 0.15153418481349945, 0.07820253074169159, 0.12273895740509033, -0.10677655041217804, 0.06538902223110199, -0.13374201953411102, -0.10427458584308624, 0.16393093764781952, 0.0038991523906588554, 0.026456356048583984], [0.0975881814956665, -0.020626435056328773, 0.1537161022424698, 0.14455172419548035, 0.0052150823175907135, 0.007190968841314316, 0.15325069427490234, 0.09782835841178894, 0.10649705678224564, -0.12120978534221649, -0.14584459364414215, 0.0982736349105835, -0.16465896368026733, -0.029886877164244652, 0.08633990585803986, -0.12668927013874054, 0.06161173805594444], [0.07331616431474686, -0.06334540247917175, -0.030077014118433, 0.08491088449954987, -0.04111813008785248, -0.004619501065462828, -0.16613081097602844, 0.028815289959311485, 0.05169374868273735, 0.08993678539991379, 0.19075432419776917, 0.06345413625240326, 0.032836154103279114, -0.11839669197797775, -0.1568259596824646, 0.055925969034433365, -0.08255019038915634], [0.05532689020037651, -0.15682019293308258, -0.030793042853474617, 0.0543760322034359, 0.028026243671774864, 0.13363762199878693, -0.08616477251052856, 0.09484364092350006, -0.07634180039167404, -0.13806460797786713, 0.04811495169997215, -0.1601785272359848, 0.10600405186414719, -0.08588843047618866, 0.17249204218387604, 0.026758253574371338, 0.15109343826770782], [0.1506505012512207, -0.2239738404750824, 0.03851810470223427, 0.06377340853214264, -0.07846798747777939, -0.10610309988260269, -0.0802173987030983, -0.032394371926784515, 0.07794744521379471, 0.1436748057603836, 0.040960684418678284, 0.2426227331161499, -0.07104062288999557, 0.08901157975196838, -0.02122921496629715, 0.0046263886615633965, 0.09664398431777954], [0.14168773591518402, 0.14873650670051575, -0.17454634606838226, -0.013999960385262966, 0.12698231637477875, 0.13457204401493073, 0.04274463653564453, 0.10718337446451187, -0.07432213425636292, 0.10421495139598846, 0.03011314384639263, 0.027654295787215233, 0.010638433508574963, -0.1615646481513977, -0.07077882438898087, 0.11042126268148422, 0.0252480898052454], [0.11184389889240265, 0.0010540969669818878, 0.16424782574176788, 0.022708209231495857, -0.1486150473356247, 0.07525982707738876, 0.015621429309248924, 0.14232328534126282, 0.10364697128534317, 0.02196245826780796, -0.16461363434791565, -0.08361434191465378, -0.07294526696205139, 0.1688409000635147, 0.18604375422000885, -0.056868553161621094, 0.07064232230186462], [0.1824667900800705, -0.2480900138616562, 0.0057928129099309444, -0.1073288694024086, 0.07989394664764404, -0.13597233593463898, 0.04117384925484657, 0.06145239993929863, -0.12029030174016953, -0.15121173858642578, 0.075407475233078, 0.19757473468780518, -0.07217105478048325, -0.11617151647806168, -0.13945358991622925, 0.04248929023742676, -0.055131010711193085], [-0.11453840881586075, 0.1340959519147873, -0.0055436850525438786, 0.14404097199440002, 0.01134925801306963, -0.11971059441566467, -0.09697236865758896, 0.13877162337303162, 0.05878724157810211, 0.15191350877285004, 0.025840410962700844, -0.10924206674098969, 0.13226699829101562, 0.04045964777469635, -0.13451065123081207, -0.10015001893043518, 0.08022431284189224], [0.037687186151742935, -0.14305533468723297, 0.06529058516025543, 0.027763688936829567, -0.055882588028907776, -0.152500718832016, -0.16744256019592285, -0.1520361304283142, -0.06328406184911728, 0.046082690358161926, -0.1268431693315506, 0.1685628890991211, -0.0785115659236908, 0.06008711829781532, -0.1759369820356369, -0.13145968317985535, 0.04759890213608742], [0.11812570691108704, 0.006594675127416849, -0.02680514194071293, -0.1415577083826065, 0.04792473837733269, 0.03914162889122963, 0.07938000559806824, -0.09546233713626862, -0.0582803450524807, 0.00858468096703291, 0.09055115282535553, 0.15119914710521698, -0.17639099061489105, -0.08237816393375397, -0.17668403685092926, -0.1738692820072174, 0.0164017416536808], [0.12318120151758194, -0.162435844540596, 0.002580988686531782, -0.12756748497486115, 0.12555010616779327, -0.09956920892000198, 0.0840851292014122, 0.08847498148679733, 0.025812309235334396, 0.16457639634609222, 0.06710144877433777, -0.16313478350639343, -0.16327692568302155, -0.15863820910453796, 0.13071399927139282, 0.17466402053833008, -0.0808316096663475], [-0.1450088918209076, -0.136090949177742, -0.05732584372162819, 0.08963075280189514, -0.11902666091918945, -0.021852487698197365, 0.09964806586503983, -0.028255710378289223, -0.05386915057897568, -0.05646156147122383, 0.162267804145813, 0.1764153391122818, -0.03380377218127251, 0.027338046580553055, 0.053062669932842255, 0.09250879287719727, 0.14884424209594727], [0.03197665512561798, -0.1587635576725006, 0.06969860196113586, -0.04316219687461853, -0.11205670237541199, -0.16069857776165009, 0.12689195573329926, 0.12979866564273834, -0.07555848360061646, 0.0077158003114163876, 0.12713398039340973, 0.16123171150684357, -0.08347055315971375, -0.05671699717640877, -0.10112448781728745, -0.14389902353286743, -0.14281895756721497], [-0.013553070835769176, 0.08444105088710785, 0.13800695538520813, -0.15866123139858246, -0.14540314674377441, -0.09064066410064697, -0.009824134409427643, -0.00312561122700572, -0.12992191314697266, 0.17120510339736938, 0.13514530658721924, -0.15893907845020294, 0.019800124689936638, 0.052359357476234436, -0.08343275636434555, 0.11362263560295105, 0.022546306252479553], [-0.10300581902265549, 0.17007914185523987, 0.11895058304071426, -0.09636332839727402, 0.07188654690980911, -0.15499871969223022, 0.09792788326740265, -0.11695326864719391, 0.14911213517189026, -0.13730564713478088, 0.17220641672611237, -0.024448122829198837, 0.04909776896238327, 0.05146648362278938, 0.09893333911895752, -0.06428235024213791, 0.10460786521434784], [0.14689090847969055, -0.004935437813401222, 0.14545954763889313, -0.02438085526227951, -0.12325082719326019, 0.05618720501661301, 0.05684145167469978, 0.031233742833137512, 0.09121378511190414, 0.12736749649047852, -0.1178937703371048, 0.03738490864634514, 0.0580265149474144, 0.0009638562332838774, 0.07841796427965164, 0.09151625633239746, -0.13105802237987518], [0.06853976845741272, -0.18707937002182007, -0.09840363264083862, 0.10337347537279129, 0.08675998449325562, 0.06630874425172806, -0.025775019079446793, 0.08793587982654572, 0.10528482496738434, -0.02578231506049633, -0.15889905393123627, 0.22532111406326294, 0.0394088439643383, 0.15364830195903778, 0.02550937980413437, -0.02369808591902256, -0.0659167543053627], [0.021199768409132957, -0.12562572956085205, -0.13318899273872375, 0.16448421776294708, -0.07115594297647476, 0.14486752450466156, -0.08535615354776382, -0.16632874310016632, 0.13578063249588013, 0.007340886164456606, 0.09189394116401672, -0.15389014780521393, 0.13510939478874207, -0.027027927339076996, 0.040312331169843674, -0.014532778412103653, 0.10805469006299973], [-0.13115304708480835, 0.009136677719652653, -0.10832100361585617, -0.06036762520670891, -0.08594007790088654, -0.03944329544901848, -0.15236687660217285, 0.1722775548696518, 0.1389739215373993, 0.041185520589351654, 0.05848429352045059, 0.055811043828725815, 0.09885872155427933, -0.008293719962239265, -0.16473408043384552, -0.15052826702594757, 0.09066534787416458], [0.14135509729385376, -0.037093229591846466, -0.03200869634747505, 0.009030215442180634, 0.08183982223272324, 0.17182159423828125, 0.03451234847307205, 0.09355226159095764, 0.10707933455705643, -0.11629828065633774, 0.008667794056236744, 0.12177370488643646, -0.13822117447853088, -0.028152134269475937, 0.07041779160499573, -0.13981598615646362, 0.14223647117614746], [-0.053252290934324265, 0.12161148339509964, 0.17200089991092682, 0.006903590634465218, 0.13897305727005005, -0.029598677530884743, -0.02681751176714897, -0.02479024976491928, -0.016039742156863213, 0.06788071990013123, 0.13897499442100525, -0.1188167929649353, -0.020600831136107445, 0.10000709444284439, 0.1058671697974205, -0.06705401092767715, -0.0800401121377945], [0.1766560822725296, 0.15294012427330017, -0.12078940868377686, -0.02224264107644558, 0.053592436015605927, 0.11695919185876846, 0.09654148668050766, 0.14218561351299286, 0.0493805967271328, -0.06384313851594925, -0.058424822986125946, 0.049402911216020584, 0.05056401714682579, 0.09256341308355331, 0.0672544613480568, 0.08928465843200684, -0.150089293718338], [0.008189892396330833, 0.0719497874379158, -0.07470047473907471, -0.130015566945076, 0.10225176811218262, -0.10772956162691116, 0.13341428339481354, -0.12103014439344406, -0.04144319146871567, 0.035426538437604904, -0.0005308101535774767, -0.06145159900188446, -0.060259439051151276, 0.0593680702149868, -0.014219888485968113, 0.09122074395418167, -0.11429425328969955], [-0.11210180819034576, -0.0836818516254425, 0.16464607417583466, 0.015294817276299, -0.02443585731089115, 0.0458282046020031, 0.11436110734939575, 0.11064097285270691, 0.1438446342945099, -0.15092605352401733, -0.17610645294189453, 0.07119160890579224, -0.10990214347839355, 0.07404059171676636, -0.11539463698863983, -0.11136139184236526, 0.13469070196151733], [7.60983966756612e-05, 0.15301547944545746, 0.06531882286071777, -0.06665412336587906, -0.0064476667903363705, 0.049362871795892715, -0.125936821103096, 0.08548308163881302, 0.16890287399291992, 0.11254255473613739, 0.08696191012859344, -0.0058937943540513515, 0.11158046871423721, -0.07969340682029724, -0.13932070136070251, -0.04771899804472923, -0.03783990442752838], [0.0627361536026001, -0.1535218358039856, 0.06294228881597519, -0.07851443439722061, 0.10726172477006912, 0.022611383348703384, -0.12258288264274597, -0.07226673513650894, 0.1614774763584137, -0.16675958037376404, -0.1259738951921463, -0.0009239010396413505, 0.119980588555336, 0.13628987967967987, 0.14314207434654236, 0.04659527912735939, 0.09166998416185379], [0.07620689272880554, -0.0586710050702095, -0.14378121495246887, -0.010165946558117867, 0.06461581587791443, -0.13869543373584747, 0.08476392924785614, -0.02605370618402958, -0.07786303758621216, -0.1527285873889923, 0.014111881144344807, -0.16391348838806152, -0.14595569670200348, 0.14546261727809906, -0.15135841071605682, -0.045053377747535706, -0.14050684869289398], [-0.09345138818025589, 0.12489186227321625, 0.16559015214443207, -0.03640809655189514, -0.1328001469373703, -0.07799512892961502, -0.007280547637492418, -0.010800955817103386, -0.023738419637084007, 0.16488370299339294, 0.05702109634876251, 0.10212177038192749, 0.05571841821074486, -0.1623697429895401, -0.052873700857162476, -0.07800757884979248, -0.11737462878227234], [0.14193697273731232, -0.12823544442653656, -0.09467221051454544, -0.12613564729690552, -0.020851247012615204, -0.0929771289229393, -0.13028740882873535, -0.14601916074752808, 0.03658417984843254, 0.12479409575462341, -0.14796872437000275, 0.09128391742706299, -0.05466178432106972, -0.04698890820145607, -0.10978294909000397, -0.15649156272411346, 0.15508313477039337], [0.03490094095468521, -0.011287557892501354, -0.1589333564043045, 0.03572813421487808, -0.09970641881227493, -0.1072736531496048, 0.13557212054729462, 0.16799812018871307, -0.15262575447559357, -0.03358134254813194, -0.12306293845176697, -0.04109328240156174, -0.1691049188375473, -0.05321284011006355, 0.09888976067304611, -0.08641546964645386, 0.05068584159016609], [0.1335746943950653, 0.1546388864517212, 0.026310190558433533, -0.16242457926273346, -0.11343628168106079, -0.15264730155467987, -0.04867086187005043, 0.13342751562595367, 0.11456094682216644, -0.1078464686870575, 0.0008932813652791083, 0.07657212018966675, -0.16354072093963623, -0.10255678743124008, 0.08270777016878128, 0.06052432581782341, 0.16999806463718414], [0.09660007059574127, 0.03422996401786804, -0.01612386666238308, -0.13276615738868713, -0.0026589813642203808, -0.12120763212442398, 0.140999436378479, 0.009975505992770195, -0.1523527354001999, -0.08193827420473099, 0.1766909658908844, -0.13613668084144592, -0.015302023850381374, -0.07500354200601578, -0.023125112056732178, 0.006077491212636232, 0.08776185661554337], [-0.08826486021280289, 0.13382868468761444, 0.1376628428697586, -0.13946327567100525, 0.12864501774311066, -0.007373693399131298, -0.10444426536560059, 0.0637393370270729, -0.004596223123371601, -0.09213391691446304, 0.03251165896654129, -0.17732320725917816, -0.1376390904188156, 0.15617376565933228, -0.052225351333618164, 0.04742804169654846, -0.1684354692697525], [-0.043100420385599136, -0.0686965137720108, -0.057032398879528046, 0.037550292909145355, -0.08165930956602097, 0.07377888262271881, 0.16021688282489777, -0.05809159204363823, 0.10594276338815689, -0.1403956562280655, 0.07493717968463898, -0.04526320844888687, -0.12130317836999893, 0.02029404416680336, -0.13205735385417938, -0.1475980430841446, -0.15070614218711853], [-0.15930397808551788, 0.1282780021429062, -0.04388609901070595, -0.11400909721851349, 0.16650666296482086, 0.11903905123472214, 0.14276522397994995, 0.1735527068376541, 0.05890525504946709, 0.09913842380046844, -0.0697459951043129, -0.14854870736598969, 0.09923052042722702, -0.15042680501937866, -0.11024321615695953, 0.05708270147442818, -0.14519570767879486], [0.1484234482049942, 0.11075671017169952, 0.018102070316672325, -0.080972820520401, -0.06532753258943558, 0.122865691781044, -0.03267297521233559, 0.020531415939331055, 0.020321333780884743, 0.13524091243743896, 0.06493647396564484, -0.10973991453647614, 0.11438966542482376, -0.07232794910669327, 0.07682080566883087, 0.029201844707131386, 0.06057899072766304], [0.04500143229961395, -0.011797555722296238, 0.1650397628545761, -0.07605670392513275, -0.013125603087246418, -0.04513402655720711, -0.09090746194124222, -0.05066101625561714, 0.06384830176830292, -0.15475980937480927, -0.1211012527346611, -0.01394942682236433, 0.06475837528705597, -0.09849008172750473, 0.08854386955499649, 0.15346410870552063, 0.012751929461956024], [-0.04315497726202011, 0.08056213706731796, -0.0016600940143689513, -0.06085878238081932, -0.11507804691791534, 0.004927830304950476, 0.10263769328594208, -0.0644717812538147, 0.09517428278923035, 0.09468965977430344, -0.09156622737646103, 0.11119737476110458, 0.08513465523719788, -0.017727764323353767, -0.14646399021148682, -0.09793264418840408, -0.1549408882856369], [-0.12045996636152267, -0.08823103457689285, -0.08461550623178482, -0.14589276909828186, 0.174143984913826, -0.030766334384679794, 0.14297011494636536, -0.03029831498861313, -0.039641596376895905, 0.017234161496162415, 0.04393193498253822, 0.12392989546060562, -0.00048291857820004225, -0.1010391041636467, 0.012936532497406006, 0.162845641374588, 0.0996345579624176], [-0.17517243325710297, 0.04876548424363136, 0.004817595239728689, 0.09464222192764282, 0.13252362608909607, 0.05389079451560974, 0.08856500685214996, -0.00019632001931313425, -0.0799291804432869, -0.014400250278413296, 0.01979675330221653, 0.03170456737279892, -0.12791506946086884, 0.13862212002277374, -0.1505758911371231, -0.14307183027267456, 0.09749303758144379], [-0.062457941472530365, -0.09197009354829788, 0.019983401522040367, -0.054255783557891846, 0.06806433200836182, -0.09322500973939896, -0.0590730644762516, 0.06427071988582611, 0.10937848687171936, 0.1603272259235382, -0.02779327519237995, -0.03092973865568638, -0.03051404468715191, 0.10195834934711456, -0.14931997656822205, 0.1750122755765915, -0.04578011855483055], [-0.1402975469827652, 0.17098021507263184, 0.0416230671107769, -0.1171082854270935, -0.009951461106538773, -0.09907487034797668, -0.060022126883268356, -0.1201198473572731, 0.023834990337491035, 0.15616799890995026, -0.09972133487462997, -0.07932808250188828, -0.024003220722079277, -0.015240469016134739, -0.012082342058420181, 0.04663091525435448, -0.13582059741020203], [0.09344685077667236, -0.0035914804320782423, 0.1506117433309555, 0.09602723270654678, 0.0643574595451355, -0.15231502056121826, 0.10174813866615295, -0.018992697820067406, 0.10307930409908295, -0.03526119142770767, -0.0037703304551541805, 0.027753762900829315, -0.1522829681634903, -0.11885223537683487, 0.12722066044807434, -0.14603225886821747, -0.1144719123840332], [-0.11239226162433624, 0.03134625405073166, 0.04582652077078819, 0.025148412212729454, -0.09476269781589508, 0.08865165710449219, -0.06394671648740768, 0.16267021000385284, -0.14515943825244904, 0.02995011955499649, 0.018011517822742462, -0.05266004055738449, 0.12142154574394226, 0.0781223252415657, -0.16961374878883362, -0.1317593902349472, -0.0047307307831943035], [-0.1639375388622284, 0.12405312061309814, -0.006822666618973017, -0.1032884418964386, 0.03978030011057854, 0.021625421941280365, 0.11313329637050629, -0.14013080298900604, 0.06639271974563599, -0.1692906618118286, 0.028148682788014412, -0.03967912867665291, 0.01546715572476387, 0.1175960972905159, -0.10933784395456314, -0.053222086280584335, 0.024659449234604836], [-0.07262411713600159, -0.02103218249976635, 0.14555805921554565, 0.024386882781982422, 0.17002493143081665, -0.1312655806541443, 0.16410553455352783, 0.039550285786390305, 0.07570598274469376, 0.12169323116540909, 0.0037671062164008617, 0.1416357010602951, 0.03238397464156151, -0.04860638082027435, 0.031799059361219406, -0.16060900688171387, -0.16965629160404205], [0.13305802643299103, 0.1508384495973587, 0.06339907646179199, -0.011726243421435356, 0.16370771825313568, -0.16918207705020905, 0.03007388301193714, -0.09695220738649368, 0.1110801249742508, -0.05068714916706085, -0.17259928584098816, -0.0613333135843277, -0.06342320889234543, 0.01615986041724682, -0.15282763540744781, 0.16355209052562714, -0.16925442218780518], [0.026008673012256622, 0.0007469264091923833, 0.02691466175019741, -0.13053756952285767, -0.1726454794406891, 0.06169196218252182, 0.08449964970350266, -0.11613412201404572, -0.0042653451673686504, 0.10660120099782944, -0.11207614094018936, 0.03178812190890312, -0.0292865801602602, -0.07083949446678162, -0.014237921684980392, -0.14354278147220612, 0.0674864798784256], [0.03313159942626953, 2.0347370082163252e-05, 0.007092881482094526, 0.13664297759532928, -0.02143486775457859, 0.05601960048079491, 0.15850338339805603, 0.01745012402534485, -0.12529246509075165, -0.12137620151042938, 0.02658150903880596, -0.009709623642265797, -0.05671800300478935, -0.16027088463306427, -0.14631503820419312, 0.1906576007604599, 0.035773515701293945], [0.03211100772023201, 0.08035412430763245, -0.17143505811691284, 0.07042478770017624, 0.14983274042606354, 0.14293688535690308, -0.10204000771045685, 0.15020959079265594, -0.09749073535203934, -0.019460780546069145, 0.15444901585578918, 0.1283516138792038, 0.09123814851045609, -0.001524514751508832, 0.10934439301490784, 0.15676482021808624, -0.07484942674636841], [0.16181841492652893, -0.15116557478904724, -0.09379331767559052, 0.0707433819770813, 0.1429075002670288, -0.13540810346603394, -0.009154696017503738, -0.08460794389247894, 0.1015678122639656, 0.024114003404974937, 0.09015750139951706, -0.01358100026845932, -0.02696831338107586, -0.08724191039800644, -0.024050382897257805, -0.08058051764965057, 0.11563777923583984], [-0.1185704842209816, 0.1598421037197113, -0.15521253645420074, 0.15383711457252502, -0.07027944922447205, 0.10451455414295197, 0.08472184091806412, -0.0824563056230545, -0.10306674242019653, -0.13780565559864044, -0.16509051620960236, 0.0036768699064850807, 0.09951245784759521, -0.13870300352573395, -0.11719228327274323, 0.1333560049533844, 0.16238678991794586], [-0.06807401031255722, -0.05283103138208389, -0.08636900782585144, 0.1300041377544403, 0.09837716817855835, 0.06668927520513535, -0.09529472142457962, 0.042322009801864624, -0.029874317348003387, 0.08439263701438904, 0.002870305674150586, -0.17608779668807983, 0.1548367738723755, -0.1621333360671997, 0.13834348320960999, 0.04624802991747856, 0.15998077392578125], [-0.14841148257255554, -0.0005086578894406557, -0.022645751014351845, 0.07710565626621246, -0.09984492510557175, 0.08595811575651169, 0.1256750077009201, 0.020730657503008842, 0.13562415540218353, -0.00823921151459217, 0.08646535128355026, 0.038848988711833954, -0.09302378445863724, 0.07414267212152481, -0.0007898078765720129, -0.17314854264259338, 0.02956935204565525], [0.01891520991921425, -0.16288526356220245, 0.05560056492686272, 0.1227564886212349, -0.10963762551546097, -0.1175716444849968, -0.03276072442531586, -0.025394698604941368, 0.1362336128950119, -0.036532044410705566, 0.1438775360584259, -0.09006945788860321, -0.13188420236110687, -0.16587941348552704, -0.08461028337478638, -0.1413915902376175, -0.17052890360355377], [-0.14189667999744415, 0.050589073449373245, 0.03357333689928055, -0.11945032328367233, -0.060543082654476166, 0.010665344074368477, 0.08679717779159546, -0.17401224374771118, -0.14685507118701935, -0.14290739595890045, 0.024695945903658867, -0.12747398018836975, -0.16489481925964355, -0.02304985746741295, -0.09444299340248108, 0.11271049082279205, 0.09057136625051498], [0.1742231249809265, 0.17255964875221252, -0.060075633227825165, -0.02749672904610634, 0.026767631992697716, -0.0992957204580307, -0.004264860413968563, -0.043686892837285995, -0.06189563870429993, 0.10914333164691925, -0.15644079446792603, 0.08642398566007614, -0.15403583645820618, 0.013447626493871212, 0.1548347920179367, -0.16872912645339966, 0.010653795674443245], [-0.1128428503870964, 0.07103227078914642, -0.14638221263885498, 0.13440710306167603, 0.02160455845296383, -0.05530519783496857, 0.10355977714061737, 0.042189985513687134, 0.13936710357666016, 0.1589881032705307, 0.09223974496126175, -0.10485231876373291, 0.1262592077255249, -0.05812385305762291, -0.0872204378247261, -0.04122081771492958, 0.17105713486671448], [0.005320512689650059, 0.1745748519897461, -0.16754484176635742, -0.029168779030442238, 0.033143121749162674, 0.01931080035865307, -0.1572379767894745, -0.10925912857055664, 0.16612274944782257, 0.16416840255260468, 0.16816209256649017, 0.05879628658294678, -0.14491233229637146, -0.0878104493021965, -0.17643317580223083, -0.02045135758817196, -0.1691085547208786], [0.16836465895175934, 0.09288433939218521, -0.13785555958747864, 0.0908743366599083, 0.04586457461118698, 0.027596520259976387, 0.005360106006264687, -0.16014355421066284, 0.056463323533535004, 0.0212028156965971, 0.013137780129909515, 0.052423715591430664, 0.097378209233284, -0.008834309875965118, -0.1063336730003357, -0.045173630118370056, 0.16218386590480804], [-0.13294070959091187, -0.1181161180138588, 0.10087921470403671, -0.08531400561332703, -0.00909566879272461, 0.12385150790214539, 0.17485755681991577, -0.12561340630054474, 0.02960672788321972, 0.10085051506757736, -0.06072968617081642, 0.06983393430709839, 0.03910747170448303, -0.06779282540082932, 0.07777395844459534, -0.04030827432870865, -0.17654572427272797], [-0.02204086259007454, 0.1341172754764557, -0.12566038966178894, -0.1633596271276474, 0.17023400962352753, -0.0738939642906189, 0.050019584596157074, -0.12890659272670746, -0.10083279013633728, -0.15002748370170593, -0.1598517894744873, -0.08566386997699738, 0.0923655778169632, -0.1143045499920845, 0.017119627445936203, -0.0979662835597992, 0.10754602402448654], [0.04383038356900215, -0.1569405049085617, -0.02809363417327404, 0.16891826689243317, 0.15647488832473755, 0.028235837817192078, 0.0774722695350647, 0.010379546321928501, -0.035021521151065826, 0.1621202528476715, -0.1321193277835846, -0.11113029718399048, 0.0814705491065979, 0.016432108357548714, 0.07137361913919449, 0.06338464468717575, 0.13711589574813843], [0.01253702212125063, 0.1518246829509735, -0.12338171154260635, 0.03305242210626602, 0.09448297321796417, 0.14061899483203888, 0.16383592784404755, 0.02223728783428669, 0.08577420562505722, 0.12815029919147491, 0.09421348571777344, 0.11360828578472137, 0.05476905032992363, -0.034154098480939865, -0.08892156928777695, -0.14039140939712524, 0.07532855868339539], [-0.0007362422184087336, -0.14666511118412018, -0.06395276635885239, -0.023071879521012306, -0.12574481964111328, 0.061910178512334824, -0.02906273864209652, 0.1009184792637825, 0.014773713424801826, 0.15057778358459473, 0.0697416141629219, -0.06501572579145432, 0.09283319115638733, 0.16740353405475616, -0.0945315882563591, -0.019209858030080795, 0.12022081017494202], [0.17011752724647522, -0.010009054094552994, 0.1099347174167633, 0.12104778736829758, 0.17482173442840576, 0.07739236205816269, 0.1417151689529419, -0.15816232562065125, 0.06504013389348984, -0.17216840386390686, 0.001896102330647409, 0.08962862193584442, 0.13283030688762665, 0.040410082787275314, -0.0429053008556366, -0.06571658700704575, -0.1131030023097992], [0.03413667157292366, -0.03681706264615059, -0.08339152485132217, 0.1281351000070572, 0.08932653814554214, -0.10843361914157867, 0.17585083842277527, 0.08971230685710907, -0.10832767933607101, -0.08257189393043518, 0.05488744005560875, -0.13251423835754395, 0.11961623281240463, -0.08087668567895889, -0.10588603466749191, 4.758379145641811e-05, 0.01070392969995737], [-0.14426125586032867, 0.008380990475416183, 0.15038874745368958, 0.1570482701063156, 0.11331302672624588, 0.046503569930791855, -0.05880417674779892, -0.04522144794464111, 0.09957104921340942, -0.04954271763563156, -0.09796472638845444, 0.15646709501743317, -0.14662957191467285, -0.05676674470305443, -0.07484558969736099, -0.031422603875398636, -0.057175539433956146], [-0.0630074292421341, 0.10063314437866211, 0.06284666061401367, 0.1126747727394104, 0.008875283412635326, -0.02952192723751068, -0.08741980791091919, 0.07321767508983612, 0.12491322308778763, 0.12559200823307037, -0.09644996374845505, -0.16162367165088654, 0.05245255306363106, -0.01093008928000927, 0.16833598911762238, 0.07439301908016205, 0.03565395623445511], [0.08988391607999802, 0.022607581689953804, -0.05478009954094887, 0.05402735248208046, 0.20775845646858215, 0.17328892648220062, 0.06623479723930359, -0.08450482785701752, 0.01933213882148266, -0.1321932077407837, -0.132534921169281, -0.029564717784523964, -0.048739563673734665, 0.04943779110908508, -0.14825177192687988, 0.010249409824609756, -0.1705496609210968], [-0.05789982154965401, 0.06207063049077988, 0.06153637915849686, 0.13282254338264465, -0.017812732607126236, -0.09996724128723145, -0.07707956433296204, 0.027171650901436806, -0.16572195291519165, 0.043228987604379654, -0.17363978922367096, 0.1206432431936264, -0.025060810148715973, 0.09470514953136444, -0.07617954164743423, 0.0708460658788681, 0.009093056432902813], [0.16344834864139557, -0.002457709051668644, 0.07173692435026169, -0.12423116713762283, -0.06952455639839172, 0.01739238202571869, 0.026526719331741333, -0.051290374249219894, -0.045775458216667175, 0.14053910970687866, 0.03831156715750694, -0.06481967866420746, 0.09017756581306458, -0.09157214313745499, -0.12023821473121643, -0.01020168699324131, 0.0018000707495957613], [0.09167655557394028, 0.08054898679256439, 0.08802527189254761, 0.16892263293266296, -0.12750868499279022, -0.10026705265045166, 0.07689639925956726, 0.06375947594642639, 0.15877828001976013, -0.07821156829595566, 0.1305328756570816, -0.12649303674697876, -0.11114351451396942, 0.02474970370531082, 0.01476332452148199, 0.06381729990243912, 0.10329309105873108], [-0.06730879098176956, 0.01856958493590355, 0.045870520174503326, -0.12391752749681473, -0.05655641108751297, 0.17544156312942505, -0.12158762663602829, 0.09562580287456512, 0.007933449000120163, -0.041327618062496185, -0.16978760063648224, -0.0408916100859642, 0.027862101793289185, 0.1559319794178009, 0.009520888328552246, -0.06769801676273346, 0.03589261323213577], [-0.10008563846349716, -0.12861745059490204, 0.1470566987991333, -0.030407201498746872, 0.06767715513706207, 0.09282906353473663, -0.11113354563713074, -0.143930584192276, 0.06150837242603302, 0.1677429974079132, -0.09589385986328125, 0.031117459759116173, -0.1686902493238449, 0.07165305316448212, -0.04590919241309166, 0.14606481790542603, 0.1121966615319252], [-0.09760347753763199, 0.11929968744516373, 0.1557779759168625, -0.02577570639550686, 0.02836758829653263, 0.015521525405347347, -0.030003897845745087, 0.1378990113735199, 0.021411588415503502, -0.13029097020626068, 0.12497200071811676, -0.019959039986133575, 0.04122362285852432, 0.06864969432353973, 0.11043034493923187, 0.1250176727771759, 0.04040561243891716], [0.06176199018955231, 0.09195782244205475, 0.11015401035547256, -0.0394759401679039, -0.02045719511806965, -0.12785935401916504, -0.10451480746269226, 0.09847090393304825, 0.12124177068471909, -0.0011390396393835545, -0.06333990395069122, -0.16709202527999878, 0.17293180525302887, 0.1393604278564453, 0.13684599101543427, 0.1583280861377716, 0.038153477013111115], [0.07351944595575333, 0.11856213957071304, -0.07037033885717392, 0.1438746154308319, 0.017083045095205307, -0.16392938792705536, 0.06479538232088089, 0.08957143127918243, -0.08911535888910294, -0.017558397725224495, 0.041205793619155884, 0.03204561769962311, -0.1761525422334671, 0.12539142370224, -0.047581009566783905, -0.1594473421573639, 0.0835961252450943], [0.030943436548113823, 0.022258972749114037, 0.08257338404655457, 0.09212219715118408, 0.0609007403254509, -0.17101195454597473, 0.07889503985643387, 0.09402445703744888, -0.12367065250873566, -0.027089042589068413, 0.09637045115232468, 0.022756263613700867, 0.046650324016809464, 0.13171237707138062, -0.008162031881511211, 0.16030694544315338, -0.07516403496265411], [-0.07254766672849655, 0.1574861705303192, -0.17330750823020935, 0.019969386979937553, 0.15948718786239624, 0.015118812210857868, -0.1261940747499466, 0.06651796400547028, -0.17504723370075226, -0.08691615611314774, 0.06757180392742157, 0.08345594257116318, -0.02201121300458908, -0.13651593029499054, 0.08046027272939682, -0.16788604855537415, -0.12047876417636871], [-0.1522296518087387, 0.16091293096542358, -0.1310597062110901, -0.15379825234413147, 0.17337416112422943, -0.0283358097076416, 0.11111917346715927, -0.09211823344230652, 0.17462240159511566, 0.10932119190692902, -0.11962063610553741, -0.10036886483430862, 0.08252974599599838, -0.10308240354061127, 0.08042179048061371, 0.1412154585123062, -0.07992786914110184], [-0.17431673407554626, -0.02596602402627468, 0.09197086095809937, 0.062229204922914505, -0.15699344873428345, 0.11618167161941528, -0.049585532397031784, -0.09493685513734818, 0.12744766473770142, 0.13879811763763428, 0.10994099080562592, 0.17113222181797028, 0.1282518059015274, 0.12693144381046295, -0.00040332498610951006, -0.057015061378479004, 0.018389234319329262], [-0.10013502836227417, -0.09277020394802094, 0.09042955935001373, -0.04926058277487755, 0.10877823084592819, -0.10862165689468384, -0.009211340919137001, -0.1700100600719452, -0.14735829830169678, -0.16505256295204163, -0.03152463957667351, 0.03627033531665802, 0.061217959970235825, -0.05502999946475029, 0.11491953581571579, -0.028704700991511345, -0.10405001044273376], [-0.12475662678480148, 0.15080755949020386, 0.12409178167581558, 0.1491106152534485, 0.12677818536758423, 0.14931555092334747, -0.11337459832429886, -0.15214112401008606, -0.0323566198348999, 0.13793803751468658, -0.13307420909404755, 0.13790646195411682, -0.14446860551834106, -0.053230371326208115, 0.09681566804647446, 0.11413058638572693, 0.05108583718538284], [0.1270936131477356, -0.09048466384410858, -0.10353296995162964, 0.1328279972076416, 0.16220083832740784, 0.08419381082057953, 0.013871033675968647, 0.014922786504030228, -0.06275248527526855, 0.17174573242664337, -0.08907133340835571, -0.03954919055104256, -0.016122201457619667, -0.059160266071558, 0.02404966577887535, -0.13531287014484406, -0.047228049486875534], [-0.15559105575084686, 0.022401554509997368, -0.14705857634544373, 0.10499519109725952, -0.04447375237941742, -0.0769265741109848, -0.06504637002944946, -0.06412877142429352, -0.16972605884075165, -0.10209572315216064, -0.1389404982328415, -0.04966038838028908, -0.00428504915907979, 0.05958504229784012, -0.14302481710910797, 0.11216709017753601, 0.12290524691343307], [-0.051796767860651016, -0.1305917352437973, 0.06781872361898422, -0.11541478335857391, -0.0030203484930098057, 0.01760777272284031, 0.044726233929395676, -0.012200922705233097, 0.09118442982435226, 0.07818659394979477, 0.022473962977528572, -0.019746430218219757, 0.08500770479440689, -0.09846213459968567, 0.05600688233971596, 0.025392675772309303, -0.04113711416721344], [-0.13149437308311462, 0.05708181485533714, -0.17325814068317413, 0.16871532797813416, 0.02696797624230385, -0.0418337807059288, -0.026567308232188225, -0.04279264435172081, -0.0031395398546010256, 0.022865865379571915, -0.10876750946044922, -0.04698454588651657, 0.11805308610200882, -0.15105748176574707, 0.02979472279548645, -0.13941577076911926, -0.08584290742874146], [-0.12376084923744202, 0.10108411312103271, 0.05823526903986931, 0.1328621357679367, -0.07216111570596695, 0.17532089352607727, -0.05089937895536423, -0.1544153243303299, 0.11160063743591309, 0.028334924951195717, -0.15651410818099976, 0.03309781476855278, 0.11586465686559677, -0.028676757588982582, -0.10786720365285873, -0.019003823399543762, -0.04726743698120117], [0.11488590389490128, 0.0028133653104305267, 0.02567516453564167, 0.029171688482165337, 0.07032614946365356, -0.03459642827510834, -0.09343479573726654, 0.05014653131365776, 0.03829175978899002, -0.006364700850099325, 0.031318459659814835, 0.14499233663082123, -0.11829838156700134, 0.050459764897823334, -0.09744290262460709, 0.11834428459405899, -0.1252848356962204], [0.015779590234160423, 0.06805448979139328, 0.09906983375549316, -0.08255157619714737, -0.06644927710294724, 0.02300686575472355, -0.0325210802257061, 0.15445801615715027, -0.04535435140132904, 0.16837076842784882, 0.006561713758856058, 0.15447258949279785, -0.039019349962472916, -0.005269728135317564, 0.022096527740359306, -0.1460781842470169, -0.04890885576605797], [0.17552770674228668, 0.03607571870088577, 0.05847930908203125, -0.042207200080156326, 0.0543937049806118, 0.0008857781649567187, -0.14358572661876678, 0.17212215065956116, -0.15787047147750854, 0.13594269752502441, -0.09711723774671555, -0.09474879503250122, 0.07570681720972061, 0.1642778068780899, 0.12145446985960007, 0.12867261469364166, 0.04394422098994255], [0.15106439590454102, -0.06097327545285225, 0.04606582969427109, -0.1459750235080719, -0.1648162603378296, 0.16085049510002136, -0.11703912168741226, 0.054533954709768295, -0.04749138280749321, -0.14308708906173706, -0.04844310134649277, 0.07018423825502396, -0.16320043802261353, 0.14574919641017914, -0.1472088098526001, -0.10189013183116913, -0.12971584498882294], [0.031743720173835754, 0.12985898554325104, -0.07466952502727509, -0.17377351224422455, -0.11247193813323975, 0.01551271602511406, -0.10990863293409348, -0.0344977006316185, -0.021262094378471375, 0.11586663872003555, -0.09503473341464996, -0.12519896030426025, -0.16378146409988403, 0.00708313612267375, 0.12962421774864197, -0.040748413652181625, -0.03311435505747795], [0.07276065647602081, -0.012141305953264236, -0.16336818039417267, 0.16543659567832947, -0.09006716310977936, 0.1270667165517807, -0.004385421518236399, -0.031411223113536835, 0.10386287420988083, 0.1592186689376831, -0.13300496339797974, -0.03559448942542076, 0.09280876815319061, -0.12489362806081772, -0.009973440319299698, -0.13480810821056366, -0.11765436083078384], [0.022027648985385895, -0.0831926092505455, 0.13759402930736542, 0.06372040510177612, 0.011284607462584972, -0.15117338299751282, -0.1654917299747467, 0.08871713280677795, -0.0028771546203643084, 0.043006960302591324, -0.037119150161743164, -0.10751749575138092, -0.026749318465590477, 0.1095379889011383, -0.04980509728193283, -0.14048795402050018, 0.08745245635509491], [0.14809614419937134, -0.021721158176660538, 0.10852435976266861, 0.029313892126083374, 0.0644182562828064, -0.07793331146240234, 0.10528010874986649, -0.03750734403729439, 0.17175757884979248, 0.0830269530415535, -0.16950929164886475, 0.12622730433940887, 0.09701943397521973, 0.09202852845191956, 0.07620133459568024, 0.1647506207227707, -0.001973210135474801], [0.013354018330574036, 0.1347077339887619, 0.01672336272895336, -0.06431175023317337, -0.1625078320503235, -0.10269901156425476, 0.17104984819889069, -0.1314956098794937, 0.1269659399986267, -0.14899569749832153, 0.14990751445293427, 0.07815317064523697, -0.027832893654704094, 0.0012692101299762726, -0.027761179953813553, -0.08759470283985138, 0.09048452228307724], [-0.3046405613422394, 0.09643570333719254, 0.1447145938873291, 0.02918611466884613, 0.12034416198730469, 0.17596600949764252, -0.025027811527252197, -0.05473506450653076, 0.03491569682955742, 0.024619124829769135, -0.06255631893873215, 0.049693066626787186, -0.09442129731178284, 0.040262456983327866, 0.020007137209177017, 0.05010271444916725, 0.03924813121557236], [7.561144593637437e-05, -0.007867067120969296, -0.0010428184177726507, 0.006158434320241213, -0.035863954573869705, -0.011533674784004688, 0.11344810575246811, 0.17204996943473816, 0.00627050269395113, 0.012894532643258572, 0.1742921769618988, -0.1027136817574501, 0.008929631672799587, 0.06476857513189316, 0.08387142419815063, 0.1582031100988388, -0.0029978842940181494], [-0.12935253977775574, -0.01374320313334465, 0.11833938956260681, 0.032026417553424835, -0.06540835648775101, -0.11479037255048752, -0.16178014874458313, -0.17588190734386444, -0.041696369647979736, -0.12225551158189774, 0.13587528467178345, 0.11839967966079712, 0.17222224175930023, 0.12020738422870636, -0.048387449234724045, 0.14020346105098724, 0.023324087262153625], [-0.12044091522693634, 0.16756191849708557, 0.06725085526704788, -0.14595875144004822, 0.03408903256058693, 0.0983768180012703, -0.23843084275722504, -0.14798685908317566, 0.054381441324949265, 0.14330357313156128, 0.06517194211483002, 0.0522269643843174, 0.18477319180965424, 0.17411713302135468, -0.046690236777067184, -0.0570504255592823, 0.1558508723974228], [-0.0775291919708252, 0.1301637887954712, 0.08595453202724457, 0.10332179814577103, -0.11207365244626999, 0.10652468353509903, 0.13045072555541992, 0.035221993923187256, -0.13920369744300842, -0.03967628255486488, 0.1234443262219429, 0.11480122804641724, -0.006866922602057457, 0.14427213370800018, 0.08043970167636871, 0.0562051385641098, -0.12180224061012268], [0.15415062010288239, 0.0830065906047821, 0.0067472257651388645, 0.054029013961553574, 0.08147582411766052, 0.021253475919365883, -0.00851990096271038, 0.06950721144676208, -0.05000833049416542, 0.14229139685630798, -0.04487638175487518, -0.005538496188819408, 0.11173708736896515, 0.1469457894563675, 0.07617446035146713, 0.10440711677074432, -0.0038674157112836838], [-0.05368718132376671, 0.010569227859377861, -0.06155230849981308, 0.08556212484836578, -0.0022889110259711742, 0.09302932769060135, 0.06417978554964066, -0.01708652265369892, -0.09626719355583191, 0.15496787428855896, 0.0030537708662450314, -0.1378750503063202, -0.023222260177135468, -0.09203135222196579, -0.1484159380197525, 0.035021018236875534, -0.07618527114391327], [-0.1506434977054596, 0.16460442543029785, 0.1767423450946808, 0.08084262907505035, -0.07863391935825348, -0.09503871947526932, -0.07586812227964401, 0.022101448848843575, -0.028242813423275948, -0.16398227214813232, -0.13311363756656647, 0.05419117212295532, -0.04903537034988403, 0.10558177530765533, 0.1273738443851471, 0.1157013550400734, 0.05428899824619293], [-0.03133847191929817, 0.12030256539583206, 0.036125119775533676, 0.13531510531902313, 0.14175596833229065, -0.033227112144231796, -0.01202881708741188, 0.1370784044265747, -0.15616995096206665, 0.03428274393081665, -0.10788179188966751, 0.03042728081345558, 0.11823263019323349, 0.07191792130470276, -0.04186990484595299, -0.16536927223205566, -0.15446025133132935], [-0.0550367645919323, -0.014805723913013935, -0.09641765803098679, -0.13871970772743225, 0.11139178276062012, -0.15135803818702698, -0.09417681396007538, -0.10385312139987946, -0.16228565573692322, 0.016954392194747925, -0.13112284243106842, 0.08792255818843842, -0.05546912923455238, -0.023159397765994072, -0.1733504980802536, -0.06903394311666489, 0.16790121793746948], [0.006906015332788229, -0.005356477573513985, -0.15191923081874847, 0.03168872743844986, -0.08911687880754471, -0.019578011706471443, -0.02638646587729454, -0.026388108730316162, 0.06885916739702225, -0.09783594310283661, 0.004000466782599688, 0.16769035160541534, 0.10112214088439941, 0.011875591240823269, 0.09283342957496643, 0.03746722638607025, 0.003891057102009654], [0.07835353165864944, 0.04548461735248566, 0.13496823608875275, -0.04222934693098068, -0.06792828440666199, -0.10460974276065826, -0.09510306268930435, -0.03656623139977455, 0.06693628430366516, 0.15510569512844086, -0.14075934886932373, 0.1725720465183258, -0.035754378885030746, 0.03127112239599228, 0.10815713554620743, -0.18071244657039642, 0.07045600563287735], [0.10255585610866547, -0.16538217663764954, -0.016188956797122955, 0.19531482458114624, 0.03571907803416252, 0.10358449071645737, -0.048749495297670364, -0.11101512610912323, -0.08538168668746948, -0.1582680344581604, -0.09073588997125626, 0.15696601569652557, -0.10037167370319366, -0.09454621374607086, 0.20616498589515686, 0.05863235518336296, 0.14050108194351196], [-0.08557866513729095, 0.0007250522030517459, -0.15806813538074493, -0.13514281809329987, 0.02031024917960167, -0.10064233094453812, -0.13706782460212708, 0.06349816918373108, -0.17196251451969147, 0.1521989107131958, 0.14752258360385895, 0.07985295355319977, -0.15362317860126495, -0.06104216352105141, 0.07585467398166656, -0.0924733430147171, 0.10431652516126633], [0.050747308880090714, -0.0008301002089865506, 0.10227739065885544, 0.00894628930836916, 0.09371981769800186, -0.16459277272224426, -0.014315732754766941, -0.028276897966861725, -0.14960870146751404, 0.03860904276371002, 0.1261301338672638, 0.14066383242607117, -0.04129369184374809, -0.004658111836761236, -0.0499664805829525, -0.0072151790373027325, 0.15533490478992462], [-0.17428532242774963, -0.0661211758852005, 0.06228867918252945, 0.15890726447105408, 0.0038053125608712435, -0.07742708921432495, 0.029014648869633675, 0.0658414289355278, 0.0912942886352539, 0.0887787938117981, -0.16705180704593658, -0.03122950717806816, 0.09197881817817688, -0.1553318053483963, 0.14235559105873108, 0.06364966183900833, -0.12455713003873825], [0.16778379678726196, -0.16072915494441986, 0.012501724064350128, 0.07380323857069016, 0.13763238489627838, 0.11915415525436401, 0.057301778346300125, 0.03278489410877228, 0.07046952843666077, -0.043390411883592606, -0.028192680329084396, -0.022816913202404976, 0.029130615293979645, -0.014401071704924107, -0.01412857137620449, -0.10178349912166595, -0.10190184414386749], [-0.17165222764015198, -0.08164801448583603, 0.11206922680139542, -0.04791434854269028, -0.12630154192447662, 0.030424587428569794, 0.0009774065110832453, -0.08243708312511444, 0.022815058007836342, -0.08596713840961456, -0.16975000500679016, -0.0017488833982497454, 0.043335895985364914, 0.07288507372140884, 0.09895367920398712, -0.03731530159711838, 0.06612343341112137], [-0.0012412879150360823, -0.0706600770354271, 0.17338930070400238, -0.10710126906633377, 0.08649531751871109, -0.011339230462908745, 0.014689018949866295, -0.17467226088047028, -0.12394914031028748, -0.11928004771471024, -0.04817110672593117, -0.06476830691099167, 0.14068056643009186, 0.14864245057106018, -0.1332084834575653, -0.17026621103286743, -0.16911841928958893], [0.009825547225773335, -0.09183848649263382, -0.05337049067020416, -0.15563459694385529, 0.13376663625240326, -0.13668477535247803, 0.028314251452684402, 0.005694228690117598, -0.12081893533468246, 0.1441665142774582, 0.14316368103027344, -0.11807161569595337, 0.13245099782943726, -0.03070671856403351, -0.1089467778801918, 0.12401950359344482, 0.050611790269613266], [-0.06403010338544846, 0.029831159859895706, -0.154605433344841, 0.16508223116397858, 0.10789970308542252, -0.12273244559764862, 0.1027228906750679, 0.04016171023249626, 0.16026818752288818, 0.1054333969950676, -0.08477197587490082, 0.11484099179506302, 0.14108002185821533, -0.11657097190618515, 0.12096695601940155, 0.04267309233546257, -0.06339617073535919], [0.10247782617807388, -0.15718315541744232, -0.1381523162126541, -0.04648502171039581, -0.1535881757736206, 0.049924079328775406, -0.005616467911750078, 0.15354794263839722, 0.16986945271492004, 0.02956264279782772, 0.09665288031101227, -0.11173677444458008, -0.11207110434770584, -0.07406484335660934, 0.12802982330322266, -0.05162396654486656, 0.11761534959077835], [0.27762818336486816, -0.1371506154537201, -0.0002192659885622561, 0.17894265055656433, 0.11074207723140717, -0.13954593241214752, -0.11614016443490982, -0.04164960980415344, -0.08387886732816696, 0.028850072994828224, -0.05682149901986122, 0.004525701981037855, -0.06561432033777237, -0.13274693489074707, 0.09833712130784988, -0.0504341721534729, -0.14156705141067505], [-0.05563116818666458, 0.2242339849472046, -0.0913190096616745, 0.004372024908661842, -0.027089586481451988, -0.09064105153083801, -0.05405908823013306, 0.07472892105579376, 0.12232522666454315, 0.11926809698343277, -0.025285983458161354, -0.21327264606952667, -0.015455271117389202, -0.12245479226112366, -0.040856100618839264, 0.1084776520729065, 0.10079154372215271]], "lstm.weight_hh_l0": [[0.08248892426490784, 0.17545010149478912, -0.03744909539818764, 0.003007599152624607, -0.14444531500339508, -0.17101627588272095, 0.16563886404037476, -0.09894265234470367, -0.13440971076488495, -0.16243548691272736, 0.07483077794313431, -0.024663744494318962, 0.0024140027817338705, -0.03537692502140999, 0.04648548737168312, -0.07187105715274811, -0.1609412431716919, 0.049558285623788834, 0.11431801319122314, -0.10174055397510529, -0.09452212601900101, -0.04964612051844597, 0.11456826329231262, 0.13242758810520172, -0.15554887056350708, 0.006902073044329882, -0.0798138678073883, 0.16798697412014008, 0.12977218627929688, -0.13969381153583527, -0.013302662409842014, -0.1001795157790184], [-0.12915988266468048, -0.08752715587615967, -0.06917410343885422, 0.14400075376033783, 0.04780381917953491, 0.04637369140982628, -0.02915174700319767, 0.013570844195783138, 0.06054862216114998, -0.14165377616882324, 0.09620244801044464, -0.036695532500743866, -0.1609886735677719, -0.10007147490978241, 0.170200377702713, -0.05180300772190094, -0.0002072618663078174, -0.174560084939003, 0.0051518394611775875, -0.012377570383250713, 0.03825917840003967, -0.12228494882583618, -0.08124557137489319, 0.06947009265422821, 0.15048381686210632, 0.15580277144908905, -0.006028073839843273, 0.016267865896224976, -0.14223626255989075, -0.1287357360124588, -0.032303497195243835, 0.1758202314376831], [0.15309521555900574, 0.12030141055583954, 0.11766324937343597, 0.07401734590530396, 0.16144029796123505, 0.12452530860900879, -0.00028390117222443223, -0.07468246668577194, -0.028110599145293236, 0.15092365443706512, -0.16115133464336395, -0.044369250535964966, 0.13574863970279694, -0.01682811975479126, 0.16845892369747162, 0.17337466776371002, 0.11633617430925369, 0.14311496913433075, 0.17201097309589386, 0.04161442816257477, -0.14412254095077515, -0.14756520092487335, 0.07094091922044754, -0.019476668909192085, 0.15650473535060883, 0.06127825006842613, -0.10814710706472397, -0.13021062314510345, 0.1550542116165161, -0.09337800741195679, -0.043090157210826874, -0.09495499730110168], [-0.11586888879537582, -0.05306700989603996, 0.024494484066963196, 0.1493595540523529, -0.07326658070087433, -0.05280258134007454, 0.06232014298439026, 0.09336439520120621, 0.161659374833107, 0.10592977702617645, 0.17086033523082733, 0.13368777930736542, -0.15830636024475098, -0.1755368858575821, 0.12281707674264908, -0.17095018923282623, -0.03281686455011368, -0.035261210054159164, 0.09441549330949783, -0.13667066395282745, 0.07497060298919678, 0.06287939101457596, -0.08107641339302063, 0.17353865504264832, -0.15252269804477692, 0.10388753563165665, -0.10003379732370377, 0.1258755624294281, -0.12546968460083008, -0.11419125646352768, 0.10483326762914658, -0.030323034152388573], [-0.022189050912857056, 0.03641045093536377, -0.06602225452661514, 0.07852233946323395, -0.0012557231821119785, 0.15980926156044006, -0.11844876408576965, 0.021835608407855034, 0.032460618764162064, -0.08545485883951187, 0.041229017078876495, 0.06757853180170059, -0.0694117471575737, 0.027245977893471718, 0.154936283826828, -0.007613343186676502, 0.05389517545700073, -0.12705418467521667, 0.0723235085606575, 0.11093475669622421, 0.04974091053009033, 0.15515464544296265, 0.16142413020133972, -0.0317826010286808, 0.05887804925441742, 0.07406400144100189, -0.08078703284263611, 0.0586564838886261, -0.06604830175638199, -0.06789663434028625, -0.013877250254154205, 0.1302798092365265], [0.14060424268245697, 0.1528230607509613, -0.13405922055244446, -0.0888175517320633, 0.018464259803295135, -0.160203754901886, -0.03299345821142197, -0.035662829875946045, 0.08021599054336548, -0.019495446234941483, 0.14166636765003204, 0.13793635368347168, -0.1346471607685089, -0.11867477744817734, -0.13164997100830078, -0.12568721175193787, -0.1560901552438736, -0.08880151063203812, -0.0295313261449337, 0.161804661154747, 0.004035476595163345, 0.10281950980424881, 0.07414142787456512, 0.14800618588924408, -0.14901943504810333, 0.019498206675052643, -0.04548955708742142, -0.07413657754659653, 0.08875961601734161, -0.09008119255304337, 0.16258764266967773, -0.06997181475162506], [0.11924420297145844, 0.07555587589740753, 0.04636134207248688, -0.11444980651140213, -0.08506664633750916, 0.06390966475009918, -0.01922616921365261, -0.14378513395786285, 0.027091214433312416, 0.11973736435174942, 0.05445233732461929, -0.10247717052698135, -0.15024372935295105, -0.14612719416618347, 0.07469559460878372, 0.05589143931865692, -0.08938507735729218, -0.1539018452167511, -0.15106286108493805, -0.11186148226261139, -0.08473381400108337, -0.10159236192703247, -0.04666456952691078, -0.08293692767620087, 0.017065785825252533, -0.0008286491502076387, -0.14299078285694122, -0.14847919344902039, 0.0046166605316102505, 0.021198663860559464, 0.1158062219619751, 0.09629829972982407], [-0.07528787106275558, 0.09130536019802094, -0.14288483560085297, -0.05838467925786972, -0.010584337636828423, -0.05808623880147934, 0.020819207653403282, -0.06582939624786377, 0.16395966708660126, -0.07560495287179947, -0.14108684659004211, 0.14907008409500122, 0.1396673619747162, 0.15300506353378296, -0.14805397391319275, 0.1442258208990097, -0.04703335464000702, -0.050009533762931824, 0.03136378899216652, -0.07574766129255295, -0.13714635372161865, -0.007673549931496382, 0.1703742891550064, 0.13650642335414886, 0.08181311935186386, -0.05501655489206314, -0.011852978728711605, -0.0418676920235157, 0.1341651827096939, -0.01542117353528738, 0.029900435358285904, -0.010112188756465912], [0.025997966527938843, -0.003438529558479786, -0.09293417632579803, 0.15945659577846527, -0.07374200224876404, -0.053294118493795395, 0.06984995305538177, -0.07306147366762161, -0.15095093846321106, 0.060191113501787186, -0.08238716423511505, 0.0966978520154953, 0.16629965603351593, 0.04590986669063568, 0.10272973775863647, -0.09450147300958633, -0.11928402632474899, -0.05725514516234398, 0.11190253496170044, 0.1321665495634079, 0.04287335276603699, 0.06600335240364075, 0.10680913180112839, -0.049021124839782715, 0.0864744782447815, 0.08945564925670624, -0.04807785898447037, 0.10247588902711868, 0.1556391417980194, 0.14233720302581787, 0.15751779079437256, 0.08394109457731247], [-0.035378120839595795, -0.0690934956073761, 0.07274851202964783, -0.15261757373809814, 0.14363491535186768, 0.11301200836896896, 0.0680871456861496, -0.03659391775727272, 0.15234404802322388, 0.13820433616638184, 0.046504292637109756, -0.08272090554237366, -0.1609591692686081, 0.1707451194524765, -0.09384136646986008, -0.06558940559625626, 0.08807873725891113, 0.11579631268978119, -0.17626266181468964, -0.03775632753968239, -0.1547560840845108, -0.13595816493034363, 0.08789009600877762, -0.08553846180438995, 0.022772004827857018, -0.0708465576171875, -0.10513358563184738, -0.03142624720931053, 0.04858381673693657, -0.16967114806175232, 0.04075092822313309, -0.16636794805526733], [-0.009374954737722874, -0.17233461141586304, -0.01091411616653204, -0.14948561787605286, -0.1631292849779129, -0.0484771765768528, -0.03370211645960808, 0.09534413367509842, 0.05779557302594185, -0.1767585277557373, -0.16577261686325073, -0.10975880175828934, -0.08389288187026978, -0.049819216132164, 0.016992997378110886, -0.05997781082987785, 0.1329393982887268, -0.05551774427294731, 0.1371455192565918, -0.024019192904233932, 0.02221851237118244, 0.1383403241634369, 0.02506466768682003, 0.05573073402047157, 0.16576388478279114, -0.15742634236812592, -0.06899186223745346, -0.03530236706137657, 0.15159660577774048, 0.10356110334396362, 0.15747162699699402, -0.06418602168560028], [-0.0690169557929039, -0.1294168084859848, 0.04275117069482803, -0.058274149894714355, -0.02534555457532406, -0.06626053154468536, 0.005869471933692694, 0.1296151727437973, 0.11450271308422089, -0.1290469616651535, 0.042591776698827744, -0.03992808237671852, 0.15720677375793457, 0.049310989677906036, 0.05621253699064255, -0.06120278686285019, -0.027737852185964584, -0.10388464480638504, 0.05283882096409798, -0.11618288606405258, -0.03787337243556976, 0.12949469685554504, -0.010098377242684364, 0.08205220848321915, 0.01165948249399662, -0.11223918199539185, 0.01973138377070427, -0.14866167306900024, -0.09499295055866241, -0.06437001377344131, 0.03391078859567642, -0.062444496899843216], [0.02704519033432007, 0.05680421367287636, -0.12067371606826782, -0.021522583439946175, -0.12297925353050232, 0.1531587392091751, 0.17128761112689972, 0.17670613527297974, -0.06803736835718155, 0.006832520943135023, 0.12779009342193604, 0.012721488252282143, 0.09106563031673431, 0.0033871736377477646, 0.020063353702425957, -0.05860040709376335, 0.09784688800573349, -0.06977368146181107, -0.1620323359966278, -0.1241132840514183, 0.039446793496608734, 0.08591301739215851, -0.09875622391700745, 0.0032569931354373693, 0.039061423391103745, 0.042355138808488846, 0.06324189156293869, 0.17317140102386475, -0.10813138633966446, -0.17282454669475555, -0.07660545408725739, -0.17526809871196747], [0.01821810193359852, -0.15400634706020355, -0.09463952481746674, -0.1242796778678894, 0.053921349346637726, -0.061058010905981064, 0.16112668812274933, -0.0691111758351326, -0.07825127243995667, -0.08998925238847733, -0.16656823456287384, -0.11558840423822403, 0.1148686632514, 0.13889780640602112, -0.16941191256046295, -0.15652891993522644, 0.10707836598157883, 0.015430192463099957, 0.08201207965612411, -0.0650218203663826, 0.039272792637348175, -0.11294581741094589, -0.051206059753894806, -0.03754129260778427, 0.03491600975394249, 0.06301343441009521, -0.01363629661500454, 0.10650230199098587, -0.0067469095811247826, 0.11511596292257309, -0.1232420802116394, 0.06748190522193909], [0.11034999042749405, 0.05520176887512207, -0.037081386893987656, -0.07054522633552551, -0.17258940637111664, -0.1390201300382614, -0.02989950031042099, 0.02481016330420971, 0.06140405684709549, -0.08869599550962448, -0.11573979258537292, -0.07469738274812698, 0.07028024643659592, 0.06193654239177704, -0.07825487107038498, -0.058515965938568115, 0.09694282710552216, -0.05223087966442108, 0.1761689931154251, -0.08468566089868546, -0.10441717505455017, -0.06319338083267212, -0.08960649371147156, -0.08743928372859955, 0.12531200051307678, 0.019576262682676315, -0.07250387221574783, -0.026136187836527824, -0.12287504971027374, -0.13271057605743408, 0.05878831818699837, 0.07928003370761871], [0.156772181391716, 0.04497823119163513, 0.1304568201303482, -0.1257844716310501, -0.03870083764195442, 0.08512194454669952, -0.14987416565418243, -0.10627944767475128, 0.16153521835803986, -0.08692894876003265, 0.13676753640174866, -0.07539205253124237, -0.1066817194223404, -0.0497986301779747, 0.11246951669454575, 0.07326125353574753, -0.16630899906158447, 0.022048870101571083, 0.07480286061763763, -0.12973275780677795, 0.10049865394830704, -0.1534416526556015, 0.07280062884092331, 0.16276617348194122, 0.07335957884788513, 0.07918304949998856, -0.12737444043159485, 0.06500475108623505, 0.10801248997449875, -0.08831886947154999, 0.06768332421779633, 0.013872402720153332], [-0.0090904850512743, 0.07743044197559357, -0.004598347470164299, 0.11332520097494125, -0.05883714556694031, -0.025484660640358925, -0.1547284573316574, -0.08838031440973282, 0.12044861167669296, -0.059890903532505035, 0.17371457815170288, 0.010006820783019066, 0.17349448800086975, 0.12793780863285065, -0.08721776306629181, -0.10795118659734726, 0.0611158162355423, -0.12326524406671524, -0.11432439833879471, -0.10763299465179443, 0.08961134403944016, -0.09357481449842453, -0.1409652680158615, -0.03949715942144394, 0.09522334486246109, -0.1244131550192833, -0.1645374596118927, 0.09364666789770126, 0.12023292481899261, 0.01102262269705534, 0.16460880637168884, 0.036146484315395355], [0.12139124423265457, -0.04840247333049774, 0.05786852911114693, -0.04850655421614647, -0.0687658041715622, -0.15252111852169037, -0.061107996851205826, -0.13878335058689117, 0.08054199069738388, 0.0034109866246581078, 0.07296983152627945, 0.11581601947546005, 0.009525904431939125, 0.009330974891781807, -0.009706123732030392, -0.11286607384681702, 0.17461377382278442, -0.015721110627055168, -0.13198091089725494, 0.0720345675945282, -0.007716034073382616, -0.06697524338960648, -0.14489758014678955, -0.08492179214954376, 0.09006857126951218, 0.13257336616516113, 0.07661158591508865, 0.10683359950780869, -0.008847445249557495, 0.14350354671478271, -0.12599271535873413, 0.07804159075021744], [0.10750280320644379, -0.08115873485803604, -0.13690853118896484, 0.06420516222715378, 0.11463291198015213, -0.04232142120599747, -0.020878225564956665, -0.12011804431676865, -0.07538654655218124, 0.004908200353384018, 0.11717934161424637, -0.1262841671705246, 0.12410519272089005, -0.047718364745378494, -0.053196508437395096, 0.13883794844150543, 0.12677012383937836, 0.09402614086866379, 0.03979676589369774, 0.1616143137216568, 0.17476080358028412, 0.005376230925321579, -0.0356975719332695, -0.11327896267175674, 0.014558553695678711, -0.09439517557621002, -0.14647147059440613, 0.0016824307385832071, -0.07288037240505219, -0.07062958180904388, -0.1128740906715393, -0.0962657555937767], [0.17250698804855347, -0.1260610669851303, 0.13334693014621735, -0.15999630093574524, -0.1361258625984192, -0.10491500794887543, -0.030972730368375778, 0.14497166872024536, 0.09713854640722275, -0.06798189878463745, -0.13996073603630066, 0.1282436102628708, -0.0013199998065829277, -0.16528858244419098, 0.04232005029916763, 0.08762959390878677, -0.14174288511276245, 0.166501984000206, 0.08182880282402039, 0.146878182888031, -0.13751988112926483, 0.0030537499114871025, -0.04174996167421341, 0.026825904846191406, -0.10466642677783966, 0.04724501445889473, -0.008072090335190296, 0.09212246537208557, -0.01498995628207922, 0.04842251166701317, -0.14566051959991455, 0.037215474992990494], [0.16920773684978485, -0.09621575474739075, 0.04304809495806694, -0.05410555377602577, -0.03969661891460419, -0.1272002011537552, 0.015384295023977757, -0.10269073396921158, -0.12066840380430222, -0.12511932849884033, 0.16092896461486816, -0.06263573467731476, -0.13711410760879517, 0.11209125071763992, 0.03220265731215477, -0.11249981820583344, -0.12435111403465271, 0.09929601103067398, 0.10730372369289398, 0.08740634471178055, 0.11532829701900482, -0.14176668226718903, -0.12668025493621826, 0.13235680758953094, 0.012648837640881538, 0.13410279154777527, 0.17660655081272125, -0.13896812498569489, 0.11356179416179657, -0.005064512602984905, -0.13054430484771729, 0.01974000222980976], [-0.06084578111767769, -0.09416060894727707, -0.15355248749256134, 0.16641853749752045, -0.15830421447753906, -0.16295945644378662, -0.12574999034404755, -0.16107338666915894, -0.16901303827762604, -0.17672601342201233, 0.07469300180673599, 0.10253676772117615, 0.15189078450202942, 0.07481107860803604, -0.08009961992502213, 0.052201274782419205, 0.08176065236330032, 0.10333717614412308, -0.08613515645265579, -0.09564162790775299, -0.06753727048635483, -0.125334233045578, -0.06887345016002655, 0.11296725273132324, -0.06717509776353836, 0.09566232562065125, 0.07934192568063736, -0.0032986863516271114, -0.1044546365737915, -0.052746232599020004, -0.14992772042751312, -0.03945275768637657], [-0.12264340370893478, -0.1439807415008545, -0.0022529386915266514, -0.1110624223947525, 0.04898719862103462, -0.15900397300720215, -0.0507362000644207, 0.05666850134730339, 0.028429536148905754, -0.12140598893165588, 0.14902791380882263, 0.07111003994941711, -0.13718020915985107, -0.013599713332951069, -0.12216206640005112, -0.16492120921611786, -0.15324939787387848, 0.06902370601892471, 0.09005913138389587, 0.010448351502418518, 0.1660228818655014, -0.04905937239527702, 0.1780460625886917, -0.09535449743270874, 0.041846342384815216, 0.09632664173841476, 0.0022348787169903517, -0.14646440744400024, -0.16215041279792786, 0.10006890445947647, -0.07227638363838196, 0.04697282984852791], [0.16157425940036774, -0.10769423842430115, -0.048145439475774765, -0.04690033942461014, -0.08950793743133545, -0.1253746747970581, -0.0462808720767498, -0.010118539445102215, 0.11213251948356628, -0.08328159153461456, 0.060653891414403915, 0.07283294945955276, -0.0458969920873642, -0.16828715801239014, 0.11187739670276642, -0.09010273218154907, 0.002422116231173277, -0.08441592007875443, 0.10323520749807358, -0.008354917168617249, -0.15740230679512024, -0.12918679416179657, 0.002300357911735773, -0.07238850742578506, 0.11735916137695312, 0.15019206702709198, -0.13642127811908722, -0.007621322758495808, -0.13369524478912354, -0.007051041349768639, -0.005716597195714712, -0.04966486245393753], [-0.14680686593055725, 0.04669992998242378, 0.03230530768632889, -0.025204405188560486, 0.1536576896905899, 0.11395232379436493, 0.01519716251641512, -0.028038358315825462, 0.1106012761592865, 0.01797453500330448, -0.08422912657260895, -0.1669415831565857, 0.16854842007160187, -0.10854237526655197, -0.07125666737556458, -0.006106572691351175, 0.07372305542230606, 0.09988842904567719, 0.17055556178092957, 0.031759608536958694, 0.160665363073349, -0.0118589848279953, 0.11859086155891418, 0.11764474958181381, -0.019028332084417343, -0.030618883669376373, 0.018028229475021362, 0.1616685390472412, 0.12469928711652756, 0.06652962416410446, 0.12673959136009216, 0.03733917698264122], [-0.057173170149326324, -0.14719600975513458, -0.1500515639781952, 0.02637031301856041, 0.09553997218608856, -0.10698572546243668, 0.04323368892073631, -0.08631548285484314, -0.1237032562494278, 0.15475812554359436, -0.11107464879751205, -0.00652287807315588, 0.13332775235176086, 0.060605693608522415, 0.008875515311956406, 0.11961761862039566, 0.16368626058101654, 0.16394953429698944, 0.14547130465507507, -0.04799695685505867, -0.10125329345464706, 0.12273979932069778, 0.1382891982793808, 0.11844298988580704, -0.07244884967803955, -0.04827592521905899, 0.00268266792409122, 0.0028491478879004717, 0.10325008630752563, 0.17583034932613373, 0.03434576094150543, 0.09859201312065125], [-0.1292852908372879, 0.13516175746917725, -0.14205552637577057, -0.1385098695755005, 0.016208665445446968, -0.13278727233409882, 0.1752348095178604, 0.0042960913851857185, 0.024974916130304337, -0.07693903148174286, -0.01303958147764206, 0.16510707139968872, 0.03867664560675621, -0.06364785134792328, -0.09324018657207489, -0.08007074892520905, -0.08482183516025543, 0.06290461122989655, -0.13440552353858948, -0.017898185178637505, -0.12846121191978455, 0.1170232966542244, 0.10815340280532837, -0.0700889453291893, 0.07007595896720886, 0.12673167884349823, 0.045756347477436066, 0.04029032215476036, 0.09817815572023392, -0.1765638291835785, 0.08780277520418167, 0.001007351791486144], [0.00617177365347743, -0.11067625135183334, 0.10278370976448059, 0.17666195333003998, 0.013414541259407997, 0.07648936659097672, 0.08133675903081894, -0.061168648302555084, -0.07508563995361328, -0.033300962299108505, -0.09111250936985016, 0.1443399339914322, 0.07983194291591644, -0.0900331661105156, 0.07732098549604416, 0.09050001204013824, 0.17647530138492584, -0.10074064135551453, -0.09716998040676117, 0.04446113109588623, 0.12164975702762604, -0.0347258634865284, -0.022183360531926155, 0.16074013710021973, -0.10105918347835541, -0.08170092850923538, -0.12054453790187836, 0.01347175519913435, 0.17555053532123566, -0.0014620108995586634, 0.1383531391620636, -0.03295626491308212], [-0.005663181189447641, -0.10269079357385635, -0.12150304019451141, -0.11134801059961319, -0.041909076273441315, 0.03959561511874199, -0.03964710235595703, 0.060434337705373764, 0.05058818683028221, -0.16383083164691925, 0.15729700028896332, 0.12163328379392624, 0.030085518956184387, 0.1684250682592392, 0.09420184791088104, 0.05291920155286789, 0.1101955771446228, 0.04258110746741295, 0.13195191323757172, 0.11879417300224304, -0.029868831858038902, 0.09321382641792297, 0.06699850410223007, -0.12468140572309494, 0.04549315944314003, 0.12491381913423538, 0.09481820464134216, 0.03267147019505501, 0.06997725367546082, -0.02859465591609478, 0.15022209286689758, -0.1689988374710083], [0.13068442046642303, 0.1217501237988472, -0.051050685346126556, -0.03785596042871475, -0.12437769025564194, -0.07994913309812546, -0.05964008718729019, -0.17167705297470093, 0.11657790839672089, 0.06913568824529648, -0.022924154996871948, 0.00968972872942686, 0.07265478372573853, 0.03125203400850296, -0.16513656079769135, -0.04718908667564392, -0.172239750623703, 0.02661280520260334, 0.13677863776683807, -0.0037078899331390858, 0.04740580543875694, 0.1224394366145134, 0.03714663162827492, 0.1129692941904068, 0.03494928404688835, 0.06894874572753906, 0.0538199245929718, -0.12058012932538986, -0.01568608731031418, -0.05545882508158684, -0.15352888405323029, -0.15465261042118073], [-0.02212798036634922, -0.12123742699623108, -0.11562801897525787, 0.11352384090423584, -0.11259633302688599, 0.032533805817365646, -0.17320972681045532, 0.07470691204071045, -0.1489337533712387, 0.043413106352090836, 0.13023190200328827, 0.05113835260272026, -0.16835273802280426, 0.030255598947405815, 0.02242300845682621, 0.04827036336064339, -0.028633451089262962, 0.1521749645471573, 0.013523806817829609, 0.04546717554330826, 0.03808248043060303, -0.016805149614810944, -0.008356413803994656, 0.13375239074230194, -0.09676473587751389, 0.062064141035079956, 0.010788749903440475, -0.017980435863137245, -0.12592333555221558, -0.12156636267900467, 0.09198669344186783, -0.08698097616434097], [0.12033287435770035, 0.1303771287202835, -0.03726792708039284, -0.06092685088515282, -0.11325778812170029, -0.027969934046268463, -0.03399377316236496, -0.1718340665102005, -0.010711031034588814, 0.05098310485482216, 0.09041503816843033, 0.05476967990398407, 0.020764045417308807, 0.05735058709979057, -0.16904489696025848, 0.11399495601654053, -0.09529505670070648, 0.1339569240808487, -0.1598999798297882, -0.12129000574350357, 0.06861747056245804, -0.14260771870613098, -0.1301034390926361, 0.006560641340911388, 0.11655255407094955, 0.047185756266117096, 0.13921238481998444, -0.11799724400043488, 0.055717311799526215, -0.1008659228682518, 0.026779938489198685, -0.016195600852370262], [-0.05587523430585861, -0.04584274813532829, -0.023481061682105064, -0.15137849748134613, 0.13679617643356323, -0.00047655441449023783, -0.16408826410770416, -0.13486900925636292, 0.04186444357037544, 0.1053522601723671, 0.06206894665956497, -0.024144960567355156, -0.09069617837667465, 0.15188390016555786, 0.1377946138381958, 0.002937803976237774, -0.12420667707920074, -0.12553109228610992, 0.09308470785617828, 0.08401326835155487, 0.07276423275470734, -0.047963596880435944, 0.13233144581317902, -0.15755757689476013, 0.015882238745689392, -0.12822800874710083, -0.15797944366931915, -0.04414789751172066, 0.0095101622864604, -0.05999055877327919, 0.14294815063476562, 0.10078757256269455], [0.042683061212301254, -0.06908091902732849, 0.06188493221998215, -0.09252337366342545, 0.13545866310596466, -0.08387389034032822, -0.1365453451871872, 0.15704433619976044, 0.037316419184207916, 0.03714257851243019, 0.014648878015577793, 0.0783596783876419, 0.018986329436302185, -0.01917540468275547, 0.0723581537604332, -0.11685704439878464, -0.14696896076202393, -0.13304725289344788, -0.16532526910305023, -0.07404935359954834, -0.12216135114431381, -0.08970867842435837, -0.0983978807926178, -0.06881868094205856, 0.07489530742168427, 0.063453808426857, 0.13685250282287598, 0.05651802569627762, 0.03612423688173294, 0.0018944797338917851, 0.1669013947248459, 0.05288492515683174], [-0.084953673183918, -0.07062559574842453, -0.13507457077503204, 0.1109682247042656, 0.048820190131664276, 0.09588418155908585, 0.09193563461303711, 0.12244085222482681, 0.11556868255138397, -0.009109598584473133, 0.06329210847616196, 0.06594038754701614, 0.1749861240386963, -0.06256042420864105, 0.06877482682466507, 0.08302377164363861, -0.17150910198688507, 0.04180240258574486, 0.10089778155088425, -0.037979304790496826, 0.15996010601520538, 0.07081454247236252, -0.01204946730285883, 0.025855721905827522, 0.12587712705135345, -0.129779651761055, 0.11693429946899414, 0.1250823438167572, -0.002726079197600484, 0.01689835637807846, 0.1757238656282425, -0.08224177360534668], [0.15057286620140076, -0.04274832457304001, -0.1492668092250824, -0.05540192499756813, 0.025588510558009148, -0.16951976716518402, -0.007741448935121298, -0.08488444983959198, 0.047134801745414734, 0.10459180921316147, 0.16203559935092926, -0.08605081588029861, -0.15559829771518707, -0.05240815132856369, 0.11973327398300171, 0.1700056940317154, -0.04111528396606445, -0.06275128573179245, -0.024122895672917366, 0.09438478946685791, 0.09165044873952866, -0.0636916384100914, 0.08915676921606064, 0.007305228617042303, -0.00396216195076704, 0.032018959522247314, 0.08089902251958847, 0.07320264726877213, -0.10626392066478729, 0.12115463614463806, 0.1375446319580078, 0.04567436873912811], [0.07349833101034164, -0.1124328076839447, -0.10975772887468338, -0.02667246386408806, 0.11065863817930222, 0.0549946203827858, -0.00911115761846304, -0.13678616285324097, 0.08799009770154953, -0.010548955760896206, -0.0015503717586398125, 0.08554311841726303, 0.07779977470636368, -0.10689330101013184, 0.015543419867753983, -0.14042173326015472, 0.0728084072470665, -0.04828821122646332, 0.03276025876402855, 0.006548481993377209, 0.11962731927633286, -0.13254085183143616, -0.04216187447309494, -0.06621471792459488, 0.11807283759117126, -0.09305619448423386, 0.08646878600120544, 0.003347513498738408, 0.14741238951683044, 0.07348009943962097, 0.07648268342018127, 0.0872625857591629], [-0.08100080490112305, -0.11634407937526703, 0.02964227832853794, -0.005685083102434874, 0.004813022445887327, 0.061372995376586914, -0.13409750163555145, -0.041377097368240356, 0.0908859446644783, 0.12571802735328674, -0.1347767412662506, 0.1187235414981842, -0.03640164062380791, 0.07226378470659256, 0.1586397886276245, 0.07016276568174362, 0.002141081029549241, -0.05460231751203537, -0.09443289786577225, -0.021604368463158607, -0.08593814074993134, 0.041769105941057205, -0.015945754945278168, 0.10341431200504303, -0.16511312127113342, 0.028228947892785072, 0.06818100064992905, -0.09375439584255219, -0.17395831644535065, -0.12365956604480743, -0.1390603482723236, 0.16479997336864471], [0.016541307792067528, -0.12382610887289047, 0.11044931411743164, 0.008491156622767448, 0.13410726189613342, 0.1549057811498642, -0.16678203642368317, -0.15581220388412476, -0.14150401949882507, -0.1698877215385437, 0.1515565663576126, 0.16013409197330475, -0.018063724040985107, -0.13695137202739716, 0.04576745256781578, -0.15600810945034027, -0.08373590558767319, 0.07792279869318008, 0.15585878491401672, -0.05046166107058525, 0.025176789611577988, -0.10563534498214722, 0.02127513661980629, -0.086421437561512, 0.03136037290096283, -0.10450441390275955, 0.07493087649345398, 0.10437660664319992, 0.010266177356243134, -0.15034367144107819, -0.04328807070851326, -0.043607473373413086], [-0.11264832317829132, 0.07123009115457535, 0.06837824732065201, -0.01817544922232628, 0.15616585314273834, 0.06762813776731491, 0.12941044569015503, 0.0077423760667443275, -0.11050684005022049, 0.08727847039699554, 0.1235736757516861, -0.12123209983110428, 0.011386202648282051, -0.05822037160396576, -0.06838709861040115, -0.11238384991884232, -0.1530565321445465, -0.11573581397533417, 0.03520897030830383, 0.14476658403873444, 0.001211827271617949, 0.14742718636989594, -0.07261558622121811, 0.023783108219504356, 0.1072956994175911, 0.017972111701965332, -0.03283778950572014, 0.016772359609603882, 0.1307886242866516, 0.14428865909576416, -0.05091773346066475, -0.07037162035703659], [0.10091308504343033, 0.07939911633729935, 0.15534643828868866, -0.049845244735479355, -0.014769898727536201, -0.14254142343997955, -0.1100686639547348, 0.009185884147882462, 0.16113126277923584, 0.10357145220041275, -0.022352853789925575, -0.14335978031158447, -0.06377631425857544, -0.11929869651794434, 0.08810381591320038, 0.005460735410451889, 0.03143634274601936, -0.14637614786624908, -0.1463594138622284, -0.026462150737643242, 0.01923997327685356, 0.07706357538700104, 0.15999837219715118, -0.07971365749835968, -0.11597488820552826, -0.02928723394870758, 0.012535990215837955, 0.16612334549427032, 0.09271994978189468, -0.12259915471076965, 0.071378193795681, -0.02784966677427292], [-0.10211197286844254, -0.03856489434838295, -0.08814602345228195, -0.11648248881101608, 0.06911543756723404, -0.14788353443145752, 0.11018547415733337, 0.010231968946754932, -0.16717886924743652, -0.1540186107158661, -0.03507313132286072, -0.046880148351192474, 0.14759773015975952, 0.032734233886003494, -0.07736087590456009, 0.0818377137184143, 0.09101232141256332, 0.016873005777597427, 0.175713911652565, -0.043321166187524796, -0.12111524492502213, -0.16171370446681976, 0.15340879559516907, -0.07979835569858551, -0.0061490777879953384, -0.017263265326619148, -0.09784523397684097, -0.10216949880123138, 0.10997621715068817, -0.0902833342552185, 0.013603695668280125, -0.03423917293548584], [0.04038603603839874, -0.10281213372945786, -0.05401839315891266, 0.018385782837867737, 0.11056534200906754, -0.14547640085220337, -0.16847139596939087, -0.09938780963420868, 0.10735294967889786, -0.13838905096054077, -0.12775443494319916, 0.12906022369861603, -0.08964551985263824, 0.05182618647813797, -0.12122803181409836, -0.02060968242585659, 0.10704901069402695, -0.0911652147769928, -0.1752667874097824, -0.15354029834270477, 0.0603317990899086, -0.1190895214676857, 0.03142249956727028, 0.01362609677016735, 0.028017453849315643, 0.06951814889907837, 0.027837570756673813, -0.08120047301054001, 0.15879808366298676, 0.17149941623210907, 0.01627081073820591, 0.0885966569185257], [-0.08159530907869339, -0.1393999606370926, 0.10492784529924393, -0.17481490969657898, -0.06395251303911209, -0.012101328931748867, -0.12524628639221191, -0.09706385433673859, 0.046158552169799805, -0.0658365786075592, -0.0428643561899662, 0.002903770189732313, -0.029015112668275833, -0.09302951395511627, -0.06985825300216675, -0.08065374940633774, 0.050269853323698044, 0.10855976492166519, -0.07459524273872375, 0.17500323057174683, 0.17055916786193848, -0.17659787833690643, 0.11352118849754333, 0.0551275908946991, 0.030458472669124603, 0.09200780838727951, -0.13276708126068115, -0.15696759521961212, -0.16848695278167725, -0.011996320448815823, -0.07556697726249695, 0.13770273327827454], [0.1232985407114029, 0.08737212419509888, -0.007701198570430279, -0.04376966878771782, 0.09076599776744843, 0.1661127209663391, 0.06473412364721298, 0.1550164371728897, 0.024813197553157806, -0.1102881208062172, -0.051641691476106644, -0.07109901309013367, 0.09487147629261017, 0.13253448903560638, -0.03096640668809414, 0.06384303420782089, -0.11588355898857117, 0.009906258434057236, 0.07487364113330841, 0.06129097938537598, 0.1303412765264511, 0.15748803317546844, 0.14129206538200378, -0.05796262249350548, -0.14028555154800415, -0.12721790373325348, -0.12349139899015427, 0.13150140643119812, 0.11388617753982544, 0.06380501389503479, -0.11529961228370667, 0.005833524279296398], [-0.14789290726184845, 0.08169502764940262, -0.08721649646759033, -0.08142328262329102, -0.16721279919147491, 0.003066941862925887, 0.019812390208244324, -0.015214611776173115, 0.06262637674808502, -0.03751901909708977, 0.1277160495519638, -0.1402779221534729, -0.16353139281272888, -0.17627225816249847, 0.035919565707445145, -0.05074065178632736, 0.1049768403172493, -0.021439742296934128, -0.057632483541965485, -0.03486865758895874, 0.14311794936656952, 0.1615099310874939, -0.0003429488861002028, 0.04255451261997223, -0.10536636412143707, 0.11138792335987091, -0.15116702020168304, -0.09683836996555328, -0.017638813704252243, 0.15167240798473358, -0.015937430784106255, -0.05342435464262962], [0.020784106105566025, -0.1345272958278656, -0.17605720460414886, -0.15298280119895935, 0.06148498132824898, 0.11965876072645187, 0.006743938196450472, 0.03003685735166073, 0.10959158092737198, 0.09020152688026428, -0.04816200211644173, -0.009230771102011204, -0.12107284367084503, -0.04023664817214012, -0.14105308055877686, -0.11193317919969559, 0.0004568086005747318, -0.04813745245337486, 0.1466381698846817, -0.07220762223005295, -0.05737142637372017, -0.09347859025001526, 0.10045619308948517, -0.14726972579956055, -0.06930029392242432, -0.014503277838230133, 0.15497060120105743, 0.13972577452659607, 0.1348981112241745, 0.0923207551240921, -0.06413460522890091, -0.15984243154525757], [0.11098744720220566, -0.11600998044013977, 0.03344017267227173, 0.04048303887248039, 0.01586110144853592, 0.14876389503479004, -0.06934018433094025, -0.009675019420683384, 0.15370875597000122, -0.013281293213367462, 0.05693379417061806, -0.1748298853635788, 0.1627257913351059, 0.127144455909729, -0.13745519518852234, 0.15761728584766388, 0.07525593787431717, 0.1531585454940796, -0.07903153449296951, -0.0269540473818779, -0.1649184226989746, 0.0016004211502149701, 0.12815482914447784, 0.03173767402768135, -0.04117852449417114, 0.07883276790380478, 0.13273291289806366, -0.07397981733083725, -0.017837388440966606, 0.12457112222909927, 0.1739213764667511, -0.1527145355939865], [0.11616004258394241, 0.13971595466136932, 0.15459328889846802, 0.15837685763835907, 0.06690657883882523, 0.08494024723768234, 0.03378700092434883, 0.14321860671043396, -0.09486669301986694, -0.1501159816980362, -0.13133786618709564, 0.11056355386972427, -0.15924817323684692, -0.07532187551259995, -0.04550984874367714, -0.0012110475217923522, -0.16948562860488892, -0.12727123498916626, -0.12084173411130905, -0.07109275460243225, -0.08449671417474747, 0.008165277540683746, -0.17529553174972534, -0.12836953997612, -0.007241671439260244, 0.07837594300508499, -0.09918434917926788, 0.049003928899765015, -0.034604668617248535, 0.1227554976940155, 0.042007848620414734, -0.004683210048824549], [-0.015116999857127666, 0.0035137406084686518, -0.16168339550495148, 0.04710226505994797, -0.03045908361673355, 0.140305757522583, 0.06501945853233337, 0.14453011751174927, 0.05372709408402443, -0.06397735327482224, 0.03190448880195618, -0.16613054275512695, -0.12612709403038025, -0.12330363690853119, 0.12672752141952515, 0.032465610653162, -0.032878924161195755, -0.06141090765595436, -0.06689579039812088, 0.12441380321979523, 0.04419541731476784, 0.04198561608791351, 0.0994202196598053, 0.09305983781814575, 0.08417024463415146, -0.1391901969909668, -0.10919803380966187, -0.003161350730806589, -0.09407001733779907, 0.02904261276125908, -0.13081319630146027, -0.12468437105417252], [-0.09497825056314468, -0.04230382293462753, 0.06849908083677292, 0.17572125792503357, 0.1151784211397171, 0.11681051552295685, 0.031555987894535065, 0.14034458994865417, 0.010021849535405636, -0.0074700103141367435, -0.11160920560359955, 0.12639924883842468, -0.15930259227752686, 0.044589363038539886, -0.12626825273036957, 0.05971302092075348, 0.1537136435508728, -0.002153408946469426, -0.09733617305755615, -0.16734950244426727, -0.004125059582293034, 0.14956262707710266, 0.07488076388835907, 0.060600005090236664, -0.07286707311868668, -0.11840362101793289, -0.011149527505040169, -0.08111117780208588, -0.033060893416404724, 0.17504028975963593, 0.06567569077014923, -0.1508028209209442], [-0.17359405755996704, 0.0028101622592657804, -0.09366586804389954, -0.04625178128480911, -0.013383647426962852, -0.05162714794278145, -0.008490018546581268, -0.10599822551012039, 0.020143095403909683, -0.06828933954238892, 0.025060325860977173, 0.030894502997398376, -0.12846313416957855, -0.16237591207027435, -0.0763908252120018, -0.022727856412529945, -0.0224852804094553, -0.00036617182195186615, -0.09056442975997925, -0.12283980846405029, 0.019023295491933823, 0.017585329711437225, 0.04138318821787834, -0.09528712928295135, 0.036934126168489456, 0.05133150890469551, -0.08572790771722794, 0.01578034833073616, 0.13561047613620758, -0.13885244727134705, 0.02508818544447422, 0.1385290026664734], [-0.12714369595050812, -0.07558773458003998, -0.12940332293510437, -0.09114993363618851, 0.13186539709568024, 0.02611631527543068, -0.07622402906417847, 0.11912164092063904, -0.035612378269433975, -0.011723124422132969, 0.13317006826400757, -0.15655934810638428, -0.07618729770183563, -0.016410864889621735, -0.012058044783771038, -0.15904965996742249, -0.05556625500321388, -0.05519871413707733, -0.11330899596214294, -0.017644820734858513, -0.027887746691703796, -0.017562802881002426, 0.04025202989578247, -0.030216149985790253, -0.134348064661026, 0.031710781157016754, -0.15808215737342834, -0.0484088771045208, 0.06706652790307999, 0.14197270572185516, 0.01183945033699274, 0.06891224533319473], [0.16160708665847778, -0.050834618508815765, -0.08152483403682709, -0.16903458535671234, -0.12111164629459381, 0.039612915366888046, -0.04329010099172592, 0.13687093555927277, -0.08856089413166046, 0.10090279579162598, 0.024270156398415565, 0.03853233531117439, -0.0835418775677681, -0.025741124525666237, -0.1177276074886322, 0.13166594505310059, -0.08374772220849991, 0.09107562899589539, -0.13728921115398407, 0.03125549107789993, 0.07873497158288956, 0.1399010419845581, -0.1530127227306366, 0.05923990160226822, -0.08050079643726349, -0.011715938337147236, 0.16230683028697968, 0.11927153170108795, -0.054347895085811615, 0.04625338315963745, -0.16074635088443756, -0.0815245658159256], [0.04132603853940964, 0.1691896766424179, 0.1466849446296692, 0.056278642266988754, -0.0746137872338295, -0.05777982994914055, -0.15765970945358276, -0.12435856461524963, 0.10822677612304688, 0.10051184892654419, -0.025349393486976624, -0.027009494602680206, -0.01705959253013134, -0.12145143002271652, 0.09485002607107162, -0.14443562924861908, 0.006970264483243227, 0.1603735238313675, -0.05266358330845833, 0.018584083765745163, 0.0892089232802391, 0.0630563423037529, -0.16788837313652039, -0.17494376003742218, 0.08767189085483551, -0.12567901611328125, -0.025426393374800682, -0.1256721466779709, 0.12925191223621368, 0.13412408530712128, 0.060258809477090836, -0.1309252828359604], [-0.09189432859420776, 0.0720290020108223, -0.1166018471121788, 0.07783433049917221, -0.08765071630477905, 0.05189495161175728, -0.11080557852983475, 0.06498118489980698, 0.10355065017938614, -0.12655393779277802, -0.037898529320955276, -0.10055007040500641, -0.115278460085392, -0.0712331011891365, 0.07040359079837799, -0.1712091714143753, -0.02931511402130127, -0.0765911266207695, -0.09338841587305069, -0.13849537074565887, 0.06910169869661331, -0.12388168275356293, 0.0102711021900177, -0.1476074755191803, 0.043125350028276443, -0.09680943191051483, 0.06974764168262482, -0.13322974741458893, 0.12352149188518524, 0.027363482862710953, -0.02711804024875164, -0.08810244500637054], [-0.10481172800064087, 0.150588721036911, 0.16978426277637482, -0.07871337234973907, 0.01745775155723095, 0.17053784430027008, 0.03962195664644241, 0.16209658980369568, 0.06551171094179153, -0.06957095861434937, 0.10457606613636017, -0.13097123801708221, -0.16094069182872772, -0.15824206173419952, -0.023334244266152382, -0.010695436969399452, -0.04088282212615013, -0.06415614485740662, -0.020300008356571198, 0.005596553441137075, -0.08134427666664124, 0.07816168665885925, -0.10183923691511154, -0.13013547658920288, -0.05658694729208946, 0.0479135699570179, -0.1430400311946869, -0.10018183290958405, 0.08144425600767136, -0.10313645750284195, -0.05210549384355545, 0.14195489883422852], [-0.046262551099061966, -0.13886882364749908, -0.12173940241336823, -0.02629183605313301, -0.16994905471801758, 0.06883254647254944, 0.09562969952821732, -0.12279793620109558, -0.1652086228132248, -0.10947435349225998, 0.014210231602191925, -0.12248371541500092, -0.17520563304424286, -0.12603816390037537, 0.10125896334648132, 0.04901396110653877, -0.14891986548900604, -0.005594066809862852, 0.13638624548912048, -0.02796727791428566, -0.15511231124401093, 0.17595824599266052, 0.06515936553478241, 0.11007831245660782, 0.09750629216432571, -0.07663750648498535, 0.14183375239372253, -0.12249349057674408, -0.06856084614992142, 0.045008450746536255, -0.08781078457832336, 0.1233241856098175], [0.1514156013727188, -0.11025773733854294, 0.15542708337306976, -0.06889764219522476, -0.1755843311548233, 0.04322146624326706, 0.14689645171165466, -0.13420696556568146, 0.01622866466641426, 0.08834841102361679, 0.05290784314274788, 0.15799285471439362, -0.17383086681365967, -0.12326298654079437, -0.09948030114173889, 0.15872395038604736, 0.06172928586602211, -0.07855194807052612, -0.0925089567899704, 0.1254873126745224, -0.000657806929666549, -0.08073367923498154, 0.14042195677757263, 0.09128014743328094, 0.08389108628034592, 0.14792394638061523, 0.09162973612546921, -0.08593885600566864, 0.016438070684671402, -0.012184611521661282, 0.08823642879724503, -0.08632460236549377], [0.1242830902338028, -0.13484729826450348, 0.12348383665084839, -0.060249824076890945, 0.021842624992132187, 0.03595277667045593, -0.09800677001476288, -0.03228062391281128, -0.11305515468120575, 0.0346810519695282, -0.07657867670059204, -0.17359986901283264, 0.14565561711788177, -0.06801321357488632, -0.16667746007442474, 0.022364044561982155, 0.12924052774906158, 0.11576059460639954, 0.0648484006524086, -0.13522052764892578, 0.09022156894207001, 0.03467031195759773, -0.08582647144794464, 0.10710547864437103, -0.13929133117198944, -0.1016271784901619, -0.1401779055595398, -0.07664971053600311, 0.03695281967520714, 0.13910986483097076, 0.03991968184709549, 0.16692118346691132], [0.09266801923513412, -0.021201424300670624, -0.03933887556195259, -0.05654638260602951, 0.0342615507543087, -0.12477211654186249, -0.13929159939289093, 0.09800735116004944, -0.04797451198101044, 0.16231973469257355, -0.013917394913733006, 0.11238610744476318, -0.13761238753795624, 0.011578750796616077, 0.08643732964992523, -0.12707066535949707, -0.11322261393070221, -0.020054776221513748, -0.12094246596097946, -0.11969519406557083, -0.11840065568685532, -0.08299504220485687, 0.07624082267284393, -0.078440822660923, -0.1510886549949646, -0.062062498182058334, 0.030151601880788803, -0.10736734420061111, -0.04421836510300636, 0.09433324635028839, 0.12543551623821259, 0.07383282482624054], [-0.13804222643375397, -0.13103406131267548, 0.00646956218406558, -0.11204798519611359, -0.06234964355826378, -0.0005255711730569601, 0.1560792624950409, -0.01914360374212265, 0.11602696031332016, 0.16616405546665192, 0.028014251962304115, -0.0013614906929433346, -0.13785205781459808, 0.07594400644302368, 0.1029013842344284, -0.08178619295358658, -0.04103895649313927, 0.16025015711784363, -0.02291313372552395, 0.11667560040950775, 0.09921462833881378, 0.11742377281188965, -0.061002250760793686, -0.10826294869184494, 0.07711334526538849, 0.015161443501710892, 0.03990994766354561, 0.05044084042310715, -0.1023310050368309, -0.015843043103814125, -0.08508892357349396, -0.12275140732526779], [0.08499068021774292, -0.06444807350635529, 0.06416238099336624, -0.12484084069728851, -0.06336371600627899, -0.032550979405641556, -0.1614542305469513, 0.02935921959578991, -0.12611636519432068, 0.1270691454410553, -0.03108367882668972, 0.1307038813829422, -0.1474260538816452, -0.01043606549501419, 0.11587917804718018, -0.046863798052072525, 0.1619725078344345, -0.012055895291268826, 0.05552973598241806, 0.09404633194208145, -0.11821018904447556, 0.15975651144981384, 0.1163313090801239, -0.03430795669555664, 0.023793434724211693, 0.012438609264791012, -0.016321219503879547, -0.11126592755317688, 0.04798977077007294, -0.09784887731075287, 0.09361274540424347, 0.16330955922603607], [-0.15701079368591309, 0.15205341577529907, 0.16771571338176727, 0.15998880565166473, 0.12390104681253433, -0.1286744326353073, -0.10879180580377579, 0.0002731537097133696, 0.09085716307163239, 0.05237055569887161, 0.004173401743173599, -0.0489949956536293, 0.10313902795314789, -0.03074778988957405, 0.06977547705173492, -0.052476514130830765, 0.04154760390520096, -0.023987499997019768, 0.12449656426906586, -0.023153770714998245, 0.16179056465625763, -0.06773773580789566, 0.10661234706640244, 0.04288133978843689, -0.030014393851161003, -0.06131502240896225, 0.1550721675157547, -0.1078115925192833, 0.08614413440227509, -0.12326998263597488, -0.1520407348871231, 0.024069011211395264], [-0.0903308317065239, -0.15838561952114105, -0.05152015760540962, 0.0554831437766552, 0.1429593414068222, -0.10782777518033981, 0.1320362538099289, 0.06740204244852066, 0.0583866611123085, -0.1269361972808838, 0.16338136792182922, 0.1491456776857376, 0.03732489049434662, -0.035511963069438934, 0.026336047798395157, 0.13262777030467987, -0.15933860838413239, 0.16129525005817413, -0.06393122673034668, 0.06409250199794769, 0.08125878870487213, 0.15766863524913788, -0.175165057182312, 0.14527955651283264, -0.013151544146239758, -0.037103768438100815, 0.040555741637945175, 0.10837861895561218, -0.00988524779677391, -0.08661575615406036, 0.11528800427913666, -0.0051308730617165565], [0.04939783364534378, 0.08108700811862946, 0.09504879266023636, 0.10266426205635071, 0.13720422983169556, 0.09504792839288712, -0.07952985167503357, -0.14524932205677032, -0.1297110915184021, 0.06397389620542526, -0.008032791316509247, -0.005828466732054949, -0.02403418719768524, -0.025383086875081062, 0.12499301135540009, 0.1535494178533554, 0.056458570063114166, -0.07870641350746155, 0.08537176996469498, 0.13201813399791718, -0.011036775074899197, -0.04446469247341156, 0.17137457430362701, -0.08059732615947723, -0.14475508034229279, 0.13815626502037048, 0.12178247421979904, -0.0928414911031723, -0.017876019701361656, -0.1556641310453415, -0.1514965444803238, 0.14236904680728912], [-0.055854056030511856, 0.05073182284832001, -0.07892431318759918, 0.07730107009410858, -0.07999338954687119, 0.09557035565376282, -0.11241942644119263, -0.018831275403499603, 0.16227099299430847, 0.13597220182418823, 0.15493617951869965, 0.05669530853629112, -0.07612951099872589, -0.042012713849544525, -0.030642865225672722, -0.04511187970638275, -0.07805701345205307, 0.07144571095705032, -0.045302171260118484, 0.016281496733427048, -0.046576883643865585, -0.12341779470443726, -0.11710592359304428, -0.10684149712324142, -0.15549077093601227, -0.17336726188659668, 0.008032494224607944, -0.05159119889140129, -0.061957910656929016, 0.10226269066333771, -0.03920847550034523, 0.05681668967008591], [-0.05700360983610153, -0.04174679145216942, 0.134463831782341, 0.07590050995349884, 0.08818721771240234, 0.09735260158777237, 0.04963004216551781, 0.1069529578089714, 0.10949190706014633, -0.08114393800497055, -0.02738855965435505, 0.12961068749427795, 0.008581920526921749, -0.15775975584983826, 0.13361425697803497, 0.0027432118076831102, -0.017655672505497932, -0.11409111320972443, 0.0148919140920043, -0.14980627596378326, -0.07368940114974976, -0.006989085115492344, -0.07732187211513519, -0.11066761612892151, -0.1512419432401657, 0.15399804711341858, 0.09442541748285294, -0.13239730894565582, -0.11186167597770691, 0.0664634108543396, 0.1486509144306183, -0.01018326822668314], [-0.05346142128109932, 0.03193793445825577, -0.11704356968402863, -0.05009188503026962, -0.05884161591529846, 0.10701750218868256, 0.1048181802034378, -0.15386749804019928, -0.037663497030735016, -0.12104686349630356, 0.15379025042057037, -0.011029282584786415, -0.01074980664998293, 0.04026530683040619, 0.15868909657001495, -0.08509404212236404, 0.008577578701078892, 0.05822471156716347, 0.12807230651378632, 0.033216290175914764, 0.07707996666431427, -0.0843401849269867, 0.01226032804697752, 0.16603615880012512, -0.1400734931230545, 0.08452139049768448, -0.12085065245628357, -0.06853701174259186, 0.04136592894792557, -0.04430057108402252, -0.11360885202884674, -0.02698066271841526], [-0.006409081630408764, -0.15485034883022308, -0.13894954323768616, 0.08233930170536041, -0.01078086905181408, -0.07495414465665817, 0.12782426178455353, -0.11856180429458618, 0.0472392812371254, -0.025023173540830612, 0.16726090013980865, -0.16030514240264893, -0.05011801794171333, 0.09159649908542633, -0.08245805650949478, -0.08064405620098114, 0.008217117749154568, -0.08867136389017105, 0.13810981810092926, 0.04927767440676689, -0.15227310359477997, 0.09450201690196991, 0.17411884665489197, 0.060662318021059036, 0.061816297471523285, -0.12759196758270264, 0.13356588780879974, 0.09363240748643875, -0.06200355663895607, -0.0006611154531128705, -0.02293972857296467, 0.06345460563898087], [0.027257103472948074, -0.16923817992210388, -0.15486164391040802, 0.12846489250659943, 0.03140660747885704, 0.006695532705634832, 0.1476493924856186, -0.09811467677354813, -0.06691189110279083, -0.1218172237277031, 0.051583148539066315, -0.1379110962152481, -0.0076023852452635765, 0.1225753203034401, 0.06155397370457649, 0.014295494183897972, -0.006159550976008177, -0.004057013429701328, -0.14140640199184418, 0.05588391795754433, -0.0627540647983551, -0.0025010360404849052, 0.10632294416427612, 0.09790980070829391, 0.025237679481506348, 0.14969909191131592, -0.023754701018333435, -0.09366949647665024, -0.06835752725601196, -0.11105173826217651, 0.11122021824121475, 0.06593075394630432], [0.13820040225982666, 0.008126333355903625, -0.03478282317519188, -0.06414511799812317, -0.0004425208317115903, 0.053821757435798645, 0.005821301601827145, -0.027313750237226486, -0.06484043598175049, -0.10709349811077118, 0.08985181152820587, 0.0636644959449768, -0.045239076018333435, -0.15174388885498047, -0.07747602462768555, -0.12049777805805206, -0.1215282678604126, -0.04875831678509712, -0.032684143632650375, 0.14680756628513336, 0.052001308649778366, 0.12917748093605042, -0.1446928083896637, -0.16621126234531403, 0.1053144559264183, 0.16163097321987152, 0.07716862112283707, -0.0576946921646595, -0.012686221860349178, -0.15205882489681244, 0.16034041345119476, -0.13367053866386414], [0.05808354169130325, 0.043399956077337265, 0.06704358011484146, 0.007423092611134052, 0.16404080390930176, 0.13206876814365387, 0.08796834945678711, 0.08990034461021423, 0.06166990101337433, 0.08921920508146286, -0.14499999582767487, 0.09447011351585388, -0.1033400222659111, -0.14652256667613983, -0.020959900692105293, -0.07337995618581772, 0.09292149543762207, 0.06881406158208847, -0.10543128848075867, -0.0014521274715662003, -0.06809210777282715, 0.07254690676927567, 0.1292000263929367, -0.15420755743980408, -0.16140535473823547, -0.07886280119419098, -0.045776303857564926, -0.09663829952478409, 0.1218118891119957, -0.11490358412265778, -0.013962197117507458, -0.07473337650299072], [-0.05258653685450554, -0.07962673157453537, 0.13648416101932526, 0.14267472922801971, 0.006941901985555887, 0.006421409547328949, -0.01702817901968956, -0.07876543700695038, 0.06868652999401093, 0.0923648253083229, 0.002401036908850074, -0.05960594862699509, 0.08011017739772797, -0.07121297717094421, 0.027839235961437225, 0.04612542688846588, 0.15445692837238312, 0.1318937987089157, -0.17638882994651794, 0.11710020899772644, -0.018066082149744034, 0.13236044347286224, -0.06211031973361969, -0.11679243296384811, -0.12765485048294067, -0.11358212679624557, -0.14223240315914154, 0.039677008986473083, -0.06524068117141724, 0.07148297131061554, -0.0701662227511406, -0.15996192395687103], [0.16117249429225922, 0.07354453951120377, 0.013798266649246216, -0.10383828729391098, -0.03253026306629181, 0.0339498333632946, 0.011895294301211834, -0.007055424619466066, 0.13845066726207733, 0.07951289415359497, -0.043479278683662415, 0.062370359897613525, -0.17414692044258118, 0.0873575210571289, -0.16771867871284485, 0.0679955706000328, 0.06511896848678589, -0.1330103576183319, 0.11962508410215378, 0.017446182668209076, -0.13795483112335205, 0.09546931087970734, -0.09046810120344162, 0.016423340886831284, 0.08389485627412796, 0.13930314779281616, -0.09577573835849762, -0.054024841636419296, 0.12890860438346863, -0.001050194026902318, 0.04221396520733833, -0.09711913019418716], [-0.10386376082897186, -0.036655306816101074, -0.1628883183002472, -0.17059604823589325, -0.05589365214109421, 0.13777121901512146, -0.14411871135234833, -0.048178303986787796, 0.030354473739862442, -0.1481146216392517, 0.034925978630781174, -0.14174921810626984, -0.15997351706027985, 0.07138091325759888, -0.09519007056951523, -0.12271459400653839, -0.079927958548069, -0.1479928344488144, 0.10901256650686264, -0.09171805530786514, 0.16331103444099426, -0.1738707572221756, -0.1079687550663948, 0.05889704450964928, 0.06407787650823593, -0.005326265934854746, -0.030567970126867294, 0.13403381407260895, -0.11347123235464096, 0.16494150459766388, -0.10287120938301086, -0.03542465716600418], [-0.08991441875696182, 0.0007440182962454855, 0.13379116356372833, -0.15095339715480804, 0.062120597809553146, -0.13645754754543304, -0.11405292898416519, -0.03801342099905014, 