{"lstm.weight_ih_l0": [[0.15519234538078308, 0.1389605551958084, 0.12907369434833527, -0.03572465851902962, -0.010160109028220177, -0.15387879312038422, -0.06981231272220612, -0.09734492748975754, 0.0895584300160408, 0.034010861068964005, -0.046041153371334076, 0.04273323714733124, 0.16110557317733765, -0.173310786485672, 0.16520972549915314, 0.013522647321224213, -0.11583288013935089], [-0.096340611577034, -0.021659519523382187, -0.08623131364583969, -0.0073470366187393665, 0.09178958088159561, 0.12409447133541107, 0.12467341870069504, -0.089666947722435, 0.0734015628695488, -0.006228161044418812, -0.08436594903469086, 0.12208013981580734, 0.05380309745669365, -0.14955812692642212, -0.022476613521575928, -0.03746775537729263, -0.1350995898246765], [-0.039587438106536865, -0.14398331940174103, -0.050070516765117645, 0.14538493752479553, 0.16963016986846924, 0.010810877196490765, -0.1595410406589508, 0.16832347214221954, -0.01775992289185524, -0.11688311398029327, -0.03237170726060867, -0.07379451394081116, -0.13028623163700104, 0.13396839797496796, 0.17471611499786377, -0.0574265755712986, -0.07773786038160324], [0.017704900354146957, -0.14572274684906006, 0.038324929773807526, 0.04964999854564667, 0.032736487686634064, -0.15899237990379333, -0.11731280386447906, -0.11361521482467651, -0.1608254313468933, -0.08248546719551086, -0.07508648186922073, -0.08862580358982086, -0.04494630545377731, 0.018662413582205772, -0.03900861367583275, -0.10487613081932068, -0.059465114027261734], [-0.053381554782390594, 0.10650984942913055, 0.08237169682979584, 0.06954573094844818, 0.09519074112176895, 0.0742938295006752, 0.03252284601330757, -0.06278186291456223, 0.1373143196105957, -0.12851831316947937, -0.0382809080183506, 0.10734686255455017, -0.1010991632938385, 0.004511251114308834, 0.12863942980766296, -0.11854534596204758, -0.08007049560546875], [0.09821344912052155, 0.10058176517486572, -0.011036552488803864, -0.09389699995517731, -0.020335601642727852, 0.02129884622991085, -0.09379292279481888, 0.0934164896607399, 0.10043936967849731, -0.07402724772691727, -0.05562553554773331, -0.15444782376289368, -0.0024696155451238155, -0.10187000781297684, -0.1263323873281479, -0.0934317409992218, -0.16650009155273438], [-0.07100020349025726, 0.16841506958007812, 0.09733129292726517, 0.09125091880559921, 0.0545789860188961, -0.04960376396775246, 0.04268620163202286, -0.14152395725250244, -0.0601002462208271, 0.13785994052886963, -0.013493144884705544, -0.09520144760608673, 0.16485752165317535, -0.018429363146424294, 0.1537296324968338, 0.0421178936958313, -0.07437136024236679], [-0.04383675009012222, 0.15472249686717987, -0.05424093082547188, -0.11711923778057098, 0.05099146440625191, -0.027366749942302704, 0.01963052898645401, 0.002378469565883279, 0.0689372792840004, 0.015015636570751667, -0.0642019659280777, 0.10173121839761734, 0.08282923698425293, 0.004785669036209583, 0.011665362864732742, 0.021591508761048317, -0.02120525948703289], [0.173747256398201, 0.07084518671035767, 0.14867258071899414, 0.11650107055902481, -0.04528295248746872, 0.018801182508468628, -0.008184454403817654, -0.14604230225086212, -0.102236807346344, 0.1560906171798706, 0.16020283102989197, -0.15017813444137573, -0.1105043962597847, -0.1551809012889862, -0.03157226741313934, -0.08524686843156815, 0.13799086213111877], [-0.07393589615821838, -0.07962380349636078, 0.060569360852241516, -0.10954692959785461, -0.11859623342752457, 0.09481624513864517, 0.02162535861134529, -0.013161785900592804, -0.011410689912736416, 0.08838839083909988, 0.10309312492609024, -0.1058073416352272, -0.17447277903556824, -0.017083298414945602, -0.11989340931177139, -0.08092276751995087, -0.06487253308296204], [0.13613460958003998, -0.02085655741393566, 0.0169510617852211, 0.008537392131984234, 0.13005565106868744, -0.010313291102647781, -0.04018307849764824, -0.015439001843333244, -0.13959547877311707, -0.1340838074684143, 0.02045281231403351, -0.09831976890563965, -0.07562010735273361, 0.09186483174562454, 0.10568296909332275, 0.055635884404182434, -0.07432910799980164], [0.13176269829273224, -0.004427399951964617, -0.026394758373498917, -0.1452419012784958, -0.14117708802223206, 0.02741144597530365, -0.01364717073738575, -0.16026441752910614, -0.14363634586334229, -0.10585178434848785, -0.013781998306512833, 0.05055798962712288, -0.028603484854102135, -0.15026259422302246, -0.046378497034311295, -0.05680929496884346, 0.10868550837039948], [0.008052387274801731, -0.061799101531505585, -0.15580520033836365, 0.11319848895072937, 0.10837198048830032, -0.05911143869161606, -0.037306513637304306, -0.1649124026298523, -0.08941582590341568, 0.1646449714899063, 0.174076110124588, 0.10687867552042007, 0.07600907981395721, 0.010317000560462475, -0.005477172322571278, 0.04838963970541954, 0.014299624599516392], [-0.041372209787368774, -0.0534537099301815, 0.027928566560149193, 0.020215483382344246, 0.01716805435717106, 0.11854609847068787, -0.04257156327366829, 0.15959298610687256, -0.09922449290752411, -0.07397060841321945, 0.13169610500335693, -0.12600818276405334, -0.1302158087491989, 0.1513431966304779, 0.11277306079864502, 0.158872589468956, 0.05744335055351257], [0.19529518485069275, -0.11662101000547409, 0.09536942094564438, 0.12439943850040436, -0.15824198722839355, -0.13671931624412537, -0.1865662932395935, 0.04483262822031975, 0.031640827655792236, 0.022594178095459938, -0.10444033145904541, -0.036747824400663376, 0.04812584072351456, 0.1125265583395958, 0.1487675905227661, -0.039720769971609116, 0.005962473340332508], [0.16260722279548645, -0.13849417865276337, 0.1610783189535141, 0.0496540442109108, 0.09246654063463211, 0.04518276825547218, -0.004493359941989183, -0.045952413231134415, -0.036413926631212234, -0.13730740547180176, 0.15981905162334442, 0.12260180711746216, 0.16381412744522095, -0.10180588066577911, -0.1509385108947754, -0.016668763011693954, -0.16803045570850372], [0.12234126031398773, 0.14495666325092316, -0.03063017874956131, 0.09374645352363586, -0.017799794673919678, 0.11442915350198746, -0.0027058066334575415, -0.10342153906822205, 0.061916545033454895, -0.05979716777801514, 0.002432716079056263, 0.00993706751614809, 0.0049833799712359905, 0.1314418762922287, 0.08083543926477432, -0.056351158767938614, -0.13858507573604584], [0.01893240585923195, -0.06439406424760818, -0.052306704223155975, 0.0009549421956762671, 0.04261718690395355, 0.1086718738079071, 0.06160729005932808, 0.08134099096059799, -0.16158953309059143, -0.11143658310174942, 0.10167007893323898, 0.17043370008468628, -0.10979864746332169, -0.12018858641386032, -0.04586167261004448, 0.15540120005607605, -0.060645900666713715], [-0.10683991760015488, 0.10327840596437454, 0.13622257113456726, 0.09210856258869171, 0.001962631242349744, 0.1549721509218216, 0.04065552353858948, -0.12609075009822845, 0.06594890356063843, -0.15110370516777039, -0.016355358064174652, -0.10395507514476776, 0.03865635022521019, 0.09576402604579926, 0.03183402121067047, 0.007959600538015366, 0.10811690986156464], [-0.042034443467855453, 0.14237482845783234, 0.15317308902740479, 0.04062781110405922, 0.03662906587123871, -0.10543365031480789, 0.044952161610126495, 0.12433874607086182, 0.1340354084968567, -0.12991294264793396, 0.08037513494491577, 0.13940340280532837, 0.14316658675670624, 0.09427540004253387, -0.09876829385757446, 0.12435724586248398, 0.08281482756137848], [0.11150538921356201, -0.028179235756397247, -0.015447578392922878, 0.030930517241358757, 0.044956084340810776, -0.14319661259651184, -0.17609085142612457, -0.10051479190587997, 0.007035552058368921, 0.0108331935480237, 0.005538707133382559, 0.06931169331073761, 0.09055686742067337, 0.011422470211982727, 0.06934281438589096, 0.09403760731220245, 0.015585820190608501], [0.079438716173172, 0.176200270652771, -0.0785139724612236, -0.03382659703493118, -0.017149994149804115, -0.07464853674173355, -0.11560003459453583, 0.04060284048318863, 0.012033093720674515, 0.17321601510047913, 0.15448467433452606, -0.14765553176403046, -0.09593762457370758, 0.08459561318159103, -0.16968879103660583, -0.1462312489748001, 0.14412333071231842], [-0.13219355046749115, -0.006102041807025671, 0.03887058421969414, 0.17431272566318512, 0.030473288148641586, -0.021821046248078346, 0.16522769629955292, -0.17518000304698944, -0.033144511282444, 0.16399997472763062, 0.06296171993017197, 0.019542271271348, -0.08938808739185333, -0.08109390735626221, 0.01703040301799774, 0.07065221667289734, 0.03146219998598099], [-0.06977827847003937, 0.051236193627119064, -0.15313009917736053, -0.0309815164655447, -0.17022603750228882, 0.16968712210655212, -0.1048509031534195, 0.0990729108452797, 0.1754557490348816, -0.07809703052043915, 0.004543493501842022, -0.018143100664019585, -0.033007536083459854, -0.06588186323642731, -0.0088533665984869, -0.07603590935468674, 0.13239359855651855], [-0.05121436342597008, -0.050695471465587616, 0.16980969905853271, -0.04427901282906532, -0.03220796957612038, 0.1638474315404892, -0.040565624833106995, -0.02856900915503502, 0.13194188475608826, -0.0026776946615427732, 0.06991154700517654, -0.15230801701545715, 0.1702962964773178, -0.006987019907683134, 0.07517337054014206, -0.11917369067668915, 0.11997125297784805], [-0.14947468042373657, 0.017935654148459435, 0.01616152562201023, -0.11170084029436111, 0.055882588028907776, -0.15248484909534454, -0.11996904015541077, -0.11179225891828537, -0.03191102296113968, 0.07102455943822861, 0.07822436094284058, -0.06655173003673553, -0.1310211718082428, 0.029443196952342987, 0.1178741306066513, 0.1641470342874527, 0.12506148219108582], [-0.09040538966655731, -0.14225125312805176, 0.07814211398363113, -0.13011197745800018, 0.1592707484960556, -0.11433984339237213, -0.03515247255563736, -0.1563023179769516, 0.0021509251091629267, 0.06861376017332077, 0.016903458163142204, 0.08597101271152496, -0.0017344090156257153, 0.06896893680095673, -0.11082524061203003, -0.10216115415096283, -0.13784493505954742], [0.19498278200626373, -0.04412473738193512, 0.052217572927474976, -0.036816973239183426, -0.08875078707933426, -0.12100709229707718, -0.19233034551143646, 0.17609594762325287, -0.032183241099119186, 0.14496542513370514, -0.05929453298449516, -0.01134540606290102, 0.135566845536232, 0.0005516835954040289, 0.048408087342977524, -0.053737182170152664, 0.07335769385099411], [0.037819068878889084, 0.11016232520341873, -0.17039360105991364, -0.0749138668179512, -0.019526582211256027, 0.1394950896501541, -0.0267218966037035, 0.14446569979190826, -0.11906418949365616, -0.12755964696407318, 0.09349175542593002, -0.028267517685890198, 0.0086874570697546, -0.0847185030579567, 0.060866206884384155, 0.15419137477874756, 0.08689598739147186], [0.005636592861264944, -0.16147971153259277, -0.12181823700666428, 0.028305675834417343, 0.10203509777784348, -0.11760542541742325, -0.032689981162548065, -0.0623236820101738, -0.10322850197553635, -0.11408532410860062, -0.1286476105451584, 0.14019937813282013, -0.1539989709854126, 0.09514930844306946, -0.01465568132698536, 0.06048978865146637, 0.16207271814346313], [-0.06954143196344376, -0.08659011125564575, -0.11638344079256058, -0.10884317755699158, 0.09532548487186432, 0.11100862175226212, 0.15876902639865875, 0.02233879826962948, -0.11908779293298721, 0.1658785343170166, 0.14366284012794495, -0.10082969814538956, -0.002046229550614953, 0.14277368783950806, 0.09172572195529938, 0.1653333455324173, 0.06102652847766876], [0.08907382190227509, -0.042932379990816116, -0.05763861536979675, 0.1256536990404129, 0.036373887211084366, -0.08258579671382904, -0.08099459111690521, 0.06836368143558502, 0.04968927800655365, 0.03663789480924606, 0.17658835649490356, 0.09603115171194077, 0.16207318007946014, -0.007632351480424404, 0.06103101745247841, 0.09075208753347397, -0.11459116637706757], [0.1647740751504898, -0.007996584288775921, 0.08749112486839294, -0.016477858647704124, 0.1763731837272644, 0.08794622868299484, 0.15293429791927338, -0.14339248836040497, -0.1159515380859375, -0.00594692025333643, -0.09988705813884735, -0.10004346817731857, 0.06866328418254852, -0.15340565145015717, 0.10306622087955475, -0.043539971113204956, -0.1754097193479538], [-0.016637852415442467, 0.0791865810751915, 0.10249365121126175, -0.120247483253479, 0.014695855788886547, -0.021026812493801117, 0.1325853168964386, -0.08876758068799973, 0.0329618938267231, 0.03697299212217331, -0.1210438534617424, 0.04838069900870323, 0.03000032529234886, 0.044331781566143036, 0.057159412652254105, -0.09785780310630798, 0.135853111743927], [0.0927848070859909, -0.07485425472259521, -0.09939897805452347, 0.1507430076599121, 0.07048474252223969, -0.074858658015728, -0.008382354862987995, 0.02236318029463291, 0.038524601608514786, 0.14751891791820526, 0.17335961759090424, -0.04202013462781906, -0.04023692011833191, 0.010777750052511692, 0.14221157133579254, -0.08867654949426651, -0.02009161375463009], [0.17579413950443268, -0.05415469408035278, 0.1166018694639206, -0.019092142581939697, 0.024413688108325005, -0.023374073207378387, -0.05535491183400154, 0.08457017689943314, 0.102131187915802, 0.1309211701154709, 0.10055778175592422, 0.01160888560116291, 0.16759733855724335, 0.09678053855895996, -0.033646270632743835, -0.1584094762802124, -0.10186545550823212], [-0.16512921452522278, -0.1370895355939865, 0.05643051862716675, 0.12632723152637482, 0.1082514151930809, 0.11620762944221497, 0.17080233991146088, 0.022952372208237648, 0.05527249351143837, 0.13604561984539032, 0.15097194910049438, -0.0027931558433920145, 0.0113925039768219, 0.012645634822547436, -0.049893416464328766, 0.10932675004005432, -0.10449443012475967], [0.1604280173778534, -0.07576663047075272, 0.010157642886042595, 0.039518631994724274, 0.10066842287778854, 0.03342027962207794, -0.10570275783538818, -0.012392100878059864, -0.022854506969451904, -0.024396175518631935, -0.0003578267351258546, 0.08586682379245758, 0.022339852526783943, 0.10746950656175613, 0.1554751694202423, -0.06459520757198334, 0.06134086102247238], [0.11608175188302994, 0.10615400224924088, 0.006019181106239557, -0.011877614073455334, 0.07377105951309204, -0.06536462157964706, 0.037066973745822906, 0.11383777111768723, 0.04873069003224373, -0.026287494227290154, -0.09033569693565369, 0.07613825798034668, -0.16428478062152863, 0.15397320687770844, -0.12428884208202362, -0.039729051291942596, 0.01239916030317545], [-0.01661105453968048, 0.04093553125858307, -0.10674776881933212, 0.16980315744876862, 0.026638265699148178, -0.05779831111431122, -0.05245938152074814, -0.05936012044548988, 0.11267095804214478, -0.1275329738855362, -0.10641645640134811, -0.1450129747390747, -0.12261112779378891, 0.11713851988315582, -0.047738369554281235, 0.15996266901493073, -0.0021779064554721117], [0.14175981283187866, -0.07195476442575455, -0.04156083986163139, -0.033862315118312836, 0.011152329854667187, 0.16624948382377625, 0.15537753701210022, 0.06294785439968109, 0.16568149626255035, 0.05576430633664131, -0.05508219823241234, -0.1453189104795456, 0.16107390820980072, -0.12288642674684525, -0.04365376755595207, -0.01520675141364336, -0.06858472526073456], [-0.029815712943673134, 0.12831149995326996, 0.05031547695398331, 0.12490879744291306, -0.10052885115146637, 0.03297324851155281, -0.09236110746860504, 0.08150173723697662, 0.048969537019729614, 0.023558232933282852, 0.15948329865932465, -0.09798402339220047, -0.069084033370018, -0.1284758597612381, 0.15092937648296356, 0.08709905296564102, 0.1204807460308075], [0.08597200363874435, 0.11974450200796127, -0.12608475983142853, 0.0018526911735534668, -0.17459315061569214, -0.0671239122748375, -0.02160894125699997, 0.027802694588899612, -0.09288197755813599, 0.04606890678405762, 0.13289818167686462, 0.07826320081949234, -0.17263373732566833, -0.07147032767534256, -0.13388095796108246, 0.10069200396537781, 0.0056560649536550045], [0.07718466222286224, -0.08084037154912949, -0.1196657344698906, -0.029762692749500275, 0.012064577080309391, -0.08851876854896545, 0.10508372634649277, 0.15424376726150513, 0.043740082532167435, -0.0037973676808178425, -0.012893774546682835, -0.03841714560985565, -0.042046137154102325, 0.06242359057068825, 0.14795060455799103, 0.030803339555859566, -0.04985557124018669], [-0.07388254255056381, -0.008560257032513618, -0.010174606926739216, 0.020249515771865845, 0.1028069481253624, 0.045610539615154266, -0.11700603365898132, 0.1019197627902031, -0.1738886684179306, 0.040549375116825104, -0.12349146604537964, -0.05115634948015213, 0.12154611200094223, 0.0347374752163887, -0.07959095388650894, 0.03747181221842766, 0.04720088839530945], [-0.08202149718999863, -0.10673809051513672, 0.06426991522312164, 0.14263610541820526, -0.05033579096198082, -0.1766214668750763, 0.07435203343629837, 0.014856215566396713, -0.0730598121881485, -0.02326446957886219, 0.11114633828401566, -0.14899221062660217, 0.0970100536942482, 0.10318878293037415, -0.02500462904572487, 0.07398609071969986, 0.16058924794197083], [0.21141734719276428, -0.2437291294336319, 0.09732165187597275, 0.18240146338939667, 0.11624022573232651, -0.08657410740852356, -0.06091627478599548, -0.04706472158432007, 0.14926116168498993, 0.03391183912754059, 0.008524179458618164, -0.019908759742975235, -0.08823176473379135, -0.09700465202331543, -0.17592862248420715, -0.0739421620965004, -0.14069432020187378], [0.12201113998889923, -0.03946622461080551, -0.004101309925317764, 0.06426570564508438, 0.15144945681095123, -0.0015261794906109571, 0.011760888621211052, -0.03145252913236618, 0.0863521471619606, -0.04893594607710838, 0.027149714529514313, -0.05685047060251236, 0.15944308042526245, -0.1667507141828537, -0.09365014731884003, -0.15351468324661255, -0.014416012912988663], [0.028392329812049866, -0.039073772728443146, -0.14975546300411224, -0.00503222830593586, -0.16590963304042816, -0.050306349992752075, -0.08454986661672592, 0.13195006549358368, -0.06301183253526688, 0.12324100732803345, -0.1660182923078537, -0.02961564250290394, -0.16520962119102478, 0.024094130843877792, -0.0813978910446167, 0.03231519088149071, 0.12056010961532593], [0.040828537195920944, -0.06583044677972794, 0.14252443611621857, 0.05884060263633728, 0.08426185697317123, -0.15361149609088898, 0.15166796743869781, -0.17403081059455872, -0.1110289990901947, -0.16740450263023376, 0.026256853714585304, -0.16782531142234802, 0.14733852446079254, 0.058187052607536316, 0.07550974190235138, 0.08608837425708771, 0.058778394013643265], [-0.1517520397901535, 0.08384153991937637, -0.1165781244635582, 0.1555071473121643, -0.04398417845368385, 0.07865728437900543, -0.02718120813369751, 0.1628015786409378, 0.010205389000475407, -0.09413620084524155, 0.06085639446973801, 0.11018320173025131, 0.03183035925030708, -0.08319150656461716, -0.1787344515323639, 0.11648745089769363, -0.13786418735980988], [0.06664712727069855, -0.15592963993549347, -0.14408476650714874, -0.10277923941612244, 0.06196246296167374, 0.14126494526863098, 0.09109476208686829, -0.051840201020240784, -0.14519190788269043, -0.17020127177238464, 0.14878486096858978, -0.032974787056446075, -0.07784613221883774, 0.14037711918354034, -0.004586862400174141, 0.16581137478351593, -0.03146245330572128], [0.166207417845726, -0.17188076674938202, -0.007568562403321266, -0.07702507078647614, 0.1691250205039978, 0.032819222658872604, -0.08026275038719177, -0.11841841787099838, -0.002511067083105445, -0.16942055523395538, 0.033259257674217224, -0.08610676974058151, 0.1171734631061554, 0.15623986721038818, -0.050744909793138504, 0.01745631732046604, -0.12619593739509583], [-0.07111246138811111, -0.16643664240837097, 0.0034357267431914806, 0.17344795167446136, -0.17651687562465668, -0.09731938689947128, -0.09993894398212433, -0.018520904704928398, -0.1448470801115036, 0.11900204420089722, -0.0322100967168808, -0.1173139363527298, -0.04992546886205673, -0.14150294661521912, 0.14697392284870148, 0.16688376665115356, 0.17086641490459442], [-0.05168204382061958, -0.027255691587924957, 0.009138047695159912, 0.07506279647350311, 0.17038705945014954, 0.14148734509944916, -0.1689411699771881, 0.10679720342159271, -0.08573537319898605, -0.08087655901908875, 0.10553153604269028, 0.10319777578115463, 0.04895465821027756, -0.042568717151880264, 0.14412350952625275, 0.1251133382320404, -0.07670518010854721], [0.03213119879364967, -0.09587430208921432, 0.15055176615715027, -0.01784832589328289, 0.13946537673473358, 0.07064563781023026, -0.17643171548843384, -0.06475774943828583, -0.016384566202759743, 0.12501151859760284, -0.08835878223180771, 0.03979528695344925, 0.031522028148174286, 0.12185993790626526, 0.08825497329235077, -0.11112739145755768, 0.015054390765726566], [-0.003966695163398981, -0.016621975228190422, 0.0063587818294763565, -0.1634613275527954, 0.09938820451498032, -0.057515062391757965, 0.005971707869321108, 0.13527196645736694, 0.022514304146170616, -0.08474481105804443, 0.10056793689727783, 0.17233818769454956, -0.03435052931308746, -0.06308767944574356, -0.17266149818897247, -0.07910371571779251, 0.03561193495988846], [-0.07512709498405457, -0.12512411177158356, 0.05471571162343025, 0.05478738248348236, 0.15831513702869415, 0.024303579702973366, -0.05042792484164238, 0.09698162227869034, -0.06099323183298111, 0.07623886317014694, 0.09292224794626236, -0.15880683064460754, 0.11769985407590866, 0.011718361638486385, -0.08171346783638, 0.13798581063747406, -0.06433233618736267], [-0.14452828466892242, 0.17017388343811035, -0.1554563343524933, 0.0492909699678421, -0.05499725416302681, -0.03570990636944771, 0.11125343292951584, 0.16584348678588867, 0.14547833800315857, -0.008586577139794827, 0.10480420291423798, 0.16304461658000946, 0.05743230879306793, -0.016956645995378494, -0.08831948041915894, -0.14577342569828033, -0.15101586282253265], [-0.08562551438808441, 0.15587636828422546, 0.04121466353535652, -0.12670563161373138, 0.11431615799665451, -0.13234253227710724, 0.1503206044435501, 0.009248156100511551, -0.14804156124591827, -0.15938644111156464, 0.04241180419921875, -0.0822344422340393, -0.031035378575325012, 0.030439043417572975, 0.1548752337694168, 0.01134976651519537, -0.15219268202781677], [-0.004854552447795868, 0.1125059723854065, -0.15644195675849915, 0.1601465344429016, -0.12056486308574677, 0.07380998134613037, 0.08035788685083389, 0.020231835544109344, 0.01004124991595745, 0.0035661791916936636, 0.07629195600748062, 0.17239099740982056, 0.13450579345226288, -0.14726059138774872, 0.05361214652657509, -0.07974892854690552, -0.12179358303546906], [-0.1434510052204132, -0.052090153098106384, -0.13557171821594238, -0.11776860058307648, -0.12624302506446838, 0.06645084917545319, 0.07832751423120499, 0.07932300120592117, -0.04490780457854271, 0.17293475568294525, -0.07090722769498825, -0.1435672789812088, 0.03068370558321476, 0.07416308671236038, 0.06539525836706161, 0.1762363463640213, 0.017920060083270073], [-0.13083712756633759, -0.17368848621845245, -0.1617056280374527, -0.011424577794969082, -0.05168065428733826, -0.10054419189691544, -0.08461374044418335, -0.13699309527873993, -0.14549587666988373, 0.0019327490590512753, 0.16236698627471924, 0.11283090710639954, -0.14151233434677124, -0.1445058137178421, -0.039439670741558075, 0.10981523245573044, -0.07452549040317535], [0.02687506377696991, -0.08910728991031647, 0.07059234380722046, -0.10349611192941666, 0.14662538468837738, -0.017301829531788826, 0.09247878193855286, 0.12570928037166595, 0.0788159966468811, 0.13357551395893097, -0.006448299158364534, -0.15271078050136566, -0.022727245464920998, -0.14316900074481964, -0.006412390153855085, 0.01675368845462799, 0.13852104544639587], [-0.1698412150144577, 0.1435127556324005, -0.15875595808029175, -0.015121656470000744, -0.014359178021550179, -0.1342383772134781, -0.08498711884021759, -0.17211483418941498, -0.0019084514351561666, -0.010219682939350605, -0.08040402829647064, 0.021742356941103935, -0.009818551130592823, 0.14556773006916046, 0.1013222262263298, -0.12444522976875305, -0.13231311738491058], [0.18153788149356842, 0.03743312135338783, -0.11556325852870941, 0.16882555186748505, 0.038188692182302475, -0.02454499714076519, 0.025589851662516594, 0.17107979953289032, 0.17826320230960846, 0.11853911727666855, 0.00975121185183525, 0.043572623282670975, -0.01920684240758419, 0.11767168343067169, -0.1425027698278427, -0.11986995488405228, 0.013907059095799923], [-0.02387026697397232, -0.1305992752313614, -0.05035138502717018, 0.1669294387102127, 0.06177908182144165, 0.17499518394470215, -0.13577590882778168, 0.15705934166908264, -0.02121029607951641, -0.09585754573345184, 0.07696248590946198, -0.08365809917449951, 0.04951879382133484, 0.006466506514698267, 0.1724686324596405, -0.12398079037666321, -0.07511704415082932], [0.10319008678197861, 0.16042757034301758, -0.11299795657396317, 0.1479039490222931, 0.1046149879693985, -0.12199567258358002, -0.12154242396354675, 0.146810382604599, -0.06378740072250366, -0.00673673115670681, 0.16896644234657288, -0.113184854388237, -0.17307546734809875, -0.11483776569366455, 0.07362598925828934, 0.07773743569850922, -0.02094331569969654], [0.14887242019176483, -0.14896893501281738, 0.04893510416150093, 0.08372817188501358, 0.043245214968919754, 0.15357641875743866, 0.11432233452796936, 0.1244019865989685, 0.1223718523979187, -0.07576053589582443, 0.14949341118335724, -0.1422099769115448, 0.13864272832870483, 0.09084923565387726, 0.01488188374787569, 0.10060933232307434, 0.09156797081232071], [-0.1510941982269287, -0.030185867100954056, -0.13778924942016602, -0.04539375752210617, 0.09680275619029999, -0.10524027794599533, -0.10673008859157562, -0.03896821662783623, -0.04013652727007866, 0.07050976157188416, -0.09986484795808792, -0.0966842994093895, 0.14460311830043793, 0.029478201642632484, 0.05654283985495567, 0.023573216050863266, -0.13308051228523254], [-0.11517272144556046, 0.14002396166324615, 0.07579827308654785, -0.05977432429790497, -0.12432103604078293, 0.09556519240140915, 0.10053194314241409, 0.013809874653816223, 0.03013092465698719, 0.1423237919807434, 0.10518793761730194, -0.1111193597316742, -0.03659360483288765, 0.16904816031455994, 0.12122011929750443, -0.1412414163351059, -0.0022498418111354113], [0.07475580275058746, 0.15165899693965912, 0.03423719108104706, -0.16528387367725372, -0.08259684592485428, -0.0401163175702095, 0.08773007243871689, 0.12671995162963867, 0.1324191391468048, 0.14376315474510193, 0.07006784528493881, -0.09681683033704758, 0.15551461279392242, -0.16074243187904358, -0.13335749506950378, 0.1468355506658554, 0.08889347314834595], [0.13302788138389587, 0.06837784498929977, 0.11868596822023392, 0.09299400448799133, 0.12226973474025726, 0.12998299300670624, 0.033206235617399216, -0.16162005066871643, -0.03910844027996063, -0.12474077939987183, -0.05473048612475395, -0.02313600666821003, -0.11066154390573502, -0.11573781818151474, 0.10366453230381012, 0.07277721911668777, 0.1549462527036667], [-0.150979682803154, -0.0075204940512776375, -0.16999025642871857, -0.05017879232764244, -0.16856130957603455, 0.091568723320961, -0.13580650091171265, -0.15005597472190857, 0.09493040293455124, -0.08365308493375778, 0.05510607734322548, -0.06785871833562851, -0.06098431721329689, -0.025906255468726158, -0.00041934006731025875, 0.018346460536122322, -0.16355982422828674], [-0.02365405485033989, -0.05635825917124748, -0.1534556895494461, -0.07090023159980774, 0.005415722262114286, 0.09949001669883728, -0.012888168916106224, 0.17400623857975006, -0.01572682149708271, 0.09220919013023376, -0.17274169623851776, -0.12795297801494598, -0.10007478296756744, 0.15223993360996246, 0.06285146623849869, -0.12985733151435852, 0.15563838183879852], [-0.1714979112148285, 0.03984605148434639, 0.13484755158424377, 0.11421022564172745, 0.08294122666120529, -0.12512749433517456, -0.02677108719944954, -0.040502384305000305, 0.05503573268651962, 0.15304550528526306, -0.17325429618358612, -0.11920032650232315, -0.08423355221748352, 0.06392146646976471, 0.11084996163845062, 0.16775846481323242, 0.09430435299873352], [0.16264356672763824, -0.1625206470489502, 0.10040631145238876, -0.047913506627082825, -0.15066705644130707, 0.02374275214970112, -0.10359792411327362, -0.1505466252565384, -0.023140979930758476, -0.03393889591097832, -0.015041767619550228, 0.11625503748655319, -0.09191877394914627, -0.018841074779629707, 0.16890914738178253, -0.024835199117660522, -0.17357538640499115], [0.023480894044041634, 0.11226324737071991, -0.1445043683052063, -0.16070915758609772, -0.04312806949019432, -0.1021670550107956, -0.14518599212169647, 0.05443486571311951, -0.14350709319114685, -0.01700296625494957, 0.05063473805785179, 0.018415454775094986, -0.1515769511461258, -0.1120106652379036, 0.06988619267940521, 0.07025884091854095, -0.11589811742305756], [0.16022229194641113, 0.1690349131822586, 0.12656231224536896, 0.07580549269914627, 0.00278969993814826, 0.07111144810914993, 0.11977221816778183, -0.07079840451478958, -0.12260029464960098, -0.15741273760795593, -0.0018917613197118044, 0.15732921659946442, 0.15499995648860931, -0.1705140471458435, -0.11227145045995712, 0.12513898313045502, 0.07886402308940887], [-0.10335292667150497, -0.13809528946876526, -0.010715176351368427, -0.12970249354839325, -0.17127329111099243, -0.054037462919950485, -0.002961912890896201, 0.09427385777235031, 0.060579244047403336, -0.1264316588640213, 0.05650245398283005, -0.045652128756046295, 0.13147421181201935, -0.04989426210522652, 0.13677914440631866, -0.06736711412668228, -0.11135616898536682], [0.13379880785942078, 0.16672161221504211, 0.07373736798763275, -0.05342479795217514, 0.09239984303712845, 0.03526409715414047, -0.10445567220449448, -0.09504381567239761, 0.024690276011824608, 0.11420763283967972, 0.008790293708443642, 0.07377927750349045, -0.04835202172398567, -0.024198949337005615, 0.047297004610300064, 0.12429478764533997, -0.045116979628801346], [-0.0631994754076004, 0.011748497374355793, 0.09849153459072113, -0.012271749787032604, 0.10255571454763412, 0.11037351191043854, 0.1423153579235077, -0.08832000195980072, -0.176299586892128, -0.06560104340314865, -0.1342606544494629, -0.15415626764297485, -0.13244011998176575, 0.12596574425697327, 0.11228272318840027, -0.1767003834247589, 0.01500141154974699], [0.1600889265537262, 0.07710080593824387, 0.10810325294733047, 0.16811412572860718, 0.09641335904598236, -0.0635489746928215, 0.006783724762499332, 0.07467728108167648, 0.0990336462855339, -0.09534074366092682, 0.10745339095592499, -0.10239563882350922, 0.16558164358139038, 0.01315873023122549, -0.12940922379493713, 0.016849782317876816, -0.03382617607712746], [-0.0802752897143364, 0.002305811969563365, -0.05441086366772652, -0.057344600558280945, -0.0881282389163971, 0.08690711855888367, 0.11373065412044525, 0.08657149970531464, -0.07504326105117798, -0.055951185524463654, 0.04031284898519516, 0.08539425581693649, 0.15245956182479858, 0.09864364564418793, -0.1286820024251938, -0.10691826790571213, 0.12489233911037445], [-0.028149310499429703, -0.02255338989198208, 0.1102302297949791, 0.07716358453035355, 0.08126255869865417, -0.16312740743160248, 0.06486029177904129, 0.09757935255765915, -0.13931162655353546, 0.12171325087547302, -0.159867525100708, 0.027835484594106674, -0.018947431817650795, 0.0014666682109236717, -0.09396667033433914, -0.0019247833406552672, 0.05056709423661232], [-0.14697155356407166, 0.11221633851528168, 0.1579056978225708, -0.15527471899986267, 0.10988007485866547, 0.0604289285838604, 0.09291744977235794, 0.05670478940010071, -0.09926752001047134, -0.10761696100234985, -0.002996704075485468, -0.15989850461483002, -0.032197706401348114, 0.04092629626393318, 0.034743860363960266, -0.10192768275737762, 0.13770706951618195], [-0.0027846212033182383, 0.04127154126763344, 0.048973750323057175, 0.1059190109372139, 0.013946708291769028, -0.12830056250095367, -0.036596108227968216, -0.17521978914737701, -0.16278645396232605, 0.06607993692159653, 0.09546857327222824, 0.10752993077039719, -0.1657389998435974, 0.08236345648765564, 0.08628608286380768, 0.09615430235862732, 0.009431094862520695], [0.0724988579750061, 0.012166067026555538, 0.12068448215723038, 0.051699601113796234, 0.05422375351190567, -0.10102582722902298, -0.1296585351228714, 0.04678860679268837, -0.03380487114191055, 0.1258217841386795, -0.003501728642731905, 0.13043777644634247, 0.16395151615142822, -0.10198479145765305, 0.050519973039627075, -0.06241842731833458, 0.10991986095905304], [0.14530520141124725, 0.14241212606430054, 0.15880316495895386, -0.16352695226669312, -0.12868155539035797, -0.0009047453058883548, -0.12058638781309128, 0.05150945484638214, 0.13987284898757935, -0.07616175711154938, -0.03133441135287285, -0.07068188488483429, -0.17128047347068787, 0.04623502865433693, 0.056003447622060776, 0.17519040405750275, 0.009854291565716267], [-0.1340693086385727, -0.04951603338122368, 0.006127688102424145, -0.07595222443342209, 0.13191159069538116, -0.01935555972158909, 0.023625437170267105, 0.02300773188471794, -0.07212478667497635, 0.12962229549884796, -0.036429837346076965, 0.0010627959854900837, -0.13007983565330505, -0.004235631786286831, -0.007073126267641783, -0.032414402812719345, -0.04765274375677109], [-0.08460724353790283, -0.11374980956315994, -0.0066880094818770885, -0.12870115041732788, -0.030674055218696594, 0.08493407815694809, -0.04672157019376755, -0.037190020084381104, 0.04054564610123634, -0.0414016917347908, -0.17132842540740967, 0.08956947177648544, -0.026357943192124367, 0.12780088186264038, -0.0042265914380550385, -0.04812975972890854, -0.09363961219787598], [0.08360427618026733, 0.16291046142578125, -0.11488885432481766, 0.1711679846048355, 0.12775647640228271, -0.047662459313869476, -0.11960891634225845, 0.14071974158287048, -0.026934554800391197, -0.1350345015525818, -0.1429499238729477, -0.15302026271820068, -0.10041315853595734, -0.05543650686740875, -0.13257531821727753, 0.12550947070121765, -0.13171640038490295], [-0.12125677615404129, -0.14389777183532715, -0.09816951304674149, -0.10486316680908203, -0.10063330829143524, -0.010935105383396149, 0.027529645711183548, 0.07988930493593216, -0.09971489012241364, 0.15733212232589722, -0.002126371720805764, -0.04089814051985741, -0.08583814650774002, 0.12955071032047272, 0.12082023918628693, -0.016895638778805733, 0.12682993710041046], [-0.1270924061536789, 0.07049694657325745, -0.17194905877113342, -0.001157373539172113, -0.15719236433506012, 0.04732220619916916, -0.02244005724787712, 0.13839155435562134, -0.029402505606412888, 0.15291103720664978, -0.15880656242370605, 0.10899952799081802, 0.033170390874147415, -0.03758230060338974, -0.07510146498680115, -0.11337761580944061, 0.11017066240310669], [-0.040052276104688644, 0.13764315843582153, -0.004426388535648584, -0.037989504635334015, 0.054143864661455154, 0.1257709115743637, -0.0006450364599004388, -0.12007411569356918, -0.059445157647132874, 0.16992048919200897, 0.10640127956867218, -0.02636382356286049, 0.13626131415367126, -0.02832719124853611, -0.1413024663925171, -0.1479603499174118, -0.10037174820899963], [-0.052425872534513474, 0.03945712000131607, 0.017130691558122635, -0.1327398717403412, 0.038388993591070175, 0.04496033862233162, 0.047566574066877365, 0.15075838565826416, -0.004392017610371113, 0.041567686945199966, -0.022064169868826866, -0.020648350939154625, 0.020090265199542046, 0.023971062153577805, 0.11806794255971909, 0.12680433690547943, 0.12260094285011292], [0.08015304058790207, 0.09916190057992935, 0.07791422307491302, -0.10970133543014526, 0.040484871715307236, 0.03501895070075989, 0.15102353692054749, 0.1363084316253662, 0.11337649822235107, -0.09809132665395737, 0.12608389556407928, 0.13498802483081818, 0.11127471923828125, -0.015634668990969658, -0.044124189764261246, -0.01937117613852024, -0.024349961429834366], [0.17479941248893738, 0.0024857912212610245, -0.1501121073961258, 0.08937815576791763, -0.1417677402496338, 0.03473392501473427, -0.10262409597635269, 0.021200688555836678, 0.1504179686307907, 0.002306722104549408, 0.09320984035730362, -0.03351157158613205, -0.11813453584909439, 0.03116576001048088, 0.05761786550283432, 0.18019816279411316, -0.08536247164011002], [-0.027012020349502563, -0.0034842377062886953, 0.09990661591291428, 0.06415653973817825, -0.07989310473203659, -0.12965017557144165, -0.15913882851600647, 0.12376535683870316, 0.06564167141914368, -0.0030814192723482847, -0.10265707969665527, -0.17024114727973938, -0.02449585311114788, 0.0967525988817215, -0.15404272079467773, -0.11712119728326797, 0.07677888870239258], [0.058016568422317505, 0.0023054115008562803, 0.01205897144973278, 0.02000584453344345, 0.08398035168647766, 0.014936232008039951, 0.06549881398677826, -0.040030401200056076, 0.040721695870161057, 0.137924462556839, 0.11342892795801163, 0.02771296352148056, 0.02741174027323723, -0.06509175896644592, 0.06964614987373352, -0.07557511329650879, -0.16403384506702423], [0.03148727864027023, 0.14174452424049377, -0.005599567200988531, 0.11302214860916138, 0.023623161017894745, 0.16999566555023193, 0.11551081389188766, 0.053452927619218826, 0.08530008047819138, -0.04079142585396767, 0.006790847517549992, -0.012997202575206757, 0.030847804620862007, -0.005113971885293722, 0.07658402621746063, 0.1376611292362213, -0.12271634489297867], [0.07471101731061935, -0.035553839057683945, 0.050733573734760284, -0.05370941385626793, -0.07971926778554916, -0.12556596100330353, -0.003946841694414616, -0.07839693129062653, -0.05794854462146759, 0.008710889145731926, 0.08657371252775192, -0.06761148571968079, -0.07608907669782639, 0.023481041193008423, 0.01345951110124588, 0.07321398705244064, -0.1485540270805359], [-0.014448298141360283, -0.16465042531490326, 0.12946835160255432, -0.16278862953186035, -0.17661839723587036, 0.07683659344911575, -0.12470044195652008, 0.1403036117553711, 0.15671920776367188, 0.03951965272426605, 0.01781352423131466, -0.13480713963508606, -0.08235293626785278, 0.17000845074653625, -0.019729768857359886, 0.0659237951040268, -0.09516920149326324], [-0.04571440815925598, 0.028454117476940155, 0.11926552653312683, 0.11159924417734146, -0.015415209345519543, -0.07890332490205765, -0.08593229949474335, -0.00783933512866497, 0.13768061995506287, -0.003161414060741663, 0.003027597675099969, 0.037717003375291824, 0.1018458753824234, -0.17512017488479614, 0.1279381513595581, -0.06446600705385208, -0.07396852225065231], [-0.21219167113304138, 0.2447165548801422, 0.07758145034313202, -0.12703345715999603, -0.06856461614370346, 0.1558428704738617, -0.11407319456338882, 0.05762562155723572, 0.14295490086078644, 0.1258217841386795, 0.03990865871310234, -0.10662323236465454, -0.1378316879272461, -0.1145419254899025, 0.11148229241371155, 0.026838235557079315, -0.08672702312469482], [0.13681168854236603, -0.16489726305007935, 0.1474379301071167, -0.07717690616846085, 0.03409751504659653, -0.12878014147281647, -0.07789614051580429, -0.0678226426243782, 0.06382836401462555, 0.059555139392614365, -0.14060205221176147, 0.019543766975402832, -0.15088041126728058, 0.1269214153289795, -0.05271418020129204, 0.15097281336784363, -0.1421249508857727], [0.24708634614944458, -0.11218846589326859, -0.11980480700731277, 0.008854268118739128, -0.017561722546815872, 0.12493487447500229, -0.05322897806763649, 0.15646474063396454, -0.01863059401512146, 0.09717299044132233, -0.007368880789726973, -0.041563648730516434, -0.17467384040355682, -0.12391424924135208, 0.1400277316570282, 0.08935519307851791, -0.028680169954895973], [0.026700260117650032, -0.12082415819168091, -0.12358170002698898, -0.08723166584968567, 0.16605758666992188, -0.07066795974969864, 0.014505553990602493, -0.04197682812809944, 0.1624586135149002, -0.12445559352636337, 0.03332793712615967, 0.041045889258384705, 0.04085901007056236, 0.13728107511997223, -0.07083943486213684, -0.020729610696434975, 0.008284131065011024], [0.0306373443454504, 0.05838463827967644, -0.1594562977552414, 0.028500773012638092, 0.05990700423717499, -0.10352586954832077, -0.12885789573192596, -0.055704645812511444, -0.07277112454175949, 0.1380678415298462, -0.09881500899791718, -0.09119716286659241, -0.12254680693149567, -0.09182141721248627, 0.05398208275437355, 0.10081498324871063, 0.16757015883922577], [0.0930604487657547, -0.1171238124370575, -0.04638945311307907, 0.01662246324121952, 0.16403059661388397, 0.0003400829154998064, 0.024555658921599388, -0.010177325457334518, 0.14290103316307068, -0.17131777107715607, -0.02636059932410717, -0.10521834343671799, -0.16738341748714447, -0.15487100183963776, 0.13160981237888336, 0.1428358107805252, -0.06997265666723251], [0.08116427063941956, 0.03987869247794151, 0.03201059252023697, -0.09530261904001236, -0.17475922405719757, -0.0065468596294522285, 0.05431388318538666, -0.026132436469197273, 0.12361099570989609, 0.01897914707660675, -0.1548926830291748, 0.10589125752449036, 0.07638195157051086, -0.0699181854724884, -0.03672773391008377, 0.17665870487689972, 0.07281120866537094], [0.13925385475158691, -0.14321590960025787, -0.12535586953163147, 0.018055066466331482, 0.09295264631509781, -0.16220617294311523, 0.02147696726024151, -0.10565999150276184, -0.14834827184677124, -0.058107223361730576, -0.14038750529289246, -0.050829507410526276, -0.14274334907531738, -0.08185384422540665, 0.14265833795070648, 0.15444806218147278, 0.04159998148679733], [-0.008818300440907478, 0.04055003076791763, -0.011274977587163448, 0.07039328664541245, 0.0864165872335434, -0.147528737783432, 0.1642122119665146, -0.08102834969758987, 0.07122381031513214, 0.08217425644397736, 0.11110749840736389, -0.09775413572788239, 0.06443584710359573, -0.11458946019411087, -0.10636589676141739, -0.00505838030949235, -0.10299353301525116], [-0.04987311735749245, -0.006551049649715424, 0.004156538285315037, -0.13292668759822845, -0.052330661565065384, 0.06592077016830444, 0.029757443815469742, 0.15024706721305847, -0.009920673444867134, -0.1686752885580063, 0.05985868722200394, 0.1655753254890442, 0.13941843807697296, 0.13910028338432312, -0.17358240485191345, -0.1644166260957718, 0.06321829557418823], [-0.16245627403259277, 0.11867247521877289, -0.02289711870253086, 0.0368555411696434, -0.1762160360813141, -0.021222665905952454, 0.16099919378757477, -0.07692663371562958, 0.016296183690428734, 0.17269009351730347, 0.123068667948246, -0.12496582418680191, 0.13284358382225037, -0.13788962364196777, 0.07687574625015259, 0.14064031839370728, -0.004738928284496069], [0.09179294854402542, 0.1727885752916336, 0.012891308404505253, -0.048816580325365067, -0.12205217033624649, -0.014759931713342667, 0.1433885097503662, -0.01636582240462303, -0.17039521038532257, -0.13373881578445435, 0.027193089947104454, -0.08331552892923355, -0.14337652921676636, -0.04039813205599785, 0.03131076693534851, -0.04867766052484512, -0.020206104964017868], [0.02096978761255741, -0.09458871930837631, 0.07719362527132034, -0.046845924109220505, -0.1269420087337494, 0.010566557757556438, -0.13458552956581116, 0.059904079884290695, 0.043797675520181656, -0.17262893915176392, 0.1301710307598114, 0.0635794922709465, 0.003286397783085704, -0.103752501308918, -0.08529271185398102, 0.16957752406597137, 0.08577395230531693], [0.09111671894788742, 0.004209774546325207, -0.1521693766117096, 0.16612456738948822, 0.13078467547893524, 0.11571019142866135, 0.08993420749902725, -0.15838027000427246, 0.17041276395320892, 0.06911689043045044, -0.13506123423576355, -0.1372036635875702, -0.1447022408246994, 0.14660733938217163, -0.1543925255537033, 0.013847578316926956, -0.09194054454565048], [-0.13667307794094086, -0.0209820494055748, -0.11504386365413666, -0.0677243173122406, 0.053091246634721756, -0.15369641780853271, -0.051923081278800964, -0.13169705867767334, -0.030431877821683884, 0.13399548828601837, -0.13008302450180054, -0.03342318907380104, -0.004474140703678131, -0.09783006459474564, 0.1611173301935196, 0.10362698137760162, -0.01708664745092392], [0.156280517578125, -0.15446870028972626, -0.10814257711172104, 0.1529153734445572, -0.02763347513973713, -0.030557749792933464, -0.07275867462158203, 0.04604159668087959, -0.15792275965213776, 0.13467317819595337, -0.17119619250297546, 0.017049895599484444, -0.010528914630413055, -0.02766934223473072, -0.12748008966445923, -0.08921779692173004, -0.14637739956378937], [0.08536165207624435, -0.16524827480316162, 0.03628477454185486, 0.10116199404001236, -0.15028464794158936, 0.11229738593101501, -0.10893481969833374, -0.17483675479888916, -0.11347492784261703, 0.14212657511234283, 0.12670932710170746, 0.12033650279045105, 0.027525462210178375, -0.12397993355989456, 0.07865605503320694, -0.051273442804813385, 0.1019703671336174], [-0.12032714486122131, -0.11569137126207352, 0.1100568026304245, -0.13467258214950562, -0.10686405003070831, -0.037254124879837036, 0.040569037199020386, -0.17621171474456787, 0.07458455860614777, -0.16352471709251404, -0.1544804573059082, -0.009516083635389805, 0.10419251024723053, 0.06114144250750542, -0.10672810673713684, -0.11351768672466278, -0.012349321506917477], [0.16584928333759308, -0.12252535670995712, 0.15202760696411133, -0.07691789418458939, -0.10705366730690002, 0.12814725935459137, -0.0242194551974535, 0.08660692721605301, -0.08568742871284485, -0.16977715492248535, 0.0205550380051136, -0.05333261936903, 0.05735981464385986, -0.04197223484516144, -0.06068882718682289, -0.002164647448807955, 0.13119971752166748], [0.009954911656677723, 0.03304766118526459, -0.08073491603136063, 0.0888262540102005, -0.05770238861441612, 0.11349018663167953, -0.14066468179225922, -0.13387706875801086, 0.06572018563747406, -0.14286023378372192, 0.05389741435647011, -0.04070517048239708, 0.16299110651016235, 0.00577755318954587, 0.0750325545668602, 0.03192117437720299, -0.16329725086688995], [0.17244529724121094, -0.18226797878742218, 0.0662543997168541, 0.0992111787199974, -0.1245553195476532, -0.09482116252183914, -0.045189689844846725, -0.030140385031700134, 0.11033777892589569, 0.09025998413562775, -0.02418837696313858, 0.17143139243125916, -0.04054396599531174, -0.03489328920841217, -0.06952989846467972, 0.04015567526221275, 0.05593235418200493], [0.13023683428764343, -0.007020589895546436, 0.031977128237485886, 0.17313145101070404, -0.1272265613079071, 0.008357762359082699, -0.03140762075781822, 0.14566363394260406, 0.08587521314620972, 0.1518273800611496, -0.05150509253144264, 0.02245352230966091, -0.09744783490896225, -0.04846101626753807, -0.04986037313938141, -0.07908371090888977, 0.0508340522646904], [-0.002499813912436366, -0.048384685069322586, -0.03633568435907364, -0.1723034381866455, -0.10122056305408478, -0.08454392105340958, 0.15206116437911987, 0.17415262758731842, 0.01402914710342884, 0.02556842751801014, 0.060977764427661896, -0.1650293916463852, -0.16044986248016357, -0.11982521414756775, -0.14832517504692078, -0.07988762110471725, 0.048244062811136246], [-0.015030746348202229, 0.17233386635780334, 0.03186434507369995, 0.05196177214384079, 0.0039850687608122826, -0.05487433075904846, 0.13477472960948944, 0.13460282981395721, 0.15259987115859985, 0.15701237320899963, -0.13929429650306702, -0.04522337764501572, 0.0023716031573712826, 0.04526912793517113, 0.07847302407026291, -0.07843298465013504, -0.020235229283571243]], "lstm.weight_hh_l0": [[0.01647874340415001, -0.15563638508319855, 0.0371863953769207, -0.11219893395900726, 0.15095536410808563, -0.06952143460512161, -0.07618849724531174, -0.0017526556039229035, 0.1596560925245285, -0.09315342456102371, 0.0682387426495552, -0.004529858939349651, 0.16759268939495087, -0.11029680073261261, 0.12216942757368088, -0.06134014204144478, -0.16326481103897095, -0.12326125800609589, 0.1317943036556244, -0.008898316882550716, 0.07693199068307877, 0.03177027404308319, 0.0707932561635971, -0.014335217885673046, -0.012023547664284706, 0.010826492682099342, 0.10122033208608627, -0.07373576611280441, 0.1157568022608757, -0.06320436298847198, 0.1218113899230957, 0.017382899299263954], [0.04454517364501953, -0.021026071161031723, 0.15061649680137634, -0.05214155092835426, -0.12553906440734863, 0.13828812539577484, -0.04279133677482605, -0.12811264395713806, 0.019797317683696747, -0.0704578161239624, 0.12588205933570862, 0.0634177103638649, 0.04679790139198303, -0.11241539567708969, -0.030020928010344505, 0.0162824597209692, 0.010909340344369411, 0.1468619704246521, 0.009485707618296146, 0.08712444454431534, -0.17623768746852875, -0.002750018611550331, -0.14673832058906555, -0.06174732372164726, 0.01733245700597763, -0.12450827658176422, -0.015476997010409832, 0.0838463082909584, 0.06953437626361847, 0.14122746884822845, -0.024538569152355194, 0.1276577115058899], [0.08679957687854767, -0.12095233052968979, -0.1370767056941986, -0.05634487792849541, -0.04647716134786606, -0.11417711526155472, 0.10247538238763809, 0.14115548133850098, 0.06667117029428482, 0.050385355949401855, 0.08598975092172623, 0.0067023602314293385, 0.062433093786239624, -0.17603076994419098, -0.1021813452243805, 0.16337648034095764, -0.055889733135700226, -0.06634971499443054, -0.16176168620586395, 0.0431230328977108, 0.17203731834888458, 0.018925366923213005, -0.005855630151927471, -0.03977328538894653, -0.09483742713928223, 0.08683887869119644, -0.07949913293123245, 0.12028438597917557, -0.06307996809482574, -0.09546412527561188, 0.1557593047618866, -0.15960629284381866], [-0.11754857003688812, 0.04497774690389633, -0.050187624990940094, 0.12866149842739105, -0.009160659275949001, 0.0841638594865799, 0.12663188576698303, 0.13010160624980927, 0.06786702573299408, 0.11080481857061386, -0.11889027059078217, 0.14544695615768433, 0.13626962900161743, 0.08949191868305206, 0.1559925228357315, -0.15593941509723663, 0.1065051481127739, -0.02407866343855858, 0.04107370600104332, -0.013241717591881752, -0.16238415241241455, -0.016574900597333908, -0.10234519094228745, 0.08255315572023392, -0.08840427547693253, -0.02667846903204918, -0.08135886490345001, 0.06591255217790604, -0.021698692813515663, 0.14290383458137512, -0.15326620638370514, -0.15244968235492706], [-0.15972736477851868, 0.0023068024311214685, -0.05882037431001663, 0.13794729113578796, 0.038201648741960526, -0.024530939757823944, 0.12217871844768524, 0.13473138213157654, -0.04912630096077919, -0.16626204550266266, 0.11485747247934341, -0.11507899314165115, 0.10066112875938416, 0.1491016447544098, 0.13904331624507904, 0.048525162041187286, 0.007503782864660025, -0.11823389679193497, 0.031544849276542664, -0.08262259513139725, 0.014375152066349983, 0.05542449653148651, 0.00045267821406014264, 0.10422789305448532, -0.06100844591856003, -0.05543418973684311, -0.1715390980243683, -0.17324775457382202, -0.005025568883866072, 0.06672172993421555, 0.11386758834123611, -0.16041749715805054], [0.044050198048353195, 0.02841312810778618, -0.030302172526717186, 0.08475454896688461, 0.09466327726840973, -0.012486972846090794, 0.1519155353307724, -0.07193442434072495, 0.026402555406093597, 0.16833212971687317, -0.039764877408742905, -0.1371573656797409, 0.1021079495549202, 0.053843460977077484, -0.09266338497400284, 0.025889797136187553, -0.05064329504966736, 0.05706145986914635, -0.10517267137765884, -0.15386568009853363, -0.019040744751691818, -0.13708561658859253, 0.10630010068416595, -0.023340566083788872, 0.04869231581687927, 0.10972647368907928, 0.02503366768360138, 0.031667307019233704, 0.07478386908769608, 0.1418844759464264, -0.14599762856960297, -0.09587421268224716], [-0.08635855466127396, 0.02308136224746704, -0.11298631876707077, 0.003612322034314275, -0.15052735805511475, 0.15235112607479095, -0.11816838383674622, -0.12201739847660065, -0.07452140003442764, -0.08880656957626343, -0.09556224197149277, 0.12159163504838943, -0.013453611172735691, 0.04890526458621025, -0.026431405916810036, -0.07730195671319962, 0.047505419701337814, -0.03487027809023857, 0.007883652113378048, -0.11163914203643799, 0.12973174452781677, -0.056123923510313034, -0.16065876185894012, -0.10847903043031693, -0.13170979917049408, 0.06875577569007874, 0.08071504533290863, -0.03717777505517006, -0.07511130720376968, 0.023805024102330208, -0.1510014533996582, 0.17363141477108002], [-0.1426863968372345, -0.03456781059503555, 0.1550733596086502, -0.13014476001262665, -0.03029787354171276, -0.14843761920928955, 0.053257767111063004, 0.1711495816707611, 0.14539103209972382, 0.03278546407818794, 0.13325737416744232, -0.007745305076241493, 0.09956712275743484, -0.04157470539212227, 0.09486975520849228, -0.06632763147354126, -0.13433119654655457, -0.13646727800369263, 0.0832764208316803, -0.12665726244449615, 0.019669681787490845, 0.01402889471501112, 0.09685982018709183, -0.11564283818006516, -0.09379275143146515, -0.016489848494529724, -0.1741013526916504, 0.0748174861073494, -0.08176585286855698, -0.08463291078805923, 0.1737678050994873, -0.04785395413637161], [0.1605801284313202, 0.10890557616949081, -0.06277250498533249, 0.14397630095481873, -0.1512257158756256, 0.13819997012615204, -0.17675282061100006, 0.09877185523509979, -0.07460394501686096, -0.12226302921772003, 0.07211799919605255, -0.09671007096767426, 0.10593622922897339, 0.16443251073360443, 0.0700354352593422, -0.04743962734937668, 0.1396767646074295, -0.04375885799527168, -0.1357862502336502, 0.07100547105073929, 0.05614316090941429, 0.05509166046977043, -0.1144876554608345, -0.008843104355037212, -0.06980165094137192, -0.013024808838963509, 0.01740371808409691, 0.0806102529168129, -0.049741603434085846, -0.020466510206460953, -0.14391197264194489, -0.06274928152561188], [-0.06210317090153694, 0.11182751506567001, 0.09247183054685593, -0.16552695631980896, -0.07717408239841461, -0.16959770023822784, 0.07299833744764328, 0.02144836261868477, 0.029540620744228363, 0.12954866886138916, -0.16906721889972687, -0.1691550612449646, -0.13014468550682068, -0.08670217543840408, 0.003927475307136774, -0.16808654367923737, -0.10489126294851303, -0.10190463066101074, -0.08239885419607162, -0.017033226788043976, -0.03769677132368088, 0.14537332952022552, 0.020410073921084404, -0.028972944244742393, -0.11352181434631348, 0.15599790215492249, -0.1576305627822876, 0.057351406663656235, -0.14313870668411255, -0.12463434040546417, -0.04662305489182472, -0.08643779158592224], [0.172771617770195, 0.07645119726657867, 0.07841534912586212, 0.16357311606407166, -0.13131128251552582, -0.08557586371898651, -0.0146031454205513, 0.0837353765964508, 0.028585847467184067, -0.05910024791955948, -0.01185873243957758, -0.06695876270532608, -0.05437767505645752, -0.028761452063918114, 0.10808464139699936, -0.1708403080701828, -0.1763768494129181, -0.12433943897485733, -0.17106379568576813, -0.071761354804039, -0.0480949692428112, 0.13060876727104187, 0.11547882109880447, 0.04849348962306976, -0.014327357523143291, 0.10085736215114594, -0.06083789840340614, 0.0713881403207779, 0.14274173974990845, 0.13586550951004028, -0.17584122717380524, 0.016892878338694572], [0.023378266021609306, -0.024129323661327362, -0.10378894954919815, -0.014368598349392414, -0.02173415943980217, -0.1340603530406952, 0.06885768473148346, -0.07870610058307648, 0.056040745228528976, -0.04151782765984535, 0.037209682166576385, -0.11157039552927017, 0.04877646267414093, 0.11892158538103104, 0.16184581816196442, 0.0012073807884007692, 0.12593242526054382, 0.07316159456968307, -0.05207883566617966, -0.04590676724910736, -0.0316661074757576, 0.1683846265077591, -0.05570780858397484, 0.08807133883237839, 0.05798247084021568, 0.05828706920146942, 0.08221351355314255, 0.11835736781358719, 0.02377927303314209, 0.13210110366344452, 0.01586080715060234, -0.008140958845615387], [-0.14916697144508362, 0.03351591154932976, 0.14542177319526672, -0.07929221540689468, -0.038972072303295135, -0.04263965040445328, -0.07656505703926086, -0.09828337281942368, 0.1410398930311203, 0.11545772850513458, -0.1448071002960205, 0.1723538190126419, 0.12716639041900635, -0.10504016280174255, 0.09672670066356659, -0.04037351906299591, -0.044462017714977264, 0.008545042015612125, -0.05490252748131752, -0.16533879935741425, -0.03172549232840538, -0.06884906440973282, 0.010228998027741909, -0.14379502832889557, 0.07009149342775345, 0.026637692004442215, -0.15258297324180603, 0.033622268587350845, -0.05616440623998642, -0.13472838699817657, 0.1413736492395401, -0.03284181281924248], [-0.1146913692355156, 0.0851818174123764, 0.05763676390051842, -0.0027393344789743423, -0.07321225851774216, 0.1064499169588089, -0.06197839230298996, -0.10584346204996109, 0.11539646983146667, 0.1667020171880722, -0.0012135762954130769, -0.08010600507259369, 0.06964658945798874, -0.15377581119537354, 0.056598495692014694, -0.03553750738501549, 0.026624921709299088, -0.16470178961753845, -0.16391229629516602, 0.08825474232435226, -0.04317053034901619, -0.16754935681819916, 0.1658588945865631, 0.044905927032232285, 0.08505433797836304, -0.17234665155410767, 0.10396318882703781, 0.16788604855537415, 0.005363123025745153, -0.08424016833305359, 0.0175681971013546, 0.02638251520693302], [0.002401634817942977, -0.0353291854262352, 0.005972482264041901, 0.1030774712562561, -0.09065075218677521, -0.07431214302778244, 0.01847943291068077, 0.04678403586149216, 0.08925731480121613, 0.05292607098817825, -0.15468637645244598, -0.013677263632416725, -0.04742443561553955, 0.04752455651760101, 0.17585285007953644, 0.10583531111478806, 0.13214142620563507, 0.0779537707567215, 0.049635112285614014, 0.0003049113729503006, 0.08410562574863434, 0.042873796075582504, -0.06898543238639832, -0.11506487429141998, -0.17444254457950592, 0.08161149173974991, 0.09909748286008835, -0.09444496780633926, 0.06401993334293365, 0.03399621695280075, -0.10247083008289337, 0.056352630257606506], [0.16030260920524597, -0.16966867446899414, -0.022595452144742012, 0.14603902399539948, 0.005805938970297575, 0.0831020325422287, -0.161091610789299, -0.132613405585289, -0.13622501492500305, -0.09831306338310242, -0.12207455188035965, -0.023572711274027824, -0.042471084743738174, -0.13058707118034363, -0.02002948895096779, -0.10113488137722015, -0.0391262024641037, -0.09424757957458496, 0.17208823561668396, -0.09928111732006073, 0.1236758753657341, 0.024583054706454277, 0.12824063003063202, 0.018266506493091583, -0.004619104787707329, 0.08367082476615906, 0.12360405921936035, -0.11618461459875107, -0.1210479587316513, 0.09282246977090836, -0.11863420903682709, 0.04455223307013512], [-0.04083690419793129, 0.11124709248542786, 0.038201458752155304, 0.0681653618812561, 0.09133510291576385, 0.09483542293310165, -0.14853715896606445, 0.12461927533149719, 0.10539472848176956, 0.07838179916143417, -0.1500091254711151, -0.02829846926033497, 0.06258916109800339, 0.08808739483356476, 0.049630653113126755, -0.16892026364803314, -0.16159896552562714, -0.06228214502334595, 0.1350530982017517, -0.09776949882507324, -0.06033877655863762, -0.09087178856134415, -0.16603296995162964, -0.012980849482119083, 0.14872604608535767, 0.17653514444828033, 0.021136285737156868, 0.16794613003730774, -0.014429710805416107, -0.14955121278762817, -0.08768434822559357, 0.1327611356973648], [0.10067341476678848, 0.010840442962944508, 0.039915233850479126, -0.029948284849524498, 0.16597947478294373, 0.14448270201683044, -0.005688791628926992, 0.06487272679805756, -0.1386445015668869, -0.10087603330612183, -0.1409461796283722, -0.06104888767004013, -0.0614478699862957, 0.11544860154390335, 0.11997043341398239, 0.16303397715091705, 0.06213785707950592, -0.08540806174278259, -0.018756043165922165, -0.09507669508457184, 0.04869585856795311, -0.14420512318611145, -0.09580996632575989, 0.1384127289056778, 0.07382465153932571, -0.02497190237045288, -0.0991673395037651, 0.09558940678834915, -0.10683932900428772, 0.11929810792207718, -0.1139264702796936, 0.08052477985620499], [0.10702964663505554, -0.176610067486763, 0.0018633542349562049, 0.0819903090596199, 0.13630585372447968, -0.16708363592624664, 0.127411350607872, -0.045067667961120605, -0.16927775740623474, -0.07422534376382828, 0.03039535880088806, -0.05930137261748314, 0.1048782616853714, -0.021182984113693237, 0.055008675903081894, -0.056899551302194595, -0.17256046831607819, 0.003363971831277013, -0.06754244863986969, 0.018943827599287033, 0.07361792027950287, 0.03018413856625557, -0.006179486401379108, -0.11991393566131592, -0.02355947718024254, -0.008988679386675358, -0.13779829442501068, 0.14762172102928162, -0.01305483840405941, -0.05569663643836975, -0.038743194192647934, -0.04343215748667717], [-0.05510887876152992, -0.031293656677007675, -0.16693386435508728, -0.007186269387602806, -0.1538821905851364, 0.12076610326766968, -0.11418809741735458, -0.10549166053533554, -0.1435527801513672, -0.1678282469511032, -0.018041737377643585, -0.07987105846405029, -0.13260722160339355, 0.022553937509655952, 0.00565623352304101, 0.15148843824863434, 0.07605263590812683, 0.05538314953446388, 0.0771966278553009, -0.040627095848321915, 0.0059777298010885715, 0.07732496410608292, -0.16494512557983398, 0.08925389498472214, -0.022971339523792267, 0.016089895740151405, -0.06416606903076172, 0.11633819341659546, -0.03446309641003609, 0.09533224999904633, -0.05683279037475586, -0.10416711121797562], [0.13440828025341034, -0.05572129413485527, -0.02191518060863018, -0.08252135664224625, -0.17085938155651093, 0.08406100422143936, 0.16461001336574554, -0.08741867542266846, 0.11664094030857086, -0.16098278760910034, -0.127868190407753, 0.09902850538492203, -0.1646064966917038, -0.05908830091357231, -0.05277196317911148, 0.16380387544631958, -0.012745290994644165, 0.0526471883058548, 0.04117211699485779, 0.14289355278015137, 0.1683637946844101, 0.05209946632385254, -0.007159084547311068, 0.11400242149829865, -0.08012139052152634, -0.059073254466056824, 0.032663848251104355, -0.16687209904193878, 0.10804245620965958, -0.09858684986829758, -0.16974984109401703, 0.15516094863414764], [0.03742614760994911, -0.04621781036257744, 0.008879033848643303, 0.03430426865816116, -0.02966451086103916, -0.06433210521936417, -0.031063364818692207, 0.0714404433965683, -0.06068463250994682, 0.025310741737484932, -0.04188534617424011, 0.06538307666778564, -0.17448417842388153, 0.16457809507846832, 0.05070644989609718, 0.0968804731965065, 0.1560470163822174, -0.13563045859336853, -0.10781070590019226, -0.1532379537820816, 0.010171804577112198, -0.012790177017450333, 0.08777637034654617, -0.03240140154957771, 0.07725736498832703, -0.1763421595096588, -0.028769206255674362, 0.10004647821187973, 0.0444488450884819, -0.1484053134918213, 0.03839510306715965, 0.08277519047260284], [-0.09301592409610748, 0.15523040294647217, 0.09574096649885178, -0.14689432084560394, -0.1503656804561615, -0.1517656296491623, 0.15454408526420593, -0.1610255241394043, -0.15491878986358643, -0.10578500479459763, -0.15969224274158478, 0.1372571885585785, -0.08683757483959198, 0.011779706925153732, 0.06126539409160614, 0.07460308074951172, -0.13036255538463593, 0.013585172593593597, 0.14979922771453857, -0.03930404409766197, 0.15749944746494293, 0.1579146683216095, 0.07721102237701416, -0.02073376253247261, 0.1276703178882599, 0.05054974928498268, -0.052538786083459854, -0.15018175542354584, 0.12833823263645172, 0.09791503101587296, -0.1218353658914566, -0.0015253365272656083], [-0.1409422904253006, 0.08492737263441086, -0.02416093274950981, 0.14566150307655334, 0.14193396270275116, -0.08874859660863876, -0.05405910685658455, 0.05801519751548767, 0.09973111748695374, 0.09186685085296631, 0.1390022188425064, 0.1251218467950821, 0.017546048387885094, -0.04447430372238159, 0.11666576564311981, 0.16838818788528442, 0.09043136984109879, -0.09263835102319717, -0.15913207828998566, -0.1527777761220932, 0.09932427108287811, 0.054336875677108765, 0.02474011480808258, 0.16644109785556793, 0.06954649090766907, 0.06444258987903595, 0.039086099714040756, 0.014940109103918076, 0.1336853951215744, -0.0732852965593338, -0.00649834843352437, -0.07966272532939911], [-0.09416933357715607, 0.13512426614761353, -0.14096464216709137, 0.08046406507492065, 0.10250035673379898, -0.02650364488363266, 0.09010110795497894, 0.08591809868812561, 0.027968836948275566, 0.17274032533168793, 0.10011695325374603, 0.17532671988010406, 0.052393145859241486, -0.1373211294412613, -0.03213929012417793, 0.17004995048046112, -0.1411111056804657, -0.006106867454946041, 0.16670720279216766, 0.14601300656795502, -0.10126831382513046, 0.17164847254753113, -0.12435182929039001, -0.08692783117294312, -0.014639981091022491, 0.007443007081747055, -0.1298840492963791, -0.08123737573623657, 0.020124634727835655, 0.1592053771018982, 0.06227881461381912, -0.019699078053236008], [-0.05917347967624664, -0.036788612604141235, 0.10553202033042908, -0.07927019149065018, 0.045121487230062485, 0.08098398894071579, 0.09245993942022324, -0.05717622488737106, 0.05428273603320122, -0.053363051265478134, 0.020182713866233826, 0.16118621826171875, 0.11040864139795303, -0.077051542699337, 0.04421785846352577, 0.12558089196681976, 0.16258354485034943, 0.1043277382850647, -0.11300528794527054, -0.11797899752855301, 0.16755354404449463, -0.10312949866056442, 0.03241901844739914, -0.16165168583393097, 0.021325968205928802, 0.03856029734015465, 0.03804633766412735, 0.10090551525354385, -0.16054187715053558, 0.08775601536035538, -0.10549448430538177, -0.09878173470497131], [0.1751195192337036, 0.06270921975374222, -0.15257559716701508, -0.09882230311632156, -0.07787390798330307, -0.16010482609272003, 0.03964058682322502, -0.1631106585264206, -0.10458540171384811, 0.12431398034095764, -0.08022279292345047, -0.03032573126256466, 0.07616382092237473, 0.14625270664691925, -0.16803933680057526, -0.1720789223909378, 0.05387644097208977, -0.06853540986776352, 0.05549228936433792, 0.04568682610988617, -0.040011245757341385, -0.051607612520456314, 0.13046634197235107, -0.09107811748981476, -0.05483020469546318, 0.13662555813789368, 0.03064657375216484, 0.09395954757928848, -0.03890179470181465, -0.07681286334991455, -0.07393429428339005, -0.10817386955022812], [0.07462260127067566, -0.12736020982265472, -0.09388722479343414, -0.01494164764881134, -0.11514106392860413, 0.16045284271240234, 0.00321030430495739, 0.12369135767221451, -0.10607808083295822, 0.1295318305492401, 0.07636401057243347, -0.10799466073513031, 0.1343540996313095, 0.1736658811569214, -0.12766291201114655, 0.0123967994004488, 0.008764696307480335, -0.02148301899433136, 0.039681196212768555, 0.07328279316425323, 0.06277196109294891, -0.10411994904279709, -0.05043039098381996, 0.015836656093597412, -0.14512260258197784, -0.11044054478406906, -0.14650428295135498, 0.02320365235209465, -0.07327460497617722, 0.14425799250602722, -0.004284374415874481, -0.14718422293663025], [-0.16481295228004456, 0.1744122952222824, 0.026300013065338135, -0.15111638605594635, -0.10675898939371109, 0.06283414363861084, -0.12948787212371826, 0.04622046649456024, -0.07189083099365234, -0.06780382245779037, -0.09339488297700882, -0.09064054489135742, 0.01387514267116785, 0.011553775519132614, 0.14388564229011536, 0.1753094345331192, 0.1149260401725769, -0.11185005307197571, 0.12223395705223083, 0.07921091467142105, -0.023927785456180573, 0.15373560786247253, 0.004786680918186903, -0.10626579821109772, -0.16701819002628326, -0.060518551617860794, 0.03510282561182976, 0.12244898080825806, -0.058517731726169586, 0.14335525035858154, -0.17147193849086761, 0.04917282238602638], [0.17587633430957794, -0.16162806749343872, -0.16223584115505219, 0.14279194176197052, -0.025227565318346024, 0.04473575949668884, 0.05049358680844307, -0.14678052067756653, 0.16581478714942932, -0.14536230266094208, -0.11856570094823837, -0.05014130473136902, 0.12072797864675522, -0.1539219468832016, -0.07148564606904984, -0.11982610076665878, 0.10261328518390656, 0.11283986270427704, 0.1735301911830902, -0.09591779857873917, 0.04186423122882843, 0.04742906987667084, 0.02033149264752865, 0.015204433351755142, -0.01826353557407856, 0.1755760908126831, 0.07788296788930893, -0.11245641112327576, 0.047664545476436615, 0.04226222634315491, -0.13199442625045776, 0.0642114207148552], [0.08895812928676605, 0.09849768877029419, 0.1039397343993187, 0.004712965805083513, -0.06265150010585785, -0.10810244828462601, 0.009602906182408333, -0.1338791698217392, -0.07507021725177765, -0.16851390898227692, 0.002133389236405492, 0.1307273805141449, -0.14544562995433807, 0.06658637523651123, -0.019649850204586983, 0.14009594917297363, 0.011588781140744686, -0.08127408474683762, -0.07874546200037003, -0.10643840581178665, 0.17002323269844055, 0.17010052502155304, -0.09733721613883972, 0.1728244125843048, -0.1686757504940033, 0.05628380551934242, -0.033933375030756, 0.15847048163414001, -0.08972413092851639, 0.06301984190940857, 0.013331469148397446, -0.005381414666771889], [-0.01601179875433445, -0.16962604224681854, -0.16937050223350525, 0.14160111546516418, -0.11835985630750656, -0.0671444833278656, 0.049311455339193344, 0.022854823619127274, 0.1737203299999237, 0.15401579439640045, -0.06710785627365112, 0.15698744356632233, -0.1663820594549179, -0.03165740519762039, 0.1019529476761818, 0.03463345393538475, 0.1267854869365692, -0.10135006159543991, -0.05221237987279892, -0.11221493035554886, -0.1717856228351593, -0.08882977068424225, -0.07643277943134308, 0.13297560811042786, 0.1717578023672104, 0.040196627378463745, 0.08867530524730682, -0.03222876787185669, 0.16012151539325714, -0.028545891866087914, -0.16703540086746216, -0.16534161567687988], [0.05746733397245407, -0.095421202480793, 0.06779605150222778, -0.0009383574360981584, 0.05016452819108963, -0.0479595921933651, 0.03313886374235153, 0.10800833255052567, -0.16897174715995789, 0.110826276242733, 0.03645459935069084, -0.0035509562585502863, 0.07721106708049774, 0.023106440901756287, 0.04796730726957321, 0.1500786393880844, 0.12123151123523712, 0.044451646506786346, 0.11517886072397232, 0.06260393559932709, -0.12992678582668304, 0.10422497987747192, -0.13624882698059082, -0.16449642181396484, -0.0923408567905426, 0.11506833136081696, 0.11514586210250854, -0.06909847259521484, 0.08109527826309204, -0.11322761327028275, -0.15966525673866272, -0.06647086888551712], [-0.031029852107167244, -0.028790486976504326, 0.03920786455273628, 0.019082006067037582, -0.005626904312521219, -0.11109614372253418, -0.15657801926136017, 0.036853715777397156, -0.025334564968943596, 0.1444922536611557, -0.0012941260356456041, -0.08561704307794571, -0.03145075589418411, -0.12660953402519226, 0.044261470437049866, -0.0025715057272464037, -0.04394296929240227, 0.1369795948266983, 0.06753664463758469, 0.08775074779987335, 0.02032882161438465, -0.05361310765147209, -0.05608976259827614, -0.10849616676568985, 0.08396974205970764, -0.12096253037452698, -0.03102334588766098, -0.051984433084726334, 0.005903252866119146, 0.055945705622434616, 0.13765661418437958, 0.00966560561209917], [0.03526654466986656, -0.08551325649023056, -0.012081288732588291, 0.08757196366786957, -0.1018528938293457, -0.06479397416114807, 0.1503160297870636, 0.08843854069709778, -0.001447259564884007, 0.01219025906175375, 0.03843054920434952, -0.1310868263244629, 0.03384063020348549, 0.15030226111412048, -0.11621858179569244, -0.1647602915763855, -0.11639539152383804, -0.1319858431816101, 0.060416221618652344, 0.08816566318273544, 0.1547715961933136, -0.17381276190280914, -0.15352404117584229, 0.11764978617429733, -0.0029977578669786453, 0.15218818187713623, -0.03068874217569828, 0.10882088541984558, 0.15086466073989868, -0.058621227741241455, -0.17279693484306335, -0.13693742454051971], [0.05096578225493431, -0.1420973241329193, -0.050831541419029236, -0.1615372747182846, -0.07587003707885742, -0.11706402897834778, 0.14683574438095093, 0.09410406649112701, 0.11003526300191879, 1.7638456483837217e-05, 0.1708046942949295, -0.0653945654630661, 0.01106066070497036, -0.17522528767585754, 0.037636544555425644, 0.001994494115933776, -0.14873327314853668, -0.1089867576956749, 0.017075836658477783, 0.03334970399737358, -0.0994066670536995, -0.1377299726009369, -0.022465914487838745, -0.13744902610778809, -0.1454007476568222, -0.14195691049098969, -0.054991625249385834, 0.05611667409539223, -0.14304381608963013, -0.13917607069015503, -0.05104638636112213, -0.024545585736632347], [0.13669387996196747, -0.014388659968972206, 0.07441316545009613, 0.09604638814926147, -0.048458002507686615, 0.10811760276556015, 0.05174625664949417, -0.04532307758927345, 0.12296462804079056, -0.03320455178618431, 0.12661857903003693, 0.13202230632305145, 0.15887749195098877, 0.10094661265611649, -0.14003753662109375, 0.13321958482265472, -0.0659775361418724, 0.060457754880189896, 0.09258391708135605, 0.07236851751804352, 0.11724171787500381, 0.014755696058273315, -0.06147604435682297, 0.1357877403497696, 0.06764651089906693, -0.135853111743927, -0.05642111971974373, -0.15743882954120636, -0.015384884551167488, 0.09197698533535004, -0.08388691395521164, -0.1048155203461647], [-0.16629213094711304, -0.08766285330057144, 0.11959514021873474, 0.120864138007164, -0.15117526054382324, -0.17127230763435364, -0.1553003489971161, -0.05321800336241722, 0.12676574289798737, -0.1701103299856186, -0.06573736667633057, -0.1354866623878479, 0.15087391436100006, -0.0372336208820343, 0.10056377202272415, -0.1510508954524994, -0.055212393403053284, 0.12495040148496628, -0.07502678036689758, -0.019668227061629295, 0.01689106598496437, 0.14449883997440338, -0.09572579711675644, -0.06022883579134941, 0.17224568128585815, 0.03374575823545456, 0.1494767665863037, 0.15725433826446533, -0.0933791846036911, -0.0049891965463757515, -0.13085705041885376, 0.015243777073919773], [-0.16535426676273346, -0.13510844111442566, -0.05898786336183548, -0.09412725269794464, -0.055281974375247955, 0.1675436645746231, 0.028996672481298447, 0.111026830971241, 0.15396814048290253, -0.10982343554496765, 0.08788188546895981, -0.11380726099014282, 0.09681354463100433, -0.10650061815977097, 0.088579922914505, -0.09968686103820801, 0.15681028366088867, 0.14042724668979645, -0.01930239237844944, 0.11254051327705383, 0.0769437924027443, 0.08188135921955109, -0.04646797478199005, 0.001903035561554134, -0.12247001379728317, -0.15965673327445984, -0.03865603357553482, 0.024501143023371696, 0.05158662423491478, -0.05930299684405327, 0.11555489897727966, -0.17510898411273956], [0.1645643711090088, -0.09555720537900925, 0.06965689361095428, 0.021261777728796005, -0.036267828196287155, -0.016267061233520508, -0.10644317418336868, 0.05753080174326897, 0.16294312477111816, -0.07254743576049805, 0.013972202315926552, -0.08057699352502823, 0.14327853918075562, -0.04945826902985573, 0.09634198248386383, 0.047183163464069366, -0.004839660134166479, -0.11630256474018097, 0.013534687459468842, 0.06389843672513962, 0.12180008739233017, -0.15831097960472107, 0.14125879108905792, -0.15053115785121918, -0.06113851070404053, 0.11276064813137054, 0.10564693063497543, 0.03954510763287544, -0.1283021867275238, -0.13262015581130981, -0.08109409362077713, -0.15688194334506989], [0.07013151049613953, -0.04456251487135887, 0.14678779244422913, -0.11716575175523758, 0.16893626749515533, -0.14798855781555176, -0.056413765996694565, -0.024339573457837105, -0.15067611634731293, 0.04136689752340317, -0.13042283058166504, -0.039498213678598404, 0.049782317131757736, -0.1061185970902443, 0.028676314279437065, -0.01492445170879364, -0.06543035060167313, 0.031938586384058, -0.0550772063434124, 0.1297018826007843, -0.05948018282651901, -0.09424640238285065, 0.10608562082052231, 0.032301660627126694, -0.05426457151770592, -0.010888406075537205, 0.015286050736904144, 0.13210368156433105, -0.16213281452655792, -0.16468705236911774, 0.13138419389724731, 0.133822500705719], [-0.15238328278064728, 0.12004657089710236, 0.12354256957769394, 0.14251141250133514, -0.1274103820323944, -0.044656019657850266, 0.1330777406692505, 0.1555391103029251, 0.1690339595079422, 0.1593167632818222, -0.1615912914276123, -0.17177213728427887, -0.02965799905359745, -0.15324267745018005, 0.1483403891324997, -0.15332530438899994, -0.1652265340089798, -0.026101605966687202, -0.10432501882314682, -0.14426183700561523, -0.10616053640842438, 0.007636756170541048, 0.028010014444589615, -0.05852848291397095, -0.056136418133974075, 0.0684724673628807, 0.08251286298036575, 0.17423509061336517, 0.102388896048069, 0.011149653233587742, -0.019751235842704773, -0.07688670605421066], [-0.1427905559539795, 0.1168556958436966, 0.07241228967905045, 0.015833454206585884, -0.12863755226135254, -0.14575694501399994, -0.024074552580714226, 0.11439529061317444, -0.014532949775457382, -0.01579396240413189, -0.07228078693151474, 0.004769294988363981, 0.08269904553890228, 0.013970731757581234, 0.09219970554113388, -0.17495384812355042, 0.13784192502498627, -0.07490076124668121, -0.06183663383126259, -0.12789461016654968, 0.14947514235973358, 0.041508954018354416, 0.10339753329753876, -0.06656938791275024, 0.009355483576655388, -0.06619606912136078, -0.1517685055732727, 0.13000881671905518, -0.08900202810764313, -0.17645145952701569, 0.09872370213270187, 0.14877375960350037], [-0.001597407623194158, -0.15984320640563965, 0.14676301181316376, -0.09830908477306366, 0.1422273814678192, 0.13645517826080322, -0.04599175602197647, -0.043870337307453156, -0.10330181568861008, 0.16127809882164001, -0.14965924620628357, 0.10522481054067612, 0.15755145251750946, 0.06992001831531525, -0.16214263439178467, -0.01104664709419012, -0.068344846367836, 0.08106556534767151, 0.16812273859977722, -0.1731780618429184, -0.12897226214408875, -0.15564575791358948, 0.11616688966751099, 0.08539227396249771, 0.12491651624441147, 0.04083028435707092, -0.11910776793956757, 0.03656618297100067, 0.03705725818872452, -0.02918047457933426, -0.054205965250730515, 0.01700102724134922], [0.11062902957201004, 0.07187672704458237, 0.11372671276330948, 0.07295714318752289, 0.028102442622184753, 0.08917535096406937, -0.131742462515831, 0.09423453360795975, 0.03174148499965668, -0.08405636996030807, -0.07718238234519958, 0.09795496612787247, 0.01926928572356701, 0.1302347034215927, 0.0586451031267643, -0.03443361818790436, -0.041383400559425354, -0.031733836978673935, -0.11509488523006439, 0.037757694721221924, -0.04912910610437393, 0.1144108846783638, -0.05793474242091179, 0.0816119983792305, -0.12085579335689545, -0.17524923384189606, 0.14887450635433197, -0.028021037578582764, -0.10368457436561584, 0.01029413565993309, 0.06705586612224579, 0.05236973613500595], [0.040433578193187714, -0.06402437388896942, -0.1505337655544281, -0.15031622350215912, -0.04232500120997429, 0.024460049346089363, -0.03498220071196556, -0.08344713598489761, -0.16140909492969513, -0.08498431742191315, 0.015224790200591087, 0.017647938802838326, 0.10101796686649323, 0.057535652071237564, 0.1640431135892868, 0.058614276349544525, -0.0925278440117836, -0.15689699351787567, 0.10182686895132065, 0.0505160316824913, -0.1562342345714569, 0.03800562396645546, -0.1568640172481537, 0.12454559653997421, -0.13648538291454315, 0.16125474870204926, -0.07377491891384125, -0.059404339641332626, 0.07497106492519379, -0.11104105412960052, -0.1752600371837616, -0.15726634860038757], [0.017654163762927055, 0.05499592423439026, -0.1140216588973999, -0.0446338914334774, -0.006090621929615736, -0.15058575570583344, -0.14504806697368622, 0.11630740016698837, -0.004423786886036396, -0.013301502913236618, 0.08180048316717148, -0.034633222967386246, 0.05855010449886322, 0.05021524429321289, -0.08793596923351288, -0.14133287966251373, 0.041111160069704056, 0.05232754349708557, 0.0653591901063919, -0.10854313522577286, -0.1437978446483612, 0.026919402182102203, -0.003177282167598605, -0.14772872626781464, -0.035122182220220566, 0.11827166378498077, 0.09318488836288452, 0.1417606770992279, 0.02375807613134384, -0.02105730213224888, -0.05869768187403679, -0.015294652432203293], [-0.13226279616355896, -0.1152084693312645, 0.07954464852809906, -0.009792819619178772, 0.0469953790307045, 0.08756273239850998, 0.1388678103685379, 0.15580694377422333, -0.07525069266557693, 0.15014709532260895, 0.16125428676605225, 0.006159087643027306, -0.018080998212099075, 0.1547243595123291, 0.11561335623264313, 0.16283954679965973, -0.16389550268650055, -0.12978002429008484, 0.08793067187070847, -0.1670323759317398, 0.007523971144109964, -0.13886453211307526, 0.15643112361431122, -0.06926923245191574, 0.13126163184642792, -0.10740428417921066, -0.12439832091331482, -0.1604679673910141, -0.0930677205324173, -0.13046002388000488, 0.08686216920614243, 0.0683790072798729], [-0.029534846544265747, -0.03917572647333145, -0.15137408673763275, -0.12982110679149628, 0.13820239901542664, -0.04979260265827179, -0.12482568621635437, 0.0872420147061348, -0.035572972148656845, -0.135573148727417, 0.042221300303936005, -0.15555250644683838, -0.1609461009502411, -0.052454955875873566, 0.16873271763324738, -0.1188652366399765, 0.030460244044661522, -0.14299917221069336, 0.10271207988262177, -0.07559148967266083, -0.09689360111951828, -0.10306404531002045, 0.08696915954351425, 0.1453041285276413, -0.07002972811460495, -0.0906231626868248, -0.06637363880872726, 0.011283869855105877, 0.0842028260231018, 0.011889793910086155, 0.08019276708364487, -0.13448919355869293], [-0.05960160493850708, -0.11425089836120605, 0.014241630211472511, -0.14587339758872986, 0.1579492688179016, 0.01462438702583313, -0.02072712406516075, -0.0038364590145647526, 0.03063359297811985, 0.014519630931317806, -0.04587444290518761, -0.14108075201511383, -0.13187293708324432, 0.005571412853896618, -0.13585764169692993, -0.17588554322719574, 0.16599556803703308, -0.16144326329231262, 0.16292840242385864, 0.06817756593227386, 0.16070982813835144, -0.14680340886116028, -0.11712973564863205, -0.036900680512189865, 0.09701702743768692, -0.11161509156227112, -0.018707826733589172, -0.11016850918531418, 0.01695984974503517, 0.010823437012732029, 0.05094407498836517, -0.0894102156162262], [-0.04779845476150513, 0.13815845549106598, -0.07383055239915848, 0.03203868493437767, 0.1256004124879837, -0.09220423549413681, 0.021456588059663773, 0.07589513063430786, -0.12877443432807922, -0.1426282674074173, 0.0740436464548111, -0.029312143102288246, -0.07965125888586044, 0.06047962233424187, -0.009683646261692047, 0.06590470671653748, -0.13015855848789215, 0.15395104885101318, 0.056832022964954376, 0.1721213459968567, -0.07635068148374557, 0.14529484510421753, -0.031200362369418144, 0.11544407159090042, -0.09434972703456879, 0.13537700474262238, -0.08854106813669205, 0.060678593814373016, 0.1547616720199585, -0.04235587641596794, 0.12124621868133545, 0.04156719148159027], [0.03633671626448631, -0.036058440804481506, 0.03766893595457077, 0.06888049095869064, 0.14937293529510498, 0.014326514676213264, -0.06971053034067154, 0.1710978001356125, -0.07605259865522385, -0.054336875677108765, 0.026465818285942078, 0.11786570399999619, -0.0922418087720871, -0.09823644161224365, -0.03091304749250412, -0.17450807988643646, -0.11417631804943085, -0.15074677765369415, -0.0908060371875763, 0.08603551983833313, -0.07123774290084839, -0.12009493261575699, -0.07342710345983505, -0.06459754705429077, 0.13405822217464447, -0.018076572567224503, 0.14226609468460083, 0.05140691250562668, 0.10515633970499039, 0.1019359678030014, -0.13145656883716583, -0.1673315465450287], [0.026784595102071762, -0.126321479678154, -0.12832534313201904, -0.08642756938934326, -0.11819558590650558, -0.1623152196407318, 0.15033845603466034, -0.12249338626861572, 0.1447993516921997, 0.04716017469763756, -0.1210947036743164, 0.06727229058742523, -0.0705522671341896, 0.04705206677317619, 0.1465166062116623, 0.1040017306804657, 0.03433956578373909, -0.06614544987678528, -0.10191836953163147, 0.09528135508298874, -0.040261998772621155, -0.04894721880555153, 0.025885287672281265, 0.12430395185947418, -0.016660312190651894, 0.11103907227516174, -0.10124018788337708, -0.16608379781246185, -0.062455009669065475, 0.10413628071546555, 0.1020052582025528, -0.10265368223190308], [-0.033933818340301514, -0.14570443332195282, -0.12293750792741776, -0.12488777190446854, -0.16532181203365326, 0.028970584273338318, 0.10118823498487473, -0.10845612734556198, -0.04103897511959076, 0.12075155973434448, 0.06396646052598953, -0.03375258669257164, -0.12843111157417297, 0.06729979068040848, -0.026981590315699577, -0.13899849355220795, 0.021908922120928764, -0.16185200214385986, 0.04903591796755791, -0.10997990518808365, -0.08035798370838165, 0.1519746482372284, 0.049780189990997314, -0.16301725804805756, 0.16983933746814728, 0.05334680527448654, 0.12506741285324097, -0.04215525463223457, 0.10510528087615967, 0.07083196938037872, 0.01584409549832344, 0.06122209131717682], [0.07284267246723175, -0.1588549017906189, 0.10494179278612137, 0.10519328713417053, 0.06637486070394516, -0.026903914287686348, 0.14283853769302368, 0.029955049976706505, 0.08928072452545166, -0.06872087717056274, -0.05359949544072151, -0.04285396635532379, -0.17184211313724518, 0.10034995526075363, -0.13905203342437744, -0.05185554176568985, -0.13693371415138245, -0.1439248025417328, 0.10914506018161774, 0.16290318965911865, 0.12660256028175354, 0.02863745577633381, -0.024331839755177498, -0.03624877706170082, -0.05850920081138611, -0.1163468137383461, 0.08035201579332352, -0.1599506139755249, 0.1393745243549347, 0.08344943076372147, 0.13755224645137787, 0.06280715018510818], [-0.09018950909376144, 0.10706664621829987, 0.0794762447476387, 0.1275242418050766, -0.13327498733997345, -0.12762856483459473, 0.12219677865505219, -0.1263199895620346, -0.15033961832523346, 0.053253889083862305, -0.1261129528284073, -0.056246548891067505, -0.10867328941822052, -0.000411458604503423, -0.1410624235868454, 0.10980912297964096, -0.08427131921052933, -0.0832381471991539, -0.1711384505033493, -0.08616098761558533, 0.13032348453998566, 0.17309261858463287, 0.13684718310832977, -0.12721867859363556, -0.13577614724636078, 0.0724053755402565, 0.14105717837810516, 0.09693779051303864, 0.06759428977966309, -0.11220473051071167, -0.17200343310832977, -0.05917682871222496], [-0.07193423807621002, -0.02564939297735691, 0.15786907076835632, 0.13731417059898376, 0.06424104422330856, -0.08915499597787857, 0.03173012658953667, -0.013616864569485188, 0.14734147489070892, -0.06611265987157822, 0.11016640067100525, -0.08452720940113068, 0.10023313015699387, 0.0003603390068747103, -0.043771833181381226, -0.11902149766683578, 0.16003383696079254, -0.0619112104177475, 0.008982944302260876, 0.1695534586906433, 0.086955226957798, 0.02465788647532463, -0.15230312943458557, 0.15942563116550446, -0.14493653178215027, -0.14753049612045288, 0.08294147998094559, 0.12535157799720764, 0.0176878459751606, 0.010527334176003933, 0.11054924130439758, -0.16242001950740814], [-0.15130674839019775, 0.1600104421377182, -0.10628058761358261, 0.06042559817433357, -0.1549178659915924, 0.15155534446239471, -0.09961435198783875, 0.09796600788831711, 0.1556849330663681, -0.14721457660198212, -0.15943703055381775, -0.08545146882534027, -0.0980561152100563, 0.09953764081001282, 0.12671063840389252, -0.004469356965273619, 0.16597364842891693, -0.053206540644168854, -0.12389203161001205, -0.10898013412952423, 0.09518720209598541, 0.08390069752931595, 0.16857555508613586, -0.1718463897705078, 0.031978540122509, -0.16651108860969543, -0.0984782800078392, 0.011866065673530102, -0.04616367444396019, -0.1461232304573059, -0.01534777507185936, 0.13812848925590515], [0.08558359742164612, -0.024681784212589264, 0.16609640419483185, 0.16426686942577362, 0.016598861664533615, -0.030094873160123825, 0.1590551882982254, 0.014667524956166744, -0.07866030931472778, -0.13599540293216705, -0.1024448499083519, -0.05533836781978607, -0.17343811690807343, 0.0605735145509243, -0.12219610065221786, -0.16116710007190704, 0.0988740399479866, 0.1498461812734604, 0.10522386431694031, -0.15615496039390564, 0.0016572983004152775, -0.03817872330546379, 0.1378609538078308, -0.04988231137394905, -0.0001124267146224156, 0.08160820603370667, -0.03891924396157265, 0.012915479950606823, 0.11404941231012344, -0.16881118714809418, -0.04816156253218651, 0.06900924444198608], [-0.05978553369641304, -0.1594877392053604, 0.07541675120592117, -0.16694895923137665, -0.0030070089269429445, -0.07609198242425919, -0.07450888305902481, 0.10363595932722092, 0.0405111089348793, -0.10783494263887405, -0.15012198686599731, -0.14197346568107605, -0.09143950045108795, 0.12385614216327667, 0.1223163902759552, -0.15055176615715027, 0.11702480912208557, 0.11367782205343246, -0.01611998863518238, -0.0434475839138031, -0.16883769631385803, 0.09109935909509659, -0.04199322313070297, -0.13411696255207062, -0.06574194133281708, 0.012106997892260551, -0.1448497623205185, -0.00911661610007286, -0.04087045043706894, 0.12360207736492157, 0.026427043601870537, 0.15059296786785126], [-0.041986629366874695, 0.11278042197227478, -0.09701302647590637, 0.07051121443510056, 0.10982559621334076, 0.10730995982885361, 0.049481261521577835, 0.10972901433706284, 0.020210081711411476, 0.05605848878622055, 0.09012024104595184, 0.1566055417060852, -0.03242066130042076, 0.0019473101710900664, 0.04755919799208641, -0.11414757370948792, -0.15884403884410858, 0.019708961248397827, -0.02795090712606907, 0.0996619313955307, -0.0018177194288000464, 0.16385924816131592, 0.0065379454754292965, 0.009368190541863441, 0.023553302511572838, 0.04523170366883278, -0.06656207144260406, 0.1107192188501358, -0.009288027882575989, 0.12523120641708374, 0.04699082672595978, -0.030972536653280258], [-0.03164168447256088, 0.11849335581064224, 0.07457958161830902, 0.10328814387321472, 0.1505156308412552, -0.07010896503925323, -0.036081768572330475, -0.016844281926751137, -0.14565570652484894, 0.07349805533885956, 0.0669776201248169, 0.0806804671883583, 0.0560431070625782, -0.12697169184684753, 0.047551821917295456, -0.0779263824224472, -0.10522323101758957, -0.13950419425964355, -0.1411709487438202, -0.1071564182639122, -0.16822202503681183, -0.07797394692897797, -0.07880208641290665, -0.16713368892669678, 0.10609368979930878, 0.15471407771110535, -0.015020609833300114, 0.16412658989429474, -0.015366066247224808, -0.08820755779743195, -0.09652159363031387, -0.08529459685087204], [-0.05285891145467758, -0.11239131540060043, -0.1203230768442154, -0.09473026543855667, -0.10182718187570572, 0.07836025953292847, 0.1604578047990799, -0.11548074334859848, 0.03296954184770584, 0.10945479571819305, 0.15505270659923553, 0.02602858655154705, -0.15050487220287323, 0.1650826632976532, -0.08514409512281418, 0.007838976569473743, 0.12144287675619125, -0.13845287263393402, -0.03877425566315651, -0.004449653439223766, 0.08963841944932938, -0.09096503257751465, 0.042160481214523315, -0.022831222042441368, 0.17300863564014435, 0.11356347799301147, -0.031240971758961678, 0.05320683494210243, -0.05421905219554901, -0.1088683232665062, 0.09301643073558807, -0.1393858641386032], [0.10731425881385803, 0.10981868952512741, 0.02623146027326584, 0.03351468965411186, -0.13620159029960632, -0.04535291716456413, -0.12814439833164215, 0.028721854090690613, -0.16517971456050873, 0.005247324705123901, 0.09487306326627731, -0.16499502956867218, -0.028007466346025467, -0.15531180799007416, -0.062053751200437546, -0.06539279222488403, -0.04061984643340111, 0.0001832544949138537, 0.16287948191165924, 0.01937570609152317, -0.04818739742040634, -0.030465491116046906, -0.1580459624528885, 0.10034972429275513, 0.14171214401721954, 0.07038635015487671, -0.0321621336042881, -0.15933547914028168, 0.061067137867212296, 0.14019465446472168, 0.1428266316652298, -0.13670003414154053], [0.07920219004154205, -0.05481462925672531, -0.1009935587644577, -0.13831697404384613, -0.08019223809242249, 0.14365901052951813, -0.1615924835205078, -0.09300081431865692, 0.018340473994612694, 0.09123414009809494, -0.018031306564807892, 0.07128610461950302, -0.06835449486970901, 0.006018000654876232, -0.14332783222198486, -0.11897022277116776, 0.07522790879011154, 0.12427124381065369, 0.16626088321208954, 0.08463110029697418, 0.09238171577453613, -0.11747487634420395, 0.007828271016478539, -0.1256517618894577, -0.16717398166656494, -0.054878272116184235, 0.08879655599594116, 0.13772323727607727, -0.0324547179043293, 0.14192791283130646, 0.11439434438943863, 0.0433586947619915], [0.04303852468729019, 0.12223624438047409, -0.1218399852514267, -0.04753875732421875, -0.15180806815624237, 0.09654424339532852, -0.13529498875141144, -0.009610469453036785, -0.04828425869345665, -0.15888665616512299, 0.1695520281791687, 0.04987156391143799, -0.1734156757593155, -0.0787634626030922, -0.040187083184719086, -0.084210105240345, 0.06362390518188477, -0.12010698765516281, 0.03945152834057808, -0.07688773423433304, 0.02309531718492508, -0.14836761355400085, 0.15742528438568115, 0.09434767812490463, -0.15164518356323242, 0.032093413174152374, 0.0930238887667656, 0.048344820737838745, 0.1292196363210678, -0.12191479653120041, 0.07326892018318176, 0.1155649945139885], [-0.021605001762509346, -0.13522209227085114, 0.07767599076032639, -0.06827639788389206, -0.13785609602928162, -0.03072475641965866, 0.0008162580197677016, 0.1696663647890091, 0.05921737477183342, -0.0025284525472670794, 0.1260739266872406, -0.12405189126729965, -0.1574081927537918, -0.06527294963598251, -0.12547653913497925, 0.015809092670679092, 0.07088775187730789, 0.012639039196074009, 0.11164990812540054, 0.10026241838932037, -0.17127077281475067, 0.004999964963644743, 0.08577439934015274, 0.07682141661643982, 0.07280507683753967, 0.027241742238402367, -0.0743623822927475, -0.002815261948853731, -0.028422612696886063, -0.013796728104352951, -0.04395456984639168, -0.1679012030363083], [-0.14625664055347443, 0.16510987281799316, 0.05020380765199661, -0.12136496603488922, 0.15118053555488586, 0.08593384176492691, -0.13107937574386597, 0.1243320032954216, -0.17618496716022491, 0.1331603080034256, -0.14893296360969543, 0.13444094359874725, -0.02651550993323326, 0.004510429222136736, -0.011703168042004108, -0.062814861536026, -0.14877960085868835, -0.1268436163663864, 0.15388073027133942, -0.0681527629494667, -0.0316866971552372, 0.0465812012553215, 0.07881098240613937, -0.13390137255191803, -0.09634935855865479, -0.1276571899652481, 0.025834711268544197, -0.13420335948467255, -0.0735296681523323, -0.019823074340820312, 0.0323433019220829, -0.04528630152344704], [0.06593847274780273, 0.1696079522371292, -0.08116943389177322, 0.15484735369682312, -0.07169168442487717, 0.12339383363723755, -0.05538565665483475, -0.051582179963588715, -0.06884607672691345, 0.15155398845672607, 0.0368352085351944, -0.12752772867679596, -0.12281903624534607, 0.14540965855121613, -0.09932716190814972, -0.1677856296300888, -0.06373781710863113, 0.10660370439291, -0.17166320979595184, -0.06976588815450668, 0.07334225624799728, 0.029163427650928497, -0.08665256947278976, 0.16128188371658325, 0.08700742572546005, -0.07084518671035767, 0.09435621649026871, -0.051065754145383835, -0.12862764298915863, 0.045028239488601685, 0.12529520690441132, 0.07944489270448685], [-0.05577937141060829, 0.03501138463616371, 0.09542225301265717, -0.09270291775465012, 0.13270293176174164, -0.10660088062286377, 0.11583907157182693, 0.02308054082095623, 0.06821994483470917, -0.15847760438919067, 0.09644090384244919, 0.15607622265815735, -0.01922435685992241, -0.160094752907753, -0.08178471773862839, -0.09805835038423538, 0.0567367784678936, 0.06096158176660538, 0.10595483332872391, 0.16398850083351135, 0.1398228257894516, 0.0875045508146286, -0.1387399435043335, -0.14937126636505127, 0.05693042278289795, 0.11347642540931702, -0.048532094806432724, -0.1514306664466858, -0.01725226454436779, -0.10298500210046768, 0.029087604954838753, 0.16934803128242493], [-0.03144402056932449, -0.13444802165031433, -0.11944159865379333, -0.07570871710777283, 0.133343905210495, 0.15869693458080292, -0.08885075896978378, -0.09396473318338394, 0.09535275399684906, -0.08610474318265915, -0.10660507529973984, -0.05759067460894585, 0.04769217222929001, -0.09980197250843048, -0.11416540294885635, 0.07761023938655853, -0.05937507748603821, -0.029575707390904427, 0.16958557069301605, -0.15796570479869843, 0.1077178344130516, -0.12570226192474365, -0.049720827490091324, -0.026537425816059113, 0.07817140221595764, -0.15196748077869415, 0.025884654372930527, 0.08348731696605682, -0.05361275002360344, 0.09240365773439407, -0.15865030884742737, 0.1341264396905899], [0.13261114060878754, 0.045029353350400925, 0.10448858886957169, 0.0038753815460950136, 0.1715727299451828, 0.0618661567568779, 0.06163618341088295, -0.004793339874595404, -0.09425999224185944, -0.06647130846977234, 0.033436357975006104, 0.16330574452877045, 0.17360880970954895, -0.0987638458609581, -0.0784178376197815, 0.07605624198913574, 0.12437499314546585, 0.07120345532894135, -0.10727792978286743, 0.1557922214269638, -0.05367424339056015, 0.06825175881385803, -0.14207139611244202, -0.12985022366046906, 0.08256862312555313, -0.06220904365181923, 0.10224941372871399, 0.05947091057896614, 0.05350786820054054, -0.03485969826579094, -0.0002231254184152931, -0.08271008729934692], [0.07378446310758591, -0.1492624133825302, -0.11909542232751846, 0.121796153485775, 0.028974419459700584, -0.12652945518493652, -0.05910465121269226, 0.0014534129295498133, 0.0008608915377408266, -0.09499688446521759, 0.0783047154545784, -0.10353265702724457, 0.08414386212825775, -0.054047875106334686, 0.057366810739040375, -0.004205180797725916, -0.06860116124153137, -0.13461652398109436, 0.0902772843837738, -0.12747447192668915, 0.09363575279712677, -0.06095397099852562, -0.04988378658890724, 0.05405706167221069, 0.1054430678486824, 0.15359458327293396, 0.0727456733584404, -0.15863251686096191, 0.03346175327897072, -0.060297641903162, 0.029145197942852974, -0.17592930793762207], [-0.158050075173378, 0.10191303491592407, -0.011402597650885582, 0.08653070032596588, 0.017873719334602356, 0.07237657159566879, -0.16516660153865814, -0.1767616868019104, -0.16141527891159058, 0.07056621462106705, 0.10231756418943405, 0.11018384993076324, -0.04441013187170029, 0.16260606050491333, 0.02302149310708046, -0.06855008006095886, 0.08043081313371658, 0.004538962617516518, 0.12162099033594131, -0.15543824434280396, -0.035878222435712814, -0.17015141248703003, -0.1633792370557785, -0.15788565576076508, -0.1285114735364914, -0.08273982256650925, -0.1006225198507309, -0.1343023180961609, -0.09100901335477829, -0.11730922013521194, -0.1337595283985138, 0.12147273868322372], [0.09633483737707138, 0.07161326706409454, -0.15136085450649261, 0.07079488039016724, -0.08976604044437408, -0.0982629731297493, 0.09463227540254593, -0.15095210075378418, -0.13782081007957458, 0.16403163969516754, -0.03645818307995796, -0.15643346309661865, 0.14287468791007996, 0.15285751223564148, 0.13419602811336517, 0.02095596119761467, -0.1598760336637497, 0.09517145901918411, -0.0823967307806015, 0.1743808090686798, -0.16599112749099731, 0.14795160293579102, 0.1556956171989441, -0.14382024109363556, -0.0015134300338104367, 0.009685746394097805, 0.0074770827777683735, -0.1746973991394043, -0.10018379241228104, 0.029218239709734917, 0.15548115968704224, 0.0014728426467627287], [0.15711164474487305, 0.025567268952727318, -0.15645188093185425, 0.13556574285030365, -0.11397093534469604, 0.07134759426116943, -0.12693077325820923, 0.06700427830219269, 0.11155271530151367, 0.0860024094581604, 0.1318977177143097, -0.15115001797676086, 0.09432129561901093, -0.00910525768995285, 0.14110764861106873, 0.07052744179964066, -0.13860908150672913, 0.057134728878736496, 0.15707817673683167, 0.039400599896907806, -0.15822626650333405, 0.053425662219524384, 0.11797092109918594, -0.05142496898770332, -0.05755137279629707, 0.11822330206632614, -0.14998309314250946, -0.134038046002388, -0.01928683929145336, -0.16338974237442017, -0.12996593117713928, -0.00420033372938633], [-0.007490738295018673, 0.016227252781391144, 0.1517426073551178, 0.08749890327453613, 0.057321421802043915, 0.035030607134103775, 0.0623738169670105, -0.08265195041894913, 0.05426526814699173, -0.07600117474794388, 