{"lstm.weight_ih_l0": [[0.21426288783550262, -0.07035782933235168, 0.012215899303555489, -0.07821641117334366, -0.11071103811264038, 0.061314068734645844, 0.04785943031311035, 0.1591695249080658, 0.09215500950813293, 0.008763286285102367, -0.008574677631258965, 0.1992354542016983, -0.05369443818926811, 0.1575428992509842, -0.09758174419403076, -0.059937138110399246, 0.10212475806474686], [0.14116255939006805, 0.09922655671834946, 0.0418630950152874, 0.15132659673690796, -0.01294454000890255, 0.1629200130701065, -0.08577916026115417, -0.08171110600233078, 0.10522700101137161, 0.008800957351922989, 0.09448939561843872, 0.007999070920050144, -0.156526580452919, 0.1637478768825531, 0.06040496751666069, -0.11796925961971283, 0.15578129887580872], [0.04779227077960968, 0.05892934277653694, 0.15926185250282288, -0.09047191590070724, -0.05443703755736351, 0.09873197972774506, 0.1508815586566925, 0.10902997851371765, 0.08351800590753555, 0.12118719518184662, -0.04482867196202278, 0.15800802409648895, 0.14621299505233765, -0.14634943008422852, 0.15599915385246277, -0.1263004094362259, 0.1421646922826767], [0.02757948450744152, -0.14075766503810883, 0.032353583723306656, -0.0012527728686109185, -0.1743449717760086, -0.06187157332897186, -0.14541475474834442, 0.0754796490073204, -0.11021004617214203, 0.04454563558101654, -0.1303638517856598, 0.0605984628200531, 0.15331020951271057, 0.09750138223171234, -0.17061181366443634, -0.06255626678466797, -0.13875983655452728], [-0.1566581279039383, 0.17416512966156006, -0.0550423301756382, -0.15472210943698883, -0.13091394305229187, 0.08356921374797821, -0.15459562838077545, -0.028096647933125496, -0.08289747685194016, -0.15287506580352783, -0.1262858659029007, -0.13558366894721985, 0.1412341296672821, -0.11040396243333817, -0.07693028450012207, -0.06353355199098587, -0.13389471173286438], [0.15773828327655792, -0.059066448360681534, -0.017871001735329628, -0.17061802744865417, -0.08089139312505722, -0.1054501086473465, 0.14344070851802826, 0.03989150747656822, 0.012966393493115902, -0.05955640226602554, -0.015562576241791248, 0.11080949753522873, -0.007783574517816305, -0.06350185722112656, 0.12597084045410156, 0.1417551040649414, 0.058357853442430496], [0.12687239050865173, -0.2208527773618698, 0.0272214375436306, 0.17631515860557556, -0.008689614944159985, 0.16606487333774567, 0.02806544490158558, 0.1331259310245514, 0.09045538306236267, 0.03095320425927639, 0.014510293491184711, 0.007490267977118492, -0.05396297574043274, -0.12632624804973602, -0.04440746828913689, -0.1090286523103714, 0.0534672811627388], [-0.06372910737991333, -0.05449783429503441, -0.07558444887399673, -0.01268122810870409, -0.11885307729244232, 0.11006136983633041, -0.04147985205054283, 0.10705967247486115, -0.1088196188211441, 0.11630119383335114, -0.10823223739862442, -0.16741620004177094, 0.16387897729873657, 0.12232688814401627, -0.11532612144947052, -0.10027304291725159, 0.015973148867487907], [-0.00975143164396286, 0.13236938416957855, 0.0029179104603827, -0.078929603099823, -0.06834783405065536, -0.15354865789413452, 0.12558923661708832, 0.0390743650496006, 0.08110766857862473, -0.03921720013022423, 0.14039413630962372, -0.038938965648412704, 0.05868050828576088, 0.1603057086467743, -0.13492563366889954, 0.08333452045917511, 0.13832037150859833], [0.028670035302639008, 0.11872229725122452, 0.0303740743547678, 0.14686129987239838, -0.11268189549446106, 0.036521464586257935, -0.093609519302845, -0.002821057103574276, -0.04633854329586029, -0.12356585264205933, 0.10706496238708496, 0.08239291608333588, -0.1336749643087387, 0.08477231860160828, 0.1674370914697647, 0.1673201024532318, 0.14198003709316254], [0.02824651636183262, 0.0037956072483211756, -0.0076208412647247314, -0.16816046833992004, 0.105026975274086, 0.07322988659143448, -0.1479915827512741, 0.09359966963529587, -0.01920100674033165, -0.08577635884284973, 0.11104549467563629, 0.005709841847419739, 0.02191118709743023, 0.06929898262023926, 0.006739904172718525, -0.06627076864242554, 0.15434548258781433], [-0.1667342185974121, 0.046542342752218246, -0.06947536766529083, 0.026243114843964577, -0.14157484471797943, 0.10307833552360535, -0.010091978125274181, -0.00271855597384274, 0.06201506033539772, -0.14715030789375305, -0.04428143799304962, -0.10380979627370834, 0.0549076683819294, -0.06999992579221725, 0.007129075936973095, 0.05401594936847687, -0.00980575941503048], [0.07451557368040085, -0.14928266406059265, 0.07166332006454468, 0.039171092212200165, -0.08492428064346313, 0.05133853480219841, 0.03541627153754234, -0.10265211760997772, 0.15963506698608398, -0.11954955756664276, -0.1157875508069992, 0.11417598277330399, 0.011571543291211128, 0.03406641259789467, -0.12583233416080475, -0.011255069635808468, 0.046760592609643936], [-0.1702696830034256, 0.03988290950655937, 0.03732556477189064, 0.08702658116817474, 0.046481817960739136, 0.09928163886070251, -0.13905593752861023, 0.1320427507162094, -0.046160176396369934, -0.09006337076425552, -0.06918007135391235, -0.1600620597600937, 0.08024155348539352, -0.04596982151269913, 0.14752447605133057, 0.06731481850147247, -0.13257887959480286], [-0.12992388010025024, 0.07058284431695938, 0.0774780660867691, 0.015217350795865059, 0.009284739382565022, -0.04150368645787239, 0.07726490497589111, 0.08197041600942612, -0.06435848772525787, -0.15795215964317322, -0.01825864613056183, 0.07725972682237625, 0.06927428394556046, -0.11061562597751617, -0.0027094101533293724, -0.0022751290816813707, 0.12551671266555786], [0.12981551885604858, -0.09425478428602219, -0.14217163622379303, -0.11855977773666382, 0.12277325987815857, 0.13104186952114105, 0.09044614434242249, -0.116231270134449, 0.04528442770242691, -0.05015350505709648, 0.029454534873366356, -0.044416435062885284, 0.14711369574069977, 0.005951661616563797, -0.02296585962176323, 0.14888186752796173, 0.16225385665893555], [-0.01092134416103363, -0.14033298194408417, -0.1552848070859909, -0.15657475590705872, 0.09772435575723648, 0.0020004159305244684, -0.05036088824272156, 0.016951315104961395, 0.02166569232940674, 0.1228705570101738, -0.13558006286621094, -0.1343909204006195, -0.04236190393567085, 0.028403518721461296, -0.07588596642017365, -0.02164367027580738, -0.17372511327266693], [-0.009575342759490013, 0.039795201271772385, -0.010198294185101986, -0.07566983997821808, 0.04727472737431526, -0.15794998407363892, -0.12239840626716614, 0.15042488276958466, 0.16252261400222778, 0.12322068959474564, 0.10820640623569489, 0.16580308973789215, -0.0779152363538742, -0.05123855546116829, 0.14662691950798035, -0.11429942399263382, -0.086853988468647], [-0.039513155817985535, -0.13111332058906555, -0.10633278638124466, -0.09624748677015305, -0.06586989760398865, -0.021118078380823135, -0.12198933213949203, 0.04897834733128548, -0.12136783450841904, 0.11920709162950516, 0.09844009578227997, -0.0025232473853975534, -0.10931570827960968, -0.09134939312934875, 0.13469871878623962, -0.06033118814229965, 0.048204679042100906], [0.04915913566946983, 0.009832543320953846, -0.08561594784259796, 0.008742857724428177, 0.14089106023311615, 0.1283031404018402, -0.028397640213370323, -0.13327275216579437, -0.07077033072710037, -0.017891906201839447, -0.059490274637937546, 0.038723260164260864, -0.0032620816491544247, 0.03777419775724411, 0.0964171290397644, 0.13761626183986664, 0.0674145370721817], [0.06940203160047531, -0.06414219737052917, -0.026775307953357697, 0.08285132050514221, 0.05745959281921387, -0.07731842994689941, -0.15669211745262146, 0.09581182897090912, 0.16443967819213867, 0.10034660995006561, 0.15084797143936157, -0.010414729826152325, -0.12460967153310776, -0.09508614242076874, -0.11730299890041351, -0.0385577492415905, 0.13581684231758118], [-0.16885367035865784, -0.01929379440844059, -0.1341966837644577, -0.11741659045219421, 0.11016591638326645, 0.1015399768948555, -0.04941307008266449, -0.15481525659561157, -0.0027114541735500097, 0.09164360165596008, 0.14932221174240112, -0.0036472617648541927, 0.16999998688697815, 0.06811796873807907, -0.07424432784318924, 0.009767469018697739, -0.08625955134630203], [-0.11023784428834915, -0.0904638022184372, 0.07578013837337494, 0.12294887006282806, -0.0015401722630485892, 0.10743309557437897, -0.027355896309018135, -0.11647045612335205, 0.025619931519031525, 0.12345071136951447, 0.16371087729930878, -0.08785906434059143, 0.04785287752747536, -0.012540141120553017, -0.10563486069440842, 0.12413397431373596, -0.14867720007896423], [0.09188299626111984, 0.09536236524581909, 0.11223558336496353, -0.09458471089601517, -0.06827652454376221, -0.14165043830871582, -0.1657978743314743, 0.1569930464029312, -0.17513346672058105, -0.05924076586961746, 0.06291493773460388, 0.06208062171936035, 0.10457815229892731, -0.10705801099538803, 0.16163663566112518, -0.042984768748283386, -0.06041838973760605], [-0.038211047649383545, -0.08718254417181015, -0.09621758759021759, -0.10412728786468506, -0.030944932252168655, -0.07016978412866592, 0.14902296662330627, 0.06288234144449234, -0.17648722231388092, -0.1069100946187973, -0.07311974465847015, 0.05952713266015053, -0.12066429853439331, -0.07183249294757843, -0.1570078432559967, 0.06212418153882027, -0.16212020814418793], [0.027522649616003036, -0.009551908820867538, -0.14460739493370056, -0.05462823808193207, -0.017591925337910652, 0.06796499341726303, 0.1155892089009285, 0.049080487340688705, -0.04325219243764877, 0.07257120311260223, 0.06668807566165924, 0.07092427462339401, 0.11960417777299881, 0.001181839732453227, 0.145462304353714, -0.09126649051904678, -0.010347220115363598], [-0.24905632436275482, -0.018896382302045822, 0.012772981077432632, -0.006098716985434294, -0.009393149986863136, -0.15669217705726624, -0.02684014104306698, 0.060021281242370605, 0.09496080130338669, -0.07174931466579437, 0.041922882199287415, -0.15973122417926788, 0.11437565833330154, -0.10661546140909195, 0.07365193963050842, -0.13565155863761902, -0.06299985200166702], [-0.06833314895629883, 0.0478634350001812, 0.16464777290821075, 0.16590455174446106, 0.10244128853082657, -0.15659184753894806, 0.16116449236869812, 0.034345593303442, -0.13828419148921967, -0.10114303231239319, 0.07808023691177368, -0.15880879759788513, 0.14019757509231567, -0.14606276154518127, -0.038652896881103516, 0.07570161670446396, 0.09453049302101135], [0.17153912782669067, 0.025463249534368515, -0.039047788828611374, 0.08270438015460968, 0.15963327884674072, 0.12857791781425476, 0.15481525659561157, -0.0870220735669136, 0.1733333170413971, -0.10410800576210022, -0.05088629201054573, -0.16764488816261292, -0.04283124953508377, -0.1734021008014679, -0.16350144147872925, -0.13271524012088776, 0.019853251054883003], [-0.12980245053768158, -0.10632576793432236, -0.0261018555611372, 0.01781315729022026, 0.06800606846809387, -0.09915857017040253, 0.08179077506065369, 0.07892532646656036, 0.08409491926431656, 0.10572469234466553, -0.16333824396133423, -0.1715884804725647, 0.05792643129825592, -0.13551506400108337, 0.12436871975660324, -0.01777706667780876, 0.15533827245235443], [-0.02791825495660305, 0.0472378209233284, -0.01882810704410076, -0.09604320675134659, -0.1679086685180664, -0.11615779250860214, -0.03177656605839729, 0.13632749021053314, 0.034365471452474594, 0.1572599709033966, -0.05328502133488655, -0.1532241255044937, 0.1510351002216339, -0.12336793541908264, -0.021236944943666458, 0.004290914162993431, 0.06958606094121933], [0.1571541726589203, -0.14502288401126862, 0.11537855863571167, -0.09735985100269318, 0.09456058591604233, 0.07111911475658417, -0.17244777083396912, -0.07351040095090866, -0.136988565325737, -0.13506168127059937, -0.00025808627833612263, -0.12675723433494568, 0.1671954244375229, 0.08729530870914459, 0.11681525409221649, -0.15679554641246796, -0.12580381333827972], [0.1315295249223709, 0.06134747713804245, 0.029397426173090935, 0.11799579113721848, -0.01823757402598858, -0.055840086191892624, 0.0699944943189621, -0.16968367993831635, -0.04931280389428139, -0.13116657733917236, -0.04536975547671318, 0.0066296993754804134, -0.036699093878269196, -0.04915369674563408, -0.1367788016796112, -0.12098181247711182, -0.1631309986114502], [-0.1282385140657425, 0.08366233855485916, 0.1058150976896286, -0.06117003783583641, -0.05466949939727783, -0.1336955577135086, 0.009952704422175884, 0.1122068539261818, 0.17030295729637146, -0.06783535331487656, 0.020701710134744644, 0.16803812980651855, 0.041821517050266266, -0.10073711723089218, -0.12715238332748413, -0.16339610517024994, 0.14901213347911835], [0.006783198099583387, -0.15847687423229218, -0.09812121093273163, -0.136412113904953, 0.1632370948791504, 0.006393466144800186, -0.021301522850990295, 0.10983908921480179, -0.169038325548172, -0.07177791744470596, -0.013672332279384136, 0.047277722507715225, 0.07007665932178497, -0.05529030039906502, 0.0038762034382671118, -0.08996807038784027, -0.11437754333019257], [-0.17136797308921814, -0.1480753868818283, 0.001943812589161098, 0.10762263089418411, 0.05247092992067337, -0.04851336032152176, 0.041357289999723434, -0.02758776769042015, 0.0470474511384964, 0.11883603036403656, 0.13641192018985748, -0.09029696881771088, 0.018538037315011024, 0.0594528503715992, 0.1494494378566742, 0.14817015826702118, -0.07387509942054749], [0.004906040616333485, 0.03786711022257805, -0.1316106766462326, -0.1748533844947815, -0.1246219277381897, 0.034586504101753235, 0.006394393276423216, 0.051525868475437164, 0.14916910231113434, -0.04237578809261322, -0.15866847336292267, -0.1139225959777832, 0.03393194079399109, 0.11980635672807693, 0.08753523230552673, -0.139425590634346, -0.13822288811206818], [0.011672085151076317, 0.10718984156847, 0.014103641733527184, -0.13701409101486206, -0.14622366428375244, 0.11087558418512344, 0.03146238997578621, -0.01697651855647564, -0.1565113216638565, -0.024091707542538643, 0.07042040675878525, 0.1061207503080368, -0.06364154815673828, -0.03399718552827835, -0.10591915994882584, -0.13581876456737518, 0.07816927134990692], [-0.03168871998786926, 0.007071292959153652, -0.1428450047969818, 0.08935713022947311, -0.09871139377355576, 0.09809807687997818, -0.09295202791690826, -0.052678756415843964, -0.17192533612251282, 0.049644749611616135, 0.12339162081480026, -0.026234367862343788, 0.016866367310285568, -0.1585356444120407, -0.1564827263355255, -0.0748990997672081, 0.08473048359155655], [0.1101088896393776, 0.08755265921354294, -0.04511600732803345, 0.002438743133097887, 0.07362226396799088, -0.1511886715888977, 0.05294691398739815, -0.10116202384233475, 0.06171196326613426, -0.030037088319659233, -0.015781233087182045, -0.01564781740307808, 0.003963152412325144, 0.17187653481960297, -0.1512795388698578, -0.024038327857851982, 0.07829339802265167], [0.14626170694828033, 0.17156976461410522, -0.1582048535346985, -0.08858508616685867, -0.018898457288742065, -0.16228818893432617, 0.0037267927546054125, -0.145936518907547, 0.025267772376537323, 0.1260695457458496, 0.09209693223237991, 0.16036294400691986, 0.14799927175045013, -0.06705304235219955, 0.07259546220302582, 0.09718597680330276, -0.13374954462051392], [0.02487178146839142, 0.09580939263105392, -0.0036119006108492613, 0.05885337293148041, 0.07757142186164856, -0.04458891972899437, 0.17311766743659973, -0.051375847309827805, 0.016074197366833687, 0.1312345415353775, 0.03897135704755783, -0.16486331820487976, -0.07218783348798752, -0.06818263977766037, -0.008661598898470402, 0.16275158524513245, -0.12308194488286972], [-0.13836146891117096, 0.11577916145324707, 0.004443023353815079, -0.05234427750110626, 0.15078747272491455, 0.051538050174713135, 0.14278718829154968, 0.14271587133407593, 0.04529187083244324, 0.16624557971954346, 0.10395736992359161, 0.12278851866722107, -0.08617845177650452, 0.05440496280789375, -0.07296013087034225, -0.07319769263267517, -0.15664717555046082], [-0.10317668318748474, 0.12236258387565613, 0.07679115980863571, 0.16792923212051392, 0.07291252911090851, -0.11283887177705765, 0.05415469408035278, 0.10898401588201523, -0.12381294369697571, 0.07895219326019287, -0.15794003009796143, -0.004104976542294025, -0.0218209195882082, 0.019284605979919434, 0.08415045589208603, -0.16150464117527008, -0.010950151830911636], [0.16568103432655334, -0.0537981316447258, 0.07599489390850067, 0.06431817263364792, 0.04768260568380356, -0.11779384315013885, 0.1078849509358406, 0.1744331419467926, -0.08429453521966934, -0.062042877078056335, 0.12098246067762375, 0.14587464928627014, -0.012839868664741516, 0.042004749178886414, 0.15340636670589447, 0.16672098636627197, -0.13738182187080383], [0.12437266856431961, -0.030334603041410446, 0.0770784467458725, 0.12219742685556412, 0.07686448842287064, 0.07553840428590775, 0.051529157906770706, 0.15670204162597656, 0.10725095868110657, -0.011912321671843529, 0.13027824461460114, 0.12007144093513489, 0.1478988081216812, -0.08153476566076279, 0.16800908744335175, -0.10002856701612473, 0.031742941588163376], [-0.12034469842910767, -0.1489698737859726, 0.15699075162410736, 0.03412820026278496, 0.03495343402028084, 0.1620844304561615, -0.0006255224579945207, -0.144412100315094, -0.12692244350910187, -0.12868791818618774, -0.03597722202539444, -0.12532028555870056, 0.0773034542798996, -0.0931713804602623, -0.030559372156858444, -0.0870325043797493, -0.053811367601156235], [0.050575949251651764, -0.06160363927483559, 0.1515277624130249, -0.1274924874305725, 0.03830590471625328, 0.027044976130127907, -0.01684572547674179, -0.027243753895163536, 0.07436245679855347, 0.03999023884534836, -0.12479642033576965, -0.04853874817490578, -0.013400718569755554, 0.029448172077536583, -0.16889476776123047, 0.09757376462221146, 0.06648817658424377], [-0.04304756969213486, -0.022349989041686058, -0.0779004618525505, -0.1168857291340828, -0.1541474610567093, -0.12239863723516464, 0.1342996507883072, -0.04018811509013176, 0.10981342196464539, -0.03327213227748871, 0.005884184502065182, 0.029582388699054718, 0.13721826672554016, -0.10717593878507614, -0.03277378901839256, 0.174452543258667, -0.03179311752319336], [-0.08340639621019363, 0.10044527053833008, -0.11470146477222443, 0.0077659147791564465, 0.11957132071256638, -0.08388782292604446, 0.017796063795685768, 0.06269008666276932, 0.16460585594177246, 0.10096579045057297, -0.00036326367990113795, -0.03127298131585121, -0.15753903985023499, -0.03445308655500412, 0.1514720618724823, 0.01829206943511963, 0.09037232398986816], [0.10965234041213989, -0.08009882271289825, 0.11424088478088379, 0.04884979873895645, 0.1400851160287857, -0.15184758603572845, -0.14932937920093536, 0.07327710092067719, -0.04545522853732109, 0.013538284227252007, 0.04056745767593384, -0.07552679628133774, 0.1707141399383545, 0.09769371896982193, -0.07495595514774323, 0.13883879780769348, -0.12464220076799393], [0.16740335524082184, -0.037483930587768555, -0.02807966247200966, -0.17610114812850952, 0.10823740065097809, -0.07708761841058731, 0.10945386439561844, -0.09171544015407562, 0.01339251920580864, -0.049566254019737244, 0.06746534258127213, -0.03229441121220589, 0.027292339131236076, -0.01807848922908306, 0.02210203930735588, 0.045751772820949554, -0.11249539256095886], [-0.16853675246238708, -0.10352548956871033, 0.10862882435321808, 0.08556229621171951, -0.034750666469335556, 0.11973009258508682, 0.011408435180783272, -0.0312439426779747, 0.16064129769802094, -0.028861867263913155, 0.02491936646401882, -0.02641153335571289, 0.11292004585266113, -0.03402826935052872, -0.06782589107751846, 0.09406236559152603, 0.16692659258842468], [-0.0025049978867173195, -0.10630311816930771, 0.1459009200334549, 0.08423218131065369, 0.08256185799837112, -0.15950238704681396, 0.04041444510221481, 0.00025692718918435276, -0.02583816647529602, -0.11609591543674469, -0.10244107246398926, -0.004511461593210697, 0.15589790046215057, 0.08408477157354355, -0.039217978715896606, 0.167513906955719, -0.02772269956767559], [0.17031137645244598, 0.07519320398569107, -0.017784953117370605, 0.07895097136497498, 0.13066260516643524, -0.09833262115716934, 0.17613084614276886, 0.11437524855136871, -0.07809342443943024, 0.08121059089899063, -0.014440681785345078, 0.0017222092719748616, -0.12643557786941528, 0.14065994322299957, -0.14819857478141785, -0.10244418680667877, 0.08114348351955414], [0.06759005784988403, 0.07205690443515778, -0.13841906189918518, -0.03796255216002464, -0.002471364801749587, -0.08161511272192001, 0.150083526968956, -0.13822193443775177, 0.12776947021484375, -0.0513988621532917, 0.14008113741874695, 0.06226935610175133, -0.1398080736398697, -0.11997447907924652, 0.15606427192687988, -0.050493545830249786, 0.06961321085691452], [0.1317472755908966, -0.05029651150107384, 0.08540264517068863, 0.11177379637956619, 0.14657263457775116, -0.10318056493997574, 0.09107223898172379, 0.1575327217578888, -0.13746076822280884, 0.14080744981765747, 0.062174905091524124, 0.11031783372163773, 0.10967328399419785, -0.005056588910520077, 0.12638287246227264, 0.0936291366815567, -0.13300934433937073], [-0.16277609765529633, -0.07475443184375763, 0.015545506961643696, 0.08826283365488052, -0.02674579992890358, -0.04478311166167259, 0.053437862545251846, -0.1452053338289261, 0.05202313885092735, -0.15331487357616425, -0.04601424187421799, -0.09305368363857269, -2.06519562198082e-05, 0.1183561459183693, -0.025660265237092972, -0.14125889539718628, 0.05861261114478111], [-0.08729294687509537, 0.07857774198055267, 0.18138757348060608, -0.012194028124213219, -0.10128747671842575, -0.14876070618629456, 0.0212563369423151, -0.014142918400466442, 0.04951583966612816, 0.08345471322536469, -0.05477340146899223, -0.13250800967216492, 0.0716584175825119, -0.09162639081478119, -0.03998500108718872, -0.06442867964506149, 0.09351977705955505], [0.08595533668994904, -0.09191378206014633, 0.13910657167434692, 0.018794206902384758, -0.09165409207344055, 0.06694048643112183, 0.12434015423059464, 0.10708370059728622, 0.050309743732213974, -0.05153798684477806, -0.1629280000925064, 0.00010028458200395107, -0.0565590038895607, 0.020915478467941284, -0.17318259179592133, -0.03912673145532608, -0.011255589313805103], [-0.07857824862003326, 0.15564289689064026, -0.16256597638130188, 0.1678413301706314, 0.00712121557444334, -0.08475815504789352, -0.0967235192656517, -0.129696324467659, -0.11552977561950684, -0.03831706941127777, 0.13619056344032288, -0.020406091585755348, -0.10343533754348755, 0.14238093793392181, 0.13877791166305542, -0.151100754737854, 0.17228801548480988], [0.026629064232110977, -0.15262676775455475, 0.022438403218984604, -0.15521647036075592, 0.15969602763652802, 0.006558492314070463, 0.054362665861845016, 0.13705629110336304, -0.015588100999593735, -0.02391672134399414, -0.038648832589387894, -0.0015140644973143935, 0.039829447865486145, -0.14193272590637207, -0.04546066001057625, -0.041908424347639084, -0.007640639785677195], [-0.1398722529411316, -0.00043493439443409443, 0.009241623803973198, 0.09229858219623566, -0.08283340930938721, 0.15801560878753662, 0.044684212654829025, 0.14504355192184448, 0.12102457135915756, -0.12255652248859406, -0.1186353862285614, 0.12279623001813889, -0.1740529090166092, -0.038665056228637695, 0.015183170326054096, -0.0738707184791565, 0.01723586954176426], [0.03690239042043686, -0.0932425856590271, 0.09721168130636215, 0.15145401656627655, -0.13062983751296997, 0.011896179988980293, -0.02560490556061268, 0.052839986979961395, -0.151283398270607, 0.04794018343091011, 0.044472891837358475, -0.16375310719013214, 0.024714110419154167, 0.16416829824447632, 0.06624970585107803, -0.14235226809978485, 0.05580824241042137], [0.05235492065548897, -0.12131211161613464, 0.1647975742816925, 0.020497718825936317, 0.16317999362945557, -0.059138938784599304, 0.14846175909042358, 0.12603023648262024, -0.13425596058368683, -0.10665780305862427, -0.15170691907405853, 0.09155340492725372, 0.15796130895614624, -0.1474621444940567, -0.027234956622123718, 0.09008490294218063, 0.011975225992500782], [-0.10109271109104156, 0.16511961817741394, -0.007263777311891317, -0.11839991807937622, -0.1621858924627304, 0.07032690197229385, -0.0137929143384099, -0.07017210125923157, 0.058496493846178055, 0.022239964455366135, 0.0850493460893631, -0.16725215315818787, 0.16250456869602203, 0.1026027500629425, 0.15464788675308228, -0.0896650180220604, -0.1420542150735855], [0.11537813395261765, -0.12134429067373276, 0.042103394865989685, -0.10719584673643112, 0.05410062149167061, -0.10692708194255829, -0.062311626970767975, -0.03195985034108162, -0.17577239871025085, 0.17072415351867676, 0.047980181872844696, -0.10239820927381516, 0.016849340870976448, -0.16900426149368286, -0.026847414672374725, 0.0551719106733799, 0.04028265178203583], [0.08420170843601227, -0.16057150065898895, -0.08430452644824982, 0.06894101202487946, 0.1452287882566452, -0.04747115448117256, -0.0630568265914917, -0.11690188944339752, 0.025128014385700226, 0.03371381014585495, -0.027694588527083397, -0.10587479919195175, -0.09250950813293457, -0.07707008719444275, -0.1135835200548172, 0.094511479139328, -0.11668681353330612], [0.13400034606456757, 0.15648698806762695, 0.13489161431789398, -0.08717101812362671, -0.028548041358590126, 0.06420880556106567, 0.1289786547422409, -0.10773555934429169, 0.0010798654984682798, -0.149527445435524, -0.12286128848791122, 0.11843325197696686, -0.10416542738676071, -0.05772050842642784, -0.0880749449133873, 0.08160525560379028, 0.10937448590993881], [-0.20589762926101685, 0.2651081085205078, -0.06284968554973602, -0.1078292578458786, 0.09939616918563843, -0.0785595253109932, -0.09020930528640747, 0.0042043826542794704, -0.07135459780693054, 0.09479738026857376, 0.12955942749977112, -0.1830468326807022, 0.0037444112822413445, 0.054433051496744156, 0.13215669989585876, -0.07169759273529053, -0.1597759872674942], [-0.0238055307418108, 0.1217351034283638, -0.03959578275680542, 0.007161508314311504, -0.05631617456674576, -0.10748226195573807, 0.09118714928627014, 0.094253309071064, 0.005244817119091749, -0.1468207985162735, -0.04464097321033478, 0.07004300504922867, -0.08034837245941162, -0.049865029752254486, 0.052417486906051636, -0.06434445083141327, -0.06397697329521179], [0.000591467774938792, 0.12936680018901825, 0.03198353573679924, 0.053517941385507584, -0.17195972800254822, 0.09437280148267746, 0.08058599382638931, -0.11461123079061508, -0.038136597722768784, -0.029675932601094246, -0.13395023345947266, 0.06498076766729355, 0.07917820662260056, -0.13930074870586395, 0.1700204461812973, 0.08285701274871826, -0.14574407041072845], [-0.12474628537893295, 0.1068381518125534, -0.06626881659030914, -0.010640920139849186, 0.037231702357530594, 0.09537762403488159, -0.1475108414888382, 0.08458052575588226, -0.032980289310216904, -0.017198653891682625, 0.021371297538280487, -0.11410962045192719, -0.04052404686808586, -0.08640413731336594, 0.1593860238790512, -0.1042805090546608, 0.10314320027828217], [0.06655657291412354, 0.07407616078853607, -0.12749792635440826, 0.02505864016711712, 0.0661814883351326, 0.07262245565652847, 0.15507102012634277, -0.03139512240886688, 0.002512542298063636, -0.033946335315704346, 0.0005351385334506631, -0.024730738252401352, 0.14097797870635986, 0.12706883251667023, -0.03337609022855759, -0.007035552058368921, 0.10497254133224487], [0.04149293899536133, 0.14799770712852478, -0.027714066207408905, -0.1291068196296692, 0.11839936673641205, 0.05392885208129883, 0.05882434919476509, -0.0514613576233387, 0.03973787650465965, 0.046929024159908295, -0.008127814158797264, 0.05206470936536789, -0.1532270610332489, -0.0996173545718193, -0.1350632756948471, 0.14447714388370514, -0.10711700469255447], [-0.020359013229608536, 0.12829898297786713, 0.06846340000629425, -0.040003702044487, -0.1299171894788742, 0.020261064171791077, 0.10899406671524048, -0.01504610851407051, -0.022827407345175743, -0.024918248876929283, -0.11976884305477142, -0.07299893349409103, 0.06734680384397507, -0.09724533557891846, -0.06036768853664398, 0.03278341889381409, 0.08304952085018158], [0.013955223374068737, -0.1468687206506729, 0.04137035459280014, -0.10894808173179626, -0.15737228095531464, 0.09706349670886993, -0.03900909796357155, 0.03123905323445797, 0.09371935576200485, 0.15924929082393646, 0.1461677998304367, 0.013825894333422184, -0.08876033127307892, 0.09457434713840485, 0.14211897552013397, 0.015290730632841587, 0.11630650609731674], [-0.05746223405003548, 0.16689041256904602, -0.07320612668991089, 0.13110770285129547, 0.12643706798553467, 0.15147805213928223, 0.06481698155403137, -0.12717191874980927, 0.14429515600204468, -0.1130078136920929, -0.11563004553318024, -0.08857642859220505, 0.00274051446467638, 0.03288431838154793, -0.1461736112833023, 0.10848256945610046, -0.04140128940343857], [0.09325611591339111, 0.11720007658004761, 0.15928716957569122, 0.061691395938396454, -0.030875874683260918, 0.01931811310350895, 0.11079622060060501, -0.16097483038902283, 0.06117798388004303, 0.11857391893863678, -0.15430821478366852, 0.15667562186717987, 0.03833963721990585, -0.061304233968257904, -0.01790134608745575, 0.05843896418809891, 0.015003076754510403], [-0.11367584019899368, -0.04909307137131691, 0.033604905009269714, -0.15907271206378937, -0.12578733265399933, -0.14540736377239227, 0.03487729653716087, -0.09282145649194717, -0.11245478689670563, 0.09379003196954727, 0.09959237277507782, -0.036496851593256, 0.15440021455287933, 0.037356290966272354, -0.12013950198888779, 0.05718254670500755, 0.01887515000998974], [-0.17400772869586945, -0.15942952036857605, 0.048165395855903625, 0.14782720804214478, 0.012968985363841057, -0.1744869202375412, 0.040959592908620834, -0.01472779456526041, 0.04626729339361191, -0.16330529749393463, -0.15845392644405365, -0.11340013891458511, -0.056241851300001144, 0.15894310176372528, 0.12070363759994507, -0.017603643238544464, 0.03458252176642418], [0.10356829315423965, -0.04109509289264679, 0.14520876109600067, 0.11616179347038269, -0.11290683597326279, -0.10138580203056335, -0.0662209615111351, 0.1537228375673294, -0.02279019169509411, -0.03571563959121704, -0.019889792427420616, -0.12096282094717026, 0.022251155227422714, 0.011733788065612316, 0.15156053006649017, -0.03286585956811905, 0.03275414928793907], [-0.17089402675628662, -0.17492960393428802, 0.0808507651090622, -0.09770414978265762, 0.13531097769737244, -0.046961914747953415, -0.04731588438153267, 0.1051427498459816, 0.07282703369855881, -0.03337375074625015, -0.06131599098443985, -0.043874341994524, 0.13461966812610626, 0.15861669182777405, -0.11060348898172379, -0.1232181042432785, -0.07169189304113388], [0.111908458173275, 0.17449411749839783, -0.09291573613882065, -0.12985239923000336, 0.04447733610868454, 0.02975889854133129, 0.17470243573188782, 0.17125758528709412, 0.16188675165176392, 0.09583073854446411, 0.15590384602546692, -0.029129287227988243, 0.10915995389223099, -0.13101477921009064, -0.14736822247505188, -0.007437338121235371, -0.12555904686450958], [0.03626690059900284, 0.06252533197402954, -0.16861769556999207, -0.15452848374843597, 0.12300287932157516, 0.06814628839492798, 0.07083837687969208, 0.12770551443099976, 0.15695534646511078, 0.07308674603700638, -0.16024096310138702, -0.12491000443696976, 0.02350502274930477, 0.0925634354352951, 0.09254404902458191, 0.1284857541322708, -0.1291295737028122], [0.016415797173976898, 0.013095446862280369, 0.12697701156139374, -0.011346395127475262, 0.04277776554226875, -0.011269203387200832, 0.1749298870563507, 0.06961409747600555, -0.10366569459438324, 0.11563095450401306, 0.17399515211582184, 0.11689779907464981, 0.13660864531993866, -0.006267426069825888, -0.16080176830291748, 0.1349850744009018, 0.08508025854825974], [-0.08328872174024582, 0.11033850908279419, -0.11658111214637756, -0.09813476353883743, 0.017819665372371674, 0.09541517496109009, -0.1083095595240593, -0.12329620122909546, -0.13379007577896118, -0.1338970810174942, 0.05984378233551979, -0.006755970884114504, 0.15534409880638123, -0.17575770616531372, -0.04047701135277748, 0.10124248266220093, 0.05880347266793251], [0.1413303017616272, -0.14796149730682373, -0.01943995989859104, -0.10421454906463623, 0.1102936640381813, -0.12047786265611649, 0.03177223354578018, 0.009252960793673992, 0.06932500749826431, 0.17420965433120728, -0.02604963816702366, 0.1690165102481842, -0.08707623183727264, 0.004666246008127928, -0.1554754078388214, -0.16088388860225677, -0.052532799541950226], [-0.13730134069919586, 0.008211406879127026, -0.11601787805557251, 0.0486028790473938, -0.0570727102458477, -0.007891722954809666, -0.08001979440450668, 0.08231905102729797, 0.03403741493821144, -0.09888821840286255, 0.15518198907375336, 0.11558427661657333, 0.00777651509270072, 0.08793956786394119, -0.11268185079097748, -0.06908127665519714, 0.14742836356163025], [0.017914222553372383, -0.07779622822999954, -0.06887524574995041, -0.060290005058050156, 0.011839223094284534, 0.013469045981764793, -0.1703890860080719, -0.142497256398201, -0.01666034199297428, 0.08432096242904663, 0.14371275901794434, 0.11836923658847809, 0.12394233047962189, -0.1271342635154724, 0.10914865136146545, -0.1529495120048523, 0.04142824187874794], [0.05479886755347252, -0.05896289646625519, -0.17341430485248566, 0.10653837025165558, -0.04029998555779457, 0.05497201159596443, -0.13993850350379944, 0.09486653655767441, -0.013719306327402592, -0.07956662774085999, -0.031794220209121704, 0.1866292655467987, 0.09684887528419495, 0.04679905250668526, -0.006379361730068922, 0.017545266076922417, 0.15943600237369537], [0.034832727164030075, 0.0822533443570137, 0.10296915471553802, -0.04762507230043411, -0.002988801570609212, -0.1395876258611679, -0.034460801631212234, -0.05326326936483383, 0.04985679313540459, 0.1337629109621048, 0.049983106553554535, 0.15019549429416656, 0.14102992415428162, -0.13660922646522522, 0.12908366322517395, -0.07053675502538681, 0.09456817060709], [0.08017723262310028, -0.007238173391669989, 0.08817122876644135, 0.10133233666419983, -0.02078450657427311, 0.06775396317243576, 0.13123568892478943, -0.08369188010692596, 0.036219313740730286, 0.036016546189785004, -0.00023149156186264008, 0.06975168734788895, 0.11063650995492935, 0.11371573805809021, -0.047160763293504715, 0.04769141227006912, 0.062282316386699677], [-0.02001054398715496, 0.009075311943888664, -0.027319271117448807, -0.13871705532073975, -0.06859325617551804, -0.018540630117058754, -0.15894411504268646, 0.16058239340782166, -0.0238532405346632, -0.12655028700828552, 0.08512120693922043, 0.0908772423863411, -0.04459467530250549, 0.023756155744194984, -0.15412704646587372, -0.07322005182504654, -0.03405829891562462], [0.04030216485261917, 0.1172039583325386, -0.15267032384872437, -0.04419815540313721, -0.11990202963352203, 0.08688802272081375, -0.15291552245616913, 0.15711304545402527, 0.08450409024953842, -0.0865863785147667, -0.15262673795223236, -0.11089824140071869, 0.10095798969268799, 0.12871061265468597, 0.09497673809528351, -0.04682023823261261, -0.03147783502936363], [0.024800533428788185, -0.09293793141841888, 0.07186806946992874, 0.029974164441227913, 0.16648641228675842, 0.1509542018175125, 0.05152544751763344, -0.08596551418304443, 0.016652092337608337, 0.06731034815311432, 0.09932475537061691, -0.12733273208141327, 0.14375416934490204, 0.10186159610748291, 0.06422579288482666, -0.026787692680954933, 0.06790950894355774], [0.06672392040491104, 0.1514548510313034, -0.04272950813174248, -0.08620509505271912, 0.17571954429149628, 0.0976409912109375, 0.06587288528680801, -0.06697968393564224, -0.010060558095574379, -0.05813769996166229, 0.1351318061351776, -0.10557328164577484, -0.022141804918646812, -0.08793501555919647, -0.03830520436167717, 0.028742358088493347, -0.06967655569314957], [-0.04452384635806084, 0.0019233714556321502, 0.03302694484591484, -0.025465883314609528, -0.10149546712636948, -0.05375158041715622, -0.15902791917324066, -0.16027280688285828, -0.13993945717811584, 0.04214130714535713, -0.1620040386915207, 0.10063540190458298, -0.15660756826400757, 0.09389027953147888, -0.15461952984333038, 0.14090752601623535, -0.07065735757350922], [0.15213756263256073, 0.0962085872888565, -0.03249089792370796, 0.0940859243273735, -0.057305194437503815, 0.0002986736362800002, -0.11048880219459534, 0.07899800688028336, -0.010443083010613918, 0.07099883258342743, -0.11643029004335403, 0.10593852400779724, 0.06407062709331512, 0.1141115352511406, -0.06292890757322311, -0.11681143939495087, -0.14963845908641815], [-0.039331164211034775, -0.15681520104408264, -0.049385737627744675, 0.0341443195939064, 0.1282617449760437, 0.1477539986371994, 0.16883666813373566, 0.009667475707828999, -0.15882903337478638, -0.1679072231054306, -0.11129947751760483, -0.1714944839477539, -0.17569760978221893, 0.03663431480526924, 0.06075598672032356, 0.04031402990221977, -0.04103107377886772], [0.12509770691394806, 0.16332793235778809, 0.0036321310326457024, 0.027426449581980705, 0.09515801817178726, -0.14678628742694855, 0.1350916028022766, -0.052245210856199265, -0.08115478605031967, 0.019421352073550224, 0.10885778814554214, -0.07822149246931076, -0.08391512930393219, 0.12201012670993805, -0.08963220566511154, -0.029819654300808907, -0.014616737142205238], [-0.001947795390151441, -0.11206158995628357, 0.08344200998544693, -0.14974921941757202, 0.19537097215652466, 0.058767709881067276, 0.04896287992596626, -0.05078345537185669, -0.0061732567846775055, -0.09374204277992249, -0.13967113196849823, 0.04862497001886368, 0.17958484590053558, 0.0013122987002134323, 0.004091706592589617, -0.14896932244300842, 0.05270250886678696], [0.0004980493104085326, 0.023374473676085472, 0.11804773658514023, -0.06910869479179382, -0.11554400622844696, 0.1125694289803505, 0.05141765624284744, 0.024851614609360695, -0.14772669970989227, -0.0858917385339737, 0.0091129494830966, -0.16827638447284698, 0.13483887910842896, -0.06452383100986481, 0.13192519545555115, 0.12496978789567947, 0.006299309898167849], [-0.1637948900461197, -0.16879650950431824, 0.07496992498636246, -0.06557413190603256, 0.05159130319952965, -0.1498624086380005, 0.1602967530488968, 0.015424313023686409, 0.11918981373310089, -0.060921560972929, 0.07565531879663467, -0.07090743631124496, 0.054891739040613174, -0.08415231108665466, -0.0755484327673912, 0.09030023217201233, 0.03226669877767563], [0.105069100856781, 0.11733193695545197, 0.05836078152060509, -0.004039817489683628, 0.06779234111309052, 0.09810741245746613, -0.15965035557746887, 0.08379729092121124, -0.022318420931696892, -0.024696260690689087, 0.0626940056681633, -0.00313559896312654, 0.15961278975009918, -0.0682714655995369, 0.14210717380046844, 0.12517331540584564, -0.17438198626041412], [0.04907787963747978, -0.005212253890931606, 0.042304884642362595, -0.16821891069412231, 0.12992489337921143, 0.028597673401236534, -0.013951726257801056, -0.016727445647120476, -0.17524871230125427, 0.14421893656253815, -0.01608060859143734, 0.08036667108535767, 0.09304726868867874, -0.12379488348960876, -0.13846373558044434, 0.08306519687175751, 0.10653632879257202], [-0.11834032088518143, 0.16304337978363037, -0.1260477602481842, -0.03136710450053215, 0.16958865523338318, 0.11991012096405029, 0.13599973917007446, -0.029696699231863022, -0.11552681773900986, -0.14126569032669067, 0.10596878826618195, -0.029776539653539658, -0.07324929535388947, -0.05020545795559883, -0.1310724914073944, 0.08828103542327881, -0.009759175591170788], [-0.1217680349946022, -0.058926623314619064, -0.11683228611946106, -0.17004963755607605, -0.002070274204015732, -0.14991870522499084, 0.15166890621185303, 0.05102219432592392, 0.044890355318784714, 0.0515754334628582, -0.11662494391202927, -0.16767343878746033, 0.005315687041729689, 0.14863751828670502, -0.09058636426925659, 0.16362525522708893, 0.1298455446958542], [-0.06648630648851395, 0.16258519887924194, -0.15634748339653015, -0.14134882390499115, -0.03160788491368294, -0.04909819737076759, 0.09941084682941437, 0.07744374871253967, 0.13836809992790222, -0.17597122490406036, 0.023663735017180443, -0.12556664645671844, 0.09169991314411163, 0.1339663416147232, -0.09355992823839188, 0.08964899927377701, -0.0004488157865125686], [0.00705904932692647, -0.11862531304359436, -0.0075141508132219315, -0.014629929326474667, -0.09047971665859222, -0.0230852197855711, 0.17192363739013672, -0.008048614487051964, 0.12601344287395477, -0.1333627700805664, -0.04327237978577614, 0.10372946411371231, -0.1571657657623291, 0.09396930783987045, -0.047362878918647766, -0.10613657534122467, 0.11952909082174301], [-0.0964968279004097, -0.05059351772069931, 0.05557561293244362, -0.037534382194280624, 0.05395687744021416, 0.04310452938079834, 0.1576366424560547, 0.17562206089496613, -0.1469697505235672, 0.014675616286695004, -0.14878520369529724, 0.14555951952934265, -0.15613792836666107, -0.12360665202140808, -0.10174019634723663, 0.09846211969852448, -0.06439416855573654], [-0.05327171832323074, -0.04290555417537689, 0.091131791472435, -0.16056326031684875, 0.06750306487083435, 0.1419544368982315, 0.11862609535455704, -0.06963662058115005, 0.057487498968839645, -0.024005284532904625, 0.025838693603873253, 0.08408890664577484, 0.01342520397156477, -0.1506587564945221, 0.00024143821792677045, -0.06240687891840935, -0.053312160074710846], [-0.1307191401720047, -0.045712534338235855, 0.07250697165727615, -0.03095521591603756, -0.019576873630285263, 0.15612712502479553, 0.02314475178718567, -0.0814943015575409, -0.022156408056616783, -0.036879587918519974, -0.08273666352033615, 0.07454928010702133, -0.17648307979106903, -0.13114896416664124, -0.14173398911952972, 0.1258232146501541, 0.05708581954240799], [0.07502442598342896, 0.06604689359664917, 0.14982357621192932, -0.14148305356502533, 0.03838673606514931, 0.0346633605659008, 0.047650888562202454, 0.013999602757394314, -0.1448809951543808, -0.09648441523313522, -0.17586997151374817, 0.07914101332426071, 0.1610412895679474, 0.049040745943784714, 0.04742957651615143, 0.12516076862812042, 0.09561775624752045], [-0.026999901980161667, -0.14124299585819244, -0.04694107174873352, -0.019546527415513992, 0.04939496889710426, 0.13473176956176758, -0.013921041041612625, 0.14438115060329437, 0.08192550390958786, 0.10595118999481201, 0.016326824203133583, 0.08616543561220169, -0.12139385938644409, 0.1008075475692749, -0.14630690217018127, 0.0035289344377815723, 0.033879995346069336], [0.1301850974559784, 0.010134799405932426, -0.06662139296531677, 0.06925660371780396, -0.10786429792642593, -0.026882419362664223, -0.15002575516700745, -0.08332309871912003, 0.10857940465211868, 0.11216268688440323, -0.01077770721167326, 0.019131150096654892, -0.032014112919569016, 0.11240421235561371, -0.00018230619025416672, -0.017723865807056427, -0.13860823214054108], [0.28291136026382446, -0.03516791760921478, -0.18471693992614746, 0.1625533103942871, -0.02462032251060009, 0.12017526477575302, 0.043197229504585266, -0.12869592010974884, 0.012191715650260448, -0.09875628352165222, -0.019036730751395226, 0.07106268405914307, 0.030787967145442963, -0.1556793600320816, 0.0027957502752542496, -0.05297692120075226, 0.012033499777317047], [0.1076914370059967, 0.058029044419527054, -0.17402085661888123, 0.01473354734480381, -0.11030536144971848, 0.1431431919336319, -0.038877494633197784, 0.08655653893947601, -0.17451490461826324, -0.07816746085882187, 0.0338849276304245, 0.10746253281831741, 0.06083450838923454, -0.0551874004304409, 0.020318901166319847, 0.04259295016527176, -0.04763472452759743], [-0.032222844660282135, -0.14820076525211334, 0.13500471413135529, 0.10394034534692764, 0.07972679287195206, -0.15598438680171967, -0.05685386434197426, -0.1592406928539276, -0.07361878454685211, 0.1567631959915161, 0.030832253396511078, 0.09934768825769424, 0.09344656020402908, -0.16426289081573486, -0.03554471209645271, 0.09018087387084961, -0.16347818076610565], [-0.08341880887746811, -0.04560181498527527, -0.16902922093868256, 0.14255598187446594, -0.05376134067773819, 0.10908396542072296, -0.11853718757629395, -0.1134893000125885, -0.16858814656734467, 0.1310277283191681, -0.06992711871862411, 0.1357310563325882, 0.10034104436635971, -0.17598466575145721, 0.06015581637620926, 0.09267450869083405, -0.1237085610628128], [-0.06937824189662933, 0.046326909214258194, -0.04487960785627365, -0.015393735840916634, -0.10286837816238403, -0.10037868469953537, -0.08729347586631775, 0.013656863942742348, -0.09090076386928558, 0.006651320494711399, 0.047840844839811325, -0.009380877017974854, -0.15463341772556305, 0.1050245463848114, -0.024515535682439804, 0.05692009627819061, -0.09383685886859894], [-0.07517282664775848, -0.03978218883275986, 0.140594944357872, -0.09543265402317047, -0.11819636821746826, 0.11597511917352676, 0.1368626356124878, -0.15106528997421265, -0.07522164285182953, -0.13909368216991425, -0.022874511778354645, -0.05992995947599411, -0.013295447453856468, 0.06593102216720581, 0.04589829221367836, -0.02169741503894329, 0.063712939620018], [0.14165844023227692, 0.074223592877388, -0.08871850371360779, -0.1560334414243698, -0.057474371045827866, -0.06581668555736542, 0.11953572928905487, 0.06348377466201782, -0.11590981483459473, -0.12148858606815338, 0.0810360386967659, -0.05896114185452461, 0.09473258256912231, -0.14279277622699738, 0.14190395176410675, 0.13009317219257355, 0.007208059076219797], [0.06084733083844185, -0.09457989782094955, 0.20024451613426208, 0.01901012845337391, 0.1249927207827568, -0.10273884236812592, 0.13815931975841522, -0.18264201283454895, -0.03606485202908516, 0.15757231414318085, 0.06329111009836197, 0.02781575359404087, -0.12140648066997528, -0.06547975540161133, -0.19914856553077698, -0.11978801339864731, 0.16751080751419067], [-0.12553800642490387, -0.14308147132396698, -0.04403236135840416, -0.016905369237065315, 0.12906546890735626, -0.1197940930724144, -0.07297239452600479, 0.00877435877919197, 0.046083804219961166, -0.13319031894207, -0.14763839542865753, 0.0012467489577829838, 0.023845460265874863, -0.1096288189291954, 0.0008736960589885712, 0.1222345381975174, -0.012277123518288136], [0.15599407255649567, -0.13419502973556519, -0.11956344544887543, 0.06656701117753983, 0.054269857704639435, -0.10817251354455948, -0.057646721601486206, 0.054163672029972076, 0.05782490596175194, 0.07302282750606537, 0.0024954797700047493, 0.1676730364561081, 0.05371040105819702, -0.1310335248708725, -0.0956806167960167, -0.014255043119192123, -0.044320642948150635], [0.1167786717414856, 0.03489561006426811, 0.16331909596920013, -0.023525087162852287, 0.10735046863555908, -0.07580163329839706, 0.04325954243540764, 0.11427327245473862, -0.005761969368904829, -0.09954695403575897, 0.049430642277002335, 0.13625264167785645, -0.15114356577396393, 0.04187896102666855, -0.029081733897328377, -0.14018096029758453, 0.17235702276229858], [-0.00022272212663665414, -0.0575718954205513, 0.09501198679208755, -0.12443587929010391, -0.1342105120420456, 0.03793403133749962, 0.1029936894774437, 0.0036092419177293777, -0.06831524521112442, -0.12064963579177856, -0.06124390661716461, -0.14137007296085358, -0.17253269255161285, 0.1190909817814827, 0.1470821052789688, 0.016488632187247276, 0.007804980501532555]], "lstm.weight_hh_l0": [[0.11025974154472351, 0.07124235481023788, -0.13035687804222107, -0.08403035998344421, -0.09062132984399796, -0.07505683600902557, 0.033813077956438065, -0.08414889872074127, -0.044869888573884964, -0.11269697546958923, -0.03781445696949959, -0.07669740170240402, -0.16363775730133057, 0.16691824793815613, -0.08023716509342194, -0.17415058612823486, 0.11533385515213013, 0.07438323646783829, 0.004911330062896013, 0.14255854487419128, -0.1600705087184906, 0.17492231726646423, 0.11688511818647385, -0.027354948222637177, -0.17309679090976715, -0.10307910293340683, 0.12588493525981903, -0.01143872831016779, 0.1739846169948578, 0.03172406926751137, -0.14876438677310944, -0.15906842052936554], [-0.13721251487731934, 0.01619992032647133, -0.02785145863890648, -0.07027418166399002, -0.06332479417324066, -0.07227830588817596, 0.08503706008195877, 0.026074526831507683, 0.10673508048057556, 0.10536901652812958, -0.14616094529628754, -0.10968217998743057, -0.08255218714475632, 0.16342216730117798, 0.15996895730495453, 0.11991138756275177, -0.17045730352401733, 0.05284947156906128, -0.11849986761808395, -0.17217214405536652, -0.1651107221841812, 0.11844724416732788, 0.023658500984311104, -0.005648351740092039, 0.11623706668615341, -0.048247624188661575, 0.08920538425445557, -0.10733773559331894, -0.10667385905981064, 0.04372364655137062, -0.10492680966854095, 0.0010876837186515331], [-0.07844723016023636, -0.12350952625274658, -0.16011303663253784, -0.003495996817946434, 0.025134610012173653, -0.16092385351657867, -0.07080040127038956, -0.08231446146965027, 0.11291785538196564, 0.16441527009010315, -0.16589249670505524, 0.15897780656814575, -0.07645545899868011, -0.14456340670585632, 0.14076359570026398, 0.09438120573759079, -0.011642434634268284, 0.1742955446243286, 0.10963505506515503, -0.14856114983558655, 0.113092802464962, 0.06040279567241669, 0.02506464533507824, -0.1488322764635086, -0.10796802490949631, 0.059887152165174484, -0.1170191839337349, 0.09738054126501083, -0.1738852560520172, 0.002793429885059595, 0.09902393817901611, -0.08542780578136444], [-0.04248655214905739, -0.06436725705862045, 0.1725592017173767, 0.11047930270433426, -0.08416824787855148, 0.025509336963295937, 0.1393432468175888, 0.14095711708068848, -0.002766793128103018, -0.08237213641405106, 0.13299906253814697, 0.008905628696084023, -0.057984158396720886, 0.004843494854867458, -0.1738596260547638, -0.022551534697413445, -0.12057481706142426, 0.14930929243564606, -0.008448420092463493, 0.0898260623216629, -0.11161147058010101, 0.07269983738660812, 0.02816353552043438, 0.08485987782478333, 0.01402078103274107, -0.09191586822271347, 0.16908696293830872, -0.014761090278625488, 0.10172323137521744, 0.12707297503948212, 0.01221904531121254, 0.17071478068828583], [-0.14286573231220245, 0.08086170256137848, -0.06000558286905289, -0.07483160495758057, 0.1515578031539917, -0.046900928020477295, -0.06058008596301079, -0.06820318847894669, 0.10998352617025375, 0.029070409014821053, -0.08104906231164932, 0.14760538935661316, 0.15784421563148499, -0.16416755318641663, -0.1199658215045929, 0.08341722935438156, 0.04408503323793411, 0.1570267379283905, -0.1176711767911911, -0.007581143174320459, 0.11790388822555542, -0.051055509597063065, -0.08355399966239929, 0.13223150372505188, 0.1054748073220253, -0.013463536277413368, -0.04619364067912102, 0.07910257577896118, -0.10517461597919464, -0.006953934673219919, 0.1536555290222168, -0.12680405378341675], [0.13935120403766632, 0.1655397266149521, 0.06023775041103363, -0.14641718566417694, -0.1095774844288826, -0.09791020303964615, -0.023002147674560547, 0.06528529524803162, -0.05023360624909401, 0.17205072939395905, -0.15878604352474213, -0.01104907039552927, -0.04529658704996109, 0.16956892609596252, -0.10313424468040466, 0.08223016560077667, 0.06070800498127937, -0.14145179092884064, -0.04866195097565651, -0.15314018726348877, 0.08200651407241821, -0.10972308367490768, -0.0993596762418747, -0.04523532837629318, 0.038492780178785324, 0.017029011622071266, -0.08324851840734482, -0.03186411410570145, -0.10723190754652023, 0.05419882386922836, -0.106545589864254, 0.056362051516771317], [-0.14888876676559448, -0.007481676526367664, 0.1237429529428482, 0.13093352317810059, -0.035130832344293594, 0.16744062304496765, 0.1653740406036377, -0.12041012942790985, 0.10841669887304306, 0.0378691740334034, 0.1724119931459427, -0.06301969289779663, -0.02709951251745224, 0.010393897071480751, -0.13003766536712646, -0.0674033984541893, -0.14312629401683807, -0.1694091409444809, -0.05030542239546776, -0.046960797160863876, -0.04372181370854378, -0.046682942658662796, 0.11572518199682236, -0.07909302413463593, -0.10150258988142014, 0.14967861771583557, 0.09692228585481644, 0.01448421273380518, -0.12816256284713745, 0.039660099893808365, 0.08186784386634827, 0.008778167888522148], [-0.16731318831443787, -0.05416654050350189, 0.04500090703368187, -0.02673005685210228, 0.16402071714401245, -0.16280244290828705, -0.15333303809165955, -0.11029361933469772, -0.038858868181705475, 0.1073194071650505, 0.16334731876850128, -0.11432337015867233, 0.019168702885508537, -0.13637040555477142, 0.04914720728993416, 0.08593133091926575, -0.13628952205181122, -0.135112002491951, -0.09484735131263733, -0.06900328397750854, 0.1288536638021469, -0.0376761220395565, -0.11642085015773773, -0.17199133336544037, -0.06329693645238876, -0.13810643553733826, 0.004672231152653694, 0.1159394234418869, -0.16010023653507233, -0.0983174666762352, -0.15730838477611542, 0.1504753679037094], [0.13856975734233856, 0.052029017359018326, -0.04931577295064926, -0.09086409211158752, 0.11745569854974747, -0.0006755085778422654, -0.136341392993927, 0.17584863305091858, 0.004542376380413771, 0.10050181299448013, -0.1299779862165451, 0.01467435248196125, 0.1583990454673767, -0.1643420308828354, 0.07783068716526031, 0.15948818624019623, -0.08033305406570435, 0.13806197047233582, -0.11085381358861923, -0.011416105553507805, 0.09515286982059479, 0.1087229996919632, 0.08826730400323868, 0.02133583091199398, 0.06297016888856888, 0.06171206757426262, 0.02801576815545559, -0.10773450881242752, -0.024706630036234856, 0.1083042100071907, -0.16355669498443604, 0.060976963490247726], [-0.0712612122297287, -0.08956004679203033, 0.03983496502041817, -0.008434089832007885, -0.017585624009370804, 0.012507624924182892, -0.1281282901763916, 0.060747746378183365, -0.0317634642124176, -0.07622598856687546, -0.16801060736179352, 0.15456454455852509, -0.06512189656496048, 0.10067050904035568, 0.1739453673362732, -0.02777477353811264, 0.008877917192876339, -0.061654746532440186, 0.07863050699234009, 0.012320703826844692, 0.1383746713399887, -0.0176317747682333, 0.11418219655752182, 0.14864464104175568, -0.06468774378299713, -0.14605307579040527, 0.05497272312641144, -0.01334345992654562, 0.06325440853834152, -0.13881100714206696, 0.15244649350643158, 0.07048425823450089], [0.08682999014854431, 0.1586904525756836, 0.13592372834682465, -0.12877988815307617, 0.13232432305812836, 0.14002381265163422, -0.04699083790183067, -0.07817035168409348, -0.022266997024416924, -0.07602830231189728, -0.027116110548377037, 0.1750679463148117, -0.0962296724319458, -0.14195817708969116, 0.005277101416140795, 0.12542316317558289, -0.015106484293937683, -0.13571211695671082, 0.07269798219203949, 0.045433249324560165, -0.13671815395355225, -0.1686658412218094, 0.016208229586482048, 0.06842422485351562, -0.14064782857894897, -0.015740059316158295, 0.07625406235456467, 0.13805319368839264, -0.018439877778291702, 0.042819518595933914, -0.08145825564861298, -0.15171679854393005], [0.007274883333593607, 0.03929753229022026, -0.06653273850679398, -0.10929647088050842, 0.13415351510047913, 0.17086203396320343, -0.06679932028055191, -0.1352616250514984, 0.15513555705547333, 0.07037550210952759, -0.16604959964752197, -0.03493242338299751, 0.14628319442272186, -0.0281531885266304, -0.17089714109897614, -0.0250043123960495, 0.10023059695959091, -0.15203988552093506, -0.05678411200642586, -0.1766832172870636, 0.07831141352653503, 0.04398299753665924, 0.08001020550727844, -0.02688612788915634, 0.023379677906632423, 0.014078501611948013, 0.04654885455965996, -0.0498124323785305, 0.0986146479845047, 0.02111959643661976, 0.08345027267932892, 0.13630835711956024], [-0.007736830040812492, 0.1369670331478119, -0.0054948111064732075, -0.08738558739423752, 0.13216632604599, 0.050012316554784775, -0.001282591954804957, -0.003951245918869972, -0.040121953934431076, 0.08794752508401871, 0.008618590421974659, 0.05653049051761627, 0.10311711579561234, 0.11461561173200607, 0.008846160024404526, 0.021987562999129295, -0.06049754470586777, 0.08861332386732101, -0.05229732766747475, 0.1763615608215332, -0.13725613057613373, 0.14992395043373108, -0.12256994843482971, 0.08924636989831924, 0.02520545944571495, -0.011303617618978024, 0.13260525465011597, -0.09494979679584503, 0.12967725098133087, 0.1375182420015335, -0.019163982942700386, -0.028518812730908394], [0.147746741771698, 0.09329500049352646, -0.020875712856650352, -0.11220784485340118, -0.10968007147312164, -0.013606118969619274, 0.08155954629182816, 0.05269576236605644, -0.11688186973333359, 0.10837269574403763, 0.1559680998325348, -0.01314931083470583, -0.04509647563099861, 0.11336205899715424, 0.15492992103099823, 0.06231679022312164, 0.020344410091638565, 0.0005960407434031367, -0.08854203671216965, -0.15045565366744995, 0.07803065329790115, 0.1382841169834137, 0.10011941194534302, -0.023581940680742264, 0.14250127971172333, 0.006766865961253643, -0.05186866968870163, -0.012649322859942913, -0.025961698964238167, -0.07537084817886353, 0.1390160471200943, -0.03093201480805874], [-0.09822679311037064, -0.0742211863398552, -0.0619535893201828, 0.02653544396162033, 0.10211551189422607, -0.050165560096502304, 0.09365919232368469, 0.07023542374372482, -0.012030438520014286, -0.06323158740997314, 0.15048468112945557, -0.16821619868278503, -0.027325846254825592, -0.044470760971307755, 0.1675375998020172, 0.015389373525977135, -0.09955515712499619, 0.10880817472934723, 0.0043961904011666775, -0.17041762173175812, -0.035511650145053864, 0.12658175826072693, 0.11750058829784393, -0.059497714042663574, -0.11852958053350449, 0.15790830552577972, -0.026281679049134254, 0.1177707239985466, -0.17157801985740662, -0.0415610708296299, 0.1240910217165947, 0.03712444007396698], [0.040986545383930206, -0.004669849760830402, -0.08447075635194778, -0.007906116545200348, -0.022983519360423088, -0.14897513389587402, 0.0098901791498065, 0.05850829556584358, -0.14305824041366577, 0.06891125440597534, 0.01307658664882183, 0.04186159744858742, 0.13905534148216248, 0.09689611196517944, 0.08386655896902084, -0.0706368088722229, 0.045864515006542206, -0.16013382375240326, 0.012010650709271431, 0.10029398649930954, 0.11274188756942749, -0.060922782868146896, 0.15132981538772583, -0.041478294879198074, 0.022440919652581215, 0.08308719843626022, 0.017281576991081238, -0.09521310031414032, 0.0997532457113266, -0.16529683768749237, 0.11992502212524414, -0.1385708898305893], [-0.031118176877498627, 0.06819465011358261, 0.12661488354206085, -0.08365285396575928, 0.05585329607129097, -0.07486662268638611, 0.004294595215469599, -0.02213297411799431, 0.15768392384052277, 0.16890637576580048, 0.07354626804590225, 0.03753969073295593, -0.12428510934114456, -0.10042738169431686, -0.02387142740190029, 0.0763850063085556, -0.055445779114961624, 0.051373742520809174, -0.08038830757141113, -0.08645667135715485, -0.03890236094594002, 0.016856104135513306, -0.11831456422805786, -0.062465738505125046, -0.03698126599192619, -0.14714746177196503, -0.025868112221360207, 0.04090273752808571, -0.02955259010195732, 0.16657209396362305, -0.14525198936462402, 0.011468473821878433], [-0.010347051545977592, -0.03553524985909462, 0.042942412197589874, 0.1370238959789276, 0.1445302665233612, -0.14073443412780762, -0.04164736717939377, -0.05957237631082535, -0.03996157646179199, 0.16347874701023102, 0.167348712682724, -0.04296312853693962, -0.004313434939831495, -0.10402362793684006, 0.0011960432166233659, -0.10241679847240448, -0.15134716033935547, -0.1518680900335312, -0.07838287204504013, -0.042336657643318176, -0.1717175394296646, 0.09561079740524292, -0.13331694900989532, -0.06832768768072128, 0.0709291622042656, -0.14831328392028809, -0.1510733813047409, 0.08543859422206879, 0.0171542726457119, 0.039960481226444244, 0.06920997053384781, 0.15561950206756592], [-0.02748781628906727, 0.141889750957489, -0.150484099984169, -0.04476703330874443, 0.06000128388404846, -0.07834338396787643, -0.0138551015406847, -0.08054579049348831, -0.023992473259568214, -0.10981133580207825, 0.052686531096696854, 0.0686790868639946, 0.12885892391204834, 0.047974493354558945, -0.16414642333984375, -0.08582410961389542, 0.01695348508656025, 0.03300376236438751, -0.011733977124094963, -0.0720038041472435, 0.09666227549314499, -0.10997684299945831, -0.12327399104833603, -0.17368440330028534, 0.08296862244606018, 0.039478741586208344, -0.07273825258016586, 0.10070403665304184, 0.03220023214817047, 0.010234729386866093, 0.08510738611221313, -0.15761499106884003], [0.0071924226358532906, -0.09528045356273651, -0.07422405481338501, -0.16416315734386444, 0.13442692160606384, -0.08491700887680054, 0.052412133663892746, 0.13652491569519043, -0.16777043044567108, -0.1345100998878479, -0.04794467240571976, -0.12488263100385666, 0.046943940222263336, 0.034358300268650055, -0.1701497733592987, 0.0724911019206047, 0.06292334944009781, 0.14662355184555054, -0.14853760600090027, 0.13615509867668152, -0.17532378435134888, 0.05581081286072731, 0.07364900410175323, -0.07958094030618668, 0.08557034283876419, -0.00291158864274621, -0.09999892115592957, 0.0025654786732047796, 0.07861632853746414, -0.13242249190807343, 0.1294441521167755, -0.15872009098529816], [0.010860970243811607, 0.16041342914104462, 0.16925103962421417, -0.08476972579956055, 0.15392827987670898, -0.17564381659030914, -0.17013181746006012, 0.1257612407207489, 0.05668226629495621, -0.0015345687279477715, 0.17619778215885162, -0.03472563251852989, -0.17248636484146118, 0.11043768376111984, -0.1707306206226349, -0.09046590328216553, -0.010655502788722515, -0.12451470643281937, 0.04519132524728775, 0.08473676443099976, 0.1246950551867485, -0.04763335734605789, 0.04745762050151825, -0.08292729407548904, 0.07786368578672409, 0.13891740143299103, 0.1371683031320572, 0.14292101562023163, -0.09407642483711243, 0.024397971108555794, 0.15906846523284912, 0.04534965008497238], [-0.12496205419301987, 0.13028424978256226, 0.13078515231609344, -0.11142490804195404, -0.13994945585727692, 0.1606868952512741, -0.03882759436964989, 0.014177272096276283, -0.01895834691822529, -0.005205957684665918, -0.11734125018119812, 0.00577662605792284, 0.15930195152759552, 0.02078855410218239, 0.0017725278157740831, 0.1354692578315735, 0.019223935902118683, 0.1540534347295761, -0.06835746765136719, 0.14843711256980896, 0.08983276039361954, -0.1614919900894165, 0.014504015445709229, -0.027147015556693077, -0.10438606888055801, 0.09001662582159042, -0.049861110746860504, 0.15285445749759674, 0.1608182042837143, -0.02766525372862816, -0.0907660573720932, -0.029279984533786774], [-0.15607158839702606, -0.17299585044384003, 0.010336282663047314, -0.030626723542809486, -0.14092634618282318, 0.08560886979103088, -0.1591425985097885, 0.012586545199155807, -0.16044864058494568, 0.1471027433872223, 0.15486618876457214, 0.06993715465068817, 0.12417428940534592, -0.07973869889974594, 0.09625842422246933, 0.17375397682189941, -0.010076826438307762, 0.16824886202812195, 0.11064689606428146, -0.14829027652740479, -0.10512349009513855, 0.04496478661894798, -0.16034886240959167, -0.00032115899375639856, -0.05764123052358627, -0.015489408746361732, 0.04532254859805107, -0.053604405373334885, 0.04611819609999657, -0.09400129318237305, 0.023371396586298943, -0.005991574842482805], [0.0964849442243576, 0.08644626289606094, -0.06710208207368851, 0.09148875623941422, 0.0029401008505374193, 0.0449230819940567, 0.08109715580940247, 0.14548127353191376, -0.12401971220970154, 0.16690196096897125, 0.10025615990161896, -0.16053421795368195, 0.031771220266819, 0.022946007549762726, 0.10368885099887848, -0.017007876187562943, -0.12417340278625488, -0.17105041444301605, -0.10897046327590942, 0.16580839455127716, -0.008876421488821507, -0.005383585579693317, -0.15973103046417236, 0.040161311626434326, -0.12722769379615784, -0.16488397121429443, 0.01154903694987297, 0.16966024041175842, -0.13332310318946838, -0.02073405683040619, 0.07370680570602417, -0.05894297733902931], [0.1394597291946411, 0.07015066593885422, -0.10159662365913391, 0.05465000495314598, 0.017277678474783897, 0.07413031905889511, -0.11797958612442017, 0.05549806356430054, -0.14670327305793762, -0.07286648452281952, 0.13056984543800354, 0.02314702793955803, 0.15614484250545502, 0.14962269365787506, 0.0030833580531179905, 0.1560564637184143, -0.11919229477643967, 0.09735389053821564, -0.08743981271982193, -0.110109843313694, -0.16190946102142334, 0.06138821318745613, -0.07936199009418488, -0.13732022047042847, 0.0669114738702774, -0.008038162253797054, 0.04236072301864624, 0.03725244104862213, -0.12250933796167374, 0.022399932146072388, -0.038228053599596024, -0.1186230406165123], [-0.03536902368068695, -0.1572655439376831, -0.13969747722148895, 0.025637000799179077, -0.005514999385923147, 0.10233008116483688, -0.056158650666475296, 0.12159471213817596, -0.06228402256965637, -0.0563487745821476, -0.1561516523361206, 0.08569351583719254, 0.13850188255310059, -0.03197314590215683, -0.1533026397228241, 0.16854585707187653, -0.12852954864501953, 0.15407831966876984, 0.02022412233054638, -0.11341685056686401, 0.0670350044965744, -0.1367432326078415, -0.07172588258981705, -0.0906018540263176, -0.10596436262130737, 0.11458802968263626, 0.12560336291790009, -0.08217442780733109, 0.08570049703121185, 0.09931780397891998, 0.13054293394088745, 0.09066066890954971], [-0.10889315605163574, 0.08205027878284454, -0.11310213804244995, -0.1159873679280281, -0.08789288997650146, 0.06182035803794861, -0.09662284702062607, 0.14758750796318054, 0.1379414200782776, -0.061730679124593735, 0.05315472558140755, 0.060602761805057526, 0.05890456587076187, 0.04973585158586502, 0.08934012800455093, -0.09733933210372925, -0.06191997975111008, -0.09326694160699844, -0.09264064580202103, 0.1266985833644867, 0.10386040061712265, 0.17020897567272186, -0.09495037794113159, 0.04807322099804878, -0.04822303354740143, 0.032903507351875305, 0.12377877533435822, -0.0364043302834034, 0.08125155419111252, 0.0011804596288129687, -0.020455529913306236, -0.11723725497722626], [-0.041929032653570175, -0.1052752360701561, 0.04944002255797386, 0.16650736331939697, 0.07620485126972198, 0.13358955085277557, 0.17205491662025452, 0.012880350463092327, -0.04440530762076378, -0.03994212672114372, 0.08330448716878891, -0.1733751744031906, -0.1571042537689209, 0.053564827889204025, 0.09186756610870361, -0.0647132396697998, -0.11318932473659515, 0.14125987887382507, -0.11834465712308884, -0.11082631349563599, 0.09824264049530029, 0.025069745257496834, 0.024216756224632263, 0.09793439507484436, -0.13114690780639648, -0.15395651757717133, -0.011806153692305088, -0.0992690846323967, -0.11539113521575928, 0.07577415555715561, 0.1479511708021164, 0.05453852564096451], [-0.0880320593714714, 0.10170795023441315, -0.012562752701342106, 0.03399891406297684, -0.14630047976970673, -0.0862182080745697, -0.17123229801654816, 0.08707669377326965, -0.11499708145856857, -0.11097750067710876, 0.04783055931329727, -0.115115687251091, 0.016114825382828712, 0.025009118020534515, 0.0642656609416008, -0.12785980105400085, 0.047782912850379944, 0.10883332043886185, -0.13867004215717316, 0.09300730377435684, -0.10560596734285355, -0.14095771312713623, 0.000563398003578186, -0.12793709337711334, -0.10516788810491562, -0.04646310582756996, -0.039839643985033035, -0.012542732991278172, 0.03954724967479706, 0.1259794384241104, 0.05683070421218872, 0.05269818380475044], [0.09259369224309921, 0.08408253639936447, 0.16179049015045166, -0.043349023908376694, -0.1705171912908554, -0.13482260704040527, -0.10058221220970154, -0.10566912591457367, -0.11480000615119934, -0.044586580246686935, 0.11481277644634247, -0.17633169889450073, -0.07930352538824081, -0.03221747279167175, -0.10446494817733765, 0.17112796008586884, 0.16684061288833618, -0.01441197656095028, -0.12674249708652496, 0.0898987203836441, -0.024472003802657127, -0.06889268755912781, 0.00017458482761867344, 0.024231908842921257, -0.09349805861711502, 0.15787312388420105, -0.15759947896003723, -0.05659366399049759, 0.07366350293159485, 0.04357604682445526, 0.019840190187096596, 0.09881029278039932], [-0.13638490438461304, 0.05472692474722862, -0.0146102886646986, 0.1037433072924614, -0.14787214994430542, 0.012221725657582283, 0.027670076116919518, -0.009280440397560596, -0.0029770054388791323, 0.06181973218917847, -0.03473077341914177, -0.08532414585351944, 0.04144216701388359, 0.08364181220531464, -0.06549470871686935, 0.1514725238084793, 0.15067030489444733, 0.06315528601408005, -0.07997492700815201, -0.014463850297033787, -0.028521263971924782, 0.04568985849618912, -0.13344475626945496, 0.0779954195022583, 0.17650969326496124, 0.12092918902635574, -0.0076223514042794704, -0.17163559794425964, 0.06425344198942184, 0.11901473999023438, -0.02787013351917267, -0.11180589348077774], [-0.12147945910692215, -0.10620541870594025, -0.06561050564050674, 0.041109971702098846, -0.07695869356393814, 0.14831501245498657, 0.17615960538387299, 0.05924927815794945, -0.15195931494235992, -0.052967336028814316, 0.13574014604091644, 0.02336277812719345, -0.09648285806179047, -0.027982093393802643, -0.14686551690101624, 0.09660879522562027, 0.11111470311880112, 0.050389885902404785, 0.09524675458669662, -0.07008180022239685, -0.16795721650123596, 0.15982051193714142, 0.09492428600788116, -0.12013324350118637, 0.08782690763473511, -0.11659339815378189, -0.14694885909557343, -0.04016101360321045, 0.14503204822540283, -0.1738278865814209, -0.071700319647789, 0.16008104383945465], [0.08019131422042847, 0.03313494473695755, -0.10499264299869537, -0.020191732794046402, 0.05558665469288826, -0.008347457274794579, 0.1433744579553604, 0.15105347335338593, -0.12741194665431976, 0.0216468945145607, -0.024523543193936348, -0.05870798975229263, -0.08943653851747513, 0.001487594097852707, 0.16095829010009766, -0.1491166055202484, -0.09439374506473541, -0.02642171084880829, 0.1037256047129631, -0.10564832389354706, -0.11899570375680923, 0.07968032360076904, -0.1529654860496521, -0.06610357761383057, 0.05816897377371788, 0.15969973802566528, 0.04906158521771431, -0.1309596598148346, 0.0073376609943807125, -0.04591922089457512, 0.027321714907884598, 0.1603800654411316], [0.07337711751461029, -0.04441063851118088, 0.10671531409025192, -0.016959723085165024, -0.14397653937339783, 0.0009214144083671272, -0.14464852213859558, 0.07610618323087692, 0.08869174122810364, -0.013329531066119671, -0.15469060838222504, 0.06981157511472702, 0.04803493246436119, -0.17245976626873016, 0.05399196594953537, 0.030249277129769325, 0.11325439810752869, -0.08765920251607895, 0.026451529935002327, 0.09833870828151703, -0.1042371615767479, 0.04750242829322815, 0.12087675929069519, 0.023030133917927742, -0.16794568300247192, -0.014919331297278404, 0.08969974517822266, -0.08323391526937485, 0.04246802628040314, -0.08295110613107681, -0.13216887414455414, 0.025563707575201988], [0.1375504732131958, 0.08583494275808334, 0.13040687143802643, 0.12175172567367554, -0.12922357022762299, -0.1329994946718216, 0.061904195696115494, -2.9903188988100737e-05, -0.1714576929807663, 0.049600791186094284, -0.13572420179843903, 0.14474262297153473, 0.08940465748310089, 0.018310677260160446, -0.05606474727392197, 0.06993352621793747, 0.12206237018108368, -0.09492068737745285, 0.13796363770961761, -0.0635836198925972, -0.1079811304807663, -0.024335863068699837, -0.04889405146241188, 0.13460953533649445, -0.10343639552593231, 0.030595555901527405, 0.12054639309644699, -0.06957753002643585, -0.022178472951054573, 0.08622901886701584, -0.15815317630767822, 0.04958595708012581], [-0.04759331792593002, -0.08902465552091599, -0.16197499632835388, -0.16774913668632507, 0.01112027745693922, 0.06301242113113403, 0.07637737691402435, 0.16290828585624695, 0.12727713584899902, 0.008063598535954952, 0.14345486462116241, 0.04438747838139534, -0.16262441873550415, -0.1262148916721344, -0.008497584611177444, -0.06993715465068817, -0.11344058066606522, -0.11095079779624939, -0.049010418355464935, 0.12931807339191437, -0.11817348003387451, -0.027351681143045425, -0.13071995973587036, 0.1058899313211441, -0.10427859425544739, -0.06291588395833969, 0.011118844151496887, 0.08927618712186813, -0.15515205264091492, -0.04684700071811676, 0.054207757115364075, 0.051273051649332047], [0.08655209094285965, 0.1437571495771408, -0.09490542858839035, 0.1037808358669281, -0.04818503558635712, 0.09652629494667053, 0.14620739221572876, 0.1659391224384308, 0.07188774645328522, -0.03235902264714241, -0.017268111929297447, 0.1500958353281021, -0.08749731630086899, 0.05376152694225311, -0.07289676368236542, 0.0693838894367218, -0.05355408042669296, -0.12598367035388947, 0.0038556146901100874, 0.0057497150264680386, -0.010207798331975937, -0.04702715948224068, -0.07452220469713211, 0.04076019674539566, -0.055104054510593414, -0.1032862439751625, 0.0025229102466255426, 0.08634386211633682, -0.035059601068496704, -0.025808686390519142, 0.012743226252496243, 0.1689806580543518], [-0.028327127918601036, 0.12252391874790192, 0.11165941506624222, -0.1234213337302208, 0.14816561341285706, 0.06453295797109604, 0.061858631670475006, -0.16264529526233673, 0.16090737283229828, -0.08181862533092499, 0.10941087454557419, 0.1571599245071411, -0.06918992847204208, 0.16546575725078583, -0.09744414687156677, 0.09101816266775131, 0.16622282564640045, -0.1129966452717781, -0.14784832298755646, 0.1747545450925827, 0.08237043023109436, -0.0007053696317598224, 0.01200641505420208, 0.10990528017282486, 0.06716079264879227, 0.0955909863114357, 0.01749977096915245, -0.049552787095308304, -0.09090644866228104, 0.12857477366924286, -0.16143104434013367, 0.02854159288108349], [-0.1053115501999855, 0.05718459188938141, -0.10916305333375931, -0.02943512611091137, 0.15317460894584656, -0.16312886774539948, 0.10313437134027481, 0.13178692758083344, -0.09820879250764847, 0.15904828906059265, 0.1668425053358078, 0.006800162140280008, -0.08167429268360138, -0.021325841546058655, 0.08238963037729263, -0.15493543446063995, 0.08076505362987518, 0.09975994378328323, -0.1175500676035881, 0.15653762221336365, -0.07505866885185242, 0.03294357657432556, 0.1638556271791458, -0.05792083218693733, -0.08329418301582336, -0.014872673898935318, 0.039327412843704224, 0.12962518632411957, -0.1010216549038887, -0.11963323503732681, -0.054707493633031845, -0.12236197292804718], [-0.023287208750844002, -0.020941272377967834, 0.16225899755954742, -0.16098688542842865, 0.12506292760372162, 0.16966181993484497, 0.0801672637462616, -0.13095904886722565, 0.017562465742230415, -0.14537313580513, -0.09524945169687271, 0.09452813118696213, 0.09128750115633011, 0.0004987025749869645, 0.11638748645782471, 0.02104973793029785, 0.14655956625938416, 0.12935709953308105, -0.08642898499965668, 0.10474006086587906, 0.13005386292934418, 0.1654137521982193, -0.16844114661216736, -0.15751326084136963, 0.1261591911315918, -0.14422562718391418, 0.12552134692668915, 0.10535795241594315, -0.14529621601104736, -0.1552371084690094, -0.10821256041526794, 0.043808065354824066], [-0.13582561910152435, 0.07049066573381424, 0.10206889361143112, -0.032583873718976974, -0.1597844511270523, 0.06282219290733337, -0.08341634273529053, 0.05218460410833359, 0.037850525230169296, -0.047538820654153824, -0.029986701905727386, 0.09512531012296677, -0.06360148638486862, 0.12329050898551941, -0.11291631311178207, -0.06431442499160767, -0.1714690625667572, 0.007998291403055191, -0.12704284489154816, -0.09666790813207626, 0.05209171399474144, 0.021462544798851013, 0.14006753265857697, 0.14116698503494263, 0.1085987314581871, -0.009511953219771385, 0.019353346899151802, -0.001447259564884007, 0.04270750656723976, 0.013810447417199612, -0.08969279378652573, -0.10632796585559845], [-0.1124766618013382, 0.11685095727443695, 0.12655651569366455, 0.14318224787712097, 0.003059755777940154, -0.033106327056884766, 0.004207604099065065, 0.1117687001824379, 0.06979058682918549, 0.05873601511120796, 0.04109366238117218, -0.05104215070605278, -0.07030817121267319, -0.12375789880752563, 0.03220605105161667, -0.0799868181347847, -0.1370304375886917, -0.13663487136363983, -0.17396968603134155, -0.03529153764247894, 0.06479323655366898, -0.15245310962200165, 0.01413660030812025, -0.0832609087228775, 0.027475930750370026, 0.12793906033039093, -0.13155558705329895, 0.17243723571300507, 0.0711650550365448, 0.08645886182785034, -0.10721077024936676, -0.0026972508057951927], [0.03654641658067703, 0.08666419982910156, -0.04569794982671738, 0.15849971771240234, 0.14939557015895844, 0.1759762167930603, 0.14663954079151154, 0.09825824946165085, -0.020386261865496635, -0.029404928907752037, 0.09586884081363678, -0.15157391130924225, -0.025662921369075775, -0.06084616109728813, 0.11442679166793823, 0.10959584265947342, -0.0874362662434578, 0.03193017840385437, -0.14724905788898468, -0.016984842717647552, 0.12882272899150848, 0.04254816845059395, -0.17639456689357758, 0.027658427134156227, 0.12120386213064194, -0.14952315390110016, 0.07753382623195648, 0.12666141986846924, 0.07505394518375397, 0.0053133475594222546, 0.04099198058247566, 0.14907203614711761], [-0.1734093874692917, 0.10062838345766068, 0.041457872837781906, -0.16224795579910278, 0.02709091827273369, 0.03576233610510826, -0.06110768020153046, 0.035485684871673584, 0.13584719598293304, -0.11963627487421036, 0.007282047998160124, 0.15937653183937073, -0.08800148218870163, 0.14527879655361176, -0.10675528645515442, -0.1701936274766922, 0.1429993063211441, -0.11970246583223343, -0.14947670698165894, 0.1558658927679062, -0.01888732984662056, -0.13869349658489227, -0.15566839277744293, -0.15446509420871735, -0.09171091020107269, 0.16367077827453613, -0.16354496777057648, 0.11268594115972519, 0.14495839178562164, -0.10336174815893173, -0.0034319967962801456, -0.13520213961601257], [0.17658326029777527, 0.1639503389596939, -0.17173339426517487, -0.1468351036310196, -0.14408917725086212, 0.15809720754623413, -0.07600001990795135, -0.06275899708271027, -0.018977545201778412, 0.01642281375825405, 0.06077189743518829, 0.13296209275722504, 0.15508785843849182, -0.15436550974845886, 0.05291924625635147, 0.15483784675598145, -0.17296549677848816, 0.11918066442012787, -0.1555217206478119, 0.03202338516712189, -0.08462722599506378, 0.0859861895442009, 0.06577346473932266, 0.0045145172625780106, 0.058030035346746445, 0.058014947921037674, -0.1319200098514557, 0.15703165531158447, 0.13228625059127808, -0.158807173371315, 0.1726463884115219, 0.10486572235822678], [-0.1592358499765396, 0.14356458187103271, 0.023372745141386986, -0.08813883364200592, -0.027270570397377014, 0.08513448387384415, 0.11778634041547775, 0.02759341523051262, 0.15222038328647614, 0.13444003462791443, -0.138551265001297, -0.1655469834804535, -0.10762090235948563, 0.0418739877641201, -0.018481412902474403, -0.01564118079841137, -0.17586010694503784, -0.04207252338528633, -0.025733474642038345, -0.061822641640901566, -0.06331782042980194, 0.007363707758486271, -0.10772082954645157, -0.10461277514696121, -0.1757148802280426, -0.12276152521371841, -0.1397916078567505, 0.08852412551641464, 0.16735970973968506, 0.11696163564920425, -0.008149893954396248, -0.02005705237388611], [0.03246268257498741, 0.10507223755121231, 0.08100461959838867, 0.053625162690877914, -0.08762803673744202, 0.05578059330582619, 0.1211162582039833, -0.08447524160146713, -0.17297391593456268, -0.08316531777381897, 0.04782379791140556, 0.02391325682401657, -0.13183808326721191, 0.061754826456308365, -0.12008435279130936, 0.12828077375888824, -0.12031354755163193, 0.08385593444108963, 0.00820986833423376, 0.13308028876781464, 0.17431817948818207, 0.1465565413236618, 0.13787448406219482, -0.13479988276958466, -0.015347311273217201, -0.01729557104408741, -0.16613347828388214, 0.14270281791687012, -0.0984184518456459, -0.11227081716060638, 0.024588491767644882, 0.17311175167560577], [0.13449044525623322, 0.04106093570590019, 0.10179372131824493, -0.05552707985043526, 0.054640986025333405, 0.04133901745080948, -0.08020581305027008, 0.016683997586369514, 0.08004962652921677, -0.013172274455428123, 0.053778864443302155, -0.0871114656329155, -0.08892757445573807, -0.14633581042289734, -0.14157520234584808, -0.1548701524734497, -0.0806981697678566, -0.005514561664313078, -0.09432747215032578, -0.12474432587623596, -0.1630951166152954, -0.03012949600815773, -0.016827793791890144, -0.0014599246205762029, -0.1430341750383377, -0.02282457984983921, -0.13872496783733368, 0.021173719316720963, 0.034985803067684174, 0.15552495419979095, 0.1240198165178299, 0.13039618730545044], [-0.05659910663962364, 0.09136991947889328, -0.03439602255821228, -0.06289047002792358, 0.14182016253471375, 0.1366223394870758, 0.16529814898967743, -0.03873324766755104, 0.05089952424168587, -0.14044331014156342, -0.050760358572006226, -0.1464165449142456, -0.03126756474375725, -0.03719373047351837, 0.09202751517295837, 0.06851012259721756, 0.005456099286675453, -0.1499636024236679, -0.05588263273239136, -0.1014212891459465, 0.01175233256071806, 0.17541560530662537, -0.03258414939045906, -0.023210564628243446, 0.0788547694683075, -0.1453963816165924, -0.07289912551641464, 0.013696609064936638, 0.08517216145992279, 0.08876633644104004, -0.007872757501900196, -0.052105095237493515], [-0.041021231561899185, 0.11500150710344315, -0.14807112514972687, 0.04441413655877113, -0.15783336758613586, -0.13613061606884003, 0.05150292068719864, -0.13174580037593842, -0.0490315780043602, 0.12022674828767776, -0.1277099996805191, -0.15697091817855835, 0.1572181135416031, 0.039715226739645004, 0.11430724710226059, 0.07525024563074112, -0.1373801976442337, -0.04536890983581543, -0.06489845365285873, 0.019179997965693474, 0.02592507377266884, 0.07603877037763596, -0.08709315210580826, 0.04967579245567322, -0.038604721426963806, -0.096715047955513, -0.08284055441617966, 0.04175475612282753, -0.06484054774045944, -0.03831399232149124, 0.07027477025985718, 0.16436874866485596], [0.13813325762748718, -0.01006479375064373, -0.07006361335515976, 0.010304714553058147, -0.03207632154226303, -0.05120041221380234, 0.1590977907180786, 0.10116063058376312, -0.08622511476278305, -0.14454960823059082, -0.170244961977005, -0.14735789597034454, -0.06304632872343063, 0.07660689204931259, 0.013379116542637348, -0.044819630682468414, 0.13432127237319946, 0.06362258642911911, 0.04119519144296646, -0.1504107564687729, 0.07426668703556061, 0.008837224915623665, 0.15266332030296326, -0.10426276922225952, -0.11731332540512085, 0.0816253125667572, -0.038872670382261276, -0.17370253801345825, 0.15099549293518066, -0.01714797131717205, 0.13864801824092865, -0.12775972485542297], [-0.10285990685224533, -0.15600204467773438, 0.0496375635266304, -0.05911453813314438, 0.04160688444972038, -0.09297232329845428, -0.014221020974218845, 0.15765778720378876, -0.015213263221085072, -0.026891816407442093, 0.03570246696472168, -0.020479068160057068, 0.1084572821855545, -0.1468265950679779, -0.01018417440354824, 0.1576390266418457, -0.06402222067117691, -0.01585414819419384, 0.08681776374578476, 0.048656366765499115, 0.13458238542079926, -0.09684129804372787, -0.0939827486872673, -0.04015987738966942, -0.14239691197872162, -0.05122273042798042, -0.07313355058431625, -0.03932124003767967, 0.044822562485933304, -0.11346165090799332, 0.01967008225619793, -0.16667063534259796], [0.06599263101816177, 0.15876823663711548, 0.1422492116689682, -0.03354876488447189, 0.11266732960939407, 0.0021081643644720316, -0.17594677209854126, -0.010838146321475506, 0.14086009562015533, -0.050356484949588776, 0.1333865523338318, -0.015772340819239616, 0.05740128830075264, -0.06133649870753288, 0.1728263944387436, 0.07586885988712311, -0.04882478341460228, 0.10746898502111435, -0.054909925907850266, -0.04293012619018555, 0.0011459095403552055, 0.01556843426078558, -0.1700987070798874, -0.12805795669555664, -0.10050748288631439, 0.025805482640862465, 0.0059796893037855625, -0.08506432920694351, 0.024840382859110832, 0.1456112414598465, -0.07057496160268784, 0.06855328381061554], [-0.004113300703465939, 0.029476366937160492, 0.04319655895233154, -0.148577481508255, 0.16107700765132904, 0.17602509260177612, 0.13988831639289856, 0.04400470107793808, 0.17561396956443787, 0.11230029910802841, -0.17471806704998016, 0.07266715168952942, -0.09002786129713058, 0.0054694595746695995, -0.10449537634849548, -0.009972007013857365, 0.059573959559202194, 0.10213369876146317, -0.05136973783373833, -0.1127585619688034, 0.13965079188346863, -0.17306435108184814, 0.0028397070709615946, 0.01668686419725418, 0.04114185646176338, -0.08933939039707184, 0.12669196724891663, -0.04304900020360947, -0.12487702071666718, -0.15029698610305786, 0.06074772775173187, 0.1738593578338623], [0.09517046064138412, -0.09498558938503265, 0.024477645754814148, 0.10249514877796173, 0.0568745993077755, -0.13456524908542633, -0.11909434199333191, 0.10838675498962402, 0.004451137036085129, 0.04032007232308388, 0.12516707181930542, 0.04723688215017319, -0.06664330512285233, -0.011392355896532536, -0.15354128181934357, -0.010152826085686684, -0.005227874033153057, 0.0881606861948967, -0.07058659195899963, 0.1288122981786728, -0.015114912763237953, -0.12257437407970428, 0.09749048948287964, -0.033918604254722595, -0.04885761812329292, -0.006639337167143822, -0.17185147106647491, 0.006368163041770458, -0.011032843962311745, 0.026530597358942032, 0.035095006227493286, 0.09074091911315918], [-0.11444105952978134, 0.16231505572795868, -0.03966686502099037, -0.06691478192806244, 0.05932347849011421, -0.0077067408710718155, -0.052085813134908676, -0.08993665128946304, -0.04754626005887985, -0.04926804080605507, 0.1414865255355835, -0.02151891589164734, 0.08026325702667236, -0.1337287873029709, 0.07340507954359055, 0.13666461408138275, 0.040870387107133865, 0.003125462681055069, -0.04532866179943085, -0.02334018610417843, -0.10833560675382614, -0.1568729728460312, 0.1347009241580963, 0.03865553066134453, 0.16362746059894562, 0.030751751735806465, 0.055903516709804535, 0.1065799817442894, -0.07248657196760178, 0.013888861052691936, 0.07950716465711594, 0.03581731766462326], [0.17180542647838593, 0.05449052155017853, 0.09172184765338898, -0.13137821853160858, -0.047019846737384796, 0.12171769142150879, -0.05641014128923416, 0.09401785582304001, -0.16931018233299255, -0.03382497280836105, -0.036342132836580276, 0.16647806763648987, -0.09964785724878311, 0.11754412204027176, 0.16701072454452515, 0.012974000535905361, 0.014476662501692772, 0.03699842095375061, -0.038964442908763885, 0.15553006529808044, -0.17132531106472015, 0.03737799450755119, 0.06801070272922516, 0.026927242055535316, -0.08356998860836029, -0.03675851970911026, 0.07497625052928925, 0.01485252846032381, 0.15172940492630005, -0.005708263721317053, 0.16752474009990692, 0.0496758334338665], [0.0900786891579628, 0.14446626603603363, -0.10697025805711746, -0.1516055017709732, 0.07757053524255753, -0.10246541351079941, -0.0640738308429718, -0.06974614411592484, 0.03778671473264694, 0.006778330076485872, -0.10963906347751617, -0.17556782066822052, 0.0384199284017086, -0.15122777223587036, 0.11502732336521149, -0.046850014477968216, 0.03456125780940056, -0.08057746291160583, 0.15619002282619476, 0.009520530700683594, -0.05727040022611618, 0.08635231852531433, 0.12235600501298904, -0.00850698258727789, 0.14973630011081696, -0.041884757578372955, 0.13417451083660126, 0.16451838612556458, -0.0677296444773674, -0.1081351786851883, 0.0957469567656517, -0.09500341862440109], [0.03502720221877098, -0.11410753428936005, 0.15016551315784454, 0.05568428710103035, 0.10101659595966339, -0.0881282165646553, -0.10171075910329819, -0.0655025839805603, 0.05501208454370499, 0.1752224564552307, 0.11961495131254196, 0.03901940584182739, -0.13530007004737854, 0.06949039548635483, 0.15958638489246368, -0.1163596510887146, -0.05504173785448074, -0.020559821277856827, 0.058970753103494644, -0.06249096244573593, 0.14836379885673523, -0.1656714677810669, 0.14488933980464935, 0.07563302665948868, -0.09790139645338058, 0.01570204831659794, -0.1229383572936058, -0.11702770739793777, 0.0534023754298687, 0.14928469061851501, -0.0867384821176529, 0.10533435642719269], [-0.11644967645406723, 0.16108761727809906, -0.1071443036198616, -0.06198867782950401, 0.06620354950428009, -0.0592021606862545, -0.07973206043243408, -0.04309498146176338, -0.03746315464377403, -0.1433974802494049, 0.14209862053394318, 0.07327163964509964, -0.15743577480316162, -0.09890016913414001, 0.0397641584277153, 0.09123633801937103, -0.028410978615283966, -0.003124029841274023, 0.13401328027248383, 0.12435176968574524, 0.013147329911589622, 0.16562706232070923, 0.12136366218328476, -0.053289737552404404, -0.1598750650882721, 0.1452643722295761, -0.1092655137181282, 0.1406293660402298, 0.0591166652739048, -0.12098526954650879, 0.001623222604393959, -0.12693950533866882], [0.07723740488290787, -0.1665702611207962, -0.07070508599281311, -0.032650530338287354, -0.12252261489629745, 0.0768730491399765, 0.10124190896749496, -0.11188898235559464, 0.03896109387278557, -0.06608113646507263, 0.008371290750801563, 0.09971440583467484, 0.11743616312742233, -0.034074440598487854, 0.01822981797158718, -0.13993683457374573, 0.14743134379386902, 0.09718941152095795, 0.17437784373760223, 0.0029264241456985474, -0.14937999844551086, 0.03195982798933983, 0.07172377407550812, -0.017220253124833107, -0.08889082074165344, -0.015350640751421452, -0.12328416854143143, 0.10922639816999435, -0.13670296967029572, -0.02756844274699688, 0.040528133511543274, 0.10156665742397308], [-0.09094996750354767, -0.10375338047742844, -0.0928938016295433, 0.021791057661175728, -0.08497104048728943, 0.12832340598106384, 0.0970895066857338, 0.04149232804775238, -0.11498024314641953, 0.17375047504901886, -0.09890301525592804, -0.06766436249017715, -0.15552769601345062, -0.08752627670764923, 0.07270841300487518, -0.1683764010667801, -0.0464538149535656, 0.15356534719467163, 0.002444664714857936, -0.057874660938978195, -0.014297744259238243, -0.1543256789445877, -0.06360482424497604, 0.09267544001340866, -0.06717661768198013, -0.14276963472366333, 0.008770439773797989, 0.1692948043346405, 0.053151704370975494, 0.007022395730018616, -0.07097391039133072, -0.09137137979269028], [-0.13647052645683289, -0.004625068511813879, 0.13137096166610718, 0.10333088040351868, -0.029379725456237793, 0.13818147778511047, -0.006177800707519054, 0.059309571981430054, 0.04260070621967316, -0.15802308917045593, -0.168645977973938, 0.06689288467168808, -0.08162883669137955, 0.08473943918943405, -0.16675379872322083, 0.06337396055459976, 0.0547252781689167, -0.031516991555690765, 0.15696169435977936, 0.14087361097335815, -0.0444323867559433, -0.074543297290802, 0.018346691504120827, -0.09973398596048355, 0.1493237465620041, 0.005030099768191576, 0.12648241221904755, -0.08943567425012589, 0.10286172479391098, -0.05726656690239906, -0.1581423282623291, 0.07864749431610107], [0.04907406121492386, 0.11858654022216797, -0.05465516820549965, -0.03874277323484421, 0.07094971090555191, -0.08114323765039444, -0.01657932624220848, 0.1142461746931076, -0.05311160162091255, -0.003902144730091095, -0.16986556351184845, 0.09868593513965607, -0.025489022955298424, -0.1085309162735939, -0.08185333013534546, -0.10179964452981949, -0.14124885201454163, 0.16933917999267578, -0.003238289849832654, -0.09883136302232742, -0.015392407774925232, 0.08068720996379852, -0.08357463032007217, 0.07740900665521622, 0.10689964145421982, -0.13627620041370392, 0.10282452404499054, 0.0069970302283763885, -0.05814532935619354, 0.17497359216213226, -0.06522584706544876, -0.01976398378610611], [-0.12185943126678467, -0.0769570916891098, -0.10080818086862564, 0.08976812660694122, 0.04306427761912346, -0.1519983857870102, -0.015451561659574509, 0.1360950767993927, 0.1354793757200241, 0.022806396707892418, -0.13299988210201263, 0.02680303528904915, -0.15936540067195892, 0.08537746220827103, -0.07728802412748337, 0.13753387331962585, -0.03738360106945038, 0.14259397983551025, 0.09133177995681763, -0.14303548634052277, 0.07942672818899155, -0.03436407446861267, 0.030296945944428444, 0.026902206242084503, -0.04200755059719086, -0.11514128744602203, -0.1004515290260315, 0.05841744691133499, 0.13881520926952362, -0.0915897786617279, -0.0495721735060215, -0.13244695961475372], [-0.041735727339982986, 0.12759970128536224, 0.094296894967556, 0.1516258716583252, -0.16474102437496185, 0.11257226765155792, 0.038364820182323456, 0.03713655844330788, -0.13218294084072113, 0.03402997553348541, -0.03751707822084427, 0.09828811138868332, -0.17327450215816498, -0.01740163192152977, -0.08731741458177567, 0.15765880048274994, 0.1318395584821701, -0.12758693099021912, -0.1201920211315155, -0.10021430999040604, -0.04434419423341751, -0.13292719423770905, -0.05004234239459038, 0.039449892938137054, -0.09949924796819687, -0.1254025548696518, 0.03837055340409279, -0.0715658962726593, -0.16893260180950165, -0.026861008256673813, 0.08749672770500183, 0.11701235920190811], [0.0058290776796638966, 0.014444904401898384, 0.0047655231319367886, 0.06377730518579483, 0.08175384253263474, 0.09391149878501892, 0.09005165100097656, -0.08471992611885071, -0.1035366803407669, -0.14721788465976715, -0.16748709976673126, 0.03521883487701416, 0.046581558883190155, 0.012597187422215939, 0.15408995747566223, -0.14213724434375763, -0.01818099059164524, 0.17018140852451324, 0.02360004372894764, -0.032847482711076736, -0.10803014785051346, -0.05332969129085541, -0.07295361906290054, 0.0457032211124897, 0.06018660590052605, 0.07270883023738861, -0.04567380249500275, 0.16784727573394775, 0.059390660375356674, -0.03315329924225807, 0.05339040607213974, -0.06590966135263443], [0.1462521255016327, 0.06868261098861694, 0.16771234571933746, -0.07273715734481812, 0.12345770746469498, -0.14180471003055573, 0.14310342073440552, 0.15313036739826202, 0.024705281481146812, -0.001987666357308626, -0.0016795519040897489, -0.02990436926484108, 0.018170896917581558, 0.04442419111728668, 0.15371859073638916, -0.09128495305776596, 0.02039249986410141, -0.11996565014123917, -0.04588921368122101, 0.1166779026389122, -0.02810514159500599, 0.11137032508850098, 0.12198051810264587, -0.11762025952339172, -0.054913971573114395, -0.11294012516736984, -0.06772056221961975, -0.018044350668787956, 0.15435859560966492, -0.1103287935256958, 0.02256814017891884, 0.1410270780324936], [-0.07722459733486176, 0.09343516081571579, -0.09373696893453598, 0.007226624991744757, -0.13929738104343414, 0.10815977305173874, 0.010397395119071007, -0.12992246448993683, 0.0030530544463545084, 0.01565905101597309, -0.06200823187828064, 0.16346751153469086, 0.02981855720281601, -0.006394878029823303, -0.026916051283478737, -0.03138875961303711, -0.08690087497234344, 0.030873682349920273, 0.051781997084617615, -0.1694212406873703, -0.12333843111991882, -0.14390897750854492, -0.02195878140628338, -0.05122934654355049, -0.06979233771562576, -0.019902626052498817, -0.051578279584646225, 0.08239822834730148, -0.11971394717693329, -0.026738423854112625, -0.09085699170827866, -0.0964834913611412], [-0.1728566735982895, -0.02181592583656311, 0.14081180095672607, -0.1311166137456894, 0.11977291107177734, -0.06806375831365585, -0.10342478007078171, -0.04987569525837898, 0.030938247218728065, 0.08875804394483566, 0.15514284372329712, -0.11713548749685287, -0.027632175013422966, -0.1263277381658554, -0.010989158414304256, 0.03632744401693344, 0.0768645778298378, -0.09528657048940659, 0.028697051107883453, 0.036635030061006546, 0.05229917913675308, -0.15929114818572998, 0.15700708329677582, -0.08620885014533997, 0.12498154491186142, 0.14120995998382568, -0.06067207083106041, 0.06108628958463669, -0.022554632276296616, 0.13801069557666779, 0.10782603174448013, -0.15445585548877716], [-0.0999056026339531, -0.10127006471157074, -0.05542708933353424, -0.1599692404270172, -0.0811149999499321, -0.017659908160567284, 0.0995899885892868, 0.05122439190745354, -0.07202459871768951, 0.008506561629474163, 0.042517803609371185, -0.03223804011940956, 0.030473919585347176, 0.014738837257027626, 0.13649028539657593, 0.026710396632552147, -0.09343433380126953, 0.1558801531791687, -0.059082042425870895, -0.11022666841745377, -0.1151900514960289, 0.16357851028442383, -0.03235674649477005, 0.0054264068603515625, 0.0027407673187553883, 0.06993670761585236, -0.12003959715366364, 0.0674530565738678, -0.020086387172341347, 0.010313207283616066, -0.15820354223251343, -0.08286028355360031], [-0.16425056755542755, -0.17418885231018066, -0.12189742922782898, 0.17412641644477844, -0.1432461142539978, 0.10814408957958221, -0.008729939348995686, -0.06487113982439041, -0.07119511067867279, -0.14989444613456726, 0.12679632008075714, 0.11544706672430038, -0.05867823213338852, -0.0878184586763382, 0.03836686536669731, 0.018673455342650414, 0.03881711885333061, -0.04882889240980148, 0.014589911326766014, -0.058874763548374176, 0.10127150267362595, 0.001195137039758265, -0.07046639174222946, -0.04457676038146019, 0.16005733609199524, 0.041977059096097946, 0.01956580951809883, 0.0630905032157898, -0.020656948909163475, 0.10130829364061356, 0.023190902546048164, -0.08411615341901779], [-0.1765047162771225, -0.10581309348344803, -0.03226659446954727, 0.01603221893310547, 0.06694917380809784, -0.1651076376438141, 0.1295892894268036, 0.026679206639528275, -0.029135357588529587, 0.07141420990228653, 0.11246949434280396, -0.10211983323097229, 0.1532149761915207, -0.17158633470535278, 0.007768148556351662, 0.0020211099181324244, 0.1750861406326294, -0.08659470081329346, 0.10462582111358643, 0.008824116550385952, 0.17612437903881073, 0.08050665259361267, 0.07178937643766403, 0.14802375435829163, -0.05850502848625183, 0.12519879639148712, -0.07325341552495956, 0.12445340305566788, -0.1603645384311676, -0.019006606191396713, -0.10544279217720032, 0.17167602479457855], [-0.0011579003185033798, -0.0810609683394432, -0.12046068906784058, 0.1579323709011078, 0.14789146184921265, -0.041208088397979736, -0.1230989545583725, -0.016130315139889717, 0.162649467587471, -0.09644783288240433, -0.12970101833343506, 0.1378556787967682, 0.07439137995243073, -0.03024902381002903, 0.17111077904701233, -0.058173272758722305, -0.01242794655263424, -0.1757587343454361, -0.12315083295106888, -0.11676035821437836, 0.023142265155911446, 0.043177422136068344, 0.08116330206394196, -0.003096170723438263, 0.15338291227817535, -0.047058578580617905, -0.10990127921104431, 0.10393867641687393, -0.10866276919841766, 0.14389601349830627, -0.16691935062408447, 0.16836442053318024], [-0.0006576899322681129, -0.055140234529972076, -0.09360502660274506, -0.16040848195552826, 0.1311340183019638, 0.12758731842041016, 0.16685234010219574, 0.05278831720352173, 0.029759643599390984, -0.12370078265666962, -0.056867312639951706, -0.021402085199952126, 0.12016787379980087, 0.08912315219640732, -0.11260706186294556, -0.0037984326481819153, -0.14263790845870972, -0.11484111100435257, -0.08735401928424835, 0.003915442153811455, -0.13614988327026367, 0.008262931369245052, -0.151634082198143, -0.1282823532819748, 0.07892724126577377, -0.07260971516370773, 0.0345979742705822, -0.10956910252571106, -0.09405642002820969, 0.0024811734911054373, -0.13119512796401978, 0.09774825721979141], [-0.012309492565691471, 0.1249535009264946, -0.04998021945357323, -0.02700641378760338, -0.07786630094051361, -0.03802400082349777, -0.04231598228216171, -0.003258140990510583, 0.09075162559747696, 0.0644579529762268, -0.036974143236875534, 0.09259466826915741, 0.15667060017585754, -0.04891936108469963, 0.1720992624759674, -0.04865288734436035, 0.17046906054019928, -0.11265397071838379, -0.013783957809209824, -0.13727614283561707, 0.09682624787092209, 0.15143445134162903, 0.028556575998663902, -0.15602533519268036, 0.1077667698264122, -0.07488586753606796, -0.09414643049240112, -0.059676796197891235, 0.000998690607957542, 0.06485413759946823, 0.05626869574189186, 0.12172030657529831], [-0.16173960268497467, 0.11118749529123306, 0.16316382586956024, -0.10431656986474991, -0.16525287926197052, -0.15811710059642792, 0.037457503378391266, -0.13252069056034088, 